svm_type c_svc
kernel_type rbf
gamma 3
nr_class 2
total_sv 1033
rho 1.20156
label 1 -1
probA -17.4011
probB -14.4029
nr_sv 180 853
SV
4 1:0.192219 2:0.015296 3:0.006021 5:0.000325 6:0.010021 7:0.040155 8:0.00104 11:0.002645 12:0.003579 17:0.009605 18:0.000875 19:0.002357 21:0.201867 22:0.019136 23:0.010688 24:2.7e-05 26:0.000347 27:0.006261 28:0.003248 32:5e-06 37:0.162059 38:0.012891 39:0.000373 42:0.012016 43:0.114848 44:0.001035 47:0.000859 48:0.001301 58:0.000181 59:0.0232 60:5e-06 63:0.065776 64:0.079739 
4 1:0.736437 2:0.054715 3:0.000144 4:1.6e-05 5:0.003819 6:0.051131 7:0.117627 8:0.000235 11:6.9e-05 12:0.000213 16:0.00024 17:0.000283 18:0.000101 21:0.000565 22:0.027493 23:0.001957 24:5e-06 26:6.4e-05 27:0.000395 28:7.5e-05 32:1.6e-05 38:5.3e-05 39:1.1e-05 42:4.3e-05 43:0.003701 44:0.000117 47:5.9e-05 48:0.000181 59:3.2e-05 60:1.1e-05 63:5e-06 64:0.000187 
4 1:0.286411 2:0.016192 3:0.000987 4:0.000464 5:0.001003 6:0.015067 7:0.002837 8:0.004 11:0.000357 12:0.004224 16:0.000533 17:0.017664 18:0.002187 19:0.00048 20:0.000384 21:0.011141 22:0.121003 23:0.016053 24:0.002277 26:0.003056 27:0.010965 28:0.003333 32:0.000693 33:0.000128 34:5.3e-05 35:1.1e-05 36:5e-06 37:0.002672 38:0.024677 39:0.001035 40:0.000603 42:0.020741 43:0.061637 44:0.00752 47:0.000587 48:0.004704 53:1.6e-05 54:0.000384 55:8e-05 56:8e-05 57:0.000133 58:0.018448 59:0.033936 60:0.001776 62:5e-06 63:0.029419 64:0.270037 
4 1:0.238758 2:0.018312 3:0.000173 5:0.001003 6:0.007877 7:0.002006 8:0.000735 11:0.000106 12:0.001448 16:0.000847 17:0.013928 18:0.006752 21:0.019259 22:0.150306 23:0.021733 24:0.000273 26:0.001526 27:0.008184 28:0.000953 32:0.001097 37:0.070741 38:0.01493 39:0.003638 41:0.044256 42:0.0161 43:0.065794 44:0.004797 47:0.002618 48:0.006301 53:0.000128 57:0.026162 58:0.018969 59:0.004011 60:0.000641 61:0.000635 62:0.002412 63:0.010072 64:0.212518 
4 1:0.445037 22:0.260793 43:0.151872 64:0.142299 
4 1:0.128347 2:0.043355 3:1.1e-05 5:0.01728 6:0.113152 7:0.000128 8:1.6e-05 11:5e-06 12:3.7e-05 16:2.7e-05 17:0.000832 18:0.000512 21:0.005637 22:0.240597 23:0.078405 26:0.001461 27:0.051904 28:2.7e-05 32:1.1e-05 38:0.004187 39:0.000187 42:0.006576 43:0.055365 44:0.000352 47:0.000203 48:0.000187 59:0.031365 60:1.6e-05 63:0.057568 64:0.162251 
4 1:0.127323 2:0.014459 3:0.001664 4:0.000293 5:0.000693 6:0.008139 7:0.007003 8:0.00016 9:0.000389 10:3.7e-05 11:0.003083 12:0.019547 16:0.0168 17:0.025211 18:0.006811 19:0.000288 20:9.1e-05 21:0.015931 22:0.193547 23:0.016837 24:0.000453 25:0.001115 26:0.001861 27:0.022933 28:0.004981 31:1.6e-05 32:0.018453 33:0.000693 34:2.1e-05 37:0.003755 38:0.106837 39:0.004549 40:0.000155 41:0.000149 42:0.043707 43:0.183253 44:0.006021 46:7.5e-05 47:0.001856 48:0.020235 53:0.000112 54:5.3e-05 56:5e-06 58:0.000656 59:0.012907 60:0.000875 62:3.2e-05 63:0.005557 64:0.100379 
4 1:0.145486 2:0.073595 3:0.120628 4:0.028931 6:0.020713 7:0.002314 8:0.002248 10:1.8e-05 11:9.1e-05 12:0.000314 16:0.000151 17:0.000284 18:0.004586 19:0.000393 20:0.000157 22:0.072544 23:0.063063 24:0.008211 26:0.000151 27:0.019323 28:0.000653 32:4.2e-05 34:4.8e-05 35:6e-06 38:0.001366 39:0.00794 40:0.001366 42:6.6e-05 43:0.165601 44:0.031094 47:0.000308 48:0.007631 59:0.000924 60:0.001698 63:0.000598 64:0.217456 
4 1:0.204209 2:0.05438 3:0.119124 4:0.059146 5:0.009675 6:0.007273 7:0.007245 8:0.00595 10:0.000187 12:7.7e-05 17:0.001504 18:0.0093 19:0.005813 20:0.000711 21:0.000314 22:0.050634 23:0.033504 24:0.028556 26:0.001504 27:0.003295 28:0.001157 32:6e-06 33:2.8e-05 37:7.7e-05 38:0.020039 39:0.016689 40:0.017499 42:0.001085 43:0.098248 44:0.03562 47:9.9e-05 48:0.016612 54:0.000452 58:0.000386 59:0.031085 60:0.030039 63:0.000744 64:0.127736 
4 1:0.106021 2:0.004027 3:0.000299 5:0.016859 6:0.007232 7:0.000411 11:5e-06 17:0.005904 18:0.00096 19:0.000891 20:1.6e-05 21:0.074971 22:0.391083 23:0.006699 24:9.1e-05 26:0.004213 27:0.010352 28:0.000853 37:0.00184 38:0.092763 39:0.000896 40:2.1e-05 41:0.000176 42:0.027856 43:0.034533 44:0.006784 47:0.001573 48:0.018507 53:5e-06 54:1.6e-05 58:0.000395 59:0.002971 60:0.000299 63:0.002059 64:0.178421 
4 1:0.162464 2:0.001685 3:0.001275 4:6.9e-05 5:0.047125 6:0.051648 7:0.000197 8:2.1e-05 9:1.1e-05 10:0.013056 11:0.001637 15:3.2e-05 17:0.004853 18:0.000539 19:0.000101 21:0.012869 22:0.163408 23:0.002144 24:0.000373 25:1.6e-05 26:0.024091 27:0.012853 28:9.1e-05 31:0.000341 32:6.9e-05 33:0.000421 34:1.6e-05 37:0.001829 38:0.031259 39:0.001445 40:2.1e-05 41:0.000485 42:0.132901 43:0.166432 44:0.000603 47:0.003387 48:0.001728 53:0.000117 54:5e-06 57:0.008736 58:0.003531 59:0.004235 60:0.000288 62:0.00016 63:0.008261 64:0.133168 
4 1:0.222251 2:0.003323 3:5e-06 5:0.022789 6:0.01312 7:6.4e-05 11:1.6e-05 17:0.003221 18:0.001243 21:0.01624 22:0.27672 23:0.002571 25:0.000299 26:0.008256 27:0.005621 33:5e-06 37:0.000101 38:0.018469 39:0.000651 41:0.000373 42:0.021168 43:0.100651 44:0.000117 46:2.1e-05 47:0.002411 48:0.00032 58:5e-06 59:0.003456 60:0.000128 62:3.7e-05 63:0.05272 64:0.223627 
4 1:0.232572 2:0.058398 3:0.000627 4:6e-06 5:0.000614 6:0.076795 7:0.000705 10:0.000566 11:0.00091 17:0.001343 18:0.000464 19:0.000663 21:0.001771 22:0.044596 23:0.003783 24:1.2e-05 26:0.000404 27:0.003404 28:1.2e-05 37:4.8e-05 38:0.000295 39:0.000133 41:6e-06 42:0.00056 43:0.028006 44:0.000464 47:0.00094 48:0.000386 59:0.000181 60:0.000271 63:0.001367 64:0.539699 
4 1:0.179392 2:0.012096 3:0.009269 4:0.006821 5:0.008597 6:0.019189 7:0.004256 8:0.000848 10:0.000837 11:0.000976 12:0.000128 15:0.000309 16:5.9e-05 17:0.008656 18:0.000549 19:0.001035 20:0.001232 21:0.024805 22:0.261195 23:0.020656 24:0.005312 26:0.032613 27:0.022507 28:0.000875 31:0.00192 32:0.001771 33:1.1e-05 37:0.000117 38:0.006661 39:0.000229 40:0.000101 41:5e-06 42:0.077744 43:0.163157 44:0.008053 46:1.6e-05 47:0.00344 48:0.008667 53:7.5e-05 54:1.6e-05 58:0.000139 59:0.018021 60:0.000331 63:0.014997 64:0.072315 
4 1:0.258165 2:0.016213 3:0.00072 5:0.076171 6:0.022517 7:0.001195 8:1.1e-05 9:0.00024 10:0.003168 11:0.001957 12:0.000144 14:0.000432 15:0.001125 16:0.000565 17:0.026725 18:0.017701 19:0.007077 20:1.6e-05 21:0.001573 22:0.044789 23:0.012053 24:0.000277 26:0.005035 27:0.013803 28:0.000437 30:2.1e-05 31:0.001264 32:0.001557 33:0.001099 34:0.001701 35:0.003152 36:9.1e-05 37:0.000843 38:0.014293 39:0.01608 40:0.000427 42:0.002629 43:0.264064 44:0.006933 46:5e-06 47:0.002128 48:0.008832 49:0.000357 50:0.000235 51:9.6e-05 52:1.1e-05 53:3.2e-05 54:0.001349 55:0.001552 56:0.000235 58:0.000149 59:0.017717 60:0.039259 63:0.000507 64:0.101269 
4 1:0.279982 2:0.064917 3:0.081156 4:0.000459 5:0.004202 6:0.021303 7:0.005028 8:0.001275 17:0.001725 18:0.001945 19:0.001092 20:3.7e-05 21:0.000862 22:0.087936 23:0.046697 24:0.006046 26:0.000257 27:0.006138 28:0.000532 38:0.00889 39:0.009018 40:0.000743 42:0.002257 43:0.131183 44:0.010661 47:6.4e-05 48:0.001229 59:0.003404 60:0.00145 63:0.002661 64:0.216853 
4 1:0.095787 2:0.006155 3:0.001355 4:4.3e-05 5:0.015189 6:0.010261 7:0.010688 8:0.003648 9:1.1e-05 10:0.000293 11:0.015333 12:0.020005 14:5e-06 15:1.1e-05 16:0.000379 17:0.097136 18:0.002485 19:0.001275 20:6.9e-05 21:0.093824 22:0.093872 23:0.006896 24:0.001248 25:3.2e-05 26:0.004496 27:0.015963 28:0.086075 31:0.000155 32:0.014117 33:0.002336 34:5e-06 35:1.1e-05 37:0.038672 38:0.135243 39:0.001787 40:5.9e-05 41:0.0008 42:0.051595 43:0.0212 44:0.002123 46:5.9e-05 47:0.000949 48:0.005237 49:5e-06 53:0.001109 54:0.002064 55:1.1e-05 57:0.000773 58:0.040315 59:0.01528 60:0.00016 61:0.000667 62:0.004597 63:0.041168 64:0.036971 
4 1:0.26488 2:0.007634 3:0.044335 4:0.001335 5:0.000545 6:0.005592 7:0.007325 8:0.102712 11:5e-06 12:0.100932 16:0.017408 17:0.001319 18:0.000555 19:0.004188 20:0.003613 21:0.001534 22:0.050346 23:0.005503 24:0.004414 26:0.001838 27:0.002188 28:0.017791 32:0.010592 38:0.00145 39:0.001387 40:0.000147 42:0.004257 43:0.048534 44:0.003325 47:0.002346 48:0.002618 59:0.000592 60:0.000471 63:0.00267 64:0.275623 
4 1:0.318635 2:0.03632 3:0.000155 4:1.1e-05 5:0.002704 6:0.011499 7:3.7e-05 8:1.1e-05 10:1.6e-05 11:5e-06 12:1.1e-05 17:0.006331 18:0.002224 19:2.1e-05 21:0.008661 22:0.285136 23:0.005461 24:5e-06 26:0.002448 27:0.008976 28:3.7e-05 32:1.6e-05 38:0.004037 39:0.000267 42:0.004123 43:0.026965 44:0.000517 47:0.000619 48:0.001659 58:0.000267 59:0.006549 60:3.2e-05 62:0.000101 63:0.027072 64:0.239072 
4 1:0.155189 2:0.0103 3:0.000156 4:1.2e-05 5:0.020781 6:0.03579 7:0.000114 8:5.4e-05 10:0.006715 11:0.003682 12:4.8e-05 15:0.00018 16:6e-06 17:0.044757 18:0.006697 19:0.00018 21:0.06973 22:0.179628 23:0.007003 24:3.6e-05 25:3e-05 26:0.00997 27:0.024871 28:8.4e-05 31:0.000336 32:4.8e-05 33:0.000396 37:0.044186 38:0.076895 39:0.000769 41:9.6e-05 42:0.026294 43:0.08973 44:0.004775 47:0.001195 48:0.011219 53:0.000396 54:3e-05 57:0.001574 58:0.002378 59:0.007297 60:0.000402 62:4.2e-05 63:0.004775 64:0.151153 
4 1:0.565277 2:0.002489 5:0.002577 6:0.006051 7:0.00092 17:0.010015 18:7e-06 21:0.017372 22:0.104314 23:0.009569 24:0.000124 26:0.00646 27:0.023599 28:0.000431 37:3.6e-05 38:0.009927 39:0.000124 42:0.01781 43:0.131993 44:0.003489 47:0.000153 48:0.002949 58:7e-06 59:0.005234 60:2.9e-05 63:0.003314 64:0.07573 
4 1:0.823707 2:0.039333 3:0.000523 4:0.00024 5:0.00192 6:0.019253 7:0.001291 8:0.000277 10:1.1e-05 11:0.000315 12:0.000117 16:2.1e-05 17:0.004133 18:0.001888 19:5e-06 20:6.9e-05 21:0.003285 22:0.055109 23:0.002155 24:0.000235 26:0.000907 27:0.006875 28:0.000965 31:1.6e-05 32:0.000453 33:0.000101 34:2.1e-05 37:0.00136 38:0.005627 39:8.5e-05 40:1.1e-05 41:5e-06 42:0.003659 43:0.005179 44:0.000299 47:0.001019 48:0.002901 49:2.1e-05 53:0.000219 54:0.000165 56:5e-06 57:4.3e-05 58:0.000523 59:0.001664 60:3.7e-05 62:8.5e-05 63:0.001376 64:0.012491 
4 1:0.134875 2:7.5e-05 5:1.1e-05 6:1.1e-05 17:0.050283 18:0.000128 21:0.023845 22:0.02672 23:0.000459 24:1.1e-05 27:9.6e-05 28:0.000213 37:0.00024 38:0.130395 39:0.002736 40:5e-06 42:0.018427 43:0.228747 44:0.041371 48:5e-06 58:1.6e-05 59:0.341333 
4 1:0.299088 2:0.009579 3:0.001083 4:0.000619 5:0.01728 6:0.037995 7:0.001019 8:5.3e-05 10:8.5e-05 11:0.000693 12:5.9e-05 16:0.000357 17:0.01032 18:0.000475 19:5.9e-05 20:3.7e-05 21:0.006325 22:0.104117 23:0.008091 24:0.000107 25:5e-06 26:0.002549 27:0.02728 28:0.0024 31:2.1e-05 32:0.000448 33:0.000565 37:0.000565 38:0.002315 39:0.000197 41:5.9e-05 42:0.006192 43:0.052267 44:0.019115 47:0.00096 48:0.015899 53:8e-05 54:2.7e-05 57:0.000165 58:0.147813 59:0.043456 60:2.1e-05 62:0.004581 63:0.067829 64:0.107749 
4 1:0.335644 22:0.423856 43:0.128763 64:0.111737 
4 1:0.073488 2:0.065531 3:0.080859 4:0.000955 5:0.0008 6:0.004331 7:0.00592 8:0.000256 9:1.1e-05 10:2.7e-05 11:0.000619 12:0.000112 16:2.7e-05 17:0.066059 18:0.008384 19:0.009104 20:0.000315 21:0.022267 22:0.089771 23:0.088155 24:0.005344 25:7.5e-05 26:0.003515 27:0.023899 28:0.000837 32:0.000128 37:0.014384 38:0.022187 39:0.011712 40:0.004608 41:2.1e-05 42:0.008011 43:0.054523 44:0.025733 46:6.9e-05 47:0.000197 48:0.004091 54:1.6e-05 55:1.6e-05 58:0.002779 59:0.01936 60:0.000688 62:4.3e-05 63:0.003184 64:0.277595 
4 1:0.411069 2:0.00836 3:0.000174 5:0.019862 6:0.044571 7:0.041339 8:0.00021 10:3e-05 11:0.005742 12:0.00791 16:0.002925 17:0.002523 18:0.000312 19:3e-05 20:6e-06 21:0.002661 22:0.063778 23:0.008727 24:0.00024 26:0.001676 27:0.011784 28:0.01976 31:6e-06 32:0.011502 37:1.2e-05 38:0.002102 39:0.000162 40:3e-05 42:0.001165 43:0.172228 44:0.003159 47:0.00042 48:0.018553 59:0.008054 60:0.001814 63:0.000739 64:0.126366 
4 1:0.060139 2:0.007269 3:0.000656 4:0.000496 5:0.000939 6:0.00128 7:3.2e-05 8:9.1e-05 11:5e-06 12:1.1e-05 17:0.0144 18:0.008053 19:0.000256 20:9.6e-05 21:0.006123 22:0.108325 23:0.0084 24:0.000176 26:0.005216 27:0.006384 28:0.000107 32:3.7e-05 38:0.018651 39:0.004251 40:4.8e-05 42:0.046315 43:0.698864 44:0.001509 47:0.001323 48:0.000149 59:5.9e-05 60:5e-06 63:4.3e-05 64:0.000293 
4 1:0.075547 2:0.006805 3:0.000165 5:0.013915 6:0.018912 7:0.00904 8:4.3e-05 10:1.1e-05 11:0.000997 12:0.000203 17:0.007093 18:0.000992 19:4.3e-05 21:0.019824 22:0.223771 23:0.027568 24:5.3e-05 26:0.014277 27:0.069189 28:0.012384 32:0.000251 38:0.009669 39:0.001376 42:0.002555 43:0.151515 44:0.013637 47:4.3e-05 48:0.01152 58:1.1e-05 59:0.072144 60:0.016496 63:0.016053 64:0.203899 
4 1:0.077547 2:0.010315 3:0.001573 5:0.002112 6:0.010997 7:0.001979 10:2.1e-05 11:0.000208 12:6.4e-05 17:0.004752 18:0.001973 19:0.00016 21:0.002288 22:0.263835 23:0.011344 25:1.6e-05 26:0.001152 27:0.010912 28:0.000336 31:1.1e-05 32:0.000363 37:5e-06 38:0.018565 39:0.002213 41:1.1e-05 42:0.005525 43:0.497899 44:0.004715 46:5e-06 47:0.000965 48:0.006032 59:0.009723 60:0.001109 63:0.001749 64:0.049525 
4 1:0.336603 2:0.035141 3:0.020528 4:0.000427 5:0.004048 6:0.016117 7:0.008619 8:0.005317 9:0.000208 11:0.000976 12:0.001301 16:0.000496 17:0.026181 18:0.001963 19:0.001669 21:0.015115 22:0.117333 23:0.01768 24:0.001371 25:0.000635 26:0.003728 27:0.010043 28:0.001371 31:2.7e-05 32:0.001755 37:0.000112 38:0.006171 39:0.001723 40:1.1e-05 42:0.006235 43:0.083755 44:0.009765 46:5e-06 47:0.001733 48:0.022171 54:5e-06 58:6.4e-05 59:0.010811 60:0.000469 63:0.011893 64:0.216427 
4 1:0.275729 2:0.013262 3:4.3e-05 5:0.014111 6:0.091975 7:0.000597 8:6e-06 10:0.001009 11:0.001551 12:0.000111 16:0.000148 17:0.005477 18:0.000283 21:0.018043 22:0.113963 23:0.001938 24:0.000332 25:0.000117 26:0.003237 27:0.012794 28:0.000585 31:0.006566 32:0.003668 38:0.003852 39:0.000462 40:4.3e-05 42:0.006923 43:0.185422 44:0.001803 46:0.000357 47:0.002622 48:0.00712 58:0.000591 59:0.178855 60:0.001397 63:0.001126 64:0.043883 
4 1:0.204233 2:0.034388 3:0.047599 4:0.04743 5:0.002621 6:0.005184 7:0.002893 8:0.008375 11:0.00011 12:0.000201 17:0.004505 18:0.002874 19:0.000343 20:5.2e-05 21:0.004906 22:0.074155 23:0.042887 24:0.012201 25:1.3e-05 26:0.000188 27:0.002783 28:0.003294 32:6e-06 33:0.000356 34:6e-06 37:0.005249 38:0.004932 39:0.025159 40:0.000466 41:0.000136 42:0.001269 43:0.167909 44:0.04532 47:5.2e-05 48:0.002401 53:5.2e-05 54:1.9e-05 57:6e-06 58:0.000123 59:0.002803 60:0.013573 62:6e-06 63:0.000498 64:0.228421 
4 1:0.482331 2:0.099301 3:0.025989 4:0.012459 5:0.001419 6:0.082917 7:0.031397 8:0.011152 10:5e-06 11:0.001691 12:0.004512 16:0.00032 17:0.000443 18:0.000272 19:3.2e-05 20:1.6e-05 21:0.001595 22:0.033291 23:0.040197 24:0.003909 26:0.000779 27:0.045872 28:0.025269 31:5e-06 32:0.002336 33:1.1e-05 37:1.6e-05 38:0.000203 39:6.9e-05 40:1.1e-05 42:0.000821 43:0.00816 44:0.006149 47:0.000293 48:0.035504 59:0.000213 60:5.3e-05 63:0.000752 64:0.040235 
4 1:0.351989 2:0.005915 3:0.001808 4:0.000101 5:0.000448 6:0.004464 7:0.012741 8:0.001413 10:5e-06 11:0.006352 12:0.029189 16:0.000288 17:0.059771 18:0.001765 19:0.000571 20:2.1e-05 21:0.043659 22:0.063013 23:0.009029 24:0.000448 25:5e-06 26:0.000315 27:0.009947 28:0.050635 31:3.7e-05 32:0.013595 33:0.000496 34:1.6e-05 35:1.1e-05 37:0.006629 38:0.036155 39:0.001637 40:0.000139 42:0.015381 43:0.012512 44:0.004917 46:2.7e-05 47:0.000267 48:0.02696 49:2.7e-05 53:0.000128 54:0.000827 55:5e-06 56:2.1e-05 57:2.1e-05 58:0.019627 59:0.028757 60:0.000736 62:0.000133 63:0.035024 64:0.142021 
4 1:0.288112 2:0.06584 3:0.014677 4:0.007979 5:0.009328 6:0.040853 7:0.004453 8:0.047131 10:0.000699 11:0.001499 12:0.003877 15:1.1e-05 16:0.000981 17:0.010448 18:0.00296 19:0.000203 20:7.5e-05 21:0.005829 22:0.155456 23:0.010123 24:0.009424 26:0.004539 27:0.010731 28:0.002907 31:5.3e-05 32:0.002187 33:0.000112 34:4.8e-05 37:0.000699 38:0.052027 39:0.002245 40:5.3e-05 42:0.04528 43:0.070229 44:0.004779 47:0.000917 48:0.006208 49:1.1e-05 53:5e-06 54:0.00032 55:7.5e-05 58:0.00344 59:0.010709 60:0.000976 63:0.022837 64:0.078656 
4 1:0.089285 2:0.000512 3:0.000133 4:2.1e-05 5:0.038267 6:0.016245 7:9.1e-05 8:0.000107 10:0.000736 11:5e-06 12:0.000117 17:0.004773 18:0.000475 19:0.001083 20:0.000267 21:0.020197 22:0.375285 23:0.005995 24:0.00096 26:0.034517 27:0.012875 28:0.001605 37:0.000117 38:0.011173 39:0.0012 40:0.000261 42:0.012912 43:0.165557 44:0.006821 47:0.003413 48:0.007035 53:5e-06 54:1.1e-05 58:0.000944 59:0.006955 60:0.000763 63:0.009483 64:0.169797 
4 1:0.032533 2:0.001648 3:7.5e-05 5:0.000629 6:0.005397 7:8.5e-05 17:0.003835 18:0.000816 19:1.6e-05 21:0.004715 22:0.239493 23:0.004416 26:0.00096 27:0.005312 37:5e-06 38:0.021995 39:0.000475 42:0.024267 43:0.394555 44:0.005589 47:0.000395 48:0.001088 59:0.002795 60:0.007024 63:0.00032 64:0.241563 
4 1:0.240503 2:0.007073 3:0.001639 4:7.6e-05 5:0.03469 6:0.029385 7:0.002227 8:0.000183 10:0.000147 11:0.00049 12:4.9e-05 17:0.03571 18:0.000891 19:3.1e-05 21:0.102851 22:0.11784 23:0.009742 24:0.00016 25:0.000245 26:0.012383 27:0.023555 28:0.003951 30:4e-06 31:0.000125 32:0.00069 33:0.001693 34:9e-06 37:0.005612 38:0.003964 39:0.000499 41:0.002592 42:0.026205 43:0.035808 44:0.014739 46:0.000151 47:0.004922 48:0.048606 53:0.000125 54:3.6e-05 57:0.000927 58:0.009007 59:0.00412 60:0.00016 61:0.000249 62:0.003764 63:0.013661 64:0.198508 
4 1:0.077243 2:0.032378 3:0.007237 4:0.000408 5:0.001538 6:0.017039 7:0.001423 8:0.001832 11:0.00015 17:0.011135 18:0.001471 19:0.00033 20:1.2e-05 21:0.012667 22:0.410781 23:0.01648 24:0.002078 26:0.001195 27:0.013934 28:0.000468 37:0.002889 38:0.027243 39:0.00224 40:2.4e-05 41:0.000204 42:0.016354 43:0.292799 44:0.005964 47:0.000426 48:0.004853 58:0.000186 59:0.004865 60:0.000222 63:0.003333 64:0.028595 
4 1:0.362928 2:0.085156 3:0.037491 4:8.4e-05 5:0.050072 6:0.027311 7:0.007605 8:0.000659 11:1.8e-05 12:6e-06 17:0.004916 18:0.000359 19:6.6e-05 21:0.024299 22:0.206431 23:0.01776 24:0.008647 26:0.003527 27:0.027419 28:0.001832 32:6e-05 38:0.002725 39:0.00024 40:9e-05 42:0.014323 43:0.069605 44:0.006072 47:0.000904 48:0.00297 59:0.000701 60:0.000323 63:0.001635 64:0.033766 
4 1:0.121392 2:0.005499 3:4.8e-05 5:0.001813 6:0.005776 7:0.001136 11:0.001147 12:0.000229 16:1.6e-05 17:0.004619 18:0.000352 19:5.3e-05 21:0.011531 22:0.170555 23:0.004149 26:0.00112 27:0.008731 28:1.1e-05 38:0.006064 39:0.00016 42:0.008693 43:0.082773 44:0.000491 47:0.00016 48:0.000187 59:0.357173 60:2.1e-05 63:0.168731 64:0.037371 
4 1:0.173867 2:0.072859 3:0.038507 5:0.005808 6:0.038928 7:0.00048 11:2.7e-05 17:0.008853 18:0.0024 19:0.000896 21:0.019925 22:0.237659 23:0.008955 24:3.2e-05 26:0.002389 27:0.005467 37:0.006816 38:0.006891 39:0.003067 40:5e-06 41:0.00208 42:0.007963 43:0.040683 44:0.000768 47:0.00048 48:0.000123 58:4.3e-05 59:0.002768 60:0.000304 63:0.009829 64:0.301131 
4 1:0.55403 2:0.013538 3:0.001231 4:1.8e-05 5:0.035994 6:0.071417 7:0.005183 8:0.000444 10:1.8e-05 11:0.000607 12:0.002757 17:0.004258 18:0.000234 21:0.009207 22:0.178847 23:0.021219 24:1.2e-05 26:0.000553 27:0.016793 28:0.015405 32:0.002835 37:2.4e-05 38:0.001399 39:0.000288 40:6e-06 42:0.002547 43:0.043465 44:0.001321 47:3.6e-05 48:0.002679 59:0.00152 60:0.00152 62:6e-06 63:0.000775 64:0.009814 
4 1:0.068176 2:0.027829 3:0.004624 4:0.001291 5:0.008336 6:0.072325 7:0.012096 8:0.001173 9:5e-06 10:0.001365 11:0.000256 12:0.000496 16:2.7e-05 17:0.000603 18:0.000683 19:2.1e-05 20:0.000128 21:0.000165 22:0.107205 23:0.119995 24:0.001456 26:0.003856 27:0.062059 28:0.0064 30:0.000235 31:0.000352 32:8.5e-05 38:0.005813 39:0.000347 40:5e-06 42:0.018949 43:0.400341 44:0.049285 47:5.3e-05 48:0.020827 59:8e-05 60:0.000149 63:1.6e-05 64:0.002891 
4 1:0.511685 2:0.003515 5:0.030448 6:0.046869 7:1.6e-05 10:0.001349 11:0.000757 15:2.1e-05 17:0.014667 18:0.000363 21:0.019568 22:0.146491 23:0.002795 26:0.008784 27:0.024523 28:3.7e-05 31:0.000747 32:0.000832 33:0.00024 34:1.6e-05 37:0.000379 38:0.015707 39:0.000304 42:0.012299 43:0.060016 44:0.001403 47:0.002352 48:0.007259 54:0.000272 55:5e-06 58:0.000987 59:0.012693 60:0.000235 62:5e-06 63:0.009253 64:0.063109 
4 1:0.326517 2:0.009584 3:0.000261 4:5e-06 5:0.032715 6:0.036763 7:0.010336 8:0.000411 10:0.000347 11:0.003216 12:0.191051 16:0.000496 17:0.003675 18:0.000373 21:0.008149 22:0.12096 23:0.004656 24:5e-06 26:0.00672 27:0.014347 28:0.015349 32:0.032325 33:0.002165 34:5e-06 37:0.003168 38:0.004245 39:0.0004 42:0.010331 43:0.096053 44:0.000576 47:0.001445 48:0.048149 59:0.000651 60:1.6e-05 63:0.003637 64:0.010896 
4 1:0.342799 2:0.078569 3:0.002057 5:1.1e-05 6:0.014839 7:0.001017 17:0.002006 18:0.009155 19:9.2e-05 21:5.2e-05 22:0.169914 23:0.014224 24:8.6e-05 26:0.000201 27:0.010644 28:0.00031 38:0.005368 39:0.003506 42:0.001328 43:0.167098 44:0.030333 47:0.000839 48:0.057471 59:0.001586 60:0.00177 63:0.000368 64:0.084356 
4 1:0.307627 2:0.002034 3:2.9e-05 5:0.01849 6:0.004078 7:0.003083 8:0.000103 10:0.000279 11:0.008078 12:0.038446 15:5e-06 16:0.000662 17:0.042559 18:0.001 19:2.9e-05 21:0.074029 22:0.10675 23:0.001059 24:1e-05 25:0.000176 26:0.01102 27:0.002863 28:0.00049 31:5e-06 32:0.000265 33:0.008819 34:3.9e-05 37:0.040275 38:0.035147 39:0.000603 41:0.000725 42:0.045113 43:0.025025 44:0.00052 47:0.00077 48:0.001882 53:0.001936 54:6.4e-05 55:5e-06 57:0.001564 58:0.0035 59:0.017147 60:0.000152 62:0.000127 63:0.035632 64:0.157784 
4 1:0.588661 2:0.007632 3:0.000197 5:0.009163 6:0.012752 7:0.001824 8:0.000325 10:0.001141 11:0.001061 12:0.000267 17:0.061291 18:0.002507 21:0.063157 22:0.138891 23:0.003461 24:0.000224 26:0.001307 27:0.009269 28:0.000539 31:0.00128 32:0.000891 37:6.4e-05 38:0.010955 39:3.7e-05 42:0.024213 43:0.019627 44:0.00096 47:0.000805 48:0.003584 54:5e-06 58:0.000421 59:0.0152 60:3.7e-05 63:0.002987 64:0.015264 
4 1:0.278453 2:0.034427 3:0.018603 4:0.000336 5:0.003856 6:0.026923 7:0.018347 8:0.001173 10:4.3e-05 11:0.000443 12:0.000507 16:0.000272 17:0.039237 18:0.006155 19:0.002885 20:0.001472 21:0.012763 22:0.123632 23:0.058491 24:0.008661 26:0.001355 27:0.023109 28:0.009771 32:0.000544 33:0.003099 34:1.6e-05 37:0.010069 38:0.006757 39:0.001664 40:0.000251 41:2.1e-05 42:0.00352 43:0.078853 44:0.025243 47:0.000656 48:0.021088 49:3.2e-05 53:0.002672 54:9.1e-05 57:0.000144 58:0.000656 59:0.015307 60:0.000928 63:0.004779 64:0.152699 
4 1:0.269856 2:0.008474 3:1.2e-05 5:0.002084 6:0.017141 7:4.2e-05 8:2.4e-05 10:3.6e-05 11:0.000498 12:1.2e-05 15:1.8e-05 16:0.001742 17:0.029045 18:0.001514 21:0.022691 22:0.258444 23:0.091333 24:0.000769 25:0.004739 26:0.013808 27:0.007706 28:0.001081 32:6e-06 37:7.8e-05 38:0.008715 39:0.000979 41:0.000673 42:0.033604 43:0.04958 44:0.008835 47:0.000192 48:0.001207 58:1.2e-05 59:0.00224 60:0.001742 63:0.000432 64:0.160637 
4 1:0.127819 2:0.006917 3:2.1e-05 5:0.000475 6:0.005403 7:0.00104 8:2.1e-05 11:0.002235 12:0.005104 16:0.000613 17:0.022123 18:0.003883 19:5e-06 21:0.008192 22:0.176731 23:0.029227 24:0.000203 26:0.001648 27:0.043941 28:0.006277 32:0.01064 33:0.000245 34:5e-06 37:0.000875 38:0.009792 39:0.00376 40:1.6e-05 42:0.004325 43:0.274208 44:0.021376 47:0.000939 48:0.007813 53:1.6e-05 58:2.7e-05 59:0.013579 60:0.001504 63:0.012235 64:0.196768 
4 1:0.229925 2:0.002635 3:0.0004 4:0.000304 5:0.040725 6:0.039077 7:0.000571 8:4.3e-05 10:0.001819 11:2.1e-05 12:9.1e-05 17:0.015717 18:0.000336 19:0.000187 20:0.000251 21:0.044277 22:0.189221 23:0.008197 24:0.003456 26:0.033109 27:0.040805 28:0.000123 31:1.1e-05 32:3.2e-05 34:5e-06 38:0.006133 39:0.000443 40:0.000219 42:0.009744 43:0.095387 44:0.024389 47:0.001984 48:0.019579 58:4.8e-05 59:0.006981 60:0.000357 63:0.022171 64:0.161227 
4 1:0.187584 2:0.05064 3:0.04056 4:4.8e-05 5:0.015637 6:0.01976 7:1.6e-05 8:5e-06 10:1.6e-05 17:0.005712 18:0.002667 19:0.011211 20:0.000416 21:0.005541 22:0.430453 23:0.018235 24:0.002341 26:0.001744 27:0.004464 28:5e-06 35:0.000192 36:0.000139 37:1.1e-05 38:0.002859 39:0.002587 40:0.001072 42:0.003099 43:0.030395 44:0.002816 47:0.000245 48:0.000789 56:3.7e-05 59:0.000683 60:0.001216 63:0.002149 64:0.154656 
4 1:0.005344 2:0.000475 5:0.000976 6:0.015899 7:0.000149 10:0.002235 11:0.002576 17:0.000507 18:3.2e-05 21:0.001323 22:0.095536 23:0.006837 24:1.1e-05 26:0.015275 27:0.060368 28:0.000709 31:0.000821 32:0.000128 38:0.004357 39:0.000107 42:0.00848 43:0.072411 44:0.019653 47:0.004789 48:0.082629 58:4.3e-05 59:0.003765 60:0.000213 63:0.028139 64:0.566213 
4 1:0.151195 2:0.007728 3:0.004032 4:0.001973 5:0.003013 6:0.016768 7:0.000597 8:0.000427 10:0.000107 11:0.000992 12:0.000245 17:0.015051 18:0.000736 19:0.000112 21:0.021712 22:0.130203 23:0.024197 24:0.000411 26:0.003541 27:0.046907 28:0.000747 31:3.2e-05 32:4.3e-05 33:0.000672 34:2.1e-05 37:0.010069 38:0.021227 39:0.000315 40:3.7e-05 41:2.1e-05 42:0.044752 43:0.104443 44:0.011611 46:1.1e-05 47:0.001029 48:0.012645 49:2.1e-05 53:0.033973 54:0.015893 57:0.002032 58:0.024053 59:0.108373 60:0.000299 62:0.000277 63:0.067685 64:0.109771 
4 1:0.255253 2:0.018501 3:3.2e-05 5:0.003952 6:0.168821 7:0.058688 8:0.000112 10:0.000235 11:0.01384 12:0.001611 17:0.001424 18:0.000117 21:0.001067 22:0.026651 23:0.035067 24:5e-06 26:0.000224 27:0.048448 28:0.001685 32:0.000117 33:8e-05 37:0.005493 38:0.004389 39:5.9e-05 41:5e-06 42:0.003301 43:0.004555 44:0.000965 47:0.000213 48:0.005035 53:5.9e-05 54:0.000912 57:1.6e-05 58:0.168437 59:0.026757 60:1.6e-05 62:5e-06 63:0.130416 64:0.013435 
4 1:0.187525 2:0.003397 3:0.000336 5:0.006011 6:0.011797 7:0.002288 8:1.6e-05 10:0.001728 11:0.007664 12:0.011776 16:0.002843 17:0.022085 18:0.0016 19:0.000325 21:0.038688 22:0.109691 23:0.010656 24:0.000117 25:6.4e-05 26:0.018027 27:0.010144 28:0.001211 30:5e-06 31:1.6e-05 32:0.001035 33:0.000421 37:0.135776 38:0.073237 39:0.002096 40:8.5e-05 41:0.000629 42:0.015691 43:0.100667 44:0.017563 46:4.3e-05 47:0.001349 48:0.010379 54:9.6e-05 56:1.6e-05 57:4.3e-05 58:0.002571 59:0.007813 60:0.003099 61:9.6e-05 62:6.4e-05 63:0.004725 64:0.174496 
4 1:0.282056 2:0.029863 3:0.041109 5:0.006486 6:0.020393 7:0.002137 8:0.000424 10:0.000461 11:6.9e-05 12:0.000361 17:0.00276 18:0.000162 19:0.000143 21:0.008766 22:0.079751 23:0.047315 24:8.1e-05 26:0.000935 27:0.120417 28:0.000542 38:0.000162 39:8.1e-05 40:6e-06 42:0.005171 43:0.253252 44:0.002586 47:0.000262 48:0.002336 59:0.004567 60:0.000118 63:0.000935 64:0.086293 
4 1:0.180427 2:0.016651 3:8.5e-05 5:0.008859 6:0.037483 7:0.000528 8:0.000299 10:0.001269 11:0.000416 12:0.000112 15:1.1e-05 16:8e-05 17:0.001675 18:0.000661 21:0.015461 22:0.279931 23:0.062219 25:0.001216 26:0.004053 27:0.058208 28:4.8e-05 31:0.000112 32:0.000101 38:0.002699 39:0.001093 41:0.001861 42:0.005728 43:0.08016 44:0.000875 46:0.002005 47:0.000901 48:0.000587 54:5e-06 58:5e-06 59:0.004523 60:0.000693 62:0.005515 63:0.008421 64:0.215024 
4 1:0.230976 2:0.018021 3:0.000155 4:1.6e-05 5:0.006112 6:0.020517 7:0.000773 8:0.001051 10:0.001115 11:0.000395 12:0.001045 16:1.1e-05 17:0.015403 18:0.028581 19:0.002971 20:5e-06 21:0.004203 22:0.143259 23:0.008576 24:0.000235 25:1.1e-05 26:0.013451 27:0.031477 28:0.000453 31:0.000923 32:0.000192 33:0.001643 34:0.001051 35:0.000747 36:0.000549 37:0.001504 38:0.018533 39:0.004613 40:0.000891 41:0.000645 42:0.005387 43:0.148245 44:0.043813 46:1.1e-05 47:0.002037 48:0.010293 49:0.001488 50:1.1e-05 51:3.7e-05 52:0.000128 53:0.001237 54:0.000795 55:0.000112 56:0.001803 57:0.000309 58:0.000373 59:0.019125 60:0.009211 61:0.000299 62:0.00056 63:0.002928 64:0.191696 
4 1:0.293115 2:0.03072 3:0.010373 4:0.002843 5:0.002677 6:0.010896 7:0.001707 8:0.001115 10:5.3e-05 11:0.000299 12:0.000608 16:8e-05 17:0.011616 18:0.003968 19:0.005936 20:0.005413 21:0.01816 22:0.132203 23:0.013947 24:0.001941 25:1.6e-05 26:0.017499 27:0.018533 28:0.001483 30:0.001147 31:0.000624 32:0.001957 33:5e-06 37:0.00224 38:0.019659 39:0.00424 40:0.000171 41:0.000112 42:0.023317 43:0.177083 44:0.0096 46:0.000384 47:0.001232 48:0.010725 53:0.000699 54:0.000469 57:5.3e-05 58:0.002571 59:0.015115 60:0.003125 62:0.000363 63:0.011381 64:0.128528 
4 1:0.180555 2:0.001323 3:3.7e-05 5:0.002693 6:0.005531 7:0.000245 8:1.6e-05 11:0.000187 12:0.000304 16:0.000469 17:0.013637 18:0.000459 19:7.5e-05 21:0.02304 22:0.209056 23:0.026821 24:2.1e-05 25:5e-06 26:0.004171 27:0.02504 28:0.000117 32:0.000704 33:0.000176 34:5e-06 37:0.017627 38:0.031051 39:0.000768 42:0.030059 43:0.170603 44:0.006699 47:0.000693 48:0.010011 53:0.002251 54:6.9e-05 57:3.7e-05 58:0.056112 59:0.067179 60:0.00024 62:5e-06 63:0.019877 64:0.092032 
4 1:0.271317 2:0.005275 3:0.001397 4:0.012565 5:0.029861 6:0.035733 7:0.001525 8:0.00104 10:0.000693 11:0.001947 12:0.003349 16:8.5e-05 17:0.007264 18:0.000976 19:0.000293 20:0.000709 21:0.024283 22:0.136843 23:0.004549 24:0.003077 26:0.019019 27:0.017365 28:0.000736 31:4.3e-05 32:0.003915 33:5e-06 37:0.000507 38:0.002667 39:0.000363 40:6.9e-05 41:5e-06 42:0.007125 43:0.247717 44:0.0068 47:0.001259 48:0.006539 53:5e-06 59:0.003387 60:0.000864 63:0.002859 64:0.135968 
4 1:0.150448 2:0.043925 3:0.017264 4:0.003504 5:0.003077 6:0.015019 7:0.005813 8:0.005733 10:0.000661 11:0.000293 12:0.001211 16:0.000251 17:0.01528 18:0.002944 19:0.000288 20:5.3e-05 21:0.042352 22:0.178928 23:0.045312 24:0.008832 26:0.001851 27:0.017627 28:0.004667 31:0.000341 32:0.000133 33:3.7e-05 37:0.000848 38:0.01432 39:0.002128 40:4.8e-05 41:2.1e-05 42:0.016933 43:0.108464 44:0.038667 47:0.000501 48:0.012405 53:2.1e-05 54:4.8e-05 57:1.1e-05 58:0.000613 59:0.013445 60:0.000997 62:3.2e-05 63:0.10216 64:0.122491 
4 1:0.241675 2:0.00896 3:0.002667 4:2.1e-05 5:0.037883 6:0.003291 7:0.002352 8:6.4e-05 9:0.000107 10:0.000891 11:0.003467 12:0.001024 14:0.001952 15:0.000731 16:1.1e-05 17:0.039152 18:0.001888 19:0.002555 20:6.4e-05 21:0.191531 22:0.032224 23:0.003963 24:0.001392 25:0.002373 26:0.024955 27:0.019115 28:0.012085 30:0.000629 31:0.002768 32:0.0024 33:0.000149 35:0.000272 36:1.6e-05 37:0.027584 38:0.002699 39:0.001973 40:0.004832 41:0.012277 42:0.060955 43:0.064416 44:0.005547 46:0.001536 47:0.020373 48:0.012491 53:0.000352 56:0.000885 57:0.001701 58:0.004357 59:0.001392 60:0.002059 61:0.000101 62:0.001627 63:0.022965 64:0.107253 
4 1:0.258993 2:0.0996 3:0.0112 4:0.007913 5:0.00014 6:0.053447 7:0.090787 8:0.00894 10:3.3e-05 11:0.007567 12:0.03124 16:0.0577 17:0.03118 18:0.00072 19:0.000133 20:2e-05 21:0.00026 22:0.003967 23:0.007853 24:0.001507 26:1.3e-05 27:0.0121 28:0.03084 31:7e-06 32:0.02736 33:0.094213 34:0.00078 37:0.013447 38:0.006567 39:0.000173 40:8.7e-05 41:7e-06 42:0.00018 43:0.001247 44:0.001173 47:7e-06 48:0.033267 49:0.009787 53:0.016807 54:0.00428 55:1.3e-05 57:0.00022 58:0.007993 59:0.001527 60:8.7e-05 61:7e-06 62:0.003253 63:0.017647 64:0.043713 
4 1:0.292016 2:0.040587 3:0.000309 4:0.001019 5:0.000789 6:0.208859 7:0.016939 8:0.00016 9:3.2e-05 10:4.3e-05 11:0.000341 12:5e-06 14:4.3e-05 17:0.005333 18:0.000373 20:1.6e-05 21:0.003195 22:0.218491 23:0.018944 24:0.000421 26:0.000827 27:0.022304 28:0.012005 30:1.1e-05 31:3.2e-05 32:0.01 33:8.5e-05 37:0.002363 38:0.003893 39:3.7e-05 40:3.7e-05 41:0.000181 42:0.004368 43:0.016037 44:0.003173 46:5e-06 47:0.000475 48:0.041563 49:5e-06 53:0.006277 54:4.3e-05 57:0.01528 58:0.002224 59:0.000907 60:4.8e-05 61:1.6e-05 62:0.000453 63:0.001675 64:0.04776 
4 1:0.208235 2:0.056048 3:0.000193 4:6e-06 5:0.000952 6:0.01638 7:0.000181 17:0.0265 18:0.004916 19:3e-05 20:1.8e-05 21:0.041813 22:0.133506 23:0.078084 24:1.8e-05 26:0.001229 27:0.02253 28:6e-06 33:1.8e-05 37:0.014687 38:0.013114 39:0.000813 41:2.4e-05 42:0.113066 43:0.070139 44:0.004139 47:0.002518 48:0.015699 58:0.000753 59:0.002211 60:0.000627 63:0.002217 64:0.169331 
4 1:0.138707 2:0.042616 3:0.101481 4:0.000158 5:0.004036 6:0.013613 7:0.007547 8:0.000163 11:0.003013 12:0.000585 16:5e-06 17:0.011674 18:0.003405 19:0.00312 20:0.000183 21:0.011603 22:0.117583 23:0.029481 24:0.002682 26:0.001588 27:0.01569 28:0.001262 32:9.2e-05 37:5e-06 38:0.010188 39:0.006071 40:0.000483 42:0.002774 43:0.183623 44:0.022132 47:0.000397 48:0.008916 59:0.00115 60:0.001466 63:0.000137 64:0.252371 
4 1:0.310986 2:0.093916 3:0.031036 4:0.012129 5:0.001053 6:0.051501 7:0.01963 8:0.006235 12:0.000106 16:6e-06 17:0.000336 18:0.000527 19:6.2e-05 21:0.000986 22:0.189518 23:0.051081 24:0.001384 26:0.000964 27:0.015182 28:0.001776 32:0.000106 38:0.008695 39:0.000471 42:0.012824 43:0.154263 44:0.002902 47:0.000196 48:0.002375 59:0.000314 60:4.5e-05 63:0.000493 64:0.028902 
4 1:0.138053 2:0.007275 3:0.000229 4:3.7e-05 5:0.002512 6:0.006016 7:0.001029 8:8e-05 11:0.000832 12:0.000485 16:6.9e-05 17:0.024896 18:0.002053 19:4.8e-05 20:1.1e-05 21:0.041008 22:0.185621 23:0.032864 24:0.000379 26:0.003173 27:0.010693 28:0.002267 31:1.6e-05 32:0.000688 33:5e-06 35:5e-06 37:0.003595 38:0.018747 39:0.004096 40:3.2e-05 41:0.019851 42:0.034885 43:0.191221 44:0.016075 46:5e-06 47:0.002336 48:0.005275 57:0.00656 58:0.001168 59:0.007579 60:0.000363 61:2.7e-05 62:0.000272 63:0.014661 64:0.212907 
4 1:0.141243 2:0.017027 3:0.000571 5:0.029243 6:0.024132 7:0.000589 11:0.000354 12:0.000102 17:0.016547 18:0.002402 19:0.000937 21:0.021465 22:0.192937 23:0.016925 24:0.000426 26:0.021904 27:0.026727 28:0.005045 32:0.000258 33:2.4e-05 34:6.6e-05 35:6e-06 37:8.4e-05 38:0.007117 39:0.000829 40:4.2e-05 42:0.015508 43:0.165808 44:0.010048 47:0.002 48:0.01155 53:1.2e-05 58:2.4e-05 59:0.004871 60:0.000354 63:0.006607 64:0.256216 
4 1:0.188064 2:0.007733 3:0.002411 4:2.1e-05 5:0.002416 6:0.009525 7:0.002651 8:0.000187 10:0.000107 11:0.000581 12:0.000176 16:0.000251 17:0.008704 18:0.000581 19:0.000368 21:0.015653 22:0.140677 23:0.008709 24:1.6e-05 26:0.00488 27:0.008272 28:0.000293 31:1.1e-05 32:0.000283 33:0.000219 37:0.000875 38:0.005637 39:0.000341 40:2.1e-05 42:0.007035 43:0.174 44:0.002181 47:0.001504 48:0.004229 58:5e-06 59:0.002395 60:0.000459 63:0.022005 64:0.376523 
4 1:0.335493 2:0.051259 3:0.011312 4:0.000416 5:0.000821 6:0.039435 7:0.015867 8:0.006432 10:0.00016 11:0.002965 12:0.001968 16:0.000309 17:0.000987 18:0.005243 19:0.000107 21:0.000283 22:0.063563 23:0.089072 24:0.007419 26:0.000544 27:0.144453 28:0.03112 31:5e-06 32:0.001584 34:5e-06 38:0.000827 39:0.000805 40:2.7e-05 42:0.000448 43:0.100939 44:0.022032 47:8e-05 48:0.024688 54:3.2e-05 59:0.000347 60:0.00016 63:0.000208 64:0.038587 
4 1:0.094416 2:0.011739 3:4.8e-05 5:0.000587 6:0.022245 7:0.000459 8:3.2e-05 10:2.1e-05 11:0.00056 12:0.000843 15:2.7e-05 16:0.001712 17:0.024432 18:0.001989 19:2.7e-05 21:0.007653 22:0.128811 23:0.059509 24:2.1e-05 25:5e-06 26:0.000603 27:0.078373 28:0.000704 31:2.7e-05 32:0.000747 33:0.022901 34:2.7e-05 37:0.035216 38:0.031824 39:0.001259 40:5e-06 41:5e-06 42:0.01616 43:0.313685 44:0.003856 47:0.000592 48:0.001616 53:0.001088 54:0.001541 55:5e-06 57:0.0012 58:0.008128 59:0.011563 60:0.000512 62:1.1e-05 63:0.003733 64:0.109483 
4 1:0.138128 2:0.007947 3:9.1e-05 5:0.000485 6:0.003467 7:0.000336 8:4.3e-05 10:1.6e-05 11:0.000261 12:0.000555 16:6.4e-05 17:0.030277 18:0.010261 19:0.000427 20:5e-06 21:0.015056 22:0.100821 23:0.021045 24:0.000411 25:5e-06 26:0.001787 27:0.021739 28:0.003173 31:1.6e-05 32:0.004747 33:0.000128 34:9.1e-05 35:0.000107 37:0.013579 38:0.02744 39:0.008203 40:0.004208 41:0.013829 42:0.016096 43:0.193355 44:0.034624 46:1.6e-05 47:0.001557 48:0.036352 53:3.2e-05 54:0.000139 55:4.8e-05 56:2.7e-05 57:0.003051 58:0.002123 59:0.003861 60:0.002992 61:0.006181 62:0.004864 63:0.161189 64:0.104747 
4 1:0.224864 2:0.005339 3:0.000816 4:0.000411 5:0.001349 6:0.011035 7:0.001392 8:0.000133 10:5.9e-05 11:0.000651 12:4.8e-05 15:5e-06 16:1.1e-05 17:0.020741 18:0.000965 19:0.000101 20:2.1e-05 21:0.00904 22:0.221472 23:0.006757 24:0.000672 26:0.001691 27:0.008741 28:0.000309 31:0.000117 32:0.000171 33:2.7e-05 37:0.003723 38:0.036699 39:0.000576 40:3.7e-05 41:0.000235 42:0.059685 43:0.054517 44:0.001093 47:0.000688 48:0.001381 53:0.00304 54:5e-06 57:0.004245 58:0.182395 59:0.076619 60:0.000165 61:5e-06 62:2.1e-05 63:0.005589 64:0.052341 
4 1:0.130981 2:0.017675 3:0.071616 4:0.003147 5:0.001232 6:0.004992 7:0.012208 8:0.000496 10:0.000219 11:0.000619 12:0.000101 16:1.6e-05 17:0.019317 18:0.001243 19:0.000725 20:0.000619 21:0.00896 22:0.062043 23:0.022224 24:0.005435 25:1.1e-05 26:0.002245 27:0.022539 28:0.00064 31:1.1e-05 32:0.000432 33:0.000491 37:0.011696 38:0.007995 39:0.000715 40:0.000133 41:0.000101 42:0.008144 43:0.291296 44:0.038875 47:0.003349 48:0.014336 53:0.000944 54:0.000219 57:0.001387 58:0.005323 59:0.019003 60:0.000624 62:6.4e-05 63:0.03216 64:0.173403 
4 1:0.307057 2:0.080985 3:0.000625 5:0.000138 6:0.001562 7:3.6e-05 17:0.057087 18:0.026829 19:0.001051 21:0.004571 22:0.129429 23:0.010973 26:0.000138 27:0.001459 37:1.2e-05 38:0.032426 39:0.011105 42:0.003526 43:0.160871 44:0.002727 47:0.002414 48:0.009916 58:1.2e-05 59:0.014667 60:0.000414 63:0.004228 64:0.135742 
4 1:0.241994 2:0.011616 3:0.001145 5:0.015321 6:0.052792 7:0.005277 8:0.002428 10:0.004409 11:0.001717 12:0.002006 16:0.000428 17:0.019843 18:0.000126 21:0.017654 22:0.117314 23:0.009113 24:4.4e-05 26:0.020906 27:0.055428 28:0.000818 31:0.000478 32:0.002824 33:0.000189 37:0.013906 38:0.008792 39:6.9e-05 41:0.002836 42:0.064962 43:0.11583 44:0.000931 47:0.009761 48:0.007899 53:0.000101 54:2.5e-05 57:6.9e-05 58:0.014579 59:0.002862 60:6e-06 62:0.00061 63:0.013572 64:0.159321 
4 1:0.022731 2:0.000811 5:0.007915 6:0.009509 7:0.000101 10:1.1e-05 11:3.2e-05 17:0.003275 18:0.000629 21:0.005589 22:0.414203 23:0.009632 26:0.003413 27:0.012869 28:4.8e-05 31:3.7e-05 32:6.4e-05 37:4.8e-05 38:0.045189 39:0.000368 42:0.045776 43:0.0924 44:0.000448 47:0.000293 48:0.000784 59:0.005781 60:6.4e-05 63:0.003264 64:0.314715 
4 1:0.112811 2:0.000304 3:2.7e-05 4:5e-06 5:0.026016 6:0.017125 7:8.5e-05 8:0.000117 10:0.000736 11:2.1e-05 12:2.7e-05 17:0.025637 18:0.000165 19:3.2e-05 20:5e-06 21:0.008555 22:0.089504 23:0.003531 24:1.1e-05 25:1.6e-05 26:0.008635 27:0.008453 28:0.000299 33:0.016704 37:0.008192 38:0.016155 39:0.000672 41:3.2e-05 42:0.012048 43:0.386901 44:0.011931 47:0.003365 48:0.022437 53:3.2e-05 54:0.000139 57:3.2e-05 58:0.000592 59:0.00608 60:0.000155 63:0.006459 64:0.205957 
4 1:0.124011 2:0.033592 3:0.015013 4:0.001719 5:0.00356 6:0.009979 7:0.001125 8:0.001194 10:5.3e-05 11:0.000207 12:0.000233 15:3.7e-05 16:5.8e-05 17:0.008525 18:0.003401 19:0.00017 20:1.1e-05 21:0.00583 22:0.129369 23:0.048239 24:0.002928 26:0.000944 27:0.027305 28:0.003623 31:3.7e-05 32:0.0007 33:3.2e-05 34:5e-06 37:0.000997 38:0.008451 39:0.001379 40:6.9e-05 42:0.007782 43:0.110785 44:0.013454 47:0.000218 48:0.012286 53:0.000218 54:8e-05 55:5e-06 57:0.000944 58:0.274637 59:0.10261 60:0.000668 61:4.8e-05 62:0.000631 63:0.00435 64:0.038488 
4 1:0.215269 2:0.027131 3:0.001093 4:0.000139 5:0.001019 6:0.019264 7:0.011584 8:0.001195 9:5e-06 10:0.000288 11:0.000112 12:0.00032 16:4.3e-05 17:0.029248 18:0.00136 19:2.1e-05 20:8e-05 21:0.006219 22:0.116288 23:0.036421 24:0.002891 26:0.003035 27:0.048 28:0.0068 31:3.7e-05 32:0.000144 33:0.000501 37:0.012325 38:0.0028 39:0.000341 40:3.7e-05 42:0.00536 43:0.132645 44:0.012208 46:5e-06 47:0.000539 48:0.033376 53:0.000144 54:0.000123 57:1.1e-05 58:0.00712 59:0.065024 60:0.000192 62:1.1e-05 63:0.003232 64:0.196 
4 1:0.282843 2:0.044736 3:0.000171 4:1.6e-05 5:0.017189 6:0.098357 7:0.001291 8:5e-06 10:6.9e-05 11:5.3e-05 12:5e-06 17:0.003915 18:0.003077 19:5e-06 21:0.013669 22:0.107184 23:0.002875 24:1.1e-05 26:0.001381 27:0.012587 28:0.000107 31:0.000139 32:2.7e-05 33:5e-06 34:1.1e-05 37:5e-06 38:0.001675 39:0.000453 42:0.000635 43:0.096459 44:0.001211 47:0.001909 48:0.006181 54:1.1e-05 55:1.1e-05 58:5e-06 59:0.008997 60:0.001013 63:0.007899 64:0.283808 
4 1:0.127237 2:0.002222 3:3e-05 5:0.001784 6:0.003459 7:0.000583 8:1.8e-05 10:0.000114 11:0.000132 12:3e-05 15:6e-06 16:6e-06 17:0.016841 18:0.001477 19:8.4e-05 20:6e-06 21:0.033502 22:0.292697 23:0.005255 24:6e-05 25:6e-06 26:0.010955 27:0.012018 28:0.000216 31:1.8e-05 32:1.8e-05 37:0.001051 38:0.023465 39:0.000787 40:9e-05 42:0.034408 43:0.171862 44:0.007892 47:0.001183 48:0.007057 58:0.00018 59:0.021928 60:0.000258 63:0.011874 64:0.209189 
4 1:0.323344 2:0.013749 5:0.028768 6:0.075051 7:0.001141 10:0.003141 11:0.001749 12:5e-06 17:0.003925 18:0.00088 21:0.005728 22:0.153749 23:0.006016 26:0.010587 27:0.023829 28:0.000416 30:0.001173 31:0.00224 32:0.000267 33:0.001083 34:0.001925 37:0.000448 38:0.014731 39:0.002496 41:0.002107 42:0.00416 43:0.100619 44:0.001509 47:0.003365 48:0.006027 50:5.9e-05 54:0.001269 55:4.3e-05 57:0.000933 58:3.7e-05 59:0.005856 60:0.000475 61:5e-06 62:3.7e-05 63:0.014656 64:0.1824 
4 1:0.134012 2:0.013898 3:0.011784 4:0.001544 5:0.018535 6:0.131081 7:0.003664 8:0.0003 10:0.001381 11:0.002787 12:0.001465 16:6e-06 17:0.004517 18:0.001309 19:0.000132 20:4.2e-05 21:0.008192 22:0.16048 23:0.012853 24:0.000745 25:3e-05 26:0.013802 27:0.04215 28:0.000793 31:6e-05 32:0.000354 37:0.000204 38:0.004973 39:0.001508 40:9e-05 42:0.006739 43:0.308931 44:0.005255 47:0.001477 48:0.003435 53:9e-05 54:2.4e-05 57:2.4e-05 58:8.4e-05 59:0.008234 60:0.001057 62:6e-06 63:0.004709 64:0.087243 
4 1:0.055199 2:0.108279 3:0.000938 4:7.7e-05 5:0.000641 6:0.172878 7:0.126985 8:0.001383 10:0.00076 11:0.016445 12:0.001549 16:7.7e-05 17:0.000783 18:0.000789 20:6e-06 21:0.000297 22:0.038231 23:0.047881 24:0.000528 26:0.005561 27:0.210795 28:0.029786 31:0.000243 32:0.002588 38:0.000985 39:0.000113 42:0.003418 43:0.035353 44:0.013614 46:1.2e-05 47:0.002261 48:0.031751 58:3e-05 59:0.000944 60:0.000184 63:0.003116 64:0.085519 
4 1:0.1999 2:0.038242 3:2.4e-05 5:0.010124 6:0.137528 7:0.000749 17:0.00059 18:1.2e-05 21:0.010802 22:0.332838 23:0.04295 26:0.011139 27:0.061687 28:0.000431 38:0.000442 42:0.030537 43:0.096661 44:0.006926 47:0.000879 48:0.011445 59:1.2e-05 63:4.1e-05 64:0.006041 
4 1:0.199179 2:0.021088 3:0.000208 5:0.002411 6:0.030843 7:0.002539 8:0.000107 10:5e-06 11:0.000155 12:0.00016 17:0.001499 18:0.000779 19:6.9e-05 21:0.007936 22:0.324805 23:0.027509 24:8.5e-05 26:0.002357 27:0.008864 28:0.000528 33:1.6e-05 37:2.1e-05 38:0.001301 39:0.000603 40:3.7e-05 41:2.1e-05 42:0.003147 43:0.090715 44:0.002304 47:0.001749 48:0.019941 58:0.002629 59:0.000784 60:0.000224 63:0.00304 64:0.242341 
4 1:0.390418 2:0.012038 3:0.011348 5:0.005261 6:0.013478 7:0.001087 8:1.1e-05 11:2.7e-05 12:0.000299 16:0.000538 17:0.00344 18:0.000163 19:2.2e-05 21:0.026576 22:0.188533 23:0.00981 24:0.000359 25:5e-06 26:0.011728 27:0.008098 28:0.000641 32:0.000647 33:5e-06 37:0.00012 38:0.019973 39:0.000321 40:2.2e-05 42:0.029027 43:0.063984 44:0.012864 47:0.001114 48:0.006848 58:0.000261 59:0.003587 60:0.000451 63:0.014103 64:0.162793 
4 1:0.307814 2:0.009335 5:0.003269 6:0.034886 7:3.6e-05 10:4.2e-05 11:0.000108 12:3e-05 17:0.003689 18:0.001018 21:0.004377 22:0.138677 23:0.028725 26:0.000509 27:0.054168 28:5.4e-05 33:3.6e-05 37:0.001916 38:0.006725 39:0.000695 41:0.000126 42:0.007228 43:0.154743 44:0.00124 47:0.000731 48:0.003096 53:0.005257 54:0.001186 57:0.000988 58:0.090425 59:0.020994 60:0.000377 62:0.001737 63:0.02191 64:0.093856 
4 1:0.340373 2:0.012101 3:0.000507 4:0.000976 5:0.016352 6:0.060117 7:0.018923 8:0.000875 10:6.4e-05 11:0.014944 12:0.010363 15:1.6e-05 16:0.001109 17:0.019003 18:0.003147 19:0.000224 20:0.000155 21:0.024208 22:0.172805 23:0.009419 24:0.001525 26:0.003947 27:0.01144 28:0.002517 31:3.7e-05 32:0.018395 33:5e-06 37:0.0032 38:0.005819 39:0.000741 40:4.8e-05 42:0.009461 43:0.046928 44:0.003355 47:0.001835 48:0.024901 53:5e-06 54:1.1e-05 55:5e-06 57:5e-06 58:0.023525 59:0.0036 60:0.000267 62:3.7e-05 63:0.014272 64:0.118437 
4 1:0.223173 2:0.007445 3:0.003131 4:0.003696 5:0.0328 6:0.033627 7:0.00088 8:0.000608 10:0.000224 11:0.000139 12:0.000213 16:8e-05 17:0.014555 18:0.001451 19:0.00208 20:0.000395 21:0.024517 22:0.152192 23:0.017184 24:0.001925 25:2.7e-05 26:0.004491 27:0.008229 28:0.000117 31:1.1e-05 32:3.2e-05 33:0.000235 35:0.000101 36:2.1e-05 37:0.005739 38:0.023845 39:0.003835 40:0.001813 41:7.5e-05 42:0.010683 43:0.15344 44:0.001707 47:0.000709 48:0.005765 53:0.004101 54:2.7e-05 55:2.1e-05 56:0.000709 57:0.002747 58:0.016795 59:0.077696 60:0.000619 63:0.120779 64:0.035317 
4 1:0.443045 2:0.010347 3:0.000688 4:5e-06 5:0.001408 6:0.005429 7:0.0004 8:0.000256 10:5e-06 11:5.9e-05 12:0.000107 16:6.9e-05 17:0.056053 18:0.016688 19:0.000667 21:0.014112 22:0.081755 23:0.004219 24:4.8e-05 26:0.000443 27:0.000875 28:2.1e-05 32:1.1e-05 35:2.7e-05 37:0.000139 38:0.029541 39:0.024864 40:0.001403 41:2.1e-05 42:0.009664 43:0.039419 44:0.001355 47:0.000309 48:0.000469 53:5e-06 56:5e-06 58:0.012261 59:0.196251 60:0.001285 63:0.028619 64:0.017653 
4 1:0.09102 2:0.001861 3:0.000455 5:5.7e-05 6:0.000128 7:0.000128 11:7e-06 17:0.088953 18:0.001939 19:1.4e-05 21:0.1303 22:0.109946 23:0.000504 25:0.000178 26:6.4e-05 27:0.000291 28:4.3e-05 33:0.015658 34:4.3e-05 37:0.048842 38:0.129099 39:0.000455 41:9.9e-05 42:0.123224 43:0.083966 44:0.000945 47:0.000256 48:0.000519 53:0.003737 54:0.000185 57:0.003552 58:0.008966 59:0.041333 60:0.00076 63:0.042675 64:0.0698 
4 1:0.402421 2:0.015109 3:1.1e-05 5:0.002907 6:0.00608 7:0.00024 8:1.6e-05 11:5e-06 12:5.9e-05 16:3.2e-05 17:0.014139 18:0.016555 21:0.001749 22:0.07344 23:0.001307 24:2.1e-05 26:0.000752 27:0.001211 28:0.000107 32:4.3e-05 38:0.002331 39:0.000747 42:0.001595 43:0.013104 44:0.000725 47:0.000325 48:0.001664 55:5e-06 59:0.011547 60:0.000763 63:0.001061 64:0.429931 
4 1:0.227382 2:0.005462 3:0.001492 4:6e-06 5:0.042165 6:0.13737 7:0.001523 8:0.000795 10:0.02008 11:0.002599 12:0.00011 16:8e-05 17:0.06241 18:0.000306 21:0.05244 22:0.157498 23:0.007364 24:0.000765 26:0.024073 27:0.043927 28:0.003217 31:0.002746 32:0.002306 33:0.001144 37:0.009174 38:0.006563 39:0.000391 40:1.2e-05 41:0.000324 42:0.014703 43:0.060832 44:0.004183 47:0.001713 48:0.013872 53:6.7e-05 57:0.001119 58:0.006477 59:0.003853 60:0.000183 61:4.3e-05 62:0.004777 63:0.011046 64:0.063407 
4 1:0.185687 2:0.006223 3:0.003024 4:0.000813 5:0.001476 6:0.006922 7:0.001614 8:0.000386 10:0.000139 17:0.022934 18:0.000645 19:0.000307 20:0.000102 21:0.018807 22:0.207801 23:0.015229 24:0.001283 25:0.000145 26:0.003084 27:0.019964 28:0.001072 30:0.000127 31:0.000542 32:0.000554 33:0.000765 37:0.00206 38:0.012566 39:0.000452 40:9.6e-05 41:6e-06 42:0.011952 43:0.179307 44:0.009392 47:0.004669 48:0.020386 58:4.8e-05 59:0.005265 60:0.000958 63:0.006476 64:0.246723 
4 1:0.186828 2:0.011148 3:0.004048 4:0.000376 5:0.002972 6:0.006316 7:0.001552 8:0.000844 9:4e-06 10:8e-06 12:3.6e-05 17:0.015976 18:0.0083 19:0.000312 20:0.000892 21:0.035784 22:0.119736 23:0.01254 24:0.001168 25:0.000132 26:0.003432 27:0.012856 28:0.000836 29:6.4e-05 31:0.000636 32:0.001028 33:8e-06 34:0.000212 35:0.000588 36:4.8e-05 37:2.8e-05 38:0.041144 39:0.010264 40:0.00544 41:5.6e-05 42:0.030444 43:0.089016 44:0.012944 45:0.001276 46:0.000472 47:0.002904 48:0.00852 54:1.2e-05 55:0.000136 56:0.000276 57:4e-06 58:4.4e-05 59:0.013148 60:0.027332 61:4e-06 62:0.0001 63:0.09276 64:0.234996 
4 1:0.199013 2:0.008005 3:0.000256 4:5e-06 5:0.002208 6:0.010608 7:0.000784 8:1.1e-05 11:0.000176 12:0.000213 16:3.2e-05 17:0.029461 18:0.000613 19:0.000107 21:0.022555 22:0.300149 23:0.008064 24:7.5e-05 26:0.000795 27:0.002752 28:0.000261 32:7.5e-05 33:0.001675 37:0.007749 38:0.003947 39:0.001728 40:4.8e-05 41:5e-06 42:0.003301 43:0.088448 44:0.001797 47:0.001573 48:0.002741 53:2.7e-05 54:1.1e-05 59:0.001797 60:0.000651 63:0.002197 64:0.296085 
4 1:0.14184 2:0.011173 3:0.001595 5:0.002347 6:0.007739 7:0.000427 8:0.000965 11:1.1e-05 12:1.1e-05 17:0.019851 18:0.001669 19:0.000117 21:0.01736 22:0.205584 23:0.031541 24:9.6e-05 26:0.001536 27:0.038421 28:0.001216 32:0.000229 33:0.000192 37:0.028581 38:0.029995 39:0.000843 41:3.7e-05 42:0.017653 43:0.187973 44:0.003813 47:0.004896 48:0.028763 53:0.00704 54:0.000283 57:0.002395 58:0.019728 59:0.021493 60:0.000283 62:5e-06 63:0.008347 64:0.153952 
4 1:6.2e-05 2:0.003669 17:0.000426 18:0.203238 19:0.000706 22:0.032073 23:0.002885 24:0.005109 27:3.9e-05 28:0.000342 34:0.035087 38:0.159613 39:0.060224 40:0.000644 42:0.000258 43:0.090728 44:0.008874 47:9e-05 48:0.014415 54:6.2e-05 55:0.00014 58:7.3e-05 59:0.034739 60:0.00981 63:0.00758 64:0.329115 
4 1:0.085142 2:0.02684 3:0.033793 4:0.000254 5:0.030426 6:0.097213 7:0.009172 8:0.000183 10:0.000657 11:0.001929 12:1.8e-05 17:0.000976 18:8.9e-05 19:0.001053 20:5.9e-05 21:0.018964 22:0.102686 23:0.030686 24:0.002491 26:0.005817 27:0.056834 28:0.00803 31:3.6e-05 32:0.00068 38:0.000266 39:0.000154 40:2.4e-05 42:0.002686 43:0.031929 44:0.013124 47:0.001858 48:0.046136 59:2.4e-05 60:0.000148 63:0.039503 64:0.350118 
4 1:0.130256 2:0.023227 3:0.0028 4:5e-06 5:0.003328 6:0.024912 7:0.004613 8:9.6e-05 9:0.0024 10:0.002384 11:0.005333 12:0.001557 16:8.5e-05 17:0.008672 18:0.003973 19:0.000427 21:0.014997 22:0.180768 23:0.040389 24:4.3e-05 25:0.000117 26:0.003707 27:0.013691 28:0.000261 32:0.000277 33:0.000176 37:0.024736 38:0.111765 39:0.010875 41:0.003819 42:0.042304 43:0.128571 44:0.011973 47:0.001877 48:0.00872 53:0.000165 54:9.1e-05 57:0.001456 58:0.008939 59:0.005136 60:0.000507 61:5e-06 62:6.9e-05 63:0.007717 64:0.162779 
4 1:0.503792 2:0.034096 3:0.019045 4:0.007803 5:0.010997 6:0.064181 7:0.031179 8:0.069845 10:0.000832 11:0.004859 12:0.042448 14:0.000165 15:0.000224 16:0.000288 17:0.000261 18:8e-05 19:4.8e-05 20:3.7e-05 21:0.002224 22:0.050571 23:0.019861 24:0.000624 26:0.003371 27:0.054971 28:0.005504 31:0.00016 32:0.002171 37:1.1e-05 38:0.000261 39:1.6e-05 40:7.5e-05 42:0.005749 43:0.023104 44:0.003973 47:0.00192 48:0.015787 59:1.1e-05 63:0.000283 64:0.019173 
4 1:0.240739 2:0.009604 3:0.006871 4:0.005586 5:0.05382 6:0.026565 7:0.000601 8:0.000637 10:0.000426 11:4.2e-05 12:0.00021 16:6e-05 17:0.021003 18:0.003273 19:0.003778 20:0.01233 21:0.025465 22:0.155982 23:0.014108 24:0.02018 26:0.01573 27:0.005994 28:0.000138 31:0.000144 32:0.000318 33:3.6e-05 37:0.005574 38:0.019832 39:0.002589 40:0.003778 41:4.8e-05 42:0.009616 43:0.090835 44:0.006841 47:0.001658 48:0.002553 53:0.000108 54:0.001279 57:4.8e-05 58:0.008541 59:0.010565 60:0.00155 63:0.007045 64:0.203904 
4 1:0.110139 2:0.018608 3:0.002347 4:0.000955 5:0.000555 6:0.014763 7:0.004635 8:1.1e-05 10:4.3e-05 11:0.000213 12:1.6e-05 15:5e-06 16:1.1e-05 17:0.017776 18:0.003445 19:0.00024 20:0.000235 21:0.007365 22:0.146848 23:0.064736 24:0.000773 25:5e-06 26:0.000608 27:0.041941 28:0.003749 31:4.8e-05 32:0.000176 33:0.000155 34:3.2e-05 37:0.00672 38:0.017328 39:0.008837 40:0.000181 41:0.002016 42:0.008949 43:0.315477 44:0.012635 47:0.001051 48:0.016469 53:1.1e-05 54:0.000107 55:2.1e-05 57:5.9e-05 58:0.000373 59:0.015029 60:0.000624 61:5e-06 63:0.008491 64:0.145184 
4 1:0.630125 2:0.03565 3:0.00045 4:2e-05 5:0.00871 6:0.020085 7:0.000215 8:0.00012 12:1e-05 17:0.00069 18:5e-05 19:9e-05 21:0.00134 22:0.04535 23:0.00113 24:1e-05 26:0.0013 27:0.00133 28:2.5e-05 32:5e-06 38:0.000325 39:3.5e-05 42:0.00226 43:0.035855 44:0.000175 47:0.018955 48:0.00425 58:5e-06 59:0.01002 63:0.04007 64:0.141345 
4 1:0.129988 2:0.032821 3:0.009958 4:0.073982 5:0.004244 6:0.013238 7:0.000804 8:0.001923 11:6e-06 17:0.008423 18:0.006298 19:0.002339 20:0.066631 21:0.009964 22:0.173054 23:0.025554 24:0.103036 25:6e-06 26:0.005756 27:0.014107 28:0.002101 32:0.000137 34:1.2e-05 36:6e-06 37:0.00069 38:0.004827 39:0.001798 40:0.0075 41:0.000339 42:0.012393 43:0.093798 44:0.032411 45:2.4e-05 46:1.2e-05 47:0.002423 48:0.015976 53:6e-06 54:6e-06 55:1.8e-05 56:6e-06 57:0.000101 58:0.000673 59:0.004488 60:0.002149 61:2.4e-05 62:0.000351 63:0.014893 64:0.120708 
4 1:0.207067 2:0.014741 3:9.1e-05 5:0.006181 6:0.049659 7:0.001237 17:0.000443 18:0.000101 21:0.00512 22:0.285408 23:0.0296 26:0.000304 27:0.050139 28:0.000395 37:8.5e-05 38:0.001173 39:0.004645 42:0.000816 43:0.106485 44:0.040517 48:0.003499 58:6.9e-05 59:0.007035 60:0.004005 63:0.000725 64:0.180459 
4 1:0.162464 2:0.017723 3:0.006299 5:0.000448 6:0.013237 7:0.008261 8:0.00016 11:0.000373 12:9.1e-05 17:0.063456 18:0.016704 19:0.000144 21:0.044272 22:0.358128 23:0.029477 24:0.000368 26:0.000624 27:0.013131 28:0.005205 31:1.1e-05 32:0.003488 37:0.013653 38:0.01896 39:0.000955 40:1.1e-05 41:0.001003 42:0.022608 43:0.086763 44:0.002997 47:0.000187 48:0.011184 54:4.3e-05 57:0.000176 58:0.002544 59:0.006395 60:0.000203 62:0.005003 63:0.007451 64:0.075803 
4 1:0.317467 2:0.00488 5:0.004763 6:0.013264 7:0.000427 9:4.3e-05 10:0.000725 11:0.001792 12:6.4e-05 14:8.5e-05 15:0.000187 16:0.000997 17:0.091872 18:0.012683 19:3.2e-05 21:0.001632 22:0.104427 23:0.008965 25:1.6e-05 26:0.002128 27:0.009979 28:0.00048 30:2.7e-05 31:0.00048 32:0.002144 33:0.006507 34:0.00392 35:5e-06 37:0.000821 38:0.020848 39:0.021173 40:2.7e-05 42:0.000464 43:0.155861 44:0.011147 46:5e-06 47:0.010459 48:0.035621 49:0.002848 50:0.00064 51:1.1e-05 53:0.000651 54:0.007835 55:0.002747 56:5e-06 58:0.001563 59:0.014613 60:0.006885 63:0.000453 64:0.115333 
4 1:0.180126 2:0.131706 3:7.2e-05 5:0.001237 6:0.008871 7:6e-06 17:0.006192 18:0.002811 19:7.2e-05 20:1.2e-05 21:0.006607 22:0.269375 23:0.004925 24:3e-05 26:0.001754 27:0.007381 38:0.005207 39:0.000511 42:0.004288 43:0.041117 44:0.000366 47:9e-05 48:9e-05 59:0.007315 60:4.8e-05 63:0.031135 64:0.288655 
4 1:0.269989 2:0.005883 3:9.1e-05 4:5e-06 5:0.025648 6:0.041792 7:6.4e-05 8:3.2e-05 10:0.000261 17:0.001296 18:0.000939 19:0.000597 21:0.002331 22:0.319157 23:0.00216 24:5e-06 26:0.004613 27:0.003381 28:5e-06 33:5e-06 37:0.000165 38:0.00144 39:0.000496 42:0.009216 43:0.141216 44:0.000261 47:0.000597 48:0.000795 58:0.000219 59:0.000405 60:0.000299 63:0.000475 64:0.16616 
4 1:0.153984 2:0.025771 3:0.008965 4:0.000171 5:0.004965 6:0.010741 7:0.002523 8:0.000501 9:0.000267 10:0.000336 11:0.000587 12:0.001568 16:0.001989 17:0.018267 18:0.00584 19:0.001211 20:1.1e-05 21:0.01328 22:0.178213 23:0.041493 24:0.001797 25:0.005179 26:0.00144 27:0.013915 28:0.013941 29:0.000501 31:5e-06 32:0.000165 33:5.9e-05 37:0.002299 38:0.015605 39:0.001669 40:3.7e-05 41:0.000139 42:0.007744 43:0.095029 44:0.02224 45:0.000128 46:4.8e-05 47:0.000277 48:0.009776 53:0.000725 54:0.000181 57:0.004592 58:0.005643 59:0.1348 60:0.001355 61:0.000512 62:0.001643 63:0.076229 64:0.111643 
4 1:0.1536 2:0.007365 3:0.000149 5:0.001461 6:0.029328 7:0.001173 8:3.7e-05 10:0.008101 11:0.000485 12:0.000741 16:0.000139 17:0.018075 18:0.001339 19:0.00024 21:0.021813 22:0.130528 23:0.006635 24:0.000128 25:2.1e-05 26:0.038677 27:0.032112 28:0.001312 31:9.1e-05 32:0.000528 37:0.004635 38:0.036965 39:0.000635 41:0.001067 42:0.031611 43:0.120453 44:0.012112 46:5.3e-05 47:0.001472 48:0.048741 53:1.1e-05 57:0.001931 58:0.000933 59:0.015328 60:9.1e-05 61:0.000421 62:0.000149 63:0.136107 64:0.133205 
4 1:0.116711 2:0.001967 3:4.2e-05 5:0.00882 6:0.004527 7:0.000151 10:0.089707 11:0.053372 15:0.007172 16:2.5e-05 17:0.013891 18:0.001958 19:5e-05 21:0.021197 22:0.060711 23:0.001992 25:1.7e-05 26:0.011205 27:0.007632 28:7.5e-05 31:0.002987 32:0.0001 33:0.004226 34:0.000351 37:0.03851 38:0.031238 39:0.000653 41:0.003724 42:0.064469 43:0.078653 44:0.000661 47:0.001598 48:0.000368 53:0.00477 54:0.000695 55:0.000109 57:0.0019 58:0.010167 59:0.017339 60:0.000151 63:0.005983 64:0.330126 
4 1:0.197019 2:0.007765 3:0.008661 4:0.001984 5:0.006901 6:0.004651 7:0.001125 8:0.000112 10:5e-06 11:5e-06 12:1.1e-05 16:2.1e-05 17:0.012699 18:0.000501 19:0.000288 21:0.006261 22:0.057387 23:0.012779 24:0.00016 26:0.001339 27:0.002976 28:8.5e-05 32:7.5e-05 33:0.002944 37:0.003083 38:0.005472 39:0.000309 40:4.8e-05 42:0.009136 43:0.241776 44:0.009915 46:5e-06 47:0.001707 48:0.013371 53:1.6e-05 58:0.019488 59:0.127813 60:0.000752 63:0.106224 64:0.135131 
4 1:0.027199 2:0.01098 3:0.000415 4:0.032566 5:0.005933 6:0.063042 7:0.018807 8:0.006218 9:3.9e-05 10:0.002577 11:0.009894 12:0.004796 16:0.000162 17:0.007709 18:9e-05 20:0.00019 21:0.003154 22:0.044975 23:0.036241 24:0.004868 25:0.002006 26:0.001686 27:0.059838 28:0.005989 31:0.000101 32:0.000246 33:1.7e-05 37:0.002566 38:0.001507 39:0.00019 40:0.000196 41:0.00065 42:0.003188 43:0.079008 44:0.006067 47:0.003748 48:0.012543 53:0.000644 57:0.003507 58:0.001283 59:0.000515 60:0.000106 61:3.4e-05 62:0.000252 63:0.002672 64:0.531585 
4 1:0.136992 2:0.033568 3:0.000325 4:0.000411 5:0.014768 6:0.023504 7:0.000656 8:4.8e-05 9:4.8e-05 10:0.000176 11:0.00056 12:4.8e-05 15:3.7e-05 16:0.001099 17:0.007456 18:0.001899 19:0.000213 20:9.6e-05 21:0.015104 22:0.31352 23:0.014688 24:0.000352 25:0.000101 26:0.002688 27:0.009131 28:2.7e-05 31:2.1e-05 32:0.000171 33:1.1e-05 37:0.010293 38:0.068651 39:0.021851 40:2.1e-05 41:0.002768 42:0.01312 43:0.178715 44:0.010709 46:5.3e-05 47:0.004245 48:0.004213 53:1.1e-05 55:1.1e-05 57:0.01192 58:0.000165 59:0.004048 60:0.001168 61:0.000299 62:6.9e-05 63:0.004101 64:0.085851 
4 1:0.351944 2:0.021272 3:0.03829 5:2.5e-05 6:0.001469 7:0.001605 8:7.4e-05 11:0.000241 12:0.002519 16:0.001315 17:0.033969 18:0.019772 19:0.015469 20:6e-06 21:0.000704 22:0.059815 23:0.054951 24:0.008377 26:6e-06 27:0.000864 28:0.001451 32:0.003716 33:0.00016 34:6e-06 37:4.9e-05 38:0.035043 39:0.018895 40:0.00316 42:0.001111 43:0.048975 44:0.005796 47:4.9e-05 48:0.007265 54:0.000136 55:1.9e-05 58:0.000321 59:0.143778 60:0.012679 63:0.001586 64:0.103117 
4 1:0.291557 2:0.052875 3:0.018688 4:0.004821 5:0.000891 6:0.008496 7:0.008459 8:0.004624 11:0.000485 12:0.002699 16:1.1e-05 17:0.007003 18:0.0004 19:2.1e-05 20:5e-06 21:0.009195 22:0.046603 23:0.005296 24:0.000517 26:0.000821 27:0.008763 28:0.001099 32:3.2e-05 33:6.9e-05 37:0.128917 38:0.053115 39:0.000389 40:1.1e-05 41:2.1e-05 42:0.019232 43:0.132443 44:0.012869 47:0.001696 48:0.005973 53:0.002405 54:0.014608 57:3.7e-05 58:0.035675 59:0.002229 60:0.000485 63:0.002896 64:0.113568 
4 1:0.131592 2:0.001111 3:9.6e-05 4:3.6e-05 5:0.002871 6:0.004126 7:0.000432 8:2.4e-05 10:1.2e-05 11:2.4e-05 12:6e-06 17:0.042048 18:0.000312 19:6e-06 21:0.15215 22:0.12636 23:0.001045 24:0.000138 26:0.005586 27:0.022414 28:0.000294 32:0.000108 33:6e-06 37:0.007604 38:0.030432 39:0.000138 40:6e-06 41:0.009183 42:0.027742 43:0.149099 44:0.003237 45:6e-06 46:1.8e-05 47:0.000865 48:0.010583 57:0.000126 58:0.002492 59:0.014366 60:0.000138 62:0.003213 63:0.209976 64:0.039976 
4 1:0.302613 2:0.004501 3:0.000347 4:0.000229 5:0.022219 6:0.044181 7:0.000875 8:0.000245 10:0.005232 11:0.002069 12:0.000507 15:0.000427 16:0.000907 17:0.009445 18:0.000453 19:8e-05 20:5e-06 21:0.022949 22:0.092757 23:0.003579 24:0.000229 25:3.7e-05 26:0.006731 27:0.015045 28:0.000667 31:0.000848 32:0.001573 33:0.0008 37:0.005461 38:0.009653 39:0.000277 40:0.000112 41:0.000923 42:0.012752 43:0.172363 44:0.028315 45:1.6e-05 46:9.1e-05 47:0.002299 48:0.034603 53:0.008677 54:0.000277 57:0.0176 58:0.006112 59:0.003643 60:0.000181 61:0.000549 62:0.001749 63:0.026549 64:0.128245 
4 1:0.238257 2:0.00735 3:0.005842 4:8.2e-05 5:0.01529 6:0.020678 7:0.008399 8:0.003934 11:9.3e-05 12:0.001863 16:5e-06 17:0.03076 18:0.000383 19:8.7e-05 20:2.7e-05 21:0.018902 22:0.261038 23:0.003727 24:0.000322 26:0.003426 27:0.009087 28:0.001727 31:5e-06 32:4.9e-05 33:0.002295 37:0.008978 38:0.007388 39:0.000213 40:2.7e-05 41:3.8e-05 42:0.006552 43:0.098508 44:0.001607 47:0.004131 48:0.001978 53:0.000153 54:5e-06 57:4.9e-05 58:0.001443 59:0.081503 60:8.2e-05 63:0.092104 64:0.061612 
4 1:0.558789 2:0.046883 3:6.4e-05 5:0.005263 6:0.033456 7:0.013865 8:0.001064 11:0.000263 12:0.000871 17:0.004421 18:0.000544 19:6e-06 21:0.004655 22:0.095889 23:0.006041 24:5.3e-05 25:6e-06 26:0.001415 27:0.007094 28:0.003058 32:0.00014 33:6e-06 37:1.2e-05 38:0.001678 39:0.000333 42:0.001211 43:0.047351 44:0.003082 47:0.001164 48:0.006135 59:0.000246 60:2.9e-05 63:0.000854 64:0.154058 
4 1:0.114112 2:0.044288 3:0.001536 4:0.001227 5:0.001104 6:0.138363 7:0.051541 8:0.035259 10:0.001717 11:0.058992 12:0.099653 15:5e-06 16:0.041371 17:0.000112 18:0.000357 19:1.1e-05 20:6.4e-05 21:2.7e-05 22:0.027413 23:0.020587 24:0.00184 26:0.001867 27:0.14248 28:0.035579 31:0.0032 32:0.041589 38:0.000245 39:0.000123 40:0.000117 41:1.1e-05 42:1.1e-05 43:0.009925 44:0.005499 47:0.002581 48:0.078144 57:5e-06 59:0.000293 60:0.000288 62:1.1e-05 63:0.000128 64:0.038325 
4 1:0.082827 2:0.029024 3:0.011339 4:0.003355 5:0.000533 6:0.010443 7:0.005029 8:0.012688 11:0.000448 12:0.003003 16:0.00048 17:0.010352 18:0.004608 19:0.000219 20:1.6e-05 21:0.011765 22:0.172293 23:0.117701 24:0.001749 26:0.001109 27:0.047845 28:0.001611 32:0.000277 33:5e-06 34:5e-06 37:0.0008 38:0.004629 39:0.00152 40:1.6e-05 41:3.7e-05 42:0.003237 43:0.1892 44:0.004496 47:0.000725 48:0.006069 53:5e-06 57:7.5e-05 58:0.001307 59:0.030976 60:0.000923 61:2.7e-05 62:0.000357 63:0.023563 64:0.203312 
4 1:0.24304 2:0.043157 3:0.000411 4:2.7e-05 5:0.020528 6:0.061925 7:0.031472 8:2.7e-05 10:0.039883 11:0.001349 12:0.000464 17:0.005851 18:0.0008 19:7.5e-05 20:5.3e-05 21:0.005477 22:0.094011 23:0.017099 24:0.000325 25:5e-06 26:0.024949 27:0.039216 28:0.000752 31:8e-05 32:7.5e-05 37:3.7e-05 38:0.006 39:0.001291 40:5.9e-05 41:1.1e-05 42:0.002421 43:0.147888 44:0.026389 47:0.000848 48:0.028357 58:1.1e-05 59:0.025813 60:0.007557 63:0.003771 64:0.118496 
4 1:0.418966 2:0.017904 3:0.000101 4:0.000135 5:0.008303 6:0.050039 7:0.002775 8:0.000124 10:9e-05 11:0.000764 12:0.000118 16:5.1e-05 17:0.022129 18:0.003169 21:0.016034 22:0.059404 23:0.019961 26:0.001298 27:0.054 28:0.00709 31:5.1e-05 32:0.001916 33:0.000292 34:0.000275 37:0.000107 38:0.012416 39:0.001483 40:1.1e-05 42:0.012084 43:0.056174 44:0.015258 46:6e-06 47:0.001596 48:0.036039 54:0.00036 55:9.6e-05 58:0.000596 59:0.017713 60:0.001371 63:0.014511 64:0.145191 
4 1:0.119491 2:0.063301 3:0.000982 5:0.000864 6:0.015506 7:0.00453 11:3.1e-05 17:0.04599 18:0.014535 19:0.000139 21:0.01909 22:0.197434 23:0.095023 24:0.000391 26:0.000123 27:0.008093 28:0.000591 37:2.1e-05 38:0.010267 39:0.005928 40:5e-06 42:0.002982 43:0.141625 44:0.026129 47:0.004087 48:0.00671 58:1e-05 59:0.01419 60:0.001162 63:0.048391 64:0.15238 
4 1:0.209779 22:0.449319 43:0.255583 64:0.085319 
4 1:0.039296 2:0.001696 3:7.5e-05 5:0.034677 6:0.084432 7:0.004592 9:5e-06 10:0.007216 11:0.018267 12:0.002869 15:5e-06 16:0.007317 17:0.001845 18:0.000459 19:3.2e-05 21:0.0076 22:0.184304 23:0.005584 25:0.000421 26:0.090373 27:0.10816 28:0.001221 31:0.000123 32:0.018997 33:5e-06 37:0.000256 38:0.00504 39:0.000219 40:5e-06 42:0.041712 43:0.202587 44:0.000827 47:0.016944 48:0.010592 58:5.9e-05 59:0.000971 60:4.3e-05 62:1.1e-05 63:0.006517 64:0.094645 
4 1:0.264435 2:0.002459 3:0.000635 4:5.9e-05 5:0.043865 6:0.013288 7:0.002829 8:0.000153 9:0.000876 10:0.010347 11:0.000471 12:0.000124 14:0.000218 15:4.1e-05 16:0.000335 17:0.053059 18:0.000324 19:6e-06 21:0.028371 22:0.048341 23:0.006371 24:3.5e-05 25:0.000388 26:0.031988 27:0.049841 28:0.000376 30:0.005065 31:0.003582 32:0.001512 37:0.001724 38:0.007488 39:1.8e-05 41:2.4e-05 42:0.014865 43:0.061988 44:0.010282 46:0.000206 47:0.003506 48:0.014506 54:3.5e-05 58:0.216871 59:0.028165 60:1.2e-05 62:8.2e-05 63:0.048888 64:0.021947 
4 1:0.192384 2:0.063819 3:0.001056 5:0.003333 6:0.004544 7:0.000288 8:5e-06 17:0.034576 18:0.001232 19:1.6e-05 21:0.043232 22:0.343771 23:0.004411 24:5e-06 26:0.014581 27:0.023909 38:0.044597 39:0.009499 42:0.014459 43:0.133488 44:0.005643 47:0.000107 48:0.002005 59:0.004485 60:0.000155 63:0.001813 64:0.052587 
4 1:0.050989 2:0.013118 3:0.001184 5:0.000233 6:0.009004 7:0.004948 17:0.037958 18:0.046816 19:3.9e-05 21:0.006084 22:0.553249 23:0.044575 24:0.006239 26:6.8e-05 27:0.0085 28:0.000146 38:0.003522 39:0.000408 42:0.001096 43:0.088452 44:0.032864 48:0.03692 60:5.8e-05 63:1e-05 64:0.053521 
4 1:0.142971 2:0.031285 3:0.011125 4:0.010693 5:0.011915 6:0.009637 7:0.002363 8:0.000416 9:1.1e-05 10:0.00192 11:0.000475 12:0.000139 15:0.000133 16:2.1e-05 17:0.006331 18:0.002512 19:0.001472 20:0.001013 21:0.054389 22:0.174267 23:0.037019 24:0.003093 25:0.000795 26:0.014304 27:0.036971 28:0.006507 31:0.000709 32:0.009285 33:1.1e-05 37:0.000485 38:0.003077 39:0.007659 40:0.000203 41:0.000715 42:0.032235 43:0.24496 44:0.009168 46:0.000187 47:0.008672 48:0.015472 53:5e-06 54:5e-06 57:3.2e-05 58:0.014715 59:0.004379 60:5.9e-05 62:9.6e-05 63:0.006347 64:0.079749 
4 1:0.319117 2:0.037261 3:0.129898 4:0.022835 5:0.002985 6:0.025724 7:0.001309 8:0.000895 10:0.000288 11:0.000348 12:0.000559 15:1.2e-05 16:1.8e-05 17:0.009802 18:0.000619 19:0.000228 20:0.000757 21:0.003814 22:0.073291 23:0.018108 24:0.006559 26:0.000679 27:0.008 28:0.001345 31:0.000631 32:0.023772 33:0.000685 36:1.8e-05 37:0.001568 38:0.001904 39:0.000468 40:0.000811 42:0.000853 43:0.017219 44:0.006246 47:0.000607 48:0.014907 53:0.000102 54:3.6e-05 57:1.8e-05 58:0.00015 59:0.001105 60:0.000631 62:4.8e-05 63:0.001562 64:0.26221 
4 1:0.298621 2:0.113666 3:0.000376 4:4.8e-05 5:0.000173 6:0.058137 7:0.034149 8:0.000113 11:1.8e-05 12:0.000376 17:0.002764 18:0.001767 20:6e-06 21:0.001433 22:0.11637 23:0.078382 24:0.000137 26:6.6e-05 27:0.015427 28:0.003385 32:6e-06 37:4.2e-05 38:0.001642 39:0.002185 42:0.005242 43:0.084233 44:0.012209 48:0.030836 54:6e-06 58:3e-05 59:0.001875 60:0.000245 63:0.00074 64:0.135296 
4 1:0.166725 2:0.011301 3:0.000405 4:5e-06 5:0.005013 6:0.034704 7:0.001696 8:0.000624 10:0.000496 11:0.002613 12:0.0004 15:5e-06 16:0.001237 17:0.017552 18:0.00384 19:2.7e-05 20:9.6e-05 21:0.050043 22:0.245824 23:0.036981 24:0.000453 25:2.1e-05 26:0.002405 27:0.034811 28:0.001653 31:6.9e-05 32:0.006901 33:2.1e-05 37:0.004629 38:0.014779 39:0.001333 40:7.5e-05 41:0.008971 42:0.014539 43:0.118635 44:0.012624 46:4.3e-05 47:0.000571 48:0.021851 57:0.007589 58:0.006219 59:0.010283 60:0.000352 61:0.000304 62:0.009328 63:0.027573 64:0.114379 
4 1:0.036256 2:0.012469 3:0.010549 4:0.048811 5:0.000955 6:0.009627 7:0.001045 8:0.001925 10:0.001365 11:0.000176 12:0.001205 16:0.001184 17:0.001179 18:0.00112 19:0.001045 20:0.001643 21:0.000816 22:0.104565 23:0.024805 24:0.016053 26:0.009824 27:0.037739 28:0.000912 30:1.1e-05 31:0.012235 32:0.000277 34:5e-06 37:1.6e-05 38:0.003824 39:0.002165 40:0.003093 42:0.002309 43:0.402005 44:0.026843 47:0.002613 48:0.024608 58:0.000517 59:0.005643 60:0.004715 62:0.000235 63:0.011472 64:0.172144 
4 1:0.092155 2:0.053322 3:0.000322 5:0.000126 6:0.141259 7:0.001431 8:4e-05 10:0.000397 11:4.6e-05 17:1.1e-05 18:0.00081 21:1.7e-05 22:0.142914 23:0.08054 24:2.3e-05 26:0.008402 27:0.152707 28:0.00042 31:6e-06 32:2.3e-05 38:0.000707 39:8.6e-05 42:0.000575 43:0.091563 44:0.018092 47:0.003109 48:0.080787 59:8e-05 60:7.5e-05 63:0.000115 64:0.129839 
4 1:0.119622 2:0.012811 3:7.2e-05 5:0.001339 6:0.026372 7:0.005195 8:1.8e-05 12:6e-06 17:0.05385 18:0.010805 19:1.8e-05 21:0.022817 22:0.266024 23:0.024138 24:7.2e-05 26:3e-05 27:0.003267 28:0.000553 32:6e-06 38:0.004474 39:0.000613 40:6e-06 42:0.000925 43:0.012541 44:0.002216 47:6e-06 48:0.000318 59:0.015147 60:0.001958 63:0.014745 64:0.400036 
4 1:0.136437 2:0.011595 3:0.001557 4:0.000117 5:0.003877 6:0.023616 7:0.001184 8:0.000219 10:4.3e-05 11:3.2e-05 12:6.4e-05 16:5e-06 17:0.016155 18:0.000901 19:1.1e-05 20:1.1e-05 21:0.031136 22:0.28072 23:0.005893 24:0.000683 26:0.001349 27:0.005621 28:0.001136 31:1.1e-05 32:0.000251 37:1.6e-05 38:0.048251 39:0.000379 40:1.1e-05 42:0.014811 43:0.025312 44:0.009755 47:0.000571 48:0.022565 59:0.005227 60:6.4e-05 63:0.006448 64:0.343968 
4 1:0.155909 2:0.007547 3:3.2e-05 5:0.003744 6:0.005333 7:0.000219 8:0.000171 12:0.000101 17:0.012283 18:0.000672 19:5e-06 21:0.055472 22:0.201275 23:0.003029 26:0.001573 27:0.003259 37:4.3e-05 38:0.023355 39:0.000379 42:0.114917 43:0.127381 44:0.013115 47:0.000709 48:0.026635 58:0.000288 59:0.001664 60:0.000245 63:0.000336 64:0.240309 
4 1:0.495643 2:0.008453 3:1.1e-05 5:0.010352 6:0.028144 7:2.7e-05 17:0.003621 18:0.003408 21:0.003189 22:0.097515 23:0.000763 26:0.003509 27:0.004459 28:1.1e-05 31:1.1e-05 32:5e-06 33:2.7e-05 34:0.00032 37:1.1e-05 38:0.012512 39:0.000715 42:0.003179 43:0.013696 44:0.000187 47:0.000283 48:0.001195 50:1.1e-05 54:1.1e-05 55:5e-06 58:2.7e-05 59:0.00072 60:0.000224 63:0.00016 64:0.3076 
4 1:0.196061 2:0.041515 5:0.001405 6:0.006006 17:0.020307 18:0.017166 21:0.023172 22:0.365994 23:0.000123 26:0.010669 27:0.00084 38:0.004031 39:2.5e-05 42:0.042245 43:0.073834 47:0.004773 48:0.000779 59:4.3e-05 63:0.00384 64:0.187172 
4 1:0.215322 2:0.020566 3:0.002958 5:0.001126 6:0.004157 7:0.000286 17:0.01879 18:0.001983 21:0.010566 22:0.309664 23:0.035697 24:0.000118 26:0.000734 27:0.005994 28:7.3e-05 37:5e-05 38:0.005277 39:0.000521 40:1.7e-05 42:0.016179 43:0.078711 44:0.001143 47:5e-05 48:0.000123 58:2.2e-05 59:0.00898 60:0.000106 63:0.011417 64:0.249367 
4 1:0.140975 2:0.000577 3:0.000364 4:1.1e-05 5:0.005647 6:0.01009 7:0.000353 8:3.4e-05 10:0.003188 11:6.7e-05 12:6e-06 17:0.020941 18:0.000689 19:3.9e-05 21:0.02405 22:0.239877 23:0.000992 24:3.9e-05 26:0.008958 27:0.013513 28:2.8e-05 32:1.7e-05 33:6e-06 34:1.7e-05 37:0.001014 38:0.044062 39:0.001171 40:6e-06 41:5e-05 42:0.035647 43:0.149737 44:0.001098 47:0.000952 48:0.005434 55:6e-06 59:0.009171 60:0.000241 63:0.008527 64:0.272409 
4 1:0.16646 2:0.0581 3:0.093485 4:0.001524 6:0.000116 7:0.000249 17:0.218809 18:0.01713 19:0.007457 20:0.002936 21:0.02133 22:0.048454 23:0.006061 24:0.003402 26:1.1e-05 27:0.000116 37:0.00195 38:0.044454 39:0.00508 40:0.00308 42:0.006488 43:0.012194 44:0.001413 48:6e-06 58:0.040033 59:0.23626 60:0.001994 63:0.000421 64:0.000986 
4 1:0.232138 2:0.002491 3:0.001342 4:0.001592 5:0.001312 6:0.005184 7:0.001764 8:0.011582 11:0.001253 12:0.008801 16:0.000128 17:0.07598 18:0.0014 19:0.000604 20:0.000256 21:0.063754 22:0.175779 23:0.00458 24:0.002516 26:0.000963 27:0.00626 28:0.002251 31:5e-06 32:0.000172 33:0.000167 34:8.8e-05 35:1.5e-05 37:0.003641 38:0.019238 39:0.001833 40:9.8e-05 41:5.4e-05 42:0.006334 43:0.032423 44:0.002737 47:0.000894 48:0.005813 53:0.000344 54:0.000108 55:0.000182 56:2.9e-05 57:0.003425 58:0.001307 59:0.06057 60:0.000614 61:0.000138 62:0.000536 63:0.045096 64:0.212206 
4 1:0.172763 2:0.059883 3:0.001349 4:0.00328 5:0.00032 6:0.052784 7:0.007232 8:0.000533 10:0.000165 11:0.002336 12:1.6e-05 17:0.004016 18:0.008224 19:0.000475 20:0.000309 21:0.000363 22:0.186315 23:0.049264 24:0.000395 26:0.000512 27:0.062949 28:0.011067 31:5.9e-05 32:0.005771 33:0.000117 34:5e-06 37:4.3e-05 38:0.007301 39:0.012837 40:2.1e-05 42:0.001184 43:0.10768 44:0.016352 47:0.000155 48:0.018293 54:5e-06 58:5e-06 59:0.009221 60:0.006421 63:0.001941 64:0.188037 
4 1:0.208633 2:0.009384 3:0.001042 5:0.037972 6:0.007955 7:0.000986 11:8.4e-05 17:0.011658 18:0.001311 19:0.000207 20:7.8e-05 21:0.024812 22:0.16442 23:0.015703 24:0.000706 26:0.025714 27:0.036258 28:0.000728 32:6e-06 38:0.004633 39:0.000336 40:8.4e-05 42:0.015322 43:0.165249 44:0.010118 47:0.003087 48:0.010258 59:0.003345 60:0.000235 63:0.012465 64:0.22721 
4 1:0.02572 2:0.005299 3:0.005626 4:0.000248 5:0.000364 6:0.005944 7:0.002836 8:0.004098 10:2.3e-05 11:0.000196 12:0.00035 16:1.4e-05 17:0.011561 18:0.001514 19:0.00022 20:1.9e-05 21:0.007327 22:0.148631 23:0.017192 24:0.000495 26:0.019262 27:0.029841 28:0.003238 32:0.011542 33:0.000294 37:0.005252 38:0.008439 39:0.003682 40:7.9e-05 42:0.003822 43:0.543276 44:0.015785 47:0.00043 48:0.010556 53:0.000397 54:2.3e-05 57:0.008734 58:0.010584 59:0.002846 60:0.004271 62:6.5e-05 63:0.001813 64:0.078089 
4 1:0.157522 2:0.017851 3:0.002639 4:0.000155 5:0.005534 6:0.02883 7:0.000806 8:0.000484 10:0.010472 11:0.00551 12:0.000442 15:0.000746 16:0.000675 17:0.009385 18:0.001182 19:0.000884 20:0.000442 21:0.018913 22:0.126442 23:0.015481 24:0.000364 25:6e-06 26:0.01311 27:0.080191 28:0.002442 30:6e-06 31:0.010012 32:0.023188 33:3e-05 37:0.001731 38:0.005164 39:0.000633 40:0.000161 41:0.000346 42:0.012943 43:0.188155 44:0.008704 46:2.4e-05 47:0.007863 48:0.056322 53:4.8e-05 57:0.000484 58:0.001188 59:0.013648 60:0.000746 61:4.8e-05 62:0.000364 63:0.021445 64:0.146239 
4 1:0.323274 2:0.022381 3:0.00133 4:0.00034 5:0.012365 6:0.065772 7:0.001812 8:0.001497 9:1e-05 10:0.003548 11:0.004462 12:0.001604 15:8.6e-05 16:0.000218 17:0.05164 18:0.001183 19:7.1e-05 20:0.000178 21:0.029832 22:0.141589 23:0.010508 24:0.001629 25:0.000107 26:0.00735 27:0.047381 28:0.002995 29:2.5e-05 30:0.000497 31:0.001426 32:0.002883 33:0.000675 34:5e-06 37:0.002477 38:0.004508 39:0.000513 40:9.6e-05 41:1e-05 42:0.003416 43:0.08703 44:0.014152 46:0.000614 47:0.004 48:0.032117 53:0.000132 54:0.000168 57:4.6e-05 58:0.001624 59:0.005858 60:0.000223 62:7.1e-05 63:0.003203 64:0.101066 
4 1:0.243131 2:0.009856 3:0.0036 4:0.005099 5:0.041771 6:0.025504 7:0.001957 8:0.000992 10:0.001931 11:0.001019 12:0.001659 15:5e-06 16:5.3e-05 17:0.005819 18:0.000661 19:0.000432 20:0.000197 21:0.009941 22:0.123813 23:0.008416 24:0.005941 25:9.6e-05 26:0.012453 27:0.020443 28:0.00184 31:0.000576 32:0.003003 33:5e-06 37:0.000251 38:0.006891 39:0.000848 40:0.001072 41:2.1e-05 42:0.010139 43:0.145157 44:0.0176 47:0.003541 48:0.032971 53:3.2e-05 54:1.1e-05 57:0.000592 58:0.000725 59:0.011749 60:0.00216 62:5.3e-05 63:0.006661 64:0.229312 
4 1:0.17237 2:0.010609 3:0.000339 5:0.014804 6:0.015521 7:0.002862 8:5.4e-05 9:0.000117 10:5e-05 11:2.3e-05 17:0.005919 18:0.000528 19:9e-06 21:0.011034 22:0.145792 23:0.031056 24:1.8e-05 25:0.004334 26:0.005946 27:0.046081 28:0.01935 29:3.6e-05 30:0.002321 31:7.2e-05 32:5.4e-05 37:0.00507 38:0.053589 39:0.000203 42:0.056578 43:0.045494 44:0.025905 46:0.001503 47:0.000817 48:0.00563 58:0.011729 59:0.120325 60:9.9e-05 63:0.058005 64:0.125752 
4 1:0.082624 2:0.002053 3:2.1e-05 5:0.014144 6:0.025829 7:0.000219 8:2.1e-05 10:6.4e-05 11:0.000181 12:0.000528 16:2.7e-05 17:0.011499 18:0.003563 19:0.002459 21:0.00744 22:0.235019 23:0.022197 24:2.7e-05 26:0.003072 27:0.004949 28:0.000251 32:0.000208 37:0.002203 38:0.018384 39:0.015451 40:9.1e-05 41:0.001328 42:0.005579 43:0.320683 44:0.005621 47:0.000469 48:0.004997 53:9.1e-05 54:2.1e-05 57:0.001493 58:0.001456 59:0.003056 60:0.001861 63:0.001936 64:0.198885 
4 1:0.146679 2:0.034889 3:0.000685 4:0.000132 5:0.024006 6:0.104066 7:0.015231 8:0.00015 9:0.003267 10:0.001009 12:0.00024 16:9.6e-05 17:0.003844 18:0.000655 19:1.8e-05 21:0.007195 22:0.053393 23:0.203682 24:1.8e-05 25:0.000282 26:0.006913 27:0.005123 28:6e-05 32:9e-05 33:1.8e-05 34:0.000162 38:0.000793 39:0.000312 42:0.000919 43:0.010583 44:0.00012 47:0.001093 48:0.000294 50:6e-06 54:1.2e-05 55:0.000144 59:0.006685 60:0.000198 63:0.012967 64:0.35397 
4 1:0.431232 2:0.065701 3:0.010901 4:6.9e-05 5:0.010432 6:0.023253 7:0.003227 8:6.4e-05 10:0.026288 11:0.013413 12:7.5e-05 15:0.001136 16:5e-06 17:0.020512 18:0.007568 19:0.00016 20:5e-06 21:0.011707 22:0.106021 23:0.00888 24:0.000347 25:0.000171 26:0.001979 27:0.007579 28:0.000107 31:0.020805 32:0.003856 33:1.1e-05 37:4.8e-05 38:0.011136 39:0.001205 40:1.1e-05 42:0.009733 43:0.048896 44:0.000789 47:0.000336 48:0.002139 58:5e-06 59:0.005669 60:0.000309 63:0.003723 64:0.140496 
4 1:0.124805 2:0.003723 3:5e-06 5:0.029152 6:0.032677 7:0.007301 9:0.000464 10:0.09824 11:0.000181 12:1.6e-05 17:0.006421 18:0.001707 21:0.014219 22:0.255205 23:0.012395 26:0.096651 27:0.025664 28:0.000309 30:0.000245 31:0.000304 33:0.000235 37:0.002256 38:0.022603 39:0.001173 42:0.016181 43:0.130976 44:0.011979 46:4.3e-05 47:0.007403 48:0.005216 53:5e-06 58:5.9e-05 59:0.015381 60:0.002005 63:0.007269 64:0.067531 
4 1:0.351908 2:0.046061 3:0.00492 4:0.000123 5:0.003049 6:0.025429 7:0.00035 10:6e-06 11:2.5e-05 17:0.014969 18:0.002313 19:0.00016 21:0.021172 22:0.263233 23:0.016074 24:7.4e-05 25:6.7e-05 26:0.002172 27:0.005135 28:1.2e-05 31:0.000245 32:6.7e-05 33:0.000626 37:0.000847 38:0.003123 39:0.000301 40:5.5e-05 42:0.002798 43:0.078828 44:0.002933 45:6e-06 47:0.002086 48:0.00535 53:2.5e-05 54:1.2e-05 59:0.002785 60:0.000638 63:0.003374 64:0.13865 
4 1:0.245497 22:0.331606 43:0.281036 64:0.141861 
4 1:0.394821 2:0.001937 3:3.6e-05 4:9e-06 5:0.002732 6:0.012464 7:0.000286 11:9e-06 12:9e-06 17:0.126214 18:0.003152 19:3.6e-05 21:0.151911 22:0.200786 23:0.000384 24:2.7e-05 26:0.000339 27:0.000304 28:4.5e-05 32:1.8e-05 33:1.8e-05 37:0.015929 38:0.019857 39:0.00042 41:0.000339 42:0.01225 43:0.009625 44:2.7e-05 47:3.6e-05 58:0.000312 59:0.010384 60:6.3e-05 63:0.015562 64:0.019661 
4 1:0.112613 2:0.035648 3:0.001392 5:0.005387 6:0.039909 7:0.019957 11:5e-06 17:0.0148 18:0.000736 19:1.6e-05 21:0.019845 22:0.16352 23:0.029568 24:8e-05 26:0.008117 27:0.026523 28:0.000976 31:5e-06 32:0.001061 37:0.00496 38:0.005147 39:3.7e-05 41:0.001488 42:0.012443 43:0.070256 44:0.007259 47:0.003061 48:0.067856 58:0.002501 59:0.046917 60:1.6e-05 63:0.190763 64:0.107136 
4 1:0.217646 2:0.130133 3:0.028077 4:3.3e-05 5:0.022519 6:0.025055 7:0.000536 8:3.3e-05 10:0.000845 11:9.9e-05 15:1.7e-05 17:0.003039 18:0.011746 19:0.001442 20:0.000122 21:0.015552 22:0.161099 23:0.012028 24:0.00042 25:7.2e-05 26:0.007083 27:0.010138 28:4.4e-05 31:0.000276 32:0.000304 37:0.000177 38:0.020591 39:0.001088 40:0.000122 42:0.013376 43:0.165685 44:0.011304 47:0.001497 48:0.014072 58:1.1e-05 59:0.001497 60:0.000133 63:0.002061 64:0.120028 
4 1:0.302288 2:0.001147 3:0.002976 4:5e-06 5:0.004192 6:0.000464 7:0.003685 8:0.00432 17:0.099947 18:0.001616 19:3.7e-05 21:0.034693 22:0.051152 23:0.003797 24:0.002219 26:0.000293 27:0.000107 28:0.000416 37:5e-06 38:0.013915 39:0.000629 40:0.000208 42:0.011819 43:0.076837 44:0.003253 47:0.000128 48:5e-06 58:0.000555 59:0.074299 60:0.000331 62:1.1e-05 63:0.175616 64:0.129035 
4 1:0.107735 2:0.036255 5:0.003635 6:0.0822 7:1e-05 11:0.000115 17:0.001195 18:0.004725 21:0.00111 22:0.41539 23:0.00744 26:0.01757 27:0.09392 32:5e-06 38:0.00119 39:0.000475 42:0.003545 43:0.116625 44:4.5e-05 47:0.012955 48:0.00239 59:0.000295 60:5e-06 63:0.002125 64:0.089045 
4 1:0.14088 2:0.017397 3:0.000784 4:0.000315 5:0.004352 6:0.097179 7:0.001387 8:0.000437 10:0.000757 11:0.000923 12:0.001792 16:0.003493 17:0.050539 18:0.001936 19:0.000133 20:0.000133 21:0.018923 22:0.153563 23:0.008325 24:0.001211 26:0.005205 27:0.015595 28:0.001829 32:0.000741 37:0.005835 38:0.009483 39:0.0008 40:0.000101 41:0.001136 42:0.011717 43:0.038992 44:0.008176 47:0.000192 48:0.00824 54:5e-06 57:0.006848 58:0.003723 59:0.004859 60:0.000293 61:0.000176 62:0.000635 63:0.113941 64:0.257019 
4 1:0.086673 2:0.001795 3:6e-06 5:0.002481 6:0.00125 7:0.000179 11:1.3e-05 12:9e-05 17:0.033186 18:0.000538 21:0.055622 22:0.031718 23:0.002218 24:1.3e-05 26:0.004686 27:0.011199 28:0.002897 31:6e-06 32:0.001519 33:2.6e-05 37:0.035756 38:0.118667 39:0.000724 41:0.002237 42:0.093769 43:0.13309 44:0.031795 47:0.045974 48:0.020494 57:0.000308 58:0.013244 59:0.037288 60:0.001506 62:6e-06 63:0.063583 64:0.165442 
4 1:0.075224 2:0.008782 3:4.3e-05 6:0.001035 7:0.000464 8:1.1e-05 11:5e-06 17:0.000437 18:0.010987 21:3.8e-05 22:0.543536 23:0.003245 26:5e-06 27:0.001542 28:0.000534 32:4.3e-05 38:8.1e-05 39:0.002668 43:0.083272 44:0.109439 47:1.1e-05 48:0.114571 64:0.044027 
4 1:0.159216 2:0.012624 3:0.006352 4:2.1e-05 5:0.007616 6:0.007285 7:0.002453 8:4.8e-05 10:0.000139 11:1.1e-05 12:5e-06 16:5e-06 17:0.011067 18:0.000645 19:0.000629 21:0.014331 22:0.083867 23:0.047792 24:0.001221 26:0.003024 27:0.009861 28:1.6e-05 33:0.012624 34:1.1e-05 37:0.013461 38:0.018224 39:0.001835 40:1.1e-05 42:0.019803 43:0.441381 44:0.0132 47:0.000869 48:0.010917 49:0.000197 53:0.009184 54:0.000213 57:0.000832 58:0.002965 59:0.01136 60:0.0004 62:0.000235 63:0.023419 64:0.050629 
4 1:0.21352 2:0.003669 5:0.002992 6:0.023797 7:0.002896 10:0.001477 11:0.002032 12:0.060091 16:0.024827 17:0.01104 18:0.00216 21:0.005109 22:0.159355 23:0.007221 24:5e-06 25:2.7e-05 26:0.021829 27:0.058549 28:0.017104 31:0.000101 32:0.043035 37:2.1e-05 38:0.011099 39:0.001781 41:5e-06 42:0.007067 43:0.167941 44:0.003525 47:0.002101 48:0.038128 58:1.6e-05 59:0.004832 60:0.000544 63:0.005109 64:0.096992 
4 1:0.153648 2:0.022811 3:0.009147 4:6.4e-05 5:0.000629 6:0.004325 7:0.000544 8:0.000304 10:6.4e-05 11:1.6e-05 12:8.5e-05 15:5e-06 16:5e-06 17:0.021077 18:0.007755 19:0.001963 20:0.000187 21:0.011285 22:0.321216 23:0.009984 24:0.001061 26:0.000379 27:0.002683 28:0.000699 31:7.5e-05 32:5.9e-05 37:3.2e-05 38:0.008587 39:0.003232 40:0.000101 42:0.008139 43:0.106507 44:0.002656 47:0.000251 48:0.00112 58:2.7e-05 59:0.026731 60:0.001675 63:0.116784 64:0.154091 
4 1:0.189029 2:0.013531 3:0.000661 4:0.000763 5:0.001349 6:0.015952 7:0.004085 8:0.005744 11:0.001424 12:0.005819 16:0.006789 17:0.020731 18:0.004096 19:6.4e-05 20:0.000123 21:0.013797 22:0.249504 23:0.031493 24:0.007477 26:0.001323 27:0.028795 28:0.004693 31:1.1e-05 32:0.006427 33:0.000352 34:1.6e-05 36:5e-06 37:0.031253 38:0.025648 39:0.003696 40:5.3e-05 41:0.000784 42:0.017573 43:0.170187 44:0.016731 47:0.000475 48:0.021845 53:0.010848 54:0.000592 55:1.1e-05 57:0.007451 58:0.010325 59:0.011664 60:0.000981 62:5e-06 63:0.004624 64:0.0512 
-0.1956315883202994 1:0.452789 2:0.045333 3:0.03981 5:0.011272 6:0.014196 7:0.012398 8:3.7e-05 11:3.1e-05 17:0.025755 18:0.004826 19:0.000917 21:0.018153 22:0.118135 23:0.017584 24:0.003156 26:0.001872 27:0.002043 28:0.000312 33:4.9e-05 37:1.8e-05 38:0.007131 39:0.001205 40:0.000116 42:0.005645 43:0.145388 44:0.001853 47:0.003835 48:0.000361 59:0.006612 60:0.000147 63:0.035187 64:0.023835 
-1 1:0.099136 2:0.018027 3:0.002347 4:0.000997 5:0.004309 6:0.031925 7:0.000421 8:8.5e-05 9:0.000171 10:0.000171 11:7.5e-05 17:0.004053 18:0.001077 19:0.000272 20:9.6e-05 21:0.002656 22:0.177104 23:0.037589 24:0.003669 25:0.000693 26:0.016715 27:0.096507 28:0.00056 29:1.6e-05 31:3.7e-05 32:5.9e-05 33:0.001173 37:0.018875 38:0.003829 39:0.000901 40:0.000176 41:3.7e-05 42:0.003547 43:0.236112 44:0.026331 45:3.7e-05 46:0.000544 47:0.001392 48:0.024453 53:0.007771 54:0.000869 57:0.007637 58:0.021163 59:0.00664 60:0.000725 61:5e-06 62:0.01408 63:0.048432 64:0.076501 
-1 1:0.235067 2:0.008677 3:0.000944 5:0.005685 6:0.032299 7:0.001173 8:3.2e-05 10:0.02016 11:0.000555 12:1.1e-05 17:0.063984 18:0.004955 19:9.6e-05 21:0.038283 22:0.151429 23:0.01624 24:1.1e-05 26:0.014752 27:0.011605 28:2.7e-05 31:0.000101 33:5e-06 35:5e-06 37:0.000699 38:0.060496 39:0.003845 40:5e-06 41:1.6e-05 42:0.05728 43:0.146944 44:0.001541 47:0.00088 48:0.001413 57:5e-06 58:0.000389 59:0.037755 60:0.001685 62:1.6e-05 63:0.019867 64:0.061067 
-0.5274931443447645 1:0.252827 2:0.007733 3:4.3e-05 5:0.005605 6:0.029957 7:0.000469 10:2.7e-05 11:0.00016 12:8.5e-05 17:0.004789 18:0.001515 19:5e-06 21:0.003301 22:0.109173 23:0.009232 24:5e-06 26:0.002368 27:0.019088 28:0.000491 32:0.000533 34:2.1e-05 37:4.3e-05 38:0.011627 39:0.001221 42:0.042155 43:0.213712 44:0.010011 47:0.002869 48:0.056587 54:5e-06 58:0.000112 59:0.070352 60:0.00088 63:0.027659 64:0.115339 
-1 1:0.239115 2:0.017723 3:0.005851 4:0.002736 5:0.003157 6:0.012949 7:0.00032 8:0.000272 10:0.000229 11:0.000171 12:0.000176 16:5e-06 17:0.025813 18:0.009109 19:0.000667 20:0.001589 21:0.038928 22:0.20624 23:0.015152 24:0.00632 26:0.006208 27:0.038027 28:0.002693 31:0.001061 32:0.000336 37:1.6e-05 38:0.013541 39:0.001904 40:0.000267 42:0.013952 43:0.066987 44:0.024373 47:0.003392 48:0.033616 58:0.001131 59:0.011797 60:0.000293 63:0.008368 64:0.185515 
-1 1:0.218747 2:0.026288 3:0.001339 5:0.002293 6:0.010736 7:0.003477 8:0.000139 10:0.000144 11:0.000171 12:0.000453 16:2.7e-05 17:0.084731 18:0.012987 19:2.1e-05 21:0.040272 22:0.170912 23:0.007237 24:0.000123 25:5e-06 26:0.002816 27:0.001936 28:0.001088 32:0.001611 37:0.002011 38:0.014213 39:0.000901 40:5e-06 41:0.000293 42:0.030891 43:0.023845 44:0.001355 46:5e-06 47:0.000411 48:0.000683 58:3.7e-05 59:0.016843 60:3.7e-05 62:5e-06 63:0.169051 64:0.151861 
-1 1:0.26672 2:0.036107 3:0.0004 4:0.00024 5:0.006459 6:0.023733 7:0.006453 8:0.000341 10:0.003931 11:0.005675 12:0.00744 15:0.000789 16:0.000139 17:0.013259 18:0.005845 19:0.000245 20:4.3e-05 21:0.010395 22:0.19752 23:0.021355 24:0.000944 26:0.006405 27:0.022971 28:0.002048 31:0.006123 32:0.001707 33:5e-06 37:0.000581 38:0.009627 39:0.00216 40:0.000597 41:4.3e-05 42:0.004565 43:0.078773 44:0.019787 47:0.003867 48:0.011339 53:8.5e-05 54:1.1e-05 57:0.002176 58:0.000816 59:0.004629 60:0.001269 61:0.000283 62:0.001083 63:0.003803 64:0.207216 
-0.4692855061963908 1:0.050535 2:0.11985 3:0.01985 4:0.001904 5:6e-05 6:0.041075 7:0.005856 8:0.000252 9:2.4e-05 10:6e-06 12:1.2e-05 16:0.000162 17:0.011039 18:0.006492 19:0.000408 20:0.000961 21:0.000925 22:0.098198 23:0.060174 24:0.003273 25:0.00639 26:0.00176 27:0.014763 28:0.018396 29:0.000162 30:0.005099 31:1.2e-05 32:0.004066 33:0.020649 34:0.00018 37:0.047802 38:0.035135 39:0.004078 40:4.2e-05 41:1.2e-05 42:0.002168 43:0.059814 44:0.044348 45:1.2e-05 46:0.002679 47:0.003171 48:0.048462 53:0.000324 54:0.002126 55:1.8e-05 57:5.4e-05 58:0.002012 59:0.005327 60:0.00164 61:1.2e-05 62:0.000264 63:0.005946 64:0.242018 
-1 1:0.109696 2:0.004528 3:1.6e-05 5:0.000245 6:0.002208 7:0.000149 11:2.7e-05 17:0.061056 18:0.006277 19:2.7e-05 21:0.028197 22:0.206048 23:0.018277 24:0.000101 25:5e-06 26:0.000507 27:0.014091 28:0.006283 31:1.6e-05 32:5.9e-05 33:5e-06 37:0.004699 38:0.098336 39:0.005893 40:0.000187 41:0.001307 42:0.034912 43:0.148368 44:0.044288 47:0.000411 48:0.015605 57:5e-06 58:0.002032 59:0.064597 60:0.002219 62:1.6e-05 63:0.055056 64:0.064251 
-0.8282852046549505 1:0.800416 2:0.059605 3:0.000464 4:0.000112 6:0.046405 7:0.014869 8:0.000331 10:5e-06 11:0.001269 12:0.000331 16:1.1e-05 17:0.000155 18:6.4e-05 20:3.2e-05 21:0.000192 22:0.007685 23:0.014459 24:0.000373 26:1.1e-05 27:0.018197 28:0.008896 31:1.1e-05 32:0.001307 33:5e-06 37:0.000208 38:3.7e-05 39:2.7e-05 41:0.000123 42:5.9e-05 43:0.000523 44:0.002453 47:1.1e-05 48:0.008992 57:4.3e-05 58:5e-06 59:2.7e-05 60:4.3e-05 63:1.1e-05 64:0.012235 
-1 1:0.182203 2:0.012608 3:0.002736 4:0.001995 5:0.004624 6:0.011504 7:0.001605 8:0.000523 10:0.000107 11:0.000608 12:0.002368 15:5e-06 16:0.000523 17:0.04608 18:0.001195 19:0.000304 20:5.9e-05 21:0.055195 22:0.161904 23:0.010155 24:0.000704 25:0.000853 26:0.006389 27:0.037536 28:0.001083 31:4.8e-05 32:0.000544 33:0.002464 34:5e-06 37:0.039221 38:0.022549 39:0.001077 40:4.3e-05 41:0.003355 42:0.019552 43:0.238469 44:0.008085 46:5e-06 47:0.004523 48:0.019915 49:5e-06 53:0.013568 54:3.7e-05 57:0.000821 58:0.010288 59:0.008827 60:0.000544 62:4.3e-05 63:0.005525 64:0.057621 
-1 1:0.083467 2:0.024293 3:0.001712 4:0.000597 5:0.002789 6:0.008827 7:0.000768 8:1.6e-05 10:7.5e-05 11:0.000512 12:0.000171 16:4.3e-05 17:0.009536 18:0.003355 19:0.000139 20:0.00152 21:0.032875 22:0.162352 23:0.015723 24:0.006635 25:0.00016 26:0.001648 27:0.009739 28:0.001744 31:5.9e-05 32:0.002976 33:2.1e-05 37:0.003083 38:0.025525 39:0.00152 40:0.00152 41:0.004971 42:0.018325 43:0.087083 44:0.008427 46:1.6e-05 47:0.002091 48:0.013552 53:0.000219 54:0.000395 55:5.3e-05 57:0.000309 58:0.001515 59:0.026811 60:0.000715 61:4.3e-05 62:0.001376 63:0.038379 64:0.392325 
-0.7238124533691944 1:0.157573 2:0.053813 3:0.012789 4:0.009813 5:0.012021 6:0.098693 7:0.083024 8:0.037328 10:0.000453 11:0.006059 12:0.081035 16:0.000203 17:0.001589 18:0.000219 19:2.1e-05 20:1.6e-05 21:0.000347 22:0.035467 23:0.027173 24:0.004485 26:0.006059 27:0.058597 28:0.090763 31:5.3e-05 32:0.007013 33:1.1e-05 38:9.6e-05 39:0.000123 40:1.6e-05 42:0.000101 43:0.014309 44:0.035867 47:0.000885 48:0.090304 58:5e-06 59:4.3e-05 60:8.5e-05 63:8.5e-05 64:0.073461 
-0.320008486512556 1:0.043844 2:0.006877 3:6e-06 5:0.003447 6:0.065694 7:0.01839 8:2.4e-05 10:0.00039 11:0.000432 12:7.2e-05 16:3e-05 17:0.001033 18:0.000222 21:0.000216 22:0.080781 23:0.133676 26:0.000973 27:0.08248 28:0.012282 31:0.000192 32:0.001736 38:0.013189 39:0.000414 42:0.002114 43:0.489153 44:0.007015 47:1.2e-05 48:0.033502 64:0.001802 
-1 1:0.187253 2:0.034699 3:0.018475 4:0.012731 5:0.048805 6:0.027243 7:0.040656 8:0.000261 9:0.014944 10:0.000843 11:0.001232 12:0.000261 17:0.003387 18:0.001392 19:0.000869 20:0.000149 21:0.012208 22:0.229264 23:0.041669 24:0.000517 25:0.007845 26:0.005136 27:0.025125 28:0.000357 30:0.002368 31:0.003616 32:0.000347 33:1.6e-05 34:5e-06 35:5e-06 37:0.045008 38:0.017435 39:0.001557 40:5e-06 41:9.1e-05 42:0.006192 43:0.116971 44:0.001611 46:0.000144 47:0.012517 48:0.000688 58:0.000112 59:0.001285 60:0.000171 62:0.000917 63:0.009877 64:0.063739 
-1 1:0.363173 2:0.023883 3:0.001264 5:0.005973 6:0.074059 7:0.022725 8:0.000853 10:0.000165 11:0.010565 12:0.109995 16:0.019269 17:0.006773 18:0.000357 21:0.00648 22:0.10896 23:0.035819 24:0.001776 26:0.0008 27:0.039819 28:0.010155 32:0.004251 37:0.005627 38:0.004224 39:0.000379 41:5e-06 42:0.004043 43:0.033648 44:0.014912 47:0.000176 48:0.020912 58:5.9e-05 59:0.001968 60:6.9e-05 63:0.001035 64:0.065829 
-1 1:0.165264 2:0.006715 3:0.000437 4:5e-06 5:0.002229 6:0.010144 7:0.000101 17:0.005573 18:9.1e-05 19:5e-06 20:5e-06 21:0.049659 22:0.125291 23:0.039616 24:0.000101 25:5e-06 26:0.000688 27:0.059024 28:0.000101 33:8.5e-05 37:0.001861 38:0.002501 39:0.000117 40:5e-06 41:4.8e-05 42:0.001771 43:0.147835 44:0.002603 47:8.5e-05 48:0.001963 53:0.000336 57:0.001728 58:0.184165 59:0.009344 60:9.1e-05 61:0.000128 62:0.003296 63:0.070464 64:0.106517 
-1 1:0.173152 2:0.019888 3:0.015429 4:0.000448 5:0.009957 6:0.027995 7:0.007131 8:0.002219 10:0.000624 11:0.002821 12:0.002768 15:0.000389 16:0.000485 17:0.027653 18:0.002171 19:0.003643 20:0.000283 21:0.045003 22:0.087584 23:0.015707 24:0.005829 25:0.000176 26:0.011397 27:0.010053 28:0.004128 30:5e-06 31:0.003243 32:0.012683 33:0.001509 34:1.1e-05 37:0.028581 38:0.021611 39:0.002251 40:0.000453 41:0.001349 42:0.124949 43:0.073984 44:0.004832 46:0.000128 47:0.015008 48:0.007045 53:0.011787 54:0.0016 55:4.3e-05 57:0.009739 58:0.016752 59:0.013541 60:0.000523 61:0.000885 62:0.006443 63:0.095584 64:0.068528 
-1 1:0.129082 2:0.005066 5:0.027584 6:0.067257 7:3.7e-05 10:0.001582 11:9e-06 17:0.006994 21:0.050833 22:0.092444 23:0.016554 26:0.013979 27:0.04073 31:9e-06 37:0.011189 38:0.010346 39:2.8e-05 42:0.011414 43:0.061966 44:0.012294 47:0.001386 48:0.088661 58:0.001367 59:0.015468 60:9e-06 63:0.046376 64:0.287331 
-1 1:0.264236 2:0.020482 5:0.00601 6:0.069897 7:0.009056 8:7.2e-05 10:5.1e-05 11:0.005026 12:0.001436 16:0.000287 17:0.039559 18:0.004769 19:1e-05 21:0.008574 22:0.092482 23:0.024677 24:0.000205 26:0.000708 27:0.045477 28:0.013826 31:5.1e-05 32:0.003969 33:1e-05 34:5.1e-05 38:0.026185 39:0.005508 40:1e-05 42:0.004021 43:0.052954 44:0.011097 47:0.000533 48:0.01399 54:3.1e-05 56:1e-05 58:0.000113 59:0.129795 60:0.000636 63:0.037026 64:0.107169 
-0.9734998114439281 1:0.183696 2:0.050608 3:6.9e-05 5:0.009595 6:0.057083 7:0.000491 10:0.000171 11:5.9e-05 17:0.001872 18:0.000939 19:5.3e-05 20:5e-06 21:0.003995 22:0.121589 23:0.029781 24:3.2e-05 26:0.003211 27:0.010208 28:0.000101 32:1.1e-05 34:5e-06 38:0.005072 39:0.001157 40:1.6e-05 42:0.041099 43:0.084496 44:0.003888 47:0.000432 48:0.00208 59:0.003232 60:0.000139 63:0.012736 64:0.37208 
-1 1:0.208361 2:0.025036 3:1.2e-05 5:0.001337 6:0.132096 7:0.076367 10:7.2e-05 11:0.074006 12:0.080873 17:0.004042 18:2.4e-05 21:0.100151 22:0.126199 23:0.065819 25:0.000367 26:0.002259 27:0.045988 28:0.006458 31:6e-06 32:0.001946 38:0.010277 39:4.2e-05 41:6.6e-05 42:0.004783 43:0.019048 44:0.000476 47:0.000422 48:0.000428 59:0.011422 60:1.2e-05 63:0.001428 64:0.000175 
-1 1:0.191648 2:0.001243 5:0.068299 6:0.01384 7:0.000128 10:0.000933 11:0.000192 12:1.1e-05 16:5e-06 17:0.007813 18:0.000661 21:0.064784 22:0.104117 23:0.000667 26:0.010667 27:0.006864 28:1.1e-05 37:0.001435 38:0.024331 39:0.000491 40:5e-06 41:1.1e-05 42:0.040075 43:0.075163 44:0.000448 46:5e-06 47:0.003056 48:0.000896 58:3.7e-05 59:0.040261 60:0.000421 62:5e-06 63:0.088491 64:0.252987 
-0.6787104144623244 1:0.008742 2:0.068176 3:0.070927 4:0.015927 5:1.3e-05 6:0.049404 7:0.039708 11:7e-06 17:2e-05 18:0.000354 19:0.001362 20:0.007379 21:2e-05 22:0.028328 23:0.20392 24:0.002478 26:5.3e-05 27:0.044128 28:0.014591 37:7e-06 38:0.000548 39:0.002518 40:0.001402 42:0.000341 43:0.085499 44:0.061658 47:0.00012 48:0.009396 56:7e-06 58:0.000294 59:0.030405 60:0.009476 63:0.033704 64:0.209089 
-1 1:0.175008 2:0.005717 3:2.1e-05 5:0.013669 6:0.009536 7:2.7e-05 8:5e-06 10:0.000976 11:0.000208 17:0.011728 18:0.002016 19:1.6e-05 21:0.022107 22:0.249696 23:0.0192 24:1.1e-05 25:1.1e-05 26:0.01088 27:0.06136 28:4.3e-05 31:3.2e-05 37:0.001077 38:0.009723 39:0.009531 40:1.1e-05 41:0.00072 42:0.016048 43:0.162661 44:0.005413 47:0.000416 48:0.001968 53:5e-06 57:0.000133 58:0.000587 59:0.003104 60:0.005328 61:1.6e-05 62:0.000357 63:0.002891 64:0.197744 
-0.5530822658886893 1:0.24108 2:0.041214 3:5e-06 5:0.041198 6:0.058166 7:0.001401 10:0.000834 11:0.000118 15:3.2e-05 17:0.005465 18:0.002353 21:0.01354 22:0.224358 23:0.01523 24:4.3e-05 26:0.010487 27:0.038904 28:0.001455 31:0.001807 32:0.000834 33:5e-06 34:0.000599 37:6.4e-05 38:0.011989 39:0.00177 42:0.005433 43:0.118995 44:0.009829 47:0.003888 48:0.051519 50:1.1e-05 54:0.000278 55:0.000187 58:1.1e-05 59:0.003578 60:0.000535 63:0.002235 64:0.090551 
-1 1:0.229067 2:0.000672 3:2.1e-05 5:0.000912 6:0.001445 7:1.1e-05 17:0.040544 18:0.000288 19:5e-06 21:0.03896 22:0.096197 23:0.001515 24:3.2e-05 26:0.000325 27:0.00128 28:3.7e-05 37:0.166997 38:0.111643 39:0.000277 41:7.5e-05 42:0.100544 43:0.039008 44:0.000784 47:0.000299 48:0.001029 53:2.7e-05 54:6.4e-05 57:3.2e-05 58:0.003776 59:0.003717 60:0.000293 63:0.002645 64:0.157477 
-0.7235644298294515 1:0.160789 2:0.003509 3:0.000219 4:3.2e-05 5:0.088939 6:0.099461 7:0.00032 8:2.7e-05 10:0.01768 11:0.0012 12:5e-06 15:1.1e-05 16:1.1e-05 17:0.001392 18:0.000229 19:5e-06 21:0.002096 22:0.238208 23:0.006496 24:2.7e-05 25:1.6e-05 26:0.024912 27:0.049397 28:8.5e-05 31:0.000485 32:0.000149 37:5e-06 38:0.001653 39:0.000341 40:1.1e-05 42:0.002709 43:0.157141 44:0.009803 47:0.002859 48:0.028816 59:0.000891 60:5.3e-05 63:0.003424 64:0.096592 
-0.07402082620408028 1:0.314816 2:0.002325 3:0.000117 5:0.053099 6:0.067472 10:0.000352 11:2.1e-05 17:0.002059 18:0.000363 19:2.7e-05 21:0.002677 22:0.087264 23:0.000245 26:0.003141 27:0.002203 31:5e-06 38:0.000576 39:6.4e-05 42:0.000427 43:0.019621 44:0.000149 47:0.000496 48:0.000784 59:6.9e-05 60:2.1e-05 63:0.000837 64:0.440768 
-1 1:0.212747 2:0.007547 3:0.004827 4:5e-06 5:0.004603 6:0.023515 7:0.003205 8:0.000432 10:0.000101 11:0.000656 12:1.6e-05 15:1.1e-05 16:0.001771 17:0.002768 18:0.002027 19:0.00064 21:0.004907 22:0.160587 23:0.038555 24:0.000779 26:0.013472 27:0.089872 28:0.000699 31:0.000283 32:0.01448 33:2.7e-05 37:0.012555 38:0.011205 39:0.009979 41:0.000139 42:0.003024 43:0.257344 44:0.015211 47:0.002688 48:0.047648 53:3.2e-05 54:3.2e-05 58:3.2e-05 59:0.001813 60:0.003797 63:0.000357 64:0.045616 
-1 1:0.117589 2:0.007968 5:0.000437 6:0.018064 7:3.2e-05 17:0.009877 18:0.000933 21:0.008133 22:0.181088 23:0.018651 26:0.000907 27:0.061376 28:0.000277 33:0.000363 37:0.005093 38:0.021653 39:0.000459 42:0.011104 43:0.27104 44:0.014763 47:0.001685 48:0.025211 53:1.6e-05 58:0.000912 59:0.012571 60:0.000379 63:0.009616 64:0.199803 
-1 1:0.102187 2:0.005664 3:0.001136 4:0.000101 5:0.001877 6:0.002587 7:0.000475 11:0.000165 12:0.000293 16:5.3e-05 17:0.046384 18:0.005685 19:0.006848 20:0.001221 21:0.012347 22:0.058315 23:0.002 24:0.001419 25:0.004411 26:0.004853 27:0.00248 28:0.000427 29:4.8e-05 32:9.6e-05 33:0.076069 34:0.010816 35:0.001739 36:0.000293 37:0.036848 38:0.037829 39:0.002021 40:0.001371 41:0.025499 42:0.061131 43:0.081147 44:0.000496 45:5e-06 46:3.2e-05 47:0.001435 48:0.00096 49:0.0364 50:0.000187 51:8e-05 53:0.103691 54:0.016613 55:0.000517 56:1.6e-05 57:0.000363 58:0.048725 59:0.089365 60:0.000603 62:0.000288 63:0.02192 64:0.082469 
-0.03323130668748908 1:0.093672 2:0.037188 5:0.000977 6:0.045417 7:0.000599 17:1.3e-05 18:5.2e-05 21:0.000612 22:0.501185 23:0.003372 26:0.006185 27:0.001549 37:0.000247 38:0.010273 39:9.1e-05 42:0.042057 43:0.25651 
-0.8511964118894678 1:0.305936 2:0.042069 3:0.058843 4:0.126997 5:0.005584 6:0.045616 7:0.004437 8:0.012917 11:7.5e-05 12:9.6e-05 17:0.010075 18:0.007163 19:0.001509 20:0.005979 21:0.001136 22:0.045872 23:0.046581 24:0.037584 26:0.004437 27:0.004656 28:0.002005 32:9.6e-05 33:0.000149 34:0.000213 37:8.5e-05 38:0.003264 39:0.014325 40:0.003168 42:0.000549 43:0.105264 44:0.028949 47:1.1e-05 48:0.002155 53:1.6e-05 54:7.5e-05 55:0.000123 58:0.000235 59:0.005195 60:0.015611 63:0.00064 64:0.050309 
-1 1:0.208438 2:0.020084 3:0.012132 4:0.004132 5:0.013898 6:0.066841 7:0.00839 8:0.000414 9:0.003393 10:0.000492 11:0.002733 12:0.008643 16:0.001772 17:0.011856 18:0.000559 19:0.001153 20:0.004955 21:0.006444 22:0.195405 23:0.036655 24:0.01767 25:0.000937 26:0.011069 27:0.034366 28:0.008823 30:0.00612 31:6.6e-05 32:0.005423 37:8.4e-05 38:0.007976 39:0.000973 40:0.001982 42:0.008324 43:0.100841 44:0.012114 46:0.001033 47:0.004102 48:0.003904 55:6e-06 56:1.2e-05 57:5.4e-05 58:0.001237 59:0.004955 60:0.001063 62:2.4e-05 63:0.00976 64:0.148691 
-1 1:0.172249 2:0.048386 3:0.034107 5:0.00095 6:0.018659 7:0.025306 8:5.9e-05 11:0.005359 12:0.00251 17:0.001145 18:0.00016 19:0.000113 20:6e-06 21:0.001656 22:0.020647 23:0.018095 24:0.000261 25:6e-06 26:0.000831 27:0.02635 28:0.025442 32:0.001163 37:0.000107 38:0.001128 39:3.6e-05 41:2.4e-05 42:0.01797 43:0.116599 44:0.016315 47:0.000855 48:0.01689 58:0.000131 59:0.016896 60:0.000522 63:0.020297 64:0.388772 
-1 1:0.209778 2:0.073694 3:0.012811 4:0.001351 5:0.00976 6:0.059934 7:0.051069 8:0.00815 10:0.011393 11:0.054511 12:0.009399 15:0.015748 16:0.000649 17:0.004156 18:0.005117 19:8.4e-05 20:6e-06 21:0.005051 22:0.110072 23:0.006829 24:0.000264 26:0.000529 27:0.025429 28:0.006486 32:0.00024 37:0.000156 38:0.00385 39:0.000294 41:1.2e-05 42:0.004589 43:0.016961 44:0.000402 47:0.000396 48:0.00021 59:0.005688 60:8.4e-05 63:0.005237 64:0.27961 
-1 1:0.033701 2:0.048624 3:0.011931 5:8e-05 6:0.011248 7:5e-06 17:0.028261 18:0.002352 19:0.004773 20:3.7e-05 21:0.027739 22:0.250587 23:0.032805 24:0.002501 26:0.000464 27:0.034619 28:2.7e-05 37:0.005483 38:0.022949 39:0.001344 40:6.4e-05 42:0.018944 43:0.136699 44:0.012144 47:0.0004 48:0.011701 58:0.000368 59:0.041701 60:0.001104 63:0.03048 64:0.226864 
-1 1:0.180733 2:0.027031 3:0.000696 4:0.000298 5:0.002118 6:0.05472 7:0.001025 11:4.3e-05 17:0.002522 18:0.000261 19:8.1e-05 20:6e-06 21:0.002043 22:0.363242 23:0.006329 24:1.2e-05 26:0.000857 27:0.004807 38:0.00364 39:0.00028 42:0.008335 43:0.229832 44:0.002783 47:0.000298 48:0.010317 59:0.000149 60:3.1e-05 63:0.000267 64:0.097242 
-0.7160990676108754 1:0.058251 2:0.001061 3:8.5e-05 4:3.2e-05 5:0.009387 6:0.03064 7:0.000763 8:6.9e-05 10:0.001008 11:0.001189 12:0.000533 16:7.5e-05 17:0.004245 18:7.5e-05 21:0.006085 22:0.197152 23:0.024085 24:3.2e-05 26:0.031163 27:0.168992 28:0.000485 31:1.1e-05 32:0.000608 33:4.8e-05 37:0.001643 38:0.001253 39:0.000107 42:0.045264 43:0.158251 44:0.001248 47:0.001216 48:0.001019 53:1.1e-05 59:0.000704 60:1.6e-05 63:0.001883 64:0.251312 
-1 1:0.243933 2:0.042499 3:0.00633 4:4.5e-05 5:0.001004 6:0.009965 7:0.004006 8:0.002089 11:3.6e-05 12:3.6e-05 17:0.026494 18:0.009006 19:0.000127 21:0.006736 22:0.274504 23:0.062401 24:0.001709 26:0.001917 27:0.005995 28:0.002848 32:0.000235 33:4.5e-05 34:9e-06 37:0.000425 38:0.010525 39:0.002912 40:9e-06 42:0.01095 43:0.132921 44:0.009304 47:0.002333 48:0.006944 58:9e-06 59:0.005868 60:0.001971 63:0.006791 64:0.107069 
-1 1:0.069606 2:0.01128 5:0.002868 6:0.0652 7:0.002843 11:0.0004 12:5.5e-05 21:0.003754 22:0.433606 23:0.0144 26:0.088665 27:0.044203 28:0.005994 32:0.000154 38:0.000234 39:1.2e-05 42:0.003403 43:0.089391 44:0.018671 47:0.016757 48:0.047938 59:6e-06 60:6e-06 63:4.3e-05 64:0.080511 
-1 1:0.121392 2:0.002549 3:0.000677 4:7.5e-05 5:0.001541 6:0.004048 7:0.000363 8:4.8e-05 10:5e-06 11:5.3e-05 17:0.014213 18:0.000245 19:5.9e-05 20:5e-06 21:0.066651 22:0.118928 23:0.002715 24:0.000133 26:0.005515 27:0.002949 28:0.000112 31:8e-05 32:5e-06 37:0.005733 38:0.011541 39:0.000368 40:5e-06 41:4.3e-05 42:0.036741 43:0.258277 44:0.000288 47:0.000976 48:0.000624 57:5e-06 58:0.000165 59:0.009067 60:3.2e-05 62:1.1e-05 63:0.086939 64:0.246821 
-0.8682177540683762 1:0.489512 2:0.052843 3:0.013247 4:0.03488 5:0.000452 6:0.008916 7:0.008861 8:0.138904 11:0.000584 12:0.000271 16:1.2e-05 17:0.004536 18:0.016139 19:0.009729 20:0.002133 21:0.000428 22:0.014807 23:0.017072 24:0.006898 26:0.00012 27:0.014783 28:0.063663 32:6.6e-05 33:0.000211 34:0.000253 35:0.000145 36:5.4e-05 37:0.000127 38:0.001373 39:0.001018 40:0.001693 42:0.000464 43:0.004994 44:0.023861 46:1.8e-05 47:0.000325 48:0.006024 49:1.2e-05 50:1.8e-05 51:1.2e-05 53:6e-06 54:0.000163 55:3.6e-05 56:6e-06 58:0.000398 59:0.00141 60:0.001367 62:8.4e-05 63:0.004108 64:0.052964 
-1 1:0.219099 2:0.01656 3:0.00104 5:0.01224 6:0.051232 7:0.003616 10:0.000603 11:0.005909 12:0.000139 17:0.009499 18:0.002064 19:0.000373 21:0.008469 22:0.186533 23:0.016507 26:0.004448 27:0.032907 28:0.000293 31:0.000101 32:0.000773 33:0.000597 37:0.005093 38:0.013584 39:0.003797 41:0.000608 42:0.016544 43:0.112629 44:0.000992 47:0.000923 48:0.002219 53:5e-06 54:3.2e-05 57:0.000347 58:0.006107 59:0.006139 60:0.000208 62:1.6e-05 63:0.008709 64:0.249045 
