svm_type c_svc
kernel_type rbf
gamma 3
nr_class 2
total_sv 766
rho 0.967128
label 1 -1
probA -5.037
probB -1.45863
nr_sv 125 641
SV
4 1:0.242199 2:0.112089 5:0.001144 6:0.077329 7:0.001219 17:0.008692 18:0.002205 21:0.004815 22:0.049658 23:0.010288 26:5.5e-05 27:0.02124 28:0.001767 32:7e-06 33:0.000123 37:0.003521 38:0.036295 39:0.000116 42:0.008877 43:0.018959 44:0.005712 47:0.000144 48:0.016151 53:0.00013 54:0.103205 58:0.146411 59:0.098986 60:1.4e-05 63:0.00611 64:0.022541 
4 1:0.172605 2:0.150066 3:0.000377 5:0.015377 6:0.022269 7:0.026228 9:0.001269 10:0.001784 11:0.000168 12:2.4e-05 13:6e-06 14:6.6e-05 16:1.8e-05 17:0.000228 18:0.001611 21:0.010737 22:0.027389 23:0.099527 24:0.00091 25:0.00109 26:0.032216 27:0.021006 28:0.007611 30:0.010317 31:0.016012 32:0.000192 37:6e-06 38:0.000108 39:0.000754 40:1.8e-05 42:0.005317 43:0.025018 44:0.017347 46:0.005485 47:0.194108 48:0.058174 55:6e-06 56:1.2e-05 59:0.000287 60:0.000413 63:0.005545 64:0.068299 
4 1:0.143411 2:0.05406 3:0.004721 5:0.000637 6:0.024835 7:0.115303 8:0.006228 10:0.00039 11:0.012853 12:0.010432 16:9.6e-05 17:4.8e-05 18:6e-06 21:0.000168 22:0.013141 23:0.023616 24:0.001189 26:1.8e-05 27:0.134042 28:0.191309 32:0.007471 38:0.001273 39:0.000252 42:0.000264 43:0.039009 44:0.01848 48:0.033688 59:0.035952 60:0.000474 63:0.033183 64:0.093447 
4 1:0.522515 2:0.053515 3:2e-05 5:0.005635 6:0.037175 7:0.00675 10:0.000145 11:0.000445 12:1e-05 17:0.01873 18:0.001165 19:5e-06 21:0.014835 22:0.08489 23:0.0192 24:3.5e-05 26:0.00193 27:0.02282 28:0.0038 31:1e-05 32:0.000145 33:5e-05 37:0.002315 38:0.0089 39:0.000415 41:2.5e-05 42:0.00825 43:0.03941 44:0.014295 47:0.0013 48:0.018455 53:1.5e-05 54:7.5e-05 58:0.00399 59:0.00557 60:7.5e-05 62:8.5e-05 63:0.014575 64:0.088425 
4 1:0.048705 2:0.00038 5:0.004952 6:0.079355 7:0.000289 10:0.003331 11:1.2e-05 17:0.000151 18:6e-06 21:0.001566 22:0.043157 23:0.000867 26:0.081976 27:0.248994 28:9.6e-05 31:0.00012 38:0.000494 42:0.012663 43:0.032241 44:0.000163 47:0.002639 48:0.001108 58:3.6e-05 59:0.0525 63:0.379765 64:0.004434 
4 1:0.254225 2:0.034604 5:0.006663 6:0.060213 7:0.000982 17:0.022266 18:0.003521 21:0.015485 22:0.136249 23:0.023456 25:6e-06 26:0.002041 27:0.026822 28:0.000148 33:1.2e-05 37:0.000509 38:0.008781 39:0.000876 42:0.005379 43:0.028781 44:0.00271 47:0.000355 48:0.00084 53:6e-06 54:6e-06 57:6e-06 58:0.000213 59:0.004343 60:0.000337 62:0.000574 63:0.006207 64:0.353385 
4 1:0.194176 2:0.008779 5:0.000416 6:0.013317 7:5e-06 17:0.000773 18:0.000437 21:0.000709 22:0.152373 23:0.013637 26:0.001045 27:0.01752 38:0.000891 39:0.000171 42:0.001563 43:0.074288 44:0.008176 47:0.001408 48:0.016197 59:0.000949 60:4.8e-05 63:0.001269 64:0.491851 
4 1:0.140474 2:0.04197 5:0.00039 6:0.019399 7:0.004553 10:6e-06 11:1.8e-05 17:0.000192 18:7.8e-05 21:0.000619 22:0.092192 23:0.040132 24:3e-05 26:0.001171 27:0.066949 28:0.00176 31:6e-06 38:0.018426 39:0.000444 42:0.038372 43:0.134282 44:0.051688 47:0.000997 48:0.065237 58:1.8e-05 59:0.003874 60:0.000288 63:0.007916 64:0.268517 
4 1:0.231344 2:0.080875 5:0.000661 6:0.067675 7:0.008731 17:0.00072 18:0.001019 21:0.000619 22:0.106667 23:0.059936 26:0.001829 27:0.134277 38:0.002091 39:9.6e-05 42:0.025243 43:0.208896 44:0.006891 47:1.6e-05 48:0.034923 59:0.001003 63:0.000272 64:0.026219 
4 1:0.107296 2:0.023872 5:0.00128 6:0.030917 7:0.000587 10:0.000736 11:0.001824 17:0.004725 18:0.008203 21:0.003467 22:0.223547 23:0.039701 26:0.001024 27:0.049835 28:0.000437 32:0.000149 37:8e-05 38:0.000949 39:0.002107 41:3.2e-05 42:0.000635 43:0.125632 44:0.054267 47:7.5e-05 48:0.013109 58:3.2e-05 59:0.008693 60:0.000283 62:1.6e-05 63:0.011979 64:0.284512 
4 1:0.128997 2:0.010245 5:0.076544 6:0.054405 7:0.002261 10:0.002491 11:1.6e-05 17:0.006779 18:0.000165 21:0.008352 22:0.124539 23:0.013483 24:5e-06 26:0.119579 27:0.100768 28:0.002347 30:2.7e-05 31:0.000395 32:9.1e-05 37:0.000837 38:0.004411 39:0.000773 42:0.005872 43:0.104789 44:0.008944 46:5e-06 47:0.00824 48:0.006917 59:0.005861 60:0.005712 62:5e-06 63:0.002576 64:0.193568 
4 1:0.274091 2:0.008453 3:1.1e-05 5:0.044917 6:0.047317 7:8e-05 9:0.001088 10:0.019973 11:0.000517 14:0.000597 15:0.001691 16:1.1e-05 17:0.000331 18:0.000288 19:5e-06 21:0.004176 22:0.207675 23:0.018773 25:1.6e-05 26:0.073723 27:0.050379 28:5.9e-05 30:0.000587 31:0.017488 32:0.000656 37:0.000192 38:0.000656 39:0.000224 42:0.011141 43:0.076565 44:0.008181 46:2.7e-05 47:0.054053 48:0.036752 59:0.000283 60:0.000155 63:0.002352 64:0.036517 
4 1:0.164987 2:0.010923 3:8.5e-05 5:0.114139 6:0.068603 7:0.000187 10:0.018432 11:0.001141 15:5e-06 17:0.000997 18:0.001995 19:2.1e-05 21:0.008549 22:0.12496 23:0.008645 24:5e-06 26:0.113605 27:0.141189 28:0.001029 31:6.4e-05 32:9.6e-05 38:0.002139 39:0.000421 40:5e-06 42:0.006699 43:0.078208 44:0.002379 47:0.002144 48:0.003253 54:5e-06 59:0.004944 60:0.000267 63:0.015061 64:0.104816 
4 1:0.385676 2:0.062913 3:6.6e-05 5:0.000168 6:0.026096 7:0.00039 11:3.6e-05 12:6e-06 17:0.010865 18:0.003327 19:0.005646 21:0.0037 22:0.05767 23:0.020781 26:0.000252 27:0.010084 28:1.2e-05 35:6e-06 38:0.001532 39:0.010006 40:0.001135 42:0.001574 43:0.291303 44:0.002492 47:0.005904 48:0.018895 55:6e-06 56:0.000901 59:0.018366 60:0.00012 63:0.021363 64:0.038709 
4 1:0.205633 2:0.020749 3:1.1e-05 5:0.084189 6:0.070906 7:0.000625 8:5e-06 9:0.010496 10:0.028043 11:0.00758 12:7e-05 15:0.003585 16:0.001434 17:0.019946 18:0.002879 21:0.031191 22:0.229369 23:0.007245 25:0.019547 26:0.136852 27:0.038307 28:0.000566 30:0.000178 31:0.021585 32:0.011838 33:1.1e-05 37:0.000253 38:0.004728 39:0.000534 42:0.003229 43:0.014836 44:0.0029 46:6.5e-05 47:0.001466 48:0.003364 58:5e-06 59:0.001143 60:0.000474 63:0.000442 64:0.01372 
4 1:0.194501 2:0.000123 5:0.094331 6:0.071552 9:3.2e-05 10:0.033024 11:0.000411 15:4.8e-05 17:0.002971 18:6.9e-05 21:0.002549 22:0.059061 23:6.4e-05 26:0.057973 27:0.027285 31:0.00536 32:1.1e-05 37:0.000149 38:0.001184 39:3.2e-05 42:0.002251 43:0.011963 44:6.9e-05 47:0.009077 48:0.003307 54:0.000373 58:0.292853 59:0.032779 60:5e-06 62:0.000101 63:0.073856 64:0.022635 
4 1:0.209685 2:0.126448 5:0.017333 6:0.372085 7:0.0056 10:0.008379 11:0.001339 17:6.4e-05 18:4.3e-05 21:0.000101 22:0.090619 23:0.018608 26:0.015253 27:0.042117 28:0.007861 31:2.7e-05 32:2.1e-05 42:1.1e-05 43:0.010267 44:0.018624 47:0.000544 48:0.032107 59:5e-06 63:1.1e-05 64:0.022848 
4 1:0.472949 2:0.005189 5:0.010523 6:0.051973 7:5e-06 10:5e-06 17:0.057803 18:0.000101 21:0.030251 22:0.076037 23:0.000507 26:0.001963 27:0.005115 28:5e-06 33:0.000725 37:0.001243 38:0.018155 39:2.1e-05 42:0.004875 43:0.031275 44:0.000224 47:0.001813 48:0.003344 54:0.000219 58:0.000651 59:0.004357 60:5e-06 63:0.003419 64:0.217248 
4 1:0.210256 2:0.047237 5:0.002784 6:0.037696 7:0.000821 10:2.7e-05 11:1.1e-05 17:0.007643 18:0.001301 19:1.1e-05 21:0.002267 22:0.17128 23:0.043045 26:0.003179 27:0.047776 28:4.8e-05 31:3.2e-05 37:4.8e-05 38:0.021744 39:0.001472 40:3.2e-05 41:5e-06 42:0.004635 43:0.211029 44:0.032917 47:0.000475 48:0.016517 53:1.1e-05 54:1.6e-05 57:0.000149 58:0.002213 59:0.0132 60:0.002731 62:0.000688 63:0.008181 64:0.108523 
4 1:0.078805 2:0.00424 3:0.000315 4:0.000112 5:0.008629 6:0.060976 7:0.003269 8:5.9e-05 10:0.002565 11:0.004453 12:0.000544 16:0.000379 17:0.027344 18:0.000965 19:0.00016 20:0.000283 21:0.046885 22:0.211461 23:0.016992 24:0.001115 25:5.9e-05 26:0.008277 27:0.169589 28:0.017552 31:0.001307 32:0.011648 37:0.001413 38:0.025963 39:0.000811 40:0.000117 42:0.007157 43:0.168533 44:0.013995 47:0.000363 48:0.033563 54:5e-06 58:0.000667 59:0.002181 60:0.000336 62:7.5e-05 63:0.014363 64:0.052475 
4 1:0.292021 2:0.072731 5:0.000656 6:0.070901 7:1.6e-05 17:0.000795 18:0.001947 21:0.000544 22:0.20104 23:0.038176 26:0.000928 27:0.03488 28:0.000533 32:5e-06 37:5e-06 38:0.002608 39:0.000901 42:0.00232 43:0.062683 44:0.011531 47:0.000539 48:0.01256 59:0.006395 60:0.000347 63:0.005899 64:0.17904 
4 1:0.191509 2:0.032427 3:5e-06 5:7.5e-05 6:0.055264 7:0.001285 21:5e-06 22:0.239616 23:0.116875 24:4.8e-05 26:2.1e-05 27:0.089685 28:0.000667 43:0.051045 44:0.017739 47:1.6e-05 48:0.021509 60:2.7e-05 64:0.182181 
4 1:0.347973 2:0.063221 3:1.1e-05 5:0.000395 6:0.072939 7:0.131253 8:6.9e-05 11:0.037259 12:0.005973 16:4.3e-05 17:0.002229 18:0.001115 21:0.002011 22:0.05632 23:0.021179 24:2.7e-05 26:0.001483 27:0.040757 28:0.063579 32:0.049024 33:1.6e-05 34:2.7e-05 37:3.2e-05 38:0.004741 39:0.000389 42:0.00888 43:0.036427 44:0.002085 47:0.000416 48:0.028656 50:2.1e-05 54:8.5e-05 55:2.1e-05 58:0.000155 59:0.00424 60:0.000128 63:0.004416 64:0.012405 
4 1:0.168759 2:0.005316 5:0.063417 6:0.059412 7:0.000599 10:0.003882 11:0.001048 12:1.6e-05 15:5e-06 16:1.6e-05 17:0.001476 18:0.000722 21:0.007417 22:0.152107 23:0.012968 26:0.019941 27:0.192845 28:0.011888 31:0.005519 32:0.007968 37:1.1e-05 38:0.002995 39:0.000652 42:0.003968 43:0.053722 44:0.049043 47:0.007861 48:0.097364 58:1.1e-05 59:0.003385 60:0.000594 63:0.002727 64:0.062348 
4 1:0.047072 2:0.001307 5:0.016832 6:0.005968 7:0.001851 9:0.000261 10:0.00056 11:0.00032 12:6.9e-05 17:0.012373 18:0.000336 21:0.109963 22:0.061973 23:0.003488 25:0.019904 26:0.101952 27:0.047077 28:0.001845 30:0.004624 31:0.035947 32:0.000139 37:0.000203 38:0.001867 39:8.5e-05 41:0.000203 42:0.016032 43:0.030389 44:0.001883 46:0.000651 47:0.280928 48:0.144181 58:0.000101 59:0.000139 60:1.6e-05 62:3.2e-05 63:0.001248 64:0.048181 
4 1:0.161328 2:0.030288 3:3.7e-05 4:1.6e-05 5:0.002139 6:0.051573 7:0.002901 8:3.7e-05 11:4.8e-05 17:0.017461 18:0.004341 19:1.6e-05 20:1.1e-05 21:0.011717 22:0.152373 23:0.046331 24:0.000565 26:0.003168 27:0.033781 28:0.001157 31:5e-06 32:3.2e-05 33:5e-06 34:6.4e-05 37:0.00056 38:0.016053 39:0.005024 42:0.026784 43:0.371819 44:0.007216 47:0.000485 48:0.011173 54:5.9e-05 55:0.000107 58:2.1e-05 59:0.0028 60:0.000603 63:0.000757 64:0.037141 
4 1:0.006688 2:0.015008 6:0.014641 7:0.000367 17:0.00073 18:0.001228 21:0.004637 22:0.100738 23:0.09984 26:0.000194 27:0.290591 28:0.078717 32:8e-06 38:8.9e-05 39:0.00057 42:1.3e-05 43:0.138114 44:0.193194 47:1.3e-05 48:0.017443 59:0.000392 60:0.001173 63:5.9e-05 64:0.035553 
4 1:0.15796 2:0.065753 5:0.000233 6:0.068533 7:0.031787 10:0.01194 11:0.000273 18:6e-05 21:0.00028 22:0.086047 23:0.068107 24:1.3e-05 26:0.018367 27:0.118273 28:0.09636 31:1.3e-05 32:0.005653 38:0.000693 39:2.7e-05 42:0.0007 43:0.050693 44:0.09054 47:0.00038 48:0.082727 64:0.044587 
4 1:0.46824 22:0.293268 43:0.055642 64:0.182849 
4 1:0.048016 2:0.001168 5:0.052085 6:0.133077 7:0.000155 8:5e-06 10:0.009691 11:0.000251 12:2.7e-05 15:5e-06 17:0.000571 18:0.00016 21:0.003664 22:0.136843 23:0.003061 26:0.120416 27:0.318112 28:0.000256 31:0.004075 32:0.000123 38:3.7e-05 39:2.1e-05 42:0.000123 43:0.064987 44:0.007061 47:0.021365 48:0.035253 59:6.9e-05 60:2.1e-05 63:0.000144 64:0.039157 
4 1:0.205971 2:0.004091 3:4e-06 5:0.058615 6:0.075497 7:0.002008 10:0.103701 11:0.079069 12:0.00032 14:3.7e-05 15:0.019472 16:0.000811 17:0.002304 18:0.001227 21:0.008062 22:0.054902 23:0.002353 24:4e-06 26:0.009293 27:0.046973 28:0.002437 30:1.2e-05 31:0.072927 32:0.007015 34:4e-06 38:0.000179 39:0.000333 42:0.000453 43:0.0082 44:0.003734 47:0.001663 48:0.024374 59:9.1e-05 60:0.000187 63:6.7e-05 64:0.203609 
4 1:0.017259 2:0.016448 5:0.001435 6:0.060747 7:0.00064 17:0.000971 18:0.0008 21:0.000267 22:0.1284 23:0.041083 26:0.000187 27:0.015531 38:0.003371 39:0.001552 42:0.124368 43:0.177995 44:0.00136 47:0.000165 48:0.000373 58:0.105797 59:0.189168 60:0.004176 63:0.003867 64:0.104043 
4 1:0.134357 2:0.135664 3:0.009088 4:0.002736 5:0.000112 6:0.042245 7:0.097024 8:0.00408 11:0.000667 12:0.000811 17:4.3e-05 18:0.000363 19:0.0004 20:0.000464 21:1.6e-05 22:0.008752 23:0.080587 24:0.012389 26:3.7e-05 27:0.071941 28:0.087472 32:0.000352 38:1.6e-05 39:0.000213 40:0.000379 42:5e-06 43:0.015451 44:0.134395 47:6.9e-05 48:0.119803 60:0.00032 63:5e-06 64:0.039744 
4 1:0.234693 2:0.117125 3:1.6e-05 5:0.002085 6:0.0812 7:0.0028 10:0.001077 11:0.000165 15:5e-06 17:0.000155 18:0.002085 19:5e-06 21:0.000747 22:0.147872 23:0.087941 24:0.000261 25:0.000491 26:0.002869 27:0.060987 28:0.005077 30:5e-06 31:0.000597 32:8.5e-05 38:0.000117 39:0.001424 40:1.1e-05 41:6.9e-05 42:0.000357 43:0.071701 44:0.030939 45:6.9e-05 46:0.000139 47:0.000736 48:0.015477 59:0.000288 60:0.001227 62:1.1e-05 63:0.00088 64:0.128208 
4 1:0.020673 2:0.000257 5:0.002652 6:0.009886 7:6.4e-05 10:0.000788 11:3.2e-05 17:0.004067 18:8e-05 21:0.002958 22:0.084169 23:0.016718 26:0.009324 27:0.162326 28:0.000707 31:0.050042 32:0.007362 38:4.8e-05 39:3.2e-05 42:4.8e-05 43:0.060362 44:0.008616 47:0.040863 48:0.244245 59:0.000289 60:0.000161 63:3.2e-05 64:0.273196 
4 1:0.229195 2:0.078715 5:0.000405 6:0.120245 7:0.002693 11:0.000128 17:0.004341 18:0.000309 21:0.002336 22:0.063477 23:0.026336 26:0.000443 27:0.068896 28:9.1e-05 32:1.1e-05 37:1.1e-05 38:0.000107 39:4.8e-05 42:0.00016 43:0.176272 44:0.030789 47:0.001835 48:0.0448 59:6.4e-05 60:3.2e-05 62:5e-06 63:0.000677 64:0.147579 
4 1:0.07088 2:0.065531 3:0.007755 5:0.001904 6:0.054283 7:0.002027 10:0.000784 11:0.000155 15:5e-06 16:5e-06 17:0.009387 18:0.011691 19:0.006603 21:0.00088 22:0.196619 23:0.186197 24:0.001472 26:0.008213 27:0.053755 28:0.000816 31:3.7e-05 32:0.000112 37:1.6e-05 38:0.00112 39:0.001883 40:0.000101 41:5e-06 42:0.003056 43:0.167499 44:0.020811 47:0.000251 48:0.003776 58:0.000416 59:0.001728 60:0.001099 62:6.9e-05 63:0.000656 64:0.118405 
4 1:0.163515 2:0.043733 5:0.001006 6:0.088891 7:7.3e-05 11:6.1e-05 17:0.001576 18:0.000485 21:0.000745 22:0.20263 23:0.012267 26:0.00077 27:0.017291 37:6e-06 38:0.001594 39:3.6e-05 42:0.001855 43:0.052679 44:0.000588 47:0.00103 48:0.002442 54:6e-06 58:0.012115 59:0.058564 63:0.090382 64:0.245661 
4 1:0.094012 2:0.005634 5:0.034162 6:0.091814 7:0.002246 8:6e-06 9:6e-06 10:0.008258 11:0.007568 12:1.8e-05 14:2.4e-05 15:0.000511 16:6.6e-05 17:0.001009 18:3.6e-05 21:0.008342 22:0.252955 23:0.040655 24:1.2e-05 26:0.03633 27:0.173201 28:0.001796 31:0.008276 32:0.002715 37:1.2e-05 38:0.000661 39:0.00015 42:0.001988 43:0.072625 44:0.015003 46:1.8e-05 47:0.008444 48:0.048787 58:1.8e-05 59:0.000294 60:1.2e-05 63:0.001279 64:0.081057 
4 1:0.033057 2:0.10209 3:0.016066 5:0.015988 6:0.031634 7:0.007994 8:8.4e-05 10:0.032979 11:0.002486 12:9.6e-05 16:4.8e-05 17:4.8e-05 18:3.6e-05 21:0.00018 22:0.010883 23:0.004631 24:3e-05 26:0.007556 27:0.017508 28:0.003291 31:6.6e-05 32:0.001159 37:1.8e-05 38:9e-05 39:8.4e-05 42:0.000288 43:0.004348 44:0.003724 47:9.6e-05 48:0.009435 58:2.4e-05 59:0.073057 60:9.6e-05 63:0.175477 64:0.445351 
4 1:0.050048 2:0.027483 3:3.6e-05 5:0.005189 6:0.032805 7:0.005291 10:0.001333 11:0.001039 15:4.8e-05 16:1.2e-05 17:0.001279 18:0.001135 21:0.004336 22:0.19833 23:0.091171 24:9.6e-05 26:0.020817 27:0.191423 28:0.02421 31:0.007922 32:0.009826 33:1.2e-05 34:3e-05 37:2.4e-05 38:0.001514 39:0.001964 42:0.001213 43:0.118102 44:0.052396 47:0.002781 48:0.075237 54:4.8e-05 55:6e-06 58:3.6e-05 59:0.002529 60:0.000721 63:0.001075 64:0.06848 
4 1:0.408144 2:0.056155 3:8.5e-05 5:0.000416 6:0.01544 7:0.001547 8:5e-06 10:3.7e-05 11:0.000645 12:1.6e-05 16:2.1e-05 17:0.037349 18:0.126496 19:0.002757 21:0.000187 22:0.107829 23:0.043232 24:5e-06 26:0.000325 27:0.006821 28:0.000357 31:3.7e-05 32:0.000267 33:0.002139 34:0.008107 35:0.000645 37:3.2e-05 38:0.025189 39:0.045781 40:1.1e-05 42:0.000128 43:0.032016 44:0.002139 47:7.5e-05 48:0.003013 49:0.000267 50:0.000203 53:5e-06 54:0.001253 55:0.001333 58:1.1e-05 59:0.008053 60:0.004619 63:5.3e-05 64:0.056752 
4 1:0.052373 2:0.202683 3:0.000139 5:0.011115 6:0.134859 7:0.058656 9:3.2e-05 10:0.028235 11:0.016635 12:0.000576 15:7.5e-05 16:0.000208 17:5e-06 18:0.000112 19:0.000155 20:5e-06 21:1.1e-05 22:0.014496 23:0.023691 24:0.000309 25:5e-06 26:0.016096 27:0.114384 28:0.008352 30:2.1e-05 31:0.002389 32:0.001531 36:1.1e-05 38:1.6e-05 39:0.000101 40:0.000107 42:1.6e-05 43:0.041493 44:0.04624 47:0.005083 48:0.059323 59:5e-06 60:0.000187 63:1.6e-05 64:0.160256 
4 1:0.117637 2:0.04408 3:0.014949 4:0.001072 5:0.047648 6:0.130347 7:0.003557 8:0.0004 10:0.009605 11:0.000133 12:2.7e-05 16:2.1e-05 17:0.00048 18:0.000416 19:5e-06 21:0.000608 22:0.057344 23:0.012459 24:9.6e-05 25:4.8e-05 26:0.015216 27:0.005045 28:0.000235 31:3.2e-05 32:0.000368 38:0.046464 39:0.000181 42:0.100149 43:0.046096 44:0.001973 47:8e-05 48:0.002603 55:5e-06 57:0.000341 58:0.144699 59:0.131019 60:5.3e-05 63:0.025051 64:0.039456 
4 1:0.199192 2:0.010072 3:0.000168 4:6e-06 5:0.071904 6:0.050928 7:0.002683 8:0.00024 10:0.000317 11:0.000156 12:0.00018 16:6e-06 17:0.000521 21:0.008234 22:0.038671 23:0.009844 26:0.000497 27:0.029365 28:0.001114 31:6e-06 38:0.014964 42:0.01612 43:0.060012 44:0.026838 47:1.2e-05 48:0.038539 59:0.013641 63:0.026449 64:0.379323 
4 1:0.210224 2:0.029323 3:5.9e-05 5:0.000272 6:0.0292 7:0.0004 11:1.1e-05 17:0.004299 18:0.003232 21:0.001301 22:0.107205 23:0.070485 24:0.000373 26:0.000917 27:0.093472 28:0.004896 32:0.000117 33:5e-06 37:0.000203 38:0.003104 39:0.003019 40:2.7e-05 42:0.005984 43:0.118032 44:0.058661 47:0.002059 48:0.063707 53:3.7e-05 54:3.7e-05 55:5e-06 57:0.000624 58:0.004299 59:0.008475 60:0.001003 62:0.000128 63:0.011792 64:0.163013 
4 1:0.086373 2:0.059264 3:5e-06 5:0.004043 6:0.073163 7:0.015499 8:5e-06 10:5.3e-05 11:0.000613 12:5.3e-05 17:0.000368 18:0.000485 21:0.001669 22:0.175035 23:0.112117 24:3.7e-05 26:0.005269 27:0.134309 28:0.006325 31:1.1e-05 32:4.8e-05 38:0.000347 39:0.000181 42:0.000181 43:0.10304 44:0.044005 47:0.00016 48:0.029355 59:5e-06 60:1.6e-05 63:1.1e-05 64:0.147952 
4 1:0.009595 2:0.008427 5:0.025824 6:0.174432 7:0.004379 8:5e-06 9:8e-05 10:0.028875 11:0.012107 12:5.9e-05 15:5e-06 16:5.9e-05 17:0.000224 18:0.000395 21:0.001157 22:0.224272 23:0.045035 26:0.079675 27:0.245669 28:0.002293 31:0.000736 32:0.000256 38:0.000432 39:0.000288 42:0.000661 43:0.051083 44:0.028757 47:0.002907 48:0.028736 55:5e-06 58:5e-06 59:0.000261 60:0.000149 63:0.000187 64:0.022971 
4 1:0.653594 2:0.015254 3:1.8e-05 5:0.248496 6:0.024304 7:0.001307 9:6e-05 10:0.001003 11:0.000257 17:0.000537 18:0.000113 21:0.006561 22:0.010603 23:0.000746 24:6e-06 25:0.000155 26:0.007218 27:0.005212 28:0.000704 30:9.6e-05 31:0.000155 32:0.000137 37:4.8e-05 38:0.000167 39:4.2e-05 42:0.000782 43:0.001755 44:0.000424 46:1.2e-05 47:0.00111 48:0.00766 58:6e-06 59:6.6e-05 63:0.000448 64:0.010943 
4 1:0.032751 2:0.031375 3:0.000601 5:0.009826 6:0.239664 7:0.061784 8:0.002492 10:0.041796 11:0.091255 12:0.001345 15:1.2e-05 16:6e-06 17:6e-06 18:1.8e-05 21:1.8e-05 22:0.036925 23:0.048763 24:0.002811 26:0.02036 27:0.282282 28:0.058354 31:0.000547 32:0.000306 38:7.2e-05 42:0.000156 43:0.00591 44:0.014408 47:0.000787 48:0.014234 59:6e-06 64:0.001129 
4 1:0.257346 2:0.039646 3:1.6e-05 5:0.018252 6:0.236402 7:0.003576 10:0.084209 11:0.001319 12:5e-06 17:0.001936 18:0.002858 19:2.1e-05 21:0.001228 22:0.103764 23:0.029083 24:0.000118 25:5e-06 26:0.040633 27:0.048944 28:0.000279 31:2.1e-05 32:7e-05 37:1.6e-05 38:0.000767 39:0.001115 40:2.1e-05 42:0.000606 43:0.04296 44:0.012102 47:0.000938 48:0.013088 55:5e-06 58:5e-06 59:0.000413 60:0.000676 63:0.000391 64:0.057164 
4 1:0.068157 2:0.020795 5:1.8e-05 6:0.04138 7:6e-06 18:6e-06 22:0.122524 23:0.129524 27:0.147163 28:0.005181 43:0.094518 44:0.107681 48:0.180711 64:0.082337 
4 1:0.514139 2:0.044016 5:0.020459 6:0.122133 7:0.002053 11:1.6e-05 17:5e-06 21:0.003483 22:0.100859 23:0.012923 26:0.003899 27:0.009525 28:6.4e-05 42:0.000699 43:0.024949 44:0.000629 47:0.000917 48:0.000837 59:3.2e-05 63:0.001461 64:0.136901 
4 1:0.084167 2:0.076051 3:0.002449 5:0.001505 6:0.062717 7:0.0265 10:1.5e-05 11:0.000616 17:0.0005 18:0.000838 21:0.00054 22:0.130475 23:0.103414 26:0.001384 27:0.053914 28:0.002278 31:0.000419 32:0.001556 38:0.001157 39:0.000934 42:0.001005 43:0.282884 44:0.023172 47:0.001318 48:0.016399 59:0.010237 60:0.000631 63:0.008121 64:0.104803 
4 1:0.019045 2:0.003088 5:0.004251 6:0.111899 7:0.006037 10:0.032949 11:0.045664 17:0.000587 18:0.000133 21:0.000384 22:0.041963 23:0.015019 26:0.004565 27:0.412907 28:0.010933 31:0.012997 32:0.009787 37:1.1e-05 38:0.001904 39:0.000155 42:0.003397 43:0.04696 44:0.010384 47:0.001867 48:0.025211 58:0.000475 59:0.009632 60:0.000219 63:0.061861 64:0.105717 
4 1:0.333723 2:0.027739 3:4.8e-05 5:0.060901 6:0.105963 7:0.01312 8:0.000763 10:0.027605 11:0.004859 12:0.000112 15:0.000235 17:0.002272 18:3.2e-05 21:0.008336 22:0.032608 23:0.020352 24:0.001365 26:0.029659 27:0.085195 28:0.043605 31:0.034672 32:0.010181 37:0.000309 38:0.001888 39:3.7e-05 40:1.6e-05 42:0.003067 43:0.007221 44:0.009077 47:0.010725 48:0.074053 58:0.000651 59:0.00152 60:3.7e-05 62:4.8e-05 63:0.002517 64:0.045488 
4 1:0.09708 2:0.058857 3:0.018611 5:0.00495 6:0.107942 7:0.112122 8:0.048913 10:0.02103 11:0.012012 12:0.017693 21:1.5e-05 22:0.004188 23:0.00692 24:0.001023 26:0.001538 27:0.0549 28:0.037342 32:7e-06 38:6e-05 39:7e-06 42:0.000224 43:0.008727 44:0.007152 47:0.000276 48:0.007727 59:0.000702 60:6.7e-05 63:0.226424 64:0.143492 
4 1:0.294276 2:0.010054 3:1.2e-05 5:0.000306 6:0.009399 7:0.00164 8:1.2e-05 10:3e-05 11:0.001135 12:0.000186 15:1.2e-05 16:0.00012 17:0.255453 18:0.069904 19:7.2e-05 21:0.000937 22:0.066192 23:0.010378 24:2.4e-05 26:0.000667 27:0.005093 28:0.000931 31:0.00012 32:0.000565 33:0.02197 34:0.03982 35:0.000769 37:7.8e-05 38:0.056763 39:0.026096 40:4.2e-05 42:0.000607 43:0.013009 44:0.003081 47:9.6e-05 48:0.001369 49:0.003586 50:0.014523 51:0.005922 53:2.4e-05 54:0.008204 55:0.033117 56:0.001105 58:1.2e-05 59:0.012084 60:0.018571 63:4.8e-05 64:0.011586 
4 1:0.483563 2:0.026655 5:0.013658 6:0.03118 7:7.1e-05 10:6e-06 11:4.1e-05 17:0.016029 18:0.001109 19:6e-06 21:0.014997 22:0.110637 23:0.00377 26:0.000177 27:0.002566 28:2.4e-05 31:1.2e-05 32:1.2e-05 33:0.000165 34:1.2e-05 37:5.9e-05 38:0.001534 39:0.000419 42:0.000513 43:0.051681 44:0.007687 47:0.000265 48:0.009481 54:4.7e-05 58:2.4e-05 59:0.001776 60:0.001251 63:0.000808 64:0.219764 
4 1:0.492421 2:0.063957 3:3.7e-05 5:0.005904 6:0.061365 7:0.000123 11:1.1e-05 17:0.016901 18:0.001115 19:2.1e-05 21:0.005387 22:0.184075 23:0.013691 24:0.000309 26:0.000496 27:0.032501 28:0.000741 31:5e-06 33:0.000229 37:0.002912 38:0.008117 39:0.000235 40:5e-06 42:0.010869 43:0.042576 44:0.001707 47:6.9e-05 48:0.001605 53:5e-06 55:5e-06 58:5e-06 59:0.011696 60:0.000101 63:0.010741 64:0.030059 
4 1:0.045645 2:0.001355 5:0.0385 6:0.611325 7:3e-05 10:0.00638 11:0.000163 17:0.001548 18:9e-05 21:0.007247 22:0.084054 23:0.001729 26:0.003006 27:0.004813 28:6e-06 31:6e-06 37:6e-05 38:0.007699 39:3e-05 42:0.004229 43:0.112729 44:0.000488 47:1.8e-05 48:0.000253 59:0.066373 60:3e-05 63:0.001723 64:0.00047 
4 1:0.323639 2:0.017054 5:0.046235 6:0.372096 7:0.000765 10:0.000422 11:0.000181 12:6e-06 16:2.4e-05 17:0.002807 18:7.2e-05 21:0.003747 22:0.116386 23:0.012831 26:0.000873 27:0.031235 28:0.002536 32:0.000102 38:0.000934 39:1.2e-05 42:0.001265 43:0.022506 44:0.018404 47:6e-05 48:0.022404 59:2.4e-05 63:3e-05 64:0.003349 
4 1:0.053922 2:0.035287 5:0.005228 6:0.088934 7:0.005743 8:0.000653 11:0.000216 12:0.006587 16:6e-06 17:0.000425 18:6e-05 21:0.02594 22:0.211515 23:0.141874 24:6e-06 26:0.000216 27:0.123443 28:0.001808 32:0.000341 38:0.000503 39:1.2e-05 42:0.000509 43:0.14594 44:0.055096 47:6e-05 48:0.024443 59:0.000198 60:5.4e-05 63:0.000186 64:0.070796 
4 1:0.231317 22:0.256944 43:0.116254 64:0.395484 
4 1:0.430329 2:0.101863 3:3.3e-05 5:0.003222 6:0.140986 7:0.005178 8:5e-06 10:4.9e-05 11:0.000192 12:1.1e-05 17:0.002323 18:0.000915 21:0.000975 22:0.05874 23:0.018964 24:5.5e-05 26:0.00046 27:0.015984 28:0.002515 32:2.2e-05 33:0.000674 34:0.000214 35:5e-06 37:0.000247 38:0.002247 39:0.000526 41:1.1e-05 42:0.001216 43:0.04029 44:0.007556 47:0.000356 48:0.006745 49:8.8e-05 50:4.4e-05 51:5e-06 53:3.3e-05 54:0.000329 55:0.00011 56:1.1e-05 57:2.2e-05 58:0.000351 59:0.003101 60:0.000641 62:6e-05 63:0.002181 64:0.150115 
4 1:0.236773 2:0.008493 3:4.5e-05 5:0.185513 6:0.054286 7:0.00028 10:0.00051 11:6e-06 17:0.000196 18:0.000409 19:6e-06 21:9.5e-05 22:0.008919 23:0.002611 24:1.1e-05 26:0.001132 27:0.00344 28:0.00028 31:1.1e-05 33:1.1e-05 34:1.7e-05 37:6e-06 38:0.000347 39:0.000185 42:0.000482 43:0.004807 44:0.002359 47:0.000106 48:0.002028 54:1.7e-05 55:1.1e-05 59:0.00107 60:0.000246 63:0.000975 64:0.484319 
4 1:0.057131 2:0.004139 3:5e-06 5:0.021883 6:0.110213 7:0.012272 8:1.1e-05 9:6.4e-05 10:0.042523 11:0.02032 12:4.3e-05 14:5.3e-05 15:0.000224 16:4.3e-05 17:0.005456 18:0.000517 21:0.001024 22:0.083269 23:0.022453 24:3.7e-05 26:0.056139 27:0.360469 28:0.022523 30:0.000144 31:0.025749 32:0.011573 38:0.002192 39:0.000901 40:1.1e-05 42:0.000347 43:0.043829 44:0.021483 46:5e-06 47:0.011605 48:0.039088 59:0.000133 60:0.000144 63:0.000112 64:0.021872 
4 1:0.381787 2:0.072992 3:0.001733 5:0.002747 6:0.176875 7:0.104891 8:0.000203 10:5.3e-05 11:0.031627 12:0.009605 16:3.2e-05 18:0.000165 19:0.000976 20:2.1e-05 22:0.050352 23:0.030229 24:0.000587 26:0.000693 27:0.052843 28:0.025723 31:3.2e-05 32:0.001019 35:1.6e-05 36:1.1e-05 39:0.000224 40:0.000416 42:1.1e-05 43:0.011563 44:0.009019 47:0.000619 48:0.006731 56:5e-06 60:0.000464 63:1.1e-05 64:0.025728 
4 1:0.053804 2:0.027352 5:0.007244 6:0.051536 7:0.000104 9:1.6e-05 10:0.000824 11:2.4e-05 17:0.01164 18:0.007044 21:0.004732 22:0.200672 23:0.015396 25:3.6e-05 26:0.1846 27:0.08606 28:0.000268 31:5.6e-05 32:4e-05 33:0.00012 34:4.8e-05 37:0.000496 38:0.017632 39:0.002972 41:4e-06 42:0.010852 43:0.096612 44:0.002804 46:4e-06 47:0.00356 48:0.00248 54:3.2e-05 55:2.4e-05 58:0.0002 59:0.021248 60:0.0018 63:0.015192 64:0.172472 
4 1:0.156883 2:0.003368 5:8e-05 6:0.000926 17:0.002037 18:0.003485 21:0.000196 22:0.262638 23:0.015448 26:3.1e-05 27:0.002067 38:0.000429 39:0.003589 42:4.9e-05 43:0.252638 44:0.011914 48:0.00135 59:0.000172 60:0.001123 63:1.8e-05 64:0.281558 
4 1:0.065338 2:0.184794 3:9e-06 5:0.000544 6:0.105125 7:0.030272 10:9e-06 11:0.000213 17:2.3e-05 18:6.3e-05 19:5e-06 22:0.070771 23:0.106036 26:0.01678 27:0.278739 28:0.002435 31:1.4e-05 32:2.3e-05 38:4.5e-05 39:0.000327 42:1.8e-05 43:0.07298 44:0.017016 47:0.000413 48:0.009338 59:0.000531 60:0.000726 63:0.000177 64:0.037238 
4 1:0.108976 2:0.012827 3:0.011067 4:5.9e-05 5:0.077029 6:0.032843 7:0.006352 8:7.5e-05 9:0.017712 10:0.339131 11:0.002693 12:0.000304 14:0.000219 15:0.000245 16:0.000155 17:0.00256 18:0.000149 19:3.7e-05 21:0.006507 22:0.039168 23:0.00208 24:0.000203 25:5e-06 26:0.164763 27:0.062976 28:5.3e-05 30:0.000277 31:0.006715 32:0.000213 37:3.2e-05 38:0.001435 39:4.8e-05 40:9.1e-05 41:1.1e-05 42:0.010251 43:0.019957 44:0.000571 47:0.004571 48:0.004608 58:0.001051 59:0.001493 60:1.6e-05 62:3.2e-05 63:0.003723 64:0.05672 
4 1:0.185968 2:0.002805 5:0.107323 6:0.133136 7:0.000347 9:3.7e-05 10:0.08336 11:0.036016 12:1.6e-05 14:0.000144 15:0.014155 16:0.002411 17:0.001035 18:0.00024 21:0.007061 22:0.052779 23:0.001291 24:5e-06 25:5e-06 26:0.05528 27:0.102032 28:0.000421 30:9.6e-05 31:0.056085 32:0.037285 34:2.7e-05 38:0.000587 39:0.000133 42:0.002144 43:0.01304 44:0.000528 46:1.1e-05 47:0.011376 48:0.062901 55:1.1e-05 59:0.0004 60:7.5e-05 63:0.000555 64:0.02888 
4 1:0.251219 2:0.059976 3:0.006396 5:0.005892 6:0.090306 7:0.008721 8:0.000186 10:5.4e-05 11:0.000168 12:0.000174 17:0.000258 18:7.2e-05 21:0.004607 22:0.033453 23:0.008745 24:0.000198 26:0.000468 27:0.010763 28:0.002228 32:4.2e-05 37:0.052961 38:0.112739 39:4.2e-05 42:0.087267 43:0.022462 44:0.00806 47:0.000114 48:0.015297 54:1.2e-05 58:0.121784 59:0.041321 60:0.000102 63:0.001189 64:0.052721 
4 1:0.107475 2:0.030017 3:6.1e-05 5:0.10226 6:0.169459 7:0.018746 10:0.024718 11:0.000331 17:0.000287 18:0.000182 21:0.001945 22:0.070392 23:0.091829 24:0.00016 26:0.075779 27:0.034862 28:0.004724 31:0.000276 32:0.000845 37:2.2e-05 38:0.00032 39:0.000315 42:0.000829 43:0.024177 44:0.027287 47:0.000525 48:0.007591 54:6e-06 58:6.1e-05 59:0.000425 60:0.001017 63:0.026028 64:0.17705 
4 1:0.012048 2:0.012507 5:0.001643 6:0.054112 7:0.002021 10:0.002379 11:0.000256 17:0.003707 18:0.001909 21:0.000139 22:0.19472 23:0.094645 24:0.000197 26:0.019797 27:0.126923 28:0.002907 31:0.000144 32:1.6e-05 38:0.122517 39:0.01568 42:0.007013 43:0.158379 44:0.036613 47:0.000763 48:0.012309 59:0.005728 60:0.000336 63:0.000139 64:0.110453 
4 1:0.17306 2:0.039389 3:1.8e-05 5:0.02185 6:0.238916 7:0.017982 10:0.023527 11:0.037503 12:0.000359 16:0.000293 18:6e-06 22:0.01115 23:0.025928 26:0.000683 27:0.051952 28:0.012563 31:4.8e-05 32:0.000413 39:2.4e-05 42:2.4e-05 43:0.011096 44:0.006377 47:0.000287 48:0.010868 59:0.009311 60:1.8e-05 63:0.003257 64:0.303096 
4 1:0.113322 2:0.102565 3:0.000221 5:0.008162 6:0.290437 7:0.001779 17:0.008516 18:0.000467 21:0.009774 22:0.169474 23:0.090668 26:7.4e-05 27:0.020246 28:6.9e-05 38:0.00059 39:0.000585 42:0.000334 43:0.027017 44:0.019057 48:0.002565 59:0.000614 60:0.000688 63:0.000305 64:0.132472 
4 1:0.156741 2:0.001317 5:0.003227 6:0.0328 7:7.5e-05 10:0.036715 11:0.005216 12:5e-06 15:1.6e-05 16:1.1e-05 17:0.000912 18:0.000304 21:0.001824 22:0.077221 23:0.003739 26:0.082384 27:0.574619 28:8e-05 31:0.002277 32:0.001163 38:3.7e-05 39:5e-06 42:0.000117 43:0.011819 44:0.001845 47:0.001168 48:0.003531 59:2.1e-05 63:3.7e-05 64:0.000773 
4 1:0.002325 2:3.2e-05 5:0.002736 6:0.001627 17:0.015483 18:0.000357 21:0.021675 22:0.335835 23:0.000816 26:0.036517 27:0.280107 31:0.000288 38:0.012123 39:0.000139 42:0.018112 43:0.20992 44:0.01568 47:0.009669 48:0.015381 54:2.1e-05 58:4.3e-05 59:0.001147 60:5e-06 63:0.000411 64:0.019552 
4 1:0.026757 2:0.036411 3:0.000357 5:0.004272 6:0.034267 7:0.00952 8:0.000304 10:0.004027 11:0.024432 12:0.000613 15:0.001813 16:0.000811 17:0.015776 18:0.002485 21:0.055877 22:0.292923 23:0.045819 24:0.000187 26:0.012229 27:0.1204 28:0.013147 31:0.011952 32:0.05088 37:0.000245 38:0.014123 39:0.004203 40:1.1e-05 42:0.005435 43:0.060736 44:0.023995 47:0.000997 48:0.046992 54:0.000176 57:1.1e-05 58:0.001024 59:0.014912 60:0.006299 62:1.6e-05 63:0.005147 64:0.050421 
4 1:0.18406 2:0.078898 3:0.002072 5:0.0015 6:0.082988 7:0.136313 8:0.001681 10:6e-06 11:0.013355 12:0.007193 17:6e-06 19:6e-06 21:0.000223 22:0.001247 23:0.002048 24:0.000133 26:0.000343 27:0.005639 28:0.013837 32:0.000476 37:0.053867 38:0.006663 39:6e-06 41:0.003084 42:0.13059 43:0.004946 44:0.000428 47:0.003596 48:0.002705 58:0.146633 59:0.008964 60:1.8e-05 62:0.002289 63:0.101446 64:0.002741 
4 1:0.016976 2:0.054395 3:0.002715 4:5e-06 5:0.001312 6:0.228843 7:0.232363 8:0.002016 10:0.001136 11:0.041595 12:0.005541 22:0.004597 23:0.072987 24:4.8e-05 26:0.000176 27:0.216859 28:0.114923 32:0.001131 43:6.4e-05 44:0.001237 48:0.001072 64:1.1e-05 
4 1:0.142608 2:0.057493 5:0.029136 6:0.206725 7:0.003152 8:5e-06 10:0.021952 11:0.033723 12:0.000384 15:0.007611 16:0.006027 17:0.000731 18:0.001019 21:0.001451 22:0.156635 23:0.021563 24:2.7e-05 26:0.015125 27:0.097941 28:0.003237 31:0.012485 32:0.018741 33:3.2e-05 34:5e-06 37:2.1e-05 38:0.000992 39:0.000379 42:0.000784 43:0.048448 44:0.015483 47:0.005531 48:0.039216 54:0.000224 55:4.8e-05 58:5e-06 59:0.001163 60:0.000331 63:0.000613 64:0.048955 
4 1:0.250943 2:0.000781 5:0.000402 6:0.004559 17:0.000156 18:1.8e-05 21:0.000198 22:0.103471 23:0.001153 26:0.005862 27:0.038691 38:0.001117 39:1.2e-05 42:0.000835 43:0.391904 44:0.001363 47:0.000144 48:0.004709 59:0.009423 60:7.2e-05 63:0.003141 64:0.181045 
4 1:0.022474 2:0.008943 3:5.4e-05 5:0.002324 6:0.050901 7:0.01579 8:3e-05 10:0.000474 11:4.2e-05 12:1.2e-05 18:4.8e-05 21:3e-05 22:0.148138 23:0.108012 24:0.000204 26:0.049652 27:0.358613 28:0.036697 31:0.000408 32:0.000102 38:3e-05 39:6e-06 42:2.4e-05 43:0.125195 44:0.047243 47:0.003958 48:0.016084 59:6e-06 63:1.2e-05 64:0.004492 
4 1:0.668139 2:0.033925 5:0.001536 6:0.041653 7:4.8e-05 11:0.000101 17:0.002421 18:0.001104 21:0.001035 22:0.104133 23:0.006992 26:0.001035 27:0.006592 38:0.001632 39:0.000331 42:0.001147 43:0.076752 44:0.002171 47:0.002 48:0.002912 59:0.002251 60:0.000208 63:0.006027 64:0.035856 
4 1:0.078082 2:0.007057 3:0.000492 5:0.015754 6:0.12782 7:0.013443 8:0.001959 10:8e-06 11:0.001254 12:0.000566 21:0.000648 22:0.088934 23:0.001361 24:3.3e-05 26:0.00623 27:0.002664 28:0.000598 38:0.074869 42:0.211418 43:0.106344 44:2.5e-05 47:4.9e-05 48:9.8e-05 59:0.017992 60:8e-06 63:0.023951 64:0.218344 
4 1:0.224247 2:0.009985 5:0.057235 6:0.196484 7:0.000178 9:5e-06 10:0.02559 11:0.001002 12:1e-05 15:5e-06 16:2e-05 17:0.001778 18:0.000593 21:0.001151 22:0.075521 23:0.00476 26:0.053393 27:0.078642 28:0.000326 31:0.001309 32:0.000523 38:0.000415 39:6.4e-05 42:0.000919 43:0.016652 44:0.00118 47:0.003546 48:0.004499 59:0.00039 60:4.9e-05 63:0.000805 64:0.238726 
4 1:0.435787 2:0.083205 3:1.1e-05 5:0.00056 6:0.051941 7:0.0004 8:5e-06 11:3.2e-05 17:0.00336 18:0.004005 21:0.000773 22:0.1244 23:0.028341 24:1.1e-05 26:0.000304 27:0.01296 28:0.000107 38:0.002528 39:0.002331 42:0.000512 43:0.070144 44:0.012779 47:0.00064 48:0.006571 55:1.1e-05 59:0.003035 60:0.002133 63:0.000581 64:0.152533 
4 1:0.111845 2:5e-06 5:0.080773 6:0.005776 9:4.8e-05 10:0.001221 17:9.1e-05 18:1.1e-05 21:0.063323 22:0.091621 23:2.7e-05 25:0.000347 26:0.395509 27:0.029451 30:0.008128 31:0.007952 32:1.1e-05 37:1.1e-05 38:0.000277 42:0.026107 43:0.038309 44:6.4e-05 46:0.002389 47:0.036288 48:0.00312 58:0.000411 59:0.000453 62:5.9e-05 63:0.003397 64:0.092976 
4 1:0.407813 22:0.267579 43:0.085429 64:0.239179 
4 1:0.121291 2:0.020976 3:0.002715 4:1.6e-05 5:0.022048 6:0.035013 7:0.015536 8:0.000133 10:0.000549 11:0.000283 12:3.2e-05 16:5e-06 17:0.013323 18:0.00128 19:0.012427 20:0.000357 21:0.02344 22:0.292304 23:0.066693 24:0.004181 26:0.027269 27:0.04704 28:0.008208 31:0.001093 32:0.001067 38:0.015195 39:0.000336 40:0.002523 42:0.020704 43:0.101477 44:0.017675 47:0.008251 48:0.039195 58:9.6e-05 59:0.004021 60:0.000283 63:0.002432 64:0.070533 
4 1:0.043229 2:0.017024 5:6.5e-05 6:0.005725 17:0.100275 18:0.011774 21:0.047218 22:0.217569 23:0.002334 26:0.003493 27:0.002836 28:4.3e-05 31:0.000108 32:2.7e-05 37:5e-06 38:0.036604 39:0.00103 42:0.045396 43:0.102388 44:0.003628 47:0.006167 48:0.009536 53:5e-06 54:2.7e-05 57:1.6e-05 58:0.002528 59:0.023838 60:0.000124 63:0.01117 64:0.305817 
4 1:0.065931 2:0.046763 3:0.001957 5:0.011744 6:0.175093 7:0.075419 8:0.000224 9:1.1e-05 10:0.030517 11:0.207877 12:0.005019 14:5e-06 15:0.00168 16:0.00152 17:0.000101 18:0.000299 19:5e-06 21:8.5e-05 22:0.008059 23:0.007083 24:5.9e-05 26:0.001733 27:0.029579 28:0.005845 30:5e-06 31:0.00088 32:0.003835 38:0.000128 39:0.000187 42:0.00016 43:0.009637 44:0.001883 46:5e-06 47:0.000853 48:0.007232 58:0.000336 59:0.142661 60:0.000341 63:0.063115 64:0.092133 
4 1:0.094503 2:0.001268 5:0.000352 6:0.006436 17:2.8e-05 18:7.3e-05 22:0.200911 23:0.010363 26:0.000458 27:0.05852 39:1.7e-05 43:0.479877 44:0.004542 47:0.000145 48:0.027749 64:0.11476 
4 1:0.122736 2:0.017339 3:0.015051 4:0.001968 5:0.010384 6:0.027813 7:0.018192 8:0.002848 10:0.000571 11:0.008832 12:0.009861 16:0.000379 17:0.020048 18:0.001344 19:0.00056 20:0.000139 21:0.062667 22:0.174613 23:0.014789 24:0.002176 25:2.1e-05 26:0.021963 27:0.024875 28:0.001595 31:2.7e-05 32:0.001264 37:0.019499 38:0.012501 39:0.000331 40:3.7e-05 41:0.000635 42:0.037349 43:0.119867 44:0.008768 46:2.7e-05 47:0.004629 48:0.013264 57:5e-06 58:0.001803 59:0.007243 60:0.000139 62:7.5e-05 63:0.017339 64:0.194437 
4 1:0.177989 2:0.235829 3:0.051536 4:0.000837 6:0.001467 7:0.010704 8:0.003712 11:0.000133 12:0.000443 16:3.2e-05 17:0.091723 18:0.189184 19:0.063195 20:0.001749 21:5e-06 22:0.001088 23:0.009813 24:0.005035 27:0.00016 28:0.000672 32:0.000187 33:0.009765 34:0.051093 35:0.019067 36:0.000896 38:0.000565 39:0.005979 40:0.002571 43:0.000587 44:0.0016 48:0.000768 49:0.000779 50:0.004357 51:0.007659 52:9.6e-05 54:0.000304 55:0.004715 56:0.00112 59:0.001104 60:0.012437 64:0.029045 
4 1:0.148048 2:0.092246 3:0.001309 5:3.6e-05 6:0.041928 7:0.003183 11:0.00024 17:0.000492 18:0.001309 19:0.003261 21:0.000354 22:0.032631 23:0.058655 26:1.8e-05 27:0.192775 28:3.6e-05 35:4.2e-05 38:1.8e-05 39:0.000192 42:3.6e-05 43:0.07221 44:0.052312 47:0.000432 48:0.02352 59:9e-05 60:6.6e-05 63:0.000162 64:0.274396 
4 1:0.032213 2:0.032155 5:0.004075 6:0.126165 7:0.001397 10:0.000907 11:0.000203 17:0.000197 18:4.8e-05 21:0.000171 22:0.18624 23:0.069413 26:0.014405 27:0.170715 28:0.000261 38:0.000235 39:6.4e-05 42:0.000805 43:0.092565 44:0.011552 47:0.000341 48:0.0148 59:0.001301 60:0.000155 63:0.017104 64:0.222512 
4 1:0.021488 2:0.001507 5:0.028215 6:0.173316 7:0.000325 10:0.237029 11:0.002742 17:0.000392 18:1e-05 21:0.000837 22:0.051292 23:0.003584 26:0.224455 27:0.184718 28:2.4e-05 31:0.000522 38:0.000344 42:0.002579 43:0.041254 44:0.000431 47:0.002722 48:0.002871 59:0.000349 63:0.003646 64:0.015349 
4 1:0.085829 2:0.017493 5:0.045669 6:0.121003 7:9.1e-05 10:0.000187 17:0.007664 18:0.000347 21:0.009547 22:0.128347 23:0.004885 26:0.00528 27:0.012571 28:4.8e-05 37:0.001104 38:0.035728 39:0.000256 42:0.058043 43:0.136555 44:0.001541 47:0.000288 48:0.001707 58:0.030976 59:0.067659 60:5.9e-05 63:0.175845 64:0.05128 
4 1:0.213349 2:0.162523 3:0.006571 5:0.002357 6:0.031755 7:0.015264 8:1.1e-05 10:5.9e-05 11:0.000139 17:0.003163 18:0.002987 19:1.1e-05 21:0.002645 22:0.056181 23:0.036235 24:0.000304 25:5e-06 26:0.002091 27:0.037504 28:0.012133 31:9.1e-05 32:0.000149 33:1.1e-05 34:1.1e-05 37:0.000304 38:0.002091 39:0.000299 41:2.1e-05 42:0.004053 43:0.044395 44:0.049408 46:4.8e-05 47:0.001035 48:0.122587 54:4.3e-05 58:0.002368 59:0.003499 60:4.3e-05 62:0.000528 63:0.116197 64:0.067536 
4 1:0.088806 2:0.081777 3:0.001051 4:0.000114 5:0.017526 6:0.166869 7:0.054166 8:0.000503 10:0.018246 11:0.004486 12:0.001526 17:1.1e-05 18:0.000194 21:1.1e-05 22:0.083029 23:0.099674 24:0.000371 26:0.023491 27:0.136166 28:0.018954 31:0.00096 32:0.000726 38:3.4e-05 39:0.000143 42:2.3e-05 43:0.052543 44:0.03672 47:0.001766 48:0.04888 59:2.3e-05 60:0.000246 63:1.7e-05 64:0.060949 
4 1:0.073051 2:0.137557 3:4.8e-05 6:0.013984 7:0.004747 17:0.000587 18:0.012149 19:5.9e-05 21:6.9e-05 22:0.059787 23:0.132688 24:0.000352 26:0.000181 27:0.021445 28:0.026912 33:5e-06 34:0.000123 37:5e-06 38:0.001387 39:0.002405 40:3.2e-05 42:0.000629 43:0.064293 44:0.078928 47:0.005947 48:0.030501 55:2.1e-05 58:5e-06 59:0.019429 60:0.009221 63:0.01032 64:0.293131 
4 1:0.81009 22:0.16445 43:0.01773 64:0.00773 
4 1:0.190958 2:0.027506 5:0.013602 6:0.059476 7:0.0015 10:2.4e-05 11:6e-05 17:0.000259 18:3.6e-05 21:0.001042 22:0.266048 23:0.018578 26:0.011988 27:0.062705 28:0.000572 31:5.4e-05 32:4.8e-05 38:0.000307 39:7.8e-05 42:0.000813 43:0.09912 44:0.010843 47:0.003506 48:0.028596 59:0.000343 60:7.2e-05 63:0.001464 64:0.200398 
4 1:0.349237 2:0.053141 3:0.001647 5:0.072819 6:0.077301 7:0.01649 8:0.000498 10:7.2e-05 11:0.000602 12:1.6e-05 17:0.009446 18:0.006932 21:0.017807 22:0.217558 23:0.041108 24:0.001984 26:0.003799 27:0.042522 28:0.005261 32:8e-06 37:1.6e-05 38:0.002514 39:0.000618 42:0.005076 43:0.047703 44:0.006948 47:0.000932 48:0.004627 58:7.2e-05 59:0.001237 60:0.000112 63:0.00188 64:0.010016 
4 1:0.169141 2:0.012823 3:0.000132 5:0.000138 6:0.004745 7:0.001652 8:2.4e-05 10:1.8e-05 11:0.00036 12:0.000216 16:0.000138 17:0.222078 18:0.190054 19:0.001009 21:0.000132 22:0.039291 23:0.014931 24:0.000126 26:0.000102 27:0.003724 28:0.001201 31:1.2e-05 32:0.000492 33:0.015303 34:0.096216 35:0.003772 37:1.8e-05 38:0.07415 39:0.084102 40:0.000378 42:6e-05 43:0.015754 44:0.004012 47:9e-05 48:0.002048 49:0.001291 50:0.00394 51:0.000462 53:1.2e-05 54:0.002793 55:0.013598 56:0.000414 58:3e-05 59:0.006547 60:0.004366 63:9e-05 64:0.008012 
4 1:0.026037 2:0.000613 5:0.02872 6:0.1496 7:0.000704 10:0.003173 11:0.001179 15:5e-06 17:0.000469 18:6.9e-05 21:0.002507 22:0.219296 23:0.004053 26:0.066224 27:0.121179 28:0.001701 30:5e-06 31:0.011573 32:0.004133 33:5e-06 37:1.1e-05 38:0.00176 39:3.7e-05 42:0.01176 43:0.062731 44:0.002805 47:0.020128 48:0.040293 54:5e-06 58:0.001291 59:0.002779 60:9.1e-05 62:5e-06 63:0.003413 64:0.211643 
4 1:0.155081 2:0.023569 3:0.00012 5:0.000382 6:0.007519 7:7.8e-05 10:0.000608 17:0.002629 18:0.020148 19:2.8e-05 21:0.00012 22:0.119258 23:0.013018 26:0.06665 27:0.219251 38:0.008007 39:0.084438 42:0.00017 43:0.210134 44:0.002784 47:0.000502 48:0.000905 59:0.003145 60:0.009746 63:2.1e-05 64:0.051689 
4 1:0.154411 2:0.025275 3:0.006688 4:0.000448 5:0.001616 6:0.023349 7:0.072853 8:0.001563 10:2.7e-05 11:0.001776 12:0.000171 16:0.000219 17:0.001904 18:0.000608 19:6.9e-05 20:1.1e-05 21:0.001717 22:0.022661 23:0.035211 24:0.000603 26:0.001003 27:0.091653 28:0.061168 32:0.000645 33:0.000304 37:0.001776 38:0.001291 39:0.000427 40:2.1e-05 41:3.7e-05 42:0.001429 43:0.022992 44:0.096709 47:0.000768 48:0.268928 49:1.1e-05 53:0.000389 54:0.000117 57:7.5e-05 58:0.001152 59:0.001152 60:0.000331 62:0.0004 63:0.001803 64:0.09424 
4 1:0.417994 2:0.090241 3:0.002566 4:0.000422 5:0.012904 6:0.088096 7:0.005554 8:4.2e-05 10:6e-06 11:0.001536 12:5.4e-05 16:6e-06 17:0.000783 18:0.001717 19:0.001277 20:0.039922 21:0.012277 22:0.089072 23:0.032193 24:0.012108 25:0.000343 26:0.003735 27:0.029163 28:0.001392 32:3e-05 33:1.2e-05 34:6e-06 35:2.4e-05 36:1.8e-05 37:0.002006 38:0.006398 39:0.00088 40:0.000235 41:1.8e-05 42:0.008717 43:0.069699 44:0.017554 46:7.2e-05 47:0.000548 48:0.001066 54:1.2e-05 55:6e-06 58:0.000548 59:0.00741 60:0.005663 62:1.2e-05 63:0.00253 64:0.033133 
4 1:0.740261 2:0.040427 3:0.000101 5:0.000304 6:0.018827 7:0.012645 8:0.000112 11:0.000309 12:0.000155 16:1.1e-05 17:5e-06 18:1.6e-05 22:0.009163 23:0.008219 24:0.000117 27:0.010587 28:0.002581 32:0.001717 38:5e-06 39:5e-06 43:0.009605 44:0.008987 48:0.029835 60:2.1e-05 64:0.105984 
4 1:0.193967 2:0.019407 5:0.076776 6:0.089673 7:1.1e-05 10:0.000399 11:1.7e-05 17:0.001795 18:0.000848 21:0.010964 22:0.359524 23:0.036726 26:0.012482 27:0.02231 38:0.005934 39:0.004493 42:0.009452 43:0.066715 44:0.003429 47:9.4e-05 48:0.000371 59:0.00933 60:0.01574 63:0.011468 64:0.048078 
3.801276112431726 1:0.004363 2:0.006 5:0.017728 6:0.140027 7:0.001392 9:1.6e-05 10:0.390256 11:0.023136 12:0.000619 15:1.1e-05 16:0.001115 22:0.010587 23:0.003717 26:0.229685 27:0.166688 28:0.001008 31:0.000219 32:0.001061 43:0.000709 44:0.000581 47:0.000229 48:0.000571 64:0.000283 
4 1:0.246952 2:0.003733 3:5e-06 5:0.003986 6:0.028386 7:0.002729 10:0.006986 11:0.003252 17:0.004948 18:0.0003 21:0.004467 22:0.028252 23:0.01309 26:0.007424 27:0.046195 28:0.005476 31:0.000233 32:0.000157 37:5e-06 38:0.001695 39:0.000224 42:0.006048 43:0.015686 44:0.011562 47:0.000119 48:0.009871 58:6.7e-05 59:0.001038 60:1.4e-05 63:0.167605 64:0.379495 
4 1:0.198649 2:0.066625 3:0.000228 5:0.024324 6:0.093622 7:0.004565 8:6.6e-05 10:0.003129 11:0.000324 12:5.4e-05 17:0.000498 18:0.001189 19:6e-06 21:0.000318 22:0.062565 23:0.016847 24:6e-05 26:0.011351 27:0.021003 28:0.006462 32:0.000348 38:0.010312 39:0.000703 42:0.049099 43:0.111213 44:0.006841 47:0.000655 48:0.009958 59:0.002258 60:7.8e-05 63:0.002901 64:0.293748 
4 1:0.246523 2:0.018174 5:0.026294 6:0.175075 7:0.000138 10:0.03364 11:0.019862 15:0.00015 16:2.4e-05 17:0.002144 18:0.001598 21:0.000204 22:0.144084 23:0.008679 26:0.040667 27:0.106619 28:9.6e-05 31:0.005532 32:0.002955 38:0.000931 39:0.000384 42:0.000252 43:0.039207 44:0.000967 47:0.008486 48:0.015423 59:0.000336 60:8.4e-05 63:0.000408 64:0.101063 
4 1:0.2516 2:0.073312 3:0.000144 5:0.122112 6:0.095312 7:0.016421 9:1.1e-05 10:0.052683 11:0.00112 12:0.000112 16:2.7e-05 17:4.3e-05 18:0.000208 21:0.000123 22:0.02392 23:0.02552 24:2.1e-05 26:0.05696 27:0.021221 28:0.001424 31:0.001077 32:0.000523 38:1.1e-05 39:0.000251 42:6.4e-05 43:0.025525 44:0.024507 47:0.001019 48:0.037008 59:6.4e-05 60:0.000331 63:2.1e-05 64:0.167307 
4 1:0.354335 2:0.108014 3:0.001438 4:1.4e-05 5:0.001395 6:0.025217 7:0.004128 10:7.8e-05 11:0.000185 12:7e-06 15:7e-06 16:7e-06 17:0.010762 18:0.007744 19:0.000199 20:2.8e-05 21:0.001495 22:0.082242 23:0.031096 24:0.00089 26:0.000299 27:0.008598 28:0.002377 31:7e-06 32:3.6e-05 34:7e-06 37:0.000349 38:0.008498 39:0.000975 40:0.000114 42:0.001125 43:0.036221 44:0.061922 47:0.000214 48:0.074754 54:7e-06 55:7e-06 58:0.00126 59:0.006434 60:0.001374 63:0.003772 64:0.16237 
4 1:0.046827 2:0.009509 5:0.053989 6:0.126736 7:0.000832 17:0.000693 18:0.000309 21:0.000443 22:0.128411 23:0.025317 26:0.001211 27:0.035029 28:4.3e-05 38:0.050384 39:0.000331 42:0.037733 43:0.448587 44:0.004107 47:5e-06 48:0.001323 59:0.024064 60:1.1e-05 63:0.002624 64:0.001483 
4 1:0.399826 2:0.072018 3:1.8e-05 5:0.013441 6:0.207706 7:0.001652 8:4.2e-05 10:0.005111 11:0.000486 12:4.2e-05 17:0.000246 18:0.000438 19:3.6e-05 21:0.000288 22:0.109508 23:0.014793 24:6e-06 26:0.007423 27:0.01961 28:0.001093 32:6e-06 38:0.000114 39:0.000132 42:0.000402 43:0.049075 44:0.017508 47:1.8e-05 48:0.023057 59:6.6e-05 60:5.4e-05 63:1.2e-05 64:0.055772 
4 1:0.131964 2:0.012336 5:0.010408 6:0.012402 7:9e-05 17:0.015862 18:0.000402 21:0.026751 22:0.284462 23:0.067267 26:0.005189 27:0.062535 28:0.009483 38:0.041886 39:0.000505 42:0.030505 43:0.164234 44:0.029483 47:6e-06 48:0.004234 59:0.000865 60:0.002943 63:4.8e-05 64:0.086138 
4 1:0.243796 2:0.130519 5:0.000743 6:0.073801 7:0.005689 17:0.000505 18:0.000816 21:0.000485 22:0.146592 23:0.060578 24:5e-06 26:4.9e-05 27:0.047922 28:0.011 32:4.4e-05 38:0.001063 39:0.000413 42:0.000262 43:0.032 44:0.028971 47:6.3e-05 48:0.021718 59:0.001277 60:0.000228 63:0.001097 64:0.190364 
-0.6033330435102762 1:0.354517 2:0.056811 3:0.001088 5:0.001744 6:0.097131 7:0.003552 17:0.000475 18:0.000203 21:0.00048 22:0.31816 23:0.028592 24:0.000219 26:0.004624 27:0.022635 28:0.000112 38:0.000288 39:1.1e-05 42:0.000469 43:0.018816 44:0.006725 46:5e-06 47:0.000203 48:0.007152 58:5e-06 59:2.1e-05 63:5.3e-05 64:0.075909 
-1 1:0.062091 2:0.003387 5:0.00024 6:0.033936 7:0.002789 11:2.1e-05 17:0.004123 18:3.2e-05 21:0.006965 22:0.260597 23:0.049467 26:0.000544 27:0.075291 28:0.005861 32:1.1e-05 37:1.6e-05 38:0.019131 39:1.6e-05 42:0.022688 43:0.083179 44:0.077707 47:0.000149 48:0.095995 58:5e-06 59:0.002437 60:5e-06 63:0.002187 64:0.191131 
-1 1:0.241296 2:0.039184 5:0.000373 6:0.084987 7:6.9e-05 11:6.4e-05 12:0.000304 16:0.001797 17:0.001835 18:0.001061 21:0.000101 22:0.206331 23:0.073173 26:0.000181 27:0.044773 28:0.000245 37:5e-06 38:0.000251 39:0.000293 42:0.000293 43:0.068773 44:0.041707 47:5e-06 48:0.079211 58:5.9e-05 59:0.004368 60:0.000224 63:0.004272 64:0.104763 
-1 1:0.337019 2:0.058576 3:5e-06 5:0.002277 6:0.100949 7:0.010437 17:3.2e-05 18:0.000405 21:8.5e-05 22:0.170992 23:0.094848 26:0.000107 27:0.032059 28:0.001008 38:0.001808 39:0.000747 42:0.003957 43:0.103408 44:0.014128 47:9.1e-05 48:0.015659 59:0.000309 60:0.000373 63:5.3e-05 64:0.050667 
-1 1:0.050432 2:0.05552 3:2.4e-05 5:0.053099 6:0.157207 7:0.011778 17:1.2e-05 18:3.6e-05 19:6e-06 21:0.001315 22:0.206306 23:0.015958 24:6e-06 26:0.022907 27:0.033664 28:0.000258 37:6e-06 38:0.000234 39:1.2e-05 42:0.012967 43:0.032318 44:0.006468 47:0.001213 48:0.001231 58:0.00012 59:0.001838 60:6e-06 62:0.000913 63:0.175682 64:0.158462 
-0.209812483508544 1:0.002637 2:0.001147 6:0.006421 7:0.018276 11:0.000219 17:0.088241 18:0.007225 21:0.114268 22:0.184547 23:0.026595 27:0.079839 28:0.100096 37:0.002176 38:0.19312 39:0.000461 42:0.000449 43:0.016088 44:0.094355 48:0.060836 59:0.000124 64:0.002879 
-0.9210564723245195 1:0.168324 2:0.007634 3:0.001213 4:0.000583 5:0.004006 6:0.011646 7:0.00164 8:0.00021 11:0.000162 12:0.000348 16:6.6e-05 17:0.00152 18:9.6e-05 19:4.2e-05 20:4.8e-05 21:0.003207 22:0.290258 23:0.021748 24:0.000535 25:2.4e-05 26:0.03218 27:0.179213 28:0.001381 31:6e-06 32:0.000102 33:3.6e-05 37:0.000943 38:0.018817 39:0.000781 40:2.4e-05 41:6e-06 42:0.004631 43:0.068757 44:0.00164 47:0.002198 48:0.003477 53:6e-06 58:1.8e-05 59:0.001207 60:0.00015 63:0.001814 64:0.169303 
-1 1:0.138378 2:0.005081 3:0.000727 4:0.000517 5:0.001303 6:0.031201 7:0.004631 8:3e-05 10:7.8e-05 11:0.007315 12:0.003447 16:0.008991 17:0.012048 18:0.002036 19:0.001015 20:0.00027 21:0.005676 22:0.312126 23:0.018048 24:0.005177 26:0.002613 27:0.140847 28:0.006979 31:3e-05 32:0.069303 33:1.8e-05 37:0.000535 38:0.057321 39:0.000366 40:0.000462 42:0.031135 43:0.066799 44:0.00582 47:0.000733 48:0.019063 53:1.2e-05 54:3e-05 55:6e-06 58:0.000787 59:0.001664 60:0.000462 63:0.002474 64:0.034444 
-0.2250050682034021 1:0.736437 2:0.054715 3:0.000144 4:1.6e-05 5:0.003819 6:0.051131 7:0.117627 8:0.000235 11:6.9e-05 12:0.000213 16:0.00024 17:0.000283 18:0.000101 21:0.000565 22:0.027493 23:0.001957 24:5e-06 26:6.4e-05 27:0.000395 28:7.5e-05 32:1.6e-05 38:5.3e-05 39:1.1e-05 42:4.3e-05 43:0.003701 44:0.000117 47:5.9e-05 48:0.000181 59:3.2e-05 60:1.1e-05 63:5e-06 64:0.000187 
-0.8176088005818063 1:0.075456 2:0.007157 5:0.094651 6:0.155739 7:0.005915 10:0.003275 11:2.7e-05 12:1.1e-05 17:6.9e-05 18:0.000224 21:9.1e-05 22:0.1512 23:0.019659 26:0.047376 27:0.063717 28:0.006576 31:0.00016 38:0.001333 39:0.000229 42:0.00016 43:0.068773 44:0.009168 47:0.001829 48:0.005141 58:1.1e-05 59:0.148523 60:0.000587 63:0.023547 64:0.109397 
-1 1:0.258738 2:0.08638 3:0.002316 5:0.003679 6:0.033759 7:0.010102 8:3.7e-05 10:0.000102 11:4.3e-05 12:5e-06 17:0.005668 18:0.005171 19:0.000134 20:5e-06 21:0.002791 22:0.065406 23:0.087888 24:0.000219 26:0.000834 27:0.042914 28:0.00093 32:3.7e-05 33:0.000128 37:0.002428 38:0.002957 39:0.001733 40:8.6e-05 41:5e-06 42:0.000957 43:0.085128 44:0.052642 47:0.002257 48:0.049278 49:5e-06 53:0.000337 54:7.5e-05 57:0.000209 58:0.00023 59:0.000551 60:0.000503 61:1.6e-05 62:0.000182 63:0.00139 64:0.191743 
-1 1:0.183696 2:0.050608 3:6.9e-05 5:0.009595 6:0.057083 7:0.000491 10:0.000171 11:5.9e-05 17:0.001872 18:0.000939 19:5.3e-05 20:5e-06 21:0.003995 22:0.121589 23:0.029781 24:3.2e-05 26:0.003211 27:0.010208 28:0.000101 32:1.1e-05 34:5e-06 38:0.005072 39:0.001157 40:1.6e-05 42:0.041099 43:0.084496 44:0.003888 47:0.000432 48:0.00208 59:0.003232 60:0.000139 63:0.012736 64:0.37208 
-0.8295385025942241 1:0.179321 2:0.209219 3:0.001688 5:3e-05 6:0.12248 7:0.088192 8:0.000318 10:0.000186 11:0.072354 12:0.010679 16:3e-05 17:1.2e-05 18:6e-05 22:0.01224 23:0.006859 24:0.002042 26:0.001387 27:0.065646 28:0.078078 31:0.000637 32:0.036012 42:1.2e-05 43:0.046979 44:0.001862 47:0.007075 48:0.042523 59:9.6e-05 60:6e-06 63:0.003243 64:0.010733 
-0.5423639266292182 1:0.316571 2:0.137477 5:0.000213 6:0.016288 7:4.8e-05 17:0.28424 18:0.007883 19:4.8e-05 21:0.001147 22:0.049147 23:0.071467 24:0.000261 26:0.000405 27:0.003275 28:0.000528 33:0.002624 34:0.000816 37:0.001744 38:0.011723 39:0.008821 40:0.002565 42:5.9e-05 43:0.02264 44:0.048395 47:1.1e-05 48:0.000107 54:9.6e-05 55:0.000187 58:4.8e-05 59:0.008091 60:0.001371 63:0.000165 64:0.001541 
-1 1:0.24108 2:0.041214 3:5e-06 5:0.041198 6:0.058166 7:0.001401 10:0.000834 11:0.000118 15:3.2e-05 17:0.005465 18:0.002353 21:0.01354 22:0.224358 23:0.01523 24:4.3e-05 26:0.010487 27:0.038904 28:0.001455 31:0.001807 32:0.000834 33:5e-06 34:0.000599 37:6.4e-05 38:0.011989 39:0.00177 42:0.005433 43:0.118995 44:0.009829 47:0.003888 48:0.051519 50:1.1e-05 54:0.000278 55:0.000187 58:1.1e-05 59:0.003578 60:0.000535 63:0.002235 64:0.090551 
-1 1:0.314816 2:0.002325 3:0.000117 5:0.053099 6:0.067472 10:0.000352 11:2.1e-05 17:0.002059 18:0.000363 19:2.7e-05 21:0.002677 22:0.087264 23:0.000245 26:0.003141 27:0.002203 31:5e-06 38:0.000576 39:6.4e-05 42:0.000427 43:0.019621 44:0.000149 47:0.000496 48:0.000784 59:6.9e-05 60:2.1e-05 63:0.000837 64:0.440768 
-1 1:0.097213 2:0.093051 3:0.006589 4:0.002006 5:7.2e-05 6:0.116462 7:0.022228 8:0.000264 10:0.002336 11:0.07161 12:1.8e-05 15:6e-06 17:0.000565 18:0.001838 19:0.001219 20:0.001616 21:7.2e-05 22:0.048559 23:0.065748 24:0.006042 26:9.6e-05 27:0.258318 28:0.023556 31:0.000216 32:0.005477 34:1.2e-05 35:1.8e-05 36:8.4e-05 38:0.00042 39:0.001465 40:0.001243 42:6e-05 43:0.038793 44:0.052661 47:4.2e-05 48:0.037279 55:1.2e-05 56:2.4e-05 59:1.8e-05 60:0.002438 64:0.040252 
-0.1816720669152927 1:0.075409 2:0.017579 3:0.001744 5:2.4e-05 6:0.000896 7:0.000122 8:6e-06 17:0.191043 18:0.067902 19:0.034866 21:0.001762 22:0.07575 23:0.075854 24:0.003884 27:0.006079 28:0.000988 38:0.004311 39:0.039854 40:0.000799 42:0.000256 43:0.195329 44:0.060573 47:3e-05 48:0.008585 58:6e-06 59:0.000726 60:0.00236 63:0.000774 64:0.132488 
-1 1:0.275009 2:0.067748 3:0.000781 5:0.016895 6:0.052541 7:0.048426 17:0.002835 18:0.00027 21:0.019616 22:0.086396 23:0.056264 24:6e-06 25:6e-06 26:0.000805 27:0.007664 28:0.000252 37:0.000126 38:0.042661 39:0.000162 42:0.051718 43:0.026913 44:0.000288 47:0.000282 48:0.001459 58:0.014817 59:0.015477 60:8.4e-05 62:3.6e-05 63:0.015309 64:0.195153 
-0.7806039701471224 1:0.008144 2:0.004971 3:0.001 4:0.001309 5:0.008252 6:0.13982 7:0.018216 8:0.000676 10:0.021259 11:0.054935 12:0.005899 15:7e-06 16:0.000252 17:0.001151 18:0.000266 19:1.4e-05 20:1.4e-05 21:0.001281 22:0.025388 23:0.009763 24:0.001417 26:0.011144 27:0.062302 28:0.058871 31:0.000554 32:0.005863 33:7e-06 34:7e-06 37:1.4e-05 38:0.000748 39:0.000317 40:1.4e-05 42:0.00064 43:0.021727 44:0.005741 47:0.000288 48:0.006978 54:7e-06 59:0.002899 60:0.000475 63:0.085237 64:0.43213 
-0.6410514537531448 1:0.646912 2:0.088101 3:1.1e-05 5:0.00016 6:0.032773 7:0.00848 11:0.000101 12:1.6e-05 17:0.00016 18:0.000443 21:4.3e-05 22:0.040149 23:0.018171 24:2.7e-05 26:0.000165 27:0.017621 28:0.007424 32:0.000229 38:0.000229 39:0.000181 42:6.4e-05 43:0.024016 44:0.010032 47:0.000261 48:0.015504 59:0.000165 60:4.3e-05 63:4.8e-05 64:0.088469 
-1 1:0.058251 2:0.001061 3:8.5e-05 4:3.2e-05 5:0.009387 6:0.03064 7:0.000763 8:6.9e-05 10:0.001008 11:0.001189 12:0.000533 16:7.5e-05 17:0.004245 18:7.5e-05 21:0.006085 22:0.197152 23:0.024085 24:3.2e-05 26:0.031163 27:0.168992 28:0.000485 31:1.1e-05 32:0.000608 33:4.8e-05 37:0.001643 38:0.001253 39:0.000107 42:0.045264 43:0.158251 44:0.001248 47:0.001216 48:0.001019 53:1.1e-05 59:0.000704 60:1.6e-05 63:0.001883 64:0.251312 
-1 1:0.174053 2:0.03032 3:0.000437 5:0.002181 6:0.022475 10:1.6e-05 17:0.004635 18:0.001771 21:0.003397 22:0.212555 23:0.021227 24:5e-06 26:0.010955 27:0.052021 28:6.4e-05 31:5.3e-05 38:0.006683 39:0.001232 42:0.008416 43:0.173323 44:0.012779 47:0.047547 48:0.131685 59:0.001787 60:0.000811 63:0.002773 64:0.0768 
-0.8400385918417668 1:0.114127 2:0.07697 5:7.6e-05 6:0.026067 7:0.003802 17:0.004929 18:0.004747 21:0.000898 22:0.133079 23:0.131388 26:0.000334 27:0.062308 28:0.000726 32:0.000239 38:0.008664 39:0.012246 42:0.00106 43:0.108463 44:0.044379 47:0.000697 48:0.046891 58:2.9e-05 59:0.037205 60:0.001805 63:0.012112 64:0.166759 
-1 1:0.469038 22:0.269847 43:0.069354 64:0.191761 
-0.3533415325125507 1:0.077643 2:0.198352 3:0.014603 4:0.001173 5:0.02672 6:0.191595 7:0.052875 8:0.000523 9:1.1e-05 10:0.001893 11:0.010992 12:0.000608 17:0.002069 18:0.00064 19:0.000283 20:9.1e-05 21:0.005029 22:0.119712 23:0.045179 24:0.000827 25:7.5e-05 26:0.031808 27:0.054827 28:0.004549 31:0.000352 32:0.000405 33:2.7e-05 34:1.1e-05 37:0.000512 38:0.007045 39:0.000437 41:0.000107 42:0.013285 43:0.044597 44:0.000187 47:0.000341 48:0.000416 58:0.006603 59:0.004517 60:5.9e-05 62:0.004165 63:0.007904 64:0.066955 
-0.1307932055561997 1:0.276991 22:0.229483 43:0.333934 64:0.159592 
-0.7546246021621802 1:0.451074 2:0.017241 3:1.2e-05 5:0.037086 6:0.092222 7:0.000426 10:0.001704 11:0.000358 17:0.002877 18:0.000265 19:1.2e-05 21:0.002883 22:0.194173 23:0.009623 26:0.013327 27:0.042309 28:1.9e-05 31:0.000136 32:1.9e-05 38:0.000716 39:4.9e-05 40:6e-06 42:0.00063 43:0.070951 44:0.003494 47:0.001648 48:0.004796 59:0.000901 60:9.3e-05 63:0.001278 64:0.049673 
-0.4346185302895821 1:0.216885 2:0.064005 3:0.002661 4:5e-06 5:0.000309 6:0.048661 7:0.005877 8:0.000448 10:5e-06 11:5.9e-05 12:0.000352 17:0.001488 18:0.001488 19:0.001947 20:0.000683 21:0.002272 22:0.119701 23:0.050971 24:0.006245 26:0.000192 27:0.052789 28:0.003728 32:5.3e-05 38:0.004245 39:0.000544 40:0.002581 42:0.003051 43:0.028043 44:0.010299 47:5.9e-05 48:0.004725 58:9.6e-05 59:0.000656 60:0.000373 63:0.085467 64:0.279035 
-1 1:0.005153 2:0.001934 3:6e-06 5:0.000432 6:0.017988 7:0.017423 8:1.8e-05 10:0.001177 11:0.029922 12:0.000985 16:6e-06 17:0.023351 18:0.00012 21:0.015856 22:0.112072 23:0.008252 24:1.8e-05 26:0.001508 27:0.177087 28:0.114679 31:1.8e-05 32:0.000444 38:0.030402 39:0.005081 42:0.006637 43:0.178432 44:0.129598 47:9e-05 48:0.042985 59:0.011724 60:0.000925 63:0.001441 64:0.064234 
-0.5553036633553351 1:0.094619 2:0.02179 3:0.00355 4:0.001333 5:0.004018 6:0.021604 7:0.000697 8:0.000775 10:6e-06 11:1.8e-05 17:0.033718 18:0.003814 19:0.000691 20:0.00042 21:0.022949 22:0.063309 23:0.014835 24:0.00445 26:0.00182 27:0.010739 28:0.002138 31:0.000126 32:0.001087 33:1.2e-05 37:0.009568 38:0.063135 39:0.001712 40:0.000396 42:0.031357 43:0.026318 44:0.009508 47:0.000805 48:0.04045 53:1.2e-05 54:0.013327 58:0.210751 59:0.206577 60:0.000348 63:0.026523 64:0.050697 
-1 1:0.203575 2:0.073133 3:5.9e-05 5:0.000224 6:0.054702 7:0.006507 10:0.000466 11:0.007422 12:2.4e-05 15:6e-06 17:0.000319 18:0.018549 22:0.110413 23:0.088177 24:1.2e-05 26:0.000189 27:0.096136 28:0.00508 31:0.000407 32:0.003068 38:0.000189 39:0.01305 40:6e-06 43:0.082909 44:0.049569 47:0.000755 48:0.084826 59:0.00013 60:0.001947 63:1.2e-05 64:0.098142 
-0.2726034853342683 1:0.186337 2:0.007544 3:0.000254 5:0.018124 6:0.005243 7:0.004538 9:0.000107 10:0.001408 11:0.000249 17:0.008929 18:0.000278 21:0.016325 22:0.024249 23:0.015527 24:0.001189 25:0.000692 26:0.020207 27:0.023864 28:0.00542 31:0.013278 32:0.009059 37:0.000391 38:0.002544 39:0.000479 40:5.9e-05 42:0.004195 43:0.021734 44:0.02113 47:0.012988 48:0.18813 58:7.1e-05 59:0.001396 60:0.000231 62:6e-06 63:0.001521 64:0.382302 
-1 1:0.096245 2:0.003787 5:0.051397 6:0.106709 7:0.000843 10:0.009072 11:0.001264 12:0.000133 15:7.5e-05 16:0.000261 17:0.001515 18:0.00016 19:1.1e-05 21:0.007403 22:0.114656 23:0.002523 24:1.1e-05 26:0.091253 27:0.053557 28:0.001195 31:0.00096 32:0.0012 37:0.000656 38:0.090485 39:5.3e-05 40:5e-06 42:0.0504 43:0.019365 44:0.003035 47:0.004475 48:0.019248 54:0.000133 58:0.008453 59:0.004736 60:5.9e-05 63:0.237728 64:0.016939 
-1 1:0.042708 2:0.00723 5:0.010796 6:0.040013 7:0.002801 17:0.012894 18:0.000429 21:0.006681 22:0.15892 23:0.051712 24:4e-06 26:0.004159 27:0.270655 28:0.001615 38:0.007372 39:0.000642 40:4e-06 42:0.005296 43:0.178783 44:0.08065 47:0.000398 48:0.070438 58:4e-06 59:0.007345 60:0.000208 63:0.000938 64:0.037301 
-0.6496221918939574 1:0.125285 2:0.089947 3:0.001371 4:4.3e-05 5:0.058837 6:0.138219 7:0.006549 8:3.7e-05 10:0.014091 11:0.008496 12:0.001013 14:2.1e-05 15:0.001264 16:0.000923 17:0.001349 18:0.000656 19:3.7e-05 20:1.1e-05 21:0.002384 22:0.128053 23:0.07304 24:0.001387 26:0.012859 27:0.047291 28:0.004176 31:0.005541 32:0.015568 33:3.2e-05 34:2.1e-05 37:0.000688 38:0.008603 39:0.002363 40:3.7e-05 41:1.6e-05 42:0.011723 43:0.068219 44:0.005264 47:0.001685 48:0.033909 53:0.000469 54:0.000128 55:2.7e-05 57:0.003275 58:0.001973 59:0.037472 60:0.000245 62:1.1e-05 63:0.014597 64:0.070795 
-1 1:0.083046 2:0.017561 3:0.000177 5:0.068405 6:0.144135 7:0.002954 9:8.4e-05 10:0.021941 11:0.000532 15:1.7e-05 18:5.1e-05 19:5.9e-05 21:0.000852 22:0.076768 23:0.021612 24:3.4e-05 25:5.1e-05 26:0.115586 27:0.121257 28:0.000641 30:8.4e-05 31:0.002118 32:5.9e-05 38:2.5e-05 39:5.1e-05 42:0.002447 43:0.084591 44:0.006633 46:8.4e-05 47:0.032346 48:0.022928 59:0.001249 60:0.000101 63:0.003688 64:0.167831 
-0.9772977357823219 1:0.03429 2:0.013929 3:0.004279 4:0.000437 5:0.000803 6:0.006858 7:0.026694 8:0.004923 10:0.000322 11:0.002322 12:0.00165 15:0.000344 16:9.3e-05 17:0.008699 18:0.000448 19:0.00041 20:0.00023 21:0.000689 22:0.010989 23:0.043301 24:0.00265 26:0.000934 27:0.188443 28:0.07018 31:5e-06 32:0.000388 33:0.000257 34:5e-06 35:5e-06 37:0.000803 38:0.004383 39:0.000492 40:0.000388 42:0.036557 43:0.10971 44:0.008377 47:0.00029 48:0.004027 58:0.000672 59:0.210923 60:0.000552 63:0.168601 64:0.029645 
-1 1:0.12848 2:0.012133 3:0.000155 5:0.041467 6:0.088501 7:0.00096 8:6.9e-05 10:0.007568 11:0.000464 12:3.7e-05 15:2.1e-05 17:0.003979 18:0.001776 19:8.5e-05 20:1.1e-05 21:0.007163 22:0.20272 23:0.028181 24:0.000149 26:0.065888 27:0.13696 28:0.001707 31:0.008635 32:0.000576 33:6.4e-05 34:3.2e-05 37:0.000549 38:0.005701 39:0.001664 40:0.000128 42:0.002187 43:0.086939 44:0.023941 47:0.010128 48:0.021787 49:5e-06 54:0.000165 55:2.7e-05 58:0.000149 59:0.008139 60:0.002272 63:0.001291 64:0.097147 
-1 1:0.415437 2:0.092672 3:0.000792 5:1.6e-05 6:0.008311 7:0.000448 10:5.5e-05 11:0.000716 12:2.7e-05 15:4.4e-05 16:9.8e-05 17:0.007454 18:0.179011 19:0.017301 20:8.7e-05 22:0.045683 23:0.050044 24:0.013634 26:1.1e-05 27:0.003738 28:0.000896 31:0.000142 32:0.002268 34:0.012962 35:0.019475 36:0.000131 38:0.000913 39:0.037568 40:0.024869 43:0.001383 44:0.013421 47:1.1e-05 48:0.002842 50:0.001098 51:0.003295 52:0.000175 54:4.4e-05 55:0.004022 56:0.011432 59:2.2e-05 60:0.00776 64:0.019694 
-1 1:0.219835 2:0.121595 3:0.001451 5:0.008603 6:0.056027 7:0.021088 11:2.7e-05 12:5e-06 17:0.000352 18:0.003061 19:0.003771 20:5e-06 21:0.002752 22:0.039781 23:0.114821 24:0.000544 25:1.1e-05 26:6.9e-05 27:0.023093 28:0.010795 32:0.000123 35:5e-06 37:0.000155 38:0.005851 39:0.005616 40:0.000912 41:5e-06 42:0.098032 43:0.049856 44:0.017211 47:3.2e-05 48:0.002203 58:0.057845 59:0.080944 60:0.010752 63:0.002592 64:0.040181 
-1 1:0.421331 22:0.286622 43:0.054221 60:6e-06 64:0.23782 
-1 1:0.201527 2:0.21307 3:0.000756 5:0.005677 6:0.027498 7:0.003209 8:0.000104 9:5e-06 10:1.5e-05 17:0.015338 18:0.073279 19:0.001005 21:0.007607 22:0.055308 23:0.056692 24:0.005567 25:0.000209 26:0.003592 27:0.014224 28:0.011438 31:5e-06 32:8.5e-05 33:5e-05 34:0.000194 35:1.5e-05 37:6.5e-05 38:0.004144 39:0.013468 40:0.002373 41:2.5e-05 42:0.003532 43:0.03601 44:0.06307 47:0.000229 48:0.006811 58:0.000234 59:0.005428 60:0.007781 63:0.004164 64:0.156199 
-1 1:0.727509 2:0.000587 5:0.156507 6:0.000619 7:5e-06 9:0.00296 17:0.00032 18:0.000347 21:0.062987 22:0.005616 25:0.018165 26:0.021685 27:2.7e-05 41:0.000325 42:0.001659 43:2.1e-05 45:5e-06 46:0.000224 47:0.000309 61:5e-06 62:1.1e-05 63:0.000107 
-0.3220791887268261 1:0.293892 2:0.056667 3:0.000378 5:6e-06 6:0.015922 7:0.020667 8:0.001682 11:0.000156 12:0.002324 17:0.043742 18:0.17409 21:0.000174 22:0.30964 23:0.024889 24:0.000841 27:0.004589 28:0.016438 32:6.6e-05 38:0.000162 39:0.002252 43:0.010961 44:0.007886 48:0.002871 59:0.000324 60:0.001075 64:0.008306 
-1 1:0.067824 2:0.156133 3:0.003019 5:0.001072 6:0.044032 7:0.042128 8:0.000576 11:9.1e-05 12:0.001237 17:5e-06 21:0.000752 22:0.057243 23:0.073808 24:1.1e-05 26:8.5e-05 27:0.518939 28:0.026853 32:9.6e-05 38:5e-06 39:5e-06 42:5e-06 43:0.000859 44:0.002245 48:0.001861 63:5e-06 64:0.001109 
-1 1:0.025707 2:0.001131 3:2.7e-05 5:0.026853 6:0.042533 7:2.1e-05 10:0.008891 11:0.000427 17:0.00432 18:0.000784 19:0.000203 20:2.7e-05 21:0.004965 22:0.055867 23:0.002309 24:2.1e-05 25:1.1e-05 26:0.034912 27:0.091947 28:6.4e-05 31:0.03656 32:0.000992 35:2.1e-05 36:0.000149 37:0.001712 38:0.013024 39:0.000731 40:0.001413 41:2.1e-05 42:0.005787 43:0.047051 44:0.003189 46:2.7e-05 47:0.055403 48:0.133157 54:2.7e-05 56:0.001659 58:0.000976 59:0.014965 60:0.001307 62:0.000117 63:0.068795 64:0.311899 
-1 1:0.253772 2:0.017045 3:7.2e-05 4:6e-06 5:0.00352 6:0.025453 7:0.000156 8:1.2e-05 11:6e-06 17:0.000216 18:0.000144 21:0.001796 22:0.176637 23:0.047832 24:0.000102 26:0.000486 27:0.103706 28:0.00218 32:1.2e-05 38:0.000625 39:0.00015 42:0.000318 43:0.251544 44:0.019832 47:7.2e-05 48:0.017778 64:0.076529 
-0.06287761596616537 1:0.243133 2:0.091033 3:0.001158 5:0.000258 6:0.008825 7:0.000525 17:0.000425 18:0.00075 19:0.000275 20:3.3e-05 21:0.000767 22:0.068533 23:0.026158 24:3.3e-05 26:0.000642 27:0.002967 37:9.2e-05 38:0.001608 39:0.001833 40:1.7e-05 42:0.002783 43:0.052408 44:0.001283 47:0.002742 48:0.000392 59:0.005525 60:0.000333 63:0.018883 64:0.466583 
-1 1:0.329467 2:0.03512 3:0.00216 4:7e-06 5:0.00046 6:0.004373 7:0.00042 8:0.00052 10:1.3e-05 12:2e-05 17:0.008267 18:0.001587 19:1.3e-05 21:0.00558 22:0.092653 23:0.01408 24:0.00062 26:0.002747 27:0.0357 28:0.000853 32:4.7e-05 33:1.3e-05 37:0.001287 38:0.004473 39:0.00032 40:7e-06 41:0.000413 42:0.00344 43:0.332893 44:0.00778 47:0.0011 48:0.01298 57:0.000187 58:0.000133 59:0.001847 60:8e-05 61:0.0001 62:0.00018 63:0.002187 64:0.095873 
-0.1215297830918617 1:0.123019 2:0.106368 3:0.008315 4:0.002544 5:0.000128 6:0.003429 7:3.2e-05 10:6.4e-05 11:1.1e-05 17:0.001872 18:0.001515 19:0.000928 20:0.002176 21:0.001888 22:0.037851 23:0.012768 24:0.002192 26:0.000784 27:0.032757 28:0.000352 37:5e-06 38:0.005483 39:0.001291 40:0.000741 42:0.014368 43:0.288432 44:0.006197 47:5.9e-05 48:0.002027 58:3.2e-05 59:0.003077 60:0.000432 63:0.170944 64:0.16792 
-0.1399716468752994 1:0.174331 2:0.036912 3:0.004427 4:0.001333 5:0.003184 6:0.006795 7:0.090208 8:0.000528 17:0.006432 18:0.063557 19:0.002384 20:0.117467 21:0.012133 22:0.247275 23:0.0128 24:0.002544 25:0.005563 26:0.002251 27:0.013408 28:0.001888 38:7.5e-05 39:0.000757 40:5.3e-05 42:0.000309 43:0.03872 44:0.013333 47:3.2e-05 48:0.012197 59:2.1e-05 60:0.000373 63:5e-06 64:0.128704 
-0.2459481215682811 1:0.039824 2:0.020925 3:5e-06 5:0.000171 6:0.011043 7:9.6e-05 11:3.7e-05 17:0.003251 18:0.007861 21:0.212626 22:0.313476 23:0.046738 26:0.000214 27:0.028722 28:1.6e-05 38:0.044086 39:0.000128 42:0.073187 43:0.155064 44:0.000246 47:0.000155 48:0.000471 59:0.007813 60:5e-06 63:0.007749 64:0.026091 
-0.5298100310609771 1:0.307596 2:0.040928 3:0.002952 4:3e-05 5:0.003036 6:0.043428 7:0.013229 8:0.001398 9:8.4e-05 10:0.002331 11:0.01 12:0.002639 14:0.000241 15:0.001373 16:0.004295 17:0.04891 18:0.050898 19:0.005313 20:7.2e-05 21:0.001271 22:0.047849 23:0.018928 24:0.002831 25:1.2e-05 26:0.003313 27:0.020265 28:0.003494 30:5.4e-05 31:0.008807 32:0.014006 33:0.015048 34:0.009904 35:0.002807 36:1.8e-05 37:0.00053 38:0.019741 39:0.035783 40:0.001422 42:0.001163 43:0.056 44:0.00356 46:1.2e-05 47:0.007681 48:0.125042 49:0.004096 50:0.001813 51:0.000349 52:6e-06 53:0.000163 54:0.003639 55:0.002639 56:0.000277 58:0.000331 59:0.00709 60:0.002687 62:1.8e-05 63:0.000488 64:0.038108 
-1 1:0.241019 2:0.000837 5:0.000784 6:0.010789 7:0.000299 10:0.000112 11:0.000405 15:5e-06 17:0.150933 18:0.083557 19:1.6e-05 21:0.000245 22:0.111429 23:0.005749 26:0.0004 27:0.012811 28:3.2e-05 31:1.1e-05 32:2.7e-05 33:0.002245 34:0.010315 35:2.7e-05 37:0.000101 38:0.073696 39:0.033291 40:2.1e-05 42:0.000149 43:0.200405 44:0.004864 47:1.1e-05 48:0.001504 49:4.3e-05 50:0.000117 51:5e-06 54:0.006101 55:0.021781 56:5e-06 58:1.6e-05 59:0.018651 60:0.002837 63:1.1e-05 64:0.004341 
-0.1909381282845866 1:0.033691 2:0.003707 3:7.5e-05 5:4.3e-05 6:0.002533 7:0.000432 17:0.000832 18:0.000208 21:0.000453 22:0.009365 23:0.000507 26:4.8e-05 27:0.000235 28:6.9e-05 38:0.001115 39:0.000123 42:0.000277 43:0.002272 44:0.00024 47:5e-06 48:0.000203 59:0.115413 60:0.000587 63:0.128757 64:0.698811 
-0.1854686480101741 1:0.028037 2:0.001648 5:0.000101 6:0.001355 7:0.000107 10:3.2e-05 11:4.3e-05 17:0.009621 18:0.043925 21:2.7e-05 22:0.240421 23:0.033216 26:8.5e-05 27:0.003989 28:8e-05 31:0.000101 32:0.000379 33:0.000496 34:0.004464 37:5e-06 38:0.169755 39:0.265776 42:0.00024 43:0.126075 44:0.001648 47:0.00544 48:0.016219 49:5e-06 50:2.7e-05 53:5e-06 54:0.000293 55:0.000517 58:1.1e-05 59:0.005637 60:0.001099 63:0.000587 64:0.038533 
-0.1340454939424099 1:0.001109 2:0.000176 5:5e-06 6:0.002528 17:0.000704 18:1.1e-05 21:0.001755 22:0.036864 23:0.005536 26:0.00088 27:0.006603 37:0.004987 38:0.024928 39:0.000875 41:0.001312 42:0.209973 43:0.349595 44:0.001525 47:0.00224 48:0.005408 53:1.1e-05 57:0.000651 58:0.000576 59:0.143445 60:0.000277 63:0.126197 64:0.071829 
-0.04512312607028982 1:0.995483 2:0.004224 5:2.1e-05 6:5e-06 17:9.6e-05 18:5.9e-05 21:2.7e-05 22:8.5e-05 
-0.8067266957779372 1:0.405429 2:0.103947 3:2.1e-05 5:0.001595 6:0.085552 7:0.008725 17:0.003211 18:4.8e-05 21:0.005072 22:0.071355 23:0.080987 24:4.8e-05 26:0.000731 27:0.026581 28:0.000933 37:4.8e-05 38:0.001397 42:0.0008 43:0.033915 44:0.010091 47:0.000192 48:0.019024 59:4.3e-05 63:5.9e-05 64:0.140197 
-1 1:0.067531 2:0.02048 3:6.9e-05 5:0.029787 6:0.189371 7:0.019936 8:3.7e-05 10:0.057013 11:0.008245 12:0.000192 17:0.000368 18:1.1e-05 21:0.001115 22:0.046197 23:0.016587 24:9.1e-05 26:0.059984 27:0.200448 28:0.013712 31:0.093557 32:0.041349 38:0.000197 39:5e-06 42:0.000613 43:0.013285 44:0.003104 47:0.009024 48:0.090491 59:0.000149 63:0.000539 64:0.016512 
-0.00545930893815282 1:0.254405 2:0.109227 3:0.054091 4:0.001493 5:0.000453 6:0.023744 7:0.217957 8:0.018389 10:3.2e-05 11:0.010512 12:0.029547 15:5e-06 16:5e-06 17:0.001931 18:0.000213 19:4.8e-05 21:0.000837 22:0.007211 23:0.027488 24:0.000875 25:9.6e-05 26:0.000277 27:0.050085 28:0.098752 31:5e-06 32:0.003739 33:1.1e-05 37:9.1e-05 38:0.000469 39:0.000181 40:1.6e-05 41:6.4e-05 42:0.001483 43:0.004048 44:0.024981 47:5e-06 48:0.039771 54:5e-06 58:0.002603 59:0.000917 60:0.000203 61:5e-06 62:0.00016 63:0.001269 64:0.012299 
-1 1:0.044615 2:0.01318 5:0.00278 6:0.212635 7:0.00147 10:0.00063 11:0.000195 17:0.000175 18:2.5e-05 21:0.001695 22:0.147355 23:0.00139 26:0.006185 27:0.00406 28:5e-06 38:0.05744 39:2.5e-05 42:0.16443 43:0.331125 44:0.001475 47:5e-06 48:0.00224 59:0.00036 60:8.5e-05 63:2e-05 64:0.0064 
-1 1:0.165013 2:0.049835 3:5e-06 5:0.018747 6:0.129211 7:0.001739 10:0.003515 11:0.001077 12:3.2e-05 16:5e-06 17:0.000677 18:0.001189 20:5e-06 21:0.000976 22:0.10304 23:0.008773 24:1.6e-05 26:0.017424 27:0.081584 28:0.001589 31:0.003061 32:0.003723 34:5e-06 37:1.6e-05 38:0.021477 39:0.001184 40:2.1e-05 42:0.011248 43:0.027904 44:0.005664 47:0.00128 48:0.011989 58:0.000832 59:0.044 60:0.000235 63:0.102896 64:0.180011 
-1 1:0.001019 2:0.000501 3:0.003173 5:0.019515 6:0.010384 7:0.001701 9:1.1e-05 10:0.003931 11:0.001429 12:0.000288 17:0.000368 18:0.000315 19:0.001621 20:3.2e-05 21:0.019552 22:0.17216 23:0.024128 24:0.001008 25:5e-06 26:0.092155 27:0.105653 28:0.001643 31:0.021685 32:0.007632 34:5e-06 38:0.005013 39:0.000731 40:0.000245 42:0.034635 43:0.097125 44:0.001968 46:5e-06 47:0.022261 48:0.066917 58:5e-06 59:0.048928 60:0.001291 63:0.062747 64:0.168213 
-1 1:0.297003 2:0.01888 5:0.025376 6:0.032608 7:5e-06 17:0.00208 18:0.000352 21:0.001931 22:0.178987 23:0.010181 26:0.000555 27:0.010171 38:0.00408 39:0.000192 42:0.004229 43:0.071616 44:4.3e-05 47:8.5e-05 48:0.00016 58:0.000123 59:0.003861 60:7.5e-05 63:0.002048 64:0.33536 
-0.8478597519729707 1:0.043763 2:0.09439 3:5.9e-05 6:0.094622 7:0.04204 11:5e-06 17:5.9e-05 18:8.4e-05 21:3e-05 22:0.028667 23:0.181985 24:4.4e-05 26:2e-05 27:0.09117 28:0.024805 38:0.000622 39:0.000953 42:0.000677 43:0.076627 44:0.04036 47:0.000385 48:0.013022 58:6.9e-05 59:0.006316 60:0.000119 63:0.090978 64:0.168128 
-1 1:0.083584 2:0.012693 3:1.1e-05 5:0.008923 6:0.101013 7:0.007051 10:0.035301 11:0.038075 12:0.001285 15:2.7e-05 16:0.003141 17:0.005632 18:0.000656 19:1.1e-05 21:0.004523 22:0.181824 23:0.041963 24:4.3e-05 26:0.032139 27:0.312768 28:0.008592 31:0.000368 32:0.001328 38:0.000816 39:4.3e-05 42:0.000923 43:0.038677 44:0.009392 47:0.0004 48:0.013168 59:0.00032 60:5e-06 63:0.000619 64:0.054688 
-1 1:0.095296 2:0.061925 3:9.6e-05 4:3.2e-05 5:0.00152 6:0.033445 7:0.004245 8:9.1e-05 12:3.7e-05 17:0.013163 18:0.003301 19:0.000283 20:2.1e-05 21:0.011259 22:0.179883 23:0.07064 24:0.000976 26:0.001349 27:0.076235 28:0.013893 32:5.3e-05 37:0.0004 38:0.007429 39:0.001408 40:1.1e-05 41:3.7e-05 42:0.009584 43:0.103232 44:0.080384 47:0.000843 48:0.084352 54:5e-06 57:1.6e-05 58:0.002464 59:0.007461 60:0.001979 62:1.1e-05 63:0.005189 64:0.127451 
-1 1:0.168629 2:0.05632 3:7.5e-05 5:0.027755 6:0.15472 7:0.005685 8:0.000101 10:0.000768 11:2.1e-05 17:0.001285 18:0.000523 19:2.1e-05 21:0.001573 22:0.194048 23:0.055632 24:0.000267 26:0.03512 27:0.055568 28:0.012421 32:1.1e-05 37:5e-06 38:0.002613 39:0.000395 42:0.004331 43:0.067723 44:0.036613 46:5e-06 47:0.000731 48:0.012917 59:0.003472 60:0.000331 63:0.002603 64:0.097717 
-1 1:0.139152 2:0.127152 3:0.002552 5:0.000836 6:0.027314 7:0.036974 8:0.003866 10:0.002657 11:8.1e-05 12:0.000637 17:0.003347 18:0.000714 19:9.3e-05 21:0.002089 22:0.065493 23:0.043675 24:0.005525 26:0.017306 27:0.135809 28:0.030187 31:0.000296 32:0.000243 33:4.9e-05 34:0.000105 35:7.3e-05 37:0.000268 38:0.00643 39:0.000763 40:0.000219 41:4e-06 42:0.005655 43:0.154803 44:0.031955 46:4e-06 47:0.004446 48:0.026264 50:2.4e-05 51:4.1e-05 52:1.6e-05 53:4.1e-05 54:6.5e-05 55:0.000154 56:8.9e-05 57:0.000199 58:0.000929 59:0.002531 60:0.001132 61:0.000101 62:0.000308 63:0.007383 64:0.109947 
-1 1:0.119701 2:0.002619 3:0.000267 4:0.000224 5:0.054789 6:0.128997 7:0.000459 8:8.5e-05 10:0.111312 11:0.008395 12:5.3e-05 16:2.7e-05 17:0.002437 18:0.000539 19:1.6e-05 20:8e-05 21:0.007957 22:0.075701 23:0.004715 24:0.000827 25:5e-06 26:0.077637 27:0.184667 28:0.000645 31:0.002037 32:0.000603 33:1.1e-05 35:5e-06 37:0.000448 38:0.005019 39:0.000288 40:0.000155 41:1.6e-05 42:0.008091 43:0.017307 44:0.002112 46:2.7e-05 47:0.002229 48:0.002571 54:2.7e-05 58:0.012757 59:0.008736 60:0.000165 62:0.001141 63:0.13232 64:0.021781 
-0.04394180408365811 1:0.191417 2:0.154276 3:0.016336 4:0.000763 5:0.108775 6:0.095309 7:0.096739 8:0.004523 9:6e-06 10:0.000541 11:0.009778 12:0.01155 18:1.2e-05 22:0.00406 23:0.040607 24:0.000336 26:0.000144 27:0.128384 28:0.095357 32:0.005634 39:0.003435 43:0.006384 44:0.014114 48:0.011508 55:1.2e-05 
-1 1:0.156485 2:0.023189 3:0.002981 4:0.001216 5:0.001936 6:0.017611 7:0.001547 8:5e-06 10:0.020389 17:0.0024 18:0.002405 19:0.000288 20:0.004539 21:0.001712 22:0.046187 23:0.035131 24:0.001845 26:0.168091 27:0.118629 28:0.002037 31:0.003285 32:0.000331 34:1.1e-05 37:2.7e-05 38:0.003344 39:0.001072 40:1.6e-05 41:0.000112 42:0.019408 43:0.177755 44:0.01648 46:1.1e-05 47:0.007856 48:0.009669 58:0.017829 59:0.009547 60:0.000517 62:0.006667 63:0.023787 64:0.093653 
-0.7764527501750675 1:0.041051 2:0.043136 5:0.000224 6:0.034773 7:0.000405 17:0.000635 18:0.004939 21:0.000128 22:0.240731 23:0.181877 26:0.001867 27:0.067104 28:0.000987 32:6.4e-05 33:2.7e-05 34:1.6e-05 38:0.000117 39:0.001637 42:8e-05 43:0.305104 44:0.003061 47:0.002288 48:0.010432 49:2.7e-05 50:2.1e-05 54:1.6e-05 58:5e-06 59:0.000117 60:9.6e-05 63:4.3e-05 64:0.058992 
-1 1:0.150926 2:0.002589 3:0.001006 4:5.5e-05 5:0.111147 6:0.041074 7:0.004086 8:0.000313 9:0.000368 10:0.018988 11:0.016472 12:0.000552 17:0.001025 19:4.3e-05 20:6e-06 21:0.033043 22:0.045172 23:0.001276 24:4.9e-05 25:0.000577 26:0.060503 27:0.044448 28:0.001552 31:0.000301 32:0.000577 37:4.3e-05 38:0.000583 39:6e-06 41:9.8e-05 42:0.036288 43:0.110147 44:0.001172 47:0.008141 48:0.007239 58:7.4e-05 59:0.011258 60:4.9e-05 63:0.02362 64:0.265135 
-0.1835892310844163 1:0.510796 2:0.091602 3:0.000215 5:0.000288 6:0.007576 7:0.001555 17:0.001136 18:0.001319 19:7.3e-05 21:0.000618 22:0.101183 23:0.038162 24:0.001848 26:0.000162 27:0.013707 28:0.007534 38:0.001005 39:0.000424 40:4.2e-05 42:0.000105 43:0.090974 44:0.057817 47:0.000115 48:0.01278 59:3.7e-05 60:0.000188 63:3.1e-05 64:0.058707 
-0.8189110521445782 1:0.238764 2:0.041879 3:1e-05 5:0.004441 6:0.216653 7:0.054955 10:0.00256 11:0.123592 12:1e-05 17:0.000689 21:0.000822 22:0.036698 23:0.014196 26:0.002662 27:0.158974 28:0.007185 31:1e-05 32:0.000545 38:0.000442 42:0.002457 43:0.029513 44:0.014391 47:0.000308 48:0.024507 59:1e-05 63:1e-05 64:0.023715 
-1 1:0.133024 2:0.000405 5:0.026373 6:0.091931 10:0.050587 11:0.000384 17:0.005685 18:0.000144 19:5e-06 21:0.013403 22:0.074859 23:0.000693 25:5e-06 26:0.108757 27:0.242544 31:0.003904 32:5e-06 38:0.003979 39:6.9e-05 42:0.005936 43:0.046651 44:0.000496 47:0.014139 48:0.008037 59:0.003883 60:3.7e-05 63:0.004848 64:0.159216 
-1 1:0.263201 2:0.038444 3:7.8e-05 5:0.000619 6:0.039598 7:0.005465 10:5.4e-05 11:7.2e-05 15:1.2e-05 17:0.004102 18:0.000937 21:0.004691 22:0.058306 23:0.032787 24:0.00018 26:0.001742 27:0.035874 28:0.002763 30:3e-05 31:6e-06 32:2.4e-05 37:0.002643 38:0.010859 39:7.8e-05 41:6e-06 42:0.009369 43:0.020084 44:0.014889 46:3.6e-05 47:0.000186 48:0.008745 54:1.2e-05 58:0.233075 59:0.04985 60:7.8e-05 63:0.123309 64:0.037796 
-0.08326233570554606 1:0.274789 2:0.000738 5:0.007392 6:0.038492 22:0.234599 23:0.003675 26:0.004255 27:0.048325 43:0.15607 44:0.022093 47:0.000288 48:0.121582 64:0.087703 
-0.3315756132079195 1:0.130501 2:0.107141 3:0.001013 5:7.5e-05 6:0.043957 7:0.136405 8:0.003157 11:0.000379 12:0.00104 18:0.00024 19:5.3e-05 22:0.003595 23:0.066096 24:0.006731 26:5e-06 27:0.053115 28:0.148219 32:0.000416 39:1.6e-05 40:0.000267 43:0.001573 44:0.095803 47:1.6e-05 48:0.080427 64:0.11976 
-1 1:0.302832 2:0.100512 5:0.008523 6:0.055397 7:0.000341 17:0.001184 18:0.000624 21:0.002971 22:0.143947 23:0.039573 24:8e-05 26:0.002784 27:0.027861 28:0.007515 34:3.7e-05 38:0.010469 39:0.000741 42:0.014635 43:0.091973 44:0.032533 47:0.001552 48:0.013632 55:5e-06 59:0.000688 60:0.000197 63:0.000811 64:0.138581 
-1 1:0.185392 2:0.085899 3:0.000411 4:0.000448 5:0.009819 6:0.305536 7:0.000768 8:0.000832 10:0.090139 11:0.00648 17:0.000133 18:0.011109 19:0.014437 20:2.7e-05 21:3.2e-05 22:0.083429 23:0.013803 24:0.000277 26:0.014075 27:0.097584 38:5e-06 39:0.000203 42:1.1e-05 43:0.059888 44:0.002469 47:0.00056 48:0.004693 59:3.2e-05 60:2.1e-05 63:5e-06 64:0.011483 
-1 1:0.844091 22:0.106992 43:0.015813 64:0.033104 
-0.8398491499187952 1:0.09312 2:0.057689 3:0.002541 4:0.004071 5:0.005355 6:0.057902 7:0.011115 8:0.000339 10:0.004956 11:0.005497 12:0.000148 16:1.6e-05 17:0.000393 18:0.002973 19:0.004492 20:0.018377 21:0.001754 22:0.046115 23:0.041208 24:0.001541 26:0.00871 27:0.178169 28:0.028945 31:0.000421 32:0.001 35:0.000142 36:0.001038 37:5e-06 38:0.001536 39:0.00947 40:0.004874 42:0.00135 43:0.052525 44:0.037224 47:0.008137 48:0.057202 56:0.000115 59:0.005016 60:0.051415 63:0.002754 64:0.19035 
-0.251623478888809 1:0.145856 2:0.041045 3:1.1e-05 5:0.077531 6:0.068379 7:0.000704 9:3.7e-05 10:0.00112 11:5e-06 17:0.017408 18:0.002475 19:5e-06 21:0.027477 22:0.260789 23:0.038363 25:3.2e-05 26:0.017664 27:0.014192 31:0.000101 33:4.3e-05 34:3.7e-05 37:0.00896 38:0.033643 39:0.001403 42:0.033557 43:0.076747 44:0.005237 47:0.002421 48:0.0036 54:0.000443 55:0.000539 58:0.019739 59:0.01808 60:0.001115 63:0.012213 64:0.069029 
-0.203209084769267 1:0.235952 2:0.011152 3:2.1e-05 5:0.008155 6:0.035872 7:0.006075 10:4.8e-05 11:0.000155 12:5e-06 17:0.016 18:0.003056 21:0.007659 22:0.088709 23:0.009963 24:1.1e-05 25:4.3e-05 26:0.001125 27:0.011099 28:0.002112 31:1.6e-05 32:8e-05 37:0.176475 38:0.008155 39:0.0004 41:5.3e-05 42:0.00736 43:0.023029 44:0.001125 46:6.9e-05 47:0.000635 48:0.001941 53:0.013291 54:0.076208 58:0.091611 59:0.076933 60:0.000256 63:0.020608 64:0.064544 
-1 1:0.032053 2:0.001099 5:0.039413 6:0.179685 9:0.000523 10:0.021061 11:0.022112 14:1.6e-05 15:0.00016 17:0.001189 18:0.000661 21:0.038747 22:0.08592 23:7.5e-05 25:0.01072 26:0.029861 27:0.325301 28:1.1e-05 30:0.000112 31:0.043296 32:0.037339 37:5.3e-05 38:0.000421 39:1.1e-05 41:0.001787 42:0.018917 43:0.006997 45:0.000331 46:0.0088 47:0.009248 48:0.035861 57:5e-06 58:9.6e-05 59:0.000213 62:0.000629 63:0.033253 64:0.014021 
-1 1:0.039872 2:0.243899 3:0.001136 5:0.000112 6:0.093648 7:0.095061 17:0.085104 18:0.000416 21:0.065264 22:0.012315 23:0.041291 24:4.8e-05 25:1.1e-05 26:0.000315 27:0.005456 28:0.004731 37:0.001173 38:0.001413 39:0.00056 41:0.00248 42:0.036384 43:0.023019 44:0.021147 46:0.002677 47:0.002293 48:0.013675 54:1.1e-05 57:0.000875 58:0.008032 59:0.0072 60:0.000293 62:0.028043 63:0.057712 64:0.104336 
-1 1:0.161221 2:0.004869 5:0.064491 6:0.100933 7:0.000192 9:1.6e-05 10:0.016267 11:0.000128 17:0.000123 18:2.7e-05 21:0.000448 22:0.144267 23:0.033152 24:5e-06 26:0.077099 27:0.241312 28:0.000453 30:1.6e-05 31:0.009509 32:0.000112 38:9.1e-05 39:1.6e-05 42:0.000224 43:0.032064 44:0.009557 47:0.015045 48:0.059637 59:0.000107 63:8e-05 64:0.028539 
-0.1275915865297181 1:0.107958 2:0.003556 3:0.005177 4:6e-06 5:0.048324 6:0.027285 7:0.001417 8:6e-06 11:0.004763 12:0.001249 16:3e-05 17:0.003261 18:0.002649 19:0.000523 20:2.4e-05 21:0.001225 22:0.215471 23:0.004829 24:3e-05 26:0.001285 27:0.012823 28:0.000336 31:6e-06 32:0.000553 38:0.001772 39:0.000901 40:6e-05 42:0.001021 43:0.108126 44:0.001556 47:0.011862 48:0.003766 59:0.010901 60:0.001327 63:0.01627 64:0.399652 
-0.5919511317589619 1:0.030016 2:0.006528 6:0.002832 7:0.000272 17:0.034859 18:0.004091 21:0.058325 22:0.028992 23:0.013744 26:2.1e-05 27:0.007541 28:0.002256 32:1.6e-05 33:1.1e-05 37:0.096336 38:0.060256 39:0.003712 41:0.005141 42:0.12992 43:0.053488 44:0.011845 47:0.000165 48:0.009408 58:0.215536 59:0.143061 60:0.001301 63:0.008304 64:0.072021 
-0.4178176500391575 1:0.085707 2:0.004539 3:0.001584 4:5e-06 5:0.043765 6:0.209861 7:0.004325 8:8e-05 10:0.00224 11:0.000699 12:0.001995 16:0.000112 17:0.000304 18:3.2e-05 19:5e-06 21:0.001029 22:0.078235 23:0.011829 24:4.3e-05 26:0.020192 27:0.116475 28:0.00112 31:5e-06 32:0.000544 37:1.6e-05 38:0.00056 39:3.2e-05 42:0.000336 43:0.005328 44:0.001035 47:0.000133 48:0.000848 59:0.000955 60:0.000133 63:0.041467 64:0.364432 
-1 1:0.129467 2:0.017936 3:0.000587 4:0.000213 5:0.005515 6:0.086213 7:0.001291 8:5e-06 10:4.8e-05 11:2.1e-05 17:0.00232 18:0.000741 19:0.000181 20:0.000789 21:0.005237 22:0.11488 23:0.012336 24:0.003291 26:0.001787 27:0.009371 28:0.0052 37:0.000235 38:0.017493 39:0.000603 40:0.001909 42:0.035573 43:0.018981 44:0.011579 47:3.2e-05 48:0.010869 54:1.6e-05 58:0.168987 59:0.067147 60:0.000187 63:0.188875 64:0.080085 
-1 1:0.156389 2:0.169115 3:0.005872 4:6.9e-05 5:0.000261 6:0.052592 7:0.005744 8:0.00048 10:9.1e-05 11:4.8e-05 17:0.002885 18:0.042235 19:0.001792 21:0.00016 22:0.092635 23:0.155424 24:0.001045 26:0.001616 27:0.014987 28:0.012587 31:0.000101 32:2.7e-05 33:4.3e-05 34:0.000123 35:1.6e-05 38:0.004123 39:0.026261 40:0.001323 42:0.000283 43:0.043024 44:0.085317 47:0.001509 48:0.025547 49:2.1e-05 50:1.1e-05 54:4.3e-05 55:0.000107 56:2.1e-05 58:5.3e-05 59:0.005061 60:0.011531 63:0.000101 64:0.079328 
-1 1:0.319569 2:0.00735 3:0.000194 5:0.066452 6:0.09162 7:0.000211 10:0.002306 17:0.000467 18:0.000167 19:0.000167 20:9e-06 21:0.003336 22:0.093732 23:0.00544 24:0.000158 26:0.028988 27:0.042588 28:0.000202 31:0.000238 38:0.00015 39:0.000132 40:3.5e-05 42:0.000555 43:0.07919 44:0.00419 47:0.006725 48:0.030783 59:0.001532 60:0.000229 63:0.002315 64:0.210968 
-0.6429223111963145 1:0.48024 2:0.002817 5:0.001189 6:0.002348 7:0.000192 8:6e-06 9:1.2e-05 10:0.00048 11:0.00027 12:7.8e-05 14:3e-05 15:2.4e-05 16:0.000204 17:0.340847 18:0.085345 19:1.2e-05 20:1.2e-05 21:0.000511 22:0.020505 23:0.001375 24:1.2e-05 25:1.2e-05 26:0.000751 27:0.000997 28:0.00012 30:1.2e-05 31:1.8e-05 32:0.000348 33:0.002661 34:0.015844 35:2.4e-05 36:6e-06 37:8.4e-05 38:0.015249 39:0.006042 40:1.2e-05 42:0.000264 43:0.010997 44:0.000444 46:6e-06 47:3e-05 48:0.000511 49:0.000763 50:0.000739 51:0.000114 52:3.6e-05 53:6e-05 54:0.001195 55:0.000709 56:0.000222 58:4.8e-05 59:0.001285 60:0.001363 63:1.8e-05 64:0.002505 
-0.7059190662972905 1:0.175075 2:0.083321 3:5.3e-05 6:0.029561 7:0.211096 11:0.00084 12:7e-05 16:1.1e-05 17:0.010193 18:0.001342 19:1.6e-05 21:0.002203 22:0.023348 23:0.052572 24:0.000888 26:7e-05 27:0.01215 28:0.017936 32:0.001037 33:0.00685 34:5.3e-05 37:0.023636 38:0.050877 39:0.003856 40:5e-06 42:0.010952 43:0.039797 44:0.035385 47:1.6e-05 48:0.015952 53:0.004283 54:0.010588 55:2.1e-05 57:0.000187 58:0.034791 59:0.046444 60:0.001749 63:0.012091 64:0.080684 
-1 1:0.114848 2:0.087333 5:0.001259 6:0.082784 7:0.001211 17:0.014987 18:0.004987 21:0.019248 22:0.222843 23:0.105056 26:0.002357 27:0.040235 28:0.000213 38:0.000928 39:1.1e-05 42:0.001365 43:0.025547 44:0.000608 47:0.000133 48:0.000197 59:0.000133 60:1.1e-05 63:0.000165 64:0.273541 
-1 1:0.066114 2:0.029844 3:5.4e-05 4:9e-05 5:0.009099 6:0.065303 7:6e-05 8:5.4e-05 9:0.000246 10:0.08179 11:0.004595 12:6e-06 15:9e-05 17:0.019099 18:0.0037 19:9.6e-05 20:0.000733 21:0.006961 22:0.178661 23:0.063117 24:0.000498 25:6.6e-05 26:0.153219 27:0.173538 28:0.000312 30:6e-06 31:0.002498 32:7.2e-05 33:0.007393 36:0.000282 37:0.005538 38:0.015562 39:0.001033 40:0.000757 41:0.000276 42:0.004432 43:0.035435 44:0.007375 45:5.4e-05 46:6e-06 47:0.004769 48:0.002949 53:0.00167 54:0.000529 56:6e-06 57:2.4e-05 58:0.001339 59:0.007982 60:0.000709 62:6e-06 63:0.006354 64:0.035598 
-0.2972378934787756 1:0.051207 2:0.032781 3:4.2e-05 5:0.001135 6:0.033357 7:0.004841 8:0.000228 11:6e-06 12:0.000276 17:0.000535 18:0.000462 21:0.000462 22:0.036456 23:0.010258 24:4.2e-05 26:4.2e-05 27:0.00824 28:0.001075 32:1.8e-05 38:0.000348 39:6.6e-05 42:0.000258 43:0.003628 44:0.000583 47:1.8e-05 48:0.000432 59:0.091688 60:2.4e-05 63:0.716541 64:0.004949 
-0.09680305699906948 2:0.000181 6:0.001467 7:0.000101 18:1.6e-05 22:0.012453 23:0.018624 24:1.6e-05 27:0.103627 28:0.319781 38:1.6e-05 39:0.000112 42:5e-06 43:0.02248 44:0.40232 47:5e-06 48:0.005323 59:0.008603 60:4.3e-05 63:0.007147 64:0.09768 
-0.8823353513220721 1:0.044702 2:0.049651 3:9.8e-05 5:0.002081 6:0.106864 7:0.028564 10:0.003043 11:0.041333 12:0.000103 15:0.000434 16:0.002206 17:0.000573 18:0.001843 19:0.003159 20:0.000604 21:0.000407 22:0.172251 23:0.107315 24:0.000273 25:9e-06 26:0.00817 27:0.108416 28:0.004255 31:0.000224 32:0.002143 35:3.1e-05 36:9.4e-05 38:0.009553 39:0.006501 40:0.000479 41:0.00302 42:0.011978 43:0.156479 44:0.033736 46:2.2e-05 47:0.000716 48:0.013298 57:4e-06 59:0.008067 60:0.00213 62:0.000134 63:0.004711 64:0.060327 
-0.1802059105553785 1:0.10111 2:0.00827 5:5.6e-05 6:0.008991 7:3.1e-05 17:0.00316 18:0.000514 21:0.01716 22:0.054545 23:0.02906 26:0.000439 27:0.04005 28:0.012069 38:0.025436 39:0.000614 42:0.144439 43:0.078646 44:0.032313 47:0.009762 48:0.117229 58:0.002226 59:0.024614 60:4.4e-05 63:0.057072 64:0.23215 
-1 1:0.498667 2:0.03512 5:0.004363 6:0.039883 10:9.1e-05 11:8e-05 15:5e-06 17:0.003819 18:0.001221 21:0.003861 22:0.185792 23:0.003072 26:0.000939 27:0.005035 31:9.1e-05 33:1.6e-05 37:9.6e-05 38:0.002069 39:0.000117 42:0.001931 43:0.015493 44:0.000181 47:0.000283 48:0.000373 54:5e-06 59:0.001392 60:2.1e-05 63:0.001312 64:0.194672 
-0.2786670309987785 1:0.055349 2:0.000112 5:4.3e-05 6:8.5e-05 17:0.0032 18:3.2e-05 21:0.003136 22:0.004021 23:4.8e-05 26:4.3e-05 27:5.9e-05 28:1.1e-05 33:5e-06 37:0.000464 38:0.003819 39:1.6e-05 42:0.566032 43:0.021019 44:2.1e-05 47:0.000139 48:1.6e-05 58:0.097691 59:0.194288 63:0.04088 64:0.009472 
-1 1:0.109733 2:0.110267 3:0.015483 5:0.055755 6:0.056656 7:0.056203 8:0.00016 10:0.041893 11:0.019877 12:5e-06 15:0.003461 16:0.000283 17:0.000869 18:0.000192 19:5e-06 21:0.006603 22:0.109563 23:0.027099 24:0.001648 26:0.030667 27:0.044688 28:0.009472 31:0.016379 32:0.00736 38:0.016112 39:0.000805 42:0.029669 43:0.069077 44:0.004224 47:0.00464 48:0.019547 58:1.6e-05 59:0.010155 60:0.000443 63:0.000416 64:0.120576 
-1 1:0.129211 2:0.038823 3:0.0036 5:0.085065 6:0.053837 7:0.032023 8:0.006146 9:0.003121 10:0.01213 11:0.005961 12:0.007211 14:1.1e-05 15:5.6e-05 16:0.000203 17:2.3e-05 18:6e-06 21:0.070372 22:0.034445 23:0.007904 24:0.001375 25:0.012901 26:0.099668 27:0.040411 28:0.110293 30:0.001144 31:0.012676 32:0.01969 38:1.7e-05 39:1.1e-05 40:1.7e-05 42:0.007324 43:0.007854 44:0.010834 46:0.000208 47:0.013285 48:0.161454 59:5.1e-05 60:7.9e-05 63:8.5e-05 64:0.010479 
-1 1:0.146587 2:0.148101 3:0.05984 5:0.000325 6:0.401493 7:0.020528 8:0.000117 10:0.028347 11:0.010021 17:0.000933 18:0.002 21:9.6e-05 22:0.073189 23:0.019408 24:0.002368 26:0.001291 27:0.018981 28:0.004059 38:0.022693 39:0.000384 42:0.013152 43:0.014587 44:0.008635 47:0.000117 48:0.001931 59:3.7e-05 60:5e-06 63:1.6e-05 64:0.000757 
-0.1127993278066 1:0.239564 22:0.1846 43:0.20712 64:0.368716 
-0.05089397737885756 1:0.037195 2:0.001285 5:0.000336 6:0.003323 17:0.000288 18:5e-06 21:0.000427 22:0.022027 23:0.000699 26:0.000293 27:0.002176 38:0.030032 39:2.1e-05 42:0.101445 43:0.184133 44:5.3e-05 47:2.1e-05 48:0.000117 58:0.136619 59:0.456581 63:0.02208 64:0.000843 
-1 1:0.333349 2:0.044555 5:0.001296 6:0.042299 7:0.00232 17:0.005291 18:0.006645 21:0.000699 22:0.155061 23:0.023163 26:3.2e-05 27:0.072357 28:0.000603 38:0.0012 39:0.001696 42:7.5e-05 43:0.04376 44:0.014192 47:2.7e-05 48:0.007979 59:0.000379 60:0.000395 63:6.9e-05 64:0.24256 
-1 1:0.0752 2:0.006837 3:0.004192 4:0.081024 5:0.14984 6:0.112256 7:0.000629 8:7.5e-05 9:0.005307 10:0.094661 11:0.001749 12:5e-06 14:0.000112 15:0.000587 16:1.6e-05 17:0.017275 18:0.002971 19:0.000368 20:0.024368 21:0.014629 22:0.065493 23:0.003749 24:0.001115 25:0.000107 26:0.122848 27:0.045195 28:0.000416 30:0.000576 31:0.016816 32:0.001691 38:0.000213 39:0.000229 40:0.000459 42:0.002859 43:0.029131 44:0.009968 46:6.9e-05 47:0.023248 48:0.021115 59:9.6e-05 60:0.00248 63:0.000832 64:0.059195 
-0.142169385242702 1:0.009611 2:0.090427 6:0.022368 7:0.000219 17:0.000107 18:0.049307 22:0.316784 23:0.091419 27:0.006176 28:0.000155 38:2.1e-05 39:0.000619 43:0.019253 44:0.068459 48:0.17048 60:0.000181 64:0.154416 
-1 1:0.033595 2:0.00496 3:0.000123 5:0.130043 6:0.237365 7:0.000624 10:0.129216 11:0.069397 15:0.002293 17:0.000101 18:0.004011 19:0.001675 20:5e-06 21:0.000187 22:0.020277 23:0.016171 24:0.000469 26:0.015435 27:0.056176 28:0.000736 31:0.008229 32:0.000256 34:2.7e-05 35:0.000117 36:5e-06 38:0.000613 39:0.016624 40:0.004048 42:0.001019 43:0.063003 44:0.018971 47:0.005083 48:0.007792 55:0.000101 56:0.000139 59:0.008048 60:0.012629 63:0.018619 64:0.111819 
-1 1:0.052635 2:0.002635 3:1.1e-05 5:0.051861 6:0.197643 7:0.001781 8:1.1e-05 10:0.061925 11:0.004411 12:1.1e-05 15:0.000155 16:2.1e-05 17:0.002267 18:0.000171 19:1.1e-05 21:0.002464 22:0.106443 23:0.007115 24:1.1e-05 25:0.000107 26:0.121232 27:0.169744 28:0.002005 31:0.010891 32:0.002021 37:1.1e-05 38:0.003648 39:0.000133 40:1.1e-05 41:5e-06 42:0.004565 43:0.09056 44:0.005776 46:5e-06 47:0.01928 48:0.020933 58:5e-06 59:0.004219 60:6.9e-05 63:0.004901 64:0.048299 
-0.3752179536325988 1:0.429475 2:0.062415 3:5e-06 5:0.008375 6:0.094865 7:0.000875 10:7.5e-05 11:0.000525 12:0.000125 17:0.000595 18:0.003075 21:0.000685 22:0.26892 23:0.02473 24:1e-05 26:0.003395 27:0.029015 28:0.002395 31:1e-05 32:0.00011 37:5e-06 38:0.0009 39:0.00074 42:0.001265 43:0.032035 44:0.00755 47:0.000545 48:0.011145 58:1.5e-05 59:5e-05 60:7.5e-05 63:0.000135 64:0.015865 
-0.6691943964498152 1:0.492012 2:0.010601 3:0.000156 5:0.004 6:0.067051 7:0.001411 8:1.8e-05 10:1.2e-05 11:0.001129 12:0.000444 16:4.2e-05 17:0.001105 18:1.8e-05 21:0.000402 22:0.137453 23:0.006619 24:7.2e-05 26:0.002288 27:0.058985 28:0.000949 32:0.00039 37:2.4e-05 38:9e-05 39:3.6e-05 42:7.8e-05 43:0.072739 44:0.00424 47:0.000252 48:0.02236 59:4.8e-05 60:3.6e-05 64:0.114937 
-1 1:0.089184 2:0.045355 3:3.2e-05 5:0.000597 6:0.021296 7:0.000389 17:0.001499 18:0.000752 21:0.001365 22:0.235739 23:0.127317 27:0.031435 38:0.007184 39:0.001152 42:0.003856 43:0.160523 44:0.122325 48:0.007259 60:0.009947 64:0.132795 
-1 1:0.041392 2:0.003403 3:0.000752 4:0.000101 5:0.002411 6:0.058976 7:0.001547 8:0.000171 10:0.001787 11:0.018027 12:9.1e-05 16:3.7e-05 17:0.000725 18:7.5e-05 19:0.000187 20:0.000261 21:0.002869 22:0.191131 23:0.059312 24:0.000747 26:0.002565 27:0.270752 28:0.005792 31:0.00016 32:0.000864 38:0.000987 39:4.3e-05 40:6.9e-05 42:0.007477 43:0.268752 44:0.022229 47:0.000155 48:0.014848 59:0.000101 60:5e-06 63:0.000128 64:0.021072 
-1 1:0.410553 2:0.031366 3:6e-06 5:0.036905 6:0.036709 7:0.001971 8:6e-06 11:6e-06 17:0.003879 18:0.000363 21:0.012127 22:0.030346 23:0.007354 24:6.3e-05 26:0.000259 27:0.004548 28:0.001043 37:7.5e-05 38:0.011216 39:0.000323 42:0.005009 43:0.012 44:0.004052 47:7.5e-05 48:0.006663 59:0.000202 60:0.000133 63:0.000323 64:0.382427 
-1 1:0.257077 2:0.016005 3:5e-06 5:0.010571 6:0.018912 7:8.5e-05 9:5e-06 17:0.00552 18:0.001883 21:0.005131 22:0.274747 23:0.020875 26:0.00432 27:0.022613 28:1.1e-05 37:0.000171 38:0.005061 39:0.000864 42:0.007525 43:0.087664 44:0.001819 47:0.001456 48:0.002651 58:6.9e-05 59:0.003616 60:0.000283 63:0.003472 64:0.247589 
-0.2816070549845679 1:0.034889 2:0.02518 3:0.004776 5:0.000812 6:0.01864 7:0.001422 10:0.000203 11:7e-05 17:0.004805 18:0.000673 19:0.007457 20:0.015576 21:0.001277 22:0.09404 23:0.029747 24:0.001561 26:0.004143 27:0.259616 28:0.000801 31:6.4e-05 32:1.2e-05 33:0.000447 36:0.0017 37:0.003743 38:0.002228 39:0.000157 40:0.010382 41:4.1e-05 42:0.001834 43:0.190361 44:0.037494 46:6e-06 47:0.000824 48:0.073932 49:1.2e-05 53:0.001787 54:0.000487 57:0.001288 58:0.014699 59:0.004016 60:0.000261 61:0.004608 62:0.008269 63:0.006732 64:0.128929 
-1 1:0.095357 2:0.008444 5:0.000402 6:0.115231 7:1.8e-05 17:1.8e-05 18:6e-06 21:1.8e-05 22:0.355526 23:0.056589 26:3.6e-05 27:0.187471 28:0.000174 32:1.2e-05 42:1.2e-05 43:0.020565 44:0.025718 47:6e-05 48:0.065027 63:1.8e-05 64:0.069297 
-1 1:0.052661 2:0.002331 5:0.007872 6:0.045083 7:0.009819 10:0.032197 11:0.023819 12:0.000288 14:2.1e-05 15:0.020704 16:0.003504 17:0.005387 18:0.000565 21:0.015579 22:0.036923 23:0.002789 26:0.016389 27:0.074843 28:0.007387 30:6.9e-05 31:0.040181 32:0.040741 33:2.7e-05 37:6.4e-05 38:0.001003 39:5.9e-05 42:0.001403 43:0.017627 44:0.006101 47:0.011552 48:0.201072 53:6.9e-05 54:1.1e-05 58:6.4e-05 59:0.000405 60:0.000133 63:0.000235 64:0.321024 
-1 1:0.106114 2:0.044847 6:0.071471 7:0.045598 11:0.002559 22:0.119748 23:0.072042 26:6e-06 27:0.186637 28:0.237051 32:1.8e-05 38:6e-06 39:7.8e-05 43:0.044565 44:0.038757 48:0.016288 60:6e-06 64:0.01421 
-0.9838385949245532 1:0.076107 2:0.012512 5:0.021403 6:0.034992 7:0.000325 10:0.003515 11:0.000533 14:5e-06 15:0.000475 16:2.1e-05 17:0.00296 18:0.000571 21:0.014565 22:0.257019 23:0.014635 26:0.315968 27:0.063211 28:0.000464 30:5e-06 31:0.003984 32:0.001227 38:8e-05 39:3.7e-05 42:0.030405 43:0.063659 44:0.010043 47:0.004848 48:0.01936 59:2.7e-05 60:3.2e-05 63:0.000123 64:0.046891 
-0.9776173475161316 1:0.133207 2:0.050336 3:0.008733 4:0.000306 5:0.000949 6:0.007201 7:0.006541 8:0.004553 9:6e-06 10:0.000402 11:0.000414 12:0.000745 14:6e-06 15:6e-05 16:4.8e-05 17:0.003315 18:0.000733 19:9e-05 21:0.001225 22:0.009724 23:0.008072 24:0.003688 26:0.000474 27:0.00379 28:0.018246 30:6e-06 31:0.000114 32:0.001646 33:0.000931 34:4.8e-05 37:0.001802 38:0.002913 39:0.000306 40:4.8e-05 41:0.000396 42:0.002144 43:0.006913 44:0.016559 45:1.2e-05 46:1.2e-05 47:0.000324 48:0.030805 49:7.2e-05 53:0.0003 54:0.000498 55:3.6e-05 57:0.002228 58:0.001982 59:0.000979 60:0.000198 61:0.004276 62:0.084192 63:0.502102 64:0.075291 
-0.1439014291168436 1:0.086823 2:0.018282 5:0.006811 6:0.025754 7:0.004721 17:0.079712 18:0.002697 21:0.261117 22:0.378126 23:0.025526 26:0.001742 27:0.023261 28:0.00194 37:0.001339 38:0.05373 39:0.000222 42:0.010925 43:0.014841 44:0.002066 48:0.000366 
-1 1:0.226283 2:0.081291 3:1.1e-05 5:0.000501 6:0.077024 7:0.000683 17:1.6e-05 18:9.1e-05 21:0.00016 22:0.171392 23:0.066379 26:0.001349 27:0.073307 28:0.000245 38:0.000469 39:0.000112 42:0.001093 43:0.128939 44:0.036587 47:3.2e-05 48:0.040192 59:1.1e-05 63:5e-06 64:0.093829 
-0.8653207068602163 1:0.157332 2:0.004354 5:0.026883 6:0.019284 7:0.000441 10:0.001923 11:0.012473 12:0.00028 17:0.005409 18:0.000307 21:0.019538 22:0.072543 23:0.001122 26:0.059802 27:0.060524 28:0.000654 31:0.012113 32:0.000588 37:0.002978 38:0.002684 39:0.000187 42:0.014156 43:0.069805 44:0.000841 47:0.0414 48:0.021982 59:0.009976 60:0.000227 63:0.042668 64:0.337527 
-1 1:0.017508 2:0.019476 5:0.000149 6:0.036298 7:0.000375 17:6e-06 18:0.000168 19:1.3e-05 21:2.6e-05 22:0.217838 23:0.09123 24:1.9e-05 26:0.018395 27:0.122317 28:0.00165 38:0.001495 39:0.000311 40:1.3e-05 42:0.057476 43:0.206162 44:0.070032 47:0.00022 48:0.048168 59:0.00022 60:0.000233 63:0.000233 64:0.089968 
-1 1:0.222384 2:0.072186 6:0.043441 7:3e-05 17:6e-06 18:1.2e-05 22:0.028823 23:0.041447 26:6e-06 27:0.048054 28:6e-06 38:6e-06 42:6e-06 43:0.108775 44:0.084216 47:6e-05 48:0.036823 59:6e-06 60:1.2e-05 63:6e-06 64:0.313694 
-0.7111418516385957 1:0.011584 2:0.000139 5:8e-05 6:0.000405 7:0.000192 8:1.1e-05 11:0.00024 12:0.000133 16:9.1e-05 17:0.005419 18:7.5e-05 21:0.016453 22:0.185189 23:0.001643 24:8.5e-05 26:0.000256 27:0.00104 28:0.000352 32:0.000389 37:1.1e-05 38:0.143456 39:0.000155 42:0.113851 43:0.436885 44:0.000277 47:0.000107 48:0.000912 59:0.054629 60:2.1e-05 63:0.004459 64:0.021461 
-1 1:0.272571 2:0.169267 3:3.6e-05 5:0.000378 6:0.062913 7:0.006408 17:0.001171 18:0.001345 21:0.000655 22:0.070198 23:0.050204 26:0.000589 27:0.054054 28:0.002402 38:0.000234 39:0.00015 42:0.000709 43:0.030709 44:0.013556 47:0.000114 48:0.015315 59:0.001003 60:0.000162 63:0.00609 64:0.239766 
-1 1:0.056837 2:0.009936 5:0.047904 6:0.10528 7:0.000117 10:0.012544 11:0.000229 14:5e-06 15:9.1e-05 17:0.002688 18:0.001189 21:0.003477 22:0.203813 23:0.01384 24:5e-06 26:0.193136 27:0.079344 28:0.000123 30:3.2e-05 31:0.004261 32:0.000592 34:4.8e-05 37:4.8e-05 38:0.003072 39:0.000896 40:5e-06 41:5e-06 42:0.002651 43:0.096048 44:0.004672 47:0.018528 48:0.012645 54:0.000133 55:0.000139 58:5.3e-05 59:0.003749 60:0.001045 63:0.003472 64:0.117344 
-1 1:0.324523 2:0.081803 3:2.1e-05 5:0.003899 6:0.137877 7:0.141989 8:0.000277 10:0.022096 11:0.030389 12:0.000432 18:5e-06 22:0.011237 23:0.052581 24:0.000235 26:0.000507 27:0.080011 28:0.029648 31:6.4e-05 32:0.000539 43:0.010635 44:0.009477 47:2.1e-05 48:0.012725 64:0.049008 
-0.5966301454042686 1:0.02639 2:0.001141 5:0.001075 6:0.005015 10:3.6e-05 17:0.001177 18:9e-05 21:0.003105 22:0.134925 23:0.006144 24:6e-06 26:0.032661 27:0.36185 32:6e-06 37:1.8e-05 38:0.00209 39:0.000378 42:0.003922 43:0.25245 44:0.000306 47:0.004787 48:0.003153 58:3.6e-05 59:0.003399 60:5.4e-05 63:0.008637 64:0.147147 
-0.3651275840480124 1:0.000763 5:2.7e-05 6:1.1e-05 17:0.001029 18:1.6e-05 19:1.1e-05 20:5e-06 21:0.007269 22:0.014891 23:0.0008 24:0.000341 26:0.000213 27:0.000181 28:6.9e-05 37:0.000971 38:0.019915 39:0.000619 40:0.001493 41:4.8e-05 42:0.224443 43:0.058331 44:0.002821 47:0.000576 48:0.000368 58:0.007483 59:0.060853 60:0.000992 62:5e-06 63:0.454907 64:0.140549 
-1 1:0.340142 2:0.122844 5:0.000223 6:0.0811 7:9e-05 17:0.003682 18:0.000602 21:0.002251 22:0.12828 23:0.012929 26:0.001455 27:0.014611 28:4.7e-05 31:3.8e-05 38:0.003052 39:0.002919 42:0.000578 43:0.049806 44:0.011422 47:0.006166 48:0.018393 59:0.00155 60:0.000725 63:0.001573 64:0.195521 
-1 1:0.141234 2:0.095717 3:0.000136 5:1.6e-05 6:0.081141 7:0.043342 8:1.6e-05 11:0.000522 17:0.000114 18:0.000136 21:6.5e-05 22:0.028288 23:0.086701 24:0.000147 26:8.7e-05 27:0.083908 28:0.025712 32:0.000266 38:0.000641 39:0.000353 42:0.000984 43:0.053288 44:0.051114 47:0.000185 48:0.041158 58:5.4e-05 59:0.00825 60:0.000636 63:0.164473 64:0.091315 
-0.2649219254845464 1:0.406422 2:0.022169 5:0.014886 6:0.052289 7:9.6e-05 10:6e-06 17:0.003006 18:7.8e-05 21:0.001964 22:0.0475 23:0.003825 26:0.001524 27:0.010241 28:0.000235 37:1.2e-05 38:0.010861 39:4.8e-05 42:0.052566 43:0.077175 44:0.006946 47:0.000705 48:0.008175 59:0.003645 60:0.000602 63:0.002416 64:0.272608 
-0.5436922495325821 1:0.326948 2:0.005319 5:0.000904 6:0.010511 17:0.00023 18:0.000141 21:8.1e-05 22:0.174267 23:0.008304 26:0.00017 27:0.008022 38:7e-06 39:3e-05 42:7e-06 43:0.110881 44:0.006674 47:3.7e-05 48:0.005948 60:2.2e-05 64:0.341496 
-1 1:0.145351 2:0.056396 3:0.001285 5:0.022763 6:0.257574 7:0.11361 8:0.005261 10:0.054138 11:0.045297 12:0.003369 15:0.000354 16:0.000126 18:6e-06 22:0.007976 23:0.032114 24:0.000396 26:0.006312 27:0.135171 28:0.057544 31:0.002865 32:0.00788 43:0.002985 44:0.00961 47:0.00012 48:0.03003 64:0.001465 
-0.01711202833168142 1:0.019728 2:0.002933 3:8.5e-05 5:0.001973 6:0.010496 7:0.000325 8:1.6e-05 10:1.1e-05 11:0.00016 12:1.6e-05 16:5.9e-05 17:0.012672 18:0.003232 19:0.000101 21:0.007552 22:0.306827 23:0.038709 24:3.2e-05 26:0.002453 27:0.02016 28:0.000523 32:0.000283 33:7.5e-05 34:2.7e-05 37:0.001131 38:0.005419 39:0.003296 40:5e-06 41:1.1e-05 42:0.002496 43:0.098923 44:0.051531 47:0.000976 48:0.072571 53:0.000229 54:0.000603 56:5e-06 57:4.8e-05 58:0.002539 59:0.007301 60:0.005333 62:1.6e-05 63:0.002928 64:0.316192 
-1 1:0.140567 2:0.030503 5:0.027096 6:0.101037 7:0.000374 10:0.000144 17:8e-05 18:0.001909 19:7e-05 21:2.1e-05 22:0.141829 23:0.016503 24:0.000107 26:0.037856 27:0.013503 28:0.000626 31:5e-06 32:2.7e-05 36:5e-06 37:1.6e-05 38:0.000112 39:0.000674 40:0.002326 42:2.7e-05 43:0.036957 44:0.057027 47:9.6e-05 48:0.058299 55:5e-06 56:5e-06 58:1.6e-05 59:0.000176 60:0.000872 63:2.7e-05 64:0.331102 
