svm_type c_svc
kernel_type rbf
gamma 150
nr_class 2
total_sv 1257
rho 0.317808
label 1 -1
probA -3.32463
probB 0.0928694
nr_sv 271 986
SV
1.133429858214202 2:0.0039370079 3:0.0078740157 5:0.0039370079 9:0.011811024 10:0.011811024 12:0.043307087 17:0.0039370079 29:0.0078740157 33:0.0078740157 34:0.0039370079 37:0.011811024 39:0.011811024 40:0.027559055 43:0.011811024 45:0.043307087 49:0.0039370079 51:0.0039370079 55:0.0039370079 58:0.0039370079 60:0.0039370079 62:0.015748031 64:0.0039370079 65:0.0039370079 66:0.0039370079 68:0.0039370079 69:0.0039370079 70:0.015748031 73:0.0039370079 77:0.015748031 79:0.023622047 80:0.0039370079 81:0.0039370079 82:0.0078740157 84:0.0039370079 86:0.0078740157 87:0.0039370079 92:0.019685039 101:0.0039370079 105:0.011811024 106:0.0039370079 107:0.0078740157 108:0.0039370079 110:0.047244094 113:0.0039370079 114:0.0078740157 115:0.0039370079 122:0.0039370079 127:0.0078740157 135:0.0078740157 136:0.0078740157 137:0.0078740157 138:0.015748031 139:0.0039370079 141:0.011811024 144:0.023622047 146:0.0039370079 149:0.0039370079 151:0.0078740157 152:0.019685039 153:0.0039370079 156:0.0078740157 158:0.0039370079 162:0.0039370079 163:0.015748031 164:0.011811024 167:0.011811024 169:0.0078740157 178:0.011811024 181:0.0039370079 185:0.0039370079 187:0.023622047 188:0.015748031 192:0.031496063 199:0.015748031 202:0.027559055 204:0.011811024 206:0.0039370079 208:0.0078740157 209:0.0039370079 212:0.011811024 213:0.0078740157 223:0.051181102 224:0.0039370079 226:0.023622047 228:0.011811024 231:0.0078740157 232:0.0078740157 237:0.0078740157 239:0.011811024 244:0.0039370079 246:0.011811024 251:0.0078740157 255:0.0039370079 
0.6262933051629662 2:0.026455026 7:0.0052910053 9:0.0052910053 10:0.010582011 13:0.010582011 16:0.026455026 22:0.0052910053 33:0.010582011 34:0.010582011 37:0.0052910053 43:0.0052910053 46:0.0052910053 48:0.010582011 51:0.015873016 55:0.010582011 65:0.0052910053 67:0.0052910053 69:0.0052910053 70:0.015873016 77:0.0052910053 81:0.0052910053 82:0.021164021 84:0.031746032 87:0.010582011 88:0.015873016 94:0.010582011 95:0.047619048 101:0.0052910053 103:0.047619048 110:0.0052910053 115:0.010582011 121:0.015873016 122:0.0052910053 130:0.0052910053 131:0.015873016 135:0.010582011 137:0.0052910053 138:0.0052910053 141:0.015873016 142:0.0052910053 144:0.0052910053 148:0.0052910053 149:0.026455026 154:0.0052910053 161:0.010582011 163:0.026455026 164:0.015873016 166:0.010582011 167:0.0052910053 169:0.0052910053 171:0.026455026 173:0.0052910053 181:0.026455026 187:0.0052910053 188:0.021164021 191:0.0052910053 201:0.015873016 202:0.026455026 209:0.0052910053 212:0.0052910053 215:0.063492063 219:0.0052910053 223:0.0052910053 228:0.0052910053 229:0.0052910053 230:0.015873016 235:0.010582011 237:0.015873016 239:0.0052910053 240:0.0052910053 241:0.0052910053 243:0.026455026 246:0.015873016 248:0.015873016 250:0.0052910053 251:0.0052910053 255:0.010582011 256:0.021164021 
1.317697987533583 34:0.043478261 37:0.043478261 64:0.043478261 74:0.043478261 81:0.086956522 84:0.043478261 101:0.043478261 112:0.043478261 116:0.086956522 128:0.17391304 140:0.086956522 144:0.043478261 237:0.13043478 256:0.086956522 
1.238542806728383 14:0.012195122 16:0.024390244 18:0.012195122 21:0.012195122 27:0.024390244 30:0.024390244 45:0.085365854 48:0.012195122 58:0.012195122 67:0.06097561 70:0.012195122 74:0.012195122 80:0.036585366 84:0.048780488 87:0.012195122 103:0.024390244 106:0.012195122 113:0.012195122 115:0.024390244 121:0.024390244 123:0.012195122 130:0.036585366 149:0.06097561 167:0.048780488 180:0.012195122 181:0.012195122 186:0.012195122 191:0.024390244 201:0.012195122 202:0.036585366 203:0.012195122 222:0.012195122 223:0.012195122 227:0.012195122 237:0.048780488 238:0.012195122 239:0.048780488 241:0.048780488 242:0.012195122 248:0.012195122 
1.47442244370607 2:0.012285012 5:0.0024570025 8:0.029484029 9:0.0049140049 11:0.0024570025 12:0.0049140049 15:0.0024570025 16:0.0049140049 18:0.022113022 21:0.0024570025 24:0.0098280098 27:0.0073710074 28:0.0024570025 33:0.0073710074 34:0.0024570025 38:0.0024570025 39:0.0073710074 44:0.0049140049 45:0.0024570025 48:0.0049140049 55:0.0049140049 56:0.0049140049 58:0.029484029 59:0.0024570025 61:0.0024570025 62:0.0049140049 63:0.014742015 66:0.0024570025 67:0.027027027 68:0.0049140049 71:0.0024570025 76:0.0049140049 79:0.0073710074 80:0.0073710074 81:0.0049140049 83:0.017199017 85:0.0098280098 87:0.0049140049 88:0.0024570025 89:0.0098280098 90:0.0024570025 94:0.0049140049 99:0.0024570025 101:0.0024570025 102:0.0049140049 104:0.0098280098 105:0.0049140049 106:0.0024570025 110:0.0024570025 112:0.0024570025 113:0.0049140049 115:0.0049140049 119:0.0073710074 121:0.0073710074 124:0.0098280098 125:0.0049140049 130:0.022113022 131:0.0073710074 135:0.01965602 136:0.0049140049 139:0.0073710074 140:0.0098280098 141:0.0024570025 143:0.0024570025 144:0.0049140049 147:0.0073710074 148:0.0073710074 149:0.024570025 150:0.0098280098 154:0.0049140049 156:0.0024570025 161:0.0049140049 162:0.0024570025 166:0.0073710074 169:0.0049140049 170:0.0024570025 172:0.01965602 173:0.0098280098 174:0.0073710074 176:0.0024570025 178:0.0024570025 180:0.0073710074 181:0.029484029 182:0.0049140049 183:0.01965602 185:0.0049140049 186:0.0024570025 187:0.0073710074 190:0.0098280098 193:0.0049140049 194:0.0024570025 199:0.0024570025 201:0.058968059 203:0.0024570025 204:0.0073710074 206:0.0049140049 210:0.0024570025 211:0.0049140049 213:0.0073710074 217:0.0024570025 220:0.0024570025 221:0.0024570025 222:0.0073710074 226:0.0024570025 228:0.049140049 229:0.0049140049 230:0.036855037 234:0.0049140049 235:0.0024570025 237:0.0073710074 239:0.0024570025 240:0.017199017 241:0.0049140049 242:0.022113022 248:0.0073710074 249:0.012285012 250:0.017199017 251:0.0098280098 253:0.0024570025 254:0.0024570025 255:0.0024570025 256:0.0024570025 
2.275869016136983 2:0.011315417 3:0.0042432815 4:0.0014144272 6:0.0028288543 8:0.016973126 9:0.0070721358 11:0.0014144272 12:0.0028288543 13:0.0099009901 14:0.0014144272 15:0.0070721358 16:0.016973126 17:0.0014144272 18:0.0070721358 19:0.0014144272 20:0.0042432815 21:0.0014144272 22:0.0014144272 24:0.0028288543 27:0.0014144272 29:0.0014144272 30:0.0042432815 31:0.0014144272 33:0.0014144272 35:0.0028288543 36:0.0014144272 37:0.0084865629 38:0.0070721358 39:0.0056577086 42:0.012729844 43:0.0014144272 44:0.0014144272 46:0.0014144272 47:0.0028288543 48:0.022630835 50:0.0028288543 51:0.0056577086 52:0.011315417 54:0.015558699 55:0.0014144272 56:0.0042432815 57:0.0028288543 58:0.018387553 59:0.0028288543 60:0.0014144272 61:0.0028288543 62:0.0028288543 63:0.0042432815 64:0.0014144272 66:0.0028288543 67:0.0042432815 68:0.0042432815 69:0.0099009901 70:0.0042432815 71:0.0014144272 73:0.0028288543 74:0.0056577086 75:0.0014144272 76:0.0014144272 77:0.0014144272 79:0.0084865629 80:0.0084865629 81:0.0014144272 82:0.0028288543 83:0.012729844 84:0.0028288543 85:0.0014144272 86:0.0014144272 87:0.014144272 88:0.0042432815 89:0.0070721358 90:0.0028288543 91:0.0099009901 93:0.0014144272 94:0.0070721358 95:0.0014144272 97:0.0014144272 98:0.0014144272 100:0.0014144272 101:0.0014144272 102:0.0070721358 103:0.0042432815 104:0.0070721358 107:0.0014144272 108:0.0028288543 109:0.0070721358 110:0.0028288543 111:0.0056577086 113:0.0028288543 116:0.0084865629 119:0.0028288543 121:0.01980198 122:0.0014144272 125:0.0028288543 126:0.0070721358 128:0.0014144272 130:0.022630835 131:0.0028288543 132:0.0014144272 133:0.0042432815 134:0.0014144272 135:0.0014144272 137:0.015558699 138:0.0042432815 139:0.0042432815 141:0.0014144272 142:0.0042432815 144:0.0014144272 146:0.0014144272 147:0.0028288543 148:0.0042432815 149:0.0070721358 150:0.0070721358 151:0.0084865629 152:0.0014144272 155:0.0042432815 156:0.0014144272 157:0.0042432815 160:0.0028288543 163:0.015558699 165:0.0028288543 167:0.0028288543 169:0.0028288543 170:0.0028288543 171:0.0028288543 172:0.01980198 174:0.0028288543 176:0.0014144272 178:0.0014144272 180:0.0070721358 181:0.0084865629 182:0.0056577086 183:0.0099009901 185:0.0042432815 186:0.011315417 187:0.0042432815 188:0.0070721358 192:0.0014144272 196:0.0028288543 197:0.0014144272 199:0.0070721358 200:0.0084865629 201:0.024045262 203:0.0014144272 205:0.0028288543 208:0.0028288543 209:0.0042432815 210:0.014144272 216:0.0014144272 217:0.015558699 218:0.0014144272 220:0.0014144272 221:0.0014144272 223:0.0028288543 225:0.0014144272 226:0.0014144272 227:0.0056577086 228:0.024045262 229:0.0028288543 230:0.0070721358 232:0.0084865629 233:0.0014144272 234:0.0028288543 236:0.0042432815 237:0.0028288543 239:0.0099009901 240:0.0042432815 241:0.01980198 242:0.024045262 243:0.0042432815 244:0.0014144272 245:0.016973126 248:0.022630835 249:0.016973126 250:0.0070721358 251:0.0084865629 253:0.0014144272 255:0.0014144272 256:0.0042432815 
2.902864157822026 1:0.003058104 2:0.016309888 4:0.004077472 5:0.001019368 8:0.003058104 9:0.00509684 10:0.006116208 11:0.0071355759 12:0.001019368 13:0.011213048 15:0.001019368 16:0.0071355759 18:0.014271152 19:0.002038736 20:0.002038736 21:0.001019368 23:0.013251784 24:0.00509684 25:0.01019368 26:0.003058104 28:0.0071355759 29:0.003058104 32:0.001019368 33:0.003058104 35:0.004077472 36:0.001019368 37:0.001019368 38:0.021406728 39:0.0091743119 40:0.001019368 41:0.001019368 42:0.002038736 43:0.00509684 44:0.001019368 45:0.004077472 46:0.002038736 48:0.019367992 50:0.001019368 51:0.006116208 53:0.01019368 54:0.013251784 55:0.003058104 56:0.003058104 57:0.004077472 58:0.002038736 59:0.00509684 60:0.004077472 61:0.006116208 62:0.003058104 64:0.004077472 67:0.0091743119 68:0.003058104 69:0.001019368 70:0.006116208 72:0.001019368 73:0.003058104 75:0.002038736 77:0.003058104 78:0.004077472 79:0.001019368 80:0.013251784 81:0.00509684 82:0.0081549439 83:0.004077472 84:0.004077472 85:0.00509684 86:0.004077472 87:0.01019368 88:0.00509684 89:0.006116208 91:0.0071355759 93:0.011213048 94:0.002038736 95:0.006116208 96:0.001019368 97:0.003058104 98:0.002038736 100:0.003058104 101:0.001019368 102:0.001019368 103:0.0071355759 105:0.001019368 106:0.001019368 107:0.002038736 108:0.003058104 110:0.001019368 111:0.001019368 112:0.002038736 113:0.011213048 114:0.001019368 115:0.011213048 116:0.001019368 117:0.002038736 119:0.004077472 120:0.001019368 121:0.014271152 123:0.003058104 124:0.013251784 125:0.003058104 127:0.002038736 128:0.001019368 129:0.001019368 130:0.019367992 131:0.0071355759 132:0.00509684 133:0.001019368 137:0.022426096 138:0.002038736 139:0.001019368 140:0.0071355759 141:0.004077472 142:0.002038736 143:0.004077472 144:0.003058104 145:0.003058104 146:0.001019368 147:0.00509684 148:0.00509684 149:0.0071355759 153:0.003058104 154:0.01019368 155:0.003058104 156:0.001019368 158:0.002038736 160:0.014271152 161:0.003058104 162:0.002038736 163:0.019367992 164:0.001019368 165:0.003058104 167:0.0071355759 169:0.006116208 170:0.002038736 171:0.003058104 172:0.01019368 173:0.023445464 174:0.011213048 176:0.004077472 177:0.002038736 178:0.004077472 179:0.001019368 180:0.00509684 181:0.006116208 183:0.0091743119 184:0.001019368 185:0.001019368 186:0.0091743119 187:0.00509684 189:0.002038736 190:0.001019368 191:0.01019368 193:0.0091743119 194:0.001019368 195:0.011213048 198:0.001019368 199:0.001019368 200:0.003058104 201:0.002038736 202:0.003058104 203:0.0091743119 204:0.0081549439 205:0.004077472 210:0.00509684 211:0.002038736 212:0.0071355759 213:0.002038736 214:0.004077472 215:0.002038736 216:0.0071355759 217:0.004077472 218:0.001019368 219:0.004077472 220:0.001019368 222:0.001019368 223:0.012232416 224:0.003058104 225:0.001019368 226:0.002038736 227:0.002038736 228:0.019367992 229:0.003058104 230:0.001019368 231:0.001019368 232:0.003058104 233:0.004077472 235:0.002038736 236:0.001019368 237:0.002038736 238:0.001019368 239:0.006116208 240:0.003058104 241:0.00509684 242:0.004077472 243:0.002038736 244:0.002038736 246:0.004077472 247:0.001019368 248:0.001019368 249:0.012232416 250:0.001019368 252:0.004077472 253:0.003058104 254:0.001019368 255:0.01529052 256:0.003058104 
0.07489336840510172 2:0.043851287 3:0.0028598665 5:0.0047664442 7:0.00095328885 8:0.0057197331 9:0.010486177 10:0.00095328885 12:0.0019065777 13:0.0076263108 16:0.023832221 17:0.00095328885 18:0.0038131554 20:0.0028598665 22:0.0047664442 23:0.00095328885 24:0.0019065777 28:0.0057197331 30:0.00095328885 31:0.0019065777 32:0.0019065777 33:0.0038131554 34:0.0019065777 35:0.0047664442 37:0.0038131554 38:0.0038131554 39:0.0028598665 40:0.0019065777 41:0.00095328885 42:0.00095328885 43:0.0095328885 45:0.0038131554 46:0.0047664442 47:0.00095328885 48:0.01620591 49:0.00095328885 50:0.00095328885 51:0.0028598665 52:0.00095328885 53:0.010486177 54:0.0047664442 55:0.0019065777 56:0.0028598665 57:0.0019065777 58:0.0047664442 59:0.0019065777 60:0.0076263108 61:0.0028598665 62:0.00095328885 65:0.0057197331 66:0.0047664442 68:0.0028598665 69:0.00095328885 70:0.0047664442 73:0.0076263108 75:0.0019065777 76:0.00095328885 77:0.0047664442 79:0.0057197331 80:0.0066730219 81:0.0019065777 82:0.0019065777 83:0.0066730219 84:0.011439466 85:0.053384175 86:0.0028598665 87:0.0047664442 88:0.0076263108 89:0.0047664442 90:0.0076263108 91:0.0038131554 94:0.00095328885 95:0.0047664442 96:0.0019065777 97:0.0038131554 100:0.0019065777 101:0.00095328885 102:0.0028598665 103:0.00095328885 104:0.0057197331 106:0.0019065777 107:0.0085795996 108:0.0019065777 110:0.0019065777 111:0.0028598665 113:0.0019065777 114:0.0019065777 115:0.0038131554 116:0.0028598665 117:0.0019065777 119:0.0076263108 120:0.0019065777 121:0.020019066 122:0.0028598665 123:0.00095328885 125:0.00095328885 126:0.0019065777 127:0.0057197331 128:0.010486177 129:0.00095328885 130:0.0038131554 131:0.0076263108 132:0.0028598665 134:0.0019065777 135:0.0076263108 136:0.0028598665 137:0.0095328885 139:0.0019065777 140:0.00095328885 141:0.0057197331 142:0.0028598665 143:0.00095328885 144:0.012392755 145:0.0019065777 146:0.00095328885 147:0.0019065777 148:0.0095328885 149:0.0038131554 150:0.0028598665 151:0.0019065777 153:0.0047664442 154:0.0028598665 155:0.0047664442 156:0.0076263108 157:0.00095328885 160:0.00095328885 161:0.0028598665 163:0.0047664442 165:0.00095328885 166:0.012392755 167:0.0028598665 169:0.0085795996 170:0.0047664442 171:0.00095328885 172:0.013346044 173:0.0019065777 174:0.0085795996 175:0.0019065777 176:0.00095328885 178:0.0066730219 179:0.0066730219 180:0.0066730219 181:0.010486177 182:0.00095328885 183:0.0066730219 184:0.0028598665 186:0.0057197331 187:0.0066730219 188:0.0047664442 189:0.00095328885 191:0.0057197331 193:0.0019065777 195:0.0028598665 199:0.0038131554 200:0.013346044 201:0.023832221 203:0.0047664442 204:0.0066730219 205:0.0019065777 206:0.00095328885 208:0.0047664442 209:0.0057197331 211:0.0019065777 212:0.0019065777 213:0.0028598665 214:0.0019065777 218:0.00095328885 219:0.0095328885 222:0.0019065777 223:0.0085795996 224:0.00095328885 227:0.00095328885 228:0.043851287 229:0.0038131554 230:0.018112488 232:0.0047664442 235:0.014299333 236:0.0019065777 237:0.0038131554 238:0.0047664442 239:0.0019065777 240:0.0019065777 241:0.017159199 242:0.0095328885 243:0.0019065777 246:0.0038131554 248:0.0085795996 249:0.0038131554 250:0.0085795996 251:0.0038131554 253:0.0076263108 255:0.00095328885 256:0.0028598665 
4.674148794719883 1:0.0022421525 2:0.0011210762 5:0.0056053812 6:0.013452915 7:0.0056053812 8:0.012331839 9:0.0067264574 10:0.0033632287 12:0.02690583 13:0.0056053812 15:0.0011210762 16:0.0067264574 17:0.0011210762 19:0.0044843049 20:0.0033632287 22:0.0011210762 24:0.0011210762 25:0.0011210762 26:0.0056053812 27:0.0044843049 28:0.0033632287 29:0.0056053812 30:0.016816143 31:0.0044843049 33:0.0011210762 34:0.0011210762 35:0.0022421525 37:0.0011210762 38:0.0022421525 39:0.0067264574 40:0.0078475336 41:0.0022421525 42:0.0044843049 43:0.0033632287 46:0.019058296 47:0.0022421525 48:0.0044843049 49:0.0033632287 50:0.0056053812 52:0.0022421525 54:0.0011210762 56:0.0089686099 57:0.0089686099 58:0.0033632287 60:0.0011210762 61:0.0022421525 62:0.0056053812 64:0.0011210762 65:0.0044843049 66:0.0011210762 67:0.0022421525 68:0.0022421525 69:0.0033632287 70:0.011210762 71:0.0056053812 73:0.0022421525 74:0.0011210762 76:0.0056053812 77:0.0022421525 78:0.0056053812 79:0.020179372 80:0.0022421525 81:0.0056053812 82:0.0033632287 83:0.0056053812 84:0.0056053812 85:0.0033632287 86:0.010089686 87:0.0056053812 88:0.0011210762 91:0.011210762 92:0.0067264574 93:0.0067264574 94:0.0056053812 95:0.0033632287 96:0.0011210762 99:0.0011210762 100:0.0022421525 101:0.0067264574 102:0.0022421525 103:0.0056053812 105:0.0011210762 106:0.0056053812 107:0.0078475336 109:0.0011210762 110:0.0078475336 111:0.0011210762 112:0.0067264574 113:0.0033632287 114:0.0022421525 116:0.0011210762 118:0.0011210762 123:0.0011210762 124:0.0011210762 125:0.016816143 126:0.0078475336 127:0.013452915 128:0.0056053812 130:0.0011210762 131:0.0022421525 132:0.0011210762 133:0.0011210762 134:0.0056053812 135:0.012331839 136:0.0044843049 137:0.0022421525 138:0.010089686 139:0.0011210762 140:0.0044843049 141:0.0067264574 143:0.0044843049 144:0.0067264574 145:0.0056053812 146:0.0067264574 147:0.0011210762 148:0.0022421525 149:0.0067264574 150:0.016816143 151:0.0033632287 152:0.031390135 153:0.0044843049 154:0.0022421525 155:0.0033632287 156:0.0044843049 157:0.0022421525 160:0.0011210762 161:0.0022421525 162:0.0011210762 163:0.0067264574 166:0.0011210762 167:0.0033632287 169:0.0011210762 170:0.0033632287 171:0.011210762 174:0.0022421525 175:0.0022421525 176:0.0011210762 177:0.0067264574 178:0.0078475336 180:0.0044843049 181:0.0033632287 182:0.0011210762 183:0.0044843049 184:0.0044843049 185:0.0033632287 186:0.0044843049 187:0.0022421525 189:0.0067264574 190:0.0011210762 191:0.0056053812 192:0.0022421525 193:0.0011210762 194:0.0044843049 196:0.0022421525 199:0.0056053812 200:0.021300448 202:0.0011210762 203:0.0011210762 204:0.0033632287 205:0.0056053812 206:0.0033632287 207:0.0011210762 208:0.0011210762 210:0.0011210762 211:0.0022421525 212:0.0089686099 213:0.0022421525 214:0.013452915 218:0.0022421525 219:0.010089686 220:0.0056053812 221:0.0044843049 222:0.0033632287 223:0.0078475336 224:0.0022421525 225:0.022421525 226:0.0022421525 228:0.0056053812 230:0.0011210762 231:0.0011210762 232:0.0089686099 233:0.0011210762 236:0.0056053812 237:0.0078475336 238:0.0022421525 239:0.0067264574 241:0.0067264574 242:0.0089686099 243:0.0089686099 244:0.0022421525 245:0.0067264574 246:0.0033632287 247:0.0033632287 248:0.0078475336 249:0.0033632287 250:0.0056053812 251:0.0089686099 252:0.0011210762 253:0.0022421525 254:0.0011210762 255:0.0044843049 256:0.0011210762 
2.050666016437506 1:0.00082508251 2:0.0024752475 3:0.001650165 4:0.00082508251 5:0.0090759076 6:0.0082508251 7:0.00082508251 8:0.02970297 9:0.0041254125 10:0.0041254125 11:0.001650165 12:0.0074257426 13:0.015676568 14:0.0041254125 15:0.0024752475 16:0.0066006601 17:0.0057755776 18:0.01320132 19:0.0024752475 20:0.00330033 21:0.001650165 23:0.0024752475 24:0.00330033 25:0.00082508251 26:0.001650165 27:0.00082508251 28:0.00330033 29:0.00082508251 30:0.001650165 33:0.00082508251 35:0.00330033 36:0.001650165 37:0.0024752475 38:0.00082508251 39:0.0041254125 40:0.0057755776 41:0.001650165 42:0.0090759076 43:0.0041254125 44:0.00082508251 45:0.00330033 47:0.0024752475 48:0.001650165 49:0.001650165 50:0.001650165 51:0.012376238 53:0.0099009901 54:0.0024752475 55:0.00330033 56:0.001650165 57:0.00082508251 58:0.00330033 59:0.001650165 60:0.004950495 61:0.0066006601 62:0.010726073 63:0.00330033 64:0.001650165 65:0.0041254125 66:0.004950495 67:0.0041254125 68:0.0090759076 69:0.001650165 70:0.001650165 71:0.001650165 72:0.0024752475 73:0.0074257426 74:0.00330033 75:0.0041254125 76:0.004950495 77:0.017326733 78:0.0024752475 79:0.0041254125 80:0.00082508251 81:0.00330033 82:0.004950495 83:0.004950495 85:0.0057755776 86:0.0041254125 87:0.010726073 88:0.0066006601 89:0.00330033 90:0.00082508251 91:0.001650165 93:0.0066006601 94:0.0024752475 95:0.011551155 97:0.00330033 98:0.00082508251 100:0.001650165 101:0.0024752475 103:0.020627063 104:0.0041254125 105:0.0074257426 106:0.00082508251 107:0.020627063 108:0.0057755776 110:0.00330033 111:0.0041254125 113:0.00330033 114:0.0057755776 115:0.0074257426 116:0.004950495 117:0.001650165 119:0.0082508251 120:0.00330033 121:0.00330033 122:0.001650165 124:0.001650165 125:0.00082508251 126:0.0024752475 127:0.0024752475 128:0.0041254125 129:0.001650165 130:0.0024752475 131:0.010726073 132:0.0041254125 133:0.00082508251 134:0.001650165 135:0.010726073 136:0.001650165 137:0.0074257426 138:0.00330033 139:0.0024752475 140:0.0041254125 141:0.0041254125 142:0.0041254125 143:0.0024752475 144:0.001650165 145:0.00082508251 147:0.0024752475 148:0.00330033 149:0.0074257426 150:0.001650165 151:0.0099009901 152:0.0074257426 153:0.00082508251 154:0.0057755776 155:0.0041254125 156:0.001650165 157:0.00330033 158:0.0024752475 160:0.00330033 162:0.00082508251 163:0.02640264 164:0.0024752475 166:0.001650165 167:0.0041254125 168:0.00082508251 169:0.0066006601 170:0.00330033 171:0.00330033 172:0.0024752475 173:0.004950495 174:0.0082508251 176:0.001650165 178:0.0074257426 179:0.0041254125 181:0.01320132 182:0.012376238 183:0.0024752475 184:0.004950495 185:0.010726073 186:0.0090759076 187:0.004950495 188:0.0024752475 189:0.00082508251 191:0.00330033 192:0.001650165 193:0.0041254125 194:0.001650165 195:0.0024752475 196:0.004950495 197:0.00082508251 199:0.00082508251 200:0.00082508251 201:0.0066006601 202:0.004950495 203:0.010726073 204:0.001650165 205:0.0090759076 206:0.0024752475 207:0.00082508251 208:0.0024752475 209:0.001650165 210:0.00330033 211:0.004950495 212:0.00082508251 213:0.0024752475 214:0.001650165 215:0.0024752475 216:0.00330033 217:0.0057755776 219:0.0057755776 220:0.0024752475 223:0.0074257426 224:0.00330033 226:0.0041254125 227:0.01980198 228:0.0082508251 229:0.004950495 230:0.0024752475 231:0.0024752475 232:0.0074257426 233:0.0066006601 235:0.001650165 236:0.0041254125 237:0.0024752475 238:0.0082508251 239:0.00082508251 240:0.0074257426 241:0.0024752475 242:0.0041254125 243:0.004950495 244:0.0024752475 246:0.0041254125 247:0.0041254125 248:0.001650165 249:0.0066006601 250:0.00082508251 251:0.001650165 253:0.0024752475 254:0.00082508251 256:0.0041254125 
1.393310354046648 4:0.0055865922 5:0.011173184 8:0.016759777 14:0.011173184 18:0.011173184 20:0.0055865922 21:0.0055865922 22:0.0055865922 34:0.0055865922 37:0.027932961 40:0.0055865922 41:0.027932961 45:0.022346369 56:0.0055865922 61:0.0055865922 66:0.0055865922 67:0.0055865922 68:0.027932961 69:0.022346369 72:0.011173184 73:0.0055865922 74:0.0055865922 80:0.016759777 82:0.0055865922 84:0.011173184 87:0.0055865922 90:0.0055865922 95:0.0055865922 98:0.011173184 100:0.011173184 103:0.022346369 108:0.0055865922 111:0.011173184 112:0.0055865922 113:0.027932961 115:0.027932961 119:0.0055865922 120:0.0055865922 125:0.0055865922 128:0.089385475 135:0.016759777 140:0.011173184 142:0.0055865922 144:0.0055865922 148:0.027932961 151:0.0055865922 154:0.027932961 156:0.0055865922 158:0.0055865922 163:0.027932961 164:0.0055865922 165:0.0055865922 167:0.011173184 169:0.016759777 174:0.011173184 179:0.0055865922 182:0.011173184 185:0.022346369 187:0.016759777 188:0.0055865922 189:0.016759777 191:0.05027933 192:0.0055865922 196:0.011173184 197:0.0055865922 206:0.0055865922 212:0.022346369 218:0.0055865922 219:0.0055865922 224:0.027932961 226:0.022346369 233:0.0055865922 235:0.0055865922 238:0.0055865922 243:0.0055865922 249:0.0055865922 255:0.0055865922 
1.423354580576 2:0.0076923077 5:0.0076923077 7:0.0076923077 9:0.0076923077 16:0.0076923077 37:0.023076923 42:0.038461538 45:0.038461538 47:0.0076923077 48:0.0076923077 54:0.023076923 70:0.0076923077 79:0.015384615 83:0.0076923077 86:0.0076923077 90:0.030769231 92:0.023076923 94:0.023076923 95:0.015384615 101:0.030769231 103:0.0076923077 107:0.0076923077 115:0.015384615 116:0.092307692 119:0.0076923077 120:0.038461538 121:0.015384615 127:0.015384615 130:0.0076923077 135:0.0076923077 140:0.030769231 146:0.0076923077 149:0.023076923 151:0.0076923077 154:0.023076923 161:0.0076923077 163:0.0076923077 167:0.023076923 171:0.015384615 172:0.0076923077 182:0.030769231 185:0.023076923 186:0.0076923077 201:0.038461538 202:0.015384615 203:0.038461538 219:0.0076923077 222:0.0076923077 224:0.0076923077 226:0.030769231 227:0.0076923077 228:0.015384615 239:0.0076923077 241:0.015384615 242:0.015384615 243:0.015384615 251:0.0076923077 
2.153798838230218 1:0.0023529412 2:0.0047058824 5:0.011764706 7:0.0023529412 8:0.0047058824 9:0.0047058824 10:0.0047058824 13:0.0094117647 16:0.04 18:0.016470588 20:0.014117647 21:0.0023529412 24:0.0023529412 27:0.0070588235 33:0.0023529412 35:0.0094117647 38:0.0047058824 40:0.0070588235 41:0.0047058824 42:0.0023529412 43:0.0047058824 45:0.0047058824 47:0.0047058824 48:0.014117647 49:0.0023529412 51:0.0047058824 52:0.0070588235 53:0.0047058824 54:0.0047058824 57:0.0023529412 58:0.0070588235 59:0.0070588235 60:0.0023529412 61:0.0023529412 62:0.0094117647 64:0.0094117647 65:0.0094117647 66:0.0023529412 67:0.021176471 68:0.0070588235 70:0.0047058824 77:0.0023529412 80:0.0023529412 81:0.0047058824 82:0.014117647 83:0.0047058824 84:0.011764706 85:0.011764706 87:0.0023529412 88:0.021176471 90:0.0023529412 97:0.011764706 99:0.0023529412 101:0.0023529412 104:0.032941176 105:0.0094117647 106:0.0070588235 107:0.021176471 108:0.0023529412 111:0.0047058824 113:0.0023529412 115:0.0023529412 116:0.0023529412 119:0.0047058824 121:0.016470588 126:0.0023529412 128:0.0047058824 129:0.0023529412 130:0.014117647 131:0.0023529412 132:0.0023529412 133:0.0023529412 134:0.0094117647 137:0.0023529412 138:0.0047058824 140:0.011764706 142:0.0047058824 144:0.0094117647 146:0.0047058824 148:0.030588235 149:0.014117647 150:0.0023529412 153:0.0047058824 155:0.016470588 157:0.0047058824 158:0.0047058824 161:0.0094117647 162:0.0023529412 165:0.0070588235 166:0.0023529412 167:0.0023529412 169:0.0023529412 170:0.0023529412 172:0.016470588 173:0.0047058824 174:0.0070588235 176:0.0023529412 178:0.0023529412 180:0.0023529412 181:0.0094117647 183:0.0023529412 185:0.0023529412 186:0.0094117647 190:0.0047058824 191:0.0023529412 192:0.0047058824 193:0.0023529412 195:0.0047058824 200:0.016470588 201:0.0047058824 202:0.0023529412 203:0.0023529412 205:0.0070588235 206:0.0023529412 208:0.0070588235 213:0.0094117647 214:0.0094117647 215:0.0023529412 216:0.0023529412 219:0.0023529412 220:0.0023529412 222:0.0070588235 223:0.016470588 224:0.0047058824 227:0.0047058824 228:0.0047058824 229:0.011764706 230:0.014117647 232:0.0023529412 233:0.0023529412 235:0.0047058824 236:0.0047058824 238:0.0070588235 239:0.0094117647 240:0.0023529412 241:0.018823529 242:0.0070588235 243:0.0047058824 244:0.0047058824 247:0.0023529412 248:0.014117647 249:0.0023529412 250:0.0047058824 251:0.0070588235 253:0.0094117647 256:0.0023529412 
3.153800325938425 1:0.0014947683 2:0.020926756 4:0.0044843049 5:0.0044843049 7:0.0029895366 8:0.0059790732 9:0.0029895366 10:0.0029895366 12:0.0014947683 13:0.0089686099 14:0.0044843049 16:0.0089686099 18:0.010463378 19:0.0044843049 20:0.0044843049 22:0.0029895366 24:0.0029895366 25:0.0014947683 26:0.0074738416 27:0.0029895366 30:0.0074738416 31:0.0029895366 32:0.0014947683 33:0.0029895366 34:0.0059790732 35:0.0014947683 36:0.0074738416 37:0.0074738416 40:0.01793722 41:0.0029895366 42:0.0014947683 43:0.0074738416 44:0.0014947683 45:0.0014947683 47:0.0044843049 48:0.0059790732 51:0.0059790732 52:0.0029895366 53:0.0014947683 54:0.0029895366 55:0.0089686099 56:0.0089686099 57:0.0029895366 58:0.023916293 59:0.010463378 60:0.0014947683 61:0.0014947683 63:0.0014947683 65:0.0059790732 66:0.0029895366 67:0.016442451 68:0.0044843049 69:0.0029895366 70:0.010463378 71:0.011958146 73:0.0044843049 74:0.0044843049 76:0.0014947683 77:0.0014947683 78:0.0074738416 79:0.0014947683 80:0.0059790732 82:0.0074738416 83:0.01793722 84:0.0074738416 85:0.0014947683 87:0.0014947683 88:0.0089686099 89:0.0044843049 90:0.0029895366 91:0.0014947683 93:0.0059790732 94:0.0044843049 95:0.010463378 99:0.0014947683 100:0.0014947683 103:0.0014947683 104:0.0029895366 105:0.0029895366 107:0.010463378 108:0.0014947683 110:0.0029895366 112:0.0014947683 113:0.0014947683 115:0.0014947683 116:0.0014947683 117:0.0014947683 119:0.0059790732 120:0.0059790732 121:0.0074738416 125:0.0029895366 127:0.0044843049 128:0.0059790732 129:0.0029895366 130:0.013452915 131:0.010463378 132:0.0014947683 133:0.0029895366 134:0.0089686099 135:0.0089686099 136:0.011958146 137:0.0029895366 138:0.0029895366 139:0.0044843049 140:0.0014947683 144:0.0044843049 145:0.0014947683 146:0.0014947683 148:0.02690583 149:0.0014947683 150:0.0089686099 152:0.0014947683 154:0.0044843049 155:0.0029895366 156:0.0044843049 157:0.0014947683 158:0.010463378 161:0.0044843049 163:0.010463378 164:0.0014947683 166:0.0044843049 167:0.0014947683 169:0.0059790732 171:0.0074738416 172:0.0074738416 173:0.0074738416 176:0.0014947683 178:0.0044843049 179:0.0044843049 180:0.0044843049 181:0.0029895366 182:0.0014947683 183:0.0089686099 184:0.0014947683 185:0.0044843049 186:0.014947683 187:0.0014947683 189:0.0014947683 191:0.0014947683 192:0.0029895366 194:0.0029895366 198:0.0059790732 199:0.0014947683 200:0.0059790732 201:0.010463378 202:0.0014947683 203:0.0014947683 204:0.010463378 205:0.0074738416 206:0.0014947683 209:0.0029895366 211:0.0044843049 212:0.0059790732 213:0.0029895366 216:0.0044843049 219:0.0089686099 222:0.010463378 223:0.010463378 224:0.0014947683 226:0.0029895366 227:0.0074738416 228:0.011958146 230:0.011958146 232:0.0059790732 233:0.0044843049 235:0.0059790732 236:0.010463378 237:0.0014947683 238:0.0029895366 239:0.0074738416 240:0.0029895366 241:0.0029895366 242:0.020926756 243:0.0059790732 244:0.0014947683 245:0.0029895366 246:0.0029895366 247:0.0029895366 248:0.0029895366 250:0.01793722 251:0.0074738416 253:0.0014947683 254:0.014947683 255:0.0014947683 
3.039124592846133 1:0.001242236 2:0.0074534161 4:0.002484472 5:0.002484472 7:0.001242236 8:0.022360248 9:0.002484472 10:0.002484472 13:0.001242236 15:0.013664596 16:0.032298137 17:0.0049689441 18:0.023602484 19:0.0074534161 20:0.0099378882 22:0.0037267081 27:0.011180124 28:0.001242236 30:0.002484472 32:0.002484472 33:0.001242236 34:0.002484472 35:0.0074534161 36:0.01242236 37:0.0074534161 39:0.002484472 40:0.0062111801 43:0.002484472 45:0.002484472 46:0.0062111801 47:0.01242236 48:0.0049689441 51:0.011180124 53:0.0049689441 54:0.002484472 56:0.0099378882 58:0.0086956522 59:0.0074534161 60:0.001242236 61:0.001242236 66:0.0037267081 67:0.0037267081 68:0.0086956522 69:0.001242236 70:0.002484472 71:0.001242236 73:0.0049689441 74:0.0049689441 76:0.001242236 77:0.0062111801 79:0.0049689441 80:0.0099378882 81:0.001242236 82:0.0062111801 83:0.0037267081 84:0.0099378882 85:0.002484472 86:0.001242236 88:0.001242236 90:0.0086956522 91:0.002484472 94:0.0099378882 95:0.001242236 96:0.001242236 97:0.0086956522 98:0.0037267081 99:0.001242236 100:0.0037267081 101:0.002484472 102:0.0049689441 103:0.0049689441 104:0.0037267081 105:0.01242236 106:0.002484472 107:0.0074534161 108:0.0062111801 111:0.0037267081 113:0.01242236 115:0.0062111801 116:0.0037267081 117:0.002484472 118:0.001242236 119:0.0037267081 120:0.0037267081 121:0.0062111801 122:0.01242236 123:0.002484472 127:0.001242236 128:0.001242236 129:0.0049689441 131:0.011180124 132:0.002484472 133:0.022360248 134:0.001242236 135:0.002484472 137:0.0037267081 138:0.0037267081 139:0.001242236 140:0.0049689441 141:0.0062111801 142:0.002484472 144:0.0037267081 146:0.002484472 148:0.013664596 149:0.01242236 150:0.002484472 151:0.001242236 152:0.002484472 154:0.0074534161 155:0.002484472 156:0.001242236 157:0.001242236 158:0.002484472 159:0.002484472 160:0.001242236 162:0.002484472 163:0.013664596 164:0.0062111801 165:0.001242236 167:0.002484472 169:0.0062111801 170:0.001242236 171:0.0099378882 172:0.011180124 174:0.0049689441 175:0.017391304 176:0.0062111801 177:0.0062111801 178:0.0099378882 179:0.002484472 180:0.001242236 181:0.013664596 182:0.002484472 183:0.0062111801 184:0.001242236 185:0.0037267081 186:0.0037267081 187:0.0037267081 188:0.0086956522 190:0.0037267081 191:0.0049689441 192:0.0049689441 193:0.001242236 195:0.002484472 196:0.001242236 200:0.0049689441 201:0.023602484 203:0.0086956522 204:0.0037267081 205:0.0086956522 206:0.0049689441 207:0.0037267081 208:0.001242236 210:0.001242236 211:0.002484472 212:0.0049689441 213:0.0049689441 215:0.0037267081 218:0.001242236 219:0.001242236 220:0.001242236 221:0.0049689441 222:0.001242236 223:0.013664596 224:0.001242236 225:0.0037267081 227:0.0099378882 228:0.002484472 229:0.002484472 232:0.0062111801 233:0.0086956522 235:0.001242236 237:0.001242236 238:0.002484472 239:0.0074534161 240:0.002484472 241:0.001242236 242:0.001242236 246:0.001242236 247:0.0049689441 248:0.001242236 249:0.0099378882 250:0.0086956522 251:0.016149068 253:0.0037267081 255:0.0049689441 256:0.0086956522 
1.104708722251414 2:0.0066666667 10:0.0066666667 16:0.033333333 17:0.0066666667 29:0.013333333 33:0.026666667 36:0.0066666667 37:0.0066666667 39:0.013333333 42:0.0066666667 46:0.0066666667 48:0.013333333 49:0.0066666667 50:0.0066666667 53:0.0066666667 54:0.013333333 56:0.013333333 57:0.013333333 65:0.026666667 66:0.0066666667 67:0.0066666667 68:0.026666667 74:0.0066666667 82:0.0066666667 84:0.06 95:0.013333333 103:0.0066666667 105:0.02 106:0.0066666667 110:0.0066666667 113:0.0066666667 116:0.02 119:0.0066666667 122:0.013333333 127:0.013333333 137:0.06 140:0.013333333 141:0.026666667 149:0.0066666667 151:0.0066666667 159:0.0066666667 163:0.02 165:0.0066666667 169:0.0066666667 170:0.013333333 176:0.0066666667 179:0.02 182:0.013333333 185:0.046666667 187:0.066666667 188:0.013333333 192:0.013333333 200:0.0066666667 205:0.02 206:0.0066666667 215:0.013333333 225:0.0066666667 226:0.026666667 232:0.013333333 236:0.013333333 239:0.02 241:0.013333333 246:0.0066666667 247:0.0066666667 248:0.0066666667 256:0.033333333 
1.332829386486521 2:0.0099337748 3:0.0033112583 4:0.0099337748 5:0.0033112583 10:0.013245033 11:0.0066225166 12:0.0099337748 13:0.0033112583 16:0.0099337748 18:0.0099337748 21:0.0033112583 36:0.0033112583 37:0.0033112583 39:0.0033112583 52:0.0033112583 54:0.0066225166 56:0.0033112583 58:0.026490066 60:0.0066225166 62:0.026490066 64:0.013245033 69:0.013245033 71:0.0033112583 72:0.0033112583 73:0.0033112583 75:0.0033112583 78:0.0033112583 79:0.0066225166 80:0.0033112583 81:0.0033112583 84:0.013245033 85:0.0033112583 86:0.023178808 87:0.0033112583 91:0.043046358 94:0.0066225166 95:0.0033112583 96:0.016556291 100:0.0033112583 105:0.0033112583 110:0.0099337748 111:0.0099337748 114:0.0033112583 116:0.0066225166 121:0.0066225166 127:0.0099337748 128:0.1192053 130:0.0066225166 132:0.0099337748 137:0.046357616 138:0.0033112583 140:0.0033112583 141:0.0066225166 143:0.029801325 148:0.013245033 149:0.029801325 150:0.0033112583 156:0.023178808 159:0.0033112583 160:0.0033112583 163:0.0033112583 165:0.0066225166 169:0.0099337748 173:0.0033112583 174:0.0066225166 178:0.0033112583 183:0.0033112583 187:0.0066225166 188:0.0066225166 192:0.0066225166 196:0.0066225166 198:0.013245033 199:0.0033112583 200:0.0066225166 202:0.0066225166 204:0.016556291 206:0.0099337748 207:0.0033112583 208:0.0033112583 209:0.016556291 215:0.0099337748 218:0.0099337748 220:0.033112583 224:0.0099337748 225:0.0066225166 228:0.0033112583 230:0.013245033 232:0.0066225166 237:0.016556291 239:0.01986755 246:0.0033112583 248:0.0033112583 249:0.013245033 252:0.0066225166 255:0.0033112583 256:0.0099337748 
1.311117812941077 5:0.014925373 18:0.029850746 19:0.014925373 22:0.014925373 33:0.044776119 36:0.014925373 37:0.029850746 40:0.014925373 41:0.029850746 42:0.029850746 45:0.044776119 72:0.014925373 84:0.029850746 95:0.044776119 103:0.059701493 107:0.044776119 113:0.014925373 115:0.014925373 118:0.014925373 122:0.029850746 128:0.014925373 140:0.059701493 142:0.014925373 145:0.029850746 148:0.014925373 149:0.029850746 154:0.029850746 163:0.014925373 167:0.029850746 181:0.014925373 188:0.044776119 189:0.014925373 192:0.029850746 238:0.029850746 239:0.029850746 256:0.044776119 
1.457495572669903 5:0.0048309179 6:0.043478261 7:0.014492754 8:0.0048309179 13:0.0096618357 29:0.0096618357 30:0.062801932 33:0.0048309179 35:0.0096618357 37:0.0096618357 39:0.0048309179 42:0.0048309179 45:0.0096618357 46:0.0048309179 48:0.028985507 62:0.0048309179 64:0.0048309179 67:0.0048309179 71:0.0048309179 72:0.024154589 73:0.0096618357 74:0.019323671 81:0.0048309179 82:0.0048309179 86:0.0048309179 90:0.019323671 91:0.0048309179 92:0.014492754 94:0.0096618357 95:0.0048309179 105:0.0048309179 107:0.0048309179 108:0.024154589 110:0.0096618357 116:0.0096618357 119:0.024154589 125:0.0048309179 129:0.0048309179 135:0.0096618357 137:0.0048309179 141:0.0096618357 142:0.014492754 143:0.0048309179 149:0.0048309179 154:0.014492754 156:0.014492754 159:0.0048309179 161:0.0048309179 163:0.0096618357 164:0.0096618357 171:0.0048309179 174:0.0096618357 176:0.0096618357 179:0.0048309179 182:0.0096618357 185:0.0096618357 187:0.0096618357 188:0.024154589 196:0.0048309179 200:0.0096618357 202:0.06763285 204:0.0048309179 211:0.0096618357 223:0.0048309179 224:0.033816425 225:0.019323671 229:0.0096618357 232:0.0048309179 234:0.0048309179 235:0.0096618357 236:0.014492754 237:0.028985507 239:0.028985507 241:0.0048309179 245:0.028985507 246:0.0096618357 251:0.014492754 252:0.014492754 256:0.028985507 
8.895431985887996 1:0.0012515645 3:0.0018773467 4:0.0037546934 5:0.00062578223 6:0.0037546934 7:0.0087609512 8:0.0025031289 9:0.0025031289 10:0.00062578223 12:0.0062578223 13:0.01126408 14:0.0062578223 15:0.00062578223 16:0.0012515645 17:0.0075093867 18:0.0043804756 19:0.0025031289 20:0.0012515645 21:0.0025031289 22:0.008135169 23:0.0018773467 24:0.0037546934 25:0.00062578223 26:0.0043804756 27:0.0018773467 28:0.0025031289 30:0.0050062578 31:0.00062578223 32:0.0018773467 33:0.0043804756 34:0.0012515645 35:0.0012515645 36:0.0037546934 37:0.0056320401 38:0.0025031289 39:0.0075093867 40:0.018773467 41:0.018147685 43:0.0018773467 44:0.0050062578 45:0.013767209 46:0.0062578223 47:0.0037546934 48:0.0031289111 50:0.0031289111 51:0.0056320401 52:0.0037546934 53:0.0031289111 54:0.0068836045 55:0.0062578223 56:0.008135169 57:0.01126408 58:0.0068836045 59:0.0037546934 60:0.0056320401 61:0.00062578223 62:0.008135169 63:0.0031289111 65:0.010012516 66:0.0056320401 67:0.0037546934 68:0.0018773467 69:0.0093867334 70:0.0050062578 71:0.013767209 72:0.0012515645 73:0.0050062578 74:0.008135169 75:0.0012515645 76:0.0037546934 77:0.0050062578 78:0.0043804756 79:0.0043804756 80:0.00062578223 82:0.0037546934 83:0.0012515645 84:0.010638298 85:0.0012515645 86:0.010638298 87:0.008135169 88:0.0050062578 89:0.0012515645 90:0.0025031289 91:0.0031289111 92:0.0018773467 93:0.0043804756 94:0.0056320401 95:0.0050062578 96:0.010012516 97:0.0043804756 98:0.0025031289 100:0.0056320401 101:0.0056320401 103:0.0075093867 104:0.0031289111 105:0.008135169 106:0.0043804756 107:0.013767209 108:0.0012515645 109:0.00062578223 110:0.0012515645 111:0.0050062578 112:0.0037546934 113:0.0012515645 114:0.0031289111 115:0.0037546934 116:0.0012515645 117:0.0012515645 118:0.0012515645 119:0.0037546934 120:0.0031289111 121:0.0043804756 122:0.0025031289 123:0.0012515645 124:0.0018773467 125:0.0050062578 126:0.0056320401 127:0.0031289111 128:0.0025031289 129:0.0031289111 130:0.0062578223 131:0.0056320401 132:0.00062578223 133:0.00062578223 134:0.0025031289 135:0.0093867334 136:0.0025031289 137:0.0018773467 138:0.0056320401 139:0.0056320401 140:0.0050062578 141:0.0012515645 142:0.0025031289 143:0.0025031289 145:0.0018773467 146:0.0087609512 148:0.0031289111 149:0.0025031289 150:0.0050062578 151:0.0031289111 152:0.0075093867 153:0.0012515645 154:0.0031289111 155:0.0050062578 156:0.0031289111 157:0.0025031289 158:0.0025031289 159:0.0025031289 160:0.0031289111 161:0.0031289111 162:0.0018773467 163:0.008135169 165:0.00062578223 167:0.0031289111 168:0.0018773467 169:0.0012515645 170:0.0025031289 171:0.0018773467 172:0.0018773467 174:0.0018773467 175:0.0012515645 176:0.0031289111 177:0.0012515645 178:0.0012515645 179:0.008135169 180:0.0025031289 182:0.0025031289 184:0.0018773467 185:0.0062578223 186:0.0075093867 187:0.0050062578 188:0.0012515645 189:0.0018773467 190:0.0031289111 191:0.0031289111 192:0.0037546934 193:0.0025031289 194:0.0025031289 195:0.0018773467 196:0.0050062578 197:0.0031289111 198:0.00062578223 199:0.0031289111 200:0.0068836045 201:0.0062578223 202:0.0012515645 203:0.0012515645 204:0.0031289111 205:0.008135169 206:0.0018773467 207:0.00062578223 208:0.014392991 209:0.015018773 210:0.0018773467 211:0.0018773467 212:0.0037546934 213:0.0050062578 214:0.0043804756 215:0.0050062578 216:0.0025031289 217:0.0043804756 218:0.0012515645 219:0.0050062578 220:0.0043804756 222:0.0012515645 223:0.0068836045 224:0.0050062578 225:0.0012515645 226:0.0025031289 227:0.011889862 228:0.0031289111 229:0.0050062578 230:0.0031289111 231:0.0012515645 232:0.023779725 233:0.0050062578 234:0.0031289111 235:0.0025031289 236:0.0068836045 237:0.0025031289 238:0.010012516 239:0.00062578223 240:0.0018773467 241:0.0031289111 242:0.0012515645 243:0.0062578223 244:0.0018773467 245:0.008135169 246:0.0043804756 247:0.0031289111 248:0.0031289111 249:0.00062578223 250:0.00062578223 251:0.0068836045 252:0.00062578223 253:0.0031289111 254:0.0012515645 255:0.0025031289 256:0.0031289111 
6.877595932387773 2:0.0028368794 3:0.0042553191 5:0.0042553191 6:0.0014184397 7:0.0028368794 8:0.0028368794 9:0.0056737589 10:0.0014184397 11:0.0085106383 12:0.0028368794 13:0.0014184397 15:0.0014184397 18:0.0014184397 20:0.0028368794 22:0.0085106383 23:0.0056737589 24:0.0070921986 25:0.0042553191 26:0.009929078 27:0.009929078 28:0.0014184397 29:0.0085106383 32:0.0070921986 33:0.0070921986 34:0.0056737589 35:0.014184397 38:0.0028368794 40:0.012765957 42:0.0042553191 43:0.0028368794 44:0.0056737589 45:0.0014184397 46:0.0028368794 48:0.0042553191 49:0.0042553191 50:0.012765957 51:0.0014184397 52:0.0042553191 53:0.0042553191 54:0.0028368794 55:0.0085106383 56:0.0028368794 58:0.0056737589 59:0.015602837 60:0.0028368794 61:0.0028368794 62:0.0014184397 64:0.0028368794 65:0.009929078 66:0.0028368794 67:0.0014184397 68:0.0028368794 70:0.015602837 71:0.0014184397 72:0.0070921986 73:0.012765957 74:0.0028368794 76:0.0014184397 77:0.0070921986 78:0.0014184397 79:0.0028368794 80:0.0014184397 81:0.0014184397 82:0.0014184397 83:0.009929078 84:0.0014184397 85:0.0085106383 86:0.0028368794 87:0.0042553191 88:0.012765957 90:0.0042553191 91:0.0042553191 92:0.0014184397 93:0.0014184397 95:0.0042553191 97:0.011347518 98:0.0014184397 99:0.0014184397 100:0.0014184397 101:0.0042553191 102:0.0028368794 103:0.0056737589 104:0.0028368794 105:0.0085106383 106:0.0070921986 107:0.0014184397 110:0.0042553191 111:0.0070921986 112:0.0042553191 113:0.0028368794 115:0.0042553191 116:0.0028368794 117:0.0070921986 118:0.0028368794 119:0.0070921986 120:0.0056737589 121:0.0085106383 122:0.0042553191 123:0.0028368794 124:0.0042553191 127:0.0056737589 129:0.0042553191 130:0.0056737589 132:0.0014184397 133:0.0014184397 134:0.0070921986 135:0.0056737589 136:0.0042553191 139:0.0085106383 140:0.0028368794 141:0.0028368794 142:0.0056737589 144:0.0056737589 146:0.0028368794 147:0.0028368794 148:0.0014184397 149:0.0042553191 150:0.0085106383 151:0.0056737589 152:0.0014184397 154:0.011347518 157:0.012765957 158:0.0014184397 159:0.0042553191 160:0.0028368794 161:0.0028368794 162:0.0028368794 163:0.0014184397 164:0.0028368794 165:0.0014184397 166:0.0070921986 167:0.0056737589 169:0.0028368794 170:0.0028368794 172:0.011347518 173:0.0028368794 176:0.0056737589 177:0.0028368794 178:0.0042553191 179:0.009929078 181:0.0085106383 182:0.0056737589 183:0.0056737589 185:0.019858156 186:0.0070921986 187:0.0056737589 188:0.0028368794 189:0.0070921986 190:0.0042553191 191:0.0028368794 195:0.0028368794 196:0.0028368794 200:0.0056737589 201:0.014184397 203:0.0056737589 204:0.0028368794 205:0.0070921986 206:0.0056737589 208:0.0056737589 209:0.0042553191 211:0.0014184397 212:0.009929078 213:0.0028368794 214:0.0042553191 215:0.0056737589 216:0.0056737589 218:0.0028368794 219:0.0014184397 220:0.0028368794 221:0.0028368794 222:0.0042553191 223:0.0070921986 224:0.0014184397 225:0.0014184397 226:0.0014184397 228:0.0085106383 229:0.0056737589 230:0.0070921986 231:0.0028368794 232:0.0014184397 233:0.0056737589 234:0.0014184397 235:0.011347518 236:0.0042553191 238:0.0070921986 241:0.0042553191 242:0.0056737589 243:0.0070921986 244:0.0085106383 246:0.0042553191 247:0.0042553191 248:0.0070921986 249:0.0085106383 250:0.0070921986 251:0.0056737589 252:0.0056737589 253:0.0014184397 254:0.009929078 255:0.0014184397 256:0.0070921986 
6.580144477488323 2:0.0047683924 3:0.0013623978 5:0.0027247956 6:0.00068119891 7:0.0013623978 8:0.01226158 9:0.007493188 10:0.0013623978 11:0.00068119891 12:0.0040871935 13:0.00068119891 14:0.0061307902 16:0.0027247956 17:0.015667575 18:0.013623978 20:0.010217984 22:0.0027247956 23:0.0020435967 24:0.0020435967 26:0.0047683924 27:0.0047683924 28:0.0034059946 29:0.00068119891 31:0.00068119891 32:0.0020435967 33:0.0047683924 34:0.0047683924 35:0.0047683924 37:0.0027247956 38:0.00068119891 39:0.0054495913 40:0.012942779 41:0.007493188 42:0.0054495913 43:0.007493188 44:0.0013623978 45:0.0027247956 46:0.0027247956 47:0.00068119891 48:0.0034059946 49:0.0013623978 50:0.0013623978 51:0.0068119891 52:0.0034059946 53:0.0020435967 54:0.0054495913 55:0.0040871935 56:0.0061307902 57:0.00068119891 58:0.012942779 59:0.0013623978 60:0.00068119891 61:0.0013623978 62:0.0040871935 63:0.0047683924 64:0.0034059946 65:0.0068119891 66:0.0068119891 67:0.011580381 68:0.00068119891 69:0.0027247956 70:0.0088555858 71:0.0020435967 72:0.0013623978 73:0.011580381 74:0.0013623978 75:0.0047683924 76:0.0013623978 77:0.0020435967 78:0.0013623978 79:0.0068119891 80:0.0068119891 81:0.0027247956 82:0.0027247956 83:0.016348774 84:0.010217984 85:0.0013623978 86:0.00068119891 87:0.0095367847 89:0.00068119891 90:0.0054495913 91:0.0034059946 92:0.0047683924 93:0.0027247956 94:0.0027247956 95:0.00068119891 96:0.0054495913 97:0.0013623978 98:0.00068119891 99:0.00068119891 100:0.0020435967 101:0.0040871935 102:0.0020435967 103:0.00068119891 104:0.0040871935 105:0.0054495913 106:0.0034059946 107:0.0047683924 108:0.0040871935 109:0.0027247956 110:0.0061307902 112:0.00068119891 113:0.00068119891 114:0.0040871935 115:0.0068119891 116:0.0020435967 118:0.00068119891 119:0.0054495913 120:0.0040871935 121:0.016348774 122:0.0034059946 124:0.00068119891 125:0.0020435967 126:0.0027247956 127:0.0020435967 128:0.0054495913 129:0.0013623978 130:0.013623978 131:0.0054495913 132:0.0034059946 133:0.00068119891 134:0.0040871935 135:0.0081743869 136:0.0013623978 137:0.0040871935 138:0.0027247956 139:0.0013623978 140:0.0027247956 141:0.0068119891 142:0.0034059946 143:0.0013623978 144:0.0054495913 145:0.0020435967 146:0.0061307902 148:0.011580381 149:0.011580381 150:0.01226158 151:0.0020435967 153:0.0020435967 154:0.0061307902 155:0.0088555858 156:0.0034059946 157:0.00068119891 159:0.00068119891 161:0.00068119891 162:0.0013623978 163:0.0013623978 164:0.0034059946 165:0.0027247956 166:0.0027247956 167:0.0013623978 168:0.0020435967 169:0.0020435967 170:0.0047683924 171:0.0013623978 172:0.017029973 173:0.0013623978 174:0.0027247956 176:0.0034059946 177:0.0034059946 178:0.0027247956 179:0.0027247956 180:0.0027247956 181:0.0027247956 183:0.0034059946 184:0.0020435967 185:0.0095367847 186:0.014986376 187:0.0034059946 188:0.0034059946 189:0.00068119891 190:0.0013623978 191:0.0013623978 192:0.0020435967 194:0.0020435967 195:0.0034059946 196:0.0027247956 197:0.00068119891 198:0.00068119891 199:0.0020435967 200:0.0020435967 201:0.010217984 202:0.0054495913 203:0.0013623978 204:0.014305177 205:0.010217984 206:0.0020435967 207:0.00068119891 208:0.0034059946 209:0.010217984 210:0.0020435967 211:0.00068119891 212:0.0034059946 213:0.0061307902 214:0.0013623978 215:0.0054495913 216:0.00068119891 217:0.00068119891 218:0.00068119891 219:0.0020435967 220:0.0054495913 221:0.0020435967 222:0.0068119891 223:0.0040871935 224:0.00068119891 225:0.0013623978 227:0.019073569 228:0.01226158 229:0.0020435967 230:0.010899183 231:0.0020435967 232:0.0068119891 233:0.00068119891 234:0.00068119891 235:0.011580381 236:0.0040871935 237:0.0040871935 238:0.0081743869 239:0.0054495913 240:0.0020435967 241:0.0027247956 242:0.010217984 243:0.0054495913 244:0.00068119891 246:0.00068119891 247:0.010899183 248:0.0061307902 249:0.0054495913 250:0.011580381 251:0.0061307902 252:0.0020435967 253:0.0027247956 254:0.0040871935 255:0.0020435967 256:0.0034059946 
1.310083438368098 6:0.074074074 16:0.018518519 18:0.018518519 30:0.055555556 32:0.018518519 67:0.018518519 70:0.018518519 84:0.11111111 87:0.037037037 94:0.018518519 110:0.074074074 114:0.018518519 138:0.037037037 149:0.037037037 152:0.037037037 154:0.037037037 163:0.037037037 185:0.037037037 187:0.055555556 206:0.018518519 222:0.055555556 225:0.018518519 229:0.018518519 230:0.074074074 232:0.037037037 242:0.018518519 
3.400606226699303 1:0.0026333114 2:0.011849901 3:0.0026333114 4:0.00065832785 5:0.0019749835 7:0.0052666228 8:0.031599737 9:0.0059249506 10:0.0019749835 11:0.0026333114 12:0.0052666228 13:0.015799868 14:0.00065832785 15:0.00065832785 16:0.0072416063 18:0.0059249506 19:0.0013166557 20:0.0039499671 21:0.0013166557 22:0.00065832785 24:0.0026333114 25:0.0032916392 26:0.00065832785 28:0.0065832785 30:0.0013166557 31:0.00065832785 32:0.0019749835 33:0.0052666228 34:0.0032916392 35:0.0019749835 36:0.00065832785 37:0.0032916392 38:0.0059249506 39:0.0092165899 40:0.0039499671 42:0.00065832785 43:0.00065832785 44:0.00065832785 45:0.0039499671 46:0.0032916392 48:0.023041475 49:0.00065832785 50:0.00065832785 51:0.0052666228 52:0.0059249506 53:0.0065832785 54:0.0039499671 56:0.013824885 57:0.008558262 58:0.008558262 59:0.00065832785 60:0.0039499671 61:0.0072416063 62:0.0019749835 63:0.00065832785 64:0.0026333114 65:0.0019749835 66:0.0026333114 67:0.0046082949 68:0.0059249506 69:0.00065832785 72:0.0032916392 73:0.00065832785 74:0.0019749835 75:0.0072416063 76:0.0019749835 77:0.011191573 78:0.0019749835 79:0.0026333114 80:0.0092165899 81:0.0019749835 82:0.0046082949 83:0.01514154 84:0.0019749835 85:0.0059249506 86:0.00065832785 87:0.01843318 88:0.0032916392 89:0.008558262 91:0.0032916392 92:0.00065832785 93:0.0026333114 94:0.0059249506 95:0.0065832785 96:0.0026333114 97:0.0046082949 98:0.00065832785 99:0.0026333114 101:0.0013166557 102:0.0072416063 103:0.0059249506 104:0.0013166557 105:0.0026333114 106:0.0013166557 107:0.0026333114 108:0.0032916392 110:0.0013166557 111:0.0059249506 112:0.0013166557 113:0.0078999342 114:0.0019749835 115:0.0046082949 116:0.00065832785 117:0.0013166557 118:0.0013166557 119:0.0032916392 120:0.0013166557 121:0.0078999342 122:0.0013166557 123:0.0013166557 124:0.0032916392 125:0.0019749835 126:0.0013166557 127:0.0046082949 128:0.0013166557 129:0.00065832785 130:0.0032916392 131:0.011191573 132:0.0019749835 133:0.00065832785 134:0.0019749835 135:0.0026333114 136:0.0026333114 137:0.013824885 138:0.0039499671 139:0.0013166557 140:0.0065832785 141:0.0013166557 142:0.0019749835 143:0.0013166557 144:0.0013166557 145:0.00065832785 146:0.0019749835 147:0.0032916392 148:0.0072416063 149:0.0065832785 150:0.019091508 151:0.0032916392 152:0.00065832785 153:0.00065832785 154:0.017116524 155:0.0039499671 156:0.00065832785 157:0.0019749835 158:0.0026333114 159:0.0013166557 160:0.0046082949 161:0.0032916392 163:0.02435813 164:0.00065832785 165:0.0059249506 166:0.00065832785 167:0.0098749177 168:0.0013166557 169:0.0065832785 170:0.0026333114 171:0.0032916392 172:0.0032916392 173:0.00065832785 174:0.0013166557 176:0.0026333114 178:0.0065832785 180:0.0019749835 181:0.02435813 182:0.00065832785 183:0.0026333114 184:0.0013166557 186:0.00065832785 187:0.0032916392 188:0.0019749835 189:0.00065832785 190:0.0019749835 191:0.0072416063 192:0.0019749835 193:0.008558262 194:0.0013166557 195:0.0032916392 196:0.0019749835 198:0.0013166557 199:0.0032916392 200:0.0039499671 201:0.013824885 202:0.0039499671 203:0.0013166557 204:0.019749835 205:0.00065832785 208:0.0026333114 209:0.0013166557 210:0.0039499671 211:0.0026333114 212:0.008558262 213:0.0032916392 214:0.00065832785 215:0.0065832785 216:0.0046082949 217:0.0065832785 218:0.0019749835 219:0.0052666228 220:0.0026333114 222:0.0019749835 223:0.0039499671 224:0.0013166557 226:0.0046082949 227:0.0019749835 228:0.011849901 229:0.0013166557 230:0.025674786 232:0.0059249506 233:0.0026333114 235:0.0059249506 236:0.0032916392 237:0.0032916392 238:0.0026333114 239:0.0039499671 240:0.0019749835 241:0.011191573 242:0.0065832785 243:0.0046082949 244:0.0019749835 246:0.0039499671 247:0.0032916392 248:0.0026333114 249:0.012508229 250:0.0019749835 251:0.0013166557 253:0.0059249506 255:0.0013166557 256:0.0026333114 
1.636900019211936 2:0.0064724919 3:0.0048543689 5:0.0064724919 7:0.0048543689 8:0.001618123 9:0.025889968 10:0.003236246 12:0.001618123 13:0.0080906149 15:0.001618123 16:0.003236246 18:0.017799353 20:0.0048543689 29:0.003236246 30:0.003236246 33:0.011326861 34:0.0048543689 35:0.0048543689 37:0.003236246 39:0.001618123 40:0.0080906149 43:0.011326861 44:0.0048543689 46:0.001618123 48:0.037216828 50:0.001618123 51:0.001618123 52:0.003236246 53:0.0080906149 54:0.0064724919 57:0.003236246 58:0.003236246 60:0.0048543689 61:0.001618123 62:0.017799353 63:0.001618123 64:0.0048543689 65:0.003236246 66:0.0048543689 67:0.037216828 70:0.017799353 74:0.001618123 77:0.01618123 78:0.001618123 79:0.017799353 80:0.001618123 82:0.011326861 83:0.003236246 84:0.0080906149 86:0.003236246 87:0.0064724919 90:0.001618123 91:0.001618123 92:0.0064724919 94:0.003236246 95:0.0048543689 96:0.001618123 98:0.003236246 101:0.003236246 102:0.003236246 105:0.001618123 107:0.001618123 108:0.001618123 110:0.003236246 112:0.001618123 113:0.0064724919 114:0.001618123 115:0.0048543689 119:0.0080906149 120:0.003236246 121:0.024271845 125:0.0064724919 130:0.027508091 131:0.003236246 132:0.001618123 133:0.003236246 134:0.001618123 135:0.0048543689 137:0.0064724919 138:0.0064724919 139:0.001618123 140:0.0080906149 141:0.0048543689 142:0.0048543689 143:0.003236246 144:0.0048543689 146:0.003236246 148:0.003236246 149:0.0048543689 150:0.003236246 151:0.003236246 152:0.001618123 153:0.001618123 154:0.012944984 155:0.012944984 156:0.0048543689 157:0.003236246 161:0.012944984 163:0.0064724919 164:0.0064724919 165:0.001618123 167:0.019417476 169:0.0064724919 170:0.001618123 171:0.001618123 172:0.01618123 174:0.0064724919 175:0.001618123 178:0.003236246 179:0.003236246 180:0.003236246 181:0.0048543689 182:0.001618123 183:0.012944984 185:0.001618123 186:0.012944984 187:0.001618123 188:0.0064724919 191:0.003236246 192:0.003236246 193:0.001618123 199:0.017799353 200:0.001618123 201:0.003236246 203:0.0097087379 205:0.001618123 206:0.0048543689 209:0.001618123 211:0.001618123 212:0.0048543689 213:0.0048543689 215:0.001618123 219:0.0064724919 222:0.0097087379 223:0.0080906149 225:0.0048543689 226:0.001618123 228:0.0064724919 229:0.0097087379 230:0.021035599 232:0.003236246 233:0.001618123 235:0.0064724919 236:0.012944984 239:0.001618123 241:0.038834951 242:0.017799353 243:0.012944984 247:0.001618123 248:0.0080906149 249:0.003236246 251:0.012944984 253:0.003236246 256:0.003236246 
8.667412560296036 1:0.0022805017 2:0.003990878 3:0.0028506271 5:0.0028506271 6:0.0017103763 7:0.0045610034 8:0.0017103763 9:0.0074116306 10:0.007981756 12:0.019384265 13:0.01368301 14:0.0022805017 15:0.0028506271 16:0.0045610034 17:0.00057012543 18:0.0034207526 19:0.0017103763 20:0.018244014 21:0.0017103763 22:0.0017103763 25:0.00057012543 27:0.0034207526 28:0.0051311288 30:0.011402509 31:0.0017103763 32:0.0045610034 33:0.0022805017 34:0.0034207526 35:0.00057012543 36:0.003990878 37:0.0045610034 38:0.0017103763 39:0.007981756 40:0.00057012543 41:0.003990878 42:0.0057012543 43:0.0068415051 44:0.00057012543 45:0.003990878 46:0.0045610034 47:0.0034207526 48:0.0068415051 49:0.0028506271 50:0.0011402509 51:0.0028506271 52:0.010832383 53:0.0022805017 54:0.014253136 55:0.0011402509 56:0.0062713797 57:0.0074116306 58:0.0022805017 60:0.0096921323 61:0.0028506271 62:0.0057012543 63:0.0022805017 64:0.0028506271 65:0.0068415051 66:0.0034207526 67:0.007981756 68:0.0057012543 69:0.00057012543 70:0.007981756 71:0.0011402509 73:0.0022805017 74:0.0011402509 75:0.0011402509 76:0.00057012543 77:0.01995439 78:0.0017103763 79:0.010262258 80:0.0091220068 81:0.0034207526 82:0.0051311288 83:0.0074116306 84:0.0068415051 85:0.0022805017 86:0.003990878 87:0.0045610034 88:0.0034207526 89:0.00057012543 90:0.0062713797 91:0.0074116306 92:0.0011402509 93:0.0017103763 94:0.0068415051 95:0.011402509 96:0.0068415051 97:0.0011402509 100:0.0011402509 101:0.0045610034 103:0.0045610034 104:0.0022805017 105:0.0017103763 106:0.0022805017 107:0.003990878 108:0.00057012543 110:0.016533637 111:0.0028506271 112:0.0028506271 113:0.0096921323 114:0.0062713797 115:0.0051311288 116:0.0028506271 117:0.0022805017 118:0.0017103763 119:0.0062713797 120:0.0028506271 121:0.0074116306 122:0.0028506271 123:0.00057012543 125:0.0091220068 126:0.0011402509 127:0.00057012543 128:0.0028506271 129:0.00057012543 130:0.0068415051 131:0.0045610034 132:0.00057012543 133:0.0028506271 134:0.0017103763 135:0.0028506271 136:0.0051311288 137:0.010262258 138:0.0074116306 139:0.00057012543 140:0.0022805017 141:0.0011402509 142:0.00057012543 143:0.0074116306 144:0.003990878 145:0.0011402509 146:0.0028506271 147:0.0011402509 148:0.0091220068 149:0.0057012543 150:0.0068415051 151:0.0068415051 152:0.003990878 153:0.003990878 154:0.0045610034 155:0.0045610034 156:0.0028506271 157:0.0011402509 158:0.0017103763 159:0.00057012543 160:0.0068415051 161:0.0051311288 162:0.0022805017 163:0.0057012543 164:0.0017103763 165:0.0062713797 166:0.00057012543 167:0.0022805017 169:0.0045610034 170:0.0068415051 171:0.0011402509 172:0.0034207526 173:0.00057012543 174:0.0045610034 175:0.0022805017 176:0.00057012543 177:0.0034207526 178:0.013112885 179:0.0017103763 180:0.0022805017 181:0.00057012543 182:0.0017103763 183:0.010832383 185:0.0022805017 186:0.0057012543 187:0.0096921323 188:0.0022805017 189:0.0011402509 190:0.00057012543 191:0.0011402509 192:0.0017103763 193:0.00057012543 195:0.00057012543 198:0.0022805017 199:0.01368301 200:0.01368301 202:0.0028506271 203:0.003990878 204:0.0074116306 205:0.0034207526 206:0.00057012543 208:0.0045610034 209:0.0034207526 211:0.0011402509 212:0.0068415051 213:0.0034207526 214:0.0022805017 215:0.003990878 216:0.0022805017 217:0.00057012543 218:0.00057012543 219:0.022234892 220:0.0034207526 222:0.003990878 223:0.0051311288 224:0.00057012543 225:0.003990878 227:0.00057012543 228:0.003990878 230:0.003990878 232:0.0051311288 233:0.0017103763 235:0.0045610034 236:0.0068415051 237:0.0085518814 238:0.0022805017 239:0.0051311288 240:0.0011402509 241:0.015963512 242:0.0034207526 243:0.0034207526 244:0.0011402509 245:0.0017103763 246:0.0051311288 248:0.0062713797 249:0.010832383 251:0.015963512 252:0.0011402509 253:0.0051311288 254:0.0011402509 255:0.00057012543 256:0.0051311288 
2.728826046239631 2:0.0050377834 3:0.0012594458 5:0.0062972292 9:0.0075566751 11:0.0012594458 13:0.0025188917 14:0.0050377834 16:0.013853904 17:0.0012594458 18:0.0075566751 19:0.0012594458 20:0.0062972292 21:0.0050377834 22:0.017632242 23:0.0025188917 24:0.0062972292 25:0.0025188917 26:0.0050377834 27:0.0075566751 30:0.010075567 31:0.0037783375 32:0.0012594458 34:0.0025188917 36:0.0012594458 37:0.011335013 38:0.0012594458 39:0.0050377834 40:0.0075566751 41:0.0037783375 42:0.0050377834 43:0.0037783375 45:0.0062972292 48:0.0037783375 51:0.0075566751 53:0.0062972292 54:0.0050377834 55:0.017632242 56:0.010075567 57:0.012594458 58:0.0075566751 59:0.017632242 60:0.0025188917 61:0.0025188917 62:0.0037783375 63:0.0025188917 65:0.0050377834 66:0.0062972292 67:0.0037783375 69:0.0012594458 70:0.012594458 71:0.0012594458 72:0.0012594458 73:0.0037783375 74:0.0037783375 75:0.012594458 77:0.0037783375 79:0.0037783375 80:0.0037783375 81:0.0025188917 82:0.0012594458 83:0.010075567 84:0.0012594458 85:0.0075566751 90:0.016372796 91:0.0037783375 92:0.0012594458 94:0.0012594458 95:0.0037783375 96:0.012594458 97:0.011335013 100:0.0012594458 102:0.0050377834 103:0.0025188917 104:0.0037783375 105:0.0088161209 106:0.0037783375 109:0.0012594458 111:0.0012594458 112:0.0012594458 113:0.0025188917 114:0.0012594458 115:0.0012594458 116:0.0012594458 117:0.0025188917 118:0.0037783375 119:0.0050377834 120:0.0025188917 121:0.0050377834 122:0.0012594458 123:0.0025188917 124:0.0037783375 125:0.0012594458 127:0.0025188917 128:0.0075566751 129:0.0025188917 130:0.0050377834 131:0.0050377834 132:0.0025188917 134:0.0012594458 135:0.0062972292 136:0.0037783375 137:0.0037783375 139:0.012594458 140:0.0012594458 142:0.0025188917 143:0.0012594458 146:0.0050377834 147:0.0012594458 148:0.0012594458 150:0.0012594458 151:0.0025188917 152:0.01511335 154:0.0012594458 155:0.010075567 156:0.0025188917 157:0.0050377834 158:0.0025188917 161:0.0062972292 162:0.0012594458 163:0.0012594458 165:0.0025188917 166:0.0012594458 167:0.0025188917 168:0.0012594458 169:0.0012594458 171:0.0012594458 172:0.0025188917 173:0.0012594458 174:0.013853904 175:0.0088161209 176:0.0012594458 178:0.010075567 180:0.0062972292 181:0.0012594458 182:0.010075567 183:0.0025188917 184:0.0050377834 185:0.022670025 186:0.011335013 187:0.0037783375 190:0.0050377834 191:0.0012594458 193:0.0012594458 195:0.0050377834 197:0.0012594458 198:0.0025188917 199:0.0050377834 201:0.0062972292 202:0.0037783375 203:0.0025188917 204:0.010075567 205:0.0025188917 206:0.027707809 207:0.0037783375 208:0.0012594458 209:0.0037783375 211:0.0050377834 212:0.0050377834 213:0.0037783375 214:0.0025188917 215:0.0062972292 216:0.0050377834 218:0.0025188917 219:0.0050377834 220:0.0012594458 221:0.0050377834 222:0.021410579 223:0.011335013 224:0.0037783375 225:0.0012594458 227:0.0012594458 228:0.011335013 229:0.0088161209 230:0.0050377834 231:0.0012594458 232:0.0050377834 235:0.016372796 236:0.0075566751 237:0.0012594458 238:0.0025188917 241:0.012594458 242:0.011335013 243:0.0025188917 244:0.0012594458 246:0.0025188917 247:0.0050377834 248:0.013853904 249:0.0075566751 250:0.0037783375 251:0.013853904 253:0.0062972292 254:0.0025188917 256:0.0012594458 
4.210031526211284 1:0.0016977929 2:0.0016977929 3:0.0016977929 5:0.020373514 9:0.010186757 10:0.0050933786 12:0.0067911715 13:0.0033955857 14:0.0067911715 16:0.010186757 17:0.0033955857 18:0.022071307 20:0.0084889643 28:0.01188455 30:0.0033955857 31:0.0033955857 32:0.020373514 33:0.0016977929 35:0.0016977929 41:0.0067911715 42:0.0050933786 43:0.0084889643 45:0.016977929 46:0.0016977929 49:0.0050933786 51:0.0033955857 53:0.015280136 54:0.010186757 55:0.0016977929 56:0.013582343 57:0.0033955857 58:0.013582343 59:0.0033955857 60:0.0067911715 61:0.0067911715 63:0.0016977929 64:0.0033955857 65:0.0016977929 67:0.0067911715 68:0.0033955857 70:0.0033955857 73:0.0084889643 74:0.0033955857 75:0.0016977929 77:0.0016977929 79:0.0033955857 80:0.013582343 81:0.0016977929 83:0.0016977929 84:0.0067911715 85:0.010186757 86:0.0016977929 87:0.010186757 88:0.0050933786 89:0.0016977929 90:0.0067911715 92:0.0016977929 93:0.0016977929 96:0.0016977929 97:0.0016977929 102:0.0084889643 103:0.0067911715 104:0.0050933786 105:0.0067911715 106:0.0033955857 107:0.0067911715 108:0.0016977929 110:0.0067911715 111:0.0033955857 112:0.0033955857 113:0.0237691 114:0.0016977929 115:0.010186757 116:0.01188455 117:0.0016977929 118:0.0033955857 119:0.0084889643 120:0.0016977929 121:0.032258065 122:0.0033955857 123:0.0050933786 128:0.0050933786 129:0.0016977929 130:0.0067911715 131:0.0067911715 132:0.0016977929 134:0.010186757 135:0.0067911715 136:0.0084889643 137:0.0067911715 138:0.0016977929 140:0.0067911715 142:0.0050933786 144:0.0084889643 146:0.0016977929 148:0.010186757 149:0.018675722 153:0.0067911715 154:0.0016977929 155:0.0050933786 156:0.016977929 158:0.0016977929 159:0.0016977929 160:0.0033955857 161:0.0016977929 162:0.0016977929 163:0.013582343 165:0.0050933786 166:0.0050933786 167:0.0016977929 169:0.0067911715 170:0.0033955857 171:0.0016977929 172:0.0084889643 174:0.0050933786 176:0.0033955857 179:0.0050933786 180:0.0067911715 181:0.0016977929 183:0.0050933786 184:0.0016977929 185:0.0016977929 186:0.010186757 187:0.0016977929 188:0.0067911715 189:0.0016977929 190:0.0033955857 191:0.0050933786 193:0.0033955857 195:0.0016977929 198:0.013582343 199:0.0084889643 202:0.0016977929 203:0.0033955857 204:0.0084889643 206:0.0033955857 208:0.0033955857 209:0.0050933786 211:0.0050933786 212:0.0033955857 213:0.01188455 215:0.0050933786 216:0.0016977929 217:0.0016977929 218:0.0033955857 219:0.0050933786 221:0.0016977929 222:0.0033955857 223:0.0084889643 224:0.0050933786 226:0.0016977929 227:0.0050933786 228:0.0050933786 229:0.0050933786 230:0.0067911715 232:0.0033955857 235:0.0050933786 237:0.0016977929 238:0.010186757 239:0.0084889643 240:0.010186757 241:0.0084889643 242:0.0050933786 243:0.0033955857 247:0.0033955857 248:0.0016977929 249:0.0067911715 250:0.0033955857 251:0.0033955857 252:0.0084889643 256:0.0033955857 
0.9585462582449913 2:0.031578947 5:0.0078947368 8:0.013157895 9:0.0078947368 10:0.0026315789 16:0.015789474 18:0.057894737 20:0.0052631579 31:0.0026315789 35:0.0078947368 48:0.052631579 50:0.0026315789 54:0.026315789 55:0.0026315789 57:0.0026315789 58:0.021052632 67:0.013157895 70:0.0078947368 73:0.0078947368 80:0.0026315789 82:0.0078947368 83:0.028947368 84:0.0052631579 87:0.010526316 96:0.0026315789 101:0.0026315789 106:0.0026315789 110:0.0026315789 113:0.0052631579 115:0.013157895 119:0.0078947368 121:0.047368421 127:0.0052631579 130:0.034210526 131:0.0026315789 137:0.021052632 141:0.0052631579 142:0.0052631579 143:0.0026315789 148:0.010526316 149:0.021052632 150:0.010526316 151:0.018421053 155:0.0026315789 157:0.0026315789 160:0.0026315789 163:0.0026315789 166:0.0026315789 167:0.0026315789 170:0.0026315789 172:0.052631579 180:0.0078947368 181:0.0052631579 183:0.010526316 186:0.015789474 187:0.010526316 188:0.010526316 191:0.0026315789 199:0.0026315789 201:0.026315789 206:0.0026315789 208:0.0052631579 211:0.0052631579 212:0.0026315789 213:0.0026315789 218:0.0026315789 222:0.013157895 227:0.0026315789 228:0.060526316 230:0.013157895 232:0.0026315789 236:0.0078947368 238:0.0026315789 239:0.013157895 241:0.068421053 242:0.015789474 246:0.015789474 248:0.010526316 249:0.0078947368 250:0.013157895 256:0.0026315789 
1.888258626975564 1:0.0017035775 3:0.003407155 4:0.0017035775 5:0.003407155 7:0.0085178876 8:0.025553663 9:0.010221465 10:0.0017035775 13:0.011925043 16:0.011925043 18:0.017035775 20:0.0051107325 22:0.0017035775 23:0.003407155 27:0.025553663 29:0.0017035775 33:0.0017035775 34:0.003407155 35:0.003407155 36:0.0017035775 37:0.0051107325 40:0.0017035775 42:0.0017035775 43:0.0085178876 44:0.0017035775 48:0.0085178876 52:0.01362862 53:0.0085178876 54:0.0017035775 56:0.0085178876 58:0.028960818 59:0.003407155 60:0.003407155 62:0.010221465 63:0.0068143101 65:0.0068143101 66:0.0017035775 67:0.017035775 68:0.0017035775 70:0.0068143101 72:0.0017035775 73:0.0051107325 75:0.003407155 79:0.010221465 80:0.0085178876 81:0.0017035775 82:0.003407155 83:0.04088586 84:0.0068143101 86:0.0017035775 87:0.010221465 88:0.0017035775 89:0.003407155 90:0.003407155 91:0.0051107325 92:0.0017035775 95:0.0051107325 96:0.0017035775 97:0.0051107325 99:0.0051107325 100:0.0017035775 101:0.0017035775 103:0.0017035775 104:0.010221465 105:0.003407155 106:0.0051107325 107:0.003407155 112:0.0017035775 113:0.0051107325 115:0.0051107325 116:0.0017035775 117:0.0017035775 119:0.0051107325 120:0.0051107325 121:0.01362862 124:0.003407155 125:0.0017035775 126:0.003407155 127:0.0017035775 130:0.0085178876 131:0.018739353 134:0.022146508 135:0.0085178876 136:0.003407155 137:0.0051107325 138:0.0017035775 142:0.0051107325 144:0.003407155 148:0.003407155 149:0.0051107325 150:0.011925043 154:0.0051107325 155:0.003407155 161:0.0017035775 162:0.0017035775 163:0.010221465 166:0.0051107325 167:0.0017035775 169:0.0017035775 172:0.0051107325 178:0.0051107325 179:0.0017035775 181:0.0051107325 182:0.0068143101 184:0.0017035775 185:0.0085178876 186:0.003407155 187:0.003407155 188:0.0017035775 190:0.010221465 199:0.0017035775 200:0.003407155 201:0.028960818 203:0.0017035775 204:0.0068143101 206:0.0085178876 209:0.0051107325 211:0.0017035775 212:0.003407155 213:0.0085178876 217:0.015332198 219:0.003407155 220:0.003407155 222:0.01362862 223:0.003407155 228:0.071550256 230:0.017035775 232:0.0017035775 233:0.003407155 234:0.0017035775 235:0.003407155 236:0.0017035775 238:0.003407155 239:0.0017035775 240:0.0017035775 241:0.0017035775 242:0.02725724 243:0.0051107325 246:0.003407155 247:0.0017035775 248:0.015332198 249:0.015332198 250:0.010221465 251:0.02044293 253:0.0051107325 256:0.003407155 
0.9303548017339786 2:0.021428571 3:0.0023809524 5:0.0047619048 7:0.0023809524 8:0.0047619048 9:0.0023809524 10:0.0047619048 12:0.0023809524 13:0.0023809524 16:0.028571429 18:0.023809524 19:0.0023809524 33:0.0023809524 39:0.0023809524 41:0.0023809524 42:0.0023809524 44:0.0023809524 45:0.0047619048 48:0.014285714 51:0.0095238095 53:0.0023809524 54:0.023809524 55:0.0023809524 58:0.0095238095 60:0.0047619048 67:0.014285714 68:0.0023809524 70:0.011904762 73:0.011904762 77:0.0071428571 80:0.0095238095 82:0.014285714 83:0.038095238 84:0.0023809524 85:0.014285714 86:0.0047619048 87:0.019047619 88:0.021428571 95:0.0023809524 97:0.0023809524 102:0.0023809524 104:0.014285714 107:0.019047619 113:0.0047619048 115:0.0071428571 116:0.0023809524 119:0.0071428571 121:0.047619048 130:0.052380952 131:0.0023809524 137:0.0047619048 140:0.0095238095 141:0.0023809524 144:0.0071428571 148:0.011904762 149:0.023809524 154:0.0023809524 155:0.0095238095 156:0.0047619048 161:0.0047619048 163:0.0023809524 166:0.0047619048 170:0.0047619048 172:0.026190476 174:0.014285714 178:0.0023809524 181:0.014285714 182:0.0023809524 183:0.0047619048 186:0.011904762 187:0.011904762 188:0.0023809524 191:0.0023809524 201:0.042857143 203:0.0023809524 204:0.0095238095 205:0.0071428571 213:0.0023809524 219:0.0047619048 222:0.0023809524 223:0.023809524 228:0.052380952 230:0.052380952 232:0.0023809524 235:0.0047619048 237:0.0047619048 239:0.0023809524 240:0.0071428571 241:0.038095238 242:0.0095238095 246:0.0023809524 248:0.0071428571 250:0.011904762 254:0.0023809524 
1.121882747205518 2:0.010438413 3:0.0020876827 4:0.0020876827 5:0.0020876827 7:0.006263048 8:0.012526096 9:0.0041753653 10:0.0020876827 13:0.022964509 14:0.0020876827 15:0.0083507307 16:0.029227557 17:0.006263048 18:0.014613779 20:0.0041753653 22:0.006263048 24:0.0020876827 29:0.0041753653 33:0.0020876827 34:0.0020876827 35:0.0083507307 39:0.006263048 41:0.006263048 42:0.0020876827 43:0.0020876827 45:0.0020876827 48:0.010438413 49:0.0041753653 51:0.0041753653 52:0.0020876827 53:0.0020876827 54:0.0041753653 56:0.006263048 57:0.014613779 58:0.006263048 59:0.0083507307 62:0.0020876827 65:0.0020876827 67:0.039665971 70:0.016701461 71:0.0020876827 72:0.0083507307 73:0.0083507307 74:0.0041753653 79:0.020876827 80:0.0020876827 82:0.012526096 83:0.010438413 85:0.0020876827 86:0.0020876827 87:0.014613779 88:0.006263048 90:0.020876827 91:0.012526096 94:0.0020876827 95:0.0041753653 96:0.0041753653 98:0.0083507307 99:0.0020876827 104:0.0041753653 105:0.012526096 110:0.010438413 111:0.010438413 113:0.0041753653 115:0.0020876827 116:0.0020876827 119:0.0020876827 120:0.006263048 121:0.0083507307 122:0.0083507307 125:0.0020876827 127:0.0020876827 128:0.006263048 129:0.0020876827 130:0.0020876827 132:0.0020876827 133:0.0041753653 135:0.0020876827 136:0.0020876827 137:0.006263048 138:0.0020876827 140:0.0020876827 141:0.006263048 142:0.0041753653 143:0.010438413 146:0.0020876827 148:0.012526096 149:0.016701461 150:0.010438413 154:0.0083507307 156:0.0083507307 159:0.0020876827 160:0.0020876827 161:0.010438413 163:0.0083507307 164:0.0041753653 169:0.0041753653 170:0.0041753653 171:0.0020876827 172:0.027139875 174:0.0020876827 175:0.0041753653 176:0.0020876827 178:0.0020876827 181:0.0020876827 182:0.0083507307 183:0.0041753653 184:0.0020876827 185:0.0020876827 186:0.016701461 187:0.0083507307 188:0.0041753653 191:0.0041753653 199:0.006263048 200:0.0083507307 201:0.010438413 203:0.0083507307 204:0.010438413 205:0.0083507307 206:0.0041753653 209:0.0020876827 212:0.0083507307 213:0.0041753653 215:0.0020876827 219:0.0083507307 221:0.0020876827 222:0.010438413 225:0.0083507307 228:0.014613779 229:0.0041753653 230:0.010438413 232:0.0020876827 236:0.010438413 237:0.0020876827 238:0.0020876827 239:0.018789144 240:0.0020876827 241:0.0083507307 242:0.006263048 244:0.0020876827 246:0.0020876827 247:0.0020876827 248:0.0041753653 249:0.010438413 250:0.006263048 251:0.022964509 253:0.0041753653 256:0.0041753653 
3.49953206643108 2:0.024338624 5:0.0052910053 6:0.0021164021 7:0.0010582011 8:0.0031746032 9:0.0095238095 10:0.0021164021 11:0.0010582011 12:0.017989418 13:0.0010582011 16:0.0095238095 17:0.0010582011 18:0.035978836 19:0.0010582011 20:0.0074074074 22:0.0063492063 24:0.0021164021 26:0.0031746032 27:0.0031746032 28:0.0010582011 30:0.0042328042 33:0.0010582011 35:0.0031746032 37:0.0010582011 38:0.0021164021 39:0.0063492063 40:0.0031746032 42:0.0010582011 43:0.0021164021 45:0.0010582011 46:0.0052910053 47:0.0010582011 48:0.012698413 50:0.0010582011 52:0.0052910053 53:0.0042328042 54:0.0084656085 55:0.0010582011 56:0.0052910053 57:0.0095238095 58:0.024338624 59:0.0021164021 61:0.0063492063 62:0.0084656085 65:0.0074074074 66:0.0010582011 67:0.0095238095 70:0.0074074074 71:0.0010582011 73:0.0052910053 76:0.0074074074 77:0.0021164021 79:0.0095238095 80:0.0010582011 82:0.0031746032 83:0.015873016 84:0.0010582011 85:0.0021164021 87:0.016931217 88:0.0031746032 89:0.0031746032 90:0.0021164021 91:0.010582011 94:0.0031746032 95:0.0074074074 96:0.0042328042 97:0.0031746032 98:0.0010582011 99:0.0031746032 102:0.0021164021 103:0.0052910053 104:0.0063492063 105:0.0042328042 106:0.0031746032 107:0.0010582011 110:0.0042328042 113:0.0021164021 114:0.0010582011 115:0.0052910053 116:0.0042328042 118:0.0010582011 119:0.0042328042 120:0.0084656085 121:0.019047619 123:0.0010582011 124:0.0021164021 125:0.0084656085 126:0.0031746032 127:0.0031746032 128:0.010582011 130:0.034920635 131:0.0031746032 132:0.0010582011 133:0.0031746032 134:0.0042328042 135:0.0042328042 136:0.0095238095 137:0.0052910053 138:0.011640212 139:0.0021164021 140:0.0010582011 142:0.0010582011 143:0.0021164021 144:0.0021164021 145:0.0021164021 148:0.0095238095 149:0.0063492063 150:0.0042328042 151:0.0042328042 152:0.0042328042 154:0.0010582011 155:0.0063492063 156:0.0010582011 157:0.0074074074 160:0.0042328042 161:0.0042328042 163:0.0074074074 166:0.0010582011 167:0.0031746032 169:0.0021164021 170:0.0042328042 172:0.045502646 173:0.0010582011 174:0.0084656085 176:0.0010582011 178:0.0095238095 180:0.0031746032 181:0.0074074074 183:0.0095238095 185:0.0042328042 186:0.0084656085 187:0.0021164021 188:0.0021164021 190:0.0010582011 191:0.0031746032 199:0.0063492063 200:0.0042328042 201:0.0095238095 203:0.0021164021 204:0.0052910053 205:0.0021164021 206:0.0010582011 207:0.0010582011 209:0.0010582011 210:0.0031746032 211:0.0010582011 212:0.0063492063 213:0.0010582011 214:0.0042328042 216:0.0021164021 217:0.0063492063 219:0.0042328042 220:0.0074074074 222:0.0084656085 223:0.0063492063 225:0.0010582011 227:0.0010582011 228:0.025396825 229:0.0010582011 230:0.0084656085 232:0.0010582011 233:0.0021164021 234:0.0010582011 235:0.0031746032 236:0.0052910053 237:0.0010582011 238:0.0021164021 239:0.0052910053 240:0.0042328042 241:0.016931217 242:0.012698413 243:0.0021164021 245:0.011640212 248:0.010582011 249:0.0052910053 250:0.019047619 251:0.012698413 252:0.0010582011 253:0.0031746032 256:0.0010582011 
1.179576886978212 3:0.012552301 4:0.0041841004 9:0.0083682008 13:0.020920502 16:0.0041841004 18:0.012552301 21:0.0041841004 27:0.0041841004 29:0.0041841004 31:0.0041841004 33:0.046025105 34:0.0041841004 37:0.020920502 39:0.0041841004 40:0.012552301 43:0.0083682008 45:0.012552301 53:0.0041841004 62:0.012552301 65:0.012552301 66:0.0041841004 70:0.0041841004 73:0.0041841004 74:0.037656904 82:0.0041841004 84:0.041841004 86:0.020920502 90:0.0041841004 91:0.0083682008 92:0.0041841004 95:0.0041841004 97:0.0041841004 101:0.012552301 103:0.025104603 107:0.0083682008 108:0.0041841004 110:0.016736402 111:0.012552301 115:0.0041841004 116:0.0041841004 120:0.0041841004 121:0.0041841004 127:0.012552301 131:0.0083682008 134:0.0041841004 135:0.0041841004 137:0.0041841004 142:0.025104603 149:0.0083682008 154:0.016736402 158:0.0041841004 159:0.0083682008 160:0.012552301 163:0.020920502 167:0.050209205 171:0.0041841004 172:0.0041841004 176:0.0083682008 178:0.0041841004 179:0.0041841004 181:0.0041841004 182:0.016736402 185:0.020920502 189:0.0083682008 191:0.0041841004 194:0.0041841004 199:0.012552301 202:0.0041841004 203:0.0041841004 204:0.0083682008 205:0.0083682008 206:0.012552301 209:0.0041841004 214:0.0041841004 222:0.0041841004 223:0.0083682008 224:0.0041841004 225:0.0041841004 227:0.029288703 229:0.0041841004 232:0.025104603 235:0.0083682008 236:0.033472803 237:0.0041841004 239:0.029288703 241:0.0041841004 243:0.0083682008 247:0.0083682008 248:0.0083682008 249:0.0041841004 250:0.0041841004 251:0.016736402 253:0.0083682008 256:0.0041841004 
1.781475403340743 2:0.0094339623 8:0.011320755 9:0.0037735849 10:0.0056603774 12:0.0018867925 13:0.0037735849 14:0.0018867925 16:0.0075471698 17:0.0018867925 18:0.022641509 20:0.0056603774 21:0.0018867925 22:0.0094339623 26:0.0018867925 27:0.0018867925 34:0.0056603774 35:0.0056603774 37:0.0056603774 39:0.0018867925 40:0.0018867925 43:0.0037735849 45:0.0018867925 46:0.0018867925 48:0.030188679 51:0.0075471698 54:0.0094339623 55:0.0018867925 56:0.024528302 58:0.0075471698 59:0.0075471698 62:0.0018867925 65:0.0037735849 66:0.0037735849 67:0.020754717 70:0.0018867925 72:0.0018867925 79:0.0018867925 80:0.0037735849 81:0.0018867925 82:0.0037735849 83:0.032075472 84:0.0037735849 86:0.0037735849 87:0.016981132 88:0.0018867925 90:0.018867925 94:0.0018867925 101:0.0018867925 103:0.0075471698 104:0.0018867925 105:0.0094339623 107:0.0037735849 108:0.0018867925 110:0.0018867925 112:0.0018867925 113:0.0018867925 115:0.016981132 116:0.013207547 118:0.0018867925 119:0.016981132 121:0.047169811 122:0.0018867925 123:0.0018867925 128:0.013207547 130:0.028301887 132:0.0018867925 133:0.0037735849 134:0.0018867925 136:0.0037735849 137:0.0056603774 138:0.0037735849 139:0.0018867925 140:0.0056603774 142:0.018867925 143:0.0056603774 144:0.0075471698 148:0.016981132 149:0.01509434 150:0.0094339623 152:0.0056603774 154:0.0037735849 155:0.0037735849 156:0.0018867925 161:0.013207547 163:0.0018867925 165:0.0018867925 169:0.0056603774 170:0.0037735849 172:0.0094339623 174:0.01509434 175:0.0018867925 179:0.011320755 181:0.0018867925 182:0.0056603774 183:0.0056603774 185:0.0056603774 186:0.039622642 187:0.0056603774 188:0.0037735849 191:0.0037735849 201:0.0037735849 203:0.0037735849 204:0.039622642 208:0.0018867925 211:0.0018867925 215:0.0037735849 219:0.0018867925 222:0.0018867925 223:0.0094339623 224:0.0056603774 228:0.024528302 230:0.043396226 232:0.0037735849 234:0.0018867925 235:0.0018867925 236:0.0056603774 239:0.011320755 240:0.0056603774 241:0.020754717 242:0.0094339623 246:0.0018867925 248:0.011320755 249:0.0075471698 250:0.011320755 252:0.0018867925 254:0.0018867925 256:0.0037735849 
1.952316184342263 2:0.0052083333 3:0.0013020833 4:0.0026041667 5:0.016927083 7:0.0026041667 8:0.01171875 9:0.0065104167 10:0.0065104167 13:0.01171875 16:0.0026041667 17:0.0091145833 18:0.020833333 19:0.0026041667 20:0.013020833 22:0.0078125 28:0.0013020833 30:0.010416667 31:0.0013020833 32:0.0013020833 34:0.0013020833 35:0.0052083333 37:0.0026041667 39:0.0026041667 40:0.0013020833 41:0.0026041667 42:0.0013020833 43:0.0026041667 45:0.0013020833 46:0.00390625 47:0.0026041667 48:0.010416667 49:0.0026041667 51:0.00390625 52:0.0026041667 53:0.0091145833 54:0.013020833 56:0.03515625 57:0.0026041667 58:0.0026041667 61:0.0013020833 62:0.0013020833 64:0.0013020833 65:0.0065104167 67:0.0065104167 70:0.0065104167 72:0.010416667 73:0.0065104167 76:0.0026041667 77:0.01171875 78:0.00390625 79:0.0013020833 80:0.01953125 81:0.0013020833 82:0.0091145833 83:0.018229167 84:0.0091145833 86:0.0026041667 87:0.00390625 88:0.0026041667 89:0.0013020833 90:0.0013020833 91:0.0026041667 94:0.0052083333 95:0.0091145833 96:0.00390625 97:0.0013020833 98:0.0013020833 101:0.0013020833 102:0.0026041667 103:0.010416667 104:0.0052083333 105:0.010416667 106:0.0026041667 107:0.0052083333 108:0.0052083333 109:0.00390625 110:0.00390625 112:0.0052083333 113:0.00390625 114:0.0013020833 115:0.024739583 116:0.0013020833 119:0.0091145833 120:0.0026041667 121:0.0390625 122:0.0026041667 123:0.0026041667 124:0.0013020833 125:0.0052083333 127:0.0013020833 128:0.0013020833 130:0.013020833 131:0.00390625 132:0.0065104167 135:0.0013020833 136:0.0013020833 137:0.010416667 138:0.00390625 140:0.00390625 141:0.0065104167 142:0.00390625 145:0.0013020833 146:0.0026041667 148:0.03125 149:0.00390625 150:0.00390625 151:0.0013020833 152:0.0052083333 154:0.0013020833 155:0.0013020833 156:0.0026041667 159:0.00390625 161:0.0026041667 162:0.0013020833 163:0.015625 165:0.0026041667 167:0.0026041667 169:0.0013020833 170:0.0026041667 171:0.0026041667 172:0.0026041667 173:0.0013020833 174:0.0052083333 176:0.0026041667 177:0.0013020833 178:0.00390625 179:0.00390625 181:0.0052083333 183:0.00390625 184:0.0013020833 186:0.013020833 187:0.014322917 188:0.00390625 189:0.0013020833 191:0.0234375 192:0.0052083333 193:0.0013020833 197:0.010416667 199:0.0026041667 200:0.0026041667 201:0.0078125 202:0.0013020833 204:0.013020833 205:0.0013020833 208:0.0026041667 211:0.0052083333 213:0.0026041667 214:0.0013020833 215:0.0013020833 219:0.0091145833 222:0.0026041667 223:0.014322917 224:0.0026041667 227:0.0013020833 228:0.026041667 229:0.00390625 230:0.0013020833 232:0.00390625 233:0.0013020833 236:0.0078125 237:0.00390625 238:0.0013020833 239:0.010416667 241:0.0026041667 242:0.0091145833 243:0.0026041667 244:0.0065104167 246:0.0091145833 247:0.0052083333 248:0.0052083333 249:0.0065104167 250:0.0065104167 251:0.00390625 255:0.010416667 256:0.0026041667 
2.530829525277626 2:0.014362657 3:0.010771993 5:0.0071813285 7:0.014362657 8:0.019748654 9:0.0071813285 10:0.0071813285 13:0.023339318 16:0.023339318 17:0.0017953321 18:0.014362657 20:0.0089766607 22:0.0035906643 23:0.0089766607 24:0.0035906643 25:0.0017953321 27:0.0053859964 28:0.0035906643 33:0.012567325 34:0.0017953321 35:0.0017953321 36:0.0053859964 39:0.012567325 42:0.0053859964 43:0.010771993 44:0.0017953321 46:0.0017953321 47:0.0017953321 48:0.019748654 51:0.0035906643 52:0.0017953321 53:0.0035906643 54:0.0089766607 55:0.0017953321 57:0.0017953321 58:0.0089766607 59:0.0053859964 60:0.0053859964 63:0.0053859964 66:0.0071813285 67:0.010771993 68:0.0035906643 70:0.0053859964 72:0.0053859964 73:0.0035906643 74:0.0017953321 75:0.0017953321 76:0.0035906643 77:0.0089766607 78:0.0017953321 79:0.0089766607 80:0.0053859964 81:0.0053859964 82:0.010771993 83:0.016157989 84:0.0017953321 85:0.0053859964 86:0.0071813285 87:0.0035906643 89:0.0017953321 90:0.0053859964 93:0.0017953321 94:0.0053859964 95:0.010771993 96:0.0017953321 98:0.0089766607 99:0.0017953321 101:0.0053859964 102:0.0017953321 103:0.010771993 105:0.0017953321 107:0.0089766607 108:0.014362657 109:0.0017953321 110:0.0035906643 112:0.0017953321 113:0.0017953321 115:0.0053859964 117:0.0017953321 119:0.0089766607 120:0.0089766607 121:0.0035906643 122:0.0071813285 128:0.0017953321 129:0.014362657 130:0.0071813285 131:0.0035906643 133:0.0053859964 134:0.0053859964 135:0.010771993 136:0.0017953321 137:0.016157989 139:0.0017953321 140:0.019748654 141:0.0017953321 142:0.028725314 144:0.0017953321 145:0.0017953321 149:0.0071813285 154:0.0017953321 156:0.0017953321 157:0.010771993 161:0.0071813285 163:0.028725314 166:0.0017953321 167:0.0071813285 171:0.021543986 172:0.0071813285 174:0.016157989 176:0.0053859964 179:0.0071813285 180:0.0017953321 181:0.0053859964 182:0.0035906643 184:0.0017953321 185:0.0035906643 186:0.0071813285 187:0.0035906643 188:0.0017953321 190:0.0035906643 191:0.0071813285 194:0.0017953321 195:0.0035906643 199:0.0035906643 200:0.0017953321 201:0.0089766607 202:0.0017953321 203:0.0017953321 204:0.0053859964 205:0.0035906643 206:0.012567325 208:0.0017953321 210:0.0017953321 211:0.0017953321 212:0.0071813285 213:0.0035906643 214:0.0017953321 215:0.0035906643 219:0.0035906643 223:0.0053859964 224:0.0017953321 228:0.010771993 229:0.0089766607 232:0.0071813285 233:0.0035906643 239:0.0017953321 242:0.0035906643 244:0.0035906643 246:0.0071813285 247:0.0017953321 248:0.010771993 249:0.0035906643 250:0.0017953321 251:0.012567325 256:0.014362657 
1.930811003447129 2:0.011994003 5:0.0029985007 8:0.011994003 9:0.0029985007 10:0.0029985007 13:0.0044977511 14:0.0014992504 16:0.028485757 18:0.011994003 26:0.022488756 28:0.0029985007 31:0.0014992504 34:0.0014992504 35:0.0074962519 39:0.0014992504 41:0.0044977511 42:0.0014992504 44:0.0014992504 45:0.0014992504 46:0.0029985007 48:0.011994003 49:0.0089955022 54:0.0059970015 55:0.016491754 56:0.0029985007 57:0.0014992504 58:0.010494753 59:0.0014992504 62:0.0029985007 65:0.0029985007 66:0.0089955022 67:0.085457271 68:0.0044977511 70:0.0014992504 73:0.0044977511 75:0.0044977511 77:0.0014992504 80:0.0089955022 81:0.0014992504 82:0.0014992504 83:0.023988006 84:0.010494753 86:0.0014992504 87:0.022488756 88:0.0014992504 89:0.0014992504 90:0.0029985007 91:0.0059970015 93:0.0014992504 94:0.0014992504 95:0.0044977511 96:0.0029985007 97:0.0029985007 100:0.0014992504 102:0.0029985007 103:0.0029985007 107:0.0059970015 110:0.0074962519 111:0.0059970015 112:0.0014992504 113:0.0059970015 115:0.013493253 116:0.0029985007 118:0.0014992504 119:0.0029985007 120:0.0014992504 121:0.0059970015 123:0.0014992504 125:0.0029985007 128:0.0044977511 130:0.0014992504 131:0.0014992504 132:0.0014992504 135:0.0014992504 136:0.0014992504 137:0.0029985007 139:0.0074962519 140:0.0059970015 141:0.016491754 143:0.0014992504 144:0.013493253 146:0.0044977511 148:0.019490255 149:0.065967016 150:0.011994003 152:0.0029985007 154:0.0044977511 155:0.0059970015 161:0.0074962519 163:0.0044977511 166:0.0014992504 167:0.0059970015 169:0.0029985007 170:0.0074962519 171:0.0014992504 172:0.019490255 177:0.0014992504 178:0.0014992504 179:0.0029985007 181:0.0074962519 182:0.0029985007 183:0.0074962519 186:0.0014992504 187:0.0044977511 188:0.013493253 191:0.0014992504 192:0.0029985007 193:0.0014992504 195:0.0014992504 198:0.0014992504 199:0.0029985007 200:0.0014992504 201:0.0044977511 203:0.0014992504 204:0.0089955022 208:0.0044977511 211:0.0014992504 215:0.0089955022 219:0.0014992504 220:0.0029985007 221:0.0014992504 222:0.0059970015 223:0.0059970015 226:0.0014992504 227:0.0014992504 228:0.0074962519 229:0.0029985007 230:0.013493253 232:0.0044977511 233:0.0029985007 235:0.0029985007 236:0.0014992504 237:0.0044977511 239:0.0059970015 241:0.062968516 242:0.0029985007 243:0.0059970015 246:0.0029985007 248:0.0014992504 249:0.013493253 250:0.0059970015 251:0.0059970015 252:0.0029985007 253:0.0029985007 254:0.037481259 256:0.0044977511 
5.255042617841899 1:0.003236246 2:0.010787487 3:0.003236246 4:0.00053937433 5:0.014023732 7:0.00053937433 8:0.0043149946 9:0.0043149946 10:0.0048543689 12:0.0026968716 13:0.0053937433 14:0.003236246 15:0.00053937433 16:0.0037756203 17:0.0021574973 18:0.010787487 19:0.0010787487 20:0.0053937433 21:0.0026968716 22:0.0048543689 23:0.003236246 24:0.003236246 26:0.001618123 27:0.0043149946 28:0.0053937433 29:0.0010787487 30:0.001618123 31:0.0021574973 32:0.0059331176 33:0.003236246 34:0.0064724919 35:0.0010787487 37:0.0043149946 38:0.0021574973 39:0.0064724919 40:0.0037756203 41:0.0021574973 42:0.0021574973 43:0.0053937433 45:0.0053937433 46:0.0010787487 48:0.0059331176 50:0.00053937433 51:0.0037756203 52:0.0026968716 53:0.0064724919 54:0.0059331176 55:0.0026968716 56:0.0064724919 57:0.0021574973 58:0.0059331176 59:0.001618123 60:0.0053937433 61:0.0026968716 62:0.0048543689 63:0.0043149946 64:0.0021574973 65:0.0048543689 66:0.0053937433 67:0.0021574973 68:0.001618123 69:0.0021574973 70:0.012405609 71:0.0026968716 72:0.0053937433 73:0.015641855 74:0.0010787487 75:0.0021574973 77:0.0086299892 78:0.0010787487 79:0.0026968716 80:0.0091693635 81:0.00053937433 82:0.0075512406 83:0.0097087379 84:0.0086299892 85:0.0043149946 86:0.0075512406 87:0.0021574973 88:0.0053937433 89:0.00053937433 90:0.003236246 91:0.003236246 92:0.0026968716 93:0.0037756203 94:0.0010787487 95:0.0026968716 96:0.0026968716 97:0.0080906149 98:0.003236246 99:0.00053937433 100:0.0091693635 101:0.0026968716 103:0.0053937433 104:0.0021574973 105:0.0053937433 106:0.0026968716 107:0.0048543689 108:0.0037756203 109:0.003236246 110:0.0059331176 111:0.0075512406 112:0.001618123 113:0.0086299892 114:0.0026968716 115:0.0086299892 117:0.001618123 119:0.0080906149 120:0.003236246 121:0.011866235 122:0.001618123 123:0.0026968716 125:0.0010787487 126:0.00053937433 127:0.003236246 128:0.001618123 129:0.0010787487 130:0.0080906149 131:0.01618123 132:0.003236246 133:0.001618123 134:0.0059331176 135:0.0021574973 136:0.0075512406 137:0.0086299892 138:0.0037756203 139:0.0043149946 140:0.0037756203 141:0.001618123 142:0.0021574973 143:0.0026968716 144:0.0048543689 145:0.001618123 146:0.0026968716 147:0.001618123 148:0.0097087379 149:0.0043149946 150:0.0021574973 151:0.0021574973 152:0.0026968716 153:0.0037756203 154:0.0070118662 155:0.0053937433 156:0.0075512406 157:0.0026968716 158:0.0043149946 159:0.0010787487 161:0.0064724919 162:0.0026968716 163:0.0097087379 164:0.00053937433 165:0.003236246 166:0.0043149946 167:0.0037756203 168:0.0037756203 169:0.0070118662 170:0.0059331176 171:0.0010787487 172:0.010787487 173:0.0075512406 174:0.0053937433 176:0.0010787487 178:0.0053937433 180:0.0037756203 181:0.001618123 182:0.0086299892 183:0.015102481 184:0.0026968716 185:0.0037756203 186:0.014023732 187:0.0048543689 188:0.0053937433 189:0.0026968716 190:0.001618123 191:0.0043149946 192:0.001618123 193:0.001618123 194:0.00053937433 195:0.0021574973 196:0.0037756203 197:0.0043149946 198:0.0048543689 199:0.0037756203 200:0.0010787487 201:0.0048543689 202:0.003236246 203:0.001618123 204:0.003236246 205:0.0037756203 206:0.0010787487 207:0.00053937433 208:0.0010787487 209:0.0043149946 210:0.001618123 211:0.003236246 212:0.0075512406 213:0.0026968716 214:0.001618123 215:0.0043149946 216:0.00053937433 218:0.0037756203 219:0.003236246 220:0.0021574973 222:0.001618123 223:0.0043149946 224:0.0086299892 225:0.00053937433 226:0.0043149946 227:0.0026968716 228:0.0097087379 229:0.0097087379 230:0.003236246 232:0.0059331176 233:0.0010787487 235:0.0037756203 236:0.0059331176 237:0.0037756203 238:0.003236246 239:0.0048543689 240:0.0037756203 241:0.012405609 242:0.0059331176 243:0.0037756203 244:0.0010787487 245:0.00053937433 246:0.0053937433 247:0.001618123 248:0.0048543689 249:0.010248112 250:0.0021574973 251:0.0043149946 252:0.0026968716 253:0.0026968716 254:0.0059331176 255:0.00053937433 256:0.0075512406 
2.886845978642182 1:0.0040899796 2:0.015337423 3:0.0030674847 4:0.0010224949 5:0.0010224949 6:0.0010224949 7:0.0040899796 8:0.009202454 9:0.0061349693 10:0.011247444 12:0.0020449898 13:0.009202454 16:0.016359918 17:0.0010224949 18:0.0061349693 20:0.0061349693 21:0.0010224949 22:0.0040899796 28:0.0051124744 29:0.0030674847 30:0.0020449898 31:0.0010224949 33:0.0010224949 34:0.0020449898 35:0.0071574642 36:0.0081799591 37:0.0081799591 39:0.010224949 40:0.0051124744 41:0.0010224949 42:0.0020449898 43:0.0010224949 45:0.0010224949 46:0.010224949 47:0.0010224949 48:0.019427403 49:0.0010224949 50:0.0020449898 51:0.0081799591 52:0.0020449898 53:0.0030674847 54:0.009202454 56:0.0071574642 57:0.0030674847 58:0.0051124744 59:0.0010224949 60:0.0020449898 62:0.021472393 63:0.0010224949 65:0.0061349693 66:0.013292434 67:0.0040899796 70:0.010224949 72:0.009202454 73:0.0071574642 75:0.0030674847 76:0.0030674847 77:0.0071574642 79:0.0071574642 80:0.0010224949 81:0.0010224949 82:0.010224949 83:0.0071574642 84:0.0030674847 86:0.0071574642 87:0.0081799591 88:0.0010224949 89:0.0040899796 90:0.0030674847 91:0.0061349693 92:0.0020449898 93:0.0030674847 94:0.0071574642 95:0.0081799591 96:0.0051124744 97:0.0010224949 99:0.0020449898 100:0.0020449898 101:0.0030674847 102:0.0040899796 103:0.0081799591 104:0.0040899796 105:0.0030674847 106:0.0020449898 107:0.013292434 108:0.012269939 109:0.0061349693 113:0.0051124744 114:0.0010224949 117:0.0040899796 119:0.0030674847 121:0.0030674847 125:0.0051124744 127:0.0010224949 130:0.013292434 131:0.0030674847 132:0.0020449898 135:0.0020449898 136:0.0030674847 137:0.018404908 138:0.0020449898 139:0.0020449898 140:0.0061349693 141:0.0020449898 142:0.0071574642 143:0.0071574642 144:0.0010224949 145:0.0010224949 146:0.0020449898 148:0.0010224949 149:0.0040899796 150:0.009202454 151:0.0081799591 152:0.0010224949 154:0.0081799591 155:0.013292434 156:0.0040899796 157:0.0030674847 158:0.0020449898 160:0.0010224949 161:0.0030674847 163:0.016359918 164:0.0020449898 165:0.0010224949 166:0.0030674847 167:0.0040899796 169:0.0040899796 171:0.0010224949 172:0.014314928 174:0.0020449898 178:0.0030674847 179:0.0020449898 180:0.0071574642 181:0.0081799591 183:0.0061349693 184:0.0010224949 185:0.0051124744 186:0.024539877 187:0.0040899796 188:0.0040899796 190:0.0020449898 191:0.0010224949 192:0.0020449898 194:0.0030674847 196:0.0010224949 199:0.0010224949 200:0.0020449898 201:0.009202454 202:0.0040899796 203:0.0051124744 204:0.0061349693 205:0.0061349693 206:0.0010224949 208:0.0061349693 209:0.0040899796 210:0.0040899796 211:0.0020449898 212:0.0020449898 213:0.0051124744 214:0.0020449898 217:0.0010224949 218:0.0040899796 219:0.015337423 222:0.0040899796 223:0.0030674847 225:0.0030674847 227:0.0020449898 228:0.020449898 229:0.0020449898 230:0.011247444 232:0.009202454 233:0.0010224949 235:0.0040899796 236:0.013292434 238:0.0030674847 239:0.0010224949 240:0.0020449898 241:0.0061349693 242:0.011247444 243:0.018404908 246:0.0020449898 247:0.0020449898 248:0.020449898 249:0.015337423 250:0.0051124744 251:0.009202454 253:0.0010224949 255:0.0010224949 256:0.0040899796 
0.08730426453665227 2:0.011261261 3:0.0022522523 4:0.0022522523 7:0.0022522523 9:0.0022522523 10:0.0022522523 12:0.0022522523 13:0.022522523 16:0.018018018 18:0.0067567568 20:0.0022522523 27:0.0067567568 28:0.018018018 31:0.0067567568 35:0.0022522523 37:0.0067567568 39:0.0022522523 40:0.0067567568 41:0.0022522523 43:0.009009009 45:0.0022522523 46:0.0022522523 48:0.009009009 51:0.0022522523 54:0.031531532 56:0.024774775 57:0.0022522523 58:0.0045045045 60:0.0045045045 61:0.0022522523 62:0.0045045045 64:0.0022522523 67:0.015765766 68:0.0022522523 70:0.0067567568 72:0.0045045045 73:0.0022522523 80:0.011261261 81:0.0067567568 82:0.0067567568 83:0.0045045045 84:0.013513514 85:0.0067567568 86:0.0022522523 87:0.0045045045 88:0.0045045045 90:0.009009009 94:0.0022522523 95:0.018018018 96:0.0022522523 102:0.0022522523 103:0.0045045045 107:0.0045045045 110:0.009009009 113:0.0045045045 114:0.0022522523 115:0.011261261 116:0.0022522523 117:0.0045045045 118:0.0022522523 119:0.0045045045 121:0.029279279 123:0.0045045045 128:0.0067567568 129:0.009009009 130:0.013513514 131:0.0067567568 132:0.0022522523 136:0.0022522523 137:0.024774775 138:0.0067567568 140:0.0045045045 141:0.02027027 142:0.0045045045 144:0.0045045045 148:0.0045045045 149:0.0067567568 150:0.0022522523 151:0.0022522523 153:0.0022522523 155:0.0022522523 156:0.011261261 158:0.0022522523 161:0.0045045045 163:0.027027027 165:0.0022522523 166:0.0067567568 167:0.0022522523 169:0.0022522523 170:0.0067567568 172:0.0045045045 174:0.024774775 175:0.0045045045 178:0.0022522523 180:0.0022522523 181:0.0045045045 182:0.0022522523 183:0.013513514 186:0.033783784 188:0.031531532 195:0.0022522523 198:0.0045045045 199:0.0022522523 201:0.0067567568 202:0.009009009 204:0.015765766 206:0.009009009 211:0.0022522523 212:0.0022522523 213:0.013513514 215:0.0022522523 219:0.0067567568 220:0.0022522523 222:0.0022522523 223:0.0022522523 227:0.0022522523 228:0.0045045045 229:0.0022522523 230:0.013513514 232:0.024774775 235:0.0067567568 236:0.009009009 237:0.011261261 238:0.0067567568 239:0.011261261 241:0.013513514 242:0.0022522523 247:0.0022522523 248:0.013513514 249:0.0045045045 251:0.0045045045 253:0.0045045045 256:0.027027027 
