svm_type c_svc
kernel_type rbf
gamma 150
nr_class 2
total_sv 1093
rho 1.97819
label 1 -1
probA -1.84527
probB 1.63277
nr_sv 146 947
SV
5.326987235356058 1:0.0039721946 2:0.012413108 3:0.0024826216 4:0.0079443893 5:0.002979146 7:0.005958292 8:0.00099304866 9:0.001489573 10:0.002979146 11:0.015888779 12:0.005958292 13:0.0069513406 14:0.026812314 15:0.00049652433 17:0.0084409136 18:0.00099304866 19:0.0034756703 20:0.001489573 21:0.005958292 22:0.0074478649 23:0.0019860973 24:0.0054617676 25:0.00049652433 26:0.001489573 28:0.0084409136 29:0.00099304866 30:0.0024826216 31:0.004468719 33:0.001489573 34:0.004468719 35:0.00099304866 36:0.0049652433 37:0.002979146 38:0.004468719 39:0.0024826216 40:0.004468719 41:0.0024826216 42:0.0034756703 43:0.002979146 44:0.0019860973 45:0.004468719 46:0.00049652433 47:0.00099304866 48:0.005958292 49:0.0024826216 50:0.0034756703 51:0.0039721946 52:0.0024826216 53:0.0034756703 54:0.00099304866 55:0.0034756703 56:0.0084409136 57:0.00049652433 58:0.004468719 60:0.015392254 61:0.0024826216 62:0.002979146 63:0.0074478649 64:0.0079443893 65:0.012413108 66:0.011916584 67:0.0019860973 68:0.0034756703 69:0.0049652433 70:0.0049652433 71:0.014399206 72:0.0049652433 73:0.004468719 74:0.001489573 75:0.00099304866 76:0.0024826216 77:0.005958292 78:0.0019860973 79:0.0024826216 80:0.0034756703 81:0.0019860973 82:0.0049652433 83:0.001489573 84:0.0039721946 85:0.0039721946 86:0.0054617676 87:0.004468719 88:0.0054617676 89:0.002979146 90:0.001489573 91:0.00049652433 92:0.00099304866 93:0.0034756703 94:0.004468719 95:0.0024826216 96:0.005958292 97:0.0074478649 98:0.0019860973 99:0.0049652433 100:0.0064548163 101:0.0024826216 102:0.014399206 103:0.0034756703 104:0.00049652433 105:0.013406157 106:0.0064548163 107:0.0039721946 108:0.005958292 109:0.004468719 110:0.002979146 111:0.0024826216 112:0.0034756703 113:0.0054617676 114:0.002979146 115:0.00049652433 116:0.002979146 117:0.0049652433 118:0.0019860973 119:0.005958292 120:0.00099304866 121:0.0019860973 122:0.001489573 123:0.0099304866 124:0.0049652433 125:0.002979146 126:0.0024826216 127:0.0024826216 128:0.001489573 129:0.0054617676 130:0.0024826216 131:0.005958292 132:0.0019860973 133:0.0024826216 134:0.0084409136 136:0.001489573 137:0.005958292 138:0.0049652433 139:0.00099304866 140:0.002979146 141:0.0049652433 142:0.0039721946 143:0.0024826216 144:0.0074478649 145:0.0039721946 146:0.0039721946 147:0.00099304866 148:0.0024826216 149:0.00049652433 150:0.0024826216 151:0.0019860973 152:0.0024826216 153:0.0019860973 154:0.005958292 155:0.004468719 156:0.0019860973 157:0.00049652433 158:0.0034756703 159:0.005958292 160:0.001489573 161:0.00049652433 162:0.0054617676 163:0.0039721946 164:0.0039721946 165:0.014399206 166:0.005958292 167:0.0034756703 168:0.0054617676 170:0.0034756703 171:0.0054617676 172:0.005958292 173:0.005958292 174:0.0049652433 175:0.005958292 176:0.00049652433 177:0.0049652433 178:0.00049652433 179:0.0034756703 180:0.0024826216 181:0.001489573 182:0.0034756703 183:0.0074478649 184:0.010427011 185:0.0069513406 186:0.0019860973 187:0.001489573 188:0.00099304866 189:0.002979146 190:0.002979146 191:0.00049652433 192:0.0039721946 193:0.0094339623 194:0.0064548163 195:0.005958292 196:0.00099304866 197:0.002979146 198:0.002979146 199:0.00049652433 200:0.001489573 201:0.001489573 202:0.001489573 203:0.0019860973 204:0.005958292 205:0.0024826216 206:0.00049652433 207:0.002979146 208:0.0084409136 209:0.005958292 210:0.0024826216 211:0.002979146 212:0.0019860973 213:0.0089374379 214:0.00049652433 215:0.010427011 216:0.00049652433 217:0.0064548163 218:0.0024826216 219:0.0019860973 221:0.005958292 222:0.00099304866 223:0.00099304866 224:0.0019860973 225:0.00049652433 226:0.00049652433 227:0.0049652433 228:0.00049652433 229:0.010923535 230:0.00049652433 231:0.00099304866 232:0.0089374379 233:0.00099304866 234:0.001489573 235:0.001489573 236:0.0034756703 237:0.001489573 238:0.0049652433 239:0.001489573 240:0.005958292 241:0.00099304866 242:0.004468719 243:0.001489573 244:0.00049652433 245:0.00049652433 246:0.002979146 247:0.004468719 248:0.014399206 249:0.002979146 250:0.0019860973 251:0.00099304866 252:0.0019860973 253:0.0049652433 254:0.004468719 255:0.0054617676 256:0.0039721946 
8.72323408696508 1:0.0074500508 2:0.015577379 3:0.0088046055 4:0.016593295 5:0.00033863867 7:0.0044023027 8:0.0050795801 9:0.00033863867 10:0.002031832 11:0.0064341348 12:0.00033863867 13:0.0047409414 14:0.0050795801 16:0.0027091094 17:0.0081273281 18:0.0013545547 19:0.0013545547 20:0.0023704707 21:0.00067727735 22:0.0074500508 23:0.00033863867 24:0.0040636641 25:0.0013545547 26:0.0016931934 27:0.0054182188 28:0.0033863867 29:0.0054182188 30:0.0067727735 31:0.01286827 32:0.0027091094 33:0.0016931934 34:0.0040636641 35:0.0013545547 36:0.0030477481 37:0.0013545547 38:0.0023704707 39:0.0016931934 40:0.00033863867 41:0.0050795801 42:0.001015916 43:0.00033863867 44:0.0091432442 45:0.0067727735 46:0.0016931934 47:0.0060954961 48:0.0047409414 49:0.0027091094 50:0.0054182188 51:0.0027091094 52:0.00033863867 54:0.00033863867 55:0.0030477481 56:0.00033863867 57:0.00067727735 58:0.010836438 59:0.0033863867 61:0.002031832 62:0.0040636641 63:0.0013545547 64:0.0040636641 65:0.0013545547 66:0.0094818828 67:0.0033863867 68:0.0060954961 69:0.0044023027 70:0.001015916 71:0.0057568574 72:0.0027091094 73:0.002031832 74:0.0098205215 75:0.0037250254 76:0.0040636641 77:0.0091432442 78:0.0016931934 79:0.0016931934 80:0.00033863867 81:0.0023704707 82:0.0016931934 83:0.0050795801 84:0.0016931934 85:0.0033863867 86:0.002031832 87:0.0081273281 88:0.00067727735 89:0.0074500508 90:0.0016931934 91:0.0023704707 92:0.0013545547 93:0.0033863867 94:0.0054182188 95:0.0016931934 96:0.0094818828 97:0.0047409414 98:0.0030477481 99:0.0033863867 100:0.0074500508 101:0.0044023027 102:0.014900102 103:0.0081273281 104:0.0057568574 105:0.0037250254 106:0.0037250254 107:0.0084659668 108:0.0071114121 109:0.0094818828 111:0.0047409414 112:0.0044023027 113:0.0044023027 114:0.0054182188 115:0.0033863867 116:0.0013545547 117:0.00033863867 118:0.00067727735 119:0.0067727735 120:0.002031832 121:0.0023704707 122:0.00067727735 123:0.0023704707 124:0.0064341348 125:0.0013545547 126:0.00067727735 127:0.0044023027 128:0.002031832 129:0.0060954961 131:0.0027091094 132:0.0027091094 133:0.0013545547 134:0.0037250254 135:0.0016931934 136:0.0037250254 137:0.013206908 138:0.0067727735 139:0.0013545547 140:0.001015916 141:0.0040636641 142:0.0033863867 143:0.0040636641 144:0.0037250254 145:0.0047409414 146:0.0013545547 147:0.0023704707 148:0.00033863867 149:0.0023704707 150:0.0023704707 151:0.0054182188 152:0.0027091094 153:0.0013545547 154:0.0047409414 155:0.0013545547 156:0.0013545547 157:0.002031832 158:0.0040636641 159:0.0037250254 160:0.0047409414 161:0.0016931934 162:0.0037250254 163:0.0050795801 164:0.0027091094 165:0.0074500508 166:0.0016931934 167:0.0023704707 168:0.0037250254 169:0.0023704707 170:0.001015916 171:0.0023704707 172:0.0050795801 173:0.00067727735 174:0.00067727735 175:0.0027091094 176:0.0047409414 177:0.0071114121 178:0.0047409414 179:0.0016931934 180:0.0016931934 181:0.0037250254 182:0.0023704707 183:0.0071114121 184:0.0040636641 185:0.0023704707 186:0.0088046055 189:0.0084659668 190:0.010497799 191:0.0016931934 192:0.0044023027 193:0.0057568574 194:0.0047409414 195:0.0047409414 196:0.0064341348 197:0.0098205215 198:0.0081273281 199:0.0027091094 200:0.0060954961 201:0.0088046055 202:0.0027091094 203:0.001015916 204:0.0060954961 205:0.0081273281 206:0.0027091094 207:0.0047409414 208:0.0047409414 209:0.0050795801 210:0.002031832 211:0.0047409414 212:0.001015916 213:0.0033863867 214:0.00033863867 215:0.00033863867 216:0.0060954961 217:0.0044023027 218:0.00033863867 220:0.0067727735 221:0.0040636641 222:0.001015916 223:0.001015916 224:0.0037250254 225:0.001015916 226:0.0027091094 228:0.0037250254 229:0.0023704707 230:0.0054182188 231:0.0044023027 232:0.0027091094 233:0.0016931934 234:0.00033863867 235:0.0027091094 236:0.0074500508 237:0.0016931934 238:0.00033863867 239:0.0057568574 240:0.0044023027 241:0.0047409414 242:0.0027091094 243:0.010497799 244:0.0091432442 245:0.0016931934 246:0.0013545547 247:0.0091432442 248:0.018286488 249:0.0033863867 250:0.0033863867 251:0.0050795801 252:0.0067727735 253:0.0071114121 254:0.0030477481 255:0.0064341348 256:0.0071114121 
4.201759237550367 1:0.00092421442 2:0.0055452865 3:0.0027726433 4:0.0064695009 5:0.0036968577 6:0.013863216 8:0.0027726433 9:0.00092421442 10:0.0027726433 11:0.0092421442 12:0.010166359 13:0.00092421442 14:0.0055452865 15:0.010166359 17:0.0036968577 18:0.00092421442 19:0.0018484288 21:0.0055452865 22:0.0055452865 23:0.0073937153 25:0.0092421442 27:0.00092421442 28:0.00092421442 29:0.00092421442 30:0.0018484288 31:0.0027726433 33:0.0046210721 34:0.0027726433 35:0.011090573 37:0.0083179298 38:0.00092421442 39:0.0018484288 40:0.0055452865 41:0.013863216 42:0.00092421442 43:0.0073937153 44:0.0036968577 45:0.00092421442 46:0.00092421442 47:0.0055452865 48:0.0046210721 49:0.0064695009 50:0.00092421442 51:0.0092421442 52:0.0036968577 53:0.014787431 56:0.010166359 57:0.0046210721 58:0.0083179298 59:0.0055452865 60:0.018484288 61:0.0018484288 62:0.0018484288 63:0.011090573 65:0.019408503 66:0.0036968577 67:0.0018484288 68:0.021256932 69:0.0055452865 70:0.0046210721 71:0.0064695009 73:0.0083179298 74:0.00092421442 75:0.0018484288 76:0.0027726433 77:0.0027726433 78:0.0083179298 79:0.00092421442 80:0.012939002 81:0.0083179298 82:0.010166359 83:0.0046210721 84:0.0046210721 85:0.0018484288 87:0.0046210721 88:0.00092421442 89:0.0018484288 90:0.00092421442 91:0.0018484288 92:0.0027726433 93:0.0036968577 94:0.0083179298 95:0.0018484288 96:0.0036968577 97:0.0027726433 98:0.0064695009 99:0.0027726433 100:0.0027726433 101:0.0046210721 102:0.011090573 103:0.0073937153 104:0.0018484288 105:0.010166359 106:0.00092421442 107:0.0027726433 108:0.0046210721 110:0.0064695009 111:0.00092421442 112:0.00092421442 113:0.00092421442 114:0.00092421442 116:0.0018484288 117:0.0083179298 118:0.0064695009 121:0.00092421442 122:0.0018484288 123:0.0092421442 124:0.00092421442 125:0.0027726433 129:0.015711645 130:0.022181146 131:0.0064695009 132:0.0055452865 133:0.0064695009 134:0.0073937153 135:0.0073937153 136:0.0046210721 137:0.0092421442 139:0.0027726433 140:0.0018484288 142:0.0064695009 144:0.0036968577 145:0.00092421442 146:0.0018484288 148:0.013863216 149:0.0018484288 150:0.0036968577 151:0.0036968577 152:0.0036968577 153:0.00092421442 154:0.0046210721 156:0.0064695009 157:0.0027726433 158:0.0036968577 159:0.0036968577 160:0.0018484288 161:0.00092421442 162:0.0018484288 163:0.00092421442 164:0.0018484288 165:0.0055452865 166:0.0018484288 168:0.0027726433 169:0.0027726433 170:0.0046210721 173:0.0046210721 174:0.0036968577 177:0.0064695009 178:0.00092421442 179:0.0046210721 180:0.0055452865 181:0.00092421442 182:0.0036968577 183:0.0018484288 184:0.0083179298 185:0.00092421442 186:0.0055452865 187:0.0027726433 188:0.0018484288 189:0.0055452865 191:0.00092421442 192:0.0027726433 193:0.0055452865 195:0.0027726433 198:0.0092421442 200:0.0018484288 203:0.0073937153 205:0.0018484288 206:0.0046210721 207:0.0046210721 208:0.00092421442 210:0.0027726433 212:0.0027726433 213:0.012014787 214:0.0064695009 215:0.0055452865 217:0.00092421442 218:0.0064695009 219:0.014787431 222:0.0055452865 223:0.0018484288 224:0.0064695009 225:0.0046210721 227:0.0083179298 228:0.0027726433 229:0.010166359 230:0.00092421442 231:0.0036968577 233:0.0036968577 234:0.0064695009 235:0.00092421442 238:0.0027726433 240:0.00092421442 241:0.0018484288 242:0.0055452865 243:0.00092421442 245:0.0036968577 247:0.0018484288 248:0.019408503 251:0.00092421442 252:0.00092421442 253:0.0046210721 254:0.00092421442 255:0.0083179298 256:0.013863216 
3.579650674877081 1:0.0051186598 2:0.018613309 3:0.0018613309 4:0.0055839926 5:0.00093066543 6:0.0013959981 7:0.0041879944 8:0.0037226617 9:0.0037226617 11:0.0088413215 12:0.0018613309 13:0.0051186598 14:0.0051186598 16:0.00093066543 17:0.0051186598 19:0.0018613309 20:0.0018613309 21:0.00093066543 22:0.0051186598 24:0.0018613309 25:0.0023266636 26:0.0018613309 27:0.00046533271 28:0.00093066543 29:0.0018613309 30:0.0055839926 31:0.01023732 32:0.0018613309 33:0.0023266636 34:0.0013959981 35:0.0027919963 36:0.011633318 37:0.00093066543 39:0.0027919963 41:0.006514658 42:0.0023266636 44:0.0046533271 45:0.011167985 46:0.0041879944 47:0.0046533271 48:0.00093066543 49:0.0069799907 50:0.019078641 51:0.003257329 52:0.0037226617 54:0.0046533271 55:0.0013959981 56:0.00046533271 57:0.0018613309 58:0.0055839926 59:0.0013959981 60:0.0013959981 61:0.0060493253 62:0.006514658 63:0.0023266636 64:0.006514658 65:0.00046533271 66:0.0079106561 67:0.006514658 68:0.0023266636 69:0.00046533271 70:0.0027919963 71:0.00046533271 72:0.003257329 73:0.0027919963 74:0.0023266636 75:0.0046533271 76:0.0046533271 77:0.0041879944 78:0.014890647 79:0.0023266636 80:0.0069799907 81:0.003257329 82:0.0069799907 84:0.00093066543 85:0.0069799907 86:0.0046533271 87:0.0069799907 88:0.0027919963 89:0.0037226617 90:0.0013959981 92:0.0027919963 93:0.0079106561 94:0.012563983 95:0.0046533271 96:0.0093066543 97:0.0083759888 98:0.0055839926 99:0.0027919963 100:0.0074453234 101:0.0023266636 102:0.0083759888 103:0.0013959981 104:0.0013959981 105:0.003257329 106:0.0079106561 107:0.0060493253 108:0.0023266636 109:0.012098651 110:0.0041879944 111:0.003257329 112:0.0018613309 113:0.0074453234 114:0.0023266636 115:0.0083759888 116:0.00093066543 117:0.0023266636 118:0.0013959981 119:0.0093066543 120:0.0037226617 121:0.0023266636 122:0.0013959981 123:0.0018613309 124:0.01535598 125:0.00046533271 127:0.0013959981 128:0.00046533271 129:0.003257329 131:0.0013959981 132:0.0023266636 133:0.00093066543 134:0.0088413215 135:0.00093066543 136:0.0037226617 137:0.0046533271 138:0.013959981 139:0.00046533271 140:0.0027919963 141:0.0060493253 142:0.0013959981 143:0.0041879944 144:0.0088413215 145:0.0051186598 147:0.0018613309 149:0.00093066543 150:0.0027919963 151:0.0027919963 152:0.0013959981 153:0.0018613309 154:0.011167985 156:0.00046533271 157:0.00093066543 158:0.0074453234 160:0.0088413215 161:0.0018613309 162:0.0013959981 163:0.0018613309 164:0.0046533271 165:0.0083759888 166:0.0023266636 167:0.013959981 168:0.00093066543 169:0.003257329 170:0.0013959981 171:0.0037226617 172:0.0027919963 174:0.0037226617 175:0.00093066543 176:0.003257329 177:0.003257329 178:0.0083759888 179:0.0069799907 180:0.00093066543 181:0.00093066543 182:0.0023266636 183:0.012098651 184:0.009771987 185:0.0041879944 186:0.0079106561 187:0.0088413215 189:0.0051186598 190:0.0046533271 191:0.00093066543 192:0.0083759888 193:0.00093066543 194:0.0037226617 195:0.0041879944 196:0.00046533271 197:0.0055839926 198:0.0018613309 199:0.00046533271 200:0.006514658 201:0.0027919963 202:0.003257329 203:0.00093066543 204:0.018147976 205:0.0074453234 206:0.012098651 207:0.0023266636 208:0.003257329 209:0.0060493253 211:0.0018613309 212:0.00046533271 213:0.00093066543 214:0.0041879944 215:0.0013959981 216:0.00093066543 217:0.0046533271 218:0.00046533271 219:0.0013959981 220:0.003257329 221:0.0027919963 222:0.0023266636 223:0.0051186598 224:0.00093066543 225:0.00093066543 226:0.00046533271 228:0.0046533271 229:0.00046533271 230:0.0018613309 231:0.0027919963 232:0.01023732 233:0.0027919963 235:0.0018613309 236:0.003257329 237:0.0013959981 238:0.0023266636 239:0.0023266636 240:0.006514658 241:0.0023266636 242:0.0041879944 243:0.0093066543 244:0.0018613309 245:0.00093066543 246:0.0027919963 247:0.012098651 248:0.01535598 249:0.0046533271 250:0.0023266636 251:0.0018613309 252:0.006514658 253:0.0037226617 254:0.0037226617 255:0.0055839926 256:0.0055839926 
9.926805964606967 1:0.0021303792 2:0.0051129101 3:0.0034086067 4:0.0059650618 5:0.008095441 6:0.00085215168 7:0.0021303792 8:0.0029825309 9:0.0012782275 10:0.0017043034 11:0.0034086067 12:0.0046868343 13:0.002556455 14:0.0017043034 15:0.0046868343 16:0.0059650618 17:0.0029825309 18:0.0021303792 19:0.0021303792 20:0.0017043034 21:0.002556455 22:0.0046868343 23:0.0042607584 24:0.0034086067 25:0.0076693651 26:0.0051129101 27:0.0017043034 28:0.0021303792 29:0.0029825309 30:0.0042607584 31:0.0051129101 32:0.002556455 33:0.0063911376 34:0.0012782275 35:0.0042607584 36:0.0038346826 37:0.0042607584 38:0.0055389859 39:0.011930124 40:0.0017043034 41:0.0029825309 42:0.0034086067 43:0.00042607584 44:0.0038346826 45:0.0059650618 46:0.0017043034 47:0.0017043034 48:0.0038346826 49:0.0029825309 50:0.0038346826 51:0.0029825309 52:0.0059650618 53:0.0038346826 54:0.0042607584 55:0.0029825309 56:0.0038346826 57:0.0012782275 58:0.0029825309 59:0.002556455 60:0.0034086067 61:0.0012782275 62:0.0046868343 63:0.0034086067 64:0.0038346826 65:0.0042607584 66:0.0038346826 67:0.0055389859 68:0.01022582 69:0.0055389859 70:0.0051129101 71:0.002556455 72:0.0012782275 73:0.0029825309 74:0.0021303792 75:0.0068172135 76:0.0021303792 77:0.0021303792 78:0.002556455 79:0.002556455 80:0.008095441 81:0.0038346826 82:0.0051129101 83:0.0021303792 84:0.0021303792 85:0.0017043034 86:0.002556455 87:0.0029825309 88:0.0017043034 89:0.0068172135 90:0.0046868343 91:0.0029825309 92:0.0038346826 93:0.0038346826 94:0.0042607584 95:0.0029825309 96:0.0034086067 97:0.0076693651 98:0.0051129101 99:0.0051129101 100:0.002556455 101:0.0038346826 102:0.0068172135 103:0.0051129101 104:0.002556455 105:0.0038346826 106:0.0051129101 107:0.0021303792 108:0.0051129101 109:0.0089475927 110:0.0051129101 111:0.002556455 112:0.0046868343 113:0.0042607584 114:0.0046868343 115:0.002556455 116:0.0034086067 117:0.0046868343 118:0.0029825309 119:0.0059650618 120:0.0038346826 121:0.0046868343 122:0.0055389859 123:0.00042607584 124:0.008095441 125:0.0046868343 126:0.0093736685 127:0.0017043034 128:0.0029825309 129:0.0034086067 130:0.002556455 131:0.0012782275 132:0.008095441 133:0.0038346826 134:0.0063911376 135:0.0068172135 136:0.0017043034 137:0.0055389859 138:0.0072432893 139:0.0042607584 140:0.0042607584 141:0.0055389859 142:0.0042607584 143:0.0042607584 144:0.008095441 145:0.0021303792 146:0.002556455 147:0.0012782275 148:0.0051129101 149:0.0029825309 150:0.0072432893 151:0.0042607584 152:0.0034086067 153:0.0021303792 154:0.008095441 155:0.00085215168 156:0.0029825309 157:0.0017043034 158:0.0034086067 159:0.0012782275 160:0.0042607584 161:0.0046868343 162:0.0059650618 163:0.002556455 164:0.0029825309 165:0.0089475927 166:0.0034086067 167:0.0038346826 168:0.0034086067 169:0.0029825309 170:0.00085215168 171:0.0012782275 172:0.0046868343 173:0.002556455 174:0.0051129101 175:0.002556455 176:0.0093736685 177:0.0051129101 178:0.0072432893 179:0.0076693651 180:0.0034086067 181:0.0038346826 182:0.0038346826 183:0.0046868343 184:0.0042607584 185:0.0038346826 186:0.0029825309 187:0.0042607584 188:0.0012782275 189:0.0055389859 190:0.0021303792 191:0.0021303792 192:0.0046868343 193:0.0042607584 194:0.0042607584 195:0.0076693651 196:0.00042607584 197:0.0034086067 198:0.0046868343 199:0.002556455 200:0.0012782275 201:0.00085215168 202:0.002556455 203:0.0051129101 204:0.0063911376 205:0.0017043034 206:0.0072432893 207:0.0038346826 208:0.0029825309 209:0.0046868343 210:0.0051129101 211:0.0012782275 212:0.0059650618 213:0.00085215168 214:0.0017043034 215:0.0034086067 216:0.0046868343 217:0.0046868343 218:0.002556455 219:0.012356199 220:0.0038346826 221:0.0042607584 222:0.0012782275 223:0.0089475927 224:0.0012782275 225:0.0042607584 226:0.002556455 227:0.0034086067 228:0.002556455 229:0.0042607584 230:0.002556455 231:0.0038346826 232:0.0029825309 233:0.0097997444 234:0.00042607584 235:0.0042607584 236:0.0017043034 237:0.0034086067 238:0.0051129101 239:0.0021303792 240:0.00085215168 241:0.0017043034 242:0.002556455 243:0.0017043034 244:0.00085215168 245:0.0076693651 246:0.002556455 247:0.0034086067 248:0.0034086067 249:0.0042607584 250:0.002556455 251:0.0051129101 252:0.0063911376 253:0.0021303792 254:0.0034086067 255:0.0055389859 256:0.0051129101 
8.072605685045241 1:0.0053191489 2:0.0060790274 3:0.0037993921 4:0.0045592705 5:0.0030395137 6:0.0030395137 7:0.009118541 8:0.0030395137 9:0.0030395137 10:0.0015197568 11:0.0045592705 12:0.00075987842 13:0.0022796353 14:0.0068389058 16:0.0030395137 17:0.0037993921 18:0.00075987842 19:0.0075987842 20:0.0015197568 22:0.0068389058 23:0.0015197568 24:0.0030395137 25:0.0083586626 26:0.00075987842 27:0.013677812 28:0.0037993921 29:0.0030395137 30:0.0075987842 31:0.0075987842 32:0.0022796353 33:0.0015197568 34:0.0068389058 36:0.00075987842 37:0.0022796353 38:0.0037993921 39:0.00075987842 40:0.00075987842 41:0.0068389058 42:0.00075987842 44:0.0022796353 45:0.0053191489 46:0.0045592705 47:0.0068389058 48:0.0015197568 49:0.0022796353 50:0.0037993921 51:0.0022796353 54:0.0030395137 55:0.0068389058 56:0.00075987842 57:0.009118541 58:0.0068389058 59:0.0053191489 60:0.0030395137 61:0.0030395137 62:0.0083586626 63:0.0045592705 64:0.0060790274 65:0.0015197568 66:0.0060790274 67:0.0083586626 68:0.010638298 69:0.0053191489 70:0.00075987842 71:0.00075987842 72:0.0060790274 73:0.0060790274 74:0.0030395137 75:0.013677812 76:0.0060790274 77:0.0030395137 78:0.0037993921 79:0.0015197568 81:0.0022796353 85:0.0030395137 86:0.0022796353 87:0.0030395137 88:0.0015197568 89:0.0015197568 90:0.0030395137 91:0.0045592705 92:0.0015197568 93:0.0030395137 94:0.0015197568 95:0.0053191489 96:0.0037993921 97:0.0075987842 98:0.0060790274 99:0.0030395137 100:0.0060790274 101:0.0068389058 102:0.010638298 103:0.0068389058 104:0.0045592705 105:0.0053191489 106:0.0053191489 107:0.0030395137 108:0.0022796353 109:0.0030395137 110:0.0022796353 111:0.00075987842 112:0.0060790274 113:0.0015197568 114:0.0022796353 115:0.0053191489 116:0.00075987842 117:0.0015197568 119:0.0068389058 121:0.013677812 122:0.00075987842 123:0.0045592705 124:0.0015197568 126:0.0030395137 127:0.0015197568 128:0.0015197568 129:0.0030395137 130:0.00075987842 131:0.011398176 133:0.0030395137 134:0.0022796353 135:0.00075987842 136:0.0022796353 137:0.0053191489 138:0.0045592705 139:0.0045592705 141:0.0083586626 142:0.0037993921 143:0.0037993921 144:0.0022796353 145:0.0037993921 147:0.0030395137 148:0.012158055 150:0.0022796353 151:0.0037993921 152:0.0030395137 153:0.011398176 154:0.0068389058 155:0.0022796353 156:0.0022796353 157:0.0030395137 158:0.0060790274 159:0.009118541 160:0.011398176 161:0.0037993921 162:0.0045592705 163:0.0037993921 164:0.00075987842 165:0.0037993921 166:0.0030395137 167:0.0015197568 168:0.0045592705 169:0.0068389058 171:0.0053191489 172:0.015197568 174:0.0022796353 175:0.0022796353 176:0.0022796353 177:0.0060790274 179:0.0060790274 180:0.0022796353 181:0.0053191489 182:0.0045592705 183:0.0045592705 184:0.009118541 185:0.0015197568 186:0.0037993921 189:0.00075987842 190:0.0083586626 191:0.0022796353 192:0.0060790274 193:0.0068389058 194:0.0068389058 195:0.0015197568 196:0.0037993921 197:0.0053191489 198:0.0015197568 199:0.0015197568 200:0.0053191489 201:0.0015197568 202:0.0075987842 203:0.0060790274 204:0.0015197568 205:0.017477204 206:0.00075987842 207:0.00075987842 208:0.0022796353 209:0.0030395137 211:0.00075987842 213:0.0037993921 216:0.00075987842 217:0.0045592705 218:0.00075987842 220:0.00075987842 221:0.0075987842 222:0.0045592705 223:0.0015197568 224:0.0015197568 225:0.0037993921 226:0.0015197568 227:0.00075987842 228:0.009118541 229:0.0022796353 230:0.016717325 231:0.0022796353 232:0.0098784195 233:0.0030395137 235:0.0060790274 236:0.0015197568 237:0.0045592705 238:0.0015197568 239:0.0068389058 240:0.00075987842 242:0.0068389058 243:0.0030395137 244:0.0060790274 245:0.0075987842 247:0.0083586626 248:0.009118541 249:0.0083586626 250:0.0037993921 251:0.0068389058 252:0.00075987842 253:0.010638298 254:0.0060790274 255:0.0075987842 256:0.0060790274 
0.207542284140682 1:0.0038910506 2:0.01778766 3:0.0050027793 4:0.0066703724 6:0.0022234575 7:0.012229016 8:0.0033351862 9:0.0022234575 10:0.0033351862 11:0.010561423 13:0.0055586437 14:0.0077821012 16:0.00055586437 17:0.0050027793 18:0.0011117287 19:0.0033351862 20:0.0033351862 22:0.0038910506 24:0.004446915 25:0.0022234575 26:0.0011117287 27:0.0027793218 28:0.004446915 29:0.004446915 30:0.0077821012 31:0.0077821012 32:0.004446915 33:0.0011117287 34:0.0038910506 35:0.00055586437 36:0.004446915 37:0.00055586437 38:0.0066703724 39:0.0011117287 41:0.0055586437 42:0.0027793218 43:0.00055586437 44:0.0050027793 45:0.0088938299 46:0.011673152 47:0.0011117287 48:0.0022234575 49:0.0066703724 50:0.0061145081 51:0.0033351862 54:0.0016675931 55:0.0011117287 57:0.0011117287 58:0.004446915 59:0.0022234575 61:0.004446915 62:0.0072262368 63:0.0016675931 64:0.0088938299 66:0.013340745 67:0.0038910506 68:0.0016675931 70:0.0038910506 71:0.0027793218 72:0.011117287 74:0.004446915 75:0.0011117287 76:0.0022234575 77:0.0088938299 78:0.010561423 79:0.0022234575 80:0.0066703724 83:0.0011117287 84:0.0016675931 85:0.0027793218 86:0.0055586437 87:0.0061145081 88:0.00055586437 89:0.0066703724 90:0.0016675931 91:0.0027793218 92:0.00055586437 93:0.0027793218 94:0.0066703724 95:0.0033351862 96:0.0050027793 97:0.0050027793 98:0.0094496943 99:0.0050027793 100:0.0088938299 101:0.0033351862 102:0.0055586437 103:0.0033351862 104:0.0033351862 105:0.0022234575 106:0.0038910506 107:0.0094496943 108:0.0038910506 109:0.016675931 111:0.004446915 112:0.0055586437 113:0.0033351862 114:0.0050027793 115:0.0038910506 116:0.0016675931 117:0.00055586437 119:0.014452474 120:0.0022234575 121:0.0066703724 123:0.0027793218 124:0.0088938299 126:0.0022234575 127:0.0022234575 128:0.00055586437 129:0.0011117287 130:0.00055586437 131:0.0011117287 132:0.004446915 133:0.0011117287 134:0.0088938299 136:0.0050027793 137:0.0055586437 138:0.011673152 139:0.00055586437 140:0.0055586437 141:0.0016675931 142:0.0016675931 143:0.004446915 144:0.0088938299 145:0.0061145081 146:0.00055586437 147:0.004446915 148:0.00055586437 149:0.004446915 150:0.0038910506 151:0.0027793218 152:0.00055586437 153:0.0038910506 154:0.0061145081 155:0.0022234575 157:0.0016675931 158:0.0050027793 159:0.0027793218 160:0.0033351862 161:0.00055586437 162:0.0011117287 163:0.0088938299 164:0.0016675931 165:0.0066703724 166:0.0055586437 167:0.0066703724 168:0.0016675931 169:0.0038910506 171:0.0016675931 172:0.0033351862 173:0.0027793218 174:0.0011117287 175:0.004446915 176:0.0072262368 177:0.0033351862 178:0.0016675931 179:0.0033351862 180:0.004446915 181:0.004446915 182:0.00055586437 183:0.016675931 184:0.0016675931 185:0.0061145081 186:0.012229016 187:0.0055586437 188:0.0022234575 189:0.0027793218 190:0.011673152 191:0.0011117287 192:0.0055586437 193:0.0022234575 194:0.0072262368 195:0.0072262368 196:0.004446915 197:0.010561423 198:0.0061145081 199:0.0011117287 200:0.004446915 202:0.0033351862 203:0.0011117287 204:0.015564202 205:0.014452474 206:0.0022234575 207:0.00055586437 208:0.0066703724 209:0.0066703724 210:0.0011117287 211:0.0016675931 212:0.0022234575 213:0.0027793218 214:0.0022234575 215:0.00055586437 216:0.0027793218 217:0.0033351862 218:0.0011117287 220:0.0016675931 221:0.0038910506 222:0.0016675931 223:0.0027793218 224:0.0061145081 226:0.0027793218 228:0.0038910506 230:0.004446915 231:0.0033351862 232:0.0033351862 235:0.0038910506 236:0.0050027793 237:0.0011117287 238:0.00055586437 239:0.0016675931 240:0.0066703724 241:0.004446915 242:0.0033351862 243:0.0077821012 244:0.0038910506 245:0.0016675931 246:0.0038910506 247:0.014452474 248:0.010005559 249:0.0094496943 250:0.0027793218 252:0.0022234575 253:0.0022234575 254:0.0011117287 255:0.0050027793 256:0.0050027793 
3.39961011456922 1:0.0020130851 2:0.0040261701 3:0.010568697 4:0.020634122 5:0.0075490689 6:0.0045294414 7:0.0070457977 8:0.00050327126 9:0.0020130851 10:0.0020130851 11:0.011071968 12:0.0060392552 13:0.0025163563 14:0.019627579 15:0.0020130851 16:0.0075490689 17:0.019124308 19:0.0010065425 20:0.0025163563 21:0.009562154 22:0.0045294414 23:0.0040261701 24:0.0010065425 25:0.0060392552 26:0.00050327126 27:0.00050327126 28:0.0060392552 29:0.0010065425 30:0.0045294414 31:0.0045294414 33:0.0015098138 34:0.0055359839 35:0.00050327126 36:0.0015098138 37:0.0050327126 38:0.0020130851 39:0.0025163563 41:0.0060392552 42:0.0045294414 43:0.0030196276 44:0.0040261701 45:0.0020130851 46:0.00050327126 47:0.0040261701 48:0.01610468 49:0.0070457977 50:0.0010065425 51:0.0030196276 52:0.00050327126 54:0.00050327126 55:0.00050327126 56:0.0070457977 57:0.00050327126 58:0.01207851 59:0.0035228988 60:0.0075490689 62:0.00050327126 63:0.0035228988 64:0.00050327126 65:0.014091595 66:0.0015098138 67:0.0030196276 68:0.021137393 69:0.009562154 70:0.0055359839 71:0.022143936 72:0.00050327126 73:0.0045294414 74:0.00050327126 75:0.0010065425 76:0.0040261701 77:0.0025163563 78:0.0045294414 79:0.0040261701 80:0.0055359839 81:0.0015098138 82:0.0025163563 84:0.010568697 86:0.0010065425 87:0.0020130851 88:0.0015098138 89:0.0025163563 90:0.00050327126 91:0.0020130851 92:0.0030196276 93:0.0040261701 94:0.0035228988 95:0.0010065425 96:0.0050327126 97:0.0060392552 98:0.0030196276 99:0.010568697 100:0.0055359839 101:0.0045294414 102:0.024157021 103:0.0065425264 105:0.017614494 106:0.00050327126 107:0.0030196276 108:0.0020130851 109:0.011071968 110:0.0040261701 111:0.00050327126 112:0.0015098138 113:0.0045294414 114:0.0080523402 116:0.0025163563 117:0.0010065425 118:0.0020130851 119:0.0030196276 120:0.010065425 121:0.00050327126 122:0.00050327126 123:0.017111223 124:0.0015098138 125:0.0075490689 126:0.0020130851 127:0.0020130851 128:0.00050327126 129:0.016607952 130:0.00050327126 131:0.0010065425 132:0.0030196276 133:0.0015098138 134:0.0040261701 135:0.0010065425 136:0.00050327126 137:0.014594867 138:0.0020130851 139:0.0010065425 140:0.0035228988 141:0.00050327126 142:0.0045294414 143:0.0020130851 144:0.0025163563 145:0.010065425 146:0.00050327126 148:0.0030196276 149:0.00050327126 150:0.00050327126 151:0.0020130851 154:0.0010065425 155:0.0010065425 156:0.0010065425 157:0.0030196276 158:0.0035228988 160:0.0015098138 161:0.0045294414 162:0.00050327126 163:0.0025163563 164:0.0020130851 165:0.0020130851 166:0.0015098138 167:0.0010065425 168:0.0065425264 169:0.0025163563 170:0.0045294414 171:0.00050327126 172:0.0010065425 173:0.0015098138 174:0.0025163563 176:0.0035228988 177:0.0060392552 178:0.0055359839 179:0.00050327126 180:0.0030196276 181:0.0025163563 182:0.00050327126 183:0.0040261701 184:0.014091595 185:0.0040261701 186:0.0050327126 187:0.0045294414 188:0.0030196276 189:0.0050327126 191:0.0020130851 192:0.00050327126 193:0.0045294414 194:0.0030196276 195:0.00050327126 196:0.00050327126 197:0.00050327126 198:0.012581782 199:0.00050327126 200:0.0035228988 201:0.00050327126 202:0.00050327126 203:0.00050327126 204:0.0020130851 205:0.0065425264 206:0.0030196276 207:0.0015098138 208:0.00050327126 209:0.0035228988 210:0.0010065425 212:0.0010065425 213:0.012581782 214:0.0020130851 215:0.0015098138 216:0.0015098138 217:0.0020130851 218:0.00050327126 219:0.0035228988 220:0.0085556115 222:0.0010065425 223:0.0020130851 224:0.0010065425 225:0.0030196276 226:0.00050327126 229:0.014594867 230:0.0040261701 232:0.0015098138 233:0.0035228988 234:0.0010065425 236:0.013588324 237:0.0015098138 238:0.0015098138 239:0.0020130851 240:0.0015098138 241:0.0010065425 242:0.0045294414 243:0.0025163563 244:0.0020130851 245:0.0025163563 246:0.00050327126 247:0.0030196276 248:0.022143936 249:0.0030196276 250:0.0020130851 251:0.0015098138 252:0.0045294414 253:0.01207851 254:0.0030196276 255:0.0055359839 256:0.025666834 
5.530281669292118 1:0.001150748 2:0.003452244 3:0.0080552359 4:0.003452244 5:0.001150748 6:0.016110472 7:0.002301496 8:0.0080552359 9:0.014959724 10:0.002301496 11:0.001150748 16:0.001150748 17:0.001150748 18:0.0057537399 19:0.001150748 20:0.01150748 22:0.003452244 23:0.0057537399 24:0.003452244 25:0.001150748 26:0.0057537399 27:0.001150748 28:0.001150748 30:0.002301496 31:0.002301496 32:0.001150748 33:0.002301496 34:0.002301496 35:0.01150748 36:0.001150748 37:0.010356732 38:0.001150748 39:0.0080552359 40:0.003452244 43:0.0046029919 46:0.003452244 47:0.003452244 48:0.003452244 49:0.002301496 51:0.002301496 52:0.003452244 53:0.01726122 55:0.002301496 56:0.001150748 57:0.0092059839 59:0.002301496 62:0.0046029919 63:0.002301496 64:0.001150748 65:0.0069044879 66:0.0046029919 68:0.002301496 70:0.024165708 71:0.003452244 76:0.001150748 77:0.001150748 79:0.003452244 80:0.012658228 81:0.029919448 82:0.0080552359 83:0.001150748 84:0.0046029919 85:0.002301496 87:0.002301496 88:0.010356732 89:0.001150748 90:0.002301496 92:0.002301496 93:0.003452244 94:0.003452244 96:0.0057537399 97:0.001150748 98:0.002301496 99:0.002301496 100:0.001150748 102:0.002301496 103:0.0069044879 105:0.001150748 107:0.001150748 109:0.001150748 111:0.0046029919 113:0.013808976 115:0.001150748 116:0.0080552359 118:0.013808976 119:0.0057537399 121:0.0046029919 122:0.0046029919 123:0.002301496 125:0.001150748 127:0.0057537399 128:0.0069044879 129:0.001150748 130:0.0046029919 131:0.003452244 132:0.003452244 133:0.001150748 134:0.0092059839 135:0.0069044879 136:0.01150748 138:0.0046029919 139:0.002301496 140:0.0069044879 141:0.003452244 142:0.002301496 143:0.002301496 144:0.003452244 145:0.001150748 146:0.002301496 148:0.026467204 149:0.01726122 150:0.003452244 151:0.0046029919 152:0.0069044879 153:0.002301496 154:0.0080552359 155:0.0080552359 156:0.0057537399 157:0.01726122 158:0.001150748 160:0.001150748 161:0.002301496 162:0.001150748 164:0.01150748 165:0.002301496 168:0.002301496 169:0.002301496 170:0.002301496 171:0.001150748 172:0.003452244 173:0.002301496 176:0.010356732 177:0.0046029919 178:0.0057537399 179:0.0080552359 180:0.003452244 181:0.002301496 183:0.001150748 184:0.0046029919 185:0.003452244 186:0.0057537399 187:0.016110472 188:0.021864212 189:0.002301496 190:0.003452244 192:0.003452244 193:0.003452244 195:0.0092059839 196:0.001150748 198:0.001150748 199:0.003452244 200:0.001150748 201:0.003452244 203:0.0069044879 204:0.002301496 205:0.0069044879 206:0.0046029919 209:0.002301496 210:0.0092059839 212:0.0057537399 213:0.002301496 214:0.019562716 215:0.0046029919 216:0.001150748 217:0.002301496 218:0.0057537399 219:0.003452244 220:0.002301496 222:0.019562716 223:0.002301496 224:0.003452244 225:0.0069044879 226:0.001150748 229:0.0092059839 230:0.002301496 231:0.001150748 233:0.002301496 234:0.025316456 237:0.002301496 238:0.0057537399 240:0.0057537399 241:0.0046029919 242:0.002301496 243:0.0046029919 246:0.0080552359 247:0.001150748 249:0.001150748 250:0.0069044879 251:0.020713464 252:0.0080552359 253:0.001150748 254:0.001150748 255:0.002301496 256:0.0046029919 
7.432148018579636 1:0.0067264574 2:0.0058295964 3:0.00044843049 4:0.0022421525 5:0.00044843049 6:0.00044843049 7:0.0022421525 8:0.0044843049 9:0.00089686099 10:0.0044843049 11:0.0031390135 12:0.00044843049 13:0.0062780269 14:0.001793722 16:0.014349776 17:0.0040358744 18:0.0071748879 19:0.002690583 20:0.00089686099 21:0.00044843049 22:0.0013452915 24:0.0022421525 25:0.001793722 26:0.0022421525 27:0.0022421525 28:0.002690583 29:0.0080717489 30:0.0013452915 31:0.001793722 32:0.013004484 33:0.0013452915 34:0.0031390135 35:0.0013452915 36:0.0044843049 37:0.0022421525 38:0.0031390135 39:0.0071748879 41:0.0067264574 42:0.0013452915 43:0.0035874439 44:0.002690583 45:0.013004484 46:0.0044843049 47:0.0013452915 48:0.002690583 49:0.0049327354 50:0.0058295964 51:0.0049327354 54:0.020179372 55:0.0067264574 56:0.00044843049 57:0.00044843049 58:0.0031390135 59:0.0058295964 61:0.0031390135 62:0.0040358744 63:0.001793722 64:0.0085201794 66:0.0049327354 67:0.0053811659 68:0.0031390135 69:0.00044843049 70:0.011210762 71:0.0013452915 72:0.0080717489 74:0.0067264574 75:0.002690583 76:0.0035874439 77:0.0031390135 78:0.001793722 79:0.0044843049 80:0.00044843049 81:0.00044843049 82:0.00044843049 83:0.0040358744 84:0.00044843049 85:0.0040358744 86:0.0022421525 87:0.0053811659 88:0.00044843049 89:0.0031390135 90:0.00089686099 91:0.0044843049 92:0.001793722 93:0.002690583 94:0.0044843049 95:0.0049327354 96:0.0049327354 97:0.00089686099 98:0.002690583 99:0.0035874439 100:0.001793722 101:0.0044843049 102:0.001793722 103:0.002690583 104:0.0035874439 105:0.001793722 106:0.0053811659 107:0.0076233184 108:0.0022421525 109:0.0071748879 111:0.0040358744 112:0.00089686099 113:0.011210762 114:0.0022421525 115:0.001793722 116:0.0013452915 118:0.0053811659 119:0.0053811659 120:0.0067264574 121:0.0031390135 122:0.0076233184 123:0.001793722 124:0.0094170404 125:0.0013452915 126:0.00044843049 127:0.002690583 128:0.0035874439 131:0.0080717489 132:0.0044843049 133:0.0013452915 134:0.0040358744 135:0.0013452915 136:0.0022421525 137:0.0058295964 138:0.0080717489 139:0.002690583 140:0.00089686099 141:0.0049327354 142:0.00044843049 143:0.0053811659 144:0.0031390135 145:0.0080717489 146:0.001793722 147:0.0040358744 149:0.0022421525 150:0.0044843049 151:0.002690583 152:0.002690583 153:0.0071748879 154:0.0076233184 155:0.0035874439 156:0.00044843049 157:0.00044843049 158:0.0062780269 159:0.0067264574 160:0.0076233184 161:0.0040358744 162:0.0013452915 163:0.0035874439 164:0.0031390135 165:0.0058295964 166:0.0053811659 167:0.0067264574 168:0.0044843049 169:0.015246637 171:0.0049327354 172:0.0040358744 173:0.0035874439 174:0.002690583 175:0.0058295964 176:0.026008969 177:0.0067264574 178:0.0067264574 179:0.0013452915 180:0.001793722 181:0.0085201794 182:0.0076233184 183:0.0085201794 184:0.00089686099 185:0.0040358744 186:0.0022421525 187:0.002690583 188:0.0049327354 189:0.0049327354 190:0.0062780269 191:0.0071748879 192:0.0058295964 193:0.0022421525 194:0.00089686099 195:0.0040358744 196:0.0022421525 197:0.0031390135 198:0.0022421525 199:0.0071748879 200:0.001793722 201:0.0035874439 202:0.0044843049 203:0.0040358744 204:0.0076233184 205:0.0049327354 206:0.0035874439 207:0.0022421525 208:0.0035874439 209:0.0031390135 210:0.014349776 211:0.00044843049 212:0.00044843049 213:0.0022421525 214:0.0049327354 216:0.0071748879 217:0.001793722 218:0.0022421525 220:0.0067264574 221:0.0031390135 222:0.00089686099 223:0.010762332 224:0.0031390135 225:0.002690583 226:0.00044843049 227:0.00044843049 228:0.013452915 230:0.012556054 231:0.0062780269 232:0.0049327354 234:0.00044843049 235:0.0022421525 236:0.0035874439 237:0.001793722 238:0.00044843049 239:0.001793722 240:0.0035874439 241:0.0085201794 242:0.00044843049 243:0.010762332 244:0.00044843049 245:0.017040359 246:0.0040358744 247:0.0058295964 248:0.0035874439 249:0.0040358744 250:0.001793722 251:0.0022421525 252:0.011210762 253:0.001793722 254:0.00044843049 255:0.0022421525 256:0.0035874439 
2.772118655844998 1:0.00087719298 2:0.014912281 3:0.013157895 4:0.014912281 5:0.0096491228 6:0.00087719298 7:0.0070175439 8:0.0035087719 9:0.0061403509 10:0.00087719298 11:0.0087719298 12:0.0070175439 13:0.0035087719 14:0.019298246 15:0.00087719298 16:0.00087719298 17:0.012280702 18:0.001754386 19:0.0052631579 20:0.00087719298 21:0.0078947368 22:0.0078947368 23:0.00087719298 24:0.00087719298 25:0.00087719298 26:0.00087719298 27:0.0035087719 28:0.0070175439 29:0.00087719298 30:0.0070175439 31:0.010526316 33:0.001754386 36:0.00087719298 37:0.0026315789 38:0.0026315789 41:0.0026315789 44:0.00087719298 45:0.0043859649 46:0.00087719298 47:0.0043859649 48:0.0052631579 49:0.0052631579 50:0.00087719298 51:0.0035087719 52:0.0026315789 55:0.00087719298 56:0.0070175439 57:0.0035087719 58:0.012280702 60:0.011403509 61:0.00087719298 62:0.0026315789 63:0.0043859649 64:0.0026315789 65:0.0052631579 66:0.012280702 67:0.0026315789 68:0.001754386 69:0.010526316 71:0.012280702 73:0.0096491228 74:0.001754386 75:0.026315789 76:0.00087719298 77:0.00087719298 78:0.0043859649 80:0.00087719298 81:0.00087719298 82:0.0035087719 83:0.0043859649 84:0.011403509 86:0.0070175439 87:0.00087719298 89:0.00087719298 90:0.0043859649 91:0.00087719298 92:0.0035087719 93:0.0052631579 94:0.0087719298 95:0.0035087719 96:0.0052631579 97:0.001754386 98:0.0061403509 99:0.0070175439 100:0.0061403509 101:0.0035087719 102:0.013157895 103:0.0078947368 104:0.0026315789 105:0.012280702 106:0.00087719298 107:0.014912281 108:0.0070175439 109:0.018421053 110:0.0026315789 111:0.00087719298 112:0.00087719298 113:0.00087719298 114:0.0061403509 116:0.00087719298 117:0.0035087719 119:0.0043859649 123:0.0035087719 124:0.0026315789 125:0.00087719298 126:0.0026315789 128:0.001754386 129:0.0026315789 130:0.0061403509 131:0.001754386 132:0.0070175439 134:0.00087719298 135:0.0061403509 137:0.0096491228 138:0.0043859649 139:0.0061403509 142:0.0043859649 144:0.0052631579 145:0.0078947368 146:0.0026315789 147:0.00087719298 148:0.0061403509 149:0.0043859649 150:0.0043859649 151:0.0052631579 152:0.0070175439 153:0.00087719298 154:0.0026315789 155:0.00087719298 156:0.0026315789 157:0.0061403509 158:0.0087719298 159:0.00087719298 160:0.00087719298 162:0.001754386 164:0.00087719298 165:0.0078947368 168:0.013157895 169:0.001754386 170:0.014912281 171:0.001754386 172:0.0043859649 174:0.0096491228 175:0.00087719298 176:0.00087719298 177:0.0087719298 178:0.001754386 179:0.0052631579 180:0.0052631579 181:0.0078947368 182:0.00087719298 183:0.0061403509 184:0.0096491228 185:0.0052631579 186:0.010526316 188:0.0026315789 189:0.0096491228 191:0.0035087719 192:0.0052631579 193:0.0070175439 194:0.0052631579 195:0.0026315789 196:0.0035087719 197:0.001754386 198:0.0078947368 200:0.0026315789 202:0.00087719298 203:0.00087719298 204:0.0026315789 205:0.0043859649 206:0.00087719298 207:0.0026315789 208:0.0026315789 209:0.0078947368 212:0.0026315789 213:0.0078947368 214:0.0026315789 215:0.0035087719 217:0.00087719298 218:0.00087719298 219:0.00087719298 221:0.011403509 222:0.001754386 224:0.0043859649 225:0.0035087719 226:0.0026315789 227:0.001754386 228:0.00087719298 229:0.0043859649 230:0.00087719298 231:0.00087719298 233:0.0035087719 234:0.00087719298 235:0.0035087719 236:0.0070175439 237:0.0078947368 238:0.0026315789 240:0.001754386 241:0.0035087719 242:0.014035088 243:0.001754386 244:0.001754386 246:0.00087719298 247:0.00087719298 248:0.011403509 249:0.00087719298 250:0.001754386 251:0.001754386 253:0.0026315789 254:0.0043859649 255:0.0052631579 256:0.011403509 
0.4366075089687509 1:0.0053090633 2:0.013272658 3:0.0083428138 4:0.019340159 5:0.0022753129 6:0.00037921881 7:0.0094804702 8:0.0056882821 9:0.0034129693 10:0.00075843762 11:0.0041714069 13:0.0056882821 14:0.0094804702 16:0.00037921881 17:0.0026545317 18:0.00075843762 19:0.0034129693 20:0.0064467198 21:0.0022753129 22:0.0037921881 23:0.0011376564 24:0.0041714069 25:0.0037921881 26:0.0015168752 27:0.0034129693 28:0.0034129693 29:0.0072051574 30:0.0068259386 31:0.013651877 32:0.0022753129 33:0.0022753129 34:0.0022753129 36:0.0034129693 37:0.00075843762 38:0.001896094 40:0.00037921881 41:0.0026545317 42:0.0011376564 43:0.00075843762 44:0.0053090633 45:0.0091012514 46:0.0041714069 47:0.0060675009 48:0.0094804702 49:0.0034129693 50:0.018581722 51:0.0064467198 52:0.00037921881 53:0.0015168752 54:0.00075843762 55:0.0011376564 56:0.001896094 57:0.0015168752 58:0.014789534 59:0.0015168752 61:0.0026545317 62:0.0053090633 63:0.0015168752 64:0.0022753129 65:0.0015168752 66:0.0075843762 67:0.0056882821 68:0.0094804702 69:0.0015168752 70:0.0011376564 71:0.0072051574 72:0.0022753129 73:0.00037921881 74:0.0026545317 75:0.0072051574 76:0.0037921881 77:0.0030337505 78:0.0034129693 79:0.0015168752 80:0.001896094 82:0.0011376564 83:0.001896094 84:0.0064467198 85:0.0022753129 86:0.0045506257 87:0.0056882821 88:0.00037921881 89:0.0045506257 90:0.0064467198 91:0.0037921881 92:0.0030337505 93:0.0049298445 94:0.0026545317 95:0.0015168752 96:0.013272658 97:0.0015168752 98:0.0049298445 99:0.0041714069 100:0.012514221 101:0.0060675009 102:0.013651877 103:0.0072051574 104:0.0037921881 105:0.010997345 106:0.0034129693 107:0.0060675009 108:0.014410315 109:0.01289344 111:0.0022753129 112:0.0041714069 113:0.00075843762 114:0.0030337505 115:0.0022753129 116:0.0037921881 117:0.00075843762 118:0.0011376564 119:0.0068259386 120:0.0011376564 121:0.0083428138 122:0.0045506257 123:0.0045506257 124:0.0056882821 125:0.00037921881 126:0.0026545317 127:0.0034129693 128:0.0011376564 129:0.0060675009 131:0.0034129693 132:0.0064467198 133:0.0049298445 134:0.0030337505 135:0.00037921881 136:0.0030337505 137:0.0056882821 138:0.0030337505 139:0.0026545317 140:0.00037921881 141:0.0022753129 142:0.0030337505 143:0.0075843762 144:0.0045506257 145:0.0056882821 146:0.001896094 147:0.0022753129 149:0.001896094 150:0.0030337505 151:0.0034129693 152:0.0015168752 153:0.0022753129 154:0.0060675009 155:0.001896094 156:0.0011376564 157:0.0060675009 158:0.0041714069 159:0.0087220326 160:0.0053090633 161:0.0015168752 162:0.0030337505 163:0.001896094 164:0.001896094 165:0.007963595 166:0.0037921881 167:0.0026545317 168:0.0030337505 169:0.0049298445 171:0.0022753129 172:0.0045506257 173:0.0011376564 174:0.00075843762 175:0.0045506257 176:0.0022753129 177:0.0045506257 178:0.0015168752 179:0.0056882821 180:0.00075843762 181:0.0060675009 182:0.0015168752 183:0.0049298445 184:0.0056882821 185:0.0056882821 186:0.0083428138 187:0.0015168752 188:0.0015168752 189:0.0056882821 190:0.0056882821 191:0.0015168752 192:0.0037921881 193:0.0045506257 194:0.0075843762 195:0.001896094 196:0.0075843762 197:0.0068259386 198:0.0068259386 199:0.0026545317 200:0.0022753129 201:0.0022753129 202:0.0037921881 203:0.00075843762 204:0.0072051574 205:0.0064467198 206:0.0015168752 207:0.00037921881 208:0.0015168752 209:0.0045506257 210:0.00075843762 211:0.001896094 212:0.0011376564 213:0.0064467198 214:0.001896094 215:0.00037921881 216:0.0011376564 217:0.0060675009 220:0.0015168752 221:0.0041714069 222:0.001896094 223:0.0015168752 224:0.0015168752 225:0.0030337505 226:0.0030337505 228:0.00037921881 229:0.0011376564 230:0.015168752 231:0.00075843762 232:0.0026545317 233:0.0011376564 234:0.00037921881 235:0.0026545317 236:0.0011376564 237:0.0034129693 238:0.001896094 239:0.001896094 240:0.00075843762 241:0.0053090633 242:0.0045506257 243:0.0037921881 244:0.0045506257 245:0.0030337505 246:0.0049298445 247:0.0091012514 248:0.018581722 249:0.0083428138 250:0.0015168752 251:0.001896094 252:0.0011376564 253:0.0064467198 254:0.0011376564 255:0.0056882821 256:0.0094804702 
7.695939431711198 1:0.0011061947 2:0.008480826 3:0.017699115 4:0.014749263 5:0.0073746313 6:0.0011061947 7:0.0055309735 8:0.0011061947 9:0.011430678 10:0.00036873156 11:0.034660767 12:0.0011061947 13:0.00073746313 14:0.0025811209 15:0.00036873156 16:0.00073746313 17:0.0022123894 18:0.0014749263 19:0.00073746313 20:0.0011061947 21:0.0014749263 22:0.0044247788 23:0.0011061947 24:0.0011061947 25:0.0014749263 26:0.00073746313 27:0.0014749263 28:0.00036873156 29:0.0018436578 30:0.00036873156 31:0.013643068 32:0.00036873156 33:0.00036873156 34:0.00036873156 35:0.0022123894 36:0.0011061947 37:0.00073746313 38:0.0018436578 39:0.00036873156 41:0.0011061947 42:0.0014749263 43:0.00036873156 44:0.0018436578 45:0.0055309735 47:0.0077433628 48:0.0029498525 49:0.0040560472 50:0.0040560472 51:0.023967552 52:0.00073746313 54:0.0018436578 55:0.0022123894 56:0.00036873156 57:0.0022123894 58:0.012536873 59:0.0040560472 60:0.00073746313 61:0.00036873156 62:0.0025811209 63:0.0036873156 64:0.0088495575 65:0.0047935103 66:0.0036873156 67:0.00036873156 68:0.0033185841 69:0.0018436578 70:0.00036873156 71:0.0022123894 73:0.00073746313 74:0.008480826 75:0.0025811209 76:0.0070058997 77:0.00036873156 79:0.0018436578 80:0.00073746313 81:0.0051622419 82:0.0029498525 83:0.0051622419 84:0.0092182891 86:0.0088495575 87:0.010324484 88:0.0033185841 89:0.0014749263 90:0.0018436578 91:0.0025811209 92:0.005899705 93:0.0081120944 94:0.0018436578 95:0.0022123894 96:0.0066371681 97:0.008480826 98:0.015855457 99:0.005899705 100:0.0088495575 101:0.0070058997 102:0.0066371681 103:0.0073746313 104:0.00036873156 105:0.0095870206 106:0.0040560472 107:0.0095870206 108:0.0073746313 109:0.008480826 110:0.00036873156 111:0.0081120944 112:0.0022123894 113:0.0025811209 114:0.00073746313 115:0.008480826 116:0.0033185841 118:0.0040560472 119:0.0047935103 121:0.00073746313 122:0.0011061947 123:0.0029498525 124:0.0022123894 125:0.0011061947 126:0.0044247788 127:0.00073746313 128:0.0044247788 129:0.0040560472 131:0.0011061947 132:0.005899705 133:0.0011061947 134:0.0014749263 135:0.00036873156 136:0.0025811209 137:0.0047935103 138:0.0051622419 139:0.0018436578 140:0.00073746313 141:0.0022123894 142:0.0070058997 143:0.0011061947 144:0.0092182891 145:0.0029498525 146:0.0047935103 147:0.0011061947 148:0.0014749263 149:0.0022123894 150:0.0095870206 151:0.0051622419 152:0.0066371681 153:0.0040560472 154:0.0047935103 155:0.0011061947 156:0.0014749263 157:0.0018436578 158:0.0011061947 159:0.0014749263 160:0.0040560472 161:0.0022123894 162:0.0025811209 163:0.0029498525 164:0.0018436578 165:0.02359882 166:0.00073746313 167:0.00073746313 168:0.0033185841 169:0.0062684366 170:0.00036873156 171:0.0036873156 172:0.0033185841 173:0.0025811209 174:0.0047935103 175:0.0011061947 176:0.00036873156 177:0.0051622419 178:0.0029498525 179:0.0095870206 180:0.0022123894 181:0.0029498525 182:0.00073746313 183:0.0036873156 184:0.0062684366 185:0.0040560472 186:0.0047935103 187:0.0011061947 188:0.00036873156 189:0.012905605 190:0.0036873156 191:0.0025811209 192:0.0044247788 193:0.0022123894 194:0.0036873156 195:0.0099557522 197:0.0025811209 198:0.017330383 199:0.0011061947 200:0.00073746313 201:0.0011061947 202:0.011430678 204:0.0033185841 205:0.0025811209 207:0.0040560472 208:0.0073746313 209:0.0066371681 210:0.0025811209 211:0.0077433628 212:0.00036873156 213:0.0018436578 214:0.0029498525 216:0.00036873156 217:0.0047935103 220:0.0011061947 221:0.0018436578 222:0.0022123894 223:0.00036873156 224:0.00036873156 225:0.0044247788 226:0.0055309735 228:0.008480826 229:0.0014749263 230:0.0051622419 231:0.0022123894 232:0.010324484 233:0.0036873156 235:0.0055309735 236:0.0029498525 237:0.0081120944 238:0.0011061947 239:0.0011061947 240:0.0040560472 241:0.0011061947 243:0.0022123894 244:0.0011061947 245:0.0014749263 246:0.0033185841 247:0.00073746313 248:0.029498525 250:0.0029498525 251:0.0081120944 252:0.0011061947 253:0.0014749263 254:0.012536873 255:0.012905605 256:0.016961652 
3.399368561996571 1:0.0056847545 2:0.016020672 3:0.0046511628 4:0.010852713 7:0.0056847545 8:0.0020671835 9:0.0046511628 10:0.00051679587 11:0.024289406 12:0.00051679587 13:0.0031007752 14:0.011369509 17:0.0015503876 18:0.00051679587 19:0.0046511628 20:0.0010335917 21:0.0025839793 22:0.0082687339 23:0.0020671835 24:0.0025839793 25:0.0062015504 26:0.00051679587 27:0.0010335917 28:0.0031007752 29:0.0020671835 30:0.0020671835 31:0.01498708 32:0.0020671835 33:0.0010335917 35:0.0010335917 36:0.0010335917 38:0.0031007752 39:0.0025839793 41:0.0020671835 42:0.0031007752 44:0.0056847545 45:0.0051679587 46:0.0020671835 47:0.0051679587 48:0.0036175711 49:0.0067183463 50:0.007751938 51:0.0098191214 52:0.00051679587 54:0.00051679587 55:0.0010335917 56:0.00051679587 57:0.0015503876 58:0.019121447 59:0.0093023256 61:0.00051679587 62:0.0031007752 63:0.0020671835 64:0.013436693 65:0.0010335917 66:0.0062015504 67:0.0010335917 68:0.0093023256 69:0.0010335917 71:0.00051679587 73:0.0025839793 74:0.0015503876 75:0.0041343669 76:0.013436693 78:0.0031007752 80:0.00051679587 81:0.0025839793 83:0.0020671835 85:0.00051679587 86:0.0020671835 87:0.013953488 88:0.0051679587 89:0.00051679587 90:0.0015503876 91:0.0067183463 92:0.0025839793 93:0.0093023256 94:0.0056847545 95:0.0025839793 96:0.010852713 97:0.0051679587 98:0.0098191214 99:0.010852713 100:0.0082687339 101:0.0072351421 102:0.018604651 103:0.007751938 104:0.0015503876 105:0.0041343669 106:0.007751938 107:0.0020671835 108:0.0087855297 109:0.019121447 110:0.00051679587 111:0.0020671835 112:0.0025839793 113:0.0020671835 114:0.0056847545 115:0.0093023256 116:0.00051679587 118:0.0010335917 119:0.0072351421 121:0.0010335917 123:0.0036175711 124:0.013953488 125:0.00051679587 126:0.0025839793 128:0.0015503876 129:0.0015503876 130:0.0010335917 131:0.0010335917 132:0.0087855297 133:0.0010335917 134:0.0020671835 136:0.0020671835 137:0.011369509 138:0.0067183463 139:0.0025839793 140:0.0020671835 141:0.0020671835 142:0.0031007752 143:0.00051679587 144:0.010335917 145:0.0020671835 146:0.0036175711 147:0.0025839793 148:0.00051679587 149:0.0015503876 150:0.0087855297 151:0.0020671835 152:0.0010335917 153:0.0067183463 154:0.015503876 156:0.0015503876 158:0.0062015504 159:0.0010335917 160:0.0051679587 161:0.0056847545 162:0.0031007752 163:0.0041343669 164:0.0025839793 165:0.02377261 166:0.00051679587 167:0.0020671835 168:0.00051679587 169:0.0062015504 171:0.0010335917 172:0.0051679587 173:0.0015503876 174:0.0020671835 175:0.0015503876 177:0.0051679587 178:0.0062015504 179:0.010852713 180:0.0025839793 181:0.0025839793 182:0.0010335917 183:0.0056847545 184:0.0041343669 185:0.0010335917 186:0.010335917 188:0.0020671835 189:0.016537468 190:0.0036175711 191:0.0041343669 192:0.0056847545 193:0.0051679587 194:0.0020671835 195:0.0062015504 196:0.0025839793 197:0.0067183463 198:0.0082687339 200:0.0025839793 201:0.00051679587 202:0.0041343669 204:0.007751938 205:0.0056847545 206:0.0020671835 207:0.0036175711 208:0.0036175711 209:0.0046511628 211:0.0010335917 212:0.0010335917 213:0.0031007752 214:0.0010335917 215:0.0010335917 217:0.0062015504 220:0.0031007752 221:0.0041343669 222:0.0015503876 223:0.00051679587 224:0.00051679587 225:0.0015503876 226:0.0051679587 228:0.0020671835 229:0.0025839793 230:0.0072351421 231:0.0010335917 232:0.0056847545 233:0.0020671835 235:0.0010335917 236:0.0031007752 237:0.0010335917 238:0.00051679587 239:0.0010335917 240:0.0072351421 241:0.0015503876 242:0.0025839793 243:0.0056847545 244:0.00051679587 245:0.0020671835 247:0.0067183463 248:0.019121447 249:0.0015503876 250:0.00051679587 251:0.0015503876 252:0.0010335917 253:0.010335917 254:0.0025839793 255:0.015503876 256:0.0098191214 
1.425225452705394 1:0.0011013216 2:0.015785609 3:0.0080763583 4:0.0099118943 5:0.0025697504 6:0.0003671072 7:0.0047723935 8:0.001835536 9:0.00073421439 10:0.0051395007 11:0.017621145 13:0.0066079295 14:0.0062408223 16:0.0084434655 17:0.003671072 18:0.0062408223 19:0.0073421439 20:0.001835536 22:0.003671072 23:0.0003671072 24:0.0044052863 25:0.0033039648 26:0.0025697504 27:0.0033039648 28:0.0029368576 29:0.0095447871 30:0.0011013216 31:0.011380323 32:0.0040381791 33:0.0014684288 34:0.0047723935 35:0.00073421439 36:0.0055066079 38:0.0044052863 39:0.0047723935 41:0.0055066079 42:0.0014684288 43:0.0011013216 44:0.0055066079 45:0.0084434655 46:0.001835536 47:0.0044052863 48:0.0025697504 49:0.0047723935 50:0.0073421439 51:0.0033039648 52:0.0003671072 54:0.0033039648 55:0.0051395007 56:0.00073421439 57:0.00073421439 58:0.0055066079 59:0.0003671072 60:0.0022026432 61:0.0025697504 62:0.0088105727 63:0.00073421439 64:0.0044052863 65:0.001835536 66:0.0051395007 67:0.0025697504 68:0.0047723935 69:0.00073421439 70:0.0055066079 71:0.0033039648 72:0.0025697504 73:0.0025697504 74:0.0058737151 75:0.00073421439 76:0.0051395007 77:0.0055066079 78:0.0033039648 79:0.0044052863 80:0.0022026432 81:0.0011013216 82:0.0029368576 83:0.0051395007 84:0.00073421439 85:0.0066079295 86:0.0040381791 87:0.0055066079 88:0.0022026432 89:0.016152717 90:0.0011013216 91:0.0022026432 92:0.0011013216 93:0.0025697504 94:0.0051395007 95:0.0033039648 96:0.01174743 97:0.0062408223 98:0.0033039648 99:0.0047723935 100:0.0084434655 101:0.0088105727 102:0.010646109 103:0.0058737151 104:0.0029368576 105:0.0055066079 106:0.0058737151 107:0.0051395007 108:0.0055066079 109:0.013950073 111:0.0014684288 112:0.0022026432 113:0.0055066079 114:0.003671072 115:0.0058737151 116:0.001835536 117:0.0014684288 118:0.0022026432 119:0.0066079295 120:0.0029368576 121:0.0055066079 122:0.0095447871 123:0.0025697504 124:0.0088105727 126:0.0025697504 127:0.001835536 128:0.0003671072 129:0.0033039648 130:0.0022026432 131:0.0025697504 132:0.010279001 133:0.0003671072 134:0.001835536 136:0.0066079295 137:0.0084434655 138:0.0040381791 139:0.0025697504 140:0.0025697504 141:0.0066079295 142:0.0040381791 143:0.0033039648 144:0.0029368576 145:0.001835536 146:0.0022026432 147:0.001835536 148:0.001835536 149:0.001835536 150:0.0058737151 151:0.003671072 152:0.0011013216 153:0.001835536 154:0.0099118943 155:0.0014684288 157:0.0011013216 158:0.0051395007 159:0.0047723935 160:0.0062408223 161:0.0051395007 162:0.001835536 163:0.0003671072 164:0.0029368576 165:0.013215859 166:0.0080763583 167:0.0047723935 168:0.001835536 169:0.001835536 170:0.003671072 171:0.0014684288 172:0.0025697504 173:0.0022026432 174:0.0014684288 175:0.0040381791 176:0.0040381791 177:0.0022026432 178:0.003671072 179:0.0058737151 180:0.0033039648 181:0.0025697504 182:0.0022026432 183:0.0088105727 184:0.0044052863 185:0.0047723935 186:0.0091776799 187:0.0033039648 188:0.0014684288 189:0.0062408223 190:0.0029368576 191:0.001835536 192:0.0084434655 193:0.0040381791 194:0.0055066079 195:0.0033039648 196:0.0011013216 197:0.0055066079 198:0.003671072 199:0.0029368576 200:0.0033039648 201:0.0022026432 202:0.0040381791 203:0.0033039648 204:0.0069750367 205:0.0044052863 206:0.0062408223 207:0.0022026432 208:0.0029368576 209:0.0066079295 210:0.003671072 211:0.0040381791 212:0.0014684288 213:0.0033039648 214:0.0040381791 216:0.0029368576 217:0.0011013216 218:0.0003671072 220:0.011380323 221:0.0011013216 222:0.0011013216 223:0.0040381791 224:0.0011013216 225:0.001835536 226:0.0011013216 228:0.003671072 229:0.00073421439 230:0.0040381791 231:0.00073421439 232:0.0058737151 233:0.0025697504 234:0.00073421439 235:0.0014684288 236:0.0022026432 237:0.0011013216 238:0.0022026432 239:0.0080763583 240:0.0025697504 241:0.0022026432 242:0.0033039648 243:0.0047723935 244:0.0025697504 245:0.00073421439 246:0.0040381791 247:0.0084434655 248:0.012848752 249:0.001835536 250:0.001835536 251:0.0011013216 252:0.0066079295 253:0.0029368576 254:0.0025697504 255:0.0088105727 256:0.0080763583 
1.542334122902507 1:0.00084245998 2:0.0025273799 3:0.0092670598 4:0.01305813 5:0.0025273799 6:0.0046335299 7:0.00084245998 8:0.00168492 9:0.00042122999 11:0.01937658 12:0.0042122999 13:0.00042122999 14:0.01221567 15:0.0058972199 16:0.00084245998 17:0.00168492 18:0.00210615 19:0.0025273799 20:0.0054759899 21:0.0063184499 22:0.00168492 23:0.00210615 24:0.00042122999 25:0.0096882898 26:0.00084245998 27:0.00084245998 28:0.00126369 29:0.00126369 30:0.00084245998 31:0.0075821398 32:0.00168492 33:0.00042122999 34:0.00126369 35:0.00210615 36:0.00126369 37:0.00126369 38:0.00168492 40:0.0063184499 41:0.0033698399 42:0.00168492 44:0.0058972199 45:0.00210615 46:0.00168492 47:0.0033698399 48:0.0075821398 49:0.0054759899 50:0.0025273799 51:0.02021904 52:0.0025273799 53:0.0084245998 54:0.0033698399 55:0.0033698399 56:0.0046335299 57:0.0029486099 58:0.0092670598 59:0.0092670598 60:0.01600674 61:0.00168492 62:0.00084245998 63:0.0063184499 64:0.0037910699 65:0.01221567 66:0.0029486099 67:0.00126369 68:0.01558551 69:0.0037910699 70:0.00168492 71:0.0126369 72:0.0037910699 73:0.0025273799 74:0.00042122999 75:0.00168492 76:0.0168492 77:0.00084245998 78:0.00042122999 80:0.00210615 81:0.00168492 82:0.0033698399 83:0.00168492 84:0.00042122999 85:0.00126369 86:0.00168492 87:0.0025273799 88:0.0046335299 89:0.00084245998 90:0.0042122999 91:0.0046335299 92:0.00042122999 93:0.0037910699 94:0.00210615 95:0.0046335299 96:0.0042122999 97:0.0042122999 98:0.0046335299 99:0.01010952 100:0.0067396799 101:0.0092670598 102:0.02190396 103:0.0042122999 104:0.00042122999 105:0.02021904 106:0.00126369 107:0.0025273799 108:0.0033698399 109:0.0075821398 110:0.0025273799 111:0.0025273799 112:0.00084245998 114:0.00168492 115:0.0029486099 116:0.0029486099 117:0.0025273799 118:0.00210615 119:0.00168492 121:0.00084245998 122:0.00126369 123:0.01390059 124:0.00126369 125:0.0029486099 126:0.00042122999 128:0.00210615 129:0.01137321 130:0.00126369 131:0.00168492 132:0.0058972199 133:0.0029486099 134:0.00210615 135:0.0080033698 136:0.00168492 137:0.02190396 138:0.0029486099 139:0.0046335299 140:0.0037910699 141:0.00084245998 142:0.01053075 143:0.00210615 144:0.0050547599 145:0.00210615 146:0.0058972199 147:0.00126369 148:0.0058972199 149:0.0029486099 150:0.0029486099 151:0.00126369 152:0.00168492 153:0.0037910699 154:0.0025273799 155:0.00084245998 156:0.0033698399 157:0.00210615 158:0.00126369 159:0.00084245998 160:0.0071609099 161:0.0084245998 162:0.00042122999 163:0.00210615 164:0.00084245998 165:0.0054759899 166:0.0029486099 167:0.0037910699 168:0.00126369 169:0.0092670598 171:0.0042122999 172:0.00042122999 173:0.0029486099 174:0.0054759899 175:0.00126369 176:0.00042122999 177:0.0050547599 178:0.0025273799 179:0.0092670598 180:0.00042122999 181:0.0033698399 182:0.0050547599 183:0.00168492 184:0.0080033698 185:0.00084245998 186:0.0025273799 187:0.00126369 188:0.0037910699 189:0.0088458298 190:0.0029486099 191:0.00168492 192:0.0025273799 193:0.0046335299 194:0.00168492 195:0.0063184499 196:0.00042122999 197:0.00210615 198:0.01347936 199:0.00210615 200:0.0025273799 202:0.0025273799 203:0.0025273799 204:0.0025273799 205:0.0084245998 206:0.00126369 207:0.00084245998 208:0.00084245998 209:0.0033698399 210:0.00126369 212:0.0025273799 213:0.0088458298 214:0.00126369 215:0.0025273799 217:0.0033698399 219:0.0088458298 221:0.00168492 222:0.00126369 223:0.00126369 225:0.0058972199 226:0.00042122999 227:0.0046335299 228:0.0029486099 229:0.0092670598 230:0.0029486099 232:0.0058972199 233:0.0071609099 234:0.0054759899 235:0.00084245998 236:0.00168492 237:0.00126369 238:0.0029486099 240:0.0029486099 241:0.00126369 242:0.00126369 243:0.0025273799 244:0.00042122999 245:0.0075821398 246:0.00084245998 247:0.00210615 248:0.02021904 249:0.00084245998 251:0.00168492 252:0.00042122999 253:0.0096882898 254:0.00210615 255:0.02358888 256:0.01516428 
7.577441139773311 1:0.00075901328 2:0.010246679 3:0.0091081594 4:0.0064516129 5:0.0026565465 6:0.0018975332 7:0.0022770398 8:0.0034155598 9:0.011385199 10:0.0037950664 11:0.0049335863 13:0.0037950664 14:0.0018975332 15:0.00075901328 16:0.0049335863 17:0.0037950664 18:0.0072106262 19:0.0068311195 20:0.0041745731 21:0.0015180266 22:0.0011385199 23:0.0011385199 24:0.005313093 25:0.00075901328 26:0.0049335863 27:0.0049335863 28:0.0072106262 29:0.0072106262 30:0.0037950664 31:0.0056925996 32:0.0018975332 33:0.0015180266 34:0.0056925996 35:0.00037950664 36:0.0041745731 37:0.0018975332 38:0.0026565465 39:0.0049335863 40:0.0011385199 41:0.0011385199 42:0.0030360531 43:0.0022770398 44:0.0041745731 45:0.0075901328 46:0.0011385199 47:0.0045540797 48:0.0041745731 49:0.0049335863 50:0.010246679 51:0.00075901328 52:0.0015180266 53:0.00037950664 55:0.0034155598 56:0.00037950664 57:0.0064516129 58:0.0049335863 59:0.0049335863 60:0.00037950664 62:0.0041745731 63:0.0011385199 64:0.0045540797 65:0.00037950664 66:0.0083491461 67:0.0018975332 68:0.0056925996 69:0.0037950664 70:0.0018975332 71:0.0030360531 72:0.012144213 73:0.0015180266 74:0.0079696395 75:0.0037950664 76:0.0030360531 77:0.0068311195 78:0.0022770398 79:0.0056925996 80:0.0015180266 81:0.0018975332 82:0.0026565465 83:0.0060721063 84:0.0011385199 85:0.0041745731 86:0.0022770398 87:0.0091081594 88:0.00075901328 89:0.0037950664 90:0.00037950664 91:0.0041745731 92:0.0022770398 93:0.0022770398 94:0.0075901328 95:0.0045540797 96:0.0060721063 97:0.0037950664 98:0.0045540797 99:0.0064516129 100:0.0045540797 101:0.0087286528 102:0.0098671727 103:0.0072106262 104:0.0034155598 105:0.0034155598 106:0.0022770398 107:0.0049335863 108:0.0018975332 109:0.005313093 110:0.0015180266 111:0.0049335863 112:0.0015180266 113:0.0045540797 114:0.0034155598 115:0.0030360531 116:0.0060721063 117:0.00037950664 118:0.0022770398 119:0.0079696395 120:0.0060721063 121:0.0030360531 122:0.0064516129 123:0.00075901328 124:0.0037950664 125:0.0011385199 126:0.0011385199 127:0.0030360531 128:0.0041745731 129:0.0018975332 130:0.0026565465 131:0.0011385199 132:0.009487666 133:0.00075901328 134:0.0068311195 135:0.0022770398 136:0.0037950664 137:0.0045540797 138:0.005313093 139:0.0045540797 140:0.0034155598 141:0.0041745731 142:0.0045540797 143:0.0083491461 144:0.0018975332 145:0.0041745731 146:0.0030360531 147:0.0026565465 148:0.0026565465 149:0.0034155598 150:0.0060721063 151:0.0034155598 152:0.0022770398 153:0.0018975332 154:0.005313093 155:0.0018975332 156:0.0022770398 157:0.0030360531 158:0.0026565465 159:0.012523719 160:0.0049335863 161:0.0022770398 162:0.0034155598 163:0.0018975332 164:0.0064516129 165:0.0030360531 166:0.0098671727 167:0.0056925996 168:0.0030360531 169:0.0083491461 170:0.0011385199 171:0.005313093 172:0.0068311195 173:0.00075901328 174:0.0034155598 175:0.0049335863 176:0.011005693 177:0.0034155598 178:0.0060721063 179:0.0030360531 180:0.0072106262 181:0.0041745731 182:0.0015180266 183:0.0049335863 184:0.0034155598 185:0.0045540797 186:0.0064516129 187:0.0018975332 188:0.00075901328 189:0.0015180266 190:0.0079696395 191:0.0022770398 192:0.010246679 193:0.0068311195 194:0.0034155598 196:0.0030360531 197:0.0037950664 198:0.0022770398 199:0.0026565465 200:0.0026565465 201:0.0056925996 202:0.0015180266 203:0.0022770398 204:0.011385199 205:0.005313093 206:0.0060721063 207:0.0034155598 208:0.0018975332 209:0.0041745731 210:0.0015180266 211:0.0060721063 212:0.0030360531 214:0.0022770398 216:0.0026565465 217:0.0022770398 218:0.00037950664 219:0.0022770398 220:0.0030360531 221:0.0037950664 222:0.0037950664 223:0.0060721063 224:0.005313093 225:0.0026565465 226:0.0049335863 228:0.0034155598 229:0.00075901328 230:0.0037950664 231:0.0026565465 232:0.0022770398 233:0.0034155598 234:0.00075901328 235:0.00075901328 236:0.00037950664 237:0.0037950664 238:0.0011385199 239:0.0022770398 240:0.0018975332 241:0.0011385199 242:0.0075901328 243:0.011385199 244:0.0037950664 245:0.00075901328 246:0.0068311195 247:0.0060721063 248:0.005313093 249:0.0015180266 250:0.0034155598 251:0.009487666 252:0.0079696395 253:0.0049335863 254:0.0018975332 255:0.0034155598 256:0.010626186 
6.196653753829132 1:0.0045558087 2:0.01309795 4:0.0062642369 6:0.00056947608 7:0.0028473804 8:0.0096810934 9:0.0017084282 10:0.0022779043 11:0.0022779043 12:0.0045558087 13:0.0039863326 14:0.0051252847 16:0.0045558087 17:0.0028473804 18:0.0034168565 19:0.0074031891 20:0.0028473804 21:0.0017084282 22:0.0028473804 24:0.0028473804 25:0.0017084282 26:0.0011389522 27:0.0028473804 28:0.00056947608 29:0.0051252847 30:0.0022779043 31:0.0074031891 32:0.0022779043 33:0.0051252847 34:0.0017084282 35:0.0051252847 36:0.0011389522 37:0.0017084282 38:0.0074031891 39:0.0045558087 41:0.00056947608 42:0.0045558087 43:0.0062642369 44:0.0022779043 45:0.0062642369 46:0.0051252847 47:0.0028473804 48:0.0011389522 49:0.0074031891 50:0.0062642369 51:0.0045558087 52:0.0017084282 54:0.0011389522 55:0.0056947608 56:0.0011389522 57:0.00056947608 58:0.0039863326 59:0.0045558087 60:0.0022779043 61:0.0034168565 62:0.0062642369 63:0.0011389522 64:0.0028473804 65:0.0034168565 66:0.0051252847 67:0.0034168565 69:0.011958998 70:0.0028473804 71:0.0034168565 72:0.0034168565 74:0.012528474 75:0.0022779043 76:0.0022779043 77:0.0039863326 78:0.0091116173 79:0.0028473804 80:0.0051252847 81:0.0051252847 82:0.0045558087 83:0.0028473804 85:0.0051252847 87:0.0011389522 88:0.012528474 89:0.0011389522 90:0.0028473804 91:0.0085421412 92:0.00056947608 93:0.0045558087 94:0.0062642369 95:0.0051252847 96:0.0045558087 97:0.0022779043 98:0.0028473804 99:0.0074031891 100:0.0011389522 101:0.0022779043 102:0.0034168565 103:0.0011389522 104:0.0017084282 105:0.0011389522 106:0.0045558087 107:0.0039863326 108:0.0056947608 109:0.0074031891 110:0.00056947608 111:0.01309795 112:0.0039863326 113:0.006833713 115:0.0034168565 116:0.0017084282 117:0.00056947608 118:0.0022779043 119:0.0085421412 120:0.0011389522 121:0.0079726651 122:0.0062642369 123:0.0028473804 124:0.0085421412 125:0.0051252847 126:0.00056947608 127:0.0028473804 129:0.0017084282 130:0.00056947608 131:0.0062642369 133:0.0028473804 134:0.0085421412 135:0.0028473804 136:0.0079726651 137:0.0022779043 138:0.0079726651 139:0.0028473804 140:0.0028473804 141:0.0011389522 142:0.00056947608 143:0.0074031891 144:0.006833713 145:0.0022779043 146:0.0091116173 147:0.0039863326 148:0.0022779043 149:0.0074031891 150:0.0051252847 151:0.0028473804 153:0.0028473804 154:0.011958998 155:0.0056947608 156:0.0011389522 157:0.0034168565 158:0.0045558087 159:0.010250569 160:0.0011389522 161:0.0079726651 162:0.0034168565 163:0.0028473804 164:0.0045558087 165:0.0039863326 166:0.010250569 167:0.0022779043 168:0.0056947608 169:0.0028473804 170:0.0022779043 171:0.0051252847 172:0.0074031891 173:0.0017084282 174:0.0011389522 175:0.0051252847 176:0.0028473804 177:0.010250569 178:0.0051252847 179:0.014236902 180:0.0011389522 181:0.0051252847 182:0.0011389522 183:0.010250569 184:0.0028473804 185:0.0034168565 186:0.0091116173 188:0.0034168565 189:0.0034168565 190:0.0022779043 191:0.0062642369 192:0.011389522 193:0.0085421412 194:0.0017084282 195:0.0079726651 196:0.0017084282 197:0.0022779043 198:0.0028473804 199:0.0056947608 200:0.0034168565 201:0.0028473804 202:0.0045558087 203:0.0056947608 204:0.0074031891 205:0.0017084282 206:0.0028473804 207:0.0028473804 208:0.0096810934 209:0.0028473804 210:0.0022779043 211:0.0022779043 212:0.0017084282 213:0.00056947608 214:0.0028473804 215:0.0028473804 216:0.0051252847 217:0.0039863326 218:0.006833713 219:0.00056947608 220:0.0085421412 221:0.0034168565 222:0.0017084282 223:0.0051252847 224:0.0045558087 225:0.00056947608 226:0.0022779043 227:0.0011389522 228:0.0011389522 229:0.0011389522 230:0.014236902 231:0.0034168565 232:0.0045558087 233:0.0022779043 234:0.0011389522 235:0.00056947608 236:0.0017084282 237:0.00056947608 238:0.0034168565 239:0.0034168565 240:0.0034168565 241:0.0034168565 242:0.0017084282 243:0.0011389522 244:0.0074031891 245:0.00056947608 246:0.0011389522 247:0.0051252847 248:0.0034168565 249:0.0022779043 250:0.011958998 252:0.0074031891 253:0.0039863326 254:0.00056947608 255:0.0056947608 256:0.0011389522 
0.2179316893959769 1:0.0046388337 2:0.0066269052 3:0.015241882 4:0.019880716 5:0.0059642147 6:0.0059642147 7:0.0053015242 8:0.0033134526 9:0.0026507621 11:0.0079522863 12:0.0046388337 13:0.00066269052 14:0.01325381 15:0.00066269052 17:0.0053015242 19:0.0026507621 20:0.001325381 21:0.0046388337 22:0.0059642147 23:0.0026507621 24:0.00066269052 25:0.0026507621 26:0.00066269052 27:0.001325381 28:0.0046388337 29:0.0059642147 30:0.0046388337 31:0.0053015242 35:0.0039761431 38:0.00066269052 40:0.0026507621 41:0.0059642147 42:0.0019880716 44:0.0026507621 45:0.0046388337 46:0.00066269052 47:0.0053015242 48:0.01259112 50:0.0019880716 51:0.021206097 52:0.0026507621 53:0.0026507621 56:0.0033134526 57:0.0033134526 58:0.0099403579 59:0.0019880716 60:0.01259112 61:0.00066269052 62:0.0019880716 63:0.0046388337 64:0.0019880716 65:0.011265739 66:0.001325381 67:0.00066269052 68:0.015904573 69:0.0059642147 71:0.02518224 74:0.00066269052 75:0.0033134526 76:0.0072895958 81:0.0039761431 82:0.0019880716 84:0.0079522863 86:0.0072895958 87:0.0033134526 88:0.0026507621 90:0.0026507621 91:0.0019880716 92:0.01259112 93:0.0053015242 94:0.00066269052 95:0.00066269052 96:0.0072895958 97:0.010603048 98:0.0092776673 99:0.0019880716 100:0.0086149768 101:0.0053015242 102:0.023856859 103:0.015241882 105:0.019218025 106:0.001325381 107:0.0039761431 108:0.0019880716 109:0.0092776673 110:0.0019880716 111:0.001325381 112:0.0033134526 114:0.0046388337 115:0.00066269052 116:0.00066269052 119:0.0026507621 122:0.00066269052 123:0.015904573 124:0.0019880716 125:0.0039761431 126:0.0019880716 127:0.00066269052 128:0.00066269052 129:0.010603048 130:0.0019880716 132:0.0026507621 135:0.0033134526 137:0.010603048 138:0.0033134526 139:0.0046388337 140:0.011928429 142:0.0046388337 143:0.00066269052 144:0.0026507621 145:0.0079522863 146:0.00066269052 148:0.0026507621 150:0.0033134526 151:0.0019880716 153:0.0026507621 154:0.0053015242 155:0.00066269052 156:0.0019880716 157:0.0046388337 158:0.0033134526 159:0.00066269052 160:0.0026507621 161:0.001325381 162:0.00066269052 163:0.00066269052 164:0.0019880716 165:0.0059642147 166:0.00066269052 167:0.0019880716 168:0.0039761431 169:0.0072895958 170:0.0019880716 171:0.0033134526 172:0.001325381 173:0.0059642147 174:0.0099403579 175:0.00066269052 177:0.0092776673 179:0.014579192 180:0.0026507621 181:0.0039761431 182:0.001325381 183:0.0072895958 184:0.01325381 185:0.00066269052 186:0.0039761431 188:0.00066269052 189:0.01325381 191:0.0019880716 192:0.00066269052 193:0.0033134526 194:0.0079522863 195:0.0026507621 196:0.0026507621 197:0.001325381 198:0.023194168 200:0.0053015242 201:0.001325381 202:0.001325381 203:0.00066269052 204:0.00066269052 205:0.0059642147 207:0.001325381 208:0.001325381 209:0.0039761431 210:0.00066269052 212:0.0019880716 213:0.011928429 214:0.00066269052 215:0.0026507621 217:0.0033134526 219:0.0066269052 221:0.0033134526 222:0.0033134526 224:0.001325381 225:0.0059642147 226:0.00066269052 227:0.0039761431 228:0.0033134526 229:0.0092776673 230:0.0033134526 231:0.00066269052 232:0.0033134526 233:0.0072895958 236:0.0086149768 237:0.001325381 238:0.001325381 240:0.001325381 241:0.0039761431 242:0.0099403579 245:0.0019880716 246:0.0026507621 247:0.0026507621 248:0.01325381 249:0.0033134526 250:0.00066269052 251:0.0053015242 253:0.010603048 254:0.013916501 255:0.011928429 256:0.017229954 
4.70681342380632 1:0.00098135427 2:0.0098135427 3:0.0029440628 4:0.016683023 5:0.0039254171 6:0.0029440628 7:0.0049067713 8:0.0039254171 9:0.00098135427 11:0.016683023 12:0.0039254171 13:0.00098135427 14:0.015701668 15:0.0029440628 17:0.0019627085 18:0.0019627085 20:0.0049067713 21:0.0029440628 22:0.0019627085 23:0.0029440628 25:0.0039254171 29:0.0049067713 30:0.0039254171 31:0.010794897 33:0.00098135427 35:0.02747792 36:0.0019627085 38:0.0049067713 40:0.00098135427 41:0.0049067713 44:0.00098135427 45:0.0078508342 46:0.0019627085 47:0.0039254171 48:0.0029440628 49:0.0039254171 50:0.00098135427 51:0.010794897 52:0.0039254171 53:0.00098135427 57:0.0019627085 58:0.0078508342 59:0.010794897 60:0.028459274 61:0.00098135427 62:0.00098135427 63:0.0049067713 64:0.011776251 65:0.0058881256 66:0.0029440628 67:0.0049067713 68:0.015701668 71:0.012757605 72:0.0039254171 75:0.00098135427 76:0.0098135427 77:0.00098135427 78:0.00098135427 80:0.0019627085 81:0.0098135427 82:0.0019627085 83:0.0019627085 84:0.0039254171 86:0.0049067713 87:0.0039254171 88:0.014720314 90:0.017664377 91:0.0019627085 92:0.0049067713 93:0.0029440628 94:0.0029440628 96:0.0049067713 97:0.0029440628 98:0.0049067713 99:0.0078508342 100:0.0039254171 101:0.0098135427 102:0.015701668 103:0.0078508342 105:0.015701668 106:0.00098135427 107:0.00098135427 108:0.0029440628 109:0.0088321884 110:0.0029440628 111:0.0019627085 112:0.0049067713 113:0.0019627085 114:0.0019627085 116:0.0019627085 117:0.0058881256 119:0.0058881256 121:0.00098135427 122:0.0019627085 123:0.011776251 128:0.0088321884 129:0.0098135427 130:0.00098135427 131:0.0039254171 132:0.0029440628 134:0.00098135427 136:0.0039254171 137:0.01373896 138:0.0049067713 139:0.0078508342 140:0.0098135427 141:0.00098135427 142:0.00098135427 143:0.00098135427 144:0.0049067713 145:0.0068694799 146:0.0039254171 147:0.00098135427 148:0.0019627085 149:0.0029440628 150:0.0049067713 151:0.0029440628 152:0.0019627085 153:0.0098135427 154:0.0078508342 155:0.00098135427 157:0.0049067713 158:0.0019627085 159:0.0029440628 160:0.0029440628 161:0.00098135427 163:0.0039254171 164:0.00098135427 165:0.0058881256 166:0.0029440628 167:0.00098135427 168:0.0029440628 169:0.0068694799 170:0.0019627085 171:0.0058881256 172:0.0019627085 173:0.00098135427 174:0.0029440628 175:0.00098135427 177:0.0029440628 179:0.016683023 181:0.0078508342 183:0.0088321884 184:0.0078508342 185:0.0019627085 186:0.0039254171 188:0.00098135427 189:0.011776251 190:0.00098135427 192:0.00098135427 193:0.0019627085 194:0.0019627085 195:0.0049067713 197:0.00098135427 198:0.018645731 200:0.0029440628 202:0.00098135427 203:0.0019627085 204:0.00098135427 206:0.00098135427 207:0.0039254171 208:0.00098135427 209:0.0029440628 210:0.0029440628 212:0.00098135427 213:0.0068694799 215:0.0029440628 217:0.016683023 219:0.0068694799 220:0.0019627085 221:0.0019627085 222:0.0049067713 224:0.00098135427 225:0.0029440628 227:0.0049067713 228:0.0029440628 229:0.0029440628 231:0.0049067713 232:0.010794897 233:0.0029440628 236:0.0019627085 237:0.00098135427 238:0.00098135427 240:0.0088321884 241:0.0019627085 242:0.0039254171 243:0.00098135427 245:0.0058881256 247:0.00098135427 248:0.023552502 250:0.00098135427 251:0.0019627085 252:0.00098135427 253:0.0068694799 254:0.0049067713 255:0.01373896 256:0.021589794 
2.286514356025767 2:0.019313305 3:0.0059012876 4:0.011266094 5:0.0075107296 6:0.0010729614 7:0.010729614 8:0.0042918455 9:0.0053648069 10:0.0037553648 11:0.0080472103 12:0.0016094421 13:0.0037553648 14:0.0075107296 16:0.00053648069 17:0.0059012876 18:0.0059012876 19:0.0026824034 20:0.0016094421 21:0.0021459227 22:0.0064377682 23:0.00053648069 24:0.0016094421 25:0.00053648069 27:0.0026824034 28:0.011802575 29:0.010729614 30:0.0059012876 31:0.018776824 32:0.0048283262 33:0.0037553648 34:0.00053648069 35:0.0010729614 36:0.0032188841 37:0.0021459227 38:0.0032188841 39:0.0021459227 41:0.0064377682 42:0.0021459227 43:0.0037553648 44:0.0053648069 45:0.0069742489 47:0.0026824034 48:0.0037553648 49:0.0026824034 50:0.0037553648 51:0.0032188841 54:0.0010729614 55:0.0026824034 56:0.00053648069 57:0.00053648069 58:0.010729614 61:0.0037553648 62:0.0053648069 63:0.0016094421 64:0.008583691 65:0.0016094421 66:0.0096566524 67:0.0010729614 68:0.0010729614 70:0.00053648069 71:0.00053648069 72:0.0010729614 73:0.0010729614 74:0.0048283262 75:0.0026824034 76:0.0016094421 77:0.0026824034 78:0.0059012876 79:0.00053648069 80:0.0037553648 81:0.0010729614 83:0.0026824034 84:0.0048283262 85:0.0042918455 86:0.008583691 87:0.008583691 89:0.0026824034 90:0.0016094421 92:0.0064377682 93:0.012875536 94:0.0075107296 95:0.0042918455 96:0.0091201717 97:0.0048283262 98:0.018240343 99:0.0021459227 100:0.0032188841 101:0.0053648069 102:0.0096566524 103:0.008583691 104:0.0064377682 105:0.0064377682 106:0.0053648069 107:0.019849785 108:0.011802575 109:0.013412017 110:0.00053648069 111:0.0042918455 112:0.0053648069 113:0.0021459227 114:0.0037553648 115:0.010193133 116:0.0016094421 118:0.0037553648 119:0.008583691 121:0.0021459227 122:0.00053648069 123:0.0021459227 124:0.008583691 126:0.0048283262 127:0.0010729614 128:0.0010729614 129:0.0016094421 130:0.0016094421 131:0.0016094421 132:0.0059012876 133:0.00053648069 134:0.0021459227 136:0.0069742489 137:0.0037553648 138:0.0075107296 139:0.0032188841 140:0.0016094421 141:0.0037553648 142:0.0032188841 143:0.0037553648 144:0.0080472103 145:0.0042918455 146:0.0032188841 147:0.0048283262 149:0.0048283262 150:0.0053648069 151:0.0032188841 153:0.0010729614 154:0.008583691 155:0.00053648069 157:0.0026824034 158:0.00053648069 159:0.0037553648 160:0.0032188841 161:0.00053648069 162:0.00053648069 163:0.0016094421 164:0.0021459227 165:0.0096566524 166:0.0026824034 167:0.00053648069 168:0.0026824034 169:0.00053648069 170:0.0053648069 171:0.0010729614 172:0.0059012876 173:0.00053648069 174:0.0016094421 175:0.0021459227 176:0.00053648069 177:0.0042918455 178:0.0053648069 179:0.0059012876 180:0.013412017 181:0.0096566524 182:0.00053648069 183:0.0096566524 184:0.0037553648 185:0.0048283262 186:0.013412017 188:0.0021459227 189:0.0064377682 190:0.0042918455 193:0.0016094421 194:0.0053648069 195:0.0021459227 196:0.0026824034 197:0.0053648069 198:0.0032188841 199:0.0010729614 200:0.0010729614 201:0.0032188841 202:0.0016094421 203:0.0026824034 204:0.0080472103 205:0.0075107296 206:0.0010729614 207:0.0053648069 208:0.0075107296 209:0.0064377682 211:0.0059012876 212:0.0021459227 214:0.0016094421 216:0.0021459227 217:0.0032188841 218:0.00053648069 220:0.0021459227 221:0.0091201717 222:0.0016094421 223:0.00053648069 224:0.0042918455 225:0.0010729614 226:0.0048283262 228:0.0010729614 229:0.0010729614 230:0.00053648069 231:0.0032188841 232:0.0053648069 233:0.0021459227 235:0.0048283262 236:0.0032188841 237:0.0048283262 238:0.0010729614 239:0.0016094421 240:0.0016094421 241:0.0010729614 242:0.024141631 243:0.0096566524 244:0.0010729614 245:0.00053648069 246:0.0032188841 247:0.0037553648 248:0.012339056 249:0.0010729614 250:0.0042918455 251:0.0016094421 252:0.0048283262 253:0.0010729614 254:0.0016094421 255:0.0069742489 256:0.010193133 
8.716609025376517 1:0.0024834437 2:0.005794702 3:0.0062086093 4:0.0049668874 5:0.002897351 6:0.00041390728 7:0.0066225166 8:0.0045529801 9:0.00082781457 10:0.0053807947 11:0.0033112583 12:0.0033112583 13:0.0020695364 14:0.0033112583 15:0.00041390728 16:0.00082781457 17:0.0033112583 18:0.0012417219 19:0.0041390728 20:0.0016556291 21:0.0045529801 22:0.0037251656 24:0.0037251656 25:0.0045529801 26:0.0041390728 27:0.0020695364 28:0.0045529801 29:0.0074503311 30:0.0062086093 31:0.0049668874 32:0.008692053 33:0.0020695364 34:0.002897351 36:0.011589404 37:0.0016556291 38:0.0041390728 39:0.0020695364 41:0.005794702 42:0.00041390728 43:0.0012417219 44:0.0024834437 45:0.016556291 46:0.0078642384 47:0.002897351 48:0.0074503311 49:0.0070364238 50:0.0020695364 51:0.0020695364 54:0.002897351 55:0.011589404 56:0.0020695364 57:0.0033112583 58:0.0049668874 59:0.0045529801 60:0.0024834437 61:0.002897351 62:0.0037251656 63:0.002897351 64:0.0016556291 65:0.002897351 66:0.010761589 67:0.0024834437 68:0.0045529801 69:0.00041390728 70:0.00041390728 71:0.0037251656 72:0.014486755 74:0.0041390728 75:0.00082781457 76:0.0037251656 77:0.008692053 78:0.0020695364 79:0.0037251656 80:0.00082781457 81:0.00082781457 82:0.00082781457 83:0.0041390728 84:0.0033112583 85:0.0053807947 86:0.0016556291 87:0.011175497 89:0.0041390728 90:0.0041390728 91:0.0024834437 92:0.0037251656 93:0.0045529801 94:0.0041390728 95:0.0041390728 96:0.0078642384 97:0.0016556291 98:0.002897351 99:0.0082781457 100:0.0037251656 101:0.0091059603 102:0.0062086093 103:0.002897351 104:0.0033112583 105:0.002897351 106:0.0053807947 107:0.0053807947 108:0.0062086093 109:0.0053807947 111:0.0024834437 112:0.005794702 113:0.0016556291 114:0.0053807947 115:0.014486755 116:0.0024834437 117:0.00082781457 118:0.0041390728 119:0.0037251656 120:0.00041390728 121:0.010347682 122:0.0037251656 123:0.0041390728 124:0.0066225166 125:0.0024834437 126:0.0037251656 127:0.0024834437 128:0.00041390728 129:0.0033112583 131:0.00041390728 132:0.0033112583 133:0.0033112583 134:0.002897351 135:0.00041390728 137:0.0066225166 138:0.0045529801 139:0.0020695364 140:0.0053807947 141:0.002897351 142:0.0045529801 143:0.0099337748 144:0.0033112583 145:0.0037251656 146:0.002897351 147:0.0082781457 148:0.00082781457 150:0.0012417219 151:0.0053807947 152:0.0016556291 153:0.0070364238 154:0.0070364238 155:0.00082781457 156:0.0037251656 157:0.00082781457 158:0.0045529801 159:0.0049668874 160:0.0070364238 161:0.0041390728 162:0.002897351 163:0.002897351 164:0.0012417219 165:0.0020695364 166:0.0070364238 167:0.0053807947 168:0.0016556291 169:0.0037251656 170:0.00041390728 171:0.0070364238 172:0.0066225166 173:0.0041390728 174:0.00041390728 175:0.0037251656 176:0.0041390728 177:0.002897351 178:0.005794702 179:0.0024834437 180:0.0012417219 181:0.0091059603 182:0.0049668874 183:0.0045529801 184:0.0066225166 185:0.0049668874 186:0.0074503311 187:0.0024834437 188:0.0041390728 189:0.0024834437 190:0.010761589 191:0.002897351 192:0.0041390728 193:0.00082781457 194:0.0074503311 195:0.0053807947 196:0.0049668874 197:0.0062086093 198:0.0049668874 199:0.0045529801 200:0.0020695364 201:0.0037251656 202:0.0099337748 203:0.0041390728 204:0.0074503311 205:0.0062086093 206:0.0041390728 207:0.0033112583 208:0.00041390728 209:0.0095198675 210:0.0033112583 212:0.0041390728 213:0.0020695364 214:0.0049668874 215:0.00082781457 216:0.0024834437 217:0.00041390728 218:0.00082781457 219:0.0024834437 220:0.00082781457 221:0.0045529801 222:0.002897351 223:0.0024834437 224:0.0033112583 225:0.0016556291 226:0.0024834437 227:0.0024834437 228:0.0070364238 229:0.00082781457 230:0.0053807947 231:0.00082781457 232:0.0053807947 233:0.00082781457 235:0.002897351 236:0.005794702 237:0.0053807947 238:0.0020695364 239:0.002897351 240:0.0066225166 241:0.002897351 242:0.0012417219 243:0.0066225166 244:0.0020695364 245:0.0033112583 246:0.002897351 247:0.008692053 248:0.0074503311 249:0.0074503311 250:0.0041390728 251:0.0045529801 252:0.0033112583 253:0.0041390728 254:0.0016556291 255:0.0074503311 256:0.0045529801 
6.052297923432049 1:0.0075287865 2:0.0062001771 3:0.0026572188 4:0.0066430469 5:0.0035429584 6:0.0017714792 7:0.004428698 8:0.0017714792 9:0.0062001771 10:0.0026572188 11:0.012400354 12:0.004428698 13:0.0013286094 14:0.0079716563 15:0.002214349 16:0.004428698 17:0.002214349 18:0.0017714792 19:0.0053144376 20:0.0053144376 21:0.0026572188 22:0.0017714792 23:0.0057573074 24:0.0026572188 25:0.0035429584 26:0.0070859167 27:0.0004428698 28:0.0017714792 29:0.0035429584 30:0.0088573959 31:0.0084145261 32:0.014171833 33:0.0017714792 34:0.0048715678 35:0.0039858282 36:0.0039858282 37:0.0062001771 38:0.0026572188 39:0.00088573959 40:0.0026572188 41:0.0031000886 42:0.00088573959 43:0.0066430469 44:0.0053144376 45:0.004428698 46:0.0013286094 47:0.0035429584 48:0.0039858282 49:0.0066430469 50:0.0039858282 51:0.0062001771 52:0.0013286094 53:0.0053144376 54:0.002214349 55:0.0026572188 56:0.0031000886 57:0.0013286094 58:0.0075287865 59:0.0084145261 60:0.0075287865 61:0.0035429584 62:0.0017714792 63:0.0031000886 64:0.0004428698 65:0.0035429584 66:0.0026572188 67:0.002214349 68:0.0084145261 69:0.00088573959 70:0.002214349 71:0.0053144376 72:0.00088573959 73:0.0039858282 74:0.002214349 75:0.0013286094 76:0.0035429584 77:0.0035429584 78:0.0075287865 79:0.0035429584 80:0.0066430469 81:0.0031000886 82:0.004428698 83:0.0062001771 84:0.0057573074 85:0.0026572188 86:0.0035429584 87:0.0031000886 88:0.0017714792 89:0.0004428698 90:0.00088573959 91:0.0057573074 92:0.0031000886 93:0.004428698 94:0.0013286094 95:0.011071745 96:0.0053144376 97:0.0026572188 98:0.0062001771 99:0.011514615 100:0.0053144376 101:0.0048715678 102:0.0093002657 103:0.0048715678 104:0.002214349 105:0.0084145261 106:0.0070859167 107:0.0039858282 108:0.0039858282 109:0.0093002657 110:0.0053144376 111:0.0013286094 112:0.002214349 113:0.0026572188 114:0.0017714792 115:0.0013286094 116:0.0075287865 117:0.0026572188 118:0.0097431355 119:0.0013286094 120:0.0013286094 121:0.0048715678 122:0.0031000886 123:0.010628875 124:0.0035429584 125:0.0004428698 126:0.0004428698 127:0.0013286094 128:0.00088573959 129:0.0031000886 130:0.0013286094 131:0.0097431355 132:0.0031000886 133:0.0031000886 134:0.00088573959 135:0.0026572188 136:0.0039858282 137:0.0075287865 138:0.0039858282 139:0.0013286094 140:0.0004428698 141:0.002214349 142:0.0048715678 143:0.004428698 144:0.00088573959 145:0.0039858282 146:0.002214349 147:0.0026572188 148:0.0035429584 149:0.0039858282 150:0.0031000886 151:0.0004428698 152:0.00088573959 153:0.0035429584 154:0.0048715678 155:0.002214349 156:0.002214349 157:0.0057573074 158:0.0031000886 159:0.0048715678 160:0.0075287865 161:0.0039858282 162:0.00088573959 163:0.0031000886 164:0.0013286094 165:0.0062001771 166:0.002214349 167:0.0035429584 169:0.02170062 170:0.0013286094 171:0.002214349 172:0.0026572188 173:0.0026572188 174:0.002214349 175:0.0013286094 176:0.004428698 177:0.002214349 178:0.0035429584 179:0.0075287865 180:0.0035429584 181:0.0035429584 182:0.0035429584 183:0.0057573074 184:0.0066430469 185:0.0017714792 186:0.0079716563 187:0.0031000886 188:0.0039858282 189:0.002214349 190:0.004428698 191:0.0048715678 192:0.012400354 193:0.0004428698 194:0.0031000886 195:0.0031000886 196:0.00088573959 197:0.0031000886 198:0.0026572188 199:0.0031000886 200:0.00088573959 201:0.0004428698 202:0.016829052 203:0.012400354 204:0.0026572188 205:0.0039858282 206:0.0035429584 207:0.0026572188 208:0.00088573959 209:0.0035429584 210:0.0013286094 212:0.002214349 213:0.002214349 214:0.0093002657 215:0.0057573074 216:0.0013286094 217:0.0039858282 218:0.004428698 219:0.002214349 220:0.002214349 221:0.0031000886 222:0.0084145261 223:0.0070859167 224:0.0013286094 225:0.0031000886 227:0.0017714792 228:0.0066430469 229:0.0031000886 230:0.0070859167 231:0.0031000886 232:0.002214349 233:0.0004428698 234:0.0035429584 235:0.00088573959 236:0.0026572188 237:0.0017714792 238:0.0079716563 239:0.0013286094 240:0.0013286094 241:0.0017714792 242:0.0031000886 243:0.002214349 244:0.0004428698 245:0.0066430469 246:0.0035429584 247:0.0017714792 248:0.013286094 249:0.00088573959 250:0.002214349 251:0.0004428698 252:0.0035429584 253:0.0031000886 254:0.0004428698 255:0.004428698 256:0.004428698 
4.812821205905751 1:0.0019636721 2:0.011291114 3:0.0058910162 4:0.010309278 5:0.0024545901 6:0.0034364261 7:0.0024545901 8:0.0024545901 9:0.00049091802 10:0.0024545901 11:0.027000491 12:0.0014727541 13:0.0029455081 14:0.0083456063 15:0.0019636721 17:0.0068728522 18:0.0014727541 19:0.0039273441 20:0.0029455081 21:0.0024545901 22:0.0098183603 23:0.00098183603 24:0.0019636721 25:0.0054000982 26:0.0039273441 27:0.0029455081 28:0.00098183603 29:0.0034364261 30:0.0034364261 31:0.013254786 32:0.0054000982 33:0.00098183603 34:0.00098183603 35:0.0078546883 36:0.0039273441 37:0.0029455081 38:0.00098183603 39:0.0029455081 41:0.0054000982 42:0.0034364261 43:0.0014727541 44:0.0049091802 45:0.0044182622 46:0.0034364261 47:0.0039273441 48:0.0063819342 49:0.0019636721 50:0.0044182622 51:0.0088365243 52:0.0029455081 53:0.0014727541 55:0.0029455081 56:0.0014727541 57:0.0049091802 58:0.0098183603 59:0.0044182622 60:0.0029455081 61:0.0058910162 62:0.0019636721 63:0.0014727541 64:0.0093274423 65:0.0039273441 66:0.0029455081 67:0.0073637703 68:0.0078546883 69:0.0034364261 70:0.0034364261 71:0.0019636721 72:0.0083456063 73:0.0068728522 74:0.0049091802 75:0.0039273441 76:0.0068728522 77:0.0014727541 78:0.0044182622 79:0.00049091802 80:0.0039273441 81:0.0029455081 82:0.0014727541 83:0.0024545901 84:0.0029455081 85:0.0058910162 86:0.0024545901 87:0.0024545901 88:0.0058910162 89:0.00098183603 90:0.0029455081 91:0.0019636721 92:0.0019636721 93:0.0073637703 94:0.00098183603 95:0.0014727541 96:0.0068728522 97:0.0078546883 98:0.010800196 99:0.0054000982 100:0.0039273441 101:0.0063819342 102:0.010800196 103:0.0083456063 104:0.0019636721 105:0.0098183603 106:0.0039273441 107:0.0044182622 108:0.0083456063 109:0.0078546883 110:0.0019636721 111:0.0024545901 112:0.00098183603 113:0.00098183603 114:0.0014727541 115:0.0039273441 116:0.0014727541 117:0.0019636721 118:0.0039273441 119:0.0063819342 120:0.0024545901 121:0.0014727541 122:0.0024545901 123:0.00098183603 124:0.0019636721 125:0.0088365243 126:0.00098183603 127:0.00098183603 128:0.0049091802 129:0.0034364261 130:0.0034364261 131:0.0024545901 132:0.0054000982 133:0.00049091802 134:0.0014727541 135:0.0024545901 136:0.00098183603 137:0.0063819342 138:0.0029455081 139:0.0049091802 140:0.0044182622 141:0.0019636721 142:0.0049091802 143:0.0019636721 144:0.0039273441 145:0.0044182622 146:0.0044182622 147:0.00098183603 148:0.0029455081 149:0.00098183603 150:0.0029455081 151:0.0024545901 152:0.00098183603 153:0.0029455081 154:0.0098183603 155:0.0049091802 156:0.00098183603 157:0.0019636721 158:0.0063819342 159:0.00098183603 160:0.0019636721 161:0.0034364261 162:0.0019636721 163:0.0024545901 164:0.00098183603 165:0.0088365243 166:0.0014727541 167:0.0019636721 168:0.0019636721 169:0.0029455081 170:0.00098183603 171:0.0019636721 172:0.0029455081 173:0.00049091802 174:0.0039273441 175:0.00098183603 176:0.00098183603 177:0.0034364261 178:0.0014727541 179:0.010800196 180:0.0039273441 181:0.0058910162 182:0.0029455081 183:0.0058910162 184:0.0088365243 185:0.0034364261 186:0.0058910162 187:0.0039273441 188:0.0024545901 189:0.010800196 190:0.0034364261 191:0.0049091802 192:0.0029455081 193:0.0024545901 194:0.0049091802 195:0.0044182622 196:0.0019636721 197:0.0029455081 198:0.0083456063 199:0.00098183603 200:0.0044182622 201:0.0014727541 202:0.0044182622 203:0.0014727541 204:0.0054000982 205:0.0068728522 206:0.00098183603 207:0.0019636721 208:0.0039273441 209:0.0068728522 210:0.0063819342 211:0.0044182622 212:0.00049091802 213:0.0034364261 214:0.0034364261 215:0.0029455081 216:0.00098183603 217:0.0034364261 218:0.0019636721 221:0.0034364261 222:0.00098183603 223:0.00049091802 224:0.0044182622 225:0.0014727541 226:0.0034364261 227:0.00049091802 228:0.0014727541 229:0.0019636721 230:0.0058910162 231:0.0044182622 232:0.0078546883 233:0.0054000982 234:0.00049091802 235:0.00098183603 236:0.0068728522 237:0.00098183603 238:0.0014727541 239:0.0024545901 240:0.0019636721 241:0.0014727541 242:0.0044182622 243:0.0014727541 244:0.0019636721 245:0.0024545901 246:0.0054000982 247:0.0024545901 248:0.019145803 249:0.0039273441 250:0.0019636721 251:0.0044182622 252:0.0014727541 253:0.011782032 254:0.0044182622 255:0.016200295 256:0.011291114 
7.026026904956522 1:0.0036900369 2:0.010332103 3:0.0036900369 4:0.010332103 5:0.0044280443 7:0.010332103 8:0.0088560886 10:0.0029520295 11:0.0014760148 12:0.0014760148 13:0.0036900369 14:0.0066420664 16:0.0014760148 17:0.010332103 19:0.005904059 21:0.0051660517 22:0.0036900369 23:0.0014760148 24:0.011808118 25:0.0036900369 26:0.0036900369 27:0.00073800738 28:0.0044280443 29:0.011808118 30:0.0036900369 31:0.0095940959 32:0.0051660517 33:0.0022140221 34:0.0036900369 35:0.00073800738 36:0.0073800738 37:0.0029520295 38:0.0081180812 39:0.0014760148 41:0.012546125 42:0.0022140221 44:0.005904059 45:0.010332103 46:0.0036900369 47:0.0036900369 48:0.005904059 50:0.0088560886 51:0.0014760148 54:0.0022140221 55:0.0088560886 58:0.0088560886 59:0.0014760148 60:0.00073800738 62:0.0044280443 64:0.005904059 65:0.0029520295 66:0.0051660517 67:0.011808118 68:0.005904059 70:0.00073800738 71:0.005904059 72:0.0081180812 73:0.0014760148 74:0.0051660517 75:0.0014760148 76:0.0044280443 77:0.0073800738 78:0.005904059 79:0.0044280443 80:0.0029520295 81:0.0029520295 83:0.0014760148 84:0.0066420664 85:0.0044280443 86:0.0044280443 87:0.0044280443 89:0.005904059 90:0.0044280443 91:0.00073800738 92:0.00073800738 93:0.0029520295 94:0.00073800738 95:0.0081180812 96:0.0014760148 97:0.0029520295 98:0.0036900369 99:0.0051660517 100:0.0036900369 101:0.0081180812 102:0.010332103 103:0.0051660517 104:0.0066420664 105:0.0022140221 106:0.0066420664 107:0.0044280443 108:0.0036900369 109:0.0029520295 110:0.0022140221 111:0.0029520295 112:0.0022140221 113:0.0036900369 114:0.0044280443 115:0.011808118 116:0.0066420664 117:0.00073800738 118:0.0014760148 119:0.0036900369 121:0.0066420664 122:0.0081180812 123:0.0044280443 124:0.005904059 126:0.00073800738 127:0.0051660517 128:0.00073800738 129:0.0051660517 132:0.0036900369 133:0.0029520295 134:0.010332103 136:0.0036900369 137:0.0073800738 138:0.0029520295 139:0.0036900369 140:0.0014760148 142:0.0014760148 143:0.011070111 144:0.0014760148 145:0.0081180812 146:0.0029520295 147:0.0066420664 149:0.00073800738 150:0.0036900369 151:0.0022140221 152:0.00073800738 153:0.0014760148 154:0.0044280443 155:0.0036900369 156:0.0022140221 157:0.0014760148 158:0.0022140221 159:0.0095940959 160:0.0088560886 161:0.0073800738 162:0.0029520295 163:0.0029520295 165:0.0014760148 166:0.0044280443 167:0.0066420664 168:0.0044280443 169:0.0022140221 170:0.0029520295 171:0.0029520295 172:0.011070111 173:0.0029520295 174:0.0036900369 175:0.0066420664 176:0.0081180812 177:0.005904059 178:0.0036900369 180:0.0051660517 181:0.010332103 182:0.00073800738 183:0.0051660517 184:0.005904059 185:0.0036900369 186:0.0095940959 187:0.0014760148 189:0.0022140221 190:0.0036900369 191:0.0029520295 192:0.005904059 193:0.0029520295 194:0.0081180812 195:0.0036900369 196:0.0073800738 197:0.0036900369 198:0.0066420664 199:0.00073800738 200:0.0081180812 201:0.0014760148 202:0.0029520295 203:0.0022140221 204:0.011070111 205:0.011070111 206:0.00073800738 208:0.0029520295 209:0.0036900369 211:0.0029520295 212:0.0036900369 213:0.0029520295 214:0.005904059 216:0.0014760148 218:0.00073800738 220:0.0044280443 221:0.0036900369 222:0.00073800738 224:0.0036900369 225:0.0014760148 226:0.0036900369 228:0.0081180812 230:0.0022140221 231:0.0014760148 232:0.0051660517 233:0.00073800738 235:0.0036900369 236:0.014760148 237:0.0029520295 238:0.0014760148 239:0.0029520295 240:0.0029520295 241:0.0066420664 242:0.0051660517 243:0.0051660517 245:0.0014760148 246:0.0014760148 247:0.0088560886 248:0.0088560886 249:0.0051660517 250:0.0014760148 252:0.0014760148 253:0.0051660517 254:0.00073800738 255:0.0051660517 256:0.0073800738 
