svm_type c_svc
kernel_type rbf
gamma 150
nr_class 2
total_sv 1088
rho 1.89255
label 1 -1
probA -1.87506
probB 1.62316
nr_sv 146 942
SV
1.784819462641284 1:0.0034756703 2:0.002979146 3:0.0024826216 4:0.0034756703 5:0.001489573 6:0.00099304866 7:0.0034756703 8:0.00049652433 9:0.002979146 10:0.0054617676 11:0.00049652433 12:0.00049652433 13:0.0024826216 14:0.002979146 15:0.0049652433 16:0.004468719 17:0.00099304866 18:0.00099304866 19:0.00099304866 20:0.0079443893 21:0.004468719 22:0.0034756703 23:0.0074478649 24:0.00099304866 25:0.0019860973 26:0.0054617676 27:0.004468719 28:0.0054617676 29:0.001489573 30:0.001489573 31:0.0034756703 32:0.0089374379 33:0.0039721946 34:0.00049652433 35:0.0024826216 36:0.004468719 37:0.0049652433 38:0.0039721946 39:0.0034756703 40:0.0019860973 41:0.002979146 42:0.001489573 43:0.0054617676 45:0.0079443893 46:0.0034756703 47:0.002979146 48:0.004468719 49:0.0034756703 50:0.00099304866 51:0.0024826216 52:0.0019860973 53:0.013406157 54:0.0099304866 55:0.001489573 56:0.010427011 57:0.0039721946 58:0.00099304866 59:0.004468719 60:0.004468719 61:0.019364449 62:0.00049652433 63:0.0034756703 64:0.0034756703 65:0.0019860973 66:0.0019860973 67:0.0039721946 69:0.0024826216 70:0.00099304866 71:0.0024826216 72:0.001489573 73:0.0024826216 74:0.0054617676 75:0.00099304866 76:0.001489573 77:0.0074478649 78:0.0039721946 79:0.0019860973 80:0.019364449 81:0.0019860973 82:0.0084409136 83:0.0084409136 84:0.0089374379 85:0.0089374379 86:0.00099304866 87:0.0034756703 88:0.002979146 89:0.00099304866 90:0.002979146 91:0.00099304866 92:0.00099304866 93:0.0039721946 94:0.004468719 95:0.0034756703 96:0.00099304866 97:0.0049652433 98:0.0064548163 99:0.0019860973 100:0.0034756703 101:0.002979146 102:0.0019860973 103:0.0024826216 104:0.00049652433 105:0.002979146 106:0.0054617676 107:0.0099304866 108:0.001489573 109:0.0034756703 110:0.0039721946 111:0.0039721946 112:0.0054617676 113:0.014399206 114:0.0024826216 115:0.0069513406 116:0.0039721946 117:0.0039721946 118:0.00049652433 119:0.0034756703 120:0.00099304866 121:0.011916584 122:0.0049652433 123:0.0024826216 124:0.0039721946 125:0.0024826216 126:0.0019860973 127:0.002979146 128:0.027308838 129:0.005958292 130:0.002979146 131:0.0074478649 132:0.001489573 133:0.0024826216 134:0.004468719 135:0.00099304866 136:0.0094339623 137:0.002979146 138:0.00099304866 139:0.0019860973 140:0.002979146 141:0.0039721946 142:0.0034756703 143:0.00099304866 144:0.00049652433 145:0.0034756703 146:0.0019860973 147:0.001489573 148:0.016385303 149:0.0079443893 150:0.0024826216 151:0.0074478649 152:0.001489573 153:0.004468719 154:0.0049652433 155:0.001489573 156:0.0089374379 157:0.00099304866 158:0.0049652433 159:0.0019860973 160:0.019364449 161:0.002979146 162:0.001489573 163:0.0054617676 164:0.001489573 165:0.0069513406 166:0.00049652433 167:0.0099304866 168:0.0049652433 169:0.0074478649 170:0.0054617676 171:0.002979146 172:0.0049652433 173:0.0089374379 174:0.00099304866 175:0.00049652433 176:0.0019860973 177:0.0019860973 179:0.0034756703 180:0.0049652433 181:0.002979146 182:0.002979146 183:0.00099304866 184:0.004468719 185:0.0039721946 186:0.001489573 187:0.0034756703 188:0.0034756703 189:0.004468719 190:0.001489573 191:0.0074478649 192:0.0024826216 193:0.004468719 194:0.001489573 195:0.010427011 196:0.004468719 197:0.00099304866 198:0.010923535 199:0.001489573 200:0.002979146 201:0.0024826216 202:0.0049652433 203:0.001489573 204:0.011916584 205:0.001489573 206:0.0019860973 207:0.0049652433 208:0.0024826216 209:0.001489573 210:0.00049652433 211:0.010923535 212:0.0064548163 213:0.0034756703 214:0.0069513406 215:0.0034756703 216:0.0024826216 217:0.00099304866 218:0.004468719 219:0.0084409136 220:0.00049652433 221:0.002979146 222:0.001489573 223:0.0034756703 224:0.01142006 226:0.0024826216 228:0.001489573 229:0.0019860973 230:0.00099304866 231:0.001489573 232:0.0019860973 233:0.001489573 234:0.0019860973 235:0.00049652433 236:0.0024826216 237:0.001489573 238:0.0049652433 239:0.005958292 240:0.0019860973 241:0.0054617676 242:0.00049652433 243:0.005958292 245:0.0034756703 246:0.0049652433 247:0.0019860973 248:0.00049652433 249:0.0039721946 250:0.0039721946 251:0.0034756703 252:0.00099304866 253:0.0039721946 254:0.0019860973 255:0.0039721946 256:0.0039721946 
8.512439140225485 1:0.0088046055 3:0.0044023027 4:0.0027091094 5:0.00033863867 6:0.002031832 7:0.002031832 8:0.00067727735 9:0.0030477481 10:0.0084659668 11:0.0023704707 12:0.0030477481 13:0.0091432442 14:0.0027091094 15:0.0067727735 16:0.00067727735 17:0.001015916 18:0.00033863867 19:0.0016931934 20:0.0037250254 21:0.0064341348 22:0.00033863867 23:0.0057568574 24:0.0037250254 25:0.0054182188 26:0.0016931934 27:0.00067727735 28:0.015916018 29:0.010836438 30:0.0037250254 31:0.0013545547 32:0.0088046055 33:0.0033863867 34:0.0033863867 35:0.0013545547 36:0.0016931934 37:0.0033863867 38:0.0081273281 39:0.0064341348 40:0.0023704707 41:0.002031832 42:0.0016931934 43:0.0074500508 44:0.0027091094 45:0.0047409414 46:0.002031832 47:0.0037250254 48:0.002031832 49:0.002031832 50:0.0033863867 51:0.0023704707 52:0.0057568574 53:0.011513715 54:0.0023704707 56:0.0023704707 57:0.0044023027 59:0.0013545547 60:0.0067727735 61:0.011852354 62:0.0030477481 63:0.0033863867 64:0.0088046055 65:0.0044023027 66:0.0030477481 68:0.0064341348 69:0.0033863867 70:0.00033863867 71:0.002031832 72:0.0047409414 73:0.002031832 74:0.002031832 75:0.0054182188 76:0.0037250254 77:0.0088046055 78:0.0027091094 79:0.001015916 80:0.0044023027 81:0.0064341348 82:0.0033863867 83:0.00033863867 84:0.0044023027 85:0.012529631 86:0.0013545547 87:0.0013545547 88:0.0077886895 89:0.0016931934 90:0.00033863867 91:0.0060954961 92:0.0081273281 93:0.0057568574 94:0.0077886895 95:0.0023704707 96:0.0037250254 97:0.0023704707 98:0.0030477481 99:0.0044023027 100:0.0074500508 101:0.0037250254 102:0.0057568574 103:0.0067727735 104:0.00033863867 105:0.001015916 106:0.0054182188 107:0.0044023027 108:0.0050795801 109:0.0057568574 110:0.0057568574 111:0.0071114121 112:0.002031832 113:0.0071114121 114:0.0040636641 115:0.0027091094 116:0.001015916 117:0.0064341348 118:0.00067727735 119:0.0016931934 120:0.002031832 121:0.0013545547 122:0.0037250254 123:0.0050795801 124:0.0030477481 125:0.0030477481 126:0.0013545547 127:0.0047409414 128:0.0037250254 129:0.0030477481 131:0.0057568574 132:0.0074500508 133:0.0081273281 134:0.0030477481 135:0.0030477481 136:0.0047409414 137:0.0040636641 138:0.002031832 140:0.0033863867 141:0.0040636641 142:0.0023704707 143:0.0016931934 145:0.0037250254 146:0.0023704707 147:0.010836438 150:0.002031832 151:0.001015916 152:0.001015916 153:0.0084659668 154:0.0057568574 155:0.0050795801 156:0.0098205215 157:0.002031832 158:0.0040636641 159:0.002031832 160:0.0064341348 162:0.012190992 163:0.0071114121 164:0.0040636641 165:0.01523874 166:0.0030477481 167:0.0047409414 168:0.0027091094 169:0.01015916 170:0.0098205215 171:0.0050795801 173:0.0057568574 174:0.0033863867 175:0.00033863867 176:0.0044023027 177:0.0030477481 178:0.002031832 179:0.0016931934 180:0.0040636641 181:0.0033863867 182:0.00067727735 183:0.001015916 184:0.0074500508 185:0.0016931934 186:0.0027091094 187:0.0050795801 188:0.001015916 189:0.0040636641 190:0.0050795801 191:0.0054182188 192:0.0054182188 193:0.0064341348 194:0.0064341348 195:0.0067727735 196:0.0030477481 197:0.0074500508 198:0.014222824 199:0.0060954961 200:0.0013545547 202:0.0023704707 203:0.0044023027 204:0.001015916 205:0.0023704707 206:0.0013545547 207:0.0023704707 208:0.001015916 209:0.0013545547 210:0.0047409414 211:0.0064341348 212:0.0077886895 213:0.0027091094 214:0.0047409414 215:0.0057568574 216:0.0033863867 217:0.0060954961 218:0.011175076 219:0.0047409414 220:0.0016931934 221:0.0016931934 222:0.0013545547 223:0.0037250254 224:0.0088046055 225:0.0027091094 226:0.0044023027 227:0.0033863867 228:0.0013545547 229:0.0023704707 231:0.0047409414 232:0.0064341348 233:0.0067727735 234:0.0023704707 235:0.0016931934 236:0.0023704707 237:0.0044023027 238:0.0030477481 239:0.002031832 240:0.0023704707 241:0.0016931934 242:0.00033863867 243:0.0040636641 244:0.0074500508 245:0.00033863867 246:0.0047409414 247:0.0033863867 248:0.00067727735 249:0.001015916 251:0.0033863867 252:0.0016931934 253:0.0040636641 254:0.0016931934 255:0.0060954961 256:0.0016931934 
3.820263892325262 1:0.0018484288 2:0.02310536 3:0.0027726433 5:0.0046210721 7:0.0018484288 8:0.0073937153 9:0.0073937153 10:0.0046210721 12:0.0027726433 13:0.00092421442 14:0.0036968577 15:0.0036968577 16:0.0027726433 18:0.0055452865 20:0.012939002 21:0.00092421442 22:0.012939002 23:0.00092421442 24:0.00092421442 25:0.00092421442 26:0.0046210721 27:0.00092421442 28:0.0055452865 29:0.00092421442 30:0.0046210721 31:0.0018484288 32:0.010166359 33:0.0018484288 34:0.00092421442 35:0.0018484288 36:0.0018484288 37:0.0036968577 38:0.0018484288 39:0.0018484288 40:0.0036968577 41:0.00092421442 42:0.00092421442 43:0.0083179298 45:0.0027726433 46:0.0027726433 48:0.012014787 51:0.0055452865 52:0.0036968577 53:0.0036968577 54:0.0064695009 55:0.0064695009 56:0.012014787 57:0.0036968577 58:0.0064695009 59:0.0073937153 60:0.012939002 61:0.0073937153 62:0.0018484288 63:0.0027726433 64:0.00092421442 65:0.00092421442 66:0.0018484288 67:0.014787431 68:0.0036968577 69:0.00092421442 70:0.0046210721 72:0.0018484288 73:0.0083179298 75:0.0055452865 77:0.011090573 79:0.0064695009 80:0.015711645 81:0.0018484288 82:0.00092421442 83:0.011090573 84:0.012939002 85:0.0064695009 86:0.00092421442 87:0.0027726433 88:0.0046210721 89:0.0018484288 90:0.0083179298 91:0.0018484288 93:0.0092421442 95:0.00092421442 96:0.0083179298 97:0.0018484288 98:0.0027726433 99:0.00092421442 100:0.0055452865 102:0.0036968577 104:0.0027726433 105:0.0018484288 108:0.0027726433 110:0.020332717 111:0.0027726433 113:0.012014787 114:0.0027726433 115:0.012014787 116:0.0046210721 117:0.0018484288 118:0.0018484288 119:0.0018484288 120:0.00092421442 121:0.010166359 123:0.00092421442 124:0.0036968577 125:0.0027726433 127:0.0036968577 128:0.0046210721 130:0.0073937153 131:0.0064695009 132:0.00092421442 133:0.00092421442 134:0.0036968577 135:0.0036968577 136:0.0046210721 137:0.0027726433 138:0.0018484288 139:0.0055452865 140:0.0018484288 141:0.00092421442 142:0.0046210721 143:0.0018484288 144:0.0064695009 146:0.0027726433 147:0.00092421442 148:0.017560074 149:0.012939002 150:0.0046210721 154:0.0064695009 155:0.0046210721 156:0.0073937153 157:0.0018484288 158:0.00092421442 159:0.00092421442 160:0.0018484288 161:0.0018484288 163:0.0055452865 165:0.0083179298 166:0.0018484288 167:0.0055452865 168:0.00092421442 169:0.011090573 170:0.0092421442 171:0.00092421442 172:0.0092421442 173:0.0073937153 174:0.0083179298 175:0.0027726433 177:0.00092421442 178:0.0036968577 180:0.0027726433 181:0.0092421442 182:0.00092421442 183:0.0073937153 185:0.0027726433 186:0.0027726433 187:0.0064695009 188:0.0046210721 189:0.00092421442 190:0.0027726433 191:0.0018484288 192:0.00092421442 193:0.0046210721 194:0.00092421442 195:0.00092421442 196:0.0018484288 198:0.012939002 199:0.0073937153 200:0.00092421442 201:0.017560074 202:0.0036968577 204:0.014787431 206:0.012014787 207:0.0027726433 208:0.0036968577 209:0.00092421442 211:0.0027726433 212:0.0027726433 213:0.0064695009 214:0.0018484288 215:0.0073937153 218:0.0018484288 219:0.00092421442 220:0.0027726433 221:0.00092421442 222:0.0055452865 223:0.0027726433 224:0.0046210721 225:0.00092421442 226:0.00092421442 227:0.0018484288 228:0.012939002 229:0.0055452865 230:0.0036968577 232:0.00092421442 234:0.00092421442 235:0.00092421442 237:0.00092421442 238:0.0036968577 239:0.011090573 240:0.0018484288 241:0.010166359 242:0.012014787 243:0.0036968577 244:0.00092421442 245:0.00092421442 247:0.0046210721 248:0.013863216 249:0.0073937153 250:0.0018484288 251:0.0064695009 252:0.0027726433 253:0.0046210721 254:0.0055452865 256:0.00092421442 
3.5525018520676 1:0.0060493253 2:0.00046533271 3:0.0055839926 4:0.00093066543 5:0.00046533271 6:0.0023266636 7:0.0041879944 8:0.0018613309 9:0.0027919963 10:0.009771987 11:0.0018613309 12:0.0018613309 13:0.0027919963 14:0.0013959981 16:0.0018613309 17:0.0037226617 18:0.00093066543 19:0.0060493253 20:0.0027919963 21:0.006514658 22:0.0069799907 23:0.0088413215 24:0.0051186598 25:0.0027919963 26:0.0023266636 27:0.0023266636 28:0.009771987 29:0.0027919963 30:0.0051186598 31:0.0023266636 32:0.010702652 33:0.00093066543 34:0.00093066543 35:0.00046533271 36:0.0023266636 37:0.00093066543 38:0.015821312 39:0.0018613309 40:0.003257329 41:0.00046533271 43:0.0046533271 44:0.00046533271 45:0.0027919963 46:0.0079106561 47:0.0013959981 48:0.0023266636 49:0.00093066543 50:0.0018613309 51:0.00093066543 52:0.0051186598 53:0.0069799907 54:0.0074453234 55:0.00093066543 56:0.00046533271 57:0.0041879944 59:0.0018613309 60:0.0055839926 61:0.016751978 62:0.0018613309 63:0.0027919963 64:0.014890647 65:0.003257329 66:0.0051186598 68:0.0046533271 69:0.0041879944 70:0.0013959981 71:0.01023732 72:0.003257329 73:0.0023266636 74:0.0027919963 75:0.00046533271 76:0.0083759888 77:0.0088413215 78:0.012098651 79:0.00093066543 80:0.0018613309 81:0.013029316 82:0.0051186598 84:0.0013959981 85:0.01721731 86:0.0037226617 87:0.00046533271 88:0.0037226617 90:0.00046533271 91:0.0013959981 92:0.00046533271 93:0.012563983 94:0.0041879944 95:0.0013959981 96:0.0055839926 98:0.0013959981 99:0.0060493253 100:0.0037226617 101:0.0069799907 102:0.0051186598 103:0.0060493253 104:0.0018613309 106:0.013029316 107:0.00093066543 108:0.00046533271 109:0.0027919963 111:0.0046533271 112:0.0023266636 113:0.0051186598 114:0.0027919963 115:0.003257329 117:0.0060493253 118:0.00093066543 119:0.0018613309 120:0.0041879944 121:0.0018613309 122:0.0027919963 123:0.0088413215 124:0.0079106561 125:0.0046533271 126:0.003257329 127:0.003257329 128:0.0037226617 129:0.00046533271 130:0.0018613309 131:0.0027919963 132:0.011167985 133:0.0041879944 134:0.0060493253 135:0.0023266636 136:0.009771987 137:0.0060493253 138:0.0027919963 139:0.0041879944 140:0.003257329 141:0.01023732 143:0.00046533271 144:0.0060493253 145:0.0037226617 146:0.00046533271 147:0.0069799907 148:0.00046533271 149:0.00046533271 151:0.00093066543 152:0.0046533271 153:0.011167985 154:0.003257329 155:0.0027919963 156:0.0023266636 157:0.0013959981 158:0.0023266636 159:0.0023266636 160:0.01535598 161:0.0018613309 162:0.0079106561 163:0.0046533271 164:0.0023266636 165:0.0093066543 166:0.00046533271 167:0.0013959981 168:0.00093066543 169:0.0027919963 170:0.006514658 171:0.003257329 172:0.0046533271 173:0.010702652 174:0.011633318 175:0.00046533271 176:0.0055839926 177:0.0018613309 178:0.0037226617 179:0.0018613309 180:0.006514658 181:0.00046533271 182:0.00046533271 183:0.0023266636 184:0.0037226617 186:0.0013959981 187:0.0018613309 188:0.00046533271 189:0.006514658 190:0.0046533271 191:0.013959981 193:0.011167985 194:0.0093066543 195:0.006514658 196:0.003257329 197:0.0018613309 198:0.012563983 199:0.0046533271 200:0.0055839926 202:0.0037226617 203:0.0027919963 205:0.0041879944 206:0.00093066543 207:0.0023266636 208:0.00093066543 209:0.00093066543 210:0.003257329 211:0.009771987 212:0.013494649 213:0.0055839926 214:0.0037226617 215:0.0013959981 216:0.0041879944 217:0.0041879944 218:0.006514658 219:0.0037226617 220:0.00046533271 221:0.0023266636 222:0.0013959981 223:0.0037226617 224:0.0037226617 225:0.0018613309 226:0.0046533271 227:0.0013959981 228:0.0041879944 229:0.003257329 230:0.003257329 231:0.0023266636 232:0.0051186598 233:0.0013959981 235:0.0013959981 236:0.0013959981 237:0.0046533271 238:0.0051186598 240:0.0023266636 241:0.003257329 242:0.0018613309 243:0.00093066543 244:0.0027919963 245:0.0037226617 246:0.0037226617 247:0.0013959981 248:0.0013959981 251:0.00093066543 252:0.013959981 253:0.0023266636 254:0.0093066543 255:0.018613309 256:0.0018613309 
9.446958370177134 1:0.002556455 2:0.0021303792 3:0.0038346826 4:0.002556455 5:0.0029825309 6:0.0017043034 7:0.002556455 8:0.0059650618 9:0.0063911376 10:0.0059650618 11:0.0072432893 12:0.0021303792 13:0.0034086067 14:0.002556455 15:0.0017043034 16:0.00085215168 17:0.00042607584 18:0.0029825309 19:0.0017043034 20:0.0034086067 21:0.0063911376 22:0.0076693651 23:0.0029825309 24:0.008095441 25:0.0046868343 26:0.0051129101 27:0.0017043034 28:0.0038346826 29:0.0017043034 30:0.008095441 31:0.0059650618 32:0.0072432893 33:0.0017043034 34:0.002556455 35:0.0029825309 36:0.0034086067 37:0.0012782275 38:0.0029825309 39:0.0021303792 40:0.0042607584 41:0.0097997444 43:0.0068172135 44:0.0034086067 45:0.002556455 46:0.002556455 47:0.0012782275 48:0.0034086067 49:0.0029825309 50:0.0012782275 51:0.0038346826 52:0.0059650618 53:0.0055389859 54:0.0046868343 55:0.002556455 56:0.0046868343 57:0.0063911376 58:0.0059650618 59:0.0034086067 60:0.0068172135 61:0.0097997444 62:0.0055389859 63:0.002556455 64:0.0085215168 65:0.002556455 66:0.0059650618 67:0.010651896 68:0.0034086067 69:0.0038346826 70:0.0046868343 71:0.0059650618 72:0.0012782275 73:0.0063911376 74:0.002556455 75:0.002556455 76:0.0042607584 77:0.0051129101 78:0.0029825309 79:0.00085215168 80:0.0042607584 81:0.0034086067 82:0.0055389859 83:0.0021303792 84:0.0017043034 85:0.008095441 86:0.0012782275 87:0.0029825309 88:0.002556455 89:0.0021303792 90:0.0012782275 91:0.0034086067 92:0.00085215168 93:0.0046868343 94:0.0021303792 95:0.0012782275 96:0.0021303792 97:0.0017043034 98:0.0021303792 99:0.0063911376 100:0.0034086067 101:0.0017043034 102:0.0021303792 103:0.002556455 104:0.0017043034 105:0.0042607584 106:0.01022582 107:0.0029825309 108:0.0012782275 109:0.00085215168 110:0.0089475927 111:0.0017043034 112:0.0042607584 113:0.0042607584 114:0.0029825309 115:0.0034086067 116:0.00042607584 117:0.0051129101 118:0.0042607584 119:0.0055389859 120:0.0012782275 121:0.0029825309 122:0.0042607584 123:0.0046868343 124:0.014486579 125:0.002556455 127:0.0051129101 128:0.0017043034 129:0.0021303792 130:0.0038346826 131:0.0055389859 132:0.0059650618 133:0.0012782275 134:0.0046868343 135:0.0038346826 136:0.01022582 137:0.0038346826 138:0.0034086067 139:0.0038346826 140:0.0012782275 141:0.0059650618 142:0.00085215168 143:0.0021303792 144:0.0034086067 145:0.0017043034 146:0.0042607584 147:0.0017043034 148:0.0017043034 149:0.0068172135 150:0.002556455 151:0.002556455 152:0.0063911376 153:0.0051129101 154:0.0038346826 155:0.0029825309 156:0.0042607584 157:0.0038346826 158:0.0034086067 159:0.002556455 160:0.0034086067 161:0.0055389859 162:0.002556455 163:0.0029825309 164:0.0072432893 165:0.008095441 166:0.0012782275 167:0.0051129101 168:0.0017043034 169:0.0046868343 170:0.0038346826 171:0.0012782275 172:0.0038346826 173:0.0068172135 174:0.002556455 175:0.0029825309 176:0.0046868343 177:0.0038346826 178:0.0021303792 179:0.0038346826 180:0.0021303792 181:0.0051129101 182:0.0021303792 183:0.011077972 184:0.0017043034 185:0.0046868343 186:0.0017043034 187:0.00085215168 188:0.0042607584 189:0.0068172135 190:0.0059650618 191:0.0051129101 192:0.0034086067 193:0.0072432893 194:0.0012782275 195:0.0017043034 196:0.0017043034 197:0.0021303792 198:0.0059650618 199:0.0038346826 200:0.0012782275 201:0.0046868343 202:0.0034086067 203:0.0051129101 204:0.0038346826 205:0.0034086067 206:0.0021303792 207:0.002556455 208:0.01022582 209:0.0029825309 210:0.008095441 211:0.011930124 212:0.0076693651 213:0.0072432893 214:0.0051129101 215:0.0076693651 216:0.0046868343 217:0.0042607584 218:0.002556455 219:0.002556455 220:0.002556455 221:0.0029825309 222:0.002556455 223:0.002556455 224:0.0017043034 225:0.002556455 226:0.0046868343 227:0.0021303792 228:0.0012782275 229:0.0042607584 230:0.0051129101 231:0.0012782275 232:0.0017043034 233:0.0021303792 234:0.0017043034 235:0.0021303792 236:0.0055389859 237:0.0034086067 238:0.0034086067 239:0.0017043034 240:0.002556455 241:0.0068172135 242:0.0012782275 243:0.0068172135 244:0.002556455 245:0.0012782275 246:0.0034086067 247:0.0042607584 248:0.0029825309 249:0.0021303792 250:0.0046868343 251:0.0046868343 252:0.0089475927 253:0.0093736685 254:0.01022582 255:0.0034086067 256:0.0042607584 
5.512621438552332 1:0.0022796353 2:0.00075987842 3:0.0037993921 4:0.0022796353 5:0.0015197568 6:0.0083586626 7:0.0037993921 9:0.0053191489 10:0.009118541 11:0.0015197568 12:0.0068389058 14:0.0037993921 15:0.0030395137 17:0.0045592705 18:0.0015197568 19:0.0083586626 20:0.0022796353 21:0.0030395137 23:0.0015197568 25:0.0015197568 26:0.00075987842 27:0.00075987842 28:0.0037993921 29:0.0022796353 30:0.0083586626 31:0.0030395137 32:0.0068389058 33:0.0075987842 34:0.0030395137 36:0.0037993921 37:0.00075987842 38:0.0045592705 39:0.0068389058 40:0.0030395137 41:0.0022796353 42:0.0015197568 43:0.00075987842 44:0.0015197568 45:0.0053191489 46:0.0060790274 47:0.00075987842 48:0.0068389058 49:0.0068389058 50:0.0045592705 51:0.0022796353 52:0.0068389058 53:0.0060790274 54:0.0060790274 55:0.00075987842 56:0.0037993921 57:0.0022796353 59:0.0022796353 60:0.0045592705 61:0.0068389058 62:0.0045592705 63:0.00075987842 64:0.0015197568 65:0.0083586626 66:0.0075987842 68:0.0022796353 69:0.0022796353 70:0.00075987842 71:0.00075987842 72:0.0045592705 73:0.0030395137 74:0.0053191489 76:0.0053191489 77:0.0083586626 78:0.00075987842 79:0.0030395137 80:0.0053191489 81:0.0022796353 82:0.0045592705 83:0.00075987842 84:0.0053191489 85:0.0075987842 86:0.0045592705 88:0.0030395137 89:0.00075987842 90:0.00075987842 91:0.016717325 92:0.0068389058 93:0.0015197568 94:0.012917933 95:0.0045592705 96:0.0075987842 97:0.0015197568 98:0.0075987842 99:0.00075987842 100:0.0037993921 101:0.0037993921 102:0.0030395137 103:0.01443769 104:0.0045592705 105:0.0015197568 106:0.0075987842 107:0.0045592705 108:0.0053191489 109:0.00075987842 110:0.010638298 111:0.0037993921 113:0.0075987842 114:0.0083586626 115:0.0022796353 116:0.0060790274 117:0.0037993921 119:0.0015197568 120:0.0022796353 121:0.00075987842 122:0.012917933 123:0.0015197568 125:0.010638298 126:0.0030395137 127:0.0037993921 128:0.0045592705 129:0.00075987842 130:0.0022796353 131:0.0060790274 132:0.0068389058 133:0.0098784195 134:0.0030395137 135:0.0053191489 136:0.0037993921 137:0.0022796353 138:0.0075987842 140:0.0030395137 141:0.0045592705 142:0.0022796353 143:0.0030395137 144:0.0015197568 145:0.0045592705 146:0.0060790274 147:0.0030395137 148:0.0037993921 149:0.0015197568 150:0.0015197568 151:0.00075987842 152:0.0060790274 153:0.0053191489 154:0.0053191489 155:0.0068389058 156:0.0045592705 158:0.0015197568 159:0.0037993921 160:0.0053191489 162:0.0022796353 163:0.0030395137 164:0.0068389058 165:0.0053191489 166:0.0022796353 167:0.0098784195 168:0.0022796353 169:0.010638298 170:0.0075987842 171:0.0045592705 172:0.0030395137 173:0.0015197568 174:0.0045592705 176:0.0037993921 177:0.013677812 178:0.0083586626 179:0.00075987842 180:0.0060790274 181:0.0068389058 182:0.0037993921 183:0.0015197568 184:0.0037993921 185:0.00075987842 186:0.0030395137 187:0.0045592705 188:0.0037993921 189:0.0022796353 190:0.00075987842 191:0.0075987842 192:0.015957447 193:0.0053191489 194:0.0030395137 195:0.0053191489 196:0.0015197568 197:0.0030395137 198:0.0068389058 199:0.0053191489 200:0.0037993921 201:0.0015197568 202:0.0053191489 203:0.0037993921 204:0.0022796353 205:0.0015197568 206:0.00075987842 207:0.0060790274 208:0.0068389058 209:0.0037993921 210:0.0022796353 211:0.0030395137 212:0.0022796353 213:0.0045592705 214:0.0037993921 217:0.0015197568 218:0.0030395137 219:0.0068389058 220:0.0030395137 222:0.00075987842 223:0.0083586626 224:0.0060790274 225:0.0045592705 226:0.0037993921 227:0.0045592705 231:0.0045592705 232:0.0068389058 233:0.0053191489 235:0.0015197568 236:0.0098784195 237:0.012158055 238:0.009118541 239:0.0037993921 240:0.00075987842 241:0.0022796353 242:0.0053191489 243:0.0022796353 244:0.0060790274 245:0.0045592705 246:0.0030395137 247:0.0030395137 248:0.0053191489 249:0.00075987842 251:0.0022796353 252:0.0022796353 253:0.0022796353 254:0.0030395137 255:0.0053191489 256:0.0037993921 
1.9855769658635 1:0.0020130851 3:0.0015098138 4:0.00050327126 5:0.0035228988 7:0.00050327126 8:0.00050327126 9:0.0040261701 10:0.0045294414 11:0.0045294414 12:0.0010065425 13:0.0080523402 14:0.0050327126 15:0.0020130851 16:0.0075490689 17:0.0010065425 18:0.0050327126 20:0.0090588827 21:0.0010065425 22:0.0055359839 23:0.0045294414 24:0.0070457977 25:0.0010065425 26:0.0050327126 27:0.00050327126 28:0.010065425 29:0.0010065425 30:0.0030196276 31:0.0015098138 32:0.0040261701 33:0.0010065425 34:0.00050327126 35:0.0030196276 36:0.0015098138 37:0.010568697 38:0.0025163563 39:0.0015098138 40:0.0010065425 41:0.0045294414 42:0.0030196276 43:0.0070457977 44:0.0010065425 45:0.011575239 46:0.00050327126 47:0.00050327126 48:0.0075490689 49:0.00050327126 50:0.00050327126 51:0.0035228988 52:0.0030196276 53:0.010568697 54:0.010568697 55:0.0015098138 56:0.018117765 57:0.0015098138 58:0.0015098138 59:0.0045294414 60:0.011575239 61:0.0030196276 62:0.0040261701 63:0.0020130851 64:0.0015098138 65:0.0010065425 66:0.0010065425 67:0.0040261701 68:0.0030196276 70:0.00050327126 71:0.0010065425 72:0.0020130851 73:0.0030196276 74:0.0010065425 77:0.015098138 78:0.0020130851 79:0.00050327126 80:0.015601409 81:0.0040261701 82:0.0035228988 83:0.0040261701 84:0.014594867 85:0.013085053 87:0.0075490689 88:0.0055359839 90:0.0030196276 91:0.0055359839 92:0.0020130851 93:0.0030196276 94:0.0040261701 95:0.0020130851 96:0.0080523402 97:0.0050327126 99:0.00050327126 100:0.0080523402 102:0.0010065425 103:0.0060392552 104:0.00050327126 105:0.0020130851 106:0.0030196276 107:0.0040261701 108:0.00050327126 110:0.023150478 111:0.0065425264 112:0.0040261701 113:0.021137393 114:0.0050327126 115:0.025163563 116:0.0010065425 117:0.0010065425 118:0.00050327126 119:0.00050327126 120:0.0010065425 121:0.0060392552 122:0.0015098138 123:0.0035228988 124:0.0030196276 125:0.0010065425 126:0.0015098138 127:0.0020130851 128:0.021137393 130:0.0020130851 131:0.010065425 132:0.0055359839 134:0.0010065425 136:0.0015098138 137:0.0045294414 138:0.0010065425 139:0.0015098138 140:0.0085556115 141:0.0035228988 142:0.0010065425 143:0.0020130851 144:0.0070457977 146:0.0015098138 147:0.0015098138 148:0.011575239 149:0.0055359839 150:0.0035228988 151:0.00050327126 152:0.0010065425 153:0.0030196276 154:0.0050327126 155:0.0045294414 156:0.026673377 157:0.0010065425 158:0.00050327126 160:0.0010065425 161:0.0010065425 162:0.00050327126 163:0.01610468 164:0.0025163563 165:0.009562154 166:0.0015098138 167:0.0060392552 168:0.00050327126 169:0.018117765 170:0.014594867 171:0.0020130851 172:0.0015098138 173:0.0030196276 174:0.0025163563 175:0.0015098138 176:0.0020130851 178:0.0030196276 179:0.0035228988 180:0.0070457977 181:0.0085556115 182:0.0010065425 183:0.0060392552 184:0.0025163563 185:0.0010065425 186:0.0045294414 187:0.0025163563 189:0.0010065425 191:0.010568697 192:0.00050327126 193:0.0010065425 194:0.00050327126 195:0.0015098138 196:0.0010065425 197:0.0010065425 198:0.028686462 199:0.0080523402 200:0.0055359839 201:0.00050327126 203:0.0040261701 204:0.013085053 205:0.0010065425 207:0.0055359839 208:0.0055359839 209:0.0025163563 210:0.0080523402 211:0.00050327126 212:0.0030196276 213:0.0030196276 214:0.00050327126 215:0.0085556115 216:0.011575239 217:0.0090588827 218:0.0030196276 219:0.00050327126 220:0.0020130851 221:0.0035228988 222:0.0015098138 223:0.0060392552 224:0.0030196276 227:0.0025163563 228:0.0015098138 229:0.0010065425 230:0.0015098138 231:0.0020130851 232:0.0060392552 233:0.0015098138 234:0.0025163563 235:0.0030196276 237:0.0010065425 238:0.0055359839 239:0.010065425 241:0.0040261701 242:0.00050327126 243:0.0060392552 246:0.0040261701 248:0.0045294414 249:0.0045294414 251:0.0020130851 252:0.0030196276 253:0.0015098138 254:0.0045294414 255:0.0030196276 
5.942145492587282 1:0.002301496 2:0.0057537399 3:0.002301496 5:0.002301496 7:0.003452244 8:0.0057537399 9:0.002301496 10:0.001150748 11:0.01150748 12:0.001150748 14:0.002301496 15:0.001150748 16:0.002301496 17:0.012658228 18:0.0046029919 20:0.0046029919 21:0.0057537399 22:0.012658228 23:0.013808976 24:0.0069044879 25:0.0046029919 26:0.02301496 27:0.0080552359 29:0.001150748 31:0.002301496 32:0.001150748 33:0.001150748 35:0.0069044879 37:0.002301496 38:0.001150748 39:0.002301496 40:0.0046029919 42:0.019562716 43:0.001150748 44:0.002301496 45:0.001150748 48:0.001150748 51:0.003452244 52:0.002301496 53:0.003452244 54:0.0080552359 55:0.012658228 56:0.01150748 59:0.0092059839 61:0.003452244 62:0.002301496 63:0.01150748 65:0.0080552359 66:0.0057537399 67:0.001150748 68:0.0080552359 70:0.01150748 73:0.001150748 74:0.0046029919 75:0.001150748 76:0.001150748 78:0.002301496 79:0.0057537399 81:0.003452244 82:0.002301496 83:0.0046029919 84:0.0069044879 86:0.001150748 87:0.001150748 88:0.002301496 89:0.0080552359 90:0.0057537399 91:0.002301496 92:0.001150748 93:0.003452244 95:0.001150748 96:0.0057537399 97:0.001150748 99:0.0080552359 100:0.0057537399 101:0.001150748 102:0.013808976 103:0.0069044879 104:0.019562716 105:0.002301496 106:0.010356732 107:0.001150748 108:0.001150748 110:0.002301496 112:0.002301496 113:0.001150748 115:0.003452244 116:0.002301496 117:0.0080552359 118:0.003452244 119:0.0057537399 120:0.0057537399 121:0.003452244 122:0.0046029919 124:0.010356732 125:0.002301496 126:0.0069044879 130:0.001150748 131:0.0057537399 132:0.003452244 133:0.003452244 134:0.003452244 135:0.001150748 136:0.0092059839 137:0.003452244 139:0.016110472 142:0.0057537399 144:0.002301496 145:0.001150748 146:0.002301496 147:0.0069044879 150:0.003452244 151:0.002301496 153:0.001150748 154:0.0069044879 155:0.0069044879 156:0.002301496 157:0.0092059839 158:0.003452244 159:0.001150748 160:0.003452244 161:0.0057537399 162:0.001150748 163:0.001150748 164:0.002301496 166:0.012658228 167:0.002301496 170:0.001150748 172:0.001150748 173:0.0092059839 174:0.001150748 175:0.001150748 176:0.002301496 177:0.0046029919 178:0.003452244 179:0.0046029919 180:0.0057537399 181:0.001150748 182:0.0069044879 183:0.002301496 184:0.002301496 185:0.0069044879 186:0.002301496 187:0.003452244 188:0.0069044879 189:0.001150748 190:0.001150748 192:0.002301496 193:0.0046029919 194:0.002301496 195:0.003452244 197:0.001150748 198:0.001150748 199:0.003452244 200:0.002301496 201:0.026467204 202:0.001150748 203:0.002301496 204:0.010356732 205:0.001150748 206:0.0046029919 207:0.002301496 209:0.002301496 210:0.001150748 211:0.003452244 213:0.0069044879 214:0.002301496 216:0.001150748 217:0.002301496 218:0.002301496 219:0.002301496 220:0.001150748 221:0.0046029919 222:0.029919448 223:0.0046029919 224:0.002301496 225:0.001150748 226:0.001150748 227:0.014959724 228:0.036823936 229:0.002301496 230:0.002301496 233:0.01150748 234:0.003452244 235:0.010356732 236:0.001150748 239:0.001150748 240:0.0069044879 242:0.01150748 243:0.002301496 244:0.001150748 246:0.001150748 247:0.0069044879 248:0.013808976 250:0.010356732 251:0.0080552359 252:0.002301496 253:0.002301496 254:0.01726122 256:0.003452244 
5.870276099056971 1:0.0058295964 3:0.002690583 4:0.0040358744 5:0.0013452915 6:0.016591928 7:0.010313901 8:0.001793722 9:0.001793722 10:0.001793722 11:0.018834081 12:0.0076233184 13:0.001793722 14:0.0035874439 15:0.0040358744 17:0.00089686099 18:0.00044843049 19:0.0067264574 20:0.00044843049 21:0.0035874439 22:0.00089686099 23:0.010762332 24:0.0071748879 25:0.0071748879 26:0.012556054 28:0.00089686099 29:0.0031390135 30:0.002690583 31:0.00089686099 32:0.0062780269 33:0.0035874439 34:0.0062780269 35:0.001793722 36:0.0040358744 37:0.0035874439 38:0.0062780269 39:0.0053811659 40:0.0031390135 41:0.00089686099 42:0.0040358744 43:0.002690583 44:0.0085201794 45:0.0022421525 46:0.0080717489 47:0.0049327354 49:0.0071748879 50:0.002690583 51:0.0013452915 52:0.0044843049 53:0.001793722 54:0.00089686099 55:0.0044843049 57:0.001793722 58:0.00044843049 59:0.0031390135 60:0.0013452915 61:0.0053811659 62:0.0044843049 63:0.002690583 64:0.0080717489 65:0.0035874439 66:0.0035874439 68:0.0085201794 69:0.002690583 70:0.0013452915 71:0.0044843049 72:0.0013452915 73:0.0013452915 74:0.0049327354 75:0.0040358744 76:0.0035874439 77:0.0035874439 78:0.0035874439 79:0.0040358744 80:0.0013452915 81:0.0049327354 82:0.0022421525 84:0.0035874439 85:0.0044843049 86:0.002690583 87:0.0013452915 88:0.001793722 89:0.0053811659 90:0.001793722 91:0.010313901 92:0.0013452915 93:0.0040358744 94:0.002690583 95:0.0044843049 96:0.0022421525 97:0.0013452915 98:0.0094170404 99:0.0044843049 100:0.00089686099 101:0.0035874439 102:0.0031390135 103:0.002690583 104:0.00044843049 105:0.0022421525 106:0.0067264574 107:0.0035874439 108:0.001793722 109:0.00089686099 110:0.0031390135 111:0.0013452915 112:0.0058295964 113:0.0013452915 114:0.0049327354 115:0.00044843049 116:0.0076233184 117:0.002690583 118:0.0085201794 119:0.0013452915 120:0.0035874439 122:0.0035874439 123:0.001793722 124:0.0080717489 125:0.0062780269 126:0.0053811659 127:0.00089686099 128:0.0013452915 129:0.0035874439 130:0.00044843049 131:0.0040358744 132:0.0062780269 133:0.0044843049 134:0.001793722 135:0.0071748879 136:0.0031390135 137:0.0031390135 138:0.0040358744 139:0.0049327354 140:0.0053811659 141:0.0062780269 142:0.0040358744 143:0.0085201794 144:0.0035874439 145:0.0040358744 146:0.002690583 147:0.0094170404 150:0.001793722 151:0.001793722 152:0.031838565 153:0.0053811659 154:0.0053811659 155:0.001793722 156:0.00089686099 157:0.0040358744 158:0.002690583 159:0.0035874439 160:0.0080717489 161:0.00044843049 162:0.0058295964 163:0.0044843049 164:0.0040358744 165:0.0085201794 167:0.001793722 168:0.0022421525 169:0.0031390135 170:0.0062780269 171:0.00044843049 173:0.0049327354 174:0.0035874439 175:0.0040358744 176:0.0058295964 177:0.0044843049 178:0.0067264574 179:0.0040358744 180:0.001793722 181:0.00044843049 182:0.0035874439 183:0.0013452915 184:0.002690583 185:0.013901345 186:0.00044843049 187:0.0053811659 188:0.0040358744 189:0.0022421525 190:0.0035874439 191:0.0035874439 192:0.0013452915 193:0.0080717489 194:0.0058295964 195:0.0098654709 196:0.0035874439 197:0.0040358744 198:0.002690583 199:0.0053811659 200:0.0013452915 202:0.0089686099 203:0.0071748879 205:0.0031390135 206:0.0013452915 207:0.001793722 208:0.0013452915 209:0.001793722 210:0.01793722 211:0.0049327354 212:0.0062780269 213:0.002690583 214:0.0053811659 215:0.0049327354 216:0.010313901 217:0.013452915 218:0.0049327354 219:0.0044843049 220:0.0053811659 221:0.0049327354 222:0.001793722 223:0.00044843049 224:0.0049327354 225:0.011659193 226:0.001793722 227:0.001793722 228:0.00044843049 229:0.001793722 231:0.001793722 232:0.0022421525 233:0.0031390135 234:0.002690583 235:0.00089686099 236:0.0013452915 237:0.0085201794 238:0.0022421525 239:0.0013452915 240:0.0076233184 243:0.0022421525 244:0.0022421525 245:0.0062780269 247:0.0031390135 248:0.0022421525 251:0.0022421525 252:0.0076233184 253:0.0022421525 254:0.0049327354 255:0.0089686099 256:0.002690583 
1.56549353047017 1:0.001754386 2:0.0070175439 3:0.0026315789 4:0.001754386 5:0.00087719298 6:0.00087719298 8:0.0026315789 9:0.0052631579 10:0.0078947368 11:0.00087719298 12:0.00087719298 13:0.0052631579 14:0.0061403509 15:0.00087719298 16:0.014035088 17:0.0052631579 18:0.0026315789 20:0.0026315789 21:0.0061403509 23:0.00087719298 24:0.0035087719 25:0.00087719298 28:0.0070175439 30:0.0026315789 31:0.001754386 32:0.0070175439 33:0.0096491228 36:0.00087719298 37:0.0035087719 38:0.001754386 39:0.0026315789 40:0.0043859649 41:0.0052631579 42:0.0026315789 43:0.0052631579 45:0.0070175439 46:0.0026315789 48:0.0096491228 50:0.001754386 51:0.0052631579 52:0.0052631579 53:0.012280702 54:0.0078947368 55:0.00087719298 56:0.0061403509 57:0.00087719298 58:0.00087719298 59:0.0035087719 60:0.0087719298 61:0.01754386 62:0.001754386 63:0.00087719298 64:0.001754386 65:0.0043859649 66:0.030701754 67:0.0035087719 68:0.0035087719 69:0.00087719298 70:0.0026315789 72:0.00087719298 73:0.00087719298 74:0.00087719298 75:0.0061403509 76:0.00087719298 77:0.0026315789 78:0.00087719298 80:0.0087719298 81:0.0043859649 82:0.0078947368 83:0.0035087719 84:0.0096491228 85:0.01754386 86:0.0026315789 87:0.00087719298 88:0.00087719298 89:0.001754386 91:0.00087719298 92:0.001754386 93:0.0052631579 94:0.00087719298 95:0.00087719298 96:0.001754386 97:0.0043859649 98:0.00087719298 99:0.00087719298 100:0.012280702 102:0.001754386 103:0.0035087719 104:0.00087719298 105:0.001754386 106:0.0043859649 107:0.0061403509 108:0.0026315789 109:0.00087719298 110:0.0061403509 111:0.0078947368 112:0.001754386 113:0.013157895 114:0.0035087719 115:0.0087719298 116:0.001754386 117:0.0026315789 119:0.0043859649 121:0.0035087719 122:0.0043859649 123:0.0026315789 124:0.00087719298 125:0.00087719298 127:0.0026315789 128:0.013157895 129:0.00087719298 130:0.001754386 131:0.0096491228 132:0.0078947368 134:0.0035087719 136:0.0052631579 137:0.010526316 138:0.00087719298 139:0.0043859649 140:0.0043859649 141:0.0026315789 142:0.0043859649 143:0.0043859649 144:0.0035087719 146:0.0087719298 147:0.001754386 148:0.011403509 149:0.0070175439 150:0.0035087719 153:0.0026315789 154:0.010526316 155:0.0043859649 156:0.013157895 157:0.0052631579 158:0.0026315789 159:0.0035087719 160:0.0043859649 161:0.001754386 162:0.0035087719 163:0.012280702 164:0.00087719298 165:0.0087719298 166:0.0043859649 167:0.0061403509 168:0.0035087719 169:0.014035088 170:0.0070175439 172:0.0043859649 173:0.00087719298 174:0.0035087719 175:0.00087719298 178:0.001754386 180:0.0043859649 181:0.014035088 182:0.00087719298 183:0.00087719298 184:0.0026315789 186:0.0035087719 187:0.0026315789 189:0.0061403509 190:0.001754386 191:0.0061403509 192:0.0043859649 193:0.0061403509 194:0.001754386 195:0.0052631579 196:0.00087719298 197:0.001754386 198:0.027192982 199:0.0061403509 201:0.001754386 202:0.0070175439 203:0.0087719298 204:0.0078947368 205:0.00087719298 206:0.0035087719 208:0.0087719298 209:0.011403509 210:0.00087719298 211:0.0087719298 212:0.001754386 213:0.0052631579 214:0.0026315789 215:0.0087719298 217:0.00087719298 218:0.016666667 219:0.0026315789 220:0.00087719298 222:0.00087719298 223:0.011403509 224:0.0087719298 226:0.001754386 227:0.0026315789 228:0.001754386 229:0.0035087719 230:0.001754386 232:0.0026315789 233:0.0052631579 235:0.00087719298 236:0.00087719298 238:0.0096491228 239:0.0043859649 241:0.0035087719 242:0.00087719298 243:0.0087719298 244:0.0061403509 246:0.0087719298 247:0.0061403509 248:0.0026315789 249:0.0035087719 250:0.00087719298 251:0.0026315789 252:0.00087719298 253:0.0052631579 255:0.00087719298 256:0.0043859649 
7.69180657233111 1:0.010693215 3:0.0066371681 5:0.0014749263 6:0.0088495575 8:0.0014749263 9:0.0029498525 10:0.0014749263 11:0.00036873156 12:0.0047935103 13:0.0011061947 14:0.0092182891 17:0.0095870206 18:0.0011061947 19:0.00036873156 20:0.016961652 21:0.0066371681 22:0.00073746313 23:0.0029498525 24:0.0025811209 25:0.00036873156 26:0.00036873156 27:0.0022123894 28:0.010693215 29:0.0014749263 30:0.0014749263 31:0.0022123894 32:0.028023599 33:0.0014749263 35:0.00073746313 36:0.00073746313 37:0.0029498525 38:0.005899705 39:0.0011061947 40:0.0095870206 41:0.008480826 43:0.01179941 44:0.0014749263 45:0.0022123894 46:0.0011061947 47:0.00036873156 48:0.0014749263 49:0.0011061947 50:0.0011061947 51:0.0022123894 52:0.0081120944 53:0.0066371681 54:0.0036873156 55:0.0044247788 56:0.0018436578 57:0.0088495575 58:0.00036873156 59:0.0011061947 60:0.0055309735 61:0.033554572 62:0.00073746313 63:0.0025811209 64:0.0022123894 65:0.0062684366 66:0.0029498525 68:0.0029498525 69:0.0047935103 70:0.0029498525 71:0.0011061947 72:0.0051622419 73:0.0018436578 74:0.0036873156 75:0.0066371681 76:0.0095870206 77:0.0081120944 78:0.00073746313 79:0.0014749263 80:0.0062684366 81:0.00073746313 82:0.0081120944 83:0.00036873156 84:0.0022123894 85:0.005899705 86:0.00036873156 87:0.00036873156 88:0.0022123894 89:0.00073746313 91:0.0047935103 92:0.00073746313 93:0.0022123894 95:0.0018436578 96:0.0055309735 97:0.008480826 98:0.0014749263 99:0.0022123894 100:0.016961652 102:0.0036873156 103:0.0018436578 104:0.0014749263 105:0.0011061947 106:0.014380531 107:0.00073746313 109:0.0062684366 110:0.0011061947 111:0.0099557522 112:0.0066371681 113:0.0051622419 114:0.0081120944 115:0.0025811209 116:0.0011061947 117:0.0051622419 118:0.00073746313 119:0.00036873156 120:0.0025811209 121:0.0011061947 122:0.0025811209 123:0.0014749263 124:0.0022123894 125:0.0062684366 126:0.00073746313 127:0.0025811209 128:0.0018436578 129:0.0022123894 131:0.011430678 132:0.0070058997 133:0.0025811209 134:0.0073746313 135:0.0014749263 136:0.0099557522 137:0.00036873156 138:0.00036873156 139:0.0029498525 140:0.0025811209 141:0.0025811209 142:0.0011061947 143:0.0022123894 144:0.0033185841 145:0.0014749263 146:0.0025811209 147:0.0014749263 148:0.0014749263 149:0.00073746313 150:0.00073746313 151:0.0040560472 152:0.0011061947 153:0.0070058997 154:0.0062684366 155:0.0066371681 156:0.017699115 157:0.0025811209 158:0.0088495575 159:0.0014749263 160:0.016224189 161:0.00073746313 162:0.0025811209 163:0.0018436578 164:0.0011061947 165:0.0088495575 166:0.0022123894 167:0.0025811209 168:0.0073746313 169:0.0092182891 170:0.0062684366 173:0.0025811209 174:0.00073746313 175:0.00036873156 176:0.00073746313 177:0.00073746313 178:0.0033185841 179:0.0025811209 180:0.0099557522 181:0.0011061947 182:0.0011061947 183:0.0018436578 184:0.0051622419 185:0.0022123894 186:0.0036873156 187:0.0029498525 189:0.0025811209 190:0.0036873156 191:0.0011061947 192:0.0022123894 193:0.0040560472 194:0.005899705 195:0.0029498525 196:0.0014749263 197:0.011061947 198:0.035029499 199:0.01179941 200:0.0044247788 202:0.0029498525 203:0.0025811209 204:0.0047935103 205:0.0047935103 206:0.00036873156 207:0.00036873156 208:0.0092182891 209:0.0099557522 210:0.00073746313 211:0.008480826 212:0.0092182891 213:0.010324484 214:0.0047935103 215:0.0062684366 217:0.00036873156 218:0.0099557522 219:0.0029498525 220:0.0029498525 221:0.00073746313 222:0.0051622419 224:0.0033185841 225:0.0014749263 226:0.0014749263 227:0.0073746313 228:0.0022123894 229:0.005899705 230:0.00073746313 231:0.00036873156 232:0.00073746313 233:0.0018436578 234:0.00073746313 235:0.0018436578 236:0.0011061947 237:0.00073746313 238:0.023230088 239:0.0022123894 240:0.0014749263 241:0.00036873156 242:0.0022123894 243:0.0044247788 244:0.0018436578 245:0.0033185841 246:0.0051622419 247:0.0044247788 248:0.0033185841 249:0.00073746313 251:0.005899705 252:0.00036873156 253:0.010693215 254:0.0014749263 255:0.0036873156 256:0.00036873156 
7.674372478628381 1:0.016020672 2:0.0010335917 3:0.012403101 4:0.0020671835 5:0.0020671835 6:0.0015503876 7:0.0041343669 9:0.0056847545 10:0.0056847545 12:0.0087855297 13:0.0031007752 14:0.0020671835 17:0.0036175711 18:0.0020671835 19:0.0020671835 20:0.0087855297 21:0.0031007752 23:0.0020671835 24:0.0056847545 25:0.0015503876 27:0.0072351421 28:0.017571059 30:0.0062015504 31:0.0010335917 32:0.023255814 33:0.0010335917 34:0.0010335917 37:0.0031007752 38:0.007751938 39:0.0041343669 40:0.0046511628 41:0.0036175711 42:0.0015503876 43:0.0098191214 45:0.0015503876 46:0.0025839793 48:0.0015503876 49:0.0010335917 50:0.0020671835 51:0.0025839793 52:0.0072351421 53:0.0093023256 54:0.0015503876 55:0.0010335917 56:0.0025839793 57:0.0046511628 58:0.00051679587 60:0.0051679587 61:0.028423773 62:0.0067183463 63:0.00051679587 64:0.0087855297 65:0.0020671835 66:0.0015503876 68:0.0020671835 69:0.00051679587 70:0.0020671835 71:0.0015503876 72:0.0020671835 73:0.00051679587 74:0.0010335917 75:0.0025839793 76:0.011369509 77:0.0072351421 78:0.0015503876 79:0.0031007752 80:0.0041343669 81:0.0051679587 82:0.0062015504 84:0.0041343669 85:0.026356589 86:0.0015503876 87:0.00051679587 88:0.0046511628 91:0.0087855297 92:0.00051679587 93:0.0031007752 94:0.0025839793 95:0.0036175711 96:0.0062015504 97:0.0046511628 98:0.0010335917 99:0.0031007752 100:0.0087855297 101:0.0010335917 102:0.0020671835 103:0.0056847545 104:0.00051679587 105:0.0010335917 106:0.013436693 107:0.0046511628 108:0.00051679587 109:0.0015503876 110:0.0087855297 111:0.0051679587 112:0.0031007752 113:0.0056847545 114:0.0093023256 115:0.0031007752 117:0.0046511628 119:0.0015503876 120:0.0010335917 121:0.0010335917 122:0.0046511628 123:0.007751938 124:0.0062015504 125:0.007751938 126:0.0051679587 127:0.0020671835 128:0.0056847545 129:0.0015503876 130:0.00051679587 131:0.0062015504 132:0.013953488 133:0.0025839793 134:0.010852713 135:0.0010335917 136:0.010852713 137:0.0041343669 138:0.00051679587 139:0.0010335917 140:0.00051679587 141:0.0031007752 142:0.0010335917 143:0.0041343669 144:0.0041343669 145:0.00051679587 146:0.00051679587 147:0.0056847545 151:0.0015503876 152:0.0020671835 153:0.020671835 154:0.0062015504 155:0.0025839793 156:0.010335917 157:0.0020671835 158:0.0025839793 159:0.00051679587 160:0.02377261 162:0.0025839793 163:0.0015503876 164:0.0010335917 165:0.026873385 166:0.00051679587 167:0.0031007752 168:0.0010335917 169:0.011886305 170:0.0072351421 171:0.0010335917 172:0.00051679587 173:0.0036175711 174:0.0046511628 175:0.00051679587 176:0.00051679587 177:0.0015503876 178:0.0072351421 180:0.0062015504 181:0.0015503876 183:0.0010335917 184:0.0031007752 186:0.0025839793 187:0.0031007752 189:0.0041343669 190:0.0020671835 191:0.0087855297 192:0.0020671835 193:0.010335917 194:0.0056847545 195:0.0041343669 196:0.0041343669 197:0.0051679587 198:0.020671835 199:0.013436693 200:0.0046511628 202:0.0041343669 203:0.0010335917 205:0.0015503876 208:0.00051679587 209:0.00051679587 211:0.011369509 212:0.0093023256 213:0.0098191214 214:0.0098191214 215:0.0072351421 216:0.00051679587 217:0.0020671835 218:0.0015503876 219:0.0046511628 220:0.0046511628 222:0.0025839793 223:0.0036175711 224:0.007751938 225:0.0025839793 226:0.0062015504 227:0.0015503876 229:0.007751938 230:0.00051679587 231:0.00051679587 232:0.0031007752 233:0.0020671835 235:0.0025839793 236:0.0015503876 237:0.0041343669 238:0.0020671835 239:0.0015503876 242:0.0015503876 243:0.00051679587 244:0.0031007752 245:0.0015503876 246:0.0051679587 247:0.0015503876 248:0.00051679587 249:0.0010335917 251:0.0041343669 252:0.0020671835 253:0.011886305 254:0.00051679587 255:0.0020671835 256:0.0010335917 
6.484116863689514 1:0.0069750367 2:0.0022026432 3:0.0069750367 4:0.0029368576 5:0.001835536 6:0.0011013216 7:0.0040381791 8:0.0003671072 9:0.0014684288 10:0.0033039648 11:0.0051395007 12:0.0025697504 13:0.001835536 14:0.00073421439 15:0.0058737151 16:0.0040381791 17:0.00073421439 18:0.0003671072 19:0.0011013216 20:0.0062408223 21:0.0058737151 22:0.0022026432 23:0.0080763583 24:0.0044052863 25:0.0047723935 26:0.0051395007 27:0.0022026432 28:0.0099118943 29:0.0033039648 30:0.003671072 31:0.0066079295 32:0.015785609 33:0.0011013216 34:0.0055066079 35:0.0003671072 36:0.0077092511 37:0.0029368576 38:0.0095447871 39:0.0014684288 40:0.0029368576 41:0.0014684288 42:0.0025697504 43:0.0051395007 44:0.003671072 45:0.0040381791 46:0.00073421439 47:0.001835536 48:0.0029368576 49:0.003671072 50:0.001835536 51:0.0033039648 52:0.0055066079 53:0.0051395007 54:0.0022026432 55:0.0025697504 56:0.0014684288 57:0.003671072 59:0.0014684288 60:0.0051395007 61:0.022026432 62:0.0051395007 63:0.0044052863 64:0.0077092511 65:0.0014684288 66:0.00073421439 68:0.0029368576 69:0.0025697504 70:0.0003671072 71:0.003671072 72:0.0066079295 74:0.0025697504 75:0.0066079295 76:0.0047723935 77:0.0069750367 78:0.0058737151 79:0.0011013216 80:0.0051395007 81:0.0044052863 82:0.0069750367 84:0.0044052863 85:0.014684288 86:0.0044052863 88:0.0044052863 89:0.0055066079 90:0.0011013216 91:0.003671072 92:0.0040381791 93:0.0062408223 94:0.0033039648 95:0.0011013216 96:0.0055066079 97:0.0040381791 98:0.0033039648 99:0.0055066079 100:0.0084434655 101:0.0044052863 102:0.0058737151 103:0.0051395007 104:0.00073421439 105:0.0025697504 106:0.0033039648 107:0.0025697504 108:0.0022026432 109:0.0047723935 110:0.0051395007 111:0.0029368576 112:0.0033039648 113:0.0066079295 114:0.0099118943 115:0.0022026432 116:0.0025697504 117:0.0040381791 118:0.0077092511 119:0.0014684288 120:0.0011013216 121:0.00073421439 122:0.0014684288 123:0.0058737151 124:0.0069750367 125:0.0062408223 126:0.00073421439 127:0.001835536 128:0.0058737151 129:0.0029368576 130:0.0003671072 131:0.0044052863 132:0.012114537 133:0.003671072 134:0.0047723935 135:0.00073421439 136:0.0051395007 137:0.0047723935 138:0.001835536 139:0.0051395007 140:0.001835536 141:0.0047723935 142:0.0033039648 143:0.0025697504 144:0.0040381791 145:0.0025697504 146:0.0014684288 147:0.0044052863 148:0.001835536 150:0.0003671072 151:0.0022026432 152:0.0040381791 153:0.0073421439 154:0.0025697504 155:0.0025697504 156:0.0095447871 157:0.0029368576 158:0.0011013216 159:0.0047723935 160:0.010646109 161:0.0022026432 162:0.0080763583 163:0.0029368576 164:0.015418502 165:0.0091776799 166:0.00073421439 167:0.0040381791 168:0.001835536 169:0.0062408223 170:0.0055066079 171:0.0014684288 173:0.0025697504 174:0.003671072 175:0.003671072 176:0.0044052863 177:0.0040381791 178:0.0014684288 179:0.0011013216 180:0.0025697504 181:0.00073421439 182:0.0011013216 183:0.0003671072 184:0.0029368576 185:0.003671072 186:0.0029368576 187:0.0051395007 188:0.0022026432 189:0.0025697504 190:0.001835536 191:0.0084434655 192:0.0044052863 193:0.015051395 194:0.0058737151 195:0.0069750367 196:0.0051395007 197:0.0040381791 198:0.015051395 199:0.0080763583 200:0.0011013216 201:0.00073421439 202:0.0040381791 203:0.0014684288 204:0.001835536 205:0.00073421439 206:0.00073421439 207:0.0040381791 208:0.0022026432 209:0.0011013216 210:0.0088105727 211:0.0073421439 212:0.0088105727 213:0.0066079295 214:0.001835536 215:0.0088105727 216:0.0040381791 217:0.013582966 218:0.0088105727 219:0.0066079295 220:0.0014684288 221:0.0044052863 222:0.0003671072 223:0.001835536 224:0.0044052863 225:0.0040381791 226:0.0040381791 227:0.0014684288 228:0.0014684288 229:0.001835536 230:0.0003671072 231:0.0058737151 232:0.0033039648 233:0.001835536 234:0.0011013216 235:0.0014684288 236:0.0014684288 237:0.0014684288 238:0.0044052863 239:0.0025697504 240:0.0014684288 241:0.001835536 243:0.00073421439 244:0.0022026432 245:0.0029368576 246:0.0040381791 247:0.0003671072 248:0.0011013216 249:0.0014684288 251:0.00073421439 252:0.0044052863 253:0.0066079295 254:0.0066079295 255:0.0051395007 256:0.0077092511 
3.832149788774521 1:0.0071609099 2:0.0033698399 3:0.0025273799 4:0.00042122999 5:0.0029486099 6:0.0033698399 7:0.0025273799 8:0.0071609099 9:0.01305813 10:0.00042122999 11:0.00042122999 12:0.0029486099 13:0.00210615 14:0.00168492 15:0.00042122999 17:0.00042122999 18:0.0037910699 19:0.0029486099 20:0.01642797 21:0.00126369 22:0.00168492 24:0.0029486099 25:0.00042122999 26:0.00168492 27:0.0046335299 28:0.0168492 30:0.0075821398 31:0.00042122999 32:0.01432182 33:0.00084245998 34:0.00168492 35:0.00084245998 36:0.0029486099 37:0.0046335299 38:0.00210615 39:0.00084245998 40:0.0025273799 41:0.0029486099 42:0.00168492 43:0.0071609099 44:0.00210615 45:0.00210615 46:0.00168492 47:0.00210615 48:0.00210615 49:0.00210615 50:0.00084245998 51:0.00084245998 52:0.0042122999 53:0.00168492 54:0.0046335299 55:0.0025273799 56:0.01474305 57:0.0029486099 58:0.0071609099 59:0.00126369 60:0.0054759899 61:0.0126369 62:0.0096882898 63:0.00084245998 64:0.00168492 65:0.00210615 66:0.00210615 67:0.0025273799 68:0.0058972199 69:0.00084245998 70:0.00168492 71:0.0037910699 72:0.00042122999 73:0.0050547599 74:0.0046335299 75:0.00168492 76:0.00210615 77:0.0084245998 78:0.00210615 79:0.0054759899 80:0.02064027 81:0.0037910699 82:0.00168492 83:0.0054759899 84:0.0084245998 85:0.0071609099 86:0.00042122999 87:0.0033698399 88:0.0058972199 89:0.00126369 91:0.0025273799 93:0.00210615 94:0.00126369 95:0.00210615 96:0.0063184499 97:0.0075821398 98:0.00168492 99:0.00126369 100:0.0054759899 101:0.00042122999 103:0.0075821398 105:0.00168492 106:0.0063184499 107:0.00210615 108:0.00042122999 110:0.01727043 111:0.0029486099 112:0.0025273799 113:0.01811289 114:0.0080033698 115:0.01221567 116:0.00168492 117:0.00084245998 118:0.00126369 119:0.0054759899 120:0.00042122999 121:0.0075821398 122:0.00042122999 123:0.0025273799 124:0.00168492 125:0.0042122999 126:0.00126369 127:0.00042122999 128:0.01432182 129:0.00126369 130:0.0046335299 131:0.0088458298 132:0.0042122999 133:0.00168492 134:0.0067396799 135:0.00042122999 136:0.0075821398 137:0.00126369 138:0.00168492 139:0.0025273799 140:0.00210615 141:0.0029486099 142:0.00042122999 143:0.0029486099 144:0.0046335299 145:0.00042122999 146:0.00168492 147:0.0029486099 148:0.0126369 149:0.0084245998 150:0.00210615 151:0.00084245998 152:0.0046335299 153:0.0050547599 154:0.0067396799 155:0.0058972199 156:0.02148273 157:0.00210615 158:0.0029486099 159:0.00042122999 160:0.0067396799 161:0.00210615 162:0.00126369 163:0.00210615 164:0.00042122999 165:0.01432182 166:0.00126369 167:0.0071609099 168:0.00042122999 169:0.0168492 170:0.0084245998 171:0.00126369 172:0.00210615 173:0.0033698399 175:0.00042122999 176:0.00168492 177:0.00210615 178:0.01221567 179:0.00084245998 180:0.0050547599 181:0.00210615 183:0.01769166 185:0.00126369 186:0.0067396799 187:0.00210615 188:0.00210615 189:0.00084245998 190:0.00126369 191:0.00084245998 192:0.00126369 193:0.0033698399 194:0.00168492 195:0.00126369 196:0.00084245998 198:0.01895535 199:0.026116259 200:0.0037910699 201:0.0080033698 202:0.0042122999 203:0.0025273799 204:0.01137321 205:0.00042122999 206:0.00084245998 207:0.00126369 208:0.00168492 209:0.00168492 210:0.00126369 211:0.0054759899 212:0.0063184499 213:0.01811289 214:0.00210615 215:0.01137321 218:0.00210615 220:0.0033698399 222:0.00210615 223:0.00126369 224:0.00168492 225:0.0025273799 226:0.00084245998 227:0.00084245998 228:0.0067396799 229:0.00168492 230:0.00210615 232:0.0025273799 233:0.00084245998 235:0.0058972199 236:0.00042122999 237:0.0050547599 238:0.0037910699 239:0.0071609099 240:0.00210615 241:0.0037910699 242:0.0025273799 243:0.0025273799 244:0.00084245998 245:0.0058972199 246:0.0025273799 247:0.00084245998 248:0.0071609099 249:0.0050547599 250:0.0025273799 251:0.01179444 252:0.00210615 253:0.0054759899 254:0.0037910699 255:0.00126369 256:0.00084245998 
8.082500646371892 1:0.0075901328 2:0.0034155598 3:0.0037950664 4:0.0060721063 5:0.00075901328 6:0.0022770398 7:0.0026565465 8:0.0018975332 9:0.0037950664 10:0.0041745731 11:0.0060721063 12:0.0041745731 13:0.00075901328 14:0.0041745731 15:0.0041745731 16:0.0022770398 17:0.012903226 18:0.0011385199 19:0.0075901328 20:0.0011385199 21:0.0049335863 22:0.0018975332 23:0.0056925996 24:0.0056925996 25:0.0049335863 26:0.0034155598 28:0.0083491461 29:0.0045540797 30:0.00075901328 31:0.0015180266 32:0.0034155598 33:0.0037950664 34:0.0056925996 35:0.0037950664 36:0.0098671727 37:0.0026565465 38:0.012144213 39:0.0018975332 40:0.0068311195 41:0.0022770398 42:0.0030360531 43:0.0026565465 44:0.0022770398 45:0.0022770398 46:0.0015180266 47:0.0049335863 48:0.00037950664 49:0.0034155598 50:0.0015180266 51:0.0072106262 52:0.0034155598 53:0.0041745731 54:0.0015180266 55:0.0018975332 56:0.0034155598 57:0.0015180266 58:0.00075901328 59:0.0018975332 60:0.0041745731 61:0.0022770398 62:0.0022770398 63:0.0075901328 64:0.0056925996 65:0.0037950664 66:0.0022770398 67:0.0022770398 68:0.0064516129 69:0.0018975332 71:0.0045540797 72:0.0037950664 73:0.0015180266 74:0.0045540797 75:0.0079696395 76:0.0018975332 77:0.0049335863 78:0.0045540797 79:0.00075901328 80:0.0015180266 81:0.0034155598 82:0.0041745731 83:0.00075901328 84:0.0018975332 85:0.009487666 86:0.00075901328 87:0.0015180266 88:0.0030360531 89:0.005313093 90:0.0011385199 91:0.0037950664 92:0.0045540797 93:0.010246679 94:0.0018975332 95:0.0011385199 96:0.0056925996 97:0.0037950664 98:0.013282732 99:0.0045540797 100:0.0098671727 101:0.005313093 102:0.0034155598 103:0.0056925996 104:0.0018975332 105:0.0026565465 106:0.0037950664 107:0.0072106262 108:0.0041745731 109:0.005313093 110:0.0045540797 111:0.005313093 112:0.0026565465 113:0.0056925996 114:0.0079696395 115:0.00075901328 116:0.0011385199 117:0.0037950664 118:0.0056925996 119:0.0037950664 120:0.005313093 122:0.0068311195 123:0.0045540797 124:0.0049335863 125:0.0034155598 126:0.0011385199 127:0.005313093 128:0.0015180266 129:0.0060721063 130:0.00037950664 131:0.0060721063 132:0.0060721063 133:0.0075901328 134:0.0022770398 135:0.0034155598 136:0.0022770398 137:0.0022770398 138:0.0015180266 139:0.0026565465 140:0.0026565465 141:0.0018975332 142:0.0075901328 143:0.0022770398 144:0.0034155598 145:0.0015180266 146:0.0049335863 147:0.010626186 148:0.00075901328 149:0.00075901328 150:0.0026565465 151:0.0015180266 152:0.0011385199 153:0.0079696395 154:0.0056925996 155:0.0037950664 156:0.0037950664 157:0.0022770398 158:0.0049335863 159:0.0049335863 160:0.0041745731 161:0.00075901328 162:0.0064516129 163:0.0045540797 164:0.0041745731 165:0.0060721063 166:0.0022770398 167:0.0064516129 168:0.0015180266 169:0.0068311195 170:0.0060721063 171:0.0045540797 172:0.0011385199 173:0.0072106262 174:0.0041745731 175:0.0026565465 176:0.0072106262 177:0.0037950664 178:0.011005693 179:0.0037950664 180:0.0018975332 181:0.0041745731 182:0.0022770398 183:0.0011385199 184:0.0037950664 185:0.0015180266 186:0.0022770398 187:0.0015180266 188:0.0018975332 189:0.0030360531 190:0.0030360531 191:0.0037950664 192:0.0041745731 193:0.016318786 194:0.0049335863 195:0.0072106262 196:0.0026565465 197:0.0041745731 198:0.011385199 199:0.0049335863 200:0.0026565465 201:0.00037950664 202:0.0022770398 203:0.0049335863 204:0.00037950664 205:0.0011385199 206:0.0015180266 207:0.0030360531 208:0.0026565465 209:0.0037950664 210:0.0079696395 211:0.0030360531 212:0.0037950664 213:0.0034155598 214:0.0041745731 215:0.0064516129 216:0.005313093 217:0.0041745731 218:0.0045540797 219:0.00037950664 220:0.0037950664 221:0.0068311195 222:0.0018975332 223:0.0087286528 224:0.0068311195 225:0.0011385199 226:0.0034155598 227:0.0098671727 228:0.00037950664 229:0.0022770398 230:0.0011385199 231:0.0011385199 232:0.0034155598 233:0.0018975332 234:0.0030360531 235:0.0030360531 236:0.0015180266 237:0.0049335863 238:0.0075901328 239:0.00075901328 240:0.0034155598 241:0.0011385199 242:0.0037950664 243:0.0037950664 244:0.0041745731 245:0.00037950664 246:0.0034155598 247:0.0022770398 248:0.0015180266 249:0.00037950664 251:0.0022770398 252:0.0068311195 253:0.009487666 254:0.0037950664 255:0.0079696395 256:0.0072106262 
7.243138293006473 1:0.0011389522 3:0.0017084282 4:0.0028473804 5:0.00056947608 6:0.0011389522 7:0.0062642369 8:0.0022779043 9:0.0034168565 10:0.0011389522 11:0.0022779043 12:0.0056947608 13:0.0017084282 15:0.0074031891 16:0.0022779043 17:0.0011389522 19:0.0017084282 20:0.0039863326 21:0.0051252847 22:0.0051252847 23:0.0062642369 24:0.0045558087 25:0.0017084282 26:0.0034168565 27:0.013667426 28:0.0062642369 29:0.0017084282 30:0.0022779043 31:0.0039863326 32:0.0039863326 33:0.0039863326 34:0.0051252847 35:0.0011389522 36:0.011389522 37:0.0017084282 38:0.0062642369 39:0.0039863326 42:0.0045558087 43:0.0034168565 44:0.0074031891 45:0.0028473804 46:0.0062642369 47:0.0039863326 48:0.00056947608 49:0.0051252847 50:0.0034168565 51:0.0017084282 52:0.0062642369 53:0.0039863326 54:0.0028473804 55:0.0011389522 56:0.0017084282 57:0.0017084282 59:0.0017084282 60:0.0011389522 61:0.010250569 62:0.0091116173 63:0.0022779043 64:0.0085421412 65:0.0022779043 66:0.0017084282 68:0.0028473804 69:0.0017084282 70:0.0051252847 71:0.0011389522 72:0.0017084282 73:0.00056947608 74:0.0045558087 75:0.0034168565 76:0.0039863326 77:0.00056947608 78:0.00056947608 79:0.0028473804 80:0.0039863326 81:0.0039863326 82:0.0022779043 83:0.0022779043 84:0.0028473804 85:0.016514806 86:0.0039863326 87:0.0056947608 88:0.0022779043 89:0.0045558087 90:0.0056947608 91:0.014236902 92:0.0039863326 93:0.0062642369 94:0.0039863326 95:0.0017084282 96:0.0022779043 97:0.010250569 98:0.0085421412 99:0.0096810934 101:0.0062642369 102:0.0056947608 103:0.0017084282 104:0.0022779043 105:0.006833713 106:0.011389522 108:0.0034168565 109:0.0039863326 111:0.0028473804 112:0.0017084282 113:0.0017084282 114:0.0028473804 116:0.0034168565 117:0.0056947608 118:0.0056947608 119:0.0022779043 120:0.0039863326 121:0.0028473804 122:0.0028473804 123:0.0022779043 124:0.0085421412 125:0.0062642369 126:0.00056947608 127:0.0045558087 128:0.0051252847 129:0.0045558087 130:0.00056947608 131:0.0034168565 132:0.0079726651 133:0.0011389522 134:0.0051252847 135:0.0034168565 136:0.0062642369 137:0.0028473804 138:0.0034168565 139:0.0034168565 140:0.0034168565 141:0.0022779043 142:0.00056947608 143:0.0045558087 144:0.006833713 145:0.0045558087 146:0.0028473804 147:0.0011389522 148:0.0034168565 149:0.006833713 150:0.0022779043 151:0.0028473804 152:0.0011389522 153:0.0062642369 154:0.011958998 155:0.0028473804 156:0.0039863326 157:0.0051252847 158:0.013667426 159:0.0056947608 160:0.006833713 161:0.0017084282 162:0.0051252847 163:0.0028473804 164:0.00056947608 165:0.0034168565 166:0.0039863326 167:0.0096810934 168:0.0051252847 169:0.0034168565 170:0.0017084282 171:0.0056947608 172:0.00056947608 173:0.014236902 174:0.0096810934 175:0.00056947608 176:0.0074031891 177:0.0085421412 178:0.0022779043 179:0.0011389522 180:0.0022779043 181:0.0079726651 182:0.0056947608 183:0.0017084282 184:0.014236902 185:0.0022779043 186:0.00056947608 187:0.0022779043 188:0.0056947608 189:0.0028473804 190:0.0034168565 191:0.0022779043 192:0.0028473804 193:0.0096810934 194:0.0034168565 195:0.0085421412 196:0.0045558087 197:0.012528474 198:0.0039863326 199:0.0017084282 200:0.0039863326 202:0.0034168565 203:0.0017084282 204:0.0028473804 205:0.00056947608 206:0.0096810934 207:0.0017084282 209:0.0022779043 210:0.0051252847 211:0.0062642369 212:0.0079726651 213:0.0096810934 214:0.0039863326 215:0.00056947608 216:0.0022779043 217:0.010250569 218:0.0039863326 219:0.0045558087 220:0.0074031891 221:0.0028473804 222:0.0045558087 223:0.0017084282 224:0.0039863326 225:0.0017084282 226:0.01309795 227:0.0011389522 228:0.0017084282 229:0.0017084282 230:0.0011389522 231:0.0022779043 232:0.0045558087 233:0.0056947608 234:0.0034168565 235:0.0028473804 236:0.0028473804 237:0.0022779043 238:0.00056947608 239:0.0022779043 240:0.0056947608 241:0.00056947608 242:0.00056947608 243:0.0062642369 244:0.0022779043 245:0.0017084282 246:0.00056947608 247:0.0011389522 248:0.0011389522 249:0.0011389522 251:0.0017084282 252:0.0039863326 253:0.0039863326 254:0.0039863326 255:0.0022779043 256:0.0056947608 
1.404539706460721 1:0.0039761431 2:0.0019880716 3:0.0026507621 5:0.0066269052 6:0.0033134526 7:0.0026507621 8:0.0026507621 9:0.0072895958 10:0.0066269052 12:0.0026507621 13:0.011928429 14:0.0039761431 16:0.0026507621 17:0.0033134526 18:0.0033134526 20:0.0086149768 21:0.00066269052 27:0.0046388337 28:0.010603048 29:0.001325381 30:0.0039761431 31:0.0026507621 32:0.014579192 33:0.0033134526 34:0.0026507621 36:0.00066269052 37:0.01259112 38:0.001325381 39:0.0046388337 40:0.0033134526 41:0.0059642147 43:0.01259112 45:0.011928429 46:0.001325381 51:0.0059642147 52:0.0079522863 53:0.0072895958 54:0.0046388337 56:0.014579192 57:0.0026507621 58:0.0019880716 60:0.010603048 61:0.010603048 62:0.0019880716 63:0.0019880716 64:0.001325381 65:0.001325381 66:0.0086149768 67:0.0086149768 68:0.0033134526 70:0.0039761431 71:0.0019880716 72:0.0072895958 73:0.0039761431 74:0.0019880716 76:0.001325381 77:0.01259112 79:0.0046388337 80:0.019880716 81:0.0019880716 82:0.0072895958 83:0.0026507621 84:0.01259112 85:0.0092776673 86:0.001325381 87:0.0053015242 88:0.0039761431 91:0.0019880716 94:0.0039761431 96:0.0092776673 97:0.0039761431 100:0.0059642147 101:0.00066269052 102:0.001325381 103:0.0046388337 104:0.001325381 106:0.0066269052 107:0.0053015242 108:0.0039761431 109:0.00066269052 110:0.01325381 111:0.0099403579 112:0.001325381 113:0.023194168 114:0.0053015242 115:0.015904573 117:0.0033134526 119:0.001325381 120:0.00066269052 121:0.0053015242 122:0.001325381 123:0.0053015242 124:0.00066269052 125:0.0046388337 126:0.00066269052 128:0.016567263 130:0.0039761431 131:0.016567263 132:0.0019880716 134:0.0039761431 135:0.00066269052 136:0.0039761431 137:0.0046388337 138:0.00066269052 139:0.00066269052 140:0.0039761431 141:0.0066269052 143:0.00066269052 145:0.001325381 146:0.0059642147 148:0.015241882 149:0.0079522863 150:0.00066269052 151:0.0019880716 152:0.001325381 153:0.0046388337 154:0.0066269052 155:0.0092776673 156:0.027833002 157:0.00066269052 158:0.001325381 159:0.001325381 160:0.0059642147 161:0.001325381 162:0.0053015242 163:0.0059642147 164:0.001325381 165:0.0066269052 166:0.0026507621 167:0.0053015242 168:0.00066269052 169:0.017229954 170:0.0079522863 172:0.0019880716 174:0.00066269052 176:0.001325381 178:0.0053015242 179:0.0019880716 180:0.0086149768 181:0.0072895958 182:0.00066269052 183:0.0019880716 184:0.001325381 185:0.00066269052 186:0.0033134526 187:0.0019880716 188:0.00066269052 189:0.0019880716 190:0.001325381 191:0.0053015242 192:0.00066269052 194:0.00066269052 196:0.00066269052 198:0.011928429 199:0.01325381 200:0.0079522863 202:0.001325381 203:0.0046388337 204:0.0099403579 205:0.0059642147 206:0.001325381 208:0.0019880716 209:0.001325381 211:0.001325381 212:0.015241882 213:0.015904573 215:0.0046388337 218:0.00066269052 219:0.00066269052 220:0.001325381 222:0.0033134526 223:0.0086149768 224:0.001325381 225:0.00066269052 226:0.0026507621 227:0.0019880716 229:0.01259112 230:0.00066269052 232:0.0059642147 233:0.001325381 235:0.0033134526 236:0.0033134526 237:0.0066269052 238:0.014579192 239:0.013916501 240:0.00066269052 241:0.00066269052 242:0.0053015242 243:0.0053015242 245:0.00066269052 246:0.0099403579 248:0.0072895958 249:0.0046388337 250:0.0026507621 251:0.0079522863 253:0.0033134526 255:0.00066269052 256:0.00066269052 
2.744047339949669 1:0.0049067713 2:0.00098135427 3:0.0049067713 5:0.0049067713 6:0.0019627085 9:0.010794897 10:0.0029440628 12:0.012757605 13:0.0039254171 14:0.0029440628 16:0.00098135427 17:0.00098135427 18:0.00098135427 19:0.00098135427 20:0.012757605 21:0.0058881256 22:0.0019627085 23:0.0029440628 24:0.00098135427 27:0.014720314 28:0.01373896 30:0.0058881256 31:0.0019627085 32:0.016683023 33:0.0039254171 34:0.0019627085 35:0.0019627085 36:0.0019627085 37:0.0019627085 39:0.0019627085 40:0.0098135427 41:0.00098135427 43:0.012757605 45:0.0058881256 46:0.0019627085 47:0.0029440628 48:0.0019627085 50:0.00098135427 51:0.00098135427 52:0.0078508342 53:0.0019627085 54:0.0058881256 56:0.010794897 57:0.0039254171 58:0.0019627085 60:0.011776251 61:0.0098135427 62:0.00098135427 63:0.00098135427 65:0.0049067713 67:0.0049067713 68:0.0029440628 70:0.016683023 71:0.00098135427 72:0.0029440628 74:0.0049067713 75:0.00098135427 76:0.00098135427 77:0.012757605 78:0.00098135427 79:0.030421982 80:0.0088321884 81:0.0039254171 82:0.0039254171 83:0.0029440628 84:0.0088321884 85:0.011776251 86:0.00098135427 88:0.0019627085 89:0.0019627085 93:0.0019627085 94:0.00098135427 95:0.0039254171 96:0.0058881256 97:0.0068694799 98:0.0029440628 100:0.0029440628 101:0.0019627085 102:0.0029440628 104:0.00098135427 105:0.0058881256 106:0.012757605 110:0.01373896 112:0.0049067713 113:0.010794897 114:0.0078508342 115:0.02060844 116:0.0019627085 117:0.0019627085 118:0.0019627085 120:0.00098135427 121:0.0049067713 122:0.00098135427 123:0.00098135427 124:0.00098135427 125:0.0039254171 126:0.010794897 127:0.00098135427 128:0.012757605 129:0.00098135427 130:0.00098135427 131:0.0078508342 132:0.0049067713 134:0.0068694799 135:0.0088321884 136:0.0019627085 137:0.00098135427 138:0.00098135427 140:0.0088321884 141:0.00098135427 143:0.00098135427 144:0.0029440628 145:0.0019627085 146:0.0058881256 147:0.00098135427 148:0.021589794 149:0.0058881256 150:0.0019627085 151:0.00098135427 152:0.00098135427 153:0.0058881256 154:0.0029440628 155:0.0039254171 156:0.023552502 157:0.0049067713 158:0.0029440628 160:0.0058881256 161:0.00098135427 162:0.0049067713 163:0.00098135427 165:0.014720314 166:0.0019627085 167:0.0029440628 169:0.012757605 170:0.022571148 171:0.0029440628 172:0.0039254171 177:0.00098135427 178:0.0058881256 180:0.0039254171 182:0.00098135427 183:0.0068694799 184:0.00098135427 185:0.0029440628 187:0.0019627085 188:0.0019627085 189:0.00098135427 191:0.0039254171 194:0.0039254171 195:0.0039254171 196:0.0019627085 197:0.00098135427 198:0.015701668 199:0.015701668 200:0.028459274 201:0.0019627085 203:0.0049067713 204:0.0029440628 205:0.0039254171 206:0.0019627085 208:0.0039254171 209:0.0019627085 210:0.00098135427 211:0.0039254171 212:0.0068694799 213:0.01373896 214:0.0098135427 215:0.0058881256 217:0.0029440628 219:0.0029440628 220:0.0029440628 222:0.015701668 223:0.00098135427 224:0.0029440628 227:0.00098135427 229:0.0049067713 232:0.0029440628 235:0.0029440628 236:0.0058881256 237:0.00098135427 238:0.0088321884 239:0.010794897 240:0.0068694799 241:0.0078508342 242:0.00098135427 243:0.00098135427 245:0.00098135427 246:0.0029440628 247:0.0019627085 248:0.0029440628 249:0.0019627085 252:0.00098135427 253:0.0058881256 255:0.0058881256 
2.121853567376882 1:0.0080472103 2:0.0016094421 3:0.0064377682 4:0.0021459227 6:0.0010729614 7:0.00053648069 9:0.0016094421 10:0.0032188841 11:0.00053648069 12:0.00053648069 13:0.0032188841 14:0.008583691 15:0.0032188841 16:0.0053648069 17:0.0069742489 19:0.00053648069 20:0.0053648069 21:0.008583691 22:0.0016094421 23:0.0032188841 24:0.0037553648 25:0.0010729614 26:0.00053648069 27:0.00053648069 28:0.0091201717 29:0.0026824034 30:0.0010729614 31:0.00053648069 32:0.013412017 33:0.008583691 34:0.0080472103 35:0.00053648069 36:0.0037553648 37:0.0037553648 38:0.0042918455 39:0.00053648069 40:0.0080472103 41:0.0075107296 42:0.0026824034 43:0.0064377682 44:0.0021459227 45:0.0042918455 46:0.00053648069 47:0.0010729614 48:0.00053648069 49:0.0021459227 50:0.0042918455 51:0.013948498 52:0.0037553648 53:0.0091201717 54:0.0016094421 55:0.0026824034 56:0.0026824034 57:0.0021459227 59:0.0010729614 60:0.0059012876 61:0.024141631 62:0.00053648069 63:0.0026824034 64:0.0096566524 65:0.0037553648 66:0.0010729614 68:0.0059012876 69:0.0032188841 70:0.00053648069 71:0.00053648069 72:0.008583691 73:0.00053648069 74:0.0010729614 75:0.0026824034 76:0.0075107296 77:0.0053648069 78:0.0042918455 79:0.0010729614 80:0.0042918455 81:0.0064377682 82:0.0048283262 84:0.0016094421 85:0.016094421 86:0.0021459227 88:0.0048283262 89:0.0026824034 90:0.0042918455 91:0.0010729614 92:0.0010729614 93:0.008583691 94:0.0010729614 95:0.0010729614 96:0.0026824034 97:0.0053648069 98:0.0021459227 99:0.0032188841 100:0.0064377682 101:0.0048283262 102:0.010729614 103:0.0053648069 104:0.00053648069 105:0.0010729614 106:0.0048283262 107:0.011266094 108:0.0042918455 109:0.008583691 110:0.0016094421 111:0.008583691 112:0.0037553648 113:0.0069742489 114:0.0037553648 116:0.00053648069 117:0.0069742489 118:0.00053648069 119:0.0042918455 120:0.0037553648 122:0.0048283262 123:0.010193133 124:0.0021459227 125:0.0021459227 126:0.0021459227 127:0.0016094421 128:0.0053648069 129:0.0016094421 130:0.00053648069 131:0.0042918455 132:0.011802575 133:0.0021459227 134:0.0048283262 135:0.0032188841 136:0.0064377682 137:0.00053648069 138:0.00053648069 139:0.0021459227 140:0.0042918455 141:0.0037553648 142:0.0048283262 143:0.00053648069 144:0.0016094421 145:0.0016094421 146:0.0026824034 147:0.010193133 148:0.0010729614 151:0.0026824034 152:0.0010729614 153:0.0048283262 154:0.0048283262 155:0.00053648069 156:0.0091201717 157:0.0026824034 158:0.0042918455 159:0.0026824034 160:0.0059012876 161:0.0010729614 162:0.0069742489 163:0.0075107296 164:0.0016094421 165:0.0080472103 166:0.00053648069 167:0.0021459227 168:0.0048283262 169:0.010729614 170:0.0053648069 171:0.0053648069 172:0.00053648069 173:0.0021459227 174:0.0048283262 175:0.00053648069 176:0.0042918455 177:0.0016094421 178:0.00053648069 179:0.0059012876 180:0.0096566524 182:0.0010729614 184:0.0075107296 185:0.00053648069 186:0.0016094421 187:0.0053648069 188:0.0016094421 189:0.0032188841 190:0.0075107296 191:0.0075107296 192:0.0042918455 193:0.0026824034 194:0.0042918455 195:0.010193133 196:0.0037553648 197:0.0059012876 198:0.02306867 199:0.0037553648 200:0.0032188841 202:0.0080472103 203:0.0064377682 204:0.00053648069 205:0.0016094421 207:0.00053648069 208:0.0091201717 209:0.0037553648 210:0.0016094421 211:0.0064377682 212:0.0096566524 213:0.010729614 214:0.010729614 215:0.0037553648 216:0.0010729614 217:0.0026824034 218:0.016630901 219:0.0048283262 221:0.00053648069 223:0.027896996 224:0.0091201717 225:0.0048283262 226:0.0069742489 227:0.0016094421 229:0.0059012876 231:0.0016094421 232:0.0010729614 233:0.0037553648 234:0.00053648069 235:0.0016094421 236:0.0042918455 237:0.0016094421 238:0.010729614 239:0.0016094421 240:0.0059012876 241:0.00053648069 242:0.00053648069 243:0.0021459227 244:0.0059012876 245:0.0021459227 246:0.0037553648 252:0.00053648069 253:0.0042918455 254:0.00053648069 255:0.0016094421 256:0.00053648069 
5.485711283699807 1:0.01365894 3:0.0041390728 4:0.0041390728 5:0.0041390728 6:0.0045529801 7:0.0091059603 8:0.0012417219 9:0.0033112583 10:0.0066225166 11:0.0045529801 12:0.0049668874 13:0.0053807947 14:0.0045529801 15:0.0062086093 16:0.00041390728 17:0.0020695364 18:0.00082781457 19:0.0074503311 20:0.0041390728 21:0.0016556291 22:0.00041390728 23:0.0020695364 24:0.005794702 25:0.0020695364 26:0.00082781457 28:0.0037251656 29:0.0016556291 30:0.0070364238 31:0.0078642384 32:0.0033112583 33:0.00082781457 34:0.0037251656 35:0.0024834437 36:0.0053807947 37:0.0070364238 38:0.002897351 39:0.0016556291 40:0.00082781457 41:0.0041390728 42:0.0037251656 43:0.0045529801 44:0.005794702 45:0.0053807947 46:0.0049668874 47:0.010347682 48:0.00041390728 49:0.008692053 50:0.0062086093 51:0.0020695364 52:0.0053807947 53:0.0024834437 54:0.0049668874 55:0.0041390728 56:0.00082781457 57:0.0020695364 58:0.00082781457 59:0.0012417219 60:0.0024834437 61:0.0066225166 62:0.0033112583 63:0.0020695364 64:0.0062086093 65:0.0049668874 66:0.00082781457 67:0.0024834437 68:0.0066225166 69:0.0012417219 70:0.0012417219 71:0.0049668874 72:0.0053807947 73:0.0045529801 74:0.0078642384 75:0.0045529801 76:0.016142384 77:0.005794702 78:0.0099337748 79:0.00041390728 80:0.0037251656 81:0.0037251656 82:0.0041390728 83:0.0012417219 84:0.002897351 85:0.0095198675 86:0.0045529801 87:0.002897351 88:0.002897351 89:0.0016556291 90:0.00082781457 91:0.005794702 92:0.0024834437 93:0.0037251656 94:0.0074503311 95:0.0020695364 96:0.0049668874 97:0.0024834437 98:0.0049668874 99:0.005794702 100:0.005794702 101:0.0070364238 102:0.0024834437 103:0.0062086093 104:0.0012417219 105:0.0020695364 106:0.0037251656 107:0.0074503311 108:0.0053807947 109:0.0024834437 110:0.0037251656 111:0.0033112583 112:0.0070364238 113:0.0091059603 114:0.0099337748 115:0.0037251656 116:0.0012417219 117:0.0012417219 118:0.0024834437 119:0.0045529801 120:0.0012417219 121:0.00041390728 122:0.0053807947 123:0.0053807947 124:0.0024834437 125:0.008692053 126:0.0066225166 127:0.002897351 128:0.0012417219 129:0.002897351 130:0.00082781457 131:0.0024834437 132:0.0053807947 133:0.014072848 134:0.0070364238 135:0.0012417219 136:0.0041390728 137:0.0041390728 138:0.0012417219 139:0.0066225166 140:0.0024834437 141:0.012003311 142:0.002897351 143:0.0016556291 144:0.0045529801 145:0.0070364238 146:0.002897351 147:0.0041390728 148:0.002897351 149:0.0033112583 150:0.0016556291 151:0.0033112583 152:0.0062086093 153:0.0045529801 154:0.0016556291 155:0.0012417219 156:0.0066225166 157:0.00041390728 158:0.0020695364 159:0.0041390728 160:0.0049668874 161:0.00041390728 162:0.011175497 163:0.0024834437 164:0.0037251656 165:0.0078642384 166:0.00082781457 167:0.0012417219 168:0.00041390728 169:0.0049668874 170:0.0024834437 171:0.0070364238 172:0.00041390728 173:0.0024834437 174:0.0037251656 175:0.0033112583 176:0.011589404 177:0.010761589 178:0.002897351 179:0.0049668874 180:0.0037251656 181:0.00041390728 182:0.00082781457 183:0.0024834437 184:0.0037251656 185:0.0033112583 186:0.0041390728 187:0.0041390728 188:0.0041390728 189:0.0033112583 190:0.0033112583 191:0.0041390728 192:0.0024834437 193:0.0037251656 194:0.0078642384 195:0.0070364238 196:0.002897351 197:0.0033112583 198:0.0033112583 199:0.0062086093 200:0.0045529801 202:0.005794702 203:0.005794702 204:0.0024834437 205:0.0016556291 206:0.00041390728 207:0.0016556291 208:0.0045529801 209:0.0074503311 210:0.0024834437 211:0.0082781457 212:0.005794702 213:0.002897351 214:0.0045529801 215:0.0062086093 216:0.00041390728 217:0.00082781457 218:0.005794702 219:0.0049668874 220:0.0020695364 221:0.002897351 222:0.00082781457 223:0.002897351 224:0.0091059603 225:0.0062086093 226:0.005794702 227:0.0045529801 229:0.002897351 231:0.00082781457 232:0.0020695364 233:0.0033112583 234:0.00082781457 235:0.0016556291 236:0.0041390728 237:0.005794702 238:0.002897351 240:0.00082781457 241:0.0016556291 242:0.0012417219 243:0.0012417219 244:0.0016556291 245:0.0020695364 246:0.0041390728 247:0.0012417219 248:0.0012417219 249:0.00082781457 251:0.0033112583 252:0.0037251656 253:0.0020695364 254:0.0033112583 255:0.012003311 256:0.0049668874 
5.54660506928655 1:0.0048715678 2:0.002214349 3:0.0026572188 4:0.00088573959 5:0.002214349 6:0.017271922 7:0.002214349 8:0.0017714792 9:0.0017714792 10:0.0079716563 11:0.0026572188 12:0.014171833 13:0.0026572188 14:0.0066430469 15:0.0026572188 16:0.0013286094 17:0.0062001771 18:0.0035429584 19:0.0004428698 20:0.0031000886 21:0.002214349 22:0.0066430469 23:0.0035429584 24:0.0026572188 25:0.00088573959 26:0.0017714792 27:0.0031000886 28:0.0035429584 29:0.0004428698 30:0.0079716563 31:0.0048715678 32:0.010628875 33:0.00088573959 34:0.0039858282 35:0.0084145261 36:0.0017714792 37:0.0053144376 38:0.0062001771 39:0.0084145261 40:0.002214349 41:0.0013286094 42:0.0026572188 43:0.002214349 44:0.0031000886 45:0.0048715678 46:0.00088573959 47:0.00088573959 48:0.0026572188 49:0.002214349 50:0.0026572188 51:0.0048715678 52:0.0031000886 53:0.00088573959 54:0.0062001771 55:0.0093002657 56:0.0031000886 57:0.0026572188 58:0.002214349 59:0.0084145261 60:0.004428698 61:0.010186005 62:0.002214349 63:0.0013286094 64:0.0057573074 65:0.00088573959 66:0.002214349 67:0.0013286094 68:0.002214349 69:0.0004428698 70:0.0031000886 71:0.00088573959 72:0.0017714792 73:0.004428698 74:0.0013286094 75:0.0062001771 76:0.0004428698 77:0.0057573074 78:0.004428698 79:0.0026572188 80:0.0039858282 81:0.0079716563 82:0.0035429584 83:0.0084145261 84:0.0031000886 85:0.0093002657 86:0.0013286094 87:0.0004428698 88:0.0062001771 89:0.0017714792 90:0.0062001771 91:0.0070859167 92:0.0004428698 93:0.0013286094 94:0.002214349 95:0.002214349 96:0.0031000886 97:0.0017714792 98:0.0035429584 99:0.0035429584 100:0.0039858282 101:0.0026572188 102:0.0048715678 103:0.0035429584 104:0.0093002657 105:0.00088573959 106:0.0062001771 107:0.0026572188 109:0.0004428698 110:0.0066430469 111:0.0017714792 112:0.0026572188 113:0.0035429584 114:0.0053144376 115:0.0031000886 116:0.0053144376 117:0.0039858282 118:0.0039858282 119:0.0048715678 120:0.0048715678 121:0.0070859167 122:0.0026572188 123:0.0026572188 124:0.00088573959 125:0.004428698 126:0.00088573959 127:0.0004428698 128:0.0048715678 129:0.00088573959 130:0.0013286094 131:0.0093002657 132:0.011514615 133:0.0039858282 134:0.004428698 135:0.0017714792 136:0.00088573959 137:0.0031000886 138:0.0039858282 139:0.0093002657 140:0.004428698 141:0.0031000886 142:0.00088573959 143:0.0057573074 144:0.0070859167 145:0.00088573959 146:0.0004428698 147:0.0031000886 148:0.0066430469 149:0.0035429584 150:0.0004428698 151:0.0013286094 152:0.0066430469 153:0.013728964 154:0.0026572188 156:0.010628875 157:0.0031000886 158:0.0017714792 159:0.002214349 160:0.0048715678 161:0.0066430469 162:0.0031000886 163:0.002214349 164:0.0004428698 165:0.0097431355 166:0.0048715678 167:0.0004428698 169:0.0053144376 170:0.0048715678 171:0.0039858282 172:0.0053144376 173:0.0013286094 174:0.0057573074 175:0.0031000886 176:0.0035429584 177:0.0039858282 178:0.013728964 179:0.0053144376 180:0.0048715678 181:0.0017714792 182:0.002214349 183:0.0035429584 184:0.002214349 185:0.0013286094 186:0.0035429584 187:0.0013286094 188:0.012400354 189:0.0004428698 190:0.0026572188 191:0.0013286094 192:0.0004428698 193:0.012400354 194:0.002214349 195:0.0057573074 196:0.0017714792 198:0.013728964 199:0.004428698 200:0.00088573959 201:0.0057573074 202:0.0088573959 203:0.0035429584 204:0.0031000886 205:0.0017714792 206:0.002214349 207:0.0048715678 208:0.0066430469 209:0.002214349 210:0.0084145261 211:0.0035429584 212:0.0075287865 213:0.0070859167 214:0.0026572188 215:0.0017714792 216:0.002214349 217:0.0035429584 218:0.0026572188 219:0.0035429584 220:0.0062001771 221:0.0035429584 222:0.0017714792 223:0.0017714792 224:0.0017714792 225:0.015500443 226:0.00088573959 227:0.0017714792 228:0.004428698 229:0.004428698 230:0.002214349 231:0.0013286094 232:0.00088573959 233:0.0013286094 234:0.0013286094 235:0.004428698 236:0.0013286094 237:0.0070859167 238:0.0053144376 239:0.011957484 240:0.0097431355 241:0.0031000886 242:0.00088573959 244:0.0017714792 245:0.0035429584 246:0.0026572188 247:0.0004428698 248:0.0031000886 249:0.0053144376 250:0.0013286094 251:0.0017714792 252:0.0035429584 253:0.0035429584 254:0.0062001771 255:0.0048715678 256:0.0093002657 
2.943995448932668 1:0.0019636721 2:0.0034364261 3:0.0039273441 4:0.00049091802 5:0.00098183603 6:0.00098183603 7:0.0049091802 8:0.0034364261 9:0.0073637703 10:0.0044182622 12:0.0034364261 13:0.0068728522 14:0.0024545901 15:0.0024545901 16:0.00098183603 17:0.0014727541 18:0.00049091802 19:0.0024545901 20:0.010800196 21:0.0024545901 22:0.0039273441 23:0.00098183603 24:0.00098183603 25:0.0019636721 26:0.0034364261 27:0.0058910162 28:0.016691213 29:0.0014727541 30:0.0029455081 31:0.0034364261 32:0.017182131 33:0.0019636721 34:0.00049091802 35:0.0014727541 36:0.0014727541 37:0.0063819342 38:0.0044182622 39:0.0024545901 40:0.0054000982 41:0.00098183603 42:0.0034364261 43:0.0088365243 44:0.00098183603 45:0.0034364261 46:0.0058910162 47:0.0058910162 48:0.0073637703 49:0.0034364261 50:0.0024545901 51:0.0024545901 52:0.0078546883 53:0.011782032 54:0.0058910162 55:0.0039273441 56:0.0044182622 57:0.0073637703 58:0.0014727541 59:0.0024545901 60:0.0039273441 61:0.018654885 62:0.0039273441 63:0.0024545901 64:0.0014727541 65:0.0019636721 66:0.0024545901 67:0.0014727541 68:0.0029455081 69:0.00098183603 70:0.0073637703 71:0.0034364261 72:0.0024545901 73:0.0014727541 74:0.0014727541 75:0.0024545901 76:0.0039273441 77:0.010800196 78:0.0034364261 79:0.0024545901 80:0.0093274423 81:0.0049091802 82:0.0054000982 83:0.0019636721 84:0.0019636721 85:0.011291114 86:0.0063819342 87:0.0083456063 88:0.0029455081 89:0.0014727541 90:0.00098183603 91:0.0054000982 92:0.0019636721 93:0.0014727541 94:0.0044182622 95:0.0029455081 96:0.0073637703 97:0.0049091802 98:0.00049091802 99:0.0034364261 100:0.0073637703 101:0.0054000982 102:0.0039273441 103:0.0054000982 104:0.0014727541 105:0.0039273441 106:0.010309278 107:0.0019636721 108:0.0019636721 109:0.0039273441 110:0.0058910162 111:0.0034364261 112:0.0034364261 113:0.0078546883 114:0.0068728522 115:0.0014727541 117:0.0029455081 118:0.0039273441 119:0.0014727541 120:0.0019636721 121:0.00049091802 122:0.0029455081 123:0.0054000982 124:0.0039273441 125:0.0078546883 126:0.00049091802 127:0.00098183603 128:0.0068728522 129:0.00098183603 130:0.00098183603 131:0.0098183603 132:0.0049091802 133:0.0044182622 134:0.0088365243 135:0.0029455081 136:0.0049091802 137:0.0039273441 138:0.0029455081 139:0.0019636721 140:0.0039273441 141:0.0029455081 142:0.0054000982 143:0.0044182622 144:0.0029455081 145:0.0019636721 146:0.0034364261 147:0.00049091802 148:0.0034364261 149:0.00098183603 150:0.0014727541 151:0.0014727541 152:0.00049091802 153:0.0078546883 154:0.0068728522 155:0.0029455081 156:0.013254786 157:0.0014727541 158:0.0039273441 159:0.00049091802 160:0.011291114 161:0.00049091802 162:0.0029455081 163:0.0044182622 164:0.0019636721 165:0.0078546883 166:0.00049091802 167:0.0019636721 168:0.0024545901 169:0.013745704 170:0.0058910162 171:0.0014727541 172:0.0019636721 173:0.0019636721 174:0.0034364261 175:0.0024545901 176:0.0014727541 177:0.00098183603 178:0.0044182622 179:0.0044182622 180:0.0083456063 181:0.0034364261 182:0.0073637703 183:0.0024545901 184:0.0014727541 185:0.0073637703 186:0.00049091802 187:0.0083456063 188:0.00049091802 189:0.0014727541 190:0.0014727541 191:0.010800196 192:0.0044182622 193:0.0034364261 194:0.00098183603 195:0.0029455081 196:0.0024545901 197:0.0068728522 198:0.019636721 199:0.016200295 200:0.0044182622 201:0.0014727541 202:0.0034364261 203:0.0039273441 204:0.0024545901 205:0.0034364261 206:0.0019636721 207:0.00098183603 208:0.0019636721 209:0.0014727541 210:0.0014727541 211:0.0093274423 212:0.0093274423 213:0.016200295 214:0.0024545901 215:0.0058910162 216:0.0019636721 218:0.0054000982 219:0.0044182622 220:0.0014727541 221:0.00049091802 222:0.0019636721 223:0.0024545901 224:0.0019636721 225:0.0034364261 226:0.0014727541 227:0.0039273441 228:0.00098183603 229:0.0024545901 230:0.0054000982 231:0.0014727541 232:0.0044182622 233:0.00098183603 234:0.00049091802 235:0.0039273441 236:0.0019636721 237:0.0049091802 238:0.0049091802 239:0.00049091802 240:0.0014727541 241:0.0039273441 242:0.0039273441 243:0.0024545901 244:0.0029455081 245:0.0014727541 246:0.0029455081 247:0.00049091802 248:0.0039273441 249:0.00049091802 250:0.0014727541 251:0.0029455081 252:0.0014727541 253:0.0039273441 254:0.0034364261 255:0.0034364261 256:0.0044182622 
6.602180570234625 1:0.0036900369 2:0.00073800738 3:0.0044280443 4:0.0066420664 5:0.0044280443 6:0.0036900369 7:0.0044280443 9:0.00073800738 10:0.0022140221 11:0.0029520295 12:0.0036900369 13:0.0088560886 14:0.0022140221 15:0.0073800738 16:0.0036900369 18:0.00073800738 19:0.011808118 21:0.0044280443 22:0.0022140221 23:0.0036900369 24:0.0022140221 25:0.0029520295 28:0.0051660517 29:0.0029520295 30:0.00073800738 31:0.017712177 32:0.00073800738 33:0.0036900369 34:0.0081180812 35:0.0029520295 36:0.0036900369 37:0.0073800738 38:0.011070111 39:0.0044280443 41:0.0051660517 42:0.0029520295 44:0.0036900369 45:0.005904059 46:0.0051660517 47:0.0036900369 48:0.0014760148 49:0.0051660517 50:0.0044280443 51:0.0051660517 52:0.005904059 53:0.005904059 54:0.0014760148 56:0.0029520295 57:0.0029520295 59:0.0029520295 60:0.0051660517 61:0.0044280443 62:0.0066420664 64:0.0073800738 65:0.0051660517 66:0.0029520295 67:0.00073800738 68:0.0036900369 69:0.0044280443 70:0.00073800738 71:0.0022140221 72:0.01402214 73:0.0029520295 74:0.0029520295 75:0.0014760148 76:0.013284133 77:0.0088560886 78:0.0044280443 80:0.0036900369 81:0.0066420664 82:0.0029520295 83:0.00073800738 84:0.0051660517 85:0.0088560886 88:0.0051660517 89:0.00073800738 91:0.0022140221 93:0.0014760148 94:0.0036900369 95:0.0066420664 96:0.0036900369 97:0.0029520295 98:0.005904059 99:0.00073800738 100:0.00073800738 101:0.0044280443 102:0.0036900369 103:0.005904059 105:0.0051660517 106:0.0014760148 107:0.0029520295 108:0.005904059 109:0.0044280443 110:0.0044280443 111:0.010332103 112:0.013284133 113:0.0022140221 114:0.0081180812 115:0.005904059 117:0.0022140221 118:0.0051660517 119:0.0044280443 120:0.0022140221 121:0.00073800738 122:0.0095940959 123:0.0022140221 124:0.0022140221 125:0.0036900369 126:0.0022140221 127:0.0014760148 128:0.0044280443 129:0.0036900369 130:0.00073800738 131:0.00073800738 132:0.0044280443 133:0.0073800738 134:0.0029520295 135:0.0029520295 136:0.0014760148 137:0.0022140221 138:0.0073800738 139:0.0051660517 140:0.0088560886 141:0.011070111 142:0.005904059 143:0.0022140221 145:0.0029520295 146:0.0029520295 147:0.0022140221 148:0.0022140221 149:0.00073800738 151:0.0044280443 152:0.0036900369 153:0.005904059 154:0.0073800738 156:0.012546125 157:0.0014760148 158:0.0022140221 159:0.0095940959 160:0.0066420664 161:0.0022140221 162:0.005904059 163:0.0095940959 164:0.0051660517 165:0.005904059 166:0.00073800738 167:0.0022140221 168:0.0036900369 169:0.0095940959 170:0.012546125 171:0.0044280443 172:0.0022140221 173:0.0051660517 174:0.0029520295 175:0.0022140221 176:0.01402214 177:0.0051660517 178:0.00073800738 180:0.0066420664 182:0.0044280443 183:0.00073800738 184:0.0014760148 185:0.00073800738 186:0.0036900369 187:0.0051660517 188:0.0014760148 189:0.0022140221 191:0.0066420664 192:0.0014760148 193:0.005904059 194:0.0088560886 195:0.0081180812 196:0.0044280443 197:0.0036900369 198:0.005904059 199:0.0051660517 200:0.00073800738 202:0.005904059 203:0.0081180812 204:0.0014760148 207:0.0036900369 208:0.005904059 209:0.0044280443 210:0.0022140221 211:0.0029520295 212:0.011070111 213:0.0022140221 214:0.0051660517 215:0.0036900369 216:0.00073800738 217:0.0051660517 218:0.0051660517 219:0.0014760148 220:0.00073800738 221:0.0051660517 222:0.0014760148 223:0.0051660517 224:0.0051660517 225:0.0073800738 226:0.011808118 227:0.0014760148 229:0.00073800738 231:0.0044280443 232:0.0073800738 233:0.0051660517 234:0.0029520295 236:0.00073800738 237:0.01402214 238:0.0036900369 239:0.0022140221 240:0.0022140221 241:0.0036900369 243:0.0022140221 244:0.0066420664 245:0.0029520295 246:0.0073800738 247:0.00073800738 248:0.00073800738 249:0.00073800738 251:0.0022140221 252:0.0022140221 253:0.0036900369 254:0.0029520295 255:0.011070111 256:0.0036900369 
5.824204161518639 1:0.0030796304 2:0.00087989441 3:0.0026396832 4:0.0035195777 5:0.0043994721 6:0.0017597888 7:0.0017597888 8:0.002199736 9:0.0030796304 10:0.0052793665 12:0.00043994721 13:0.012318522 14:0.0065992081 15:0.00087989441 16:0.0017597888 17:0.0030796304 18:0.00087989441 19:0.0057193137 20:0.00087989441 21:0.0048394193 22:0.002199736 23:0.0061592609 24:0.0030796304 25:0.0026396832 26:0.00087989441 27:0.0030796304 28:0.0043994721 29:0.0061592609 30:0.0043994721 31:0.0013198416 32:0.010118786 33:0.0057193137 34:0.002199736 35:0.0030796304 36:0.0061592609 37:0.0048394193 38:0.0030796304 39:0.0035195777 40:0.0035195777 41:0.0026396832 42:0.00043994721 43:0.0043994721 44:0.0013198416 45:0.0039595249 46:0.00043994721 47:0.0043994721 48:0.0017597888 49:0.0043994721 50:0.0030796304 51:0.0043994721 52:0.0030796304 53:0.0087989441 54:0.0017597888 55:0.00087989441 56:0.0030796304 57:0.0026396832 58:0.0013198416 59:0.002199736 60:0.0048394193 61:0.0079190497 62:0.0070391553 63:0.002199736 64:0.0013198416 65:0.0061592609 66:0.010558733 67:0.002199736 68:0.0035195777 69:0.0017597888 70:0.0013198416 71:0.00087989441 72:0.0092388913 73:0.0057193137 74:0.0043994721 75:0.002199736 76:0.0030796304 77:0.0039595249 78:0.0030796304 79:0.00043994721 80:0.0043994721 81:0.0070391553 82:0.0061592609 83:0.0026396832 84:0.0057193137 85:0.0039595249 86:0.0035195777 87:0.0048394193 88:0.0026396832 89:0.0030796304 90:0.0039595249 91:0.0057193137 92:0.0039595249 93:0.0039595249 94:0.00087989441 95:0.0026396832 96:0.0026396832 97:0.0057193137 98:0.0035195777 99:0.0048394193 100:0.0065992081 101:0.0017597888 102:0.0039595249 103:0.0087989441 104:0.00087989441 105:0.0048394193 106:0.0070391553 107:0.017157941 108:0.0048394193 109:0.0035195777 110:0.002199736 111:0.0052793665 112:0.0074791025 113:0.0030796304 114:0.00087989441 115:0.002199736 116:0.00087989441 117:0.0074791025 118:0.0013198416 119:0.0013198416 120:0.002199736 122:0.0017597888 123:0.0017597888 124:0.0048394193 125:0.0026396832 126:0.0057193137 127:0.0039595249 128:0.0013198416 129:0.0048394193 131:0.0052793665 132:0.0048394193 133:0.00087989441 134:0.0039595249 135:0.0030796304 136:0.0057193137 137:0.0048394193 138:0.0035195777 139:0.0035195777 140:0.0052793665 141:0.01099868 142:0.0083589969 143:0.0017597888 144:0.0017597888 145:0.00043994721 146:0.0039595249 147:0.0026396832 148:0.0026396832 149:0.0017597888 150:0.0030796304 151:0.0039595249 152:0.0017597888 153:0.0074791025 154:0.014078311 155:0.0026396832 156:0.01099868 157:0.0043994721 158:0.010118786 159:0.0013198416 160:0.0074791025 161:0.00043994721 162:0.0030796304 163:0.0083589969 164:0.0065992081 165:0.0070391553 166:0.00043994721 167:0.015838099 168:0.0039595249 169:0.0057193137 170:0.0039595249 171:0.002199736 173:0.002199736 174:0.0043994721 175:0.00043994721 176:0.002199736 177:0.0017597888 178:0.0035195777 179:0.00087989441 180:0.0026396832 181:0.014958205 183:0.0030796304 184:0.0092388913 185:0.00043994721 186:0.0017597888 187:0.0030796304 188:0.0026396832 189:0.0065992081 190:0.0039595249 191:0.0092388913 192:0.011878575 193:0.0074791025 194:0.0035195777 195:0.011438627 196:0.0026396832 197:0.0039595249 198:0.0048394193 199:0.0030796304 200:0.002199736 201:0.002199736 202:0.002199736 203:0.0030796304 204:0.0052793665 205:0.00087989441 206:0.00087989441 207:0.00087989441 208:0.0026396832 209:0.0035195777 210:0.0030796304 211:0.0074791025 212:0.011438627 213:0.0048394193 214:0.0061592609 215:0.0079190497 216:0.0017597888 217:0.0017597888 218:0.002199736 219:0.0035195777 220:0.0030796304 221:0.00043994721 223:0.0052793665 224:0.0030796304 225:0.0017597888 226:0.0026396832 227:0.0030796304 228:0.002199736 229:0.0035195777 230:0.0017597888 231:0.0013198416 232:0.0061592609 233:0.0026396832 235:0.00087989441 236:0.002199736 237:0.0026396832 238:0.0061592609 239:0.0030796304 240:0.0048394193 241:0.0026396832 242:0.0039595249 243:0.0087989441 244:0.0039595249 245:0.0017597888 246:0.0043994721 247:0.010118786 248:0.0017597888 249:0.0017597888 250:0.00087989441 251:0.0013198416 252:0.00087989441 253:0.012318522 254:0.00087989441 255:0.0065992081 256:0.0035195777 
4.862408666462498 1:0.0078196872 2:0.0013799448 3:0.006899724 4:0.0032198712 5:0.0004599816 6:0.0064397424 7:0.0036798528 8:0.004599816 9:0.0027598896 10:0.004599816 11:0.0027598896 12:0.0059797608 13:0.0004599816 15:0.0004599816 17:0.006899724 18:0.0018399264 19:0.0018399264 20:0.0032198712 21:0.0050597976 22:0.0018399264 23:0.0041398344 24:0.0050597976 25:0.0009199632 27:0.0027598896 28:0.010119595 29:0.0027598896 30:0.0027598896 31:0.0027598896 32:0.012419503 33:0.0009199632 34:0.002299908 35:0.0027598896 36:0.0032198712 37:0.0004599816 38:0.0036798528 39:0.002299908 40:0.0082796688 41:0.0009199632 42:0.0036798528 43:0.0041398344 44:0.0004599816 45:0.0013799448 46:0.0041398344 47:0.0009199632 48:0.0009199632 49:0.0004599816 50:0.0027598896 51:0.0013799448 52:0.004599816 53:0.0064397424 54:0.0050597976 55:0.0009199632 56:0.0004599816 57:0.0087396504 59:0.0009199632 60:0.004599816 61:0.009199632 62:0.0041398344 63:0.0050597976 64:0.0055197792 65:0.004599816 66:0.004599816 67:0.0018399264 68:0.0027598896 69:0.0018399264 70:0.0041398344 71:0.0050597976 72:0.0041398344 73:0.0018399264 74:0.0055197792 75:0.0036798528 76:0.0050597976 77:0.006899724 78:0.004599816 79:0.0018399264 80:0.002299908 81:0.0041398344 82:0.0082796688 84:0.002299908 85:0.010579577 86:0.002299908 87:0.0004599816 88:0.0064397424 89:0.0032198712 91:0.009199632 92:0.0036798528 93:0.004599816 94:0.002299908 95:0.004599816 96:0.0050597976 97:0.0059797608 98:0.0059797608 99:0.0059797608 100:0.0055197792 101:0.002299908 102:0.0041398344 103:0.0082796688 104:0.0013799448 105:0.0009199632 106:0.012879485 107:0.0013799448 108:0.002299908 109:0.0073597056 110:0.0041398344 111:0.0064397424 112:0.004599816 113:0.0041398344 114:0.006899724 115:0.0013799448 116:0.0009199632 117:0.0041398344 118:0.0004599816 119:0.0013799448 121:0.0013799448 122:0.002299908 123:0.0041398344 124:0.0059797608 125:0.010579577 126:0.0050597976 127:0.0018399264 128:0.0050597976 129:0.0041398344 130:0.0004599816 131:0.0032198712 132:0.0050597976 133:0.0027598896 134:0.006899724 135:0.0018399264 136:0.0055197792 137:0.002299908 138:0.0004599816 139:0.0018399264 140:0.002299908 141:0.013339466 142:0.002299908 143:0.0073597056 144:0.0013799448 145:0.0064397424 146:0.0013799448 147:0.0064397424 148:0.0009199632 150:0.0009199632 151:0.0050597976 152:0.0027598896 153:0.01425943 154:0.0055197792 155:0.002299908 156:0.0027598896 157:0.0041398344 158:0.0064397424 159:0.0027598896 160:0.024839006 161:0.0004599816 162:0.0036798528 163:0.0018399264 164:0.0013799448 165:0.011039558 166:0.0013799448 167:0.0078196872 168:0.0013799448 169:0.0073597056 170:0.0036798528 171:0.0027598896 173:0.0041398344 174:0.0032198712 175:0.0004599816 176:0.0018399264 177:0.0032198712 178:0.0059797608 179:0.0018399264 180:0.0041398344 181:0.0073597056 182:0.0004599816 183:0.0013799448 184:0.004599816 185:0.0004599816 186:0.0004599816 187:0.0041398344 188:0.0027598896 189:0.0018399264 190:0.004599816 191:0.010119595 192:0.0004599816 193:0.0078196872 194:0.0096596136 195:0.0087396504 196:0.0032198712 197:0.0050597976 198:0.0055197792 199:0.0087396504 200:0.0078196872 201:0.0004599816 202:0.004599816 203:0.004599816 204:0.0004599816 205:0.0027598896 207:0.0013799448 209:0.0032198712 210:0.0078196872 211:0.0064397424 212:0.0064397424 213:0.0073597056 214:0.015639374 215:0.004599816 216:0.002299908 217:0.009199632 218:0.0013799448 219:0.004599816 220:0.0036798528 221:0.0004599816 222:0.0018399264 223:0.0050597976 224:0.0055197792 225:0.0013799448 226:0.0013799448 227:0.0036798528 228:0.002299908 229:0.0032198712 231:0.0004599816 232:0.0027598896 233:0.002299908 234:0.0004599816 235:0.0041398344 236:0.0041398344 237:0.0082796688 238:0.0082796688 240:0.0013799448 242:0.0013799448 243:0.006899724 244:0.0032198712 245:0.0059797608 246:0.0041398344 247:0.0050597976 248:0.0055197792 249:0.0004599816 251:0.0032198712 252:0.0027598896 253:0.0096596136 254:0.0018399264 255:0.012879485 256:0.002299908 
