svm_type c_svc
kernel_type rbf
gamma 4
nr_class 2
total_sv 1930
rho 1.249
label 1 -1
probA -3.17995
probB -0.150027
nr_sv 225 1705
SV
7 1:0.235067 2:0.008677 3:0.000944 5:0.005685 6:0.032299 7:0.001173 8:3.2e-05 10:0.02016 11:0.000555 12:1.1e-05 17:0.063984 18:0.004955 19:9.6e-05 21:0.038283 22:0.151429 23:0.01624 24:1.1e-05 26:0.014752 27:0.011605 28:2.7e-05 31:0.000101 33:5e-06 35:5e-06 37:0.000699 38:0.060496 39:0.003845 40:5e-06 41:1.6e-05 42:0.05728 43:0.146944 44:0.001541 47:0.00088 48:0.001413 57:5e-06 58:0.000389 59:0.037755 60:0.001685 62:1.6e-05 63:0.019867 64:0.061067 
7 1:0.143608 2:0.003361 3:6e-06 5:0.001506 6:0.009554 7:0.000199 11:8.4e-05 17:0.056777 18:0.002229 19:2.4e-05 21:0.012048 22:0.080295 23:0.017572 24:6e-06 26:0.002819 27:0.021169 28:0.000331 32:0.000163 33:2.4e-05 37:0.002337 38:0.036729 39:0.000572 40:6e-06 42:0.05394 43:0.288723 44:0.006024 47:0.001566 48:0.009048 58:0.000904 59:0.033958 60:9.6e-05 63:0.008229 64:0.20609 
7 1:0.319367 2:0.03862 3:0.000301 6:0.015139 7:0.060416 8:6e-06 11:0.004193 12:0.000584 17:0.039307 18:0.016386 19:6e-05 21:0.001337 22:0.036108 23:0.090518 24:0.000145 26:1.2e-05 27:0.057386 28:0.035928 32:6e-06 37:0.000139 38:0.049265 39:0.005416 40:3.6e-05 42:0.006958 43:0.067175 44:0.057434 47:5.4e-05 48:0.017133 59:0.000952 60:0.00094 63:0.000572 64:0.078108 
7 1:0.235749 2:0.028571 3:0.004725 4:0.000117 5:0.000677 6:0.010592 7:0.001387 17:0.029541 18:0.010251 19:0.002827 20:0.009312 21:0.008325 22:0.322507 23:0.056347 24:0.002176 25:0.000224 26:0.000624 27:0.025904 28:0.013653 37:2.1e-05 38:0.011333 39:0.001456 40:0.000459 42:0.007013 43:0.185232 44:0.012267 47:0.000171 48:0.004352 59:0.00288 60:0.000597 63:0.001275 64:0.009435 
7 1:0.259417 2:0.085562 3:0.00788 4:0.000541 5:0.003489 6:0.058396 7:0.003081 8:0.00179 10:0.000456 11:0.000114 12:0.001261 16:0.000444 17:0.016156 18:0.00752 19:0.007736 20:0.001327 21:0.003916 22:0.172384 23:0.081381 24:0.010997 26:0.002486 27:0.052468 28:0.002619 31:0.000126 32:0.000234 33:0.001045 35:6e-06 37:0.001369 38:0.004186 39:0.002559 40:0.003075 42:0.000931 43:0.091838 44:0.03233 47:0.000282 48:0.036721 53:1.2e-05 54:3.6e-05 58:3.6e-05 59:0.001081 60:0.002661 63:0.000378 64:0.03967 
7 1:0.314816 2:0.002325 3:0.000117 5:0.053099 6:0.067472 10:0.000352 11:2.1e-05 17:0.002059 18:0.000363 19:2.7e-05 21:0.002677 22:0.087264 23:0.000245 26:0.003141 27:0.002203 31:5e-06 38:0.000576 39:6.4e-05 42:0.000427 43:0.019621 44:0.000149 47:0.000496 48:0.000784 59:6.9e-05 60:2.1e-05 63:0.000837 64:0.440768 
7 1:0.075409 2:0.017579 3:0.001744 5:2.4e-05 6:0.000896 7:0.000122 8:6e-06 17:0.191043 18:0.067902 19:0.034866 21:0.001762 22:0.07575 23:0.075854 24:0.003884 27:0.006079 28:0.000988 38:0.004311 39:0.039854 40:0.000799 42:0.000256 43:0.195329 44:0.060573 47:3e-05 48:0.008585 58:6e-06 59:0.000726 60:0.00236 63:0.000774 64:0.132488 
7 1:0.208438 2:0.020084 3:0.012132 4:0.004132 5:0.013898 6:0.066841 7:0.00839 8:0.000414 9:0.003393 10:0.000492 11:0.002733 12:0.008643 16:0.001772 17:0.011856 18:0.000559 19:0.001153 20:0.004955 21:0.006444 22:0.195405 23:0.036655 24:0.01767 25:0.000937 26:0.011069 27:0.034366 28:0.008823 30:0.00612 31:6.6e-05 32:0.005423 37:8.4e-05 38:0.007976 39:0.000973 40:0.001982 42:0.008324 43:0.100841 44:0.012114 46:0.001033 47:0.004102 48:0.003904 55:6e-06 56:1.2e-05 57:5.4e-05 58:0.001237 59:0.004955 60:0.001063 62:2.4e-05 63:0.00976 64:0.148691 
7 1:0.033042 2:0.003213 3:7.6e-05 5:0.0002 6:0.002671 7:0.000333 17:0.002947 18:0.00057 19:3.8e-05 21:0.0025 22:0.023327 23:0.005694 24:1e-05 26:0.000247 27:0.033413 28:1e-05 33:0.000371 37:0.00385 38:0.001644 39:0.000114 41:0.007177 42:0.072852 43:0.655371 44:0.036112 47:0.003127 48:0.014553 54:1.9e-05 57:0.000209 58:0.01673 59:0.052994 60:0.000114 63:0.005257 64:0.021217 
7 1:0.152448 2:0.140779 3:0.134811 4:0.148885 5:0.000619 6:0.054944 7:0.013093 8:0.003051 11:2.1e-05 17:0.000245 18:0.001424 19:0.002629 20:0.003125 21:0.000624 22:0.086763 23:0.053408 24:0.00952 26:0.000592 27:0.049515 28:0.003552 32:2.1e-05 38:6.4e-05 39:0.00104 40:0.000907 42:0.000341 43:0.068896 44:0.017979 47:0.000811 48:0.004528 59:0.000155 60:0.001099 63:0.000395 64:0.043717 
7 1:0.190533 2:0.012368 3:0.004272 4:0.002453 5:0.012075 6:0.044507 7:0.001051 8:0.000325 10:0.002011 11:0.001595 12:0.000171 16:0.0004 17:0.037211 18:0.002571 19:0.000757 20:0.001605 21:0.056144 22:0.181461 23:0.014789 24:0.004448 26:0.01144 27:0.042112 28:0.001344 30:5e-06 31:0.000368 32:0.002101 37:5.9e-05 38:0.022667 39:0.001712 40:0.0008 42:0.022816 43:0.212192 44:0.025947 47:0.000661 48:0.012112 55:5e-06 59:0.006843 60:0.001397 63:0.002693 64:0.061979 
7 1:0.067803 2:0.001616 5:0.001648 6:0.007109 7:1.6e-05 10:1.1e-05 11:5e-06 17:0.027397 18:0.002021 21:0.017029 22:0.190176 23:0.000453 24:2.7e-05 26:0.001099 27:0.006688 28:3.2e-05 34:5e-06 37:2.1e-05 38:0.024363 39:0.000149 40:5e-06 42:0.011936 43:0.189963 44:0.001136 47:0.017285 48:0.073525 54:1.1e-05 58:0.000123 59:0.002517 60:2.1e-05 62:1.1e-05 63:0.006848 64:0.348949 
7 1:0.186997 2:0.014306 3:6e-06 5:0.002709 6:0.109279 7:0.003586 10:0.003003 11:0.026835 12:0.00015 15:0.000402 16:0.000871 17:0.055219 18:0.019387 19:1.8e-05 21:0.001135 22:0.140264 23:0.011556 24:1.8e-05 26:0.024084 27:0.251333 28:0.000739 31:0.000607 32:0.00239 33:0.008306 34:0.006072 35:6.6e-05 37:0.000204 38:0.022114 39:0.009658 40:5.4e-05 42:0.000354 43:0.066673 44:0.002595 47:0.001003 48:0.007664 49:0.000841 50:0.000781 51:4.8e-05 53:4.8e-05 54:0.001381 55:0.001556 56:0.001159 58:4.2e-05 59:0.002577 60:0.00576 63:0.00015 64:0.006 
7 1:0.12848 2:0.012133 3:0.000155 5:0.041467 6:0.088501 7:0.00096 8:6.9e-05 10:0.007568 11:0.000464 12:3.7e-05 15:2.1e-05 17:0.003979 18:0.001776 19:8.5e-05 20:1.1e-05 21:0.007163 22:0.20272 23:0.028181 24:0.000149 26:0.065888 27:0.13696 28:0.001707 31:0.008635 32:0.000576 33:6.4e-05 34:3.2e-05 37:0.000549 38:0.005701 39:0.001664 40:0.000128 42:0.002187 43:0.086939 44:0.023941 47:0.010128 48:0.021787 49:5e-06 54:0.000165 55:2.7e-05 58:0.000149 59:0.008139 60:0.002272 63:0.001291 64:0.097147 
7 1:0.204256 2:0.02632 3:0.00056 4:5.3e-05 5:0.00328 6:0.009328 7:0.006475 8:8.5e-05 9:5e-06 10:5e-06 11:0.000187 12:0.000224 17:0.031195 18:0.006517 19:0.001824 20:8.5e-05 21:0.031227 22:0.200144 23:0.026597 24:0.002405 25:0.000176 26:0.020192 27:0.017835 28:0.004133 30:0.005749 31:4.3e-05 32:0.000123 33:9.1e-05 35:1.1e-05 36:1.1e-05 37:0.002832 38:0.055707 39:0.004235 40:0.000336 41:0.000245 42:0.021877 43:0.112453 44:0.031147 46:0.000128 47:0.001664 48:0.024592 54:2.1e-05 56:1.1e-05 58:0.00088 59:0.011424 60:0.001995 62:0.000501 63:0.008965 64:0.121851 
7 1:0.291243 2:0.016474 5:0.005441 6:0.009958 7:5.4e-05 8:6e-06 17:0.003688 18:3.6e-05 21:0.007916 22:0.093129 23:0.002871 24:1.8e-05 26:0.008775 27:0.012438 28:3e-05 38:0.002294 39:1.8e-05 42:0.02361 43:0.295243 44:0.003183 47:0.003021 48:0.005508 58:4.2e-05 59:0.084859 60:3e-05 63:0.067826 64:0.062288 
7 1:0.192048 2:0.001712 5:0.013781 6:0.013472 7:0.000101 9:5e-06 10:0.000475 11:0.001675 12:0.000149 15:6.4e-05 16:0.000336 17:0.017952 18:0.001957 21:0.017632 22:0.301979 23:0.002411 26:0.004709 27:0.012336 28:0.000683 31:0.000155 32:0.000981 33:0.024581 34:0.001563 37:0.006688 38:0.025957 39:0.012181 42:0.003829 43:0.145979 44:0.001968 47:0.001664 48:0.00768 49:0.001083 50:0.000901 53:9.1e-05 54:0.005611 55:0.00248 58:0.000181 59:0.008155 60:0.01528 63:0.000512 64:0.149003 
7 1:0.166997 2:0.003707 3:0.001845 4:0.000133 5:6.4e-05 6:0.009451 7:0.018683 8:0.001547 11:0.003861 12:0.007035 15:5e-06 16:0.029179 17:0.032624 18:0.003712 19:4.8e-05 20:5e-06 21:0.004672 22:0.044256 23:0.001877 24:0.000101 26:6.4e-05 27:0.001029 28:0.000736 32:0.005872 34:5e-06 37:0.000133 38:0.021952 39:0.015579 40:5e-06 42:0.002544 43:0.59744 44:0.000715 47:9.1e-05 48:0.001451 54:5e-06 55:5e-06 58:0.000107 59:0.010651 60:0.001093 63:0.000432 64:0.010288 
7 1:0.486469 2:0.018661 5:0.039515 6:0.027467 7:9.1e-05 9:0.003275 10:0.001136 11:0.00072 12:1.1e-05 14:0.000288 15:0.000123 16:0.000197 17:0.096016 18:0.055824 21:0.001099 22:0.068101 23:0.002 25:3.2e-05 26:0.000912 27:0.003227 28:3.7e-05 30:0.000107 31:0.000203 32:0.000304 33:0.015429 34:0.005232 37:0.000133 38:0.057856 39:0.034555 41:5e-06 42:0.000325 43:0.023019 44:0.000197 47:0.003744 48:0.001275 49:0.046032 50:3.2e-05 53:3.2e-05 54:0.002389 55:0.002112 58:2.7e-05 59:0.001035 60:0.000107 63:5.9e-05 64:0.000592 
7 1:0.230027 2:0.004208 3:0.001152 4:0.000107 5:0.027243 6:0.065264 7:0.000203 8:1.1e-05 9:4.3e-05 10:0.023504 11:0.009547 14:2.1e-05 15:0.000347 17:0.044736 18:0.000805 19:0.000683 20:0.000203 21:0.024165 22:0.114432 23:0.00248 24:0.000416 25:2.7e-05 26:0.020411 27:0.083131 28:0.000213 29:1.1e-05 30:0.000341 31:0.02504 32:0.008571 33:0.000635 34:7.5e-05 35:1.1e-05 37:0.00216 38:0.021019 39:0.000277 40:0.000485 41:5e-06 42:0.032523 43:0.055931 44:0.002155 45:5e-06 46:4.3e-05 47:0.008672 48:0.027605 50:5e-06 53:0.000331 54:0.000192 55:5.3e-05 56:5e-06 57:0.000101 58:0.002261 59:0.006213 60:0.000373 62:6.4e-05 63:0.007515 64:0.143947 
7 1:0.309232 2:0.005299 3:0.001354 4:0.000579 5:0.004642 6:0.008737 7:0.002865 8:0.001836 11:1.3e-05 12:8.5e-05 17:0.00498 18:0.000508 19:2e-05 20:5.9e-05 21:0.010736 22:0.170632 23:0.012025 24:0.000775 25:1.3e-05 26:0.001283 27:0.007415 28:0.002057 37:0.000228 38:0.006302 39:0.000729 40:2e-05 41:8.5e-05 42:0.010579 43:0.103216 44:0.009134 45:2e-05 47:0.000345 48:0.007181 59:0.005638 60:0.000534 61:2e-05 62:7e-06 63:0.013079 64:0.297741 
7 1:0.657357 2:0.045794 5:0.002721 6:0.043255 7:0.004987 11:1.3e-05 17:0.002747 18:0.000104 21:0.009701 22:0.10224 23:0.025651 26:0.002461 27:0.016172 28:0.006328 32:0.000143 37:0.000104 38:0.001172 39:5.2e-05 41:3.9e-05 42:0.003203 43:0.028464 44:0.004401 47:0.002682 48:0.01056 58:0.00013 59:0.00013 62:0.000143 63:0.001289 64:0.027956 
7 1:0.198021 2:0.020203 3:0.00104 5:0.000416 6:0.010699 7:6.9e-05 17:0.005237 18:0.004715 19:0.000853 21:0.00296 22:0.310949 23:0.049253 24:0.004661 26:0.002416 27:0.014715 28:0.000133 38:0.006091 39:0.002059 40:0.001131 42:0.004155 43:0.203707 44:0.008309 47:0.000528 48:0.001248 58:4.8e-05 59:0.010144 60:0.001003 63:0.012736 64:0.122501 
7 1:0.245389 2:0.096605 3:0.000581 4:0.00018 5:0.007581 6:0.180072 7:0.026952 8:0.000725 9:0.000629 10:0.001335 11:0.026108 12:0.004659 13:1.8e-05 14:6e-06 15:0.000946 16:0.011461 17:0.001323 18:0.000281 19:4.8e-05 20:6.6e-05 21:0.000713 22:0.090766 23:0.083347 24:0.000599 25:0.000401 26:0.001335 27:0.057419 28:0.021054 29:9.6e-05 30:0.00015 31:0.000317 32:0.038491 37:0.000353 38:0.000527 39:0.000347 40:6e-06 41:3e-05 42:0.000365 43:0.017287 44:0.013228 46:0.00012 47:0.000263 48:0.040102 58:6e-05 59:0.000689 60:0.000132 63:0.000335 64:0.026503 
7 1:0.119701 2:0.002619 3:0.000267 4:0.000224 5:0.054789 6:0.128997 7:0.000459 8:8.5e-05 10:0.111312 11:0.008395 12:5.3e-05 16:2.7e-05 17:0.002437 18:0.000539 19:1.6e-05 20:8e-05 21:0.007957 22:0.075701 23:0.004715 24:0.000827 25:5e-06 26:0.077637 27:0.184667 28:0.000645 31:0.002037 32:0.000603 33:1.1e-05 35:5e-06 37:0.000448 38:0.005019 39:0.000288 40:0.000155 41:1.6e-05 42:0.008091 43:0.017307 44:0.002112 46:2.7e-05 47:0.002229 48:0.002571 54:2.7e-05 58:0.012757 59:0.008736 60:0.000165 62:0.001141 63:0.13232 64:0.021781 
7 1:0.401781 2:0.049291 3:0.000747 5:0.003552 6:0.034608 7:0.011323 17:0.001968 18:0.000496 19:0.000315 21:0.001728 22:0.170507 23:0.030731 24:0.000608 26:0.000352 27:0.0112 28:0.026123 33:1.1e-05 37:5.9e-05 38:0.001195 39:0.000384 40:5e-06 42:0.005845 43:0.113168 44:0.064256 47:0.001061 48:0.004059 58:5.3e-05 59:0.012416 60:6.4e-05 62:1.1e-05 63:0.033781 64:0.018304 
7 1:0.170282 2:0.012793 3:9e-05 5:0.002745 6:0.001604 7:0.00018 8:9.6e-05 10:4.8e-05 11:1.2e-05 15:6e-06 17:0.011111 18:0.002733 19:0.000835 21:0.018174 22:0.041664 23:0.001099 24:6e-06 26:0.006372 27:0.000613 28:1.2e-05 32:3e-05 33:0.00012 37:0.003309 38:0.023225 39:0.000721 40:3e-05 41:3e-05 42:0.058288 43:0.049105 44:8.4e-05 47:0.000901 48:0.001297 53:0.000847 54:7.2e-05 57:0.000997 58:0.002102 59:0.042907 60:9.6e-05 62:6e-05 63:0.075988 64:0.469315 
7 1:0.169557 2:0.000885 5:0.006117 6:0.033291 7:0.001061 10:0.020891 11:0.004064 12:0.004549 16:0.004635 17:0.007536 18:0.000272 21:0.007248 22:0.133253 23:0.005573 26:0.015968 27:0.021728 28:0.000357 31:5.3e-05 32:0.004155 38:0.003195 39:0.00016 42:0.003941 43:0.340507 44:0.005243 47:0.002411 48:0.013355 59:0.008448 60:0.000432 63:0.012565 64:0.168549 
7 1:0.260917 2:0.007691 3:0.000901 4:0.001696 5:0.019072 6:0.035739 7:0.005488 8:0.000117 10:0.000208 11:0.000944 12:2.1e-05 17:0.027168 18:0.000544 19:0.000155 20:7.5e-05 21:0.032283 22:0.129675 23:0.004464 24:0.000501 26:0.001632 27:0.004587 28:0.000917 31:5e-06 32:0.00064 33:0.000133 37:0.001173 38:0.011216 39:0.00024 40:2.1e-05 42:0.009003 43:0.233504 44:0.002475 47:0.000357 48:0.001323 54:4.8e-05 58:8e-05 59:0.00576 60:0.000123 63:0.015104 64:0.184 
7 1:0.232448 2:0.000925 3:0.0001 5:0.086939 6:0.061238 7:0.000861 8:8.5e-05 9:0.0001 10:0.020847 11:0.000797 12:3.6e-05 15:4.3e-05 17:0.012591 18:0.000107 20:7e-06 21:0.023993 22:0.138206 23:0.002897 24:0.000306 25:1.4e-05 26:0.054633 27:0.041032 28:0.001637 30:2.8e-05 31:0.01168 32:0.002228 33:6.4e-05 37:0.00047 38:0.016206 39:9.3e-05 42:0.019651 43:0.076342 44:0.01279 46:2.8e-05 47:0.015153 48:0.046811 49:1.4e-05 54:0.000178 55:1.4e-05 58:0.000427 59:0.017715 60:9.3e-05 63:0.009367 64:0.090804 
7 1:0.147381 2:0.025957 3:0.014763 4:0.003984 5:0.003808 6:0.020907 7:0.016171 8:0.012955 10:5e-06 11:0.002832 12:0.017493 16:3.2e-05 17:0.017109 18:0.002363 19:0.000272 20:0.000203 21:0.007147 22:0.30248 23:0.025664 24:0.000539 26:0.008901 27:0.122992 28:0.001787 32:0.000405 33:0.000597 34:0.000133 35:1.6e-05 36:5e-06 37:0.000427 38:0.018677 39:0.001744 40:0.000107 42:0.007765 43:0.122533 44:0.001376 47:0.000779 48:0.002672 49:6.9e-05 50:3.7e-05 53:1.6e-05 54:0.000539 55:5.3e-05 58:0.000955 59:0.040027 60:0.000496 63:0.013963 64:0.030864 
7 1:0.496875 2:0.013952 5:0.011584 6:0.043525 7:0.000192 11:1.6e-05 17:0.028331 18:0.002235 21:0.063285 22:0.087328 23:0.002171 25:3.7e-05 26:0.004293 27:0.007147 28:9.6e-05 32:2.1e-05 33:0.000251 34:0.000149 37:0.007749 38:0.013515 39:0.000853 41:0.004832 42:0.025163 43:0.041376 44:0.003397 46:1.1e-05 47:0.002976 48:0.020176 54:5.3e-05 55:6.9e-05 57:0.000469 58:0.005995 59:0.008181 60:0.000795 61:1.6e-05 62:0.003563 63:0.012757 64:0.086565 
7 1:0.072373 2:0.107472 3:0.014171 4:0.002101 5:0.000432 6:0.045563 7:0.074373 8:0.003499 10:0.000203 11:0.017701 12:0.001589 17:5.9e-05 18:0.004027 19:0.000256 20:6.9e-05 21:0.00016 22:0.116944 23:0.120411 24:0.013573 25:5e-06 26:0.00144 27:0.035637 28:0.127605 31:1.1e-05 32:0.004005 34:5e-06 38:0.001531 39:0.000213 40:1.1e-05 42:0.002485 43:0.021947 44:0.110608 47:9.6e-05 48:0.019355 59:1.1e-05 60:0.003173 64:0.076885 
7 1:0.192763 2:0.005195 3:0.00224 4:0.000107 5:0.005989 6:0.014261 7:0.003461 8:0.001392 9:1.1e-05 10:1.6e-05 11:0.001013 12:0.000613 16:4.3e-05 17:0.009781 18:0.004112 19:0.000571 20:2.7e-05 21:0.007291 22:0.412731 23:0.009115 24:0.000773 25:1.1e-05 26:0.009504 27:0.014485 28:0.004555 31:2.1e-05 32:0.004123 33:0.000267 34:0.001451 35:5e-06 37:0.012304 38:0.006608 39:0.002272 40:0.000101 41:0.000133 42:0.011611 43:0.066251 44:0.003883 47:0.001195 48:0.010032 50:3.2e-05 51:8e-05 53:0.003573 54:0.000176 55:0.000416 56:5e-06 57:0.004667 58:0.004512 59:0.003877 60:0.000805 62:0.000272 63:0.004267 64:0.157003 
7 1:0.369605 2:0.013904 3:0.00176 4:0.003483 5:0.011024 6:0.032501 7:0.00176 8:6.9e-05 9:2.1e-05 10:0.005541 11:0.002267 12:4.8e-05 15:5e-06 16:2.7e-05 17:0.015088 18:0.001477 19:4.8e-05 20:0.003835 21:0.017552 22:0.135701 23:0.015765 24:0.001557 25:5e-06 26:0.008048 27:0.049909 28:0.002544 30:5e-06 31:0.003115 32:0.000949 36:5e-06 37:6.9e-05 38:0.007595 39:0.000725 40:0.000539 41:4.8e-05 42:0.00768 43:0.089419 44:0.022757 47:0.002864 48:0.038848 58:0.000123 59:0.004037 60:0.000373 62:2.7e-05 63:0.006069 64:0.121205 
7 1:0.227524 2:0.071846 3:0.000122 4:5.1e-05 5:0.010785 6:0.285338 7:0.002862 8:6.4e-05 10:0.00074 11:0.001646 12:0.000296 16:0.000129 17:0.00099 18:0.000354 19:1.3e-05 20:1.9e-05 21:0.000894 22:0.161704 23:0.037595 24:0.000109 26:0.002302 27:0.084733 28:0.00063 31:1.3e-05 32:0.00063 37:2.6e-05 38:0.001196 39:0.000122 40:6e-06 42:0.000958 43:0.068206 44:0.015717 47:0.000444 48:0.010534 53:6e-06 58:4.5e-05 59:0.000682 60:9e-05 62:6e-06 63:0.000412 64:0.010161 
7 1:0.48024 2:0.002817 5:0.001189 6:0.002348 7:0.000192 8:6e-06 9:1.2e-05 10:0.00048 11:0.00027 12:7.8e-05 14:3e-05 15:2.4e-05 16:0.000204 17:0.340847 18:0.085345 19:1.2e-05 20:1.2e-05 21:0.000511 22:0.020505 23:0.001375 24:1.2e-05 25:1.2e-05 26:0.000751 27:0.000997 28:0.00012 30:1.2e-05 31:1.8e-05 32:0.000348 33:0.002661 34:0.015844 35:2.4e-05 36:6e-06 37:8.4e-05 38:0.015249 39:0.006042 40:1.2e-05 42:0.000264 43:0.010997 44:0.000444 46:6e-06 47:3e-05 48:0.000511 49:0.000763 50:0.000739 51:0.000114 52:3.6e-05 53:6e-05 54:0.001195 55:0.000709 56:0.000222 58:4.8e-05 59:0.001285 60:0.001363 63:1.8e-05 64:0.002505 
7 1:0.185109 2:0.047931 5:0.002053 6:0.056693 7:0.000443 10:2.1e-05 11:6.9e-05 12:1.1e-05 17:0.034891 18:0.005984 21:0.028224 22:0.245605 23:0.006555 26:0.003189 27:0.012795 28:0.001408 31:6.4e-05 32:0.000592 33:2.1e-05 37:0.000181 38:0.019792 39:0.000437 41:2.7e-05 42:0.015755 43:0.050448 44:0.008379 47:0.001595 48:0.044016 53:0.000155 54:0.000277 57:4.3e-05 58:0.000528 59:0.009504 60:0.000277 62:2.7e-05 63:0.008192 64:0.208709 
3.4737545626745 2:0.000181 6:0.001467 7:0.000101 18:1.6e-05 22:0.012453 23:0.018624 24:1.6e-05 27:0.103627 28:0.319781 38:1.6e-05 39:0.000112 42:5e-06 43:0.02248 44:0.40232 47:5e-06 48:0.005323 59:0.008603 60:4.3e-05 63:0.007147 64:0.09768 
7 1:0.281417 2:0.028925 3:0.002607 4:0.000174 5:0.031808 6:0.00558 7:0.001183 8:1.2e-05 9:0.002721 10:0.000432 11:2.4e-05 12:2.4e-05 13:0.002763 14:0.000384 15:0.000234 16:2.4e-05 17:0.011045 18:0.036697 19:0.003435 20:0.000402 21:0.064108 22:0.221754 23:0.020877 24:0.000414 25:0.007333 26:0.028631 27:0.014234 28:0.000126 29:0.001177 30:0.000895 31:0.000192 32:0.000132 33:4.2e-05 34:0.000378 35:0.001712 36:0.002679 37:0.001177 38:0.007123 39:0.005447 40:0.000955 41:0.005477 42:0.075243 43:0.079297 44:0.002006 45:0.001063 46:0.004096 47:0.003489 48:0.000505 49:6e-06 50:7.2e-05 51:0.000595 52:0.006631 53:6e-06 54:6.6e-05 55:0.000186 56:0.000703 57:0.000144 58:0.00048 59:0.003141 60:0.002054 61:0.000847 62:0.002523 63:0.011405 64:0.010685 
7 1:0.709979 2:0.028544 3:0.053893 4:0.013648 5:0.000747 6:0.009461 7:0.008443 8:0.000197 9:5e-06 10:5e-06 11:0.000107 12:0.000325 16:5e-06 17:0.000427 18:0.0008 19:0.000155 20:1.6e-05 21:0.000192 22:0.016789 23:0.038869 24:0.000485 26:7.5e-05 27:0.015925 28:0.004427 31:5e-06 32:7.5e-05 34:5e-06 38:0.000693 39:0.000704 40:5e-06 42:0.000144 43:0.043712 44:0.002731 47:6.4e-05 48:0.000677 58:2.1e-05 59:0.003291 60:0.002656 63:0.000144 64:0.041552 
7 1:0.078018 2:0.027568 3:0.005057 4:0.006667 5:0.004559 6:0.077177 7:0.010847 8:0.010492 10:0.000492 11:0.001177 12:0.002012 15:1.2e-05 16:0.004342 17:0.001886 18:0.000559 19:0.000102 20:4.2e-05 21:0.002078 22:0.108805 23:0.034204 24:0.004492 26:0.004679 27:0.082024 28:0.024168 31:0.000595 32:0.002967 37:3.6e-05 38:0.001778 39:0.000859 40:0.000102 41:6e-06 42:0.001664 43:0.068763 44:0.06176 47:0.010444 48:0.169201 53:1.2e-05 54:1.8e-05 58:0.000132 59:0.004733 60:0.002949 61:0.00021 62:0.000276 63:0.002841 64:0.179195 
7 1:0.190356 2:0.028384 3:0.008619 4:0.003224 5:0.036626 6:0.006064 7:0.000242 8:7.8e-05 9:0.001936 10:0.002854 12:5.7e-05 16:7e-06 17:0.006278 18:0.004456 19:0.000342 20:0.001374 21:0.001957 22:0.054826 23:0.024313 24:0.003665 25:2.1e-05 26:0.007594 27:0.003274 28:0.000128 33:0.000128 37:0.003537 38:0.006434 39:0.008904 40:0.000996 41:8.5e-05 42:0.009715 43:0.259367 44:0.010263 47:0.000932 48:0.001267 54:1.4e-05 58:0.000854 59:0.023673 60:0.003509 63:0.003822 64:0.279822 
7 1:0.072128 2:0.058651 3:6.4e-05 5:0.000411 6:0.010987 7:0.00128 17:0.011381 18:0.008267 19:3.7e-05 21:0.001915 22:0.119131 23:0.213989 24:5e-06 26:0.000715 27:0.078928 28:0.00096 30:5.9e-05 31:5.9e-05 32:1.6e-05 33:5e-06 37:0.000224 38:0.003824 39:0.002699 40:0.00032 42:0.000939 43:0.184853 44:0.155797 46:5e-06 47:0.00048 48:0.015867 58:3.7e-05 59:0.001947 60:0.000208 63:0.019627 64:0.034187 
7 1:0.210128 2:0.001968 5:0.000416 6:0.000299 17:0.140587 18:0.003557 21:0.087936 22:0.093648 23:0.000496 26:0.001125 27:0.000389 33:2.1e-05 37:0.002379 38:0.047589 39:0.000693 41:3.7e-05 42:0.06232 43:0.141173 44:0.000507 46:1.1e-05 47:0.002491 48:0.000176 58:0.001605 59:0.044016 60:0.000789 62:9.6e-05 63:0.042821 64:0.112725 
7 1:0.295419 2:0.075381 3:0.030683 4:0.002288 5:0.001035 6:0.02992 7:0.017632 8:0.017851 10:0.000645 11:0.001104 12:0.03624 16:8e-05 17:0.005557 18:0.004891 19:0.000645 20:0.00024 21:0.000853 22:0.108576 23:0.02888 24:0.001989 26:0.000475 27:0.017248 28:0.025685 31:0.000304 32:0.002624 33:1.1e-05 34:0.000192 35:5e-06 36:5e-06 37:5e-06 38:0.003424 39:0.002315 40:0.000107 42:0.001872 43:0.055723 44:0.036549 47:0.000219 48:0.01616 54:1.1e-05 55:3.7e-05 58:0.00016 59:0.003339 60:0.002011 63:0.001184 64:0.170427 
7 1:0.003019 5:0.000933 6:0.001088 7:6.4e-05 11:0.00024 17:0.001749 18:5e-06 21:0.012123 22:0.162224 23:0.000325 25:3.2e-05 26:0.156677 27:0.185771 28:0.000235 30:4.3e-05 31:2.1e-05 32:0.000672 38:0.001968 39:8e-05 42:0.006901 43:0.442027 44:0.000197 46:0.000347 47:0.004672 48:0.003003 59:0.000123 63:0.001787 64:0.013675 
7 1:0.140208 2:0.042592 3:0.019296 4:0.000768 5:0.013163 6:0.130192 7:0.018475 8:0.000576 10:0.001941 11:0.009621 12:0.000197 16:0.000144 17:0.002416 18:0.000592 19:0.001765 20:0.000352 21:0.005253 22:0.114459 23:0.048949 24:0.014811 26:0.010219 27:0.116357 28:0.008619 31:0.000171 32:0.001451 33:5e-06 37:0.002283 38:0.009979 39:0.000693 40:0.002203 41:0.000107 42:0.011541 43:0.078485 44:0.021979 47:0.001232 48:0.022592 53:0.000843 57:0.007995 58:0.021312 59:0.008181 60:0.000805 61:5e-06 62:0.000133 63:0.011072 64:0.095968 
7 1:0.041392 2:0.003403 3:0.000752 4:0.000101 5:0.002411 6:0.058976 7:0.001547 8:0.000171 10:0.001787 11:0.018027 12:9.1e-05 16:3.7e-05 17:0.000725 18:7.5e-05 19:0.000187 20:0.000261 21:0.002869 22:0.191131 23:0.059312 24:0.000747 26:0.002565 27:0.270752 28:0.005792 31:0.00016 32:0.000864 38:0.000987 39:4.3e-05 40:6.9e-05 42:0.007477 43:0.268752 44:0.022229 47:0.000155 48:0.014848 59:0.000101 60:5e-06 63:0.000128 64:0.021072 
7 1:0.568107 2:0.010011 3:0.022325 4:0.006059 5:0.005419 6:0.025659 7:0.03296 8:0.000379 11:0.002891 12:0.000272 16:1.1e-05 17:0.001595 18:0.000816 19:0.000187 20:0.000107 21:0.002805 22:0.149573 23:0.010389 24:0.001056 26:0.002011 27:0.026779 28:0.003019 32:1.1e-05 37:5e-06 38:0.002112 39:0.000448 40:0.000235 42:0.003648 43:0.032603 44:0.001755 47:0.000416 48:0.000928 58:5e-06 59:0.00088 60:0.000405 63:0.001397 64:0.082725 
7 1:0.114246 2:0.073171 3:0.001279 4:0.000228 5:0.000661 6:0.181075 7:0.00185 8:7.8e-05 10:6e-06 11:0.000102 12:0.00018 16:3e-05 17:0.00385 18:0.000264 19:4.2e-05 20:7.8e-05 21:0.003297 22:0.195465 23:0.180913 24:0.001742 26:0.024667 27:0.116613 28:0.002006 31:1.2e-05 32:0.000174 37:0.000198 38:0.004637 39:0.000462 40:0.000667 42:0.004066 43:0.033664 44:0.015718 47:0.000523 48:0.003544 54:6e-06 55:6e-06 58:0.000276 59:0.00621 60:9.6e-05 63:0.005261 64:0.022637 
7 1:0.268848 2:0.000212 5:0.037396 6:0.037156 17:0.001228 18:4e-06 21:0.020192 22:0.329676 23:0.000608 26:0.030824 27:0.066804 33:6.4e-05 37:8.8e-05 38:0.00098 42:0.026612 43:0.120044 44:4e-06 47:0.004044 48:0.000804 59:0.006152 63:0.021112 64:0.027148 
7 1:0.671027 2:0.003712 3:0.000102 5:0.014655 6:0.007856 7:0.000517 9:0.002 10:0.006775 11:2.4e-05 17:0.002967 18:0.000198 21:0.002492 22:0.097465 23:0.008354 24:0.000162 25:2.4e-05 26:0.004294 27:0.014661 28:0.000511 30:5.4e-05 31:6.6e-05 32:1.8e-05 33:2.4e-05 37:0.000282 38:0.001676 39:0.000547 42:0.003441 43:0.092673 44:0.004282 47:0.002306 48:0.004811 53:2.4e-05 54:1.8e-05 57:6e-06 58:0.000114 59:0.000877 60:0.000168 62:6e-06 63:0.002048 64:0.048763 
7 1:0.161274 2:0.042418 3:0.00051 4:0.001149 5:0.000389 6:0.030409 7:0.001596 8:0.000851 17:0.024072 18:0.009159 19:0.000139 21:0.017875 22:0.334913 23:0.055106 24:0.00101 26:0.000654 27:0.022572 28:0.012534 37:0.000481 38:0.029351 39:0.002966 40:6.3e-05 42:0.033788 43:0.088087 44:0.029385 47:0.000207 48:0.001543 58:0.000125 59:0.009183 60:0.000452 63:0.010442 64:0.077298 
7 1:0.12716 2:0.000704 3:0.00015 4:2e-05 5:0.000169 6:0.000274 7:9.8e-05 8:2.6e-05 9:2e-05 11:1.3e-05 12:2e-05 17:0.010723 18:0.00129 19:0.000156 20:0.000124 21:0.005414 22:0.71456 23:0.005205 24:0.001954 25:2.6e-05 26:0.001492 27:0.002899 28:3.9e-05 29:3.3e-05 32:7e-06 33:0.00116 34:1.3e-05 37:0.000997 38:0.006736 39:0.000704 40:1.3e-05 42:0.005974 43:0.102814 44:0.000326 47:6.5e-05 48:0.000111 49:5.2e-05 53:0.000163 54:2.6e-05 55:2.6e-05 57:2e-05 58:4.6e-05 59:0.000586 60:9.8e-05 62:1.3e-05 63:0.000365 64:0.007121 
7 1:0.068294 2:0.01227 3:0.00015 5:0.010318 6:0.033712 7:0.0003 8:6e-06 9:0.000216 10:0.000847 11:0.00027 15:1.2e-05 16:6e-06 17:0.016492 18:0.001772 19:1.8e-05 21:0.009267 22:0.298114 23:0.042432 24:0.000859 25:6e-05 26:0.005832 27:0.095423 28:9.6e-05 30:0.000553 31:6e-06 32:0.000114 33:0.001279 34:6e-06 37:0.010841 38:0.023568 39:0.001916 40:0.000204 41:3e-05 42:0.015009 43:0.250264 44:0.003123 46:0.000366 47:0.002733 48:0.001754 53:0.001075 54:0.002198 55:1.8e-05 57:0.000288 58:0.005465 59:0.014144 60:0.000613 62:1.8e-05 63:0.013532 64:0.054114 
7 1:0.161888 2:0.020021 3:0.008725 4:0.010837 5:0.002197 6:0.008357 7:0.00208 8:0.001968 11:1.6e-05 12:4.8e-05 17:0.00512 18:0.002789 19:0.000272 20:8.5e-05 21:0.0072 22:0.269643 23:0.01912 24:0.004501 26:0.002512 27:0.006981 28:0.001131 32:2.7e-05 37:1.6e-05 38:0.009728 39:0.008624 40:0.000181 42:0.009323 43:0.370069 44:0.004112 47:0.000832 48:0.001435 58:5e-06 59:0.003205 60:0.001509 63:0.003611 64:0.051829 
7 1:0.174849 2:0.024503 3:0.007054 4:0.012411 5:0.000481 6:0.013876 7:0.00687 8:0.002 10:3.8e-05 11:0.001697 12:0.028978 16:0.001924 17:0.022805 18:0.0028 19:0.000308 20:4.9e-05 21:0.014632 22:0.168232 23:0.02213 24:0.0012 26:0.0006 27:0.015351 28:0.005427 31:4.9e-05 32:0.003146 33:0.000405 34:2.2e-05 37:0.0042 38:0.019843 39:0.003914 40:0.000103 42:0.001589 43:0.301724 44:0.014492 47:0.0004 48:0.007984 53:0.000103 54:0.000265 57:1.1e-05 58:0.000524 59:0.012146 60:0.005303 63:0.001935 64:0.093627 
7 1:0.289658 2:0.005946 3:0.000282 4:0.000144 5:0.008895 6:0.041922 7:9e-05 8:3e-05 10:5.4e-05 11:1.2e-05 17:0.001868 18:0.000162 19:1.2e-05 20:6.6e-05 21:0.005562 22:0.211039 23:0.017099 24:0.00012 26:0.013249 27:0.105706 28:0.000535 31:0.00012 32:4.8e-05 37:0.000126 38:0.003772 39:0.000198 40:6e-06 41:6e-06 42:0.00818 43:0.108829 44:0.013261 47:0.003231 48:0.036697 58:0.048637 59:0.003231 60:3e-05 62:4.2e-05 63:0.000715 64:0.07042 
7 1:0.214512 2:0.014827 3:0.000432 4:1.6e-05 5:0.011941 6:0.018187 7:0.001291 8:8e-05 10:0.000992 11:0.00272 12:9.1e-05 15:6.4e-05 16:0.000165 17:0.049195 18:0.025995 19:7.5e-05 20:5e-06 21:0.064251 22:0.191008 23:0.002421 24:0.000501 26:0.002624 27:0.008704 28:0.001141 31:0.000251 32:0.003323 34:3.2e-05 37:0.000555 38:0.032763 39:0.001461 40:0.000112 42:0.006304 43:0.043872 44:0.001723 47:0.000315 48:0.003019 55:4.3e-05 58:0.001349 59:0.015995 60:0.001008 63:0.00368 64:0.27296 
7 1:0.037692 2:0.02524 3:0.003307 4:9.8e-05 5:0.00235 6:0.008858 10:0.000213 17:0.010495 18:0.009177 19:0.002219 20:0.000295 21:0.03165 22:0.269542 23:0.012837 24:0.001736 26:0.01499 27:0.015006 28:3.3e-05 31:8e-06 37:0.000794 38:0.038052 39:0.003905 40:0.001621 41:0.000131 42:0.036423 43:0.328454 44:0.004576 47:0.001711 48:0.003831 58:0.000606 59:0.013254 60:0.001555 62:4.9e-05 63:0.012821 64:0.106469 
7 1:0.334511 2:0.028444 3:0.002739 4:0.000847 5:0.00391 6:0.019459 7:0.002697 8:0.000565 10:4.8e-05 11:0.000294 12:0.00045 16:3.6e-05 17:0.021808 18:0.006114 19:0.000589 20:0.000619 21:0.094066 22:0.143489 23:0.034354 24:0.001165 25:6e-06 26:0.002913 27:0.029868 28:0.005165 31:6e-06 32:0.000535 34:3e-05 37:0.026931 38:0.026769 39:0.002685 40:0.000474 41:0.012312 42:0.025099 43:0.073369 44:0.011153 47:0.001736 48:0.012456 54:1.2e-05 55:6e-06 57:0.000126 58:0.005495 59:0.004865 60:0.001309 62:0.000781 63:0.012967 64:0.046727 
7 1:0.036272 2:0.002053 3:0.000592 4:4.8e-05 5:8.5e-05 6:0.000827 7:0.000475 8:0.000603 10:1.1e-05 11:2.1e-05 12:3.2e-05 16:5e-06 17:0.054576 18:0.00168 19:0.000592 20:0.000416 21:0.031136 22:0.099979 23:0.007109 24:0.002912 26:0.00088 27:0.006037 28:0.000725 31:5e-06 32:0.000213 33:0.000437 37:0.009573 38:0.217675 39:0.001936 40:0.001115 41:5e-06 42:0.103477 43:0.081067 44:0.006576 47:0.000896 48:0.02016 53:0.000251 54:0.000213 55:5e-06 57:5.9e-05 58:0.023381 59:0.014341 60:0.001493 62:0.001867 63:0.009947 64:0.25824 
7 1:0.095088 2:0.01336 3:0.000405 4:0.000608 5:0.000912 6:0.03176 7:0.001621 8:0.000117 10:5e-06 11:6.9e-05 12:2.1e-05 17:0.005813 18:0.001904 19:3.7e-05 20:1.6e-05 21:0.005856 22:0.080523 23:0.032011 24:6.4e-05 26:0.001488 27:0.073787 28:0.003141 31:2.7e-05 32:0.000384 37:0.004949 38:0.011717 39:0.010928 41:0.000341 42:0.016347 43:0.180416 44:0.022875 47:0.000288 48:0.021499 54:5e-06 57:2.7e-05 58:0.150571 59:0.157147 60:0.000427 62:0.000373 63:0.033579 64:0.039493 
7 1:0.686976 2:0.012845 3:0.003567 4:0.000788 5:0.052482 6:0.056629 7:0.001 8:5.3e-05 10:0.000543 11:0.000518 12:4.9e-05 15:4e-06 16:1.2e-05 17:0.000135 18:8e-06 21:0.003837 22:0.065265 23:0.000494 24:1.6e-05 25:8e-06 26:0.045612 27:0.014739 28:0.000253 31:0.001824 32:0.005457 33:4e-06 37:1.2e-05 38:4e-06 41:2.4e-05 42:0.002065 43:0.0134 44:0.000155 45:4e-06 46:8e-06 47:0.015073 48:0.006939 58:4e-06 61:8e-06 62:2e-05 63:0.006118 64:0.003045 
7 1:0.40785 2:0.031611 5:4.2e-05 6:0.154659 7:1.2e-05 22:0.131982 23:0.043299 27:0.127916 28:0.000407 43:0.054904 44:0.032377 48:0.006395 64:0.008545 
7 1:0.324233 2:0.157408 3:0.008829 4:0.002292 5:0.000457 6:0.040195 7:0.009044 8:0.000934 11:0.000152 12:0.000262 17:0.000664 18:0.000114 19:0.000985 20:0.000233 21:0.00649 22:0.081493 23:0.041772 24:0.005264 26:0.000173 27:0.032309 28:0.126901 31:4e-06 32:0.006355 38:0.001171 39:0.00044 40:0.000195 42:0.00071 43:0.030423 44:0.023725 47:0.000135 48:0.057615 59:0.00011 60:0.000148 63:3.8e-05 64:0.038727 
7 1:0.465429 2:0.034277 3:0.000619 4:1.1e-05 5:0.028373 6:0.105024 7:0.004779 8:6.9e-05 10:0.000288 11:0.003637 12:0.000437 16:0.000352 17:0.0084 18:0.001184 19:5e-06 21:0.011989 22:0.148293 23:0.014475 24:1.1e-05 26:0.008709 27:0.038955 28:0.006213 31:2.7e-05 32:0.002267 33:3.7e-05 34:5e-06 37:0.000331 38:0.010176 39:0.000731 42:0.009685 43:0.045499 44:0.004165 47:0.000667 48:0.009477 58:9.1e-05 59:0.002656 60:0.000427 63:0.002848 64:0.029381 
7 1:0.011035 2:0.003072 3:0.000309 5:0.002181 6:0.09936 10:0.005643 17:0.009424 18:0.003536 19:0.001301 20:5e-06 21:0.027941 22:0.269872 23:0.003515 24:0.000485 26:0.039024 27:0.011925 28:0.000128 37:1.6e-05 38:0.004677 39:0.001147 40:0.000176 42:0.01312 43:0.476 44:0.005141 46:1.1e-05 47:0.001136 48:0.000747 58:5e-06 59:0.000347 60:0.000187 63:0.000704 64:0.007829 
7 1:0.530149 22:0.314677 43:0.1108 64:0.044373 
7 1:0.189976 22:0.159247 43:0.411353 64:0.239424 
7 1:0.351279 2:0.012637 3:0.003345 4:0.001868 5:0.001147 6:0.028847 7:0.000432 8:0.000426 10:6e-06 11:0.000108 17:0.024979 18:0.001904 19:1.2e-05 20:1.8e-05 21:0.00776 22:0.096444 23:0.011628 24:0.001195 26:0.001357 27:0.019796 28:0.000805 32:3e-05 33:1.2e-05 37:0.000655 38:0.01612 39:0.000372 40:6e-05 42:0.014018 43:0.179219 44:0.013796 47:0.000541 48:0.024216 53:6e-06 54:5.4e-05 58:0.0003 59:0.01418 60:0.000601 63:0.004294 64:0.165532 
7 1:0.36976 2:0.011129 3:2.4e-05 5:0.001598 6:0.006282 7:2.4e-05 10:6e-06 11:1.8e-05 17:0.050426 18:0.001201 19:1.8e-05 21:0.009712 22:0.071093 23:0.002468 26:0.000757 27:0.003988 28:8.4e-05 33:0.005201 34:6e-06 37:0.001411 38:0.011039 39:0.000637 42:0.006078 43:0.087964 44:0.018607 47:0.000577 48:0.048282 49:0.001736 53:0.001586 54:0.000709 57:6e-06 58:0.001177 59:0.019417 60:0.000252 63:0.002931 64:0.263796 
7 1:0.03256 2:0.000539 3:0.000421 4:0.000672 5:0.000507 6:0.001072 7:0.000923 8:0.000187 10:8e-05 11:0.000165 12:0.001195 17:0.036229 18:0.000389 19:0.000219 20:0.000213 21:0.031051 22:0.051552 23:0.002064 24:0.000379 25:0.000837 26:0.002027 27:0.001472 28:0.000853 31:1.1e-05 32:0.000101 33:5e-06 34:5e-06 37:0.001653 38:0.131957 39:0.000736 40:0.000475 41:0.012112 42:0.152747 43:0.115707 44:0.004464 45:2.1e-05 46:0.000757 47:0.000251 48:0.008224 53:0.000187 54:7.5e-05 55:5e-06 57:4.3e-05 58:0.003088 59:0.065333 60:0.00016 62:0.002133 63:0.076928 64:0.257216 
7 1:0.512965 2:0.205909 3:0.032437 4:3.7e-05 5:0.000101 6:0.0484 7:0.019259 8:0.007819 11:0.000187 12:0.000176 17:0.000133 18:0.000635 19:0.000171 21:4.8e-05 22:0.019733 23:0.045339 24:0.000869 26:0.000112 27:0.010651 28:0.018064 32:0.000832 34:1.6e-05 38:8e-05 39:0.000293 40:3.7e-05 42:3.7e-05 43:0.008437 44:0.007515 47:0.000112 48:0.033408 50:5e-06 54:5e-06 55:5e-06 56:1.6e-05 59:5.9e-05 60:0.000155 63:3.7e-05 64:0.025904 
7 1:0.402793 22:0.211952 43:0.325387 64:0.059868 
7 1:0.13048 2:0.029392 3:4.8e-05 5:0.001296 6:0.011445 7:0.002752 10:5e-06 11:0.000315 12:5e-06 17:0.009285 18:0.001013 21:0.006837 22:0.166299 23:0.010811 24:5e-06 26:0.001072 27:0.009856 28:0.000379 32:2.7e-05 33:4.8e-05 37:0.000192 38:0.028528 39:0.001104 42:0.019899 43:0.380864 44:0.00696 47:0.00352 48:0.029301 49:5e-06 53:5e-06 54:4.8e-05 58:3.2e-05 59:0.013637 60:0.000651 63:0.010693 64:0.123189 
7 1:0.233544 2:0.012384 3:0.001946 4:0.000102 5:0.021952 6:0.035171 7:0.002378 8:0.00048 10:2.4e-05 11:0.00018 12:0.000156 16:6e-06 17:0.002691 18:0.000691 19:0.000595 20:0.000336 21:0.005315 22:0.144342 23:0.046757 24:0.003916 25:1.8e-05 26:0.001387 27:0.072138 28:0.011195 32:0.000787 33:3e-05 36:1.2e-05 37:0.000901 38:0.002192 39:0.000541 40:0.000258 41:0.000324 42:0.002228 43:0.154535 44:0.011237 46:3e-05 47:0.000288 48:0.006925 53:1.2e-05 57:6e-05 58:0.000408 59:0.100817 60:0.000384 62:1.8e-05 63:0.038823 64:0.081483 
7 1:0.216523 2:0.009739 3:0.000544 4:0.000219 5:0.000517 6:0.0048 7:0.002011 8:0.000555 11:0.000128 12:0.000512 16:0.000373 17:0.010853 18:0.001211 19:0.00016 20:2.7e-05 21:0.008811 22:0.187344 23:0.019637 24:0.000384 26:0.002592 27:0.023168 28:0.001008 32:0.000283 33:1.1e-05 37:0.002848 38:0.045616 39:0.001179 40:2.7e-05 42:0.026725 43:0.333947 44:0.034843 47:9.1e-05 48:0.03088 58:9.6e-05 59:0.004235 60:0.000192 63:0.00224 64:0.025675 
7 1:0.455796 2:0.066492 3:0.000114 4:1.8e-05 5:0.000102 6:0.064006 7:0.067219 8:0.00182 10:3e-05 11:0.013988 12:0.100288 16:7.8e-05 17:0.000547 18:0.000162 19:6e-06 21:7.8e-05 22:0.00236 23:0.00152 24:0.000282 26:0.000216 27:0.002613 28:0.126853 31:1.2e-05 32:0.002012 33:1.8e-05 34:6e-06 37:2.4e-05 38:9.6e-05 39:7.8e-05 41:6e-06 42:9e-05 43:0.0023 44:0.026072 47:0.00033 48:0.044114 57:6e-06 58:2.4e-05 59:0.00015 60:4.2e-05 62:2.4e-05 63:0.000234 64:0.019772 
7 1:0.158443 2:0.021573 3:0.005371 4:0.009584 5:0.007621 6:0.022917 7:0.00904 8:0.097691 9:8.5e-05 10:1.6e-05 11:0.000304 12:0.019797 16:0.001259 17:0.016107 18:0.005173 19:0.000427 20:0.002277 21:0.01072 22:0.312923 23:0.016848 24:0.015952 25:0.002688 26:0.02752 27:0.017653 28:0.019904 29:0.000107 30:0.000171 31:2.7e-05 32:0.000256 33:0.000165 34:0.000187 35:2.1e-05 36:0.000272 37:0.000491 38:0.050635 39:0.004043 40:0.00072 41:9.6e-05 42:0.005803 43:0.033925 44:0.024165 45:9.1e-05 46:0.000437 47:0.002219 48:0.010069 49:5e-06 51:5e-06 53:1.1e-05 54:4.8e-05 55:5.3e-05 56:2.7e-05 58:0.00072 59:0.003648 60:0.001328 62:0.000123 63:0.005168 64:0.053072 
7 1:0.206539 2:0.002859 5:0.003669 6:0.014496 10:1.6e-05 17:0.008027 18:0.000421 21:0.003371 22:0.404085 23:0.015765 26:0.002192 27:0.022816 38:0.006213 39:0.001829 42:0.005072 43:0.122096 44:0.001541 47:8.5e-05 48:0.004613 59:0.007829 60:5e-06 63:0.030288 64:0.136171 
7 1:0.129131 2:0.007131 3:0.000811 4:0.000133 5:0.013573 6:0.033472 7:0.000896 8:0.000331 10:0.000229 11:6.9e-05 12:0.000192 16:2.1e-05 17:0.006565 18:0.000416 19:8e-05 20:8.5e-05 21:0.019685 22:0.129755 23:0.010176 24:0.000352 25:5e-06 26:0.008453 27:0.044491 28:0.000656 32:0.000165 33:1.1e-05 37:0.000416 38:0.028187 39:0.000277 40:5.9e-05 42:0.062811 43:0.186464 44:0.022341 46:5e-06 47:0.001008 48:0.041168 53:5e-06 54:5e-06 57:1.1e-05 58:0.00752 59:0.189803 60:0.000112 62:1.1e-05 63:0.018128 64:0.034784 
7 1:0.87382 2:0.017261 3:0.000294 4:6e-06 5:0.003862 6:0.023015 7:0.000396 10:7.2e-05 11:0.000847 12:0.000288 16:0.00027 17:0.001225 18:0.000613 19:0.000114 20:1.2e-05 21:0.000571 22:0.030168 23:0.003171 24:0.000456 26:0.000438 27:0.002054 28:0.000529 32:0.002456 37:7.2e-05 38:0.000895 39:0.000414 40:3.6e-05 42:0.000438 43:0.014078 44:0.001838 47:6.6e-05 48:0.001159 58:0.000114 59:0.001159 60:0.000258 63:0.000715 64:0.016817 
7 1:0.559179 2:0.051125 3:0.018325 4:0.007915 5:0.005344 6:0.02904 7:0.006613 8:0.000469 10:2.1e-05 11:0.000549 12:0.00048 16:0.000853 17:0.004885 18:0.000987 19:0.000133 20:0.001056 21:0.008208 22:0.046507 23:0.008069 24:0.003525 26:0.000464 27:0.024581 28:0.029376 31:1.1e-05 32:0.009973 33:1.6e-05 34:1.6e-05 38:0.017872 39:0.000453 40:0.000149 42:0.012197 43:0.0256 44:0.025051 47:0.000155 48:0.049723 52:5e-06 55:1.1e-05 56:5e-06 59:0.000165 60:0.000245 63:1.6e-05 64:0.050629 
7 1:0.519211 2:0.080763 3:0.000683 4:3.2e-05 5:0.002251 6:0.020635 7:0.000555 8:9.6e-05 11:5e-06 12:1.1e-05 17:0.004816 18:0.019104 19:5e-06 21:0.011413 22:0.176491 23:0.016544 24:0.00048 25:5e-06 26:0.000139 27:0.001765 28:0.000587 34:5e-06 37:0.008219 38:0.008693 39:0.00256 40:4.8e-05 41:0.019381 42:0.001413 43:0.02088 44:0.002741 45:5e-06 46:1.1e-05 47:0.001552 48:0.000981 53:2.1e-05 54:4.3e-05 55:4.8e-05 57:0.020091 58:0.000176 59:0.000245 60:0.000507 61:0.026016 62:0.000533 63:0.001008 64:0.029232 
7 1:0.290581 2:0.020709 3:0.008549 4:0.003392 5:0.002795 6:0.012203 7:0.001413 8:0.000341 10:0.000144 11:0.016213 12:0.002096 15:0.000619 16:0.017536 17:0.024811 18:0.004347 19:0.000656 20:0.001115 21:0.009461 22:0.123093 23:0.004277 24:0.001563 26:0.002059 27:0.003829 28:0.000432 31:0.000139 32:0.014587 33:0.002448 34:3.7e-05 37:0.001301 38:0.014597 39:0.002624 40:0.000347 41:1.6e-05 42:0.010629 43:0.300821 44:0.004683 46:5e-06 47:0.001792 48:0.006469 49:4.8e-05 53:0.000533 54:0.002592 55:2.7e-05 57:5e-06 58:0.001013 59:0.010213 60:0.003653 61:5e-06 62:5.9e-05 63:0.00672 64:0.0624 
7 1:0.189168 2:0.022763 3:0.000651 4:0.000133 5:0.000603 6:0.017072 7:0.004085 8:0.002469 10:5.3e-05 11:0.000373 12:0.000672 16:5e-06 17:0.020949 18:0.003504 19:6.9e-05 20:5e-06 21:0.002917 22:0.337072 23:0.058901 24:0.054368 26:0.001184 27:0.026475 28:0.023371 32:0.000843 33:0.006128 34:6.4e-05 37:0.009328 38:0.006133 39:0.000832 40:6.4e-05 41:5e-06 42:0.000981 43:0.03104 44:0.020613 47:0.000293 48:0.010485 49:0.000176 53:0.0504 54:0.002699 55:1.1e-05 57:0.015973 58:0.005051 59:0.002757 60:0.000133 61:0.000603 62:0.000427 63:0.000939 64:0.067157 
7 1:0.228567 2:0.012913 3:0.000382 4:5.4e-05 5:0.006651 6:0.019773 7:0.002657 8:4.8e-05 12:1.2e-05 17:0.003099 18:0.000376 20:6e-06 21:0.007558 22:0.106925 23:0.006633 24:0.000149 25:6e-06 26:0.00203 27:0.004663 28:0.000143 37:0.007887 38:0.001248 39:0.000101 40:1.2e-05 41:0.005791 42:0.005546 43:0.035397 44:0.001266 46:6e-06 47:0.002376 48:0.008006 57:0.000197 58:0.000418 59:0.000406 60:0.000119 61:1.2e-05 62:9.6e-05 63:0.001463 64:0.527009 
7 1:0.077243 2:0.032378 3:0.007237 4:0.000408 5:0.001538 6:0.017039 7:0.001423 8:0.001832 11:0.00015 17:0.011135 18:0.001471 19:0.00033 20:1.2e-05 21:0.012667 22:0.410781 23:0.01648 24:0.002078 26:0.001195 27:0.013934 28:0.000468 37:0.002889 38:0.027243 39:0.00224 40:2.4e-05 41:0.000204 42:0.016354 43:0.292799 44:0.005964 47:0.000426 48:0.004853 58:0.000186 59:0.004865 60:0.000222 63:0.003333 64:0.028595 
7 1:0.455963 22:0.279202 43:0.125795 64:0.139039 
7 1:0.02326 2:0.006794 3:0.001743 4:0.000734 5:0.001021 6:0.004854 7:0.000185 8:4.2e-05 10:1.2e-05 11:9e-05 12:6e-06 15:6e-06 16:6e-06 17:0.001516 18:0.000394 19:0.000179 20:0.000149 21:0.004131 22:0.059725 23:0.006012 24:0.00157 26:0.000836 27:0.007803 28:0.00034 31:2.4e-05 32:0.000119 33:7.2e-05 36:6e-06 37:0.000101 38:0.008585 39:0.001325 40:0.0008 42:0.012937 43:0.145391 44:0.013075 47:0.000657 48:0.023928 49:6e-06 53:4.2e-05 54:1.2e-05 55:6e-06 56:6e-06 57:2.4e-05 58:0.000113 59:0.018251 60:0.000782 63:0.011128 64:0.6412 
7 1:0.098096 2:0.205357 3:3e-05 4:6e-06 5:0.006114 6:0.246324 7:0.076066 8:7.2e-05 9:1.2e-05 10:0.000102 11:0.014835 12:0.010895 16:0.000841 17:0.009435 18:0.000769 19:1.2e-05 20:6e-06 21:0.005267 22:0.148384 23:0.07215 24:3e-05 25:1.2e-05 26:0.000697 27:0.023724 28:0.011405 31:0.000108 32:0.012258 33:0.004432 37:0.003459 38:0.006348 39:0.000721 40:1.2e-05 41:6e-06 42:0.003964 43:0.012264 44:0.001015 46:1.8e-05 47:0.000192 48:0.003868 53:0.00021 54:0.00012 58:0.000372 59:0.004078 60:0.000288 62:6e-06 63:0.003502 64:0.012114 
7 1:0.309038 2:0.035532 3:0.000187 5:0.016757 6:0.156545 7:0.001991 8:5.1e-05 10:0.002255 11:0.003251 12:5.1e-05 15:5.1e-05 16:4.3e-05 17:0.009081 18:0.003217 21:0.001106 22:0.226689 23:0.033566 24:9e-06 26:0.006851 27:0.090323 28:0.002502 31:0.001719 32:0.003566 38:0.008562 39:0.001438 42:0.004187 43:0.045796 44:0.006145 47:0.00057 48:0.011591 58:1.7e-05 59:0.002545 60:0.000374 63:0.000383 64:0.014009 
7 1:0.035757 2:0.090534 3:0.034018 4:0.006665 5:6e-06 6:0.003092 7:0.004504 8:0.000742 11:1.2e-05 12:0.000136 16:0.000119 17:0.000914 18:0.040831 19:0.01168 20:0.009923 21:3e-05 22:0.053769 23:0.204748 24:0.030071 26:1.2e-05 27:0.04895 28:0.064528 32:2.4e-05 38:0.002629 39:0.007567 40:0.000843 42:0.002362 43:0.109021 44:0.119389 47:1.8e-05 48:0.033596 54:6e-06 58:6e-06 59:0.00568 60:0.003122 63:0.001893 64:0.072807 
7 1:0.184112 2:0.002517 3:0.000379 5:0.061397 6:0.069419 7:0.000656 9:5e-06 10:0.005643 11:0.003851 12:3.7e-05 15:0.000101 16:0.000117 17:0.000165 18:8.5e-05 19:1.1e-05 21:0.0068 22:0.193403 23:0.005045 26:0.072613 27:0.097963 28:6.4e-05 31:0.000501 32:0.000581 38:0.000203 39:4.3e-05 42:0.003931 43:0.103829 44:0.000187 47:0.007408 48:0.001899 59:6.4e-05 60:5e-06 63:0.001563 64:0.175403 
7 1:0.08019 2:0.044167 3:6.3e-05 5:0.001026 6:0.072317 7:0.003746 17:0.00072 18:0.000133 19:6e-06 21:0.002398 22:0.229268 23:0.21238 24:0.000121 26:0.00011 27:0.169182 28:0.03717 38:0.000305 39:4e-05 42:0.000219 43:0.026392 44:0.064248 47:8.1e-05 48:0.026865 59:9.8e-05 60:5.2e-05 63:0.000202 64:0.028501 
7 1:0.066773 2:0.003003 5:0.006309 6:0.037717 10:1.1e-05 17:0.00328 18:0.002443 19:0.000485 21:0.001211 22:0.171707 23:0.019429 24:5e-06 26:0.001344 27:0.008805 28:6.9e-05 32:5e-06 35:5e-06 38:0.015232 39:0.024176 40:7.5e-05 42:0.053632 43:0.334715 44:0.003931 47:2.1e-05 48:0.001856 56:5e-06 58:1.1e-05 59:0.045643 60:0.000197 63:0.108085 64:0.089819 
4.107085095936147 1:0.003093 2:0.013781 3:0.000368 6:0.010192 7:0.028149 8:4.8e-05 18:1.1e-05 22:0.002507 23:0.089152 24:0.01072 27:0.025013 28:0.179621 39:5e-06 43:0.009803 44:0.326443 48:0.015616 60:0.259829 64:0.025648 
7 1:0.16864 2:0.001824 3:5e-06 5:0.007787 6:0.00976 7:0.000304 8:0.000117 11:3.7e-05 12:0.00048 16:5e-06 17:0.023968 18:0.00048 21:0.031168 22:0.247669 23:0.002261 24:3.2e-05 26:0.000965 27:0.012064 28:0.000213 32:5e-06 33:0.014395 34:1.1e-05 37:0.032917 38:0.058336 39:0.000293 41:0.000181 42:0.010139 43:0.05016 44:0.012341 47:0.000389 48:0.034837 49:1.1e-05 53:0.004021 54:0.000235 57:0.008592 58:0.001883 59:0.004725 60:0.000123 61:0.001717 62:0.005771 63:0.002965 64:0.248171 
7 1:0.794685 2:0.033471 3:0.006535 4:0.004186 5:0.000396 6:0.011652 7:0.003123 8:0.005063 10:6e-06 11:3.6e-05 12:0.000877 16:4.8e-05 17:0.012258 18:0.000853 19:0.000216 20:4.2e-05 21:0.002258 22:0.020571 23:0.009562 24:0.005357 25:0.00021 26:0.00042 27:0.006222 28:0.012474 29:1.2e-05 30:1.8e-05 31:1.8e-05 32:0.004414 33:0.000751 34:6e-06 37:0.00015 38:0.000829 39:0.000192 40:1.2e-05 41:9e-05 42:0.000511 43:0.007219 44:0.005219 45:0.0003 46:0.00042 47:0.000529 48:0.017423 54:6e-06 55:1.2e-05 58:6e-06 59:7.8e-05 60:9e-05 62:7.8e-05 63:0.000204 64:0.030889 
7 1:0.142264 2:0.00056 3:0.000344 5:0.001036 6:0.000492 7:2.8e-05 11:3.6e-05 12:0.000112 16:6.4e-05 17:0.042128 18:0.000312 19:0.000984 20:4e-06 21:0.087688 22:0.032332 23:0.003832 24:4e-05 26:0.000944 27:0.012712 28:0.000392 32:2.8e-05 35:0.000328 37:0.029464 38:0.013296 39:0.00796 40:0.00628 41:0.004072 42:0.035624 43:0.097724 44:0.051884 47:0.00052 48:0.029824 57:7.2e-05 58:0.003476 59:0.008772 60:0.016672 62:3.2e-05 63:0.004456 64:0.363212 
7 1:0.092286 2:0.003268 3:1.6e-05 4:4.2e-05 5:0.000493 6:0.007894 7:0.000149 8:3.7e-05 17:0.003438 18:0.000149 21:0.002902 22:0.141056 23:0.024796 24:0.000111 26:0.000971 27:0.041151 28:0.000759 32:5e-06 37:1.1e-05 38:0.001294 39:6.9e-05 42:0.000918 43:0.06592 44:0.001225 47:0.000488 48:0.001777 59:0.00452 60:5.8e-05 63:0.002631 64:0.601565 
7 1:0.531798 2:0.005451 3:0.001632 4:0.000202 5:0.031496 6:0.035577 7:0.006015 8:0.000181 10:1e-05 11:0.008489 12:0.021234 16:0.018202 17:0.000746 18:0.000247 19:6e-05 20:4.5e-05 21:0.000418 22:0.035854 23:0.001249 24:0.000453 26:0.001693 27:0.013496 28:0.000398 31:5e-06 32:0.004116 35:1e-05 38:0.000242 39:8.6e-05 40:5e-06 42:9.6e-05 43:0.033486 44:0.001179 47:0.001617 48:0.012076 56:5e-06 59:0.000282 60:9.6e-05 63:0.000141 64:0.231612 
7 1:0.235109 2:0.140528 3:0.080608 4:0.008656 5:0.120155 6:0.150848 7:0.017179 8:0.003141 9:5e-06 10:0.011909 11:0.00232 12:0.002688 17:0.001995 18:0.001957 19:0.002827 20:0.00328 21:0.001211 22:0.030219 23:0.035936 24:0.005467 25:0.000693 26:0.001104 27:0.029493 28:0.009579 32:2.7e-05 33:0.000373 34:1.1e-05 37:0.001365 38:0.001419 39:0.001925 40:0.001072 41:3.2e-05 42:0.000565 43:0.039888 44:0.018528 45:5e-06 47:0.000219 48:0.013776 53:0.000139 54:6.4e-05 55:5e-06 57:5e-06 58:0.000251 59:0.000533 60:0.000517 63:0.000304 64:0.022069 
7 1:0.335275 2:0.006555 3:0.000779 4:0.000155 5:0.107851 6:0.007403 7:0.000656 8:0.000107 9:0.018768 10:0.000432 11:0.000117 12:5.9e-05 13:0.008987 14:3.7e-05 15:2.1e-05 17:0.000651 18:0.001355 19:0.000128 20:5e-06 21:0.051925 22:0.0328 23:0.001627 24:0.000251 25:0.077648 26:0.021083 27:0.001877 28:0.000395 29:0.009307 30:0.001621 31:0.000203 32:7.5e-05 37:0.000107 38:0.000192 39:0.000155 40:2.7e-05 41:0.015493 42:0.008059 43:0.00256 44:0.000405 45:0.054677 46:0.074416 47:0.014832 48:0.000725 53:5e-06 57:3.2e-05 58:1.6e-05 59:3.7e-05 60:1.1e-05 61:0.114731 62:0.012624 63:0.008261 64:0.004485 
7 1:0.276513 2:0.025783 3:8.6e-05 5:0.001217 6:0.031586 7:0.005303 8:1.3e-05 10:0.000336 11:0.003145 12:0.000191 15:0.000118 16:0.000382 17:0.041408 18:0.051704 19:0.002092 21:0.001211 22:0.359559 23:0.019796 24:5.3e-05 26:0.001678 27:0.011645 28:0.000217 30:1.3e-05 31:0.000507 32:0.001566 33:0.006868 34:0.005599 35:0.000276 37:0.000368 38:0.027599 39:0.012671 40:2e-05 42:0.001243 43:0.046612 44:0.001217 47:0.000796 48:0.005842 49:0.002836 50:0.000112 51:7e-06 53:0.000329 54:0.003914 55:0.000816 58:0.00073 59:0.010112 60:0.001474 62:7e-06 63:0.000789 64:0.033645 
7 1:0.238913 2:0.005465 3:6e-05 5:0.001171 6:0.002192 7:0.000258 8:1.8e-05 10:0.000288 11:0.001165 12:5.4e-05 15:1.2e-05 16:1.2e-05 17:0.07803 18:0.016084 19:5.4e-05 21:0.044523 22:0.226733 23:0.005598 24:1.2e-05 26:0.003754 27:0.008336 28:0.000535 31:0.000378 32:0.001447 34:1.2e-05 37:0.002066 38:0.054462 39:0.006715 40:2.4e-05 41:1.2e-05 42:0.029904 43:0.038342 44:0.001303 47:0.001141 48:0.008769 54:1.2e-05 55:6e-06 58:0.002823 59:0.022715 60:0.000342 62:6e-06 63:0.015177 64:0.181075 
7 1:0.263195 2:0.009728 3:0.001019 4:0.000384 5:0.059941 6:0.037515 7:0.004821 8:0.000229 10:0.000997 11:0.003072 12:0.000469 15:3.7e-05 16:0.000475 17:0.02128 18:0.003504 19:8e-05 20:3.7e-05 21:0.014603 22:0.093573 23:0.007168 24:0.00064 25:2.1e-05 26:0.004432 27:0.006549 28:0.000133 31:1.6e-05 32:0.001179 33:0.001643 34:0.000107 37:0.001787 38:0.010064 39:0.002341 40:0.000117 41:2.7e-05 42:0.007051 43:0.066032 44:0.009051 46:1.1e-05 47:0.000469 48:0.003531 49:5e-06 53:0.000731 54:0.000603 55:8.5e-05 56:5e-06 57:7.5e-05 58:0.001861 59:0.005856 60:0.001419 62:0.000149 63:0.006709 64:0.345173 
7 1:0.034597 2:0.031979 3:5e-06 5:0.005435 6:0.003264 7:0.000347 8:1.1e-05 11:2.7e-05 12:0.000101 16:1.1e-05 17:0.015221 18:0.037264 19:0.00128 21:0.058523 22:0.248272 23:0.153776 24:4.3e-05 25:4.3e-05 26:0.005024 27:0.004443 28:0.001216 32:0.000725 33:3.2e-05 34:5e-06 37:0.000709 38:0.007323 39:0.010619 40:5e-06 41:0.000117 42:0.047483 43:0.134656 44:0.000581 46:0.003099 47:0.021227 48:0.005856 58:0.000112 59:0.001653 60:8.5e-05 62:0.012912 63:0.081024 64:0.070896 
7 1:0.331913 2:0.018012 3:0.005022 4:0.02891 5:0.001645 6:0.015869 7:0.004773 8:0.000156 11:0.000224 12:1.9e-05 17:0.008243 18:0.000816 19:8.1e-05 20:0.006006 21:0.007477 22:0.059059 23:0.012405 24:0.007302 26:0.002243 27:0.048336 28:0.033788 32:0.00028 33:2.5e-05 34:3.7e-05 37:1.9e-05 38:0.003863 39:0.000486 40:0.000442 42:0.007128 43:0.077763 44:0.069495 47:0.001576 48:0.103234 53:6e-06 54:6e-06 55:6e-06 57:0.000137 58:0.000106 59:0.002679 60:0.000424 62:6.2e-05 63:0.003283 64:0.136642 
7 1:0.318304 2:0.021376 3:0.009349 4:0.003115 5:0.004816 6:0.005952 7:0.000544 8:6.9e-05 9:5e-06 10:0.000763 11:0.000512 12:2.1e-05 16:5e-06 17:0.014757 18:0.000773 19:0.001029 20:0.000736 21:0.026096 22:0.143216 23:0.007077 24:0.000949 25:1.1e-05 26:0.0108 27:0.011643 28:0.000624 31:0.000128 32:2.7e-05 33:2.7e-05 34:5e-06 37:0.000944 38:0.013872 39:0.000688 40:0.000923 41:5e-06 42:0.030843 43:0.083845 44:0.016885 47:0.007461 48:0.002965 53:1.6e-05 55:5e-06 58:0.000331 59:0.008768 60:0.003413 62:1.6e-05 63:0.017579 64:0.228709 
7 1:0.166479 2:0.04482 3:0.001527 4:0.000737 5:0.000455 6:0.079623 7:0.034635 8:0.000725 10:0.000108 11:0.04421 12:0.044299 15:1.8e-05 16:0.021467 17:0.000102 18:3e-05 21:0.000335 22:0.008251 23:0.001802 24:1.2e-05 26:0.000952 27:0.062407 28:0.024814 31:0.000575 32:0.181964 38:2.4e-05 39:6e-06 42:0.000491 43:0.003521 44:0.000473 47:0.000988 48:0.256198 59:1.2e-05 63:0.00021 64:0.017731 
7 1:0.15968 2:0.034811 3:0.000907 4:0.000101 5:0.001008 6:0.008384 7:0.00024 8:2.7e-05 17:0.011573 18:0.001771 19:2.1e-05 21:0.007803 22:0.194048 23:0.011781 24:7.5e-05 26:0.005403 27:0.015077 28:6.9e-05 37:3.7e-05 38:0.049125 39:0.004981 40:5e-06 42:0.065083 43:0.357595 44:0.003589 47:0.000933 48:0.003488 58:0.000112 59:0.008683 60:0.000805 63:0.00568 64:0.047104 
7 1:0.250655 2:0.07379 3:0.017063 4:0.020042 5:0.005051 6:0.371375 7:0.001634 8:0.000643 10:9.6e-05 11:0.000402 12:0.000402 16:0.000258 17:0.03009 18:0.001862 19:0.000553 20:0.00176 21:0.002655 22:0.089922 23:0.009375 24:0.006204 25:0.000294 26:0.001165 27:0.028943 28:0.001195 31:6e-06 32:0.000258 33:0.000901 34:4.2e-05 36:6e-06 37:0.000853 38:0.004919 39:0.000643 40:0.000565 41:0.002985 42:0.001327 43:0.014997 44:0.003814 45:0.002595 46:0.00024 47:0.000222 48:0.001309 54:1.2e-05 57:6e-06 58:9.6e-05 59:0.001832 60:0.000805 61:1.8e-05 62:9.6e-05 63:0.001201 64:0.044823 
7 1:0.32621 2:0.036871 5:0.030559 6:0.012973 7:0.000348 9:0.006811 10:0.006679 11:0.002168 12:0.00015 15:9e-05 16:0.001075 17:0.019489 18:0.05603 19:0.004354 21:0.001808 22:0.062589 23:0.006246 26:0.004883 27:0.006901 28:0.000282 30:1.8e-05 31:0.001009 32:0.002258 33:0.022727 34:0.003117 35:0.000889 37:0.00024 38:0.013267 39:0.022414 42:0.001165 43:0.20042 44:0.002378 47:0.006456 48:0.012595 49:0.017195 50:0.002192 51:3.6e-05 53:0.000114 54:0.006811 55:0.001393 58:0.001105 59:0.0137 60:0.005622 63:0.002072 64:0.074288 
7 1:0.669528 22:0.111563 43:0.103183 64:0.115726 
7 1:0.232821 2:0.031227 3:0.004997 4:6.4e-05 5:0.020149 6:0.076027 7:0.011083 8:0.000395 10:0.000507 11:0.005072 12:0.005877 15:5e-06 16:0.001243 17:0.024341 18:0.008896 19:0.000107 21:0.029941 22:0.207125 23:0.013136 24:3.7e-05 26:0.002928 27:0.035957 28:0.017467 31:0.000373 32:0.014496 37:6.9e-05 38:0.009643 39:0.002016 40:5e-06 41:9.6e-05 42:0.008672 43:0.029541 44:0.008789 47:0.000357 48:0.038187 57:0.000251 58:0.000149 59:0.003424 60:0.000293 61:0.000107 62:0.000128 63:0.006384 64:0.147616 
7 1:0.127454 2:0.014748 3:0.013869 4:0.000997 5:0.009715 6:0.00768 7:0.004279 8:0.002315 12:6e-06 17:0.013561 18:0.000154 19:6e-06 21:0.014528 22:0.058783 23:0.027021 24:0.004944 26:0.009531 27:0.05895 28:0.001727 32:6e-06 37:0.000184 38:0.003745 39:0.000908 40:3e-05 42:0.003329 43:0.351223 44:0.032267 47:0.00089 48:0.039561 59:0.003478 60:0.000789 63:0.00397 64:0.189353 
7 1:0.203786 2:0.007048 3:0.008694 4:0.008952 5:0.025151 6:0.021461 7:0.010096 8:0.005867 9:0.004221 10:0.008989 11:0.00372 12:7e-06 16:3.7e-05 17:0.003159 18:0.000435 19:0.00014 20:4.4e-05 21:0.001919 22:0.101151 23:0.008221 24:0.007742 26:0.009004 27:0.071351 28:0.000996 30:6.6e-05 31:0.000221 32:0.000133 33:0.000111 37:0.000627 38:0.002384 39:0.000199 40:0.000111 42:0.001151 43:0.225565 44:0.016339 47:0.00372 48:0.011181 53:0.000258 54:1.5e-05 57:4.4e-05 58:1.5e-05 59:0.023055 60:0.001107 63:0.010856 64:0.190649 
7 1:0.070219 2:0.017947 3:0.000149 4:5e-06 5:0.014821 6:0.128293 7:0.001765 8:5e-06 10:0.000341 11:0.001445 12:0.000117 15:5e-06 16:0.000171 17:0.000912 18:0.001072 19:8e-05 21:0.000677 22:0.280341 23:0.032645 24:0.000197 26:0.015195 27:0.101771 28:0.003013 31:0.000592 32:0.001381 33:5e-06 37:1.1e-05 38:0.000635 39:0.000976 40:4.3e-05 42:0.000869 43:0.075035 44:0.016597 47:0.004517 48:0.037861 53:5e-06 54:6.4e-05 58:8e-05 59:0.000784 60:0.000517 63:0.000843 64:0.187995 
7 1:0.278102 2:0.011381 3:3e-05 4:1.2e-05 5:0.007688 6:0.076805 7:0.004709 8:0.000126 9:6e-05 10:0.022523 11:0.042721 12:7.2e-05 15:0.000547 16:2.4e-05 17:0.003357 18:0.000703 19:1.8e-05 20:6e-06 21:0.00582 22:0.092781 23:0.015015 24:6.6e-05 26:0.012492 27:0.17239 28:0.007243 31:0.036691 32:0.02015 37:0.00394 38:0.003544 39:0.000565 41:6e-05 42:0.003688 43:0.074426 44:0.005862 47:0.007694 48:0.029556 53:0.00012 54:7.8e-05 57:0.000144 58:0.003556 59:0.007976 60:0.001243 62:1.8e-05 63:0.004228 64:0.041772 
7 1:0.014156 2:0.010895 3:0.000679 5:0.001447 6:0.014931 7:0.003207 17:7.2e-05 18:0.000234 19:1.8e-05 21:0.000396 22:0.229802 23:0.028991 24:0.009838 26:0.012438 27:0.011477 28:0.0023 37:1.8e-05 38:0.0043 39:0.00427 40:6.6e-05 42:0.000462 43:0.487429 44:0.019135 47:1.2e-05 48:0.000258 59:0.006835 60:0.003958 63:0.000312 64:0.13206 
7 1:0.327211 2:0.075632 3:0.001541 4:0.000245 5:0.000427 6:0.210363 7:0.0904 8:0.000453 10:1.1e-05 11:0.034459 12:0.003008 16:0.000533 17:0.003435 18:0.002261 19:1.6e-05 21:0.000597 22:0.044187 23:0.048864 24:0.000235 25:6.9e-05 26:3.7e-05 27:0.096059 28:0.018389 32:0.003904 33:6.4e-05 34:2.1e-05 37:0.000128 38:0.001237 39:0.001147 41:6.9e-05 42:0.000192 43:0.013104 44:0.003461 45:3.7e-05 47:2.7e-05 48:0.006832 54:5e-06 58:0.000288 59:0.001061 60:0.000176 63:0.000421 64:0.009392 
7 1:0.131755 2:0.008581 3:0.000437 5:0.013531 6:0.044405 7:5e-06 10:5e-06 17:0.004011 18:0.000288 19:0.000229 20:1.6e-05 21:0.005909 22:0.243467 23:0.009013 24:0.000395 26:0.068512 27:0.245365 33:0.001461 37:0.000987 38:0.002032 39:6.9e-05 40:0.000107 42:0.002549 43:0.17192 44:0.010651 47:0.001456 48:0.023083 49:1.1e-05 53:0.000528 54:0.000357 57:1.1e-05 58:0.000272 59:0.002251 60:8e-05 62:1.1e-05 63:0.001099 64:0.005141 
7 1:0.040587 2:0.000821 3:1.1e-05 5:0.017419 6:0.126219 7:6.9e-05 10:0.033333 11:0.000405 17:0.007552 18:0.000373 19:5e-06 21:0.003915 22:0.155419 23:0.000539 26:0.109808 27:0.035504 31:2.7e-05 33:0.000213 37:0.000533 38:0.037216 39:6.4e-05 42:0.117093 43:0.18024 44:1.6e-05 47:8.5e-05 48:1.6e-05 53:9.6e-05 54:0.000459 58:0.000197 59:0.076453 60:5e-06 63:0.032971 64:0.022336 
7 1:0.277556 2:0.018006 3:0.008402 4:0.013928 5:0.005868 6:0.048408 7:0.00585 8:0.023009 9:1.8e-05 10:0.000342 11:0.000204 12:3e-05 13:4.8e-05 17:0.009874 18:0.000871 19:3e-05 20:1.2e-05 21:0.003135 22:0.095363 23:0.042042 24:0.044829 25:6.6e-05 26:0.001447 27:0.094535 28:0.018565 29:6.6e-05 32:0.000246 33:5.4e-05 34:6e-06 37:0.00012 38:0.002258 39:0.00024 40:6e-06 42:0.001069 43:0.233423 44:0.006198 47:0.000402 48:0.013904 53:6e-06 54:6e-06 58:4.8e-05 59:0.00194 60:6e-05 63:0.000715 64:0.026793 
7 1:0.086877 2:0.003129 3:0.000126 5:0.020535 6:0.105441 7:0.000246 8:2.4e-05 10:1.2e-05 11:1.8e-05 17:0.002066 18:0.000204 19:3e-05 21:0.003123 22:0.213141 23:0.005844 24:9e-05 26:0.020859 27:0.02803 28:0.014589 33:2.4e-05 37:1.2e-05 38:0.002264 39:0.000324 40:2.4e-05 42:0.006276 43:0.044529 44:0.002691 47:0.000462 48:0.000751 58:0.000829 59:0.017694 60:1.8e-05 63:0.161093 64:0.258625 
7 1:0.355253 2:0.069888 3:0.012832 4:0.0004 5:0.004501 6:0.008795 7:0.000155 8:1.1e-05 9:1.1e-05 10:4.3e-05 11:1.6e-05 17:0.004112 18:0.010027 19:0.004651 20:0.000891 21:0.00296 22:0.107904 23:0.019504 24:0.001803 25:0.000187 26:0.005083 27:0.011152 28:3.2e-05 30:5e-06 31:0.000229 32:1.1e-05 33:1.1e-05 34:3.2e-05 35:2.7e-05 37:1.1e-05 38:0.006603 39:0.005904 40:0.000757 42:0.005979 43:0.115557 44:0.00728 46:5e-06 47:0.005659 48:0.009861 54:5e-06 55:2.7e-05 58:5e-06 59:0.005131 60:0.000944 63:0.004496 64:0.211253 
7 1:0.282843 2:0.044736 3:0.000171 4:1.6e-05 5:0.017189 6:0.098357 7:0.001291 8:5e-06 10:6.9e-05 11:5.3e-05 12:5e-06 17:0.003915 18:0.003077 19:5e-06 21:0.013669 22:0.107184 23:0.002875 24:1.1e-05 26:0.001381 27:0.012587 28:0.000107 31:0.000139 32:2.7e-05 33:5e-06 34:1.1e-05 37:5e-06 38:0.001675 39:0.000453 42:0.000635 43:0.096459 44:0.001211 47:0.001909 48:0.006181 54:1.1e-05 55:1.1e-05 58:5e-06 59:0.008997 60:0.001013 63:0.007899 64:0.283808 
7 1:0.290878 2:0.031924 3:0.001198 4:0.000102 5:0.023558 6:0.06835 7:0.00467 8:0.000107 9:5e-06 10:0.006162 11:0.003117 12:7.6e-05 15:0.000472 16:0.000122 17:0.003523 18:0.001325 19:8.1e-05 20:7.1e-05 21:0.010472 22:0.115046 23:0.042142 24:0.000203 26:0.013665 27:0.046274 28:0.007533 31:0.000619 32:0.002335 37:0.000376 38:0.008071 39:0.000629 40:2.5e-05 42:0.064929 43:0.068132 44:0.015381 47:0.001279 48:0.020122 58:0.021543 59:0.026726 60:0.000259 63:0.022274 64:0.076223 
7 1:0.292422 2:0.04244 3:0.013735 4:0.000343 5:0.053554 6:0.111681 7:0.015482 8:0.000102 9:5.4e-05 10:0.044904 11:0.020861 12:0.00044 15:0.001711 16:0.001313 17:0.004458 18:0.001602 19:0.000488 20:0.000151 21:0.001446 22:0.093572 23:0.008735 24:0.00047 26:0.028807 27:0.057867 28:0.016699 31:0.010012 32:0.009693 38:0.001578 39:0.000259 42:0.002235 43:0.084639 44:0.005952 47:0.004572 48:0.019307 59:0.001777 60:0.000807 63:0.000627 64:0.045205 
7 1:0.134012 2:0.013898 3:0.011784 4:0.001544 5:0.018535 6:0.131081 7:0.003664 8:0.0003 10:0.001381 11:0.002787 12:0.001465 16:6e-06 17:0.004517 18:0.001309 19:0.000132 20:4.2e-05 21:0.008192 22:0.16048 23:0.012853 24:0.000745 25:3e-05 26:0.013802 27:0.04215 28:0.000793 31:6e-05 32:0.000354 37:0.000204 38:0.004973 39:0.001508 40:9e-05 42:0.006739 43:0.308931 44:0.005255 47:0.001477 48:0.003435 53:9e-05 54:2.4e-05 57:2.4e-05 58:8.4e-05 59:0.008234 60:0.001057 62:6e-06 63:0.004709 64:0.087243 
7 1:0.113605 2:0.007712 5:2.1e-05 6:0.004747 17:0.015563 18:0.005008 21:0.001061 22:0.175264 23:0.041504 27:0.00488 38:0.000965 39:0.006043 42:0.006501 43:0.170405 44:0.051845 47:5e-06 48:0.00144 59:0.00152 60:0.003728 63:0.002528 64:0.385653 
7 1:0.172607 2:0.010366 3:0.005814 4:0.013459 5:0.000438 6:0.070679 7:0.001363 8:0.010336 10:6e-06 11:0.000396 12:0.00758 16:0.00815 17:0.016805 18:0.001634 19:0.00018 20:0.000571 21:0.004787 22:0.339081 23:0.029423 24:0.011225 26:0.002643 27:0.047183 28:0.001441 32:0.000727 33:0.000943 37:0.000186 38:0.013664 39:0.001351 40:0.000535 42:0.002523 43:0.171243 44:0.009682 47:9e-05 48:0.00161 49:7.2e-05 53:8.4e-05 54:5.4e-05 55:1.8e-05 57:1.2e-05 58:0.000174 59:0.00373 60:0.000529 63:0.002072 64:0.034535 
7 1:0.073003 2:0.026107 3:0.015749 4:0.050747 5:0.037179 6:0.145147 7:0.000357 8:0.006416 10:0.031995 11:0.000416 17:0.001829 18:0.000357 19:0.000203 20:0.001365 21:0.001797 22:0.086688 23:0.01592 24:0.119989 26:0.038043 27:0.075451 28:0.000347 31:9.6e-05 36:1.1e-05 38:0.002043 39:0.000581 40:0.004683 42:0.001349 43:0.214123 44:0.015141 47:0.000192 48:0.00344 59:0.00384 60:0.000768 63:0.001499 64:0.023131 
7 1:0.347028 2:0.078063 3:0.001628 4:0.000353 5:0.001085 6:0.066196 7:0.009394 8:0.00041 10:3.8e-05 11:0.000101 12:1.3e-05 17:0.000252 18:0.000473 19:1.9e-05 20:3.8e-05 21:0.000303 22:0.060864 23:0.181716 24:0.00318 26:4.4e-05 27:0.037022 28:0.040013 32:0.002763 38:0.000694 39:0.000644 40:9.5e-05 42:0.017312 43:0.056555 44:0.024114 47:1.9e-05 48:0.003653 54:1.3e-05 58:0.001356 59:0.003886 60:0.00359 63:8.8e-05 64:0.056984 
7 1:0.195766 2:0.039159 3:0.002216 4:0.000132 5:0.001928 6:0.064631 7:0.005592 8:0.00021 10:0.000306 11:0.000709 12:2.4e-05 17:0.001526 18:0.000318 19:2.4e-05 20:1.2e-05 21:0.000973 22:0.146757 23:0.031105 24:0.000721 26:0.002583 27:0.125363 28:0.000715 31:2.4e-05 32:7.8e-05 38:0.002144 39:0.000336 40:1.8e-05 42:0.000853 43:0.200252 44:0.032511 47:0.00027 48:0.047063 59:0.000595 60:9.6e-05 63:0.000547 64:0.094444 
7 1:0.37812 2:0.010796 5:0.029425 6:0.033263 7:0.000689 8:6e-06 9:0.055216 10:0.003683 11:0.000449 12:0.000299 13:7.8e-05 14:4.8e-05 16:0.000246 17:0.000886 18:6.6e-05 21:0.012024 22:0.071263 23:0.010485 25:0.001257 26:0.028078 27:0.01903 28:4.8e-05 29:1.8e-05 30:0.006701 31:9e-05 32:8.4e-05 37:0.001689 38:0.000988 39:3.6e-05 41:0.002922 42:0.009407 43:0.109832 44:0.000994 46:0.000982 47:0.016611 48:0.003868 57:0.000359 58:0.001281 59:0.001784 60:4.8e-05 62:0.000186 63:0.017036 64:0.169629 
7 1:0.156853 2:0.158741 5:7.5e-05 6:0.035461 7:0.001525 8:5e-06 10:6.4e-05 11:0.001232 17:0.006336 18:0.001093 21:0.005936 22:0.053467 23:0.046512 24:0.000341 26:0.000427 27:0.058059 28:0.014832 32:8e-05 37:0.016912 38:0.006037 39:0.000981 41:5.3e-05 42:0.003056 43:0.160117 44:0.088331 47:0.000267 48:0.082144 53:0.003691 54:8.5e-05 57:0.011115 58:0.009243 59:0.004512 60:0.000587 62:0.000261 63:0.004213 64:0.067355 
7 1:0.395129 2:0.00445 3:1.2e-05 5:0.013658 6:0.014529 7:0.001081 8:6e-06 10:0.000595 11:0.002006 12:0.00033 15:0.000162 16:0.000655 17:0.024426 18:0.013892 19:4.2e-05 21:0.000871 22:0.050438 23:0.005009 24:1.2e-05 26:0.002114 27:0.00779 28:0.000649 30:6e-06 31:0.000559 32:0.001634 33:0.005778 34:0.004156 35:0.000288 37:0.000162 38:0.017778 39:0.040649 40:0.00033 42:0.001009 43:0.167309 44:0.011081 47:0.001934 48:0.005964 49:0.00361 50:0.000817 51:0.000414 52:2.4e-05 53:0.000174 54:0.005333 55:0.006793 56:0.000402 58:0.000252 59:0.070036 60:0.052132 63:0.000703 64:0.062817 
7 1:0.164488 2:0.018684 3:0.000181 4:1.4e-05 5:0.002144 6:0.018423 7:0.001042 8:0.000107 10:9e-06 11:0.000614 12:0.000256 16:0.000116 17:0.014251 18:0.003549 19:3.3e-05 21:0.013986 22:0.127088 23:0.03906 24:0.000405 26:0.001526 27:0.020856 28:0.001126 31:3.3e-05 32:0.0006 37:0.000967 38:0.020098 39:0.002605 40:6.5e-05 42:0.010581 43:0.079116 44:0.011856 47:0.001093 48:0.016367 53:5e-06 54:0.000451 55:2.8e-05 58:0.004479 59:0.045395 60:0.012893 63:0.020293 64:0.345116 
7 1:0.386131 2:0.046617 3:0.003287 4:9.6e-05 5:0.00021 6:0.020932 7:0.002709 8:0.000175 11:3.1e-05 12:5.3e-05 17:0.008394 18:0.002241 19:0.000897 21:0.004324 22:0.160495 23:0.038937 24:0.01133 26:0.000324 27:0.061462 28:0.00779 32:0.00028 33:0.000175 34:9e-06 37:0.00081 38:0.005584 39:0.000188 40:4.8e-05 42:0.005081 43:0.07877 44:0.019996 47:0.00014 48:0.010709 53:0.000118 54:3.5e-05 58:0.000403 59:0.001676 60:0.000162 63:0.000726 64:0.118656 
7 1:0.203514 2:0.010402 3:0.004354 4:0.000565 5:0.007856 6:0.174991 7:0.000204 8:1.2e-05 10:0.00364 11:5.4e-05 12:1.2e-05 17:0.004204 18:0.00039 19:0.000679 20:0.00042 21:0.004126 22:0.080348 23:0.01021 24:0.001261 25:0.000198 26:0.011303 27:0.017399 28:0.000174 32:6e-05 33:0.000156 37:0.000895 38:0.002985 39:0.000462 40:0.00206 41:9e-05 42:0.003916 43:0.414601 44:0.004529 47:0.000577 48:0.000186 53:1.2e-05 54:0.000216 55:3e-05 58:0.000192 59:0.002078 60:0.001183 62:3e-05 63:0.003045 64:0.026378 
7 1:0.26061 2:0.033476 3:0.038572 4:0.06061 5:0.000417 6:0.023652 7:0.001513 8:0.00023 12:5e-06 17:0.015342 18:0.004198 19:0.000219 20:0.006711 21:0.008925 22:0.233551 23:0.060604 24:0.003037 26:0.000519 27:0.028834 28:0.002257 32:5e-06 33:2.1e-05 34:5.3e-05 37:0.000112 38:0.021433 39:0.001316 40:0.000519 41:1.1e-05 42:0.013968 43:0.109412 44:0.006824 47:0.000112 48:0.005321 54:0.000128 55:5.3e-05 56:5e-06 58:4.8e-05 59:0.010663 60:0.000583 62:5e-06 63:0.005396 64:0.040727 
7 1:0.129175 2:0.002023 3:0.001 4:0.002246 5:8.8e-05 6:0.00093 7:0.000345 8:0.000515 11:0.000632 12:0.000292 16:0.000567 17:0.04962 18:0.000632 19:0.000251 20:0.000287 21:0.010333 22:0.416766 23:0.002234 24:0.001561 26:8.8e-05 27:0.061053 28:0.000854 31:6e-06 32:0.000257 33:0.024404 34:0.000164 35:5.8e-05 37:0.027865 38:0.01555 39:0.000444 40:0.000211 41:0.001649 42:0.011906 43:0.063842 44:0.007035 45:2.9e-05 47:0.00017 48:0.005404 49:0.010421 50:6e-06 53:0.006544 54:0.001047 55:1.2e-05 57:0.006193 58:0.025117 59:0.006959 60:0.000608 61:0.000754 62:0.000339 63:0.002193 64:0.099322 
7 1:0.164044 2:0.010811 3:0.000537 4:0.000194 5:0.005471 6:0.051304 7:0.007727 8:0.001075 10:0.003797 11:0.031841 12:0.003075 15:0.000203 16:0.003524 17:0.050485 18:0.000388 19:9e-06 21:0.012414 22:0.047216 23:0.018846 24:0.000546 26:0.003048 27:0.089956 28:0.018132 31:0.000414 32:0.010247 33:0.018758 37:0.024969 38:0.004907 39:0.000229 40:2.6e-05 41:0.000273 42:0.029198 43:0.105154 44:0.03052 46:1.8e-05 47:0.001084 48:0.055198 49:1.8e-05 53:0.007568 54:0.000167 57:0.001797 58:0.002934 59:0.00141 60:0.000282 61:3.5e-05 62:0.000211 63:0.002793 64:0.177145 
7 1:0.1723 2:0.017622 3:0.000613 4:0.000204 5:0.022108 6:0.137207 7:0.006595 8:0.000601 10:0.006793 11:0.005808 12:0.000102 15:0.000174 16:2.4e-05 17:0.002805 18:0.002126 19:1.2e-05 20:6e-06 21:0.001664 22:0.208655 23:0.018835 24:0.000114 25:0.000162 26:0.006258 27:0.026372 28:0.000931 31:0.000589 32:0.000216 33:6e-06 34:0.000523 37:2.4e-05 38:0.02976 39:0.005363 40:1.8e-05 42:0.010889 43:0.214847 44:0.001405 47:0.00206 48:0.008769 50:1.8e-05 53:1.8e-05 54:4.8e-05 55:0.000246 58:3.6e-05 59:0.003465 60:0.000793 63:0.001904 64:0.080913 
7 1:0.022405 2:0.008325 3:0.000272 4:5e-06 5:0.001024 6:0.045243 7:0.00128 8:1.6e-05 10:7.5e-05 11:0.000187 12:1.6e-05 15:0.00024 16:8.5e-05 17:0.000171 18:9.1e-05 19:2.1e-05 20:1.6e-05 21:0.000176 22:0.072715 23:0.130773 24:6.9e-05 26:0.001573 27:0.223163 28:0.022971 31:0.00016 32:0.000149 33:6.4e-05 37:2.7e-05 38:0.001493 39:0.000128 40:2.1e-05 42:0.021765 43:0.073717 44:0.034192 47:0.000139 48:0.007499 54:5e-06 58:0.149131 59:0.176912 60:4.8e-05 63:0.001088 64:0.002549 
7 1:0.150389 2:0.006187 3:0.003435 4:0.000619 5:0.001291 6:0.009899 7:0.000304 8:0.000107 12:7.5e-05 16:3.2e-05 17:0.011232 18:0.000971 19:2.7e-05 20:1.1e-05 21:0.004235 22:0.132859 23:0.040347 24:9.6e-05 26:0.000715 27:0.060064 28:5.9e-05 32:1.1e-05 33:1.6e-05 37:0.00104 38:0.005269 39:0.001056 40:5e-06 42:0.006411 43:0.324507 44:0.006352 47:5.9e-05 48:0.002715 49:5e-06 53:9.1e-05 54:2.7e-05 58:0.000448 59:0.093088 60:4.3e-05 63:0.12424 64:0.011669 
7 1:0.109135 2:0.005502 3:4.3e-05 5:0.031903 6:0.030483 7:0.000357 9:0.000164 10:0.006353 11:5.3e-05 15:1e-05 17:0.019696 18:0.001502 19:1.4e-05 21:0.01486 22:0.218072 23:0.116845 24:0.000256 25:1e-05 26:0.02528 27:0.039696 28:0.00028 30:5e-06 31:0.000106 32:5e-06 33:2.4e-05 37:6.8e-05 38:0.07457 39:0.002585 42:0.075261 43:0.171072 44:0.007594 47:0.001208 48:0.003169 54:5e-06 58:5.3e-05 59:0.012546 60:0.000232 63:0.002575 64:0.028406 
7 1:0.319541 2:0.020619 3:1.6e-05 5:0.004752 6:0.024645 7:0.004592 8:6.9e-05 10:1.6e-05 17:0.032128 18:0.000981 21:0.035243 22:0.115797 23:0.031483 24:0.000843 25:0.001376 26:0.004752 27:0.042565 28:0.003643 32:1.6e-05 33:4.8e-05 37:0.030325 38:0.019595 39:0.000544 41:4.8e-05 42:0.0192 43:0.064155 44:0.020795 47:0.000347 48:0.006075 58:0.010368 59:0.016768 60:0.000203 63:0.024469 64:0.143984 
7 1:0.108912 2:0.037728 3:0.003301 4:0.00016 5:0.000277 6:0.00312 7:0.001264 8:0.000139 11:0.00016 12:0.000437 16:6.4e-05 17:0.023643 18:0.010581 19:0.001296 20:9.6e-05 21:0.007808 22:0.138043 23:0.036133 24:0.000315 26:0.0044 27:0.031483 28:0.001397 32:0.000171 33:0.00048 34:8e-05 35:1.1e-05 37:0.00408 38:0.059813 39:0.013691 40:0.000128 41:1.1e-05 42:0.010672 43:0.232443 44:0.026875 47:0.000405 48:0.003168 49:5e-06 53:3.2e-05 54:0.002832 55:0.000165 56:3.2e-05 58:0.012107 59:0.033856 60:0.016336 63:0.004123 64:0.167728 
7 1:0.254357 2:0.011728 3:0.015403 4:0.001941 5:0.001952 6:0.015547 7:0.001072 8:0.0004 12:5e-06 17:0.021045 18:0.001227 19:0.000101 20:1.6e-05 21:0.025312 22:0.215461 23:0.032453 24:0.000336 26:0.00096 27:0.053872 28:5.3e-05 37:0.000133 38:0.010453 39:0.001232 40:6.9e-05 42:0.006235 43:0.070987 44:0.007045 47:0.000645 48:0.008075 58:0.000272 59:0.004848 60:0.000736 63:0.003483 64:0.232544 
7 1:0.26153 2:0.007087 3:0.000675 4:0.000264 5:0.006881 6:0.034174 7:0.001346 8:0.000327 10:0.001551 11:0.000633 12:9.5e-05 17:0.040718 18:0.000675 20:3.2e-05 21:0.013082 22:0.146908 23:0.027609 24:0.000248 26:0.004169 27:0.09029 28:0.002749 31:0.0001 32:0.000818 33:0.066438 34:0.000385 37:0.00428 38:0.007235 39:0.000338 40:2.1e-05 42:0.002528 43:0.123609 44:0.028876 47:0.000897 48:0.025034 49:0.001435 50:5e-06 53:0.004559 54:0.008 58:0.004148 59:0.002559 60:0.000127 62:1.6e-05 63:0.002929 64:0.074617 
7 1:0.290981 2:0.033739 3:0.004645 4:8e-05 5:0.001765 6:0.006011 7:0.028981 8:1.6e-05 11:0.000293 12:6.4e-05 17:0.032939 18:0.003093 19:0.000379 20:3.7e-05 21:0.008544 22:0.149307 23:0.036859 24:0.000496 25:0.000123 26:0.001099 27:0.058288 28:0.000469 32:7.5e-05 33:4.3e-05 34:3.7e-05 37:1.6e-05 38:0.024213 39:0.001163 40:0.000208 41:5e-06 42:0.017408 43:0.206912 44:0.004555 46:8e-05 47:0.000219 48:0.001088 58:4.3e-05 59:0.006352 60:0.000331 63:0.027189 64:0.051856 
7 1:0.273778 2:0.021184 3:0.004595 4:0.003908 5:0.000195 6:0.01987 7:0.000681 8:0.000724 11:0.000346 12:0.000103 16:3.2e-05 17:0.004627 18:0.004303 19:0.000292 20:0.000319 21:0.000168 22:0.10953 23:0.026659 24:0.009124 26:0.0002 27:0.05293 28:0.004822 32:0.00033 33:5e-06 34:2.2e-05 38:0.003216 39:0.003416 40:0.000141 42:0.000162 43:0.178059 44:0.025276 47:0.001627 48:0.084573 54:5e-06 55:5e-06 59:0.003714 60:0.002227 63:0.000243 64:0.158589 
7 1:0.087164 2:0.192764 3:3.6e-05 5:0.00037 6:0.043654 7:0.002448 17:0.005272 18:0.001881 21:0.00357 22:0.108501 23:0.176549 24:5.4e-05 26:6.6e-05 27:0.082657 28:0.012167 38:0.001104 39:0.000418 42:0.000591 43:0.062143 44:0.163737 46:6e-06 47:3e-05 48:0.050997 58:4.8e-05 59:0.000466 60:4.8e-05 62:1.2e-05 63:0.000436 64:0.002812 
7 1:0.261648 2:0.002681 3:0.000149 5:0.000287 6:0.002454 7:0.003964 8:3e-05 11:0.002961 12:0.021564 16:0.003779 17:0.043522 18:0.006478 19:1.8e-05 21:0.009994 22:0.320949 23:0.003427 24:0.000149 26:0.000472 27:0.00277 28:0.000967 32:0.00237 33:6e-06 37:9.6e-05 38:0.023009 39:0.001612 40:6e-06 42:0.00717 43:0.189958 44:0.001696 47:0.000442 48:0.005618 53:1.8e-05 54:6e-06 58:4.8e-05 59:0.004149 60:0.000161 63:0.002048 64:0.073325 
7 1:0.009705 2:0.00966 5:5e-05 6:0.000545 17:0.0009 18:0.002955 21:8e-05 22:0.25555 23:0.016375 24:0.002245 26:0.001635 27:0.003035 28:0.00011 38:0.00932 39:0.004055 40:0.00236 42:0.002055 43:0.100255 44:0.05501 47:0.01519 48:0.01546 58:5e-06 59:0.01145 60:0.006155 63:0.01386 64:0.46198 
7 1:0.246649 2:0.015435 3:0.000144 4:1.8e-05 5:0.004444 6:0.040547 7:0.000102 10:0.000444 11:0.000222 17:0.003874 18:0.00179 19:2.4e-05 21:0.012517 22:0.296589 23:0.01579 24:4.2e-05 26:0.005796 27:0.021255 28:7.2e-05 32:6e-06 38:0.020925 39:0.001075 40:1.8e-05 42:0.024312 43:0.100559 44:0.002114 47:0.000577 48:0.001658 54:6e-06 58:2.4e-05 59:0.018547 60:0.000541 63:0.01018 64:0.153706 
7 1:0.435772 2:0.087087 3:0.003375 4:0.006691 5:0.000498 6:0.139844 7:0.003393 8:0.002294 11:6e-05 12:0.000354 17:0.002288 18:0.004318 19:0.000126 20:0.000565 21:0.000577 22:0.148276 23:0.007712 24:0.003922 26:7.2e-05 27:0.003598 28:0.001171 32:6e-05 38:0.001724 39:0.000511 40:6e-06 41:6e-06 42:0.000492 43:0.025045 44:0.006925 47:2.4e-05 48:0.004186 58:1.2e-05 59:0.002354 60:0.00027 62:6e-06 63:0.000805 64:0.10558 
7 1:0.125123 2:0.001459 3:4.8e-05 4:3.6e-05 5:0.00033 6:0.003952 7:3e-05 11:6e-06 17:0.021333 18:0.001075 19:6.6e-05 20:0.000102 21:0.001489 22:0.06412 23:0.023099 24:5.4e-05 26:0.000294 27:0.079135 28:0.000312 33:0.006252 34:4.8e-05 37:0.002282 38:0.008342 39:0.000769 40:3.6e-05 42:0.001862 43:0.242462 44:0.088865 47:0.000505 48:0.039411 49:0.001489 53:0.005586 54:0.00227 55:1.8e-05 58:0.006889 59:0.01976 60:0.001087 63:0.006324 64:0.243676 
7 1:0.49588 2:0.047581 3:0.029647 4:0.021401 5:0.003287 6:0.019635 7:0.006647 8:0.006976 11:0.00015 12:0.005443 16:0.002174 17:0.020072 18:0.004425 19:0.000114 20:3e-05 21:0.013048 22:0.153281 23:0.012042 24:0.000946 26:0.000647 27:0.007024 28:0.003713 32:0.004605 33:0.000437 37:0.000772 38:0.009293 39:0.001443 40:2.4e-05 41:2.4e-05 42:0.005431 43:0.049275 44:0.004832 47:0.000359 48:0.00879 53:3e-05 54:6e-06 57:1.2e-05 58:0.000569 59:0.013204 60:0.000731 62:3.6e-05 63:0.006515 64:0.039449 
7 1:0.399291 2:0.00221 3:0.000126 4:6e-06 5:0.111736 6:0.010607 7:0.000276 9:0.041339 10:0.073399 11:0.003243 12:5.4e-05 13:0.00039 14:0.003568 15:0.000685 16:1.2e-05 17:0.036547 18:0.000757 19:1.2e-05 20:6e-06 21:0.007562 22:0.030565 23:0.004102 24:0.00027 25:0.000991 26:0.015646 27:0.015874 28:5.4e-05 30:0.002264 31:0.007237 32:0.001568 33:0.001189 37:0.004691 38:0.007039 39:0.000312 40:0.000198 41:6e-06 42:0.003279 43:0.039976 44:0.002174 47:0.002258 48:0.012655 54:1.2e-05 55:6e-06 58:0.000138 59:0.010078 60:0.00039 63:0.004985 64:0.140216 
7 1:0.293224 2:0.01719 3:0.000144 5:0.067791 6:0.040654 7:0.001316 8:0.001054 9:0.000588 10:0.006135 11:0.000209 12:0.001477 15:3.5e-05 16:3.1e-05 17:0.030248 18:0.001765 19:4e-06 21:0.026475 22:0.093974 23:0.031869 24:6.5e-05 25:0.000745 26:0.062863 27:0.054536 28:0.001015 30:0.000283 31:0.001076 32:0.000492 33:4.4e-05 34:4e-06 37:0.000392 38:0.015965 39:0.002763 40:4e-06 41:0.001142 42:0.007943 43:0.066819 44:0.01681 45:0.000475 46:0.000183 47:0.008885 48:0.00549 54:5.7e-05 55:2.2e-05 58:0.000649 59:0.015447 60:0.002322 61:4e-06 62:4.8e-05 63:0.015377 64:0.103895 
7 1:0.296078 2:0.02163 3:0.000191 5:0.001307 6:0.012113 7:0.000979 8:6e-06 11:0.000615 12:0.001104 16:0.000537 17:0.019469 18:0.001767 19:6e-06 21:0.02086 22:0.299349 23:0.094251 24:2.4e-05 26:0.000949 27:0.03366 28:0.000179 32:0.000101 33:0.000322 34:1.2e-05 37:0.001313 38:0.012281 39:0.001922 42:0.010854 43:0.083713 44:0.000728 47:0.000621 48:0.000394 53:0.000346 54:2.4e-05 57:0.000173 58:0.001493 59:0.035558 60:4.8e-05 62:6e-06 63:0.022507 64:0.022507 
7 1:0.092085 2:0.038341 3:0.012096 4:0.007488 5:0.001547 6:0.116277 7:0.004363 8:0.008459 11:0.000539 12:0.002421 16:0.001643 17:0.007435 18:0.006917 19:0.001504 20:0.001509 21:0.004176 22:0.278773 23:0.01104 24:0.007643 26:0.001541 27:0.005264 28:0.004789 31:5e-06 32:0.000347 33:6.9e-05 34:5e-06 35:5e-06 36:1.6e-05 37:0.004347 38:0.004261 39:0.003147 40:0.0008 41:0.000848 42:0.004021 43:0.083861 44:0.013445 46:1.1e-05 47:0.002736 48:0.026667 53:8.5e-05 54:5e-06 57:0.002352 58:0.001392 59:0.006155 60:0.002363 61:0.000784 62:0.001189 63:0.011253 64:0.213979 
7 1:0.296495 2:0.039685 3:0.04303 4:0.01322 5:0.04185 6:0.293135 7:0.00046 8:0.001185 11:0.00018 12:1e-05 17:0.00173 18:0.00088 19:0.00129 20:0.00308 21:0.001765 22:0.154205 23:0.007365 24:0.026505 25:1e-05 26:0.000745 27:0.00236 28:0.000665 32:0.000665 37:0.000155 38:0.007285 39:0.00092 40:0.000495 41:1e-05 42:0.00544 43:0.02305 44:0.003345 47:0.000205 48:0.00064 53:2e-05 54:5e-06 57:5e-06 58:1e-05 59:0.002465 60:0.00053 63:0.00295 64:0.021955 
7 1:0.218837 2:0.016347 3:0.000229 5:0.004608 6:0.029467 7:0.001141 10:5e-06 11:0.000315 17:0.011504 18:0.000955 19:4.3e-05 21:0.011579 22:0.293333 23:0.004661 24:5e-06 26:0.000992 27:0.005333 28:5.3e-05 37:1.1e-05 38:0.011349 39:0.000997 42:0.006933 43:0.086384 44:0.000208 47:4.8e-05 48:0.000293 58:0.015541 59:0.030661 60:0.000208 63:0.049061 64:0.198896 
7 1:0.155886 2:0.004697 5:0.000733 6:0.004456 7:3.6e-05 9:6e-06 10:0.000168 11:0.001213 12:1.8e-05 15:0.000108 16:0.000252 17:0.013832 18:0.251904 19:1.2e-05 21:0.000577 22:0.071141 23:0.002378 26:0.012426 27:0.016426 28:5.4e-05 31:7.8e-05 32:0.000835 33:0.005453 34:0.000288 35:1.2e-05 37:0.000312 38:0.005718 39:0.005075 42:0.00206 43:0.394925 44:0.000198 46:6e-06 47:0.000973 48:0.002871 49:0.001976 50:0.000198 53:0.000577 54:0.001844 55:0.000114 58:0.004048 59:0.003538 60:0.000378 62:6e-06 63:0.000745 64:0.031447 
7 1:0.003259 2:9.6e-05 5:0.003651 6:0.009952 21:2.4e-05 22:0.310102 23:0.010036 24:0.000108 26:0.017084 27:0.151307 28:4.8e-05 31:1.2e-05 38:0.000289 39:0.000229 40:1.2e-05 42:0.00112 43:0.192566 44:0.001127 47:0.002006 48:0.00203 59:0.000271 60:0.000169 63:0.000476 64:0.294024 
7 1:0.219995 2:0.013088 3:0.011664 4:0.006725 5:0.021483 6:0.062869 7:0.000875 8:0.001915 10:0.000459 11:0.000139 17:0.002192 18:0.000667 19:0.000224 20:0.000192 21:0.006459 22:0.241227 23:0.016325 24:0.010651 26:0.010005 27:0.052741 28:0.001643 31:4.3e-05 32:7.5e-05 37:1.6e-05 38:0.002197 39:0.000267 40:0.000171 42:0.00632 43:0.059333 44:0.006523 47:0.002715 48:0.004123 54:5e-06 58:0.000597 59:0.001211 60:0.000347 63:0.003755 64:0.230768 
7 1:0.47397 2:0.023903 3:0.002141 5:0.005048 6:0.051532 7:0.00374 8:7e-06 9:7.4e-05 10:0.000141 11:0.002892 12:0.000253 16:3.7e-05 17:0.011695 18:0.00148 19:3.7e-05 21:0.006959 22:0.168208 23:0.009428 24:2.2e-05 25:0.000112 26:0.005903 27:0.042372 28:0.002587 31:3.7e-05 32:0.001859 34:7e-06 37:0.000104 38:0.007755 39:0.000885 42:0.004907 43:0.123628 44:0.002007 47:0.002431 48:0.004156 54:7e-06 58:8.2e-05 59:0.006758 60:0.000454 63:0.004781 64:0.027599 
7 1:0.233301 2:0.002773 3:2.7e-05 5:0.007509 6:0.018197 7:7.5e-05 8:5.9e-05 17:0.000507 18:7.5e-05 21:0.003104 22:0.21056 23:0.025051 24:0.000347 26:0.018091 27:0.098629 28:0.021045 37:5e-06 38:0.000112 39:2.1e-05 42:0.001029 43:0.171189 44:0.014853 47:0.001083 48:0.017947 58:1.6e-05 59:0.000219 63:0.000448 64:0.153728 
7 1:0.309088 2:0.058651 3:0.073579 4:0.001045 5:0.001152 6:0.016544 7:0.007765 8:0.002475 11:0.000309 17:0.000619 18:0.001077 19:0.013339 20:6.9e-05 21:0.000976 22:0.172437 23:0.057675 24:0.002683 25:5e-06 26:0.001152 27:0.081328 28:0.000395 33:5e-06 34:5e-06 37:1.1e-05 38:0.002059 39:0.001643 40:5e-06 41:1.1e-05 42:0.001733 43:0.090565 44:0.002544 47:0.001323 48:0.003088 53:5e-06 59:0.004528 60:0.002075 63:0.003067 64:0.084971 
7 1:0.550923 2:0.038059 3:0.000405 4:1.6e-05 5:0.005291 6:0.043872 7:0.002347 8:0.000283 11:0.000117 12:0.00024 16:8.5e-05 17:0.004443 18:0.001637 19:6.9e-05 20:1.1e-05 21:0.001909 22:0.245536 23:0.00656 24:0.000165 26:0.001264 27:0.007595 28:0.000512 32:0.000128 33:9.1e-05 34:1.1e-05 37:0.000101 38:0.003019 39:0.00064 40:1.6e-05 41:1.6e-05 42:0.001227 43:0.041099 44:0.000592 47:0.000251 48:0.001349 50:5e-06 54:4.8e-05 56:1.1e-05 58:3.2e-05 59:0.002955 60:0.000128 63:0.001531 64:0.035413 
7 1:0.392037 2:0.022261 3:5e-06 5:0.029856 6:0.038992 7:0.000539 8:5e-06 11:0.000277 12:3.2e-05 17:0.004091 18:0.002107 21:0.002704 22:0.243888 23:0.014677 26:0.000795 27:0.003648 28:0.000864 32:5.3e-05 33:2.1e-05 34:1.6e-05 37:0.000139 38:0.012256 39:0.006416 40:5e-06 42:0.002091 43:0.087861 44:0.000384 47:0.000245 48:0.000133 54:5.3e-05 55:1.1e-05 58:0.000427 59:0.003669 60:0.000768 63:0.001531 64:0.127141 
7 1:0.173167 2:0.012342 3:0.001808 4:0.002826 5:0.005751 6:0.017964 7:0.003495 8:8.5e-05 11:0.001025 12:0.001046 16:0.000285 17:0.169317 18:0.002263 19:0.000121 20:0.000811 21:0.069523 22:0.117331 23:0.026448 24:0.000598 26:0.001089 27:0.029452 28:0.003658 31:3.6e-05 32:0.000548 33:0.002961 37:0.065815 38:0.029502 39:0.002448 40:5.7e-05 41:0.000883 42:0.017139 43:0.096185 44:0.009836 47:0.000747 48:0.003815 53:0.007993 54:0.000391 57:0.01553 58:0.011957 59:0.027815 60:0.001915 61:3.6e-05 62:0.000996 63:0.026078 64:0.036911 
7 1:0.274501 2:0.010464 3:0.005851 4:3.2e-05 5:0.007968 6:0.017504 7:0.006165 8:0.007835 9:5e-06 10:0.002656 11:0.002192 12:0.00272 15:0.000208 16:0.000421 17:0.076347 18:0.002544 19:0.000352 20:1.6e-05 21:0.033835 22:0.140811 23:0.008224 24:0.005131 26:0.004325 27:0.02448 28:0.004651 31:0.007739 32:0.004656 33:1.1e-05 37:0.000176 38:0.010171 39:0.001445 40:0.000443 42:0.002805 43:0.052208 44:0.014848 47:0.004885 48:0.023877 58:1.1e-05 59:0.0012 60:0.000917 63:0.001147 64:0.234224 
7 1:0.494832 2:0.0844 3:0.058048 4:0.086459 5:0.001013 6:0.034832 7:0.010213 8:0.043472 11:7.5e-05 12:0.00024 16:1.1e-05 17:0.002203 18:0.001088 19:0.000133 20:0.000224 21:0.003259 22:0.06152 23:0.025072 24:0.011392 26:0.000261 27:0.015664 28:0.00848 31:1.1e-05 32:0.000357 33:0.00024 35:1.6e-05 36:5e-06 37:0.000112 38:0.000709 39:0.000288 40:0.000139 42:0.000907 43:0.024181 44:0.008165 47:0.000219 48:0.002848 49:3.7e-05 53:5.3e-05 54:1.6e-05 56:5e-06 58:2.1e-05 59:0.000608 60:0.00024 63:0.000869 64:0.017061 
7 1:0.292373 2:0.007243 3:2.1e-05 5:0.00496 6:0.013339 7:0.000176 9:2.7e-05 10:0.001627 11:0.000843 15:3.2e-05 16:5e-06 17:0.037461 18:0.007685 19:0.000181 21:0.017317 22:0.164981 23:0.011915 24:2.7e-05 26:0.006091 27:0.018181 28:0.000448 30:1.1e-05 31:0.001963 32:0.00168 33:0.008699 34:0.000272 35:0.000107 37:0.005237 38:0.027616 39:0.008032 40:7.5e-05 41:0.000469 42:0.012341 43:0.124624 44:0.019408 46:1.1e-05 47:0.003493 48:0.033547 49:0.000203 53:0.006597 54:0.001963 55:0.000309 57:0.01048 58:0.003285 59:0.010645 60:0.002603 61:0.005168 62:0.002923 63:0.014149 64:0.109157 
7 1:0.168012 2:0.002414 3:0.00015 4:0.000174 5:0.0157 6:0.044895 7:0.001916 8:0.000408 10:0.005994 11:0.005994 12:0.0003 15:5.4e-05 16:0.000144 17:0.01955 18:0.000324 19:4.2e-05 20:3e-05 21:0.036619 22:0.118853 23:0.00955 24:0.000282 25:0.000258 26:0.109351 27:0.092967 28:0.008787 31:0.00758 32:0.038084 33:0.003261 34:7.8e-05 37:0.004384 38:0.021267 39:0.000384 40:1.2e-05 41:0.01421 42:0.020036 43:0.038444 44:0.006294 46:7.2e-05 47:0.003411 48:0.047838 49:0.00012 50:6e-06 53:0.001363 54:0.014408 55:6e-05 56:6e-06 57:0.000757 58:0.037634 59:0.013165 60:0.000523 61:6.6e-05 62:0.005826 63:0.007399 64:0.070541 
7 1:0.103106 2:0.022569 3:0.003979 4:0.020673 5:0.000137 6:0.002427 7:0.000402 8:0.000418 12:0.000273 17:0.014001 18:0.002596 19:0.000731 20:0.006824 21:0.004421 22:0.049511 23:0.008206 24:0.004027 26:0.000217 27:0.005281 28:0.000563 32:4e-05 33:8e-06 37:0.002492 38:0.011695 39:0.001374 40:0.000466 41:3.2e-05 42:0.016196 43:0.125241 44:0.006928 47:0.005321 48:0.004549 53:4e-05 54:8e-06 57:8e-05 58:0.002733 59:0.055314 60:0.000547 62:0.000956 63:0.075971 64:0.439646 
7 1:0.295347 2:0.224592 3:0.000973 4:0.000139 5:0.000326 6:0.079988 7:0.03258 8:0.005317 11:0.001215 12:0.031474 16:0.010145 17:0.041867 18:0.021704 21:0.016731 22:0.138157 23:0.033172 24:0.000151 26:0.000109 27:0.011915 28:0.012483 32:0.002532 33:6e-06 37:0.000665 38:0.00035 39:0.000302 42:0.000151 43:0.006979 44:0.012181 47:6e-05 48:0.013251 59:0.000115 60:5.4e-05 63:9.1e-05 64:0.004876 
7 1:0.191285 2:0.01704 3:0.021568 4:5e-06 5:0.017259 6:0.015824 7:0.001957 8:0.000507 10:3.2e-05 11:0.000133 12:0.001307 17:0.014896 18:0.003723 19:0.001083 20:1.1e-05 21:0.021184 22:0.134256 23:0.001291 24:0.000405 25:8e-05 26:0.011696 27:0.001723 28:0.003296 30:1.1e-05 31:3.7e-05 32:0.000133 33:0.00056 34:0.000208 35:5e-06 37:0.002197 38:0.082533 39:0.00208 40:0.000187 41:0.000139 42:0.175029 43:0.089957 44:0.001813 46:0.000155 47:0.006528 48:0.00224 49:1.1e-05 53:2.1e-05 54:0.000256 55:3.7e-05 57:5e-06 58:0.002064 59:0.038725 60:0.000315 62:6.9e-05 63:0.125408 64:0.008715 
7 1:0.429147 2:0.061008 3:0.004645 5:0.003867 6:0.051483 7:0.00376 8:4.3e-05 11:1.1e-05 17:0.020677 18:0.00032 19:5.3e-05 21:0.011877 22:0.08608 23:0.020277 24:0.000197 26:0.000821 27:0.027877 28:0.002139 37:5e-06 38:0.003355 39:0.000192 42:0.003493 43:0.051552 44:0.012203 47:0.000395 48:0.027413 58:6.9e-05 59:0.001573 60:6.9e-05 63:0.002304 64:0.173093 
7 1:0.278924 2:0.011162 3:0.000544 4:4.3e-05 5:0.058416 6:0.176122 7:0.000373 8:4.3e-05 10:0.014269 11:0.00063 12:1.8e-05 15:1.2e-05 17:0.007914 18:0.000385 19:4.3e-05 20:6e-06 21:0.006 22:0.135835 23:0.006612 24:1.8e-05 26:0.046294 27:0.080624 28:8e-05 31:0.003872 32:4.3e-05 33:2.4e-05 37:5.5e-05 38:0.008196 39:0.000208 40:3.7e-05 42:0.004703 43:0.045266 44:0.000691 47:0.00463 48:0.003468 54:6.7e-05 55:1.2e-05 58:2.4e-05 59:0.009352 60:0.00093 63:0.003144 64:0.090911 
7 1:0.276725 2:0.039291 3:0.105547 4:0.011029 5:0.002528 6:0.025301 7:0.051856 8:0.025696 10:3.2e-05 11:0.000672 12:0.000213 17:0.014688 18:0.001344 19:0.000213 20:1.6e-05 21:0.01336 22:0.037525 23:0.015003 24:0.016651 26:0.000581 27:0.011984 28:0.011867 31:5e-06 32:0.0004 33:6.4e-05 34:5e-06 35:5e-06 37:0.014069 38:0.005717 39:0.000853 40:9.1e-05 41:0.005909 42:0.003968 43:0.022747 44:0.024416 46:5e-06 47:0.000299 48:0.040971 53:3.2e-05 54:3.7e-05 57:0.005264 58:0.003403 59:0.002245 60:0.000848 61:0.009515 62:0.011179 63:0.00496 64:0.180869 
7 1:0.074685 2:0.01761 3:0.000492 4:9e-05 5:0.003027 6:0.020156 7:0.031231 8:0.000108 9:0.000258 10:0.001297 11:4.8e-05 12:0.000108 13:4.8e-05 14:0.000144 15:6e-06 16:1.8e-05 17:0.000913 18:7.2e-05 21:0.0003 22:0.0157 23:0.05027 24:6.6e-05 25:0.000138 26:0.000967 27:0.129123 28:0.338847 29:0.00027 30:0.001231 31:0.00224 32:0.000198 33:7.2e-05 37:0.000613 38:0.000715 39:3.6e-05 42:0.000252 43:0.074619 44:0.072282 45:0.000132 46:0.000222 47:0.018667 48:0.095063 53:0.000366 54:0.000517 57:2.4e-05 58:0.00048 59:0.000336 60:3.6e-05 61:3.6e-05 62:2.4e-05 63:0.009267 64:0.036577 
7 1:0.434224 2:0.00512 5:0.008165 6:0.012672 7:5e-06 10:5e-06 17:0.011472 18:0.00304 21:0.007861 22:0.192336 23:0.006267 24:5e-06 26:0.001435 27:0.007792 31:5e-06 32:5e-06 33:9.1e-05 37:0.000171 38:0.005419 39:0.000981 42:0.002859 43:0.085285 44:0.003141 47:0.000608 48:0.004405 54:8e-05 58:2.7e-05 59:0.006619 60:0.000699 63:0.003883 64:0.195323 
7 1:0.255365 2:0.029258 3:0.001992 5:0.033932 6:0.055898 7:0.001484 10:0.001055 11:0.000234 12:5.2e-05 17:0.011589 18:0.011536 19:0.001797 20:0.000221 21:0.003763 22:0.185859 23:0.016862 24:0.000612 26:0.008138 27:0.007161 28:0.000443 32:9.1e-05 33:0.000169 34:2.6e-05 37:0.000234 38:0.015911 39:0.024974 40:0.000169 42:0.005417 43:0.151667 44:0.011003 47:0.000456 48:0.001289 54:3.9e-05 55:1.3e-05 58:0.000156 59:0.015326 60:0.057344 63:0.007695 64:0.080768 
7 1:0.187777 2:0.001289 5:0.120006 6:0.085476 7:0.000145 10:6.6e-05 11:0.001223 12:0.002078 15:7.2e-05 16:0.002271 17:0.017958 18:0.000361 21:0.092452 22:0.204181 23:0.00703 25:1.8e-05 26:0.007361 27:0.016747 28:1.8e-05 32:0.000566 37:0.000982 38:0.030151 39:0.000127 41:4.8e-05 42:0.025705 43:0.123175 44:0.009831 47:0.000458 48:0.003006 53:6e-06 57:1.2e-05 58:0.000265 59:0.006392 60:3e-05 63:0.037151 64:0.015566 
7 1:0.534416 2:0.030843 5:0.018645 6:0.112288 7:0.011557 8:1.1e-05 11:4.8e-05 12:4.8e-05 16:5e-06 17:0.000363 18:7.5e-05 19:5e-06 21:0.004021 22:0.092256 23:0.006347 25:2.7e-05 26:0.006043 27:0.013744 28:0.002235 32:0.000107 38:0.000549 39:7.5e-05 40:5e-06 42:0.004704 43:0.065136 44:0.008533 46:1.6e-05 47:0.010016 48:0.007531 59:0.000992 60:0.000112 63:0.009952 64:0.059296 
7 1:0.758891 2:0.038096 3:5e-06 5:0.004432 6:0.010107 7:0.000848 8:0.000299 10:1.6e-05 11:1.6e-05 12:0.00032 17:0.025157 18:0.000533 21:0.008261 22:0.021611 23:0.008421 24:4.3e-05 26:0.000251 27:0.018992 28:0.000416 31:5e-06 32:5e-06 33:3.2e-05 34:8.5e-05 37:4.3e-05 38:0.002811 39:0.000341 42:0.002587 43:0.01512 44:0.007941 47:0.000117 48:0.003877 50:2.1e-05 51:5e-06 54:1.6e-05 55:4.3e-05 58:1.6e-05 59:0.009808 60:0.000176 63:0.009056 64:0.051179 
7 1:0.157522 2:0.017851 3:0.002639 4:0.000155 5:0.005534 6:0.02883 7:0.000806 8:0.000484 10:0.010472 11:0.00551 12:0.000442 15:0.000746 16:0.000675 17:0.009385 18:0.001182 19:0.000884 20:0.000442 21:0.018913 22:0.126442 23:0.015481 24:0.000364 25:6e-06 26:0.01311 27:0.080191 28:0.002442 30:6e-06 31:0.010012 32:0.023188 33:3e-05 37:0.001731 38:0.005164 39:0.000633 40:0.000161 41:0.000346 42:0.012943 43:0.188155 44:0.008704 46:2.4e-05 47:0.007863 48:0.056322 53:4.8e-05 57:0.000484 58:0.001188 59:0.013648 60:0.000746 61:4.8e-05 62:0.000364 63:0.021445 64:0.146239 
7 1:0.069861 2:0.012779 3:0.015381 4:0.038261 5:0.001547 6:0.009083 7:0.00104 8:0.003461 11:2.7e-05 12:2.1e-05 16:5e-06 17:0.001328 18:0.000587 19:0.000437 20:0.000336 21:0.004059 22:0.169696 23:0.009899 24:0.005925 26:0.006139 27:0.011259 28:0.000539 32:6.9e-05 38:0.070875 39:0.000683 40:0.000363 42:0.175275 43:0.284645 44:0.003115 47:0.000592 48:0.001707 59:0.007712 60:0.00016 63:0.017595 64:0.075541 
7 1:0.275296 2:0.007712 3:0.00016 4:1.1e-05 5:0.004256 6:0.057605 7:0.001152 8:5e-06 10:0.015637 11:0.015947 15:5e-06 17:0.009904 18:0.001931 19:6.9e-05 20:8e-05 21:0.013472 22:0.166539 23:0.008347 24:0.000123 26:0.007573 27:0.068181 28:9.6e-05 31:0.000181 32:3.7e-05 37:0.000187 38:0.016283 39:0.000539 40:0.000112 41:5e-06 42:0.010875 43:0.105941 44:0.001781 47:0.000357 48:0.002693 55:1.1e-05 58:0.000155 59:0.011915 60:0.000139 63:0.130133 64:0.064555 
7 1:0.028399 2:0.00453 3:0.003443 4:0.001874 5:0.000202 6:0.019246 7:0.000404 8:2.7e-05 11:2.7e-05 12:2.2e-05 17:0.00829 18:0.002486 19:0.000557 20:0.000514 21:0.084847 22:0.327076 23:0.041508 24:0.000689 25:2.2e-05 26:0.037809 27:0.308148 28:0.000814 32:5.5e-05 37:5e-06 38:0.001601 39:0.000885 40:0.000137 42:0.001251 43:0.04247 44:0.022077 47:2.2e-05 48:0.000716 58:1.6e-05 59:0.001383 60:0.000601 63:0.000475 64:0.057372 
7 1:0.188885 2:0.015333 3:0.009941 4:0.008987 5:0.003531 6:0.026912 7:0.007696 8:0.014635 9:5e-06 10:0.002011 11:0.006816 12:0.003099 15:0.000149 16:0.002139 17:0.049627 18:0.001579 19:0.00072 20:0.000587 21:0.080203 22:0.163104 23:0.020373 24:0.003275 26:0.004624 27:0.095344 28:0.027259 31:0.000523 32:0.01672 33:0.000272 34:2.7e-05 37:0.005579 38:0.0204 39:0.000837 40:0.000379 41:1.1e-05 42:0.017776 43:0.092347 44:0.011333 46:5.3e-05 47:0.003013 48:0.041541 53:4.3e-05 54:5.9e-05 58:0.00056 59:0.005147 60:0.000203 62:6.9e-05 63:0.006059 64:0.040219 
7 1:0.182816 2:0.012059 3:0.001429 4:0.000651 5:0.020421 6:0.082827 7:0.00056 8:3.7e-05 10:0.000224 11:0.000171 12:5e-06 17:0.00208 18:0.00088 19:0.000171 20:0.000464 21:0.004437 22:0.231621 23:0.011845 24:0.000389 26:0.001435 27:0.005051 28:0.0016 32:0.000101 33:1.1e-05 37:2.1e-05 38:0.002507 39:0.000453 40:5e-06 42:0.003515 43:0.025723 44:0.000229 47:0.000117 48:4.3e-05 58:0.019696 59:0.010187 60:9.1e-05 62:0.008661 63:0.143376 64:0.224091 
7 1:0.122396 2:0.012679 3:0.00024 4:0.000222 5:0.009021 6:0.054216 7:0.001423 8:0.001231 10:0.003802 11:0.024138 12:0.000324 15:6e-06 16:0.000144 17:0.015165 18:0.00018 21:0.009898 22:0.074859 23:0.01039 24:0.000228 26:0.001748 27:0.1863 28:0.010126 31:0.011327 32:0.052216 33:6e-06 37:0.00036 38:0.002703 39:0.00012 42:0.002228 43:0.035435 44:0.012979 47:0.000709 48:0.035423 58:0.000126 59:0.003934 60:9e-05 62:6e-06 63:0.006096 64:0.297502 
7 1:0.292672 2:0.002384 3:4.8e-05 4:5e-06 5:0.012965 6:0.021376 17:0.016581 18:0.001152 19:1.1e-05 20:1.1e-05 21:0.007339 22:0.101243 23:0.007685 24:1.6e-05 26:0.001104 27:0.014229 28:1.6e-05 33:0.000213 37:0.000347 38:0.003936 39:0.000469 40:5e-06 42:0.002469 43:0.277781 44:0.029616 47:0.002448 48:0.071915 49:2.7e-05 53:9.1e-05 54:0.000112 58:0.000907 59:0.004075 60:0.000587 62:2.1e-05 63:0.040187 64:0.085957 
7 1:0.03821 2:0.005604 3:6e-06 5:6e-06 6:0.005778 7:0.00048 11:4.8e-05 18:6e-05 22:0.016685 23:0.008589 27:0.202234 28:0.004799 32:0.00039 39:3e-05 43:0.132913 44:0.015628 48:0.058402 60:1.2e-05 64:0.510126 
7 1:0.168144 2:0.002613 3:0.000853 4:5.3e-05 5:0.017595 6:0.022021 7:0.000176 8:0.000128 10:0.006128 11:4.8e-05 17:0.010208 18:0.000555 19:8.5e-05 21:0.012011 22:0.190325 23:0.008645 24:0.000192 26:0.034496 27:0.025408 28:9.6e-05 31:0.000619 33:0.002331 37:0.001221 38:0.006976 39:0.000709 40:9.6e-05 42:0.013637 43:0.151109 44:0.002907 47:0.0048 48:0.004976 49:0.000155 53:0.001573 54:0.001355 57:1.6e-05 58:0.005296 59:0.009285 60:0.000491 62:5e-06 63:0.011632 64:0.281029 
7 1:0.180609 2:0.000794 3:0.001516 4:0.000173 5:0.000549 6:0.000227 7:0.000227 8:0.000412 12:0.000179 16:7.2e-05 17:0.014167 18:0.000161 19:1.2e-05 20:1.8e-05 21:0.022125 22:0.038901 23:0.000603 24:0.000107 25:1.2e-05 26:0.000663 27:0.000484 28:0.000149 32:0.000131 33:0.000143 37:0.006478 38:0.017558 39:0.000328 40:2.4e-05 41:0.000173 42:0.03886 43:0.224788 44:0.00917 46:1.2e-05 47:0.000304 48:0.002585 53:6e-05 54:6e-06 57:0.000239 58:0.002406 59:0.079033 60:0.006651 62:0.000101 63:0.027445 64:0.321343 
7 1:0.270064 2:0.067707 3:0.014544 4:0.000539 5:0.019952 6:0.103589 7:0.026603 8:0.002741 10:0.000251 11:0.000373 12:0.000117 17:0.009915 18:0.001136 19:0.000149 20:4.8e-05 21:0.007765 22:0.198741 23:0.0236 24:0.002016 26:0.004139 27:0.046517 28:0.005237 32:5.9e-05 34:5e-06 37:2.1e-05 38:0.006128 39:0.000779 40:5e-06 42:0.011515 43:0.079077 44:0.013136 47:0.000853 48:0.007147 53:4.8e-05 57:1.6e-05 58:0.001531 59:0.005296 60:0.000171 63:0.00872 64:0.059749 
7 1:0.112613 2:0.035648 3:0.001392 5:0.005387 6:0.039909 7:0.019957 11:5e-06 17:0.0148 18:0.000736 19:1.6e-05 21:0.019845 22:0.16352 23:0.029568 24:8e-05 26:0.008117 27:0.026523 28:0.000976 31:5e-06 32:0.001061 37:0.00496 38:0.005147 39:3.7e-05 41:0.001488 42:0.012443 43:0.070256 44:0.007259 47:0.003061 48:0.067856 58:0.002501 59:0.046917 60:1.6e-05 63:0.190763 64:0.107136 
7 1:0.08368 2:0.019701 3:0.004389 4:0.000608 5:0.057067 6:0.091424 7:0.000779 8:0.000203 10:0.010843 11:0.000848 15:1.1e-05 17:0.021963 18:0.001749 19:0.000661 20:3.7e-05 21:0.037109 22:0.155616 23:0.010261 24:0.002683 26:0.022757 27:0.03664 28:0.001088 31:0.006928 32:0.004725 33:1.6e-05 37:0.001659 38:0.048752 39:0.0056 40:0.007328 42:0.034304 43:0.124917 44:0.014357 47:0.001931 48:0.040501 54:0.000123 58:0.001605 59:0.011387 60:0.003083 63:0.005333 64:0.127333 
7 1:0.35064 2:0.007941 3:0.002523 4:0.000123 5:0.035408 6:0.032619 7:0.00072 8:0.000347 10:0.007563 11:0.005056 12:0.000165 14:5e-06 15:0.003456 16:0.000795 17:0.026661 18:0.004981 19:0.000672 20:0.004501 21:0.008325 22:0.089045 23:0.005168 24:0.001253 26:0.011701 27:0.026864 28:0.001317 31:0.007349 32:0.008032 33:0.000704 34:0.000528 35:3.2e-05 36:0.001611 37:0.000325 38:0.024805 39:0.002555 40:0.006347 42:0.01112 43:0.047765 44:0.004149 47:0.004896 48:0.036352 49:5.3e-05 50:0.000123 51:5e-06 52:7.5e-05 54:0.000485 55:0.000293 56:0.000219 58:0.005259 59:0.016501 60:0.002037 62:6.4e-05 63:0.006955 64:0.183509 
7 1:0.211958 2:0.029429 3:0.052655 4:0.071387 5:0.000649 6:0.013934 7:0.002871 8:0.000751 9:3e-05 10:0.000192 11:0.000108 12:0.000276 14:1.8e-05 17:0.016991 18:0.001399 19:0.00024 20:0.00576 21:0.007838 22:0.042174 23:0.008114 24:0.035351 26:0.000517 27:0.008673 28:0.000474 31:6e-06 32:0.000174 37:0.000312 38:0.015459 39:0.000667 40:0.000961 42:0.052577 43:0.042408 44:0.017435 47:0.000462 48:0.017219 55:6e-06 58:0.15415 59:0.122168 60:0.000517 63:0.02627 64:0.037417 
7 1:0.291819 2:0.028416 3:0.007232 4:0.001371 5:0.003493 6:0.011216 7:0.017563 8:0.022501 10:2.1e-05 11:0.000128 12:0.000411 17:0.005813 18:0.004672 19:0.000304 20:1.6e-05 21:0.00376 22:0.083408 23:0.033104 24:0.065669 26:0.002859 27:0.015243 28:0.066459 31:5e-06 32:0.000501 33:0.000101 34:2.7e-05 37:0.000187 38:0.005285 39:0.002949 40:0.000619 42:0.003605 43:0.037056 44:0.079408 46:5e-06 47:0.000837 48:0.04824 49:5e-06 53:1.6e-05 54:0.000176 55:4.8e-05 58:0.000203 59:0.003904 60:0.001621 63:0.002053 64:0.147669 
7 1:0.07011 2:0.012382 3:0.000671 4:1.9e-05 5:1.9e-05 6:0.021585 7:0.000846 8:0.000176 11:6e-06 12:1.9e-05 16:6e-06 17:0.001279 18:0.00158 19:3.1e-05 21:0.000414 22:0.158972 23:0.057177 24:0.000107 26:2.5e-05 27:0.169655 28:0.001103 32:6.9e-05 38:0.00437 39:0.001103 40:6e-06 42:0.001141 43:0.274679 44:0.072016 47:6e-06 48:0.035616 59:0.003837 60:0.002821 63:0.000351 64:0.107802 
7 1:0.316944 2:0.014923 3:8e-05 5:0.021936 6:0.046811 7:0.001125 8:1.1e-05 10:0.001072 11:0.000976 12:3.2e-05 15:6.4e-05 16:1.6e-05 17:0.010656 18:0.000715 19:5e-06 21:0.023691 22:0.210805 23:0.006379 24:1.6e-05 26:0.00248 27:0.013029 28:0.001445 31:0.000747 32:0.002149 33:0.000117 34:1.1e-05 37:0.000272 38:0.051136 39:0.000363 40:2.7e-05 42:0.034533 43:0.046192 44:0.002699 47:0.000539 48:0.007424 53:1.6e-05 54:0.000123 55:1.1e-05 58:0.001941 59:0.007317 60:0.000405 62:5e-06 63:0.002027 64:0.168736 
7 1:0.058874 2:0.00277 3:0.000352 4:3.9e-05 5:6.5e-05 6:0.00233 7:0.000396 8:8.3e-05 10:4e-06 11:4e-06 17:0.000583 18:3.5e-05 21:0.000261 22:0.103217 23:0.080235 24:0.000457 26:0.000109 27:0.112596 28:0.00113 38:0.000335 39:3.9e-05 42:0.000161 43:0.32163 44:0.064091 47:0.0002 48:0.124517 58:1.7e-05 59:0.000322 60:3e-05 62:9e-06 63:0.000387 64:0.124722 
7 1:0.301982 2:0.04309 3:0.02097 4:0.000331 5:0.002253 6:0.0455 7:0.002759 8:0.001446 17:0.00912 18:0.007952 19:9.6e-05 21:0.008825 22:0.335078 23:0.115313 24:0.001705 26:0.000807 27:0.051928 28:0.000127 33:0.000331 37:0.000247 38:0.00612 39:0.000542 42:0.002271 43:0.035048 44:0.001307 47:7.2e-05 48:0.000693 53:3e-05 58:1.8e-05 59:4.8e-05 60:5.4e-05 63:3e-05 64:0.003904 
7 1:0.018318 2:0.001634 3:0.000949 4:0.000282 5:0.030348 6:0.123105 7:0.000132 8:0.000757 10:0.000823 11:6e-06 12:6e-06 17:0.000354 18:3.6e-05 19:1.8e-05 21:0.000757 22:0.189976 23:0.001814 24:0.000468 26:0.039694 27:0.028943 28:0.000571 31:6e-06 38:0.02036 39:0.00018 40:6e-06 42:0.029285 43:0.255676 44:0.003994 47:0.006468 48:0.044745 59:0.001321 60:0.00042 63:0.001051 64:0.197495 
7 1:0.053743 2:0.023766 3:0.000569 5:0.000317 6:0.097341 7:0.009341 17:6e-05 18:3.6e-05 19:1.2e-05 21:0.000311 22:0.026491 23:0.129132 26:0.000204 27:0.180287 28:0.010898 38:0.000335 39:1.2e-05 42:0.009078 43:0.140353 44:0.020737 47:0.004234 48:0.001922 59:0.011401 63:0.058036 64:0.221383 
7 1:0.130763 2:0.005465 3:0.00433 4:0.003063 5:2.4e-05 6:0.000847 7:0.00015 8:0.000228 12:1.2e-05 17:0.010186 18:0.000925 19:3.6e-05 20:2.4e-05 21:0.002967 22:0.057868 23:0.005844 24:0.002643 26:3.6e-05 27:0.001387 28:0.000661 33:4.8e-05 37:0.000685 38:0.008829 39:0.003844 40:0.00012 41:4.8e-05 42:0.001465 43:0.430871 44:0.039508 47:4.8e-05 48:0.005544 57:1.2e-05 58:0.000126 59:0.002366 60:0.000997 62:4.2e-05 63:0.000547 64:0.277441 
7 1:0.116958 2:0.007748 3:0.000622 4:0.003658 5:0.000627 6:0.064202 7:0.009473 8:0.000801 9:4.5e-05 10:0.000532 11:0.006689 12:0.000689 16:0.000291 17:0.005922 18:0.000168 19:2.8e-05 20:2.8e-05 21:0.001787 22:0.051681 23:0.041888 24:0.001597 25:0.000101 26:0.000919 27:0.441221 28:0.046353 30:3.9e-05 31:0.000952 32:0.01 33:6.2e-05 37:0.001647 38:0.003031 39:0.000123 40:1.7e-05 41:0.000252 42:0.003742 43:0.04428 44:0.04465 45:0.000695 46:0.000101 47:0.000829 48:0.042426 53:0.000106 54:8.4e-05 57:1.7e-05 58:0.000319 59:0.001754 60:0.000123 61:0.000465 62:0.000252 63:0.002829 64:0.037176 
7 1:0.24728 2:0.007232 3:0.000389 4:4.8e-05 5:0.006309 6:0.008635 7:0.002229 8:0.000299 9:8.5e-05 10:0.006624 11:0.001563 12:0.000176 14:0.000629 15:0.001408 16:9.1e-05 17:0.02584 18:0.002171 19:0.000208 20:0.000107 21:0.02872 22:0.06352 23:0.006869 24:0.001323 25:2.1e-05 26:0.007413 27:0.014544 28:0.009227 30:0.000464 31:0.015067 32:0.001504 33:0.001872 34:5.3e-05 37:0.003851 38:0.015259 39:0.002699 40:0.000357 41:0.000171 42:0.014139 43:0.082101 44:0.065355 45:1.1e-05 46:2.1e-05 47:0.010085 48:0.032229 49:2.7e-05 50:3.2e-05 53:0.000587 54:0.000139 55:2.1e-05 56:5e-06 57:0.001483 58:0.002709 59:0.008635 60:0.005397 61:0.000181 62:0.003333 63:0.011349 64:0.277904 
7 1:0.214547 2:0.008061 3:0.000238 4:6e-06 5:0.003017 6:0.006442 7:0.000155 8:0.000127 10:8.8e-05 11:3.3e-05 12:0.000365 16:0.000254 17:0.001834 18:0.000674 19:7.7e-05 20:1.1e-05 21:0.003818 22:0.051746 23:0.007602 24:0.000122 25:1.7e-05 26:0.004762 27:0.017221 28:0.000238 31:0.000204 32:0.000337 33:6e-06 37:6e-06 38:0.001586 39:0.000475 40:3.9e-05 42:0.004088 43:0.061691 44:0.01211 46:1.1e-05 47:0.00716 48:0.030536 59:0.000575 60:0.000409 63:0.001945 64:0.55737 
7 1:0.2472 2:0.016277 3:0.000165 5:0.003947 6:0.021931 7:0.013845 8:1.1e-05 10:5e-06 11:0.007867 12:0.00416 16:0.001936 17:0.004624 18:0.000245 19:5e-06 20:5e-06 21:0.004016 22:0.209157 23:0.014699 24:6.4e-05 26:0.004811 27:0.044112 28:0.001381 32:0.009136 38:0.008453 39:0.000101 42:0.007941 43:0.246779 44:0.044059 47:0.00024 48:0.035056 59:0.000459 60:3.2e-05 63:0.00088 64:0.0464 
7 1:0.619453 22:0.139369 43:0.074264 64:0.166913 
