svm_type c_svc
kernel_type rbf
gamma 100
nr_class 2
total_sv 1009
rho 3.51574
label 1 -1
probA -1.89601
probB 1.6206
nr_sv 139 870
SV
3.785723979255847 2:0.023148148 5:0.0023148148 7:0.0011574074 8:0.0069444444 10:0.0011574074 13:0.018518519 15:0.0081018519 16:0.005787037 17:0.0011574074 20:0.0023148148 22:0.0023148148 24:0.0011574074 26:0.0011574074 28:0.0034722222 29:0.0023148148 32:0.0023148148 33:0.0023148148 34:0.0046296296 35:0.027777778 36:0.0011574074 38:0.0011574074 39:0.0011574074 42:0.018518519 43:0.0023148148 44:0.0023148148 45:0.0023148148 48:0.0081018519 50:0.0023148148 52:0.0011574074 53:0.005787037 54:0.0034722222 55:0.010416667 56:0.0023148148 57:0.0011574074 58:0.0011574074 59:0.0011574074 60:0.0011574074 61:0.0069444444 63:0.0023148148 64:0.0081018519 65:0.0011574074 66:0.0023148148 67:0.0069444444 68:0.0023148148 70:0.0023148148 71:0.0023148148 73:0.0023148148 74:0.0011574074 75:0.005787037 76:0.0023148148 78:0.0034722222 80:0.005787037 81:0.0069444444 82:0.0011574074 83:0.011574074 84:0.0092592593 85:0.0023148148 86:0.0023148148 87:0.0023148148 88:0.0092592593 89:0.011574074 90:0.011574074 92:0.0023148148 93:0.0069444444 94:0.0011574074 95:0.0011574074 96:0.0034722222 97:0.010416667 99:0.0011574074 101:0.0023148148 102:0.012731481 103:0.0081018519 104:0.019675926 105:0.0046296296 112:0.0011574074 113:0.005787037 114:0.0046296296 115:0.0034722222 116:0.018518519 117:0.0011574074 118:0.0034722222 119:0.010416667 120:0.0023148148 121:0.0092592593 122:0.0011574074 123:0.0011574074 126:0.0081018519 127:0.0023148148 128:0.0023148148 130:0.0046296296 131:0.0046296296 132:0.0069444444 133:0.0011574074 135:0.0023148148 136:0.0011574074 137:0.0023148148 139:0.010416667 140:0.005787037 141:0.0011574074 142:0.0011574074 144:0.028935185 148:0.0023148148 149:0.005787037 150:0.0011574074 152:0.0011574074 154:0.0023148148 155:0.0023148148 156:0.0034722222 157:0.016203704 161:0.010416667 163:0.0092592593 164:0.0023148148 165:0.0023148148 166:0.017361111 167:0.0023148148 169:0.0092592593 170:0.0046296296 172:0.011574074 174:0.011574074 175:0.0023148148 176:0.0011574074 177:0.0023148148 179:0.0023148148 180:0.0081018519 181:0.005787037 182:0.013888889 183:0.0023148148 185:0.016203704 186:0.0011574074 187:0.0034722222 188:0.020833333 189:0.0023148148 190:0.0023148148 191:0.0034722222 193:0.0023148148 194:0.0023148148 195:0.0023148148 200:0.0011574074 201:0.061342593 203:0.0046296296 204:0.0023148148 206:0.0092592593 207:0.0034722222 210:0.0081018519 212:0.0081018519 213:0.0011574074 216:0.0011574074 217:0.010416667 219:0.0023148148 221:0.0011574074 222:0.0011574074 223:0.0011574074 224:0.0023148148 226:0.005787037 228:0.03587963 230:0.010416667 233:0.0081018519 234:0.0023148148 235:0.0034722222 236:0.0034722222 237:0.0023148148 239:0.0011574074 240:0.021990741 241:0.0069444444 244:0.0034722222 246:0.0023148148 247:0.0011574074 250:0.0023148148 251:0.0011574074 252:0.0011574074 253:0.005787037 254:0.0034722222 255:0.0011574074 256:0.017361111 
2.886873177651133 1:0.0016233766 2:0.0081168831 3:0.0016233766 4:0.0016233766 5:0.043831169 6:0.0016233766 8:0.0016233766 9:0.0016233766 10:0.0048701299 12:0.0064935065 16:0.0097402597 17:0.0064935065 18:0.0048701299 20:0.0048701299 22:0.0081168831 23:0.0016233766 24:0.0016233766 27:0.022727273 28:0.0016233766 34:0.0064935065 35:0.022727273 37:0.0064935065 38:0.0016233766 39:0.0016233766 40:0.0016233766 44:0.0032467532 46:0.0032467532 48:0.011363636 49:0.0048701299 50:0.0016233766 53:0.0016233766 54:0.0097402597 55:0.0048701299 56:0.01461039 58:0.0048701299 59:0.0032467532 64:0.0032467532 65:0.0016233766 67:0.0064935065 69:0.0032467532 72:0.0016233766 73:0.022727273 76:0.0016233766 77:0.0048701299 81:0.0016233766 83:0.019480519 84:0.01461039 86:0.0016233766 87:0.0064935065 88:0.0032467532 89:0.0016233766 90:0.0064935065 91:0.0081168831 94:0.0048701299 95:0.0097402597 96:0.0032467532 97:0.011363636 100:0.0016233766 101:0.0016233766 102:0.048701299 103:0.0064935065 104:0.022727273 105:0.0032467532 106:0.0032467532 107:0.0081168831 109:0.0048701299 110:0.0048701299 111:0.0097402597 113:0.0048701299 115:0.0032467532 116:0.012987013 118:0.0048701299 119:0.0081168831 121:0.011363636 122:0.0016233766 124:0.0016233766 126:0.0016233766 131:0.0032467532 134:0.0032467532 136:0.0048701299 137:0.0048701299 140:0.0097402597 143:0.0016233766 145:0.0016233766 147:0.0016233766 148:0.0097402597 149:0.022727273 153:0.0032467532 154:0.0016233766 156:0.0016233766 157:0.0048701299 158:0.0097402597 161:0.0032467532 162:0.0032467532 163:0.0048701299 166:0.021103896 169:0.0016233766 170:0.0032467532 171:0.0016233766 172:0.021103896 173:0.0016233766 174:0.0016233766 176:0.0048701299 177:0.0016233766 178:0.0032467532 179:0.0016233766 180:0.0016233766 181:0.0016233766 183:0.012987013 184:0.011363636 186:0.0081168831 187:0.0032467532 188:0.017857143 192:0.0016233766 195:0.0032467532 201:0.0081168831 203:0.0016233766 204:0.0081168831 206:0.0081168831 209:0.012987013 210:0.0097402597 217:0.01461039 219:0.0048701299 220:0.0016233766 222:0.0032467532 224:0.0016233766 225:0.0016233766 228:0.0048701299 229:0.0048701299 230:0.025974026 232:0.0032467532 234:0.0016233766 235:0.011363636 236:0.0016233766 239:0.0064935065 240:0.047077922 242:0.0032467532 243:0.0032467532 246:0.012987013 248:0.0016233766 249:0.01461039 250:0.011363636 251:0.0032467532 252:0.0016233766 256:0.0016233766 
20 1:0.00152207 2:0.00304414 3:0.00050735667 4:0.0010147133 5:0.00304414 7:0.0020294267 8:0.0071029934 9:0.00050735667 10:0.0035514967 11:0.0010147133 12:0.0010147133 13:0.0035514967 14:0.0071029934 15:0.0081177067 16:0.00456621 17:0.00152207 18:0.0071029934 19:0.00050735667 20:0.0050735667 21:0.0025367834 22:0.0050735667 23:0.00304414 24:0.0040588534 25:0.0025367834 26:0.0010147133 27:0.00152207 28:0.00304414 29:0.0050735667 30:0.00304414 31:0.0035514967 32:0.00304414 33:0.0025367834 34:0.00304414 35:0.0081177067 36:0.0040588534 37:0.0020294267 38:0.0035514967 39:0.0035514967 40:0.0020294267 41:0.0025367834 42:0.0060882801 43:0.00304414 44:0.0060882801 45:0.01065449 46:0.0020294267 47:0.0020294267 48:0.0035514967 49:0.0025367834 50:0.0020294267 51:0.00152207 52:0.0040588534 53:0.00050735667 54:0.0076103501 55:0.0060882801 56:0.011161847 57:0.00050735667 58:0.0035514967 59:0.0020294267 60:0.00456621 61:0.0020294267 62:0.0086250634 63:0.0081177067 64:0.00304414 65:0.0060882801 66:0.0050735667 67:0.00456621 68:0.0020294267 69:0.0050735667 70:0.0040588534 71:0.0010147133 72:0.0035514967 73:0.0050735667 74:0.0040588534 75:0.00152207 76:0.00152207 77:0.00304414 78:0.0025367834 79:0.0040588534 80:0.0096397768 81:0.0020294267 82:0.0020294267 83:0.00304414 84:0.0076103501 85:0.0025367834 86:0.0040588534 87:0.01065449 88:0.0025367834 89:0.0071029934 90:0.0020294267 91:0.0071029934 92:0.0065956367 93:0.0076103501 94:0.00152207 95:0.0040588534 96:0.0010147133 97:0.0035514967 98:0.00152207 99:0.0096397768 100:0.00152207 101:0.0035514967 102:0.0010147133 103:0.0040588534 104:0.0020294267 105:0.0065956367 106:0.0050735667 107:0.0040588534 108:0.00152207 109:0.00152207 110:0.0086250634 111:0.00304414 112:0.00304414 113:0.0040588534 114:0.00152207 115:0.01369863 117:0.0010147133 118:0.011161847 119:0.0020294267 120:0.00152207 121:0.015728057 122:0.0020294267 123:0.00304414 124:0.0071029934 125:0.0050735667 126:0.0035514967 127:0.0040588534 128:0.0071029934 129:0.0025367834 130:0.0060882801 132:0.00050735667 133:0.0020294267 134:0.00304414 135:0.01217656 136:0.0020294267 137:0.0065956367 138:0.00456621 139:0.0076103501 140:0.0020294267 141:0.0020294267 143:0.0040588534 144:0.00304414 145:0.0035514967 146:0.0010147133 147:0.0020294267 148:0.011161847 149:0.0071029934 150:0.0065956367 151:0.0035514967 152:0.0010147133 153:0.00050735667 154:0.0035514967 155:0.00304414 156:0.0050735667 157:0.0055809234 158:0.00304414 159:0.0025367834 160:0.0055809234 161:0.00456621 162:0.00456621 163:0.0035514967 164:0.0055809234 165:0.0025367834 166:0.0035514967 167:0.00152207 169:0.0040588534 170:0.00152207 171:0.00304414 172:0.0055809234 173:0.00152207 174:0.00050735667 175:0.0076103501 176:0.0035514967 177:0.0020294267 178:0.0025367834 179:0.00152207 180:0.0081177067 181:0.0035514967 182:0.0086250634 183:0.0035514967 184:0.00152207 185:0.0086250634 186:0.00304414 187:0.0065956367 188:0.0035514967 189:0.00304414 190:0.0060882801 191:0.00304414 192:0.0040588534 193:0.0035514967 194:0.00050735667 195:0.0020294267 196:0.0055809234 197:0.00050735667 198:0.00304414 199:0.0025367834 200:0.0025367834 201:0.0071029934 202:0.00304414 203:0.00456621 204:0.011669203 205:0.0025367834 206:0.00152207 207:0.0025367834 208:0.00152207 209:0.0025367834 211:0.0076103501 212:0.0060882801 213:0.0025367834 214:0.0035514967 215:0.0035514967 216:0.00152207 217:0.00152207 218:0.0020294267 219:0.00456621 220:0.0040588534 221:0.0060882801 222:0.0055809234 223:0.0020294267 224:0.0050735667 225:0.0065956367 226:0.00304414 227:0.0010147133 228:0.00152207 229:0.00152207 230:0.0025367834 231:0.0060882801 232:0.0152207 233:0.0025367834 234:0.00456621 235:0.0025367834 236:0.00152207 237:0.0065956367 238:0.0020294267 239:0.0086250634 240:0.00050735667 241:0.0071029934 242:0.0020294267 243:0.00152207 244:0.0086250634 245:0.0020294267 246:0.0020294267 247:0.0025367834 248:0.0020294267 249:0.0055809234 250:0.0040588534 251:0.01065449 252:0.0010147133 253:0.0025367834 254:0.0025367834 255:0.00152207 256:0.0086250634 
17.46215085372111 1:0.0039525692 2:0.0065876153 3:0.00065876153 4:0.0065876153 5:0.0059288538 6:0.0013175231 7:0.0072463768 8:0.0072463768 9:0.0032938076 10:0.0046113307 11:0.0032938076 12:0.0039525692 13:0.0059288538 14:0.0013175231 15:0.0059288538 16:0.0092226614 17:0.0019762846 18:0.0065876153 19:0.0019762846 20:0.0072463768 21:0.0032938076 22:0.0092226614 23:0.0032938076 24:0.0019762846 25:0.0019762846 26:0.0092226614 27:0.0019762846 28:0.0013175231 29:0.0013175231 30:0.0013175231 31:0.0032938076 32:0.0032938076 33:0.0013175231 34:0.0013175231 35:0.0046113307 36:0.0026350461 38:0.0059288538 39:0.0065876153 40:0.0019762846 41:0.0019762846 42:0.0039525692 43:0.0059288538 44:0.0032938076 46:0.0013175231 47:0.0013175231 48:0.021080369 49:0.0013175231 50:0.00065876153 51:0.0059288538 52:0.0046113307 53:0.0079051383 54:0.0065876153 55:0.0065876153 57:0.0046113307 58:0.0072463768 59:0.011198946 60:0.0019762846 61:0.0026350461 62:0.0046113307 63:0.010540184 64:0.0019762846 65:0.0059288538 66:0.0013175231 67:0.0059288538 68:0.0046113307 69:0.0046113307 70:0.0032938076 71:0.00065876153 72:0.0026350461 73:0.0032938076 74:0.0046113307 75:0.0039525692 77:0.0026350461 79:0.0079051383 81:0.0032938076 82:0.0052700922 83:0.0019762846 84:0.00065876153 85:0.0032938076 86:0.0079051383 87:0.0032938076 88:0.0065876153 89:0.0079051383 90:0.0072463768 91:0.0019762846 92:0.0072463768 93:0.0052700922 94:0.0019762846 95:0.0039525692 96:0.0019762846 97:0.0019762846 98:0.0059288538 99:0.0039525692 100:0.0032938076 101:0.0065876153 102:0.0059288538 103:0.0098814229 104:0.0019762846 105:0.0079051383 106:0.0059288538 107:0.0026350461 108:0.0032938076 109:0.0052700922 110:0.00065876153 111:0.00065876153 112:0.0026350461 113:0.0013175231 114:0.0019762846 115:0.0019762846 116:0.0039525692 117:0.0072463768 118:0.0026350461 119:0.0059288538 120:0.0059288538 121:0.0052700922 122:0.0019762846 123:0.0013175231 124:0.014492754 125:0.0013175231 126:0.0019762846 127:0.0026350461 128:0.0026350461 129:0.0039525692 130:0.0072463768 131:0.0013175231 132:0.0026350461 133:0.0039525692 134:0.0065876153 135:0.0019762846 136:0.0039525692 137:0.0092226614 138:0.0046113307 139:0.0085638999 140:0.0032938076 141:0.0019762846 142:0.0032938076 144:0.0013175231 145:0.0013175231 146:0.0032938076 147:0.0019762846 148:0.0026350461 149:0.0052700922 150:0.0052700922 151:0.0046113307 152:0.0013175231 153:0.0065876153 154:0.0032938076 155:0.00065876153 156:0.0019762846 157:0.0072463768 158:0.0046113307 159:0.0019762846 160:0.00065876153 161:0.0052700922 162:0.0026350461 163:0.0079051383 164:0.0065876153 165:0.00065876153 167:0.0046113307 168:0.00065876153 169:0.00065876153 170:0.0026350461 171:0.0026350461 172:0.0032938076 173:0.0046113307 174:0.0052700922 175:0.0026350461 176:0.0026350461 177:0.0013175231 178:0.0026350461 179:0.0032938076 180:0.0059288538 181:0.0052700922 182:0.0092226614 183:0.00065876153 184:0.0026350461 185:0.0052700922 186:0.0046113307 187:0.0026350461 189:0.0052700922 190:0.0032938076 191:0.0085638999 192:0.0046113307 193:0.0013175231 195:0.0039525692 196:0.0059288538 197:0.0032938076 198:0.0019762846 199:0.0046113307 200:0.0026350461 202:0.0013175231 203:0.0013175231 204:0.0032938076 205:0.0026350461 206:0.0019762846 207:0.0046113307 209:0.0019762846 210:0.0079051383 211:0.0026350461 212:0.0019762846 213:0.0026350461 214:0.00065876153 215:0.0039525692 216:0.0026350461 217:0.0052700922 218:0.0052700922 219:0.0079051383 220:0.0019762846 221:0.0059288538 222:0.0052700922 223:0.0013175231 224:0.0039525692 226:0.0019762846 227:0.0072463768 228:0.012516469 229:0.0052700922 230:0.0052700922 231:0.0026350461 232:0.0052700922 233:0.0085638999 234:0.0032938076 235:0.0019762846 236:0.0052700922 237:0.00065876153 238:0.0026350461 239:0.0013175231 240:0.0085638999 241:0.0065876153 242:0.0092226614 243:0.0019762846 244:0.00065876153 246:0.0032938076 247:0.0039525692 248:0.0026350461 249:0.0032938076 250:0.00065876153 251:0.0039525692 252:0.0079051383 253:0.0032938076 254:0.0079051383 255:0.0039525692 256:0.0032938076 
6.547771245172141 2:0.001754386 3:0.0052631579 4:0.00087719298 5:0.0035087719 6:0.001754386 7:0.0061403509 8:0.0043859649 9:0.0043859649 11:0.00087719298 12:0.0052631579 13:0.010526316 14:0.0035087719 16:0.0026315789 17:0.0035087719 18:0.0026315789 19:0.0026315789 20:0.011403509 21:0.001754386 22:0.0026315789 23:0.010526316 24:0.00087719298 25:0.00087719298 27:0.001754386 28:0.0096491228 29:0.00087719298 30:0.00087719298 31:0.001754386 32:0.0043859649 33:0.001754386 34:0.001754386 35:0.0043859649 36:0.0087719298 37:0.0026315789 38:0.0061403509 39:0.0026315789 40:0.0035087719 41:0.0035087719 42:0.0052631579 43:0.001754386 45:0.0035087719 47:0.0078947368 48:0.0026315789 50:0.0026315789 51:0.0052631579 53:0.012280702 54:0.011403509 55:0.0035087719 56:0.0096491228 58:0.0061403509 59:0.0026315789 60:0.0078947368 61:0.0078947368 62:0.0052631579 64:0.0096491228 65:0.0043859649 66:0.001754386 67:0.0078947368 68:0.0061403509 71:0.0026315789 72:0.00087719298 73:0.0052631579 74:0.001754386 75:0.0026315789 76:0.00087719298 77:0.010526316 78:0.0043859649 79:0.0043859649 80:0.0061403509 81:0.0035087719 82:0.0026315789 83:0.0096491228 84:0.00087719298 85:0.0043859649 87:0.0026315789 88:0.001754386 89:0.0026315789 90:0.0052631579 91:0.0043859649 92:0.0035087719 93:0.00087719298 94:0.0035087719 95:0.0035087719 96:0.0070175439 97:0.0026315789 98:0.0026315789 99:0.0035087719 100:0.0026315789 101:0.001754386 102:0.0035087719 103:0.015789474 104:0.001754386 105:0.0052631579 106:0.0078947368 107:0.001754386 108:0.0070175439 109:0.00087719298 110:0.0078947368 112:0.0035087719 113:0.011403509 114:0.0035087719 115:0.0070175439 116:0.00087719298 117:0.0043859649 119:0.0026315789 120:0.0070175439 121:0.0061403509 124:0.0070175439 125:0.001754386 126:0.001754386 127:0.00087719298 128:0.0070175439 129:0.0035087719 130:0.011403509 131:0.0061403509 132:0.0070175439 133:0.001754386 134:0.0052631579 136:0.001754386 137:0.0043859649 138:0.0026315789 139:0.001754386 140:0.0026315789 141:0.0043859649 142:0.0043859649 143:0.001754386 144:0.0052631579 145:0.0026315789 146:0.00087719298 147:0.0043859649 148:0.0035087719 149:0.001754386 150:0.0078947368 153:0.001754386 154:0.0043859649 155:0.0043859649 156:0.010526316 157:0.0052631579 159:0.001754386 160:0.001754386 161:0.00087719298 162:0.0052631579 163:0.020175439 164:0.0026315789 165:0.0096491228 167:0.0061403509 168:0.0026315789 169:0.0026315789 170:0.0052631579 171:0.0026315789 172:0.0061403509 173:0.0096491228 174:0.030701754 175:0.00087719298 176:0.0026315789 177:0.00087719298 178:0.0096491228 180:0.00087719298 181:0.0035087719 183:0.0078947368 184:0.001754386 185:0.0026315789 186:0.0052631579 187:0.00087719298 188:0.001754386 189:0.00087719298 191:0.016666667 192:0.001754386 193:0.001754386 195:0.011403509 196:0.0043859649 198:0.0061403509 199:0.0096491228 201:0.0026315789 202:0.0026315789 203:0.0035087719 204:0.0096491228 205:0.00087719298 206:0.001754386 207:0.00087719298 210:0.0035087719 211:0.0035087719 212:0.0061403509 213:0.0070175439 214:0.001754386 215:0.0043859649 216:0.0035087719 217:0.0043859649 218:0.0026315789 219:0.001754386 221:0.001754386 222:0.0026315789 223:0.014035088 224:0.0035087719 226:0.0043859649 227:0.0026315789 228:0.0052631579 229:0.0035087719 230:0.0087719298 231:0.00087719298 232:0.0043859649 233:0.011403509 235:0.0087719298 236:0.001754386 237:0.0026315789 238:0.00087719298 239:0.0035087719 240:0.0052631579 241:0.0035087719 242:0.0096491228 243:0.0026315789 244:0.001754386 246:0.0035087719 248:0.0052631579 249:0.0043859649 251:0.0096491228 252:0.0026315789 253:0.0043859649 254:0.00087719298 255:0.00087719298 256:0.00087719298 
9.083377992584889 1:0.0024142926 2:0.0091743119 3:0.0024142926 4:0.00096571704 5:0.0077257364 6:0.0043457267 7:0.0014485756 8:0.0077257364 9:0.0038628682 10:0.0053114437 11:0.0057943023 12:0.0019314341 13:0.00048285852 14:0.0024142926 15:0.0048285852 16:0.0067600193 17:0.0028971511 18:0.0033800097 19:0.00096571704 20:0.0057943023 21:0.0024142926 22:0.0091743119 23:0.0077257364 24:0.0043457267 25:0.0038628682 26:0.014968614 28:0.0028971511 29:0.00096571704 30:0.00048285852 31:0.0062771608 32:0.0038628682 33:0.0033800097 34:0.0014485756 35:0.0086914534 36:0.0038628682 37:0.0053114437 38:0.0048285852 39:0.0028971511 40:0.0033800097 41:0.00096571704 42:0.013520039 43:0.0014485756 44:0.0067600193 45:0.0062771608 48:0.0043457267 49:0.00096571704 52:0.0043457267 53:0.0024142926 54:0.010140029 55:0.0048285852 56:0.0038628682 57:0.0024142926 58:0.0014485756 59:0.0091743119 60:0.0043457267 61:0.0019314341 62:0.0024142926 63:0.0038628682 64:0.0028971511 65:0.0028971511 66:0.0038628682 67:0.0024142926 68:0.0057943023 69:0.0028971511 70:0.0038628682 71:0.0024142926 72:0.00048285852 73:0.0096571704 74:0.0019314341 75:0.014002897 77:0.0024142926 78:0.0014485756 79:0.00096571704 80:0.0077257364 81:0.0077257364 82:0.0043457267 83:0.0043457267 84:0.0062771608 85:0.0096571704 86:0.0033800097 87:0.0038628682 88:0.010140029 89:0.010622887 90:0.0062771608 91:0.00096571704 92:0.0019314341 93:0.0014485756 94:0.00048285852 95:0.0014485756 96:0.0038628682 97:0.0062771608 98:0.0014485756 99:0.0033800097 100:0.0024142926 101:0.0014485756 102:0.0067600193 103:0.0033800097 104:0.0067600193 105:0.0043457267 106:0.0014485756 107:0.0014485756 108:0.00048285852 109:0.00096571704 110:0.0072428778 111:0.00096571704 112:0.0057943023 113:0.0048285852 114:0.00048285852 115:0.0033800097 116:0.0072428778 117:0.0033800097 118:0.0033800097 119:0.010622887 120:0.00048285852 121:0.0028971511 122:0.0043457267 123:0.0019314341 124:0.0038628682 126:0.00048285852 127:0.00048285852 128:0.00048285852 129:0.00096571704 130:0.0033800097 131:0.0082085949 132:0.0028971511 133:0.0019314341 134:0.00096571704 135:0.00096571704 136:0.0053114437 137:0.0028971511 138:0.0057943023 139:0.0072428778 140:0.0077257364 141:0.00096571704 142:0.0033800097 143:0.0014485756 144:0.0067600193 145:0.0014485756 146:0.0033800097 147:0.0077257364 148:0.0014485756 149:0.0019314341 150:0.00096571704 151:0.0038628682 152:0.00096571704 153:0.0057943023 154:0.0048285852 155:0.0043457267 156:0.0028971511 157:0.0028971511 158:0.0038628682 159:0.0038628682 160:0.00048285852 161:0.01303718 162:0.0014485756 163:0.0028971511 165:0.0033800097 166:0.0077257364 167:0.00048285852 168:0.00048285852 169:0.0057943023 170:0.0072428778 171:0.0019314341 172:0.0038628682 173:0.0053114437 174:0.0091743119 175:0.0053114437 176:0.0019314341 177:0.0014485756 178:0.0062771608 179:0.0043457267 180:0.0062771608 181:0.0048285852 182:0.0038628682 183:0.0043457267 184:0.0014485756 185:0.0038628682 186:0.0048285852 187:0.0033800097 188:0.011105746 189:0.00096571704 190:0.0048285852 191:0.0038628682 192:0.0033800097 193:0.0096571704 194:0.00048285852 195:0.0067600193 196:0.0043457267 197:0.0019314341 198:0.0024142926 199:0.0038628682 200:0.00096571704 201:0.0033800097 202:0.0043457267 203:0.0053114437 204:0.0024142926 205:0.0019314341 206:0.0053114437 207:0.0028971511 208:0.00096571704 209:0.00096571704 210:0.0072428778 211:0.0019314341 212:0.00096571704 213:0.00048285852 214:0.00048285852 215:0.0086914534 216:0.0043457267 217:0.014968614 218:0.0019314341 219:0.0014485756 220:0.00048285852 221:0.0082085949 222:0.0033800097 223:0.00048285852 224:0.0048285852 226:0.0053114437 227:0.00048285852 228:0.0072428778 229:0.0019314341 230:0.0024142926 231:0.0019314341 232:0.0086914534 234:0.0028971511 235:0.0053114437 236:0.00096571704 237:0.0019314341 238:0.0014485756 239:0.0072428778 240:0.0096571704 241:0.011105746 243:0.0014485756 244:0.0014485756 246:0.0033800097 247:0.0014485756 248:0.0053114437 249:0.0062771608 250:0.0019314341 251:0.0057943023 252:0.0086914534 253:0.00096571704 254:0.0086914534 255:0.0014485756 256:0.014002897 
1.557959168168998 1:0.0012804097 2:0.0076824584 3:0.0019206146 4:0.00064020487 5:0.0089628681 6:0.0044814341 7:0.0032010243 8:0.0076824584 9:0.0025608195 10:0.0025608195 11:0.0025608195 12:0.0051216389 13:0.0083226633 14:0.0032010243 15:0.0083226633 16:0.00064020487 17:0.0064020487 18:0.0057618438 20:0.0070422535 21:0.0012804097 22:0.0012804097 23:0.00064020487 24:0.0025608195 25:0.0044814341 26:0.0064020487 27:0.0089628681 28:0.00064020487 29:0.0044814341 30:0.0012804097 31:0.00064020487 32:0.0012804097 33:0.0057618438 34:0.0012804097 35:0.014084507 36:0.0038412292 37:0.0012804097 38:0.0051216389 39:0.0051216389 40:0.0038412292 41:0.0019206146 42:0.0064020487 43:0.0064020487 44:0.0064020487 45:0.0012804097 46:0.0012804097 48:0.0025608195 49:0.012804097 50:0.0064020487 51:0.0038412292 52:0.0012804097 53:0.0083226633 54:0.0038412292 55:0.0019206146 56:0.0051216389 57:0.00064020487 58:0.0038412292 59:0.0064020487 60:0.0012804097 61:0.0032010243 62:0.00064020487 63:0.0083226633 64:0.00064020487 65:0.0012804097 66:0.0038412292 67:0.014724712 68:0.0012804097 69:0.00064020487 70:0.0076824584 71:0.00064020487 72:0.0032010243 73:0.0070422535 74:0.0038412292 75:0.0076824584 76:0.00064020487 77:0.0019206146 79:0.0044814341 80:0.0012804097 81:0.00064020487 82:0.0044814341 83:0.0044814341 84:0.0025608195 86:0.0012804097 87:0.010243278 88:0.0012804097 89:0.009603073 90:0.0083226633 91:0.0044814341 92:0.0025608195 93:0.0025608195 94:0.0012804097 95:0.0025608195 96:0.0032010243 97:0.0038412292 98:0.00064020487 99:0.0032010243 100:0.0019206146 101:0.0032010243 102:0.0051216389 103:0.0025608195 104:0.014084507 105:0.0032010243 106:0.0083226633 107:0.0070422535 108:0.0051216389 110:0.0012804097 111:0.00064020487 112:0.0012804097 113:0.0012804097 114:0.0012804097 115:0.0019206146 116:0.0032010243 117:0.0038412292 118:0.0032010243 119:0.0070422535 120:0.0038412292 121:0.0038412292 122:0.00064020487 123:0.0032010243 124:0.0070422535 125:0.0025608195 126:0.0044814341 127:0.0025608195 129:0.0025608195 130:0.0051216389 131:0.0025608195 132:0.0019206146 134:0.0083226633 135:0.0012804097 136:0.0064020487 137:0.0051216389 138:0.0025608195 139:0.0051216389 140:0.0032010243 141:0.0044814341 142:0.0038412292 143:0.0012804097 144:0.0012804097 145:0.00064020487 146:0.0019206146 147:0.0019206146 148:0.0025608195 149:0.012163892 150:0.0038412292 151:0.0025608195 152:0.0038412292 153:0.0038412292 154:0.0019206146 155:0.0012804097 156:0.0025608195 157:0.009603073 158:0.00064020487 159:0.00064020487 160:0.0025608195 161:0.0064020487 162:0.0012804097 163:0.0025608195 164:0.0038412292 165:0.0044814341 166:0.0083226633 167:0.0019206146 169:0.0051216389 170:0.00064020487 171:0.0012804097 172:0.012163892 173:0.0038412292 174:0.0012804097 175:0.0057618438 176:0.0025608195 177:0.020486556 178:0.0051216389 179:0.0057618438 180:0.0057618438 181:0.0019206146 182:0.0070422535 183:0.0032010243 184:0.0032010243 185:0.0076824584 186:0.0044814341 187:0.00064020487 188:0.0038412292 190:0.0032010243 191:0.00064020487 192:0.0038412292 193:0.0025608195 194:0.0019206146 195:0.0057618438 196:0.0070422535 197:0.00064020487 198:0.0012804097 199:0.0057618438 200:0.0064020487 201:0.0051216389 202:0.0064020487 203:0.0012804097 204:0.00064020487 205:0.0064020487 206:0.0064020487 207:0.0070422535 208:0.0019206146 209:0.0019206146 210:0.013444302 211:0.0051216389 212:0.0051216389 213:0.010243278 214:0.0032010243 215:0.0038412292 217:0.0051216389 219:0.0012804097 220:0.0012804097 221:0.0044814341 222:0.0083226633 223:0.0032010243 224:0.0012804097 225:0.00064020487 226:0.00064020487 227:0.0025608195 228:0.014724712 229:0.0076824584 230:0.0025608195 231:0.0012804097 232:0.0064020487 233:0.0019206146 234:0.0038412292 235:0.0089628681 236:0.0038412292 237:0.00064020487 238:0.0083226633 239:0.0019206146 240:0.009603073 241:0.0044814341 242:0.0019206146 243:0.00064020487 244:0.00064020487 245:0.0064020487 246:0.0051216389 247:0.0012804097 248:0.0064020487 249:0.00064020487 250:0.0038412292 251:0.0057618438 252:0.00064020487 253:0.0044814341 254:0.0064020487 256:0.0070422535 
6.653165792973168 1:0.0038647343 2:0.00096618357 3:0.00096618357 5:0.0077294686 6:0.00096618357 7:0.006763285 8:0.006763285 9:0.006763285 11:0.00096618357 12:0.00096618357 13:0.0019323671 15:0.0048309179 16:0.0086956522 17:0.00096618357 18:0.010628019 19:0.00096618357 20:0.0019323671 21:0.00096618357 22:0.006763285 23:0.0028985507 24:0.0028985507 25:0.0048309179 27:0.0077294686 28:0.00096618357 29:0.0028985507 31:0.00096618357 33:0.00096618357 34:0.0028985507 35:0.0057971014 36:0.00096618357 37:0.0048309179 38:0.0048309179 39:0.0028985507 40:0.0019323671 41:0.0028985507 42:0.020289855 43:0.0019323671 44:0.0048309179 45:0.0028985507 46:0.00096618357 47:0.0019323671 48:0.01352657 49:0.00096618357 50:0.00096618357 51:0.00096618357 52:0.0019323671 53:0.0048309179 54:0.0096618357 55:0.0028985507 56:0.0038647343 57:0.0048309179 58:0.0038647343 59:0.01352657 60:0.0028985507 62:0.0057971014 63:0.0057971014 65:0.00096618357 66:0.0048309179 67:0.0057971014 68:0.0038647343 70:0.010628019 72:0.0028985507 73:0.0096618357 74:0.00096618357 75:0.0028985507 79:0.0038647343 80:0.0048309179 81:0.0057971014 82:0.0038647343 83:0.0019323671 84:0.0096618357 85:0.0019323671 86:0.0048309179 88:0.0048309179 89:0.006763285 90:0.017391304 92:0.00096618357 93:0.0057971014 94:0.0048309179 95:0.0048309179 97:0.0019323671 98:0.00096618357 99:0.0077294686 100:0.0028985507 101:0.0057971014 102:0.01352657 103:0.0019323671 104:0.0057971014 106:0.0057971014 107:0.0077294686 109:0.0019323671 111:0.00096618357 112:0.0048309179 113:0.0019323671 115:0.0019323671 116:0.01352657 117:0.00096618357 118:0.011594203 119:0.0038647343 120:0.0077294686 121:0.006763285 122:0.0019323671 123:0.0019323671 124:0.0028985507 125:0.0019323671 126:0.00096618357 127:0.006763285 128:0.0019323671 129:0.0019323671 130:0.01352657 131:0.0048309179 132:0.0028985507 133:0.0028985507 134:0.0038647343 135:0.012560386 136:0.0086956522 137:0.006763285 138:0.0057971014 139:0.0077294686 140:0.0038647343 142:0.006763285 143:0.00096618357 144:0.0028985507 145:0.00096618357 147:0.0019323671 148:0.0077294686 149:0.0077294686 150:0.00096618357 153:0.00096618357 154:0.0038647343 156:0.0048309179 157:0.014492754 159:0.00096618357 160:0.00096618357 161:0.0038647343 162:0.0038647343 163:0.0086956522 164:0.0019323671 166:0.015458937 167:0.0019323671 169:0.0028985507 170:0.00096618357 172:0.0057971014 173:0.0028985507 174:0.0038647343 175:0.0028985507 176:0.006763285 178:0.00096618357 179:0.0077294686 180:0.0038647343 181:0.0038647343 182:0.020289855 183:0.0019323671 184:0.0048309179 185:0.016425121 186:0.01352657 187:0.0038647343 188:0.01352657 190:0.0028985507 191:0.0038647343 193:0.0048309179 194:0.00096618357 195:0.0028985507 197:0.00096618357 198:0.00096618357 199:0.0028985507 200:0.0077294686 201:0.00096618357 202:0.006763285 203:0.0048309179 204:0.00096618357 205:0.0048309179 206:0.025120773 207:0.00096618357 208:0.00096618357 209:0.00096618357 210:0.0057971014 211:0.00096618357 212:0.0028985507 213:0.0057971014 214:0.0028985507 215:0.0019323671 216:0.00096618357 217:0.0077294686 219:0.0077294686 220:0.0038647343 221:0.0019323671 222:0.0057971014 223:0.00096618357 225:0.00096618357 226:0.0028985507 227:0.00096618357 228:0.0038647343 229:0.0028985507 230:0.0048309179 231:0.00096618357 232:0.0048309179 233:0.00096618357 234:0.0038647343 235:0.0028985507 236:0.0028985507 238:0.00096618357 239:0.0086956522 240:0.0096618357 241:0.0057971014 242:0.0077294686 243:0.00096618357 244:0.0019323671 246:0.0048309179 247:0.00096618357 248:0.0048309179 249:0.0048309179 250:0.00096618357 251:0.0028985507 253:0.0048309179 254:0.00096618357 255:0.00096618357 256:0.0096618357 
4.653832278527564 1:0.00069832402 2:0.013268156 3:0.0041899441 4:0.001396648 5:0.0083798883 7:0.0034916201 8:0.01047486 9:0.0041899441 10:0.0048882682 12:0.0055865922 13:0.0048882682 14:0.00069832402 15:0.00069832402 16:0.001396648 17:0.0097765363 18:0.0097765363 19:0.0027932961 20:0.0076815642 21:0.00069832402 22:0.0048882682 23:0.0062849162 24:0.00069832402 26:0.0020949721 28:0.0062849162 29:0.001396648 30:0.0062849162 31:0.0020949721 32:0.0048882682 35:0.0062849162 36:0.0027932961 37:0.0027932961 38:0.001396648 39:0.0020949721 40:0.0069832402 41:0.0048882682 42:0.0027932961 43:0.0083798883 44:0.00069832402 45:0.00069832402 46:0.00069832402 47:0.001396648 48:0.0041899441 49:0.001396648 50:0.00069832402 51:0.0076815642 52:0.0090782123 53:0.01047486 54:0.0076815642 55:0.0034916201 56:0.0041899441 57:0.0041899441 58:0.0055865922 59:0.001396648 60:0.0034916201 61:0.0076815642 62:0.0027932961 64:0.001396648 65:0.0083798883 66:0.0020949721 67:0.0027932961 68:0.00069832402 69:0.0027932961 70:0.0083798883 71:0.00069832402 72:0.0055865922 73:0.01396648 74:0.0027932961 75:0.001396648 76:0.00069832402 77:0.0034916201 78:0.001396648 79:0.001396648 80:0.0027932961 82:0.0069832402 83:0.012569832 84:0.0041899441 85:0.0055865922 86:0.0034916201 87:0.001396648 88:0.0034916201 90:0.0048882682 91:0.00069832402 93:0.0034916201 94:0.0041899441 95:0.0076815642 96:0.00069832402 97:0.0069832402 99:0.0055865922 100:0.001396648 101:0.001396648 102:0.00069832402 103:0.0034916201 104:0.0027932961 105:0.0034916201 106:0.0076815642 107:0.0020949721 108:0.0034916201 109:0.00069832402 110:0.001396648 111:0.0020949721 112:0.0034916201 113:0.0020949721 114:0.00069832402 115:0.001396648 116:0.00069832402 117:0.0062849162 118:0.00069832402 119:0.0048882682 120:0.0041899441 121:0.011173184 122:0.0027932961 123:0.0027932961 124:0.00069832402 125:0.0062849162 126:0.00069832402 127:0.0041899441 128:0.0034916201 129:0.00069832402 130:0.0076815642 131:0.0055865922 132:0.00069832402 133:0.001396648 134:0.0083798883 135:0.0041899441 136:0.0083798883 137:0.0034916201 138:0.0027932961 139:0.001396648 140:0.00069832402 141:0.0076815642 142:0.0055865922 145:0.00069832402 146:0.00069832402 147:0.001396648 148:0.0055865922 149:0.0034916201 150:0.0041899441 151:0.0055865922 152:0.0048882682 153:0.0027932961 154:0.0090782123 155:0.0034916201 157:0.0027932961 158:0.001396648 159:0.001396648 160:0.0041899441 161:0.001396648 162:0.0062849162 163:0.0062849162 164:0.001396648 165:0.0034916201 166:0.0041899441 167:0.0083798883 168:0.00069832402 169:0.0062849162 170:0.0048882682 171:0.0020949721 172:0.0048882682 173:0.00069832402 174:0.0048882682 175:0.00069832402 176:0.0034916201 177:0.001396648 178:0.0041899441 179:0.0034916201 180:0.0090782123 181:0.0055865922 182:0.0083798883 183:0.0020949721 184:0.001396648 185:0.0062849162 186:0.0041899441 187:0.001396648 188:0.0020949721 189:0.0041899441 190:0.0041899441 191:0.0076815642 192:0.0020949721 193:0.00069832402 195:0.0020949721 196:0.0027932961 197:0.00069832402 198:0.0055865922 199:0.012569832 200:0.0069832402 201:0.034217877 202:0.001396648 203:0.0062849162 204:0.0041899441 205:0.0069832402 206:0.0076815642 207:0.00069832402 208:0.001396648 209:0.0027932961 211:0.0069832402 212:0.01047486 213:0.0027932961 214:0.00069832402 215:0.0034916201 218:0.001396648 219:0.0034916201 220:0.001396648 221:0.00069832402 222:0.0076815642 223:0.0062849162 224:0.0034916201 225:0.00069832402 226:0.0020949721 227:0.011173184 228:0.01396648 229:0.011871508 230:0.0034916201 231:0.001396648 232:0.0034916201 233:0.00069832402 235:0.0034916201 236:0.0027932961 237:0.0020949721 238:0.0076815642 239:0.0027932961 240:0.0020949721 241:0.0062849162 242:0.011173184 243:0.001396648 244:0.0041899441 245:0.001396648 246:0.0027932961 247:0.0034916201 248:0.0083798883 249:0.0027932961 250:0.0097765363 251:0.0083798883 252:0.00069832402 253:0.012569832 254:0.00069832402 255:0.0034916201 256:0.0027932961 
5.685152907981916 1:0.0016460905 2:0.01399177 3:0.0049382716 4:0.00082304527 5:0.0098765432 7:0.0032921811 8:0.0098765432 9:0.0049382716 10:0.0049382716 11:0.0049382716 12:0.0016460905 13:0.01399177 15:0.010699588 16:0.011522634 17:0.00082304527 18:0.0057613169 19:0.0024691358 20:0.0057613169 21:0.0016460905 22:0.0024691358 23:0.00082304527 24:0.0024691358 25:0.00082304527 26:0.0032921811 27:0.0024691358 28:0.0032921811 29:0.00082304527 31:0.0016460905 32:0.0074074074 34:0.0032921811 35:0.0041152263 37:0.0016460905 38:0.0041152263 39:0.00082304527 40:0.0016460905 41:0.0016460905 42:0.0065843621 43:0.0032921811 44:0.0032921811 45:0.0032921811 46:0.00082304527 47:0.0041152263 48:0.0057613169 49:0.0024691358 50:0.0016460905 51:0.0032921811 52:0.0049382716 53:0.018106996 54:0.0049382716 55:0.0032921811 56:0.0049382716 57:0.0065843621 58:0.0049382716 59:0.0032921811 60:0.0016460905 61:0.011522634 62:0.00082304527 63:0.0041152263 64:0.0049382716 65:0.0024691358 66:0.00082304527 67:0.0057613169 68:0.00082304527 69:0.00082304527 70:0.0024691358 71:0.00082304527 72:0.0024691358 73:0.0074074074 74:0.0016460905 75:0.0041152263 77:0.0032921811 78:0.00082304527 79:0.0024691358 80:0.0049382716 81:0.0049382716 82:0.0065843621 83:0.0082304527 84:0.0041152263 85:0.012345679 86:0.0065843621 87:0.0057613169 88:0.0016460905 89:0.0057613169 90:0.0041152263 93:0.00082304527 94:0.0090534979 95:0.0049382716 97:0.0074074074 98:0.00082304527 99:0.0016460905 100:0.0024691358 101:0.0016460905 102:0.0041152263 103:0.0057613169 104:0.011522634 105:0.0016460905 106:0.0090534979 107:0.0074074074 108:0.0041152263 110:0.0024691358 111:0.0016460905 112:0.0041152263 113:0.0024691358 114:0.00082304527 115:0.0057613169 116:0.0074074074 117:0.0024691358 118:0.0016460905 119:0.0016460905 120:0.0041152263 121:0.0032921811 122:0.0098765432 123:0.0016460905 124:0.0032921811 125:0.00082304527 126:0.0024691358 127:0.0032921811 128:0.0065843621 129:0.0074074074 130:0.00082304527 131:0.0032921811 132:0.0032921811 133:0.0057613169 134:0.0065843621 135:0.00082304527 136:0.0049382716 137:0.0057613169 138:0.0016460905 139:0.0024691358 140:0.0082304527 142:0.0057613169 143:0.00082304527 144:0.0049382716 147:0.0032921811 148:0.0090534979 149:0.0065843621 150:0.0016460905 151:0.0065843621 153:0.00082304527 154:0.00082304527 156:0.0041152263 157:0.0057613169 159:0.0016460905 160:0.0041152263 161:0.0016460905 162:0.0032921811 163:0.013168724 164:0.00082304527 165:0.0041152263 166:0.0082304527 167:0.0041152263 168:0.00082304527 169:0.0057613169 170:0.0024691358 171:0.00082304527 172:0.0041152263 173:0.0032921811 174:0.0024691358 175:0.0016460905 176:0.0032921811 177:0.0016460905 178:0.0016460905 179:0.0016460905 180:0.0090534979 181:0.0016460905 182:0.0057613169 183:0.00082304527 185:0.0065843621 186:0.0041152263 188:0.0090534979 190:0.0016460905 191:0.0041152263 192:0.00082304527 193:0.0016460905 195:0.0049382716 196:0.00082304527 198:0.0032921811 199:0.0032921811 200:0.0065843621 201:0.021399177 202:0.0024691358 203:0.0032921811 204:0.0065843621 206:0.0065843621 207:0.00082304527 209:0.0016460905 210:0.01563786 211:0.0049382716 212:0.0090534979 213:0.0024691358 214:0.00082304527 215:0.00082304527 216:0.0024691358 217:0.017283951 218:0.00082304527 219:0.0032921811 220:0.00082304527 221:0.0024691358 222:0.00082304527 223:0.0082304527 228:0.048559671 229:0.0041152263 230:0.0049382716 231:0.00082304527 232:0.0032921811 233:0.0016460905 234:0.0074074074 235:0.0074074074 236:0.00082304527 237:0.00082304527 238:0.0016460905 239:0.0016460905 240:0.0065843621 241:0.010699588 242:0.0032921811 243:0.0016460905 246:0.0016460905 248:0.0041152263 250:0.0065843621 251:0.0090534979 252:0.0041152263 253:0.0041152263 254:0.0057613169 255:0.00082304527 256:0.0049382716 
5.434788390550457 1:0.00099009901 2:0.001980198 3:0.003960396 4:0.00099009901 5:0.0099009901 7:0.00099009901 8:0.001980198 9:0.001980198 10:0.00099009901 11:0.01980198 12:0.00099009901 13:0.0069306931 14:0.00099009901 15:0.013861386 16:0.00099009901 17:0.001980198 18:0.001980198 19:0.00099009901 20:0.0059405941 21:0.001980198 22:0.023762376 23:0.0089108911 24:0.014851485 25:0.0059405941 26:0.012871287 27:0.001980198 29:0.00099009901 30:0.0069306931 31:0.0079207921 32:0.011881188 33:0.00099009901 34:0.00099009901 35:0.0059405941 36:0.001980198 37:0.002970297 38:0.003960396 39:0.0059405941 40:0.002970297 41:0.0069306931 42:0.001980198 43:0.002970297 44:0.0069306931 45:0.002970297 46:0.002970297 47:0.00099009901 49:0.001980198 51:0.0079207921 53:0.003960396 54:0.001980198 55:0.003960396 56:0.00099009901 57:0.004950495 58:0.002970297 59:0.014851485 60:0.001980198 61:0.0069306931 63:0.004950495 65:0.003960396 66:0.003960396 67:0.00099009901 68:0.001980198 69:0.00099009901 70:0.002970297 72:0.001980198 73:0.0069306931 74:0.0059405941 75:0.003960396 76:0.00099009901 78:0.002970297 82:0.0069306931 83:0.003960396 84:0.001980198 85:0.002970297 86:0.004950495 87:0.00099009901 88:0.0069306931 89:0.004950495 90:0.011881188 92:0.001980198 93:0.021782178 94:0.001980198 97:0.002970297 98:0.0069306931 99:0.0079207921 100:0.00099009901 101:0.004950495 102:0.004950495 103:0.0069306931 104:0.001980198 105:0.00099009901 106:0.0069306931 107:0.0089108911 108:0.001980198 109:0.00099009901 112:0.003960396 113:0.0059405941 116:0.00099009901 117:0.0089108911 118:0.014851485 119:0.010891089 120:0.0059405941 121:0.00099009901 122:0.0069306931 123:0.00099009901 124:0.021782178 129:0.003960396 131:0.002970297 132:0.003960396 133:0.012871287 134:0.00099009901 135:0.00099009901 136:0.0059405941 137:0.001980198 138:0.00099009901 139:0.003960396 140:0.002970297 142:0.003960396 144:0.00099009901 145:0.015841584 147:0.002970297 148:0.002970297 151:0.001980198 152:0.002970297 155:0.001980198 156:0.003960396 157:0.0089108911 158:0.004950495 159:0.00099009901 160:0.001980198 161:0.0079207921 162:0.004950495 163:0.0069306931 165:0.00099009901 166:0.0069306931 167:0.001980198 169:0.002970297 170:0.00099009901 171:0.0059405941 172:0.00099009901 173:0.010891089 174:0.022772277 175:0.002970297 176:0.00099009901 177:0.003960396 178:0.001980198 179:0.0079207921 180:0.023762376 182:0.0059405941 183:0.001980198 184:0.002970297 185:0.0059405941 186:0.001980198 188:0.0099009901 189:0.001980198 190:0.0089108911 191:0.0059405941 193:0.011881188 194:0.00099009901 195:0.0079207921 197:0.001980198 198:0.004950495 199:0.0089108911 200:0.00099009901 202:0.00099009901 203:0.00099009901 204:0.00099009901 205:0.00099009901 206:0.012871287 210:0.0059405941 211:0.002970297 212:0.004950495 213:0.00099009901 214:0.001980198 215:0.001980198 216:0.031683168 217:0.001980198 218:0.00099009901 219:0.002970297 221:0.004950495 222:0.003960396 223:0.0089108911 227:0.00099009901 228:0.00099009901 229:0.0059405941 230:0.00099009901 232:0.0079207921 233:0.001980198 234:0.010891089 235:0.003960396 236:0.00099009901 238:0.0069306931 239:0.001980198 240:0.003960396 241:0.001980198 242:0.00099009901 243:0.001980198 244:0.003960396 245:0.00099009901 246:0.00099009901 251:0.002970297 252:0.0059405941 254:0.012871287 
13.17813995806079 1:0.0029542097 2:0.0073855244 3:0.0051698671 4:0.00073855244 5:0.014032496 7:0.0044313146 8:0.0066469719 9:0.0022156573 11:0.00073855244 12:0.0014771049 13:0.0073855244 14:0.0073855244 15:0.00073855244 16:0.0036927622 17:0.00073855244 18:0.0029542097 19:0.0014771049 20:0.0029542097 21:0.0029542097 22:0.0022156573 23:0.0014771049 24:0.00073855244 25:0.0014771049 26:0.0066469719 27:0.0036927622 28:0.0029542097 29:0.0022156573 30:0.0022156573 31:0.0022156573 32:0.0022156573 33:0.0022156573 34:0.0014771049 35:0.0014771049 36:0.0014771049 37:0.0096011817 38:0.00073855244 39:0.0022156573 40:0.0051698671 41:0.0051698671 43:0.0029542097 45:0.010339734 46:0.0044313146 47:0.0059084195 48:0.0066469719 49:0.00073855244 51:0.0036927622 52:0.0014771049 53:0.0036927622 54:0.015509601 55:0.00073855244 56:0.0051698671 57:0.0014771049 58:0.0073855244 59:0.0022156573 60:0.0036927622 61:0.0059084195 62:0.0066469719 63:0.00073855244 64:0.00073855244 65:0.011078287 66:0.016248154 67:0.0044313146 68:0.0014771049 69:0.0029542097 70:0.0036927622 72:0.0044313146 73:0.011078287 74:0.00073855244 75:0.0022156573 76:0.0014771049 77:0.0051698671 78:0.0036927622 79:0.0014771049 80:0.0044313146 81:0.0022156573 82:0.0051698671 83:0.014771049 84:0.0081240768 86:0.00073855244 87:0.0088626292 88:0.0029542097 89:0.0059084195 90:0.014771049 91:0.0014771049 92:0.0014771049 93:0.00073855244 94:0.0051698671 95:0.0066469719 96:0.0066469719 97:0.0044313146 98:0.00073855244 99:0.0014771049 100:0.0088626292 101:0.0022156573 102:0.0014771049 103:0.0029542097 104:0.0022156573 105:0.0051698671 106:0.0044313146 107:0.0073855244 108:0.0051698671 110:0.00073855244 111:0.0036927622 113:0.0066469719 114:0.0036927622 115:0.0066469719 116:0.00073855244 117:0.0044313146 119:0.0029542097 120:0.0036927622 121:0.0088626292 122:0.0051698671 123:0.0022156573 124:0.00073855244 125:0.0036927622 126:0.0022156573 127:0.0022156573 128:0.00073855244 130:0.0088626292 131:0.013293944 132:0.0029542097 134:0.0029542097 135:0.0081240768 137:0.0014771049 138:0.0014771049 139:0.0014771049 140:0.0029542097 141:0.0029542097 142:0.0014771049 143:0.0029542097 145:0.0022156573 146:0.0029542097 147:0.0051698671 148:0.0081240768 149:0.0066469719 150:0.0044313146 151:0.0014771049 152:0.00073855244 153:0.00073855244 154:0.0073855244 155:0.010339734 156:0.0036927622 157:0.0014771049 158:0.0022156573 160:0.00073855244 161:0.0051698671 162:0.0029542097 163:0.0066469719 164:0.0014771049 165:0.0029542097 166:0.0029542097 167:0.0066469719 168:0.00073855244 169:0.0029542097 170:0.0081240768 171:0.00073855244 172:0.0059084195 173:0.00073855244 174:0.00073855244 175:0.0022156573 176:0.0022156573 177:0.0022156573 178:0.0073855244 179:0.0029542097 180:0.00073855244 181:0.0051698671 182:0.0036927622 183:0.010339734 184:0.0029542097 185:0.00073855244 186:0.014771049 187:0.0059084195 188:0.0059084195 189:0.0044313146 190:0.0044313146 191:0.0044313146 192:0.0044313146 193:0.0059084195 194:0.0029542097 195:0.0014771049 196:0.0029542097 197:0.0029542097 198:0.0036927622 199:0.0073855244 201:0.013293944 202:0.0029542097 203:0.011078287 204:0.0059084195 205:0.0029542097 206:0.010339734 207:0.0014771049 208:0.014032496 209:0.0036927622 210:0.0029542097 211:0.0036927622 212:0.0029542097 213:0.0036927622 214:0.0029542097 215:0.0014771049 217:0.0014771049 218:0.0036927622 219:0.0066469719 220:0.0029542097 221:0.0036927622 222:0.0066469719 223:0.0059084195 224:0.0029542097 227:0.0029542097 228:0.00073855244 229:0.0014771049 230:0.011078287 232:0.0022156573 233:0.0022156573 235:0.0029542097 236:0.0036927622 237:0.00073855244 238:0.0051698671 239:0.0051698671 240:0.0022156573 241:0.0096011817 242:0.0059084195 243:0.0096011817 244:0.0029542097 246:0.0022156573 247:0.0073855244 248:0.0022156573 249:0.0066469719 250:0.0066469719 251:0.0096011817 253:0.0066469719 254:0.0066469719 255:0.0029542097 256:0.0029542097 
2.385112496814469 1:0.0023674242 2:0.011363636 3:0.0056818182 4:0.0023674242 5:0.0099431818 7:0.0028409091 8:0.0056818182 9:0.0028409091 10:0.0037878788 11:0.0028409091 12:0.00047348485 13:0.0014204545 14:0.0014204545 15:0.0052083333 16:0.0028409091 17:0.0014204545 18:0.0037878788 19:0.00047348485 20:0.0042613636 21:0.0018939394 22:0.010416667 23:0.009469697 24:0.0052083333 25:0.0052083333 26:0.0085227273 27:0.0037878788 28:0.0018939394 29:0.0023674242 31:0.0047348485 32:0.0052083333 34:0.0033143939 35:0.006155303 36:0.0037878788 37:0.0018939394 38:0.0018939394 39:0.0028409091 40:0.009469697 41:0.0018939394 42:0.0009469697 43:0.0085227273 44:0.0066287879 45:0.00047348485 46:0.0014204545 48:0.0009469697 50:0.0023674242 51:0.0028409091 52:0.0056818182 53:0.0023674242 54:0.0033143939 55:0.009469697 56:0.010890152 57:0.0014204545 58:0.0037878788 59:0.0047348485 60:0.0014204545 61:0.0056818182 62:0.00047348485 63:0.0042613636 64:0.0066287879 65:0.006155303 66:0.0018939394 67:0.0071022727 69:0.0014204545 70:0.0052083333 71:0.0009469697 72:0.0018939394 73:0.009469697 74:0.0056818182 75:0.0075757576 76:0.00047348485 77:0.0042613636 78:0.0033143939 79:0.0014204545 80:0.0033143939 81:0.0014204545 82:0.0018939394 83:0.006155303 84:0.022727273 85:0.0018939394 86:0.0037878788 87:0.0018939394 88:0.0018939394 89:0.0033143939 90:0.0047348485 91:0.0009469697 92:0.0066287879 93:0.0066287879 94:0.0014204545 95:0.0018939394 96:0.00047348485 97:0.006155303 98:0.0037878788 99:0.0056818182 100:0.0023674242 101:0.0037878788 102:0.0075757576 103:0.0028409091 104:0.0023674242 105:0.0056818182 106:0.0047348485 107:0.0071022727 108:0.0023674242 109:0.0018939394 110:0.00047348485 111:0.00047348485 112:0.0028409091 113:0.0028409091 114:0.0009469697 115:0.0009469697 116:0.0018939394 117:0.006155303 118:0.0080492424 119:0.006155303 120:0.0023674242 121:0.0066287879 122:0.0033143939 123:0.006155303 124:0.010416667 125:0.0066287879 126:0.0009469697 127:0.0014204545 128:0.0028409091 129:0.0033143939 130:0.009469697 131:0.0037878788 132:0.0009469697 133:0.0014204545 134:0.006155303 135:0.0052083333 136:0.0071022727 137:0.0018939394 138:0.0023674242 139:0.0056818182 140:0.0028409091 141:0.0014204545 142:0.0014204545 143:0.0037878788 144:0.0028409091 145:0.00047348485 146:0.0018939394 147:0.0037878788 148:0.0028409091 149:0.0042613636 150:0.0009469697 151:0.0066287879 152:0.0047348485 153:0.0028409091 154:0.0023674242 155:0.0042613636 156:0.0018939394 157:0.0085227273 158:0.0023674242 159:0.0028409091 160:0.0052083333 161:0.0085227273 162:0.006155303 163:0.0037878788 164:0.00047348485 165:0.0042613636 166:0.006155303 167:0.0047348485 169:0.0023674242 170:0.0056818182 171:0.0037878788 172:0.0047348485 173:0.0052083333 174:0.00047348485 175:0.006155303 176:0.0037878788 177:0.0023674242 178:0.0028409091 179:0.0033143939 180:0.0075757576 181:0.0066287879 182:0.0042613636 183:0.0028409091 184:0.0037878788 185:0.0085227273 186:0.0052083333 187:0.0009469697 188:0.0042613636 190:0.0037878788 191:0.0009469697 192:0.0014204545 193:0.0033143939 195:0.0047348485 196:0.00047348485 197:0.0009469697 198:0.0009469697 199:0.0033143939 200:0.0037878788 201:0.0075757576 202:0.0033143939 203:0.0028409091 204:0.0009469697 205:0.0018939394 206:0.0018939394 207:0.0037878788 208:0.0014204545 209:0.0042613636 210:0.0071022727 211:0.0071022727 212:0.0047348485 213:0.0028409091 214:0.0056818182 215:0.0009469697 216:0.011837121 217:0.009469697 218:0.0014204545 219:0.0028409091 220:0.0023674242 221:0.0033143939 222:0.010890152 223:0.0018939394 224:0.0014204545 225:0.00047348485 226:0.00047348485 227:0.0014204545 228:0.006155303 229:0.0042613636 230:0.0009469697 231:0.00047348485 232:0.0071022727 233:0.0018939394 234:0.0052083333 235:0.0066287879 236:0.0047348485 237:0.0018939394 238:0.0037878788 239:0.022253788 240:0.0080492424 241:0.0080492424 242:0.0047348485 243:0.0037878788 244:0.0033143939 246:0.0009469697 247:0.0018939394 248:0.0047348485 249:0.0028409091 250:0.0037878788 251:0.0085227273 252:0.00047348485 253:0.0075757576 254:0.0066287879 255:0.0014204545 256:0.0047348485 
3.609295228596298 1:0.0013495277 2:0.014844804 5:0.020242915 8:0.004048583 9:0.0013495277 10:0.0013495277 11:0.0013495277 13:0.0013495277 15:0.026990553 16:0.004048583 18:0.010796221 20:0.008097166 22:0.0094466937 23:0.0013495277 25:0.0053981107 26:0.010796221 27:0.0013495277 30:0.0013495277 31:0.0094466937 34:0.0026990553 35:0.016194332 36:0.0026990553 37:0.0053981107 38:0.0026990553 39:0.004048583 42:0.010796221 43:0.0013495277 44:0.0067476383 45:0.004048583 48:0.004048583 51:0.0013495277 52:0.0013495277 53:0.0013495277 54:0.0026990553 55:0.0094466937 56:0.004048583 58:0.0026990553 59:0.02294197 61:0.0013495277 63:0.0013495277 64:0.013495277 65:0.0013495277 67:0.033738192 68:0.0026990553 70:0.0013495277 73:0.016194332 75:0.004048583 77:0.0013495277 80:0.0013495277 81:0.0053981107 82:0.0067476383 83:0.004048583 84:0.0094466937 85:0.0013495277 86:0.0013495277 87:0.016194332 88:0.0067476383 89:0.0067476383 90:0.018893387 96:0.0026990553 98:0.0026990553 102:0.008097166 104:0.025641026 106:0.0026990553 110:0.004048583 112:0.004048583 114:0.004048583 115:0.0013495277 116:0.025641026 117:0.0013495277 118:0.0026990553 119:0.0094466937 120:0.0013495277 121:0.0053981107 124:0.0013495277 128:0.0013495277 129:0.0026990553 130:0.010796221 131:0.0013495277 132:0.0013495277 133:0.0013495277 134:0.0013495277 136:0.0053981107 137:0.0013495277 139:0.0094466937 140:0.004048583 141:0.0026990553 142:0.0067476383 143:0.0013495277 144:0.0026990553 145:0.0013495277 147:0.0013495277 148:0.010796221 149:0.025641026 153:0.0013495277 156:0.004048583 157:0.008097166 161:0.010796221 162:0.0013495277 166:0.008097166 169:0.0013495277 172:0.0053981107 173:0.004048583 174:0.013495277 175:0.0026990553 176:0.004048583 179:0.0013495277 180:0.0013495277 181:0.008097166 182:0.008097166 183:0.0013495277 185:0.008097166 186:0.0053981107 187:0.0013495277 188:0.021592443 195:0.0053981107 198:0.004048583 199:0.0013495277 201:0.029689609 202:0.004048583 204:0.0013495277 206:0.0026990553 207:0.0053981107 211:0.0026990553 212:0.004048583 216:0.014844804 217:0.0013495277 219:0.0053981107 221:0.0026990553 222:0.004048583 223:0.0013495277 226:0.0026990553 228:0.0094466937 229:0.0013495277 230:0.016194332 234:0.004048583 235:0.0026990553 239:0.012145749 240:0.0094466937 241:0.029689609 242:0.0053981107 243:0.0013495277 246:0.004048583 248:0.0026990553 250:0.014844804 252:0.014844804 254:0.045883941 255:0.008097166 256:0.010796221 
6.532143967708655 1:0.0017730496 2:0.0029550827 3:0.0011820331 5:0.0053191489 6:0.00059101655 7:0.00059101655 8:0.0053191489 9:0.006501182 10:0.0017730496 11:0.013593381 12:0.0017730496 13:0.0011820331 14:0.0017730496 15:0.006501182 16:0.0035460993 17:0.0023640662 18:0.0053191489 19:0.0011820331 20:0.0041371158 21:0.00059101655 22:0.0047281324 23:0.0070921986 24:0.0094562648 25:0.014775414 26:0.013002364 27:0.0041371158 28:0.00059101655 29:0.0017730496 30:0.00059101655 31:0.0017730496 32:0.0070921986 33:0.0029550827 34:0.0023640662 35:0.0017730496 36:0.0017730496 37:0.0011820331 38:0.0035460993 39:0.0029550827 40:0.0035460993 41:0.0017730496 42:0.0047281324 43:0.0035460993 44:0.0011820331 45:0.0035460993 46:0.00059101655 48:0.0076832151 49:0.0011820331 50:0.0029550827 51:0.0041371158 52:0.0017730496 53:0.0059101655 54:0.0029550827 55:0.0059101655 56:0.0059101655 57:0.0017730496 58:0.0035460993 59:0.010047281 60:0.0047281324 61:0.0047281324 62:0.0035460993 63:0.0035460993 64:0.0023640662 65:0.0047281324 66:0.0023640662 67:0.0017730496 68:0.0029550827 69:0.00059101655 70:0.0076832151 71:0.0023640662 72:0.0011820331 73:0.0070921986 74:0.0023640662 75:0.011229314 76:0.0023640662 77:0.0023640662 78:0.0023640662 79:0.0041371158 80:0.0017730496 81:0.0053191489 82:0.0035460993 83:0.0094562648 84:0.0011820331 85:0.0053191489 86:0.0047281324 87:0.0023640662 88:0.010638298 89:0.0070921986 90:0.010047281 91:0.010638298 92:0.0029550827 93:0.0035460993 95:0.00059101655 96:0.0017730496 97:0.006501182 98:0.00059101655 99:0.0053191489 100:0.0035460993 101:0.0023640662 102:0.0094562648 103:0.0017730496 104:0.0082742317 105:0.0017730496 106:0.0082742317 107:0.0029550827 108:0.00059101655 110:0.0035460993 111:0.0017730496 112:0.0017730496 113:0.0029550827 114:0.00059101655 115:0.0017730496 116:0.0017730496 117:0.0082742317 119:0.0070921986 120:0.0023640662 121:0.0070921986 122:0.0017730496 123:0.0023640662 124:0.013002364 125:0.0011820331 126:0.0017730496 127:0.0011820331 128:0.0029550827 129:0.0029550827 130:0.0076832151 131:0.0053191489 132:0.0011820331 133:0.0023640662 134:0.0023640662 135:0.0029550827 136:0.010638298 137:0.0023640662 138:0.0017730496 139:0.0041371158 140:0.0011820331 141:0.0017730496 142:0.0017730496 143:0.0053191489 144:0.0041371158 147:0.0029550827 148:0.0011820331 149:0.0070921986 150:0.0011820331 151:0.0011820331 152:0.0011820331 153:0.0017730496 154:0.0035460993 155:0.0041371158 156:0.0035460993 157:0.006501182 158:0.0017730496 159:0.0035460993 160:0.0029550827 161:0.0094562648 162:0.0029550827 163:0.0023640662 164:0.0053191489 165:0.0029550827 166:0.0041371158 167:0.0029550827 169:0.0059101655 170:0.0047281324 171:0.0053191489 172:0.0047281324 173:0.0094562648 174:0.0053191489 175:0.0029550827 176:0.0029550827 177:0.0041371158 178:0.0088652482 179:0.0035460993 180:0.0088652482 181:0.00059101655 182:0.01536643 183:0.0023640662 184:0.0047281324 185:0.006501182 186:0.0047281324 187:0.0011820331 188:0.00059101655 189:0.0053191489 190:0.0035460993 191:0.0029550827 192:0.0011820331 193:0.0041371158 194:0.0017730496 195:0.0059101655 196:0.00059101655 197:0.0011820331 199:0.0029550827 200:0.0029550827 201:0.011820331 202:0.0017730496 203:0.00059101655 204:0.0053191489 205:0.0017730496 206:0.0059101655 207:0.0053191489 209:0.0017730496 210:0.0059101655 211:0.0059101655 212:0.0053191489 213:0.0094562648 214:0.00059101655 215:0.0011820331 216:0.010047281 217:0.0035460993 218:0.00059101655 219:0.0017730496 220:0.0023640662 221:0.0029550827 222:0.0082742317 223:0.0023640662 224:0.0017730496 225:0.0029550827 226:0.0011820331 227:0.0053191489 228:0.0070921986 229:0.0059101655 230:0.0082742317 231:0.0017730496 232:0.0017730496 233:0.00059101655 234:0.014184397 235:0.0041371158 236:0.0023640662 237:0.0023640662 238:0.0029550827 239:0.0017730496 240:0.0088652482 241:0.011229314 242:0.0041371158 243:0.00059101655 244:0.0035460993 245:0.0017730496 246:0.0023640662 247:0.0011820331 248:0.0029550827 249:0.0053191489 250:0.0047281324 251:0.0053191489 252:0.0011820331 253:0.0017730496 254:0.01891253 255:0.0041371158 256:0.0047281324 
5.706818775652034 2:0.013937282 3:0.0017421603 5:0.0034843206 7:0.0069686411 8:0.0069686411 10:0.0017421603 11:0.0017421603 12:0.0069686411 13:0.0069686411 15:0.0034843206 16:0.0034843206 18:0.0034843206 19:0.0017421603 20:0.0017421603 21:0.0017421603 22:0.010452962 24:0.0052264808 26:0.0034843206 27:0.0017421603 28:0.0017421603 35:0.0017421603 36:0.0017421603 38:0.0017421603 40:0.0017421603 41:0.0017421603 42:0.0034843206 43:0.0069686411 44:0.0069686411 46:0.0034843206 48:0.015679443 49:0.0034843206 50:0.0034843206 51:0.0069686411 53:0.0087108014 54:0.010452962 57:0.0034843206 58:0.0034843206 59:0.0087108014 60:0.010452962 62:0.019163763 63:0.0034843206 65:0.0052264808 66:0.0034843206 67:0.0052264808 68:0.0017421603 70:0.0087108014 72:0.0052264808 73:0.0017421603 74:0.0017421603 75:0.0052264808 76:0.0069686411 77:0.0034843206 78:0.0034843206 79:0.0017421603 80:0.0052264808 82:0.0017421603 83:0.0069686411 86:0.0017421603 87:0.0052264808 88:0.0052264808 89:0.0069686411 90:0.0069686411 91:0.0017421603 94:0.0052264808 95:0.0034843206 96:0.0052264808 97:0.0034843206 98:0.0017421603 99:0.0052264808 101:0.0017421603 102:0.0069686411 103:0.0052264808 104:0.0069686411 106:0.0034843206 107:0.0034843206 108:0.0034843206 109:0.0017421603 110:0.0017421603 112:0.0034843206 113:0.0017421603 114:0.0017421603 116:0.0034843206 117:0.0034843206 118:0.0017421603 120:0.0052264808 121:0.0069686411 123:0.0017421603 124:0.0052264808 125:0.013937282 129:0.0017421603 130:0.0087108014 131:0.0034843206 132:0.0017421603 133:0.0087108014 134:0.0017421603 135:0.0034843206 136:0.0052264808 137:0.0034843206 139:0.0017421603 142:0.0034843206 143:0.0017421603 144:0.0017421603 145:0.0087108014 146:0.0034843206 148:0.0017421603 149:0.017421603 150:0.010452962 155:0.012195122 157:0.0017421603 158:0.0052264808 161:0.0034843206 162:0.0052264808 163:0.015679443 167:0.0052264808 170:0.0017421603 171:0.0017421603 172:0.022648084 173:0.0017421603 175:0.019163763 176:0.0087108014 177:0.0069686411 178:0.010452962 179:0.012195122 181:0.0087108014 182:0.019163763 183:0.0034843206 184:0.0052264808 185:0.010452962 186:0.0069686411 187:0.0017421603 188:0.0017421603 191:0.0034843206 193:0.0034843206 194:0.0017421603 197:0.0052264808 199:0.0069686411 200:0.0087108014 201:0.036585366 203:0.0034843206 204:0.0034843206 206:0.010452962 207:0.0052264808 210:0.0087108014 211:0.0052264808 212:0.0034843206 213:0.0017421603 216:0.0017421603 217:0.0052264808 218:0.0017421603 219:0.0017421603 221:0.0087108014 222:0.010452962 223:0.0069686411 225:0.0034843206 227:0.0017421603 228:0.024390244 229:0.0017421603 230:0.0034843206 234:0.0017421603 235:0.0069686411 236:0.0034843206 240:0.0034843206 241:0.031358885 242:0.013937282 243:0.0069686411 244:0.0017421603 246:0.0069686411 247:0.0017421603 248:0.010452962 249:0.0017421603 250:0.015679443 253:0.0052264808 254:0.0034843206 255:0.0034843206 256:0.0017421603 
5.14838554769785 1:0.001396648 2:0.0069832402 3:0.0027932961 4:0.001396648 6:0.001396648 7:0.001396648 8:0.001396648 9:0.0097765363 11:0.001396648 12:0.001396648 18:0.001396648 19:0.001396648 20:0.0041899441 21:0.001396648 22:0.01396648 23:0.0055865922 24:0.0083798883 25:0.0041899441 27:0.015363128 31:0.001396648 32:0.0083798883 33:0.001396648 34:0.001396648 35:0.0083798883 38:0.001396648 39:0.0041899441 42:0.0027932961 43:0.011173184 47:0.0041899441 49:0.001396648 50:0.0041899441 51:0.0041899441 52:0.0055865922 53:0.0027932961 54:0.0027932961 55:0.0027932961 56:0.001396648 57:0.0027932961 58:0.011173184 59:0.0069832402 60:0.001396648 61:0.0027932961 63:0.01396648 65:0.0041899441 68:0.001396648 70:0.012569832 73:0.0027932961 74:0.0055865922 75:0.0083798883 78:0.001396648 79:0.020949721 80:0.0041899441 81:0.0027932961 82:0.0041899441 83:0.0041899441 84:0.001396648 85:0.001396648 86:0.001396648 87:0.0083798883 88:0.0069832402 89:0.0041899441 90:0.01396648 93:0.0027932961 94:0.001396648 95:0.0083798883 97:0.0055865922 98:0.001396648 99:0.0069832402 101:0.001396648 102:0.0055865922 103:0.0069832402 104:0.0055865922 105:0.0097765363 106:0.01396648 107:0.0027932961 110:0.001396648 112:0.0027932961 116:0.001396648 117:0.0055865922 119:0.0083798883 120:0.0069832402 121:0.001396648 122:0.001396648 124:0.001396648 125:0.0097765363 126:0.016759777 127:0.0027932961 130:0.012569832 131:0.001396648 132:0.0027932961 134:0.016759777 135:0.0097765363 136:0.0027932961 139:0.0041899441 140:0.0027932961 142:0.0027932961 143:0.001396648 144:0.0083798883 145:0.001396648 149:0.001396648 150:0.0027932961 151:0.0083798883 154:0.0041899441 155:0.0069832402 156:0.001396648 157:0.022346369 158:0.0083798883 159:0.001396648 160:0.0027932961 161:0.0041899441 163:0.0027932961 164:0.001396648 166:0.0069832402 167:0.0055865922 169:0.001396648 170:0.001396648 172:0.0083798883 173:0.0083798883 174:0.0027932961 175:0.0055865922 177:0.001396648 178:0.0097765363 179:0.0055865922 180:0.0041899441 181:0.0041899441 182:0.0083798883 183:0.0027932961 184:0.0027932961 185:0.0041899441 186:0.011173184 187:0.0041899441 189:0.001396648 190:0.0069832402 191:0.0027932961 193:0.001396648 194:0.0027932961 196:0.0055865922 199:0.0055865922 200:0.015363128 201:0.020949721 203:0.001396648 205:0.0083798883 206:0.0097765363 207:0.0027932961 208:0.0055865922 209:0.001396648 210:0.0069832402 211:0.0055865922 213:0.019553073 214:0.011173184 215:0.001396648 216:0.001396648 217:0.0027932961 219:0.001396648 221:0.001396648 222:0.036312849 223:0.0027932961 224:0.001396648 228:0.0069832402 229:0.0041899441 230:0.0041899441 232:0.0027932961 233:0.0027932961 234:0.001396648 235:0.0027932961 236:0.0097765363 240:0.0027932961 241:0.001396648 242:0.020949721 243:0.0083798883 244:0.0041899441 246:0.001396648 247:0.0027932961 248:0.027932961 249:0.001396648 250:0.0069832402 251:0.016759777 253:0.0069832402 254:0.001396648 256:0.0055865922 
6.76796888621489 2:0.0061728395 5:0.0030864198 7:0.0046296296 8:0.015432099 9:0.0015432099 10:0.0061728395 11:0.0030864198 13:0.029320988 16:0.0092592593 17:0.0015432099 18:0.0092592593 20:0.0077160494 22:0.0046296296 27:0.0030864198 28:0.0015432099 33:0.0046296296 34:0.0015432099 35:0.0092592593 36:0.0015432099 38:0.0046296296 39:0.0030864198 40:0.0015432099 41:0.0015432099 42:0.0061728395 43:0.0077160494 44:0.0015432099 45:0.0015432099 46:0.0046296296 48:0.012345679 51:0.0077160494 52:0.0046296296 53:0.0015432099 54:0.012345679 55:0.0061728395 56:0.0030864198 57:0.0046296296 58:0.0015432099 60:0.0030864198 62:0.0030864198 63:0.0061728395 66:0.0015432099 67:0.0015432099 69:0.0015432099 70:0.0092592593 73:0.0030864198 74:0.0030864198 75:0.0092592593 77:0.0030864198 79:0.0077160494 80:0.0061728395 81:0.0046296296 82:0.0077160494 84:0.0015432099 85:0.0015432099 86:0.0092592593 87:0.0046296296 88:0.0092592593 89:0.0077160494 90:0.0030864198 91:0.0061728395 94:0.013888889 95:0.0077160494 96:0.0015432099 97:0.0077160494 99:0.0015432099 102:0.0046296296 103:0.012345679 104:0.0015432099 106:0.0030864198 107:0.020061728 108:0.021604938 110:0.0077160494 111:0.0092592593 112:0.0046296296 113:0.0092592593 114:0.0015432099 115:0.0092592593 116:0.0015432099 118:0.0092592593 119:0.0030864198 120:0.0015432099 121:0.0015432099 123:0.0015432099 125:0.0046296296 126:0.0015432099 127:0.0046296296 128:0.016975309 130:0.0015432099 131:0.016975309 132:0.0030864198 133:0.0046296296 134:0.0030864198 135:0.012345679 137:0.018518519 138:0.0015432099 139:0.0030864198 140:0.013888889 141:0.0015432099 142:0.023148148 143:0.0030864198 144:0.0061728395 147:0.0015432099 149:0.0015432099 150:0.0030864198 153:0.0030864198 154:0.0046296296 155:0.0030864198 157:0.0030864198 158:0.0061728395 159:0.0015432099 160:0.0015432099 161:0.0030864198 163:0.016975309 165:0.0030864198 166:0.0030864198 167:0.0046296296 169:0.0015432099 170:0.0061728395 171:0.0077160494 172:0.0030864198 174:0.0046296296 178:0.0046296296 179:0.0015432099 180:0.0046296296 181:0.013888889 182:0.0015432099 183:0.0015432099 184:0.0015432099 185:0.0030864198 186:0.0061728395 187:0.0046296296 188:0.0046296296 190:0.0046296296 191:0.013888889 192:0.0030864198 195:0.0046296296 197:0.0015432099 201:0.012345679 202:0.0030864198 203:0.0061728395 204:0.0046296296 205:0.0030864198 206:0.0030864198 208:0.0015432099 209:0.0015432099 213:0.0030864198 214:0.0046296296 215:0.0061728395 217:0.0030864198 219:0.0015432099 221:0.0046296296 222:0.0015432099 223:0.026234568 224:0.0015432099 225:0.0030864198 228:0.0046296296 229:0.0030864198 230:0.0015432099 232:0.013888889 233:0.0061728395 235:0.0046296296 236:0.0061728395 237:0.0046296296 239:0.0046296296 240:0.0030864198 241:0.016975309 242:0.0061728395 243:0.0061728395 245:0.0015432099 248:0.0046296296 249:0.0077160494 250:0.0015432099 251:0.0092592593 252:0.0061728395 253:0.0077160494 254:0.0015432099 256:0.0077160494 
5.118734298735939 1:0.00078554595 2:0.0070699136 3:0.0023566379 4:0.00078554595 5:0.0039277298 6:0.0023566379 7:0.0023566379 8:0.014139827 9:0.0094265515 10:0.010212097 12:0.0015710919 13:0.010212097 14:0.0039277298 16:0.016496465 17:0.0054988217 18:0.014139827 19:0.00078554595 20:0.0086410055 21:0.0031421838 22:0.0023566379 23:0.0023566379 25:0.00078554595 27:0.0023566379 28:0.0023566379 29:0.0015710919 30:0.00078554595 31:0.0023566379 32:0.0047132757 33:0.00078554595 34:0.0015710919 35:0.0078554595 36:0.0015710919 37:0.0054988217 38:0.0015710919 39:0.0054988217 40:0.012568735 41:0.0023566379 42:0.0039277298 43:0.0054988217 44:0.0054988217 45:0.0054988217 46:0.0015710919 48:0.0054988217 50:0.00078554595 51:0.017282011 53:0.0062843676 54:0.0031421838 56:0.0078554595 57:0.0054988217 58:0.0039277298 59:0.0070699136 60:0.0031421838 61:0.0023566379 62:0.0039277298 63:0.0015710919 64:0.0015710919 65:0.011783189 66:0.013354281 67:0.0039277298 68:0.0039277298 70:0.0062843676 73:0.0094265515 74:0.00078554595 75:0.0039277298 77:0.0023566379 79:0.0086410055 80:0.0015710919 81:0.0031421838 82:0.0054988217 83:0.017282011 84:0.0062843676 86:0.0094265515 87:0.010997643 88:0.0023566379 89:0.0031421838 90:0.0047132757 91:0.0023566379 92:0.00078554595 93:0.0031421838 94:0.0023566379 95:0.0047132757 96:0.0015710919 97:0.0031421838 98:0.0023566379 100:0.0047132757 101:0.0015710919 102:0.0023566379 103:0.0039277298 104:0.0047132757 105:0.0031421838 106:0.0031421838 107:0.0039277298 108:0.0023566379 110:0.00078554595 111:0.0039277298 112:0.0054988217 113:0.0047132757 115:0.0047132757 116:0.0015710919 117:0.0015710919 118:0.010212097 119:0.010997643 120:0.0039277298 121:0.0015710919 122:0.0039277298 123:0.0047132757 126:0.00078554595 128:0.0023566379 129:0.0015710919 130:0.0054988217 131:0.012568735 133:0.0015710919 134:0.00078554595 135:0.0094265515 137:0.0062843676 138:0.00078554595 139:0.0015710919 140:0.0023566379 141:0.0039277298 142:0.0031421838 143:0.00078554595 145:0.0015710919 146:0.0047132757 147:0.00078554595 148:0.0031421838 149:0.012568735 150:0.0086410055 152:0.00078554595 153:0.0047132757 154:0.0023566379 155:0.010212097 156:0.0015710919 157:0.0054988217 158:0.00078554595 160:0.0070699136 161:0.0023566379 162:0.0047132757 163:0.011783189 165:0.0015710919 166:0.0078554595 167:0.0047132757 168:0.00078554595 170:0.0015710919 171:0.0015710919 172:0.014925373 173:0.0015710919 174:0.0047132757 175:0.00078554595 176:0.0031421838 177:0.0015710919 178:0.0047132757 179:0.0039277298 181:0.011783189 182:0.0047132757 183:0.0039277298 184:0.0015710919 186:0.013354281 188:0.0047132757 190:0.0023566379 191:0.0054988217 192:0.0039277298 193:0.00078554595 195:0.00078554595 197:0.0015710919 198:0.0039277298 199:0.0047132757 200:0.00078554595 201:0.0094265515 202:0.0015710919 203:0.0015710919 204:0.0031421838 205:0.0031421838 206:0.0054988217 208:0.0047132757 209:0.0015710919 210:0.0023566379 211:0.00078554595 212:0.0047132757 213:0.010997643 214:0.0015710919 217:0.0015710919 218:0.0031421838 219:0.0078554595 220:0.0031421838 221:0.0023566379 222:0.0070699136 223:0.0047132757 224:0.0054988217 226:0.00078554595 227:0.010997643 228:0.011783189 229:0.0039277298 230:0.017282011 232:0.0078554595 233:0.0015710919 235:0.0062843676 236:0.0086410055 237:0.0015710919 238:0.0054988217 239:0.00078554595 240:0.0047132757 241:0.010997643 242:0.011783189 243:0.0054988217 244:0.00078554595 246:0.0015710919 247:0.010997643 248:0.0070699136 249:0.0094265515 250:0.0023566379 251:0.0047132757 252:0.00078554595 253:0.0039277298 254:0.00078554595 256:0.00078554595 
11.11871874692957 1:0.0023081362 2:0.0075014426 3:0.0011540681 4:0.0028851702 5:0.0075014426 6:0.0017311021 7:0.0046162724 8:0.0028851702 9:0.0017311021 10:0.0028851702 11:0.0046162724 12:0.0023081362 13:0.00057703405 14:0.0028851702 15:0.0069244085 16:0.0028851702 17:0.0034622043 18:0.0034622043 19:0.0034622043 20:0.0040392383 21:0.0028851702 22:0.0046162724 23:0.0046162724 24:0.0040392383 25:0.0046162724 26:0.0017311021 27:0.0046162724 28:0.0023081362 29:0.0040392383 30:0.00057703405 31:0.0028851702 32:0.0034622043 33:0.0028851702 34:0.0028851702 35:0.0023081362 36:0.0069244085 37:0.0086555107 38:0.0046162724 39:0.00057703405 40:0.0034622043 41:0.0051933064 42:0.0040392383 43:0.0040392383 44:0.0069244085 45:0.0011540681 46:0.0011540681 47:0.0040392383 48:0.0040392383 49:0.0017311021 50:0.0046162724 51:0.0023081362 52:0.0046162724 53:0.0046162724 54:0.0028851702 55:0.0017311021 56:0.0028851702 57:0.0011540681 58:0.0040392383 59:0.0063473745 60:0.0023081362 61:0.0017311021 62:0.0011540681 63:0.0046162724 64:0.0046162724 65:0.0011540681 66:0.0034622043 67:0.0034622043 68:0.0028851702 69:0.0057703405 70:0.0046162724 71:0.0011540681 72:0.0028851702 73:0.0069244085 74:0.0017311021 75:0.0057703405 76:0.0034622043 77:0.0040392383 78:0.0034622043 79:0.0051933064 80:0.0028851702 81:0.0069244085 82:0.0034622043 83:0.0040392383 84:0.0017311021 85:0.0017311021 86:0.0023081362 87:0.0051933064 88:0.0028851702 89:0.0086555107 90:0.014425851 91:0.0075014426 92:0.0040392383 93:0.0075014426 94:0.0028851702 95:0.0017311021 96:0.0017311021 97:0.0069244085 98:0.0051933064 99:0.0034622043 100:0.0017311021 101:0.0023081362 102:0.012117715 103:0.0063473745 104:0.0086555107 105:0.0046162724 106:0.0069244085 107:0.0057703405 108:0.0028851702 109:0.0023081362 110:0.0023081362 111:0.0023081362 112:0.00057703405 113:0.00057703405 114:0.0034622043 115:0.0023081362 116:0.0057703405 117:0.0080784766 118:0.0069244085 119:0.0046162724 120:0.0017311021 121:0.0040392383 122:0.0034622043 123:0.0011540681 124:0.0034622043 125:0.0017311021 126:0.0023081362 127:0.0046162724 129:0.0034622043 130:0.0034622043 131:0.0063473745 132:0.0023081362 133:0.0034622043 134:0.0092325447 135:0.0063473745 136:0.0023081362 137:0.0011540681 138:0.0017311021 139:0.0069244085 140:0.0023081362 141:0.0011540681 142:0.0046162724 143:0.0017311021 144:0.0011540681 145:0.0075014426 146:0.0017311021 147:0.0023081362 148:0.0023081362 149:0.00057703405 150:0.0017311021 151:0.0034622043 153:0.0023081362 154:0.0040392383 155:0.0057703405 156:0.0023081362 157:0.0051933064 158:0.0069244085 159:0.0017311021 160:0.0011540681 161:0.0051933064 162:0.0011540681 163:0.0023081362 164:0.0040392383 165:0.0017311021 166:0.0051933064 167:0.0057703405 168:0.0023081362 169:0.0011540681 170:0.0028851702 171:0.0040392383 172:0.0023081362 173:0.0051933064 174:0.0069244085 175:0.0034622043 176:0.0069244085 177:0.0023081362 178:0.0098095788 179:0.0063473745 180:0.0028851702 181:0.010963647 182:0.010386613 183:0.0057703405 184:0.0069244085 185:0.0086555107 186:0.0028851702 187:0.0011540681 188:0.0051933064 189:0.0011540681 190:0.0034622043 191:0.0040392383 192:0.0023081362 193:0.0040392383 194:0.0063473745 195:0.0028851702 196:0.0051933064 197:0.0063473745 198:0.0011540681 200:0.0051933064 201:0.013271783 202:0.0040392383 203:0.00057703405 204:0.0034622043 205:0.0057703405 206:0.0092325447 207:0.0028851702 209:0.0023081362 210:0.013848817 211:0.0057703405 212:0.0040392383 213:0.0057703405 214:0.0092325447 215:0.0034622043 216:0.0040392383 217:0.012694749 218:0.0028851702 219:0.0023081362 220:0.0017311021 221:0.0040392383 222:0.0080784766 223:0.00057703405 224:0.0063473745 225:0.0023081362 226:0.0017311021 227:0.0023081362 228:0.0057703405 229:0.0028851702 230:0.0017311021 231:0.0017311021 232:0.00057703405 233:0.0028851702 234:0.0040392383 235:0.0075014426 236:0.0086555107 237:0.0017311021 238:0.0011540681 239:0.0017311021 240:0.0051933064 241:0.0080784766 242:0.0057703405 243:0.00057703405 244:0.0011540681 246:0.0023081362 247:0.0034622043 248:0.0011540681 249:0.0028851702 250:0.0040392383 251:0.010963647 252:0.0034622043 253:0.0011540681 254:0.0023081362 255:0.0023081362 256:0.00057703405 
5.161310425178838 2:0.0022148394 4:0.0033222591 5:0.007751938 7:0.0011074197 9:0.0022148394 10:0.0033222591 11:0.0033222591 13:0.0011074197 14:0.0022148394 15:0.0022148394 16:0.0011074197 17:0.0011074197 18:0.0044296788 21:0.0055370986 22:0.0066445183 23:0.029900332 24:0.014396456 25:0.0022148394 26:0.012181617 27:0.0044296788 28:0.0011074197 29:0.0022148394 31:0.0011074197 33:0.0011074197 35:0.0022148394 36:0.0033222591 38:0.0055370986 39:0.0033222591 40:0.0088593577 41:0.0066445183 42:0.0044296788 43:0.0022148394 44:0.0088593577 45:0.0011074197 47:0.0011074197 48:0.0011074197 49:0.0044296788 50:0.0022148394 51:0.011074197 52:0.0022148394 53:0.0033222591 54:0.0011074197 55:0.0022148394 57:0.0011074197 58:0.0022148394 59:0.019933555 61:0.0011074197 63:0.007751938 64:0.0011074197 65:0.0011074197 66:0.0022148394 67:0.0022148394 68:0.0033222591 69:0.025470653 70:0.0066445183 72:0.0033222591 73:0.0033222591 74:0.007751938 75:0.0011074197 77:0.0033222591 79:0.0044296788 81:0.0022148394 82:0.0055370986 84:0.0011074197 85:0.0022148394 86:0.007751938 88:0.0022148394 90:0.014396456 92:0.0088593577 93:0.0044296788 95:0.0022148394 98:0.034330011 99:0.0044296788 101:0.0033222591 102:0.0033222591 103:0.0066445183 104:0.0011074197 105:0.0033222591 106:0.0022148394 107:0.0055370986 108:0.012181617 109:0.011074197 111:0.0033222591 112:0.0066445183 113:0.0022148394 115:0.0022148394 116:0.0066445183 117:0.0066445183 118:0.0088593577 119:0.0022148394 120:0.0088593577 121:0.0022148394 122:0.0022148394 123:0.0066445183 124:0.0044296788 125:0.0044296788 126:0.0033222591 127:0.0055370986 129:0.024363234 130:0.0044296788 131:0.0022148394 132:0.0022148394 133:0.0055370986 134:0.0022148394 135:0.0011074197 136:0.007751938 138:0.0011074197 139:0.0055370986 140:0.0022148394 142:0.0099667774 145:0.0055370986 146:0.0011074197 151:0.0044296788 155:0.0011074197 157:0.0088593577 158:0.029900332 159:0.0011074197 160:0.0022148394 161:0.0022148394 162:0.0055370986 163:0.0033222591 164:0.0066445183 166:0.0022148394 167:0.0044296788 168:0.0099667774 171:0.0066445183 172:0.0022148394 173:0.0022148394 174:0.013289037 176:0.0044296788 179:0.013289037 180:0.0044296788 182:0.0066445183 184:0.014396456 185:0.0088593577 186:0.0011074197 188:0.0055370986 189:0.0011074197 190:0.0011074197 191:0.0011074197 192:0.007751938 194:0.0088593577 195:0.0055370986 196:0.0011074197 197:0.011074197 199:0.0011074197 200:0.0033222591 201:0.0022148394 202:0.0022148394 205:0.007751938 206:0.015503876 207:0.0011074197 208:0.0055370986 210:0.012181617 211:0.0055370986 212:0.0033222591 213:0.0055370986 214:0.0022148394 216:0.014396456 217:0.007751938 218:0.0044296788 219:0.0088593577 220:0.0011074197 221:0.0088593577 222:0.011074197 223:0.021040975 224:0.007751938 226:0.0011074197 227:0.0022148394 229:0.0088593577 230:0.0022148394 231:0.0011074197 232:0.0011074197 233:0.0011074197 236:0.0022148394 238:0.0044296788 239:0.0011074197 240:0.0055370986 241:0.0022148394 242:0.0011074197 243:0.0011074197 247:0.0011074197 248:0.0022148394 249:0.0022148394 252:0.0022148394 253:0.0033222591 254:0.017718715 255:0.0011074197 
5.304010642132073 1:0.0037650602 2:0.021084337 3:0.0045180723 4:0.0015060241 5:0.0030120482 7:0.0015060241 8:0.011295181 9:0.0067771084 10:0.0037650602 13:0.00075301205 16:0.00075301205 17:0.012048193 18:0.0075301205 19:0.00075301205 20:0.0052710843 21:0.0022590361 22:0.0030120482 23:0.0015060241 24:0.0030120482 25:0.00075301205 26:0.0015060241 27:0.015060241 28:0.0067771084 29:0.00075301205 30:0.0045180723 31:0.0015060241 32:0.012048193 33:0.0015060241 34:0.00075301205 35:0.0052710843 37:0.0022590361 38:0.0037650602 39:0.0015060241 40:0.0060240964 41:0.0030120482 42:0.0022590361 43:0.012048193 44:0.00075301205 45:0.0015060241 46:0.0030120482 48:0.0052710843 50:0.00075301205 51:0.0030120482 52:0.012048193 53:0.0097891566 54:0.0067771084 55:0.00075301205 56:0.0060240964 57:0.0060240964 58:0.0097891566 59:0.00075301205 60:0.0052710843 61:0.012048193 63:0.0067771084 64:0.0037650602 65:0.017319277 66:0.0052710843 67:0.0030120482 68:0.00075301205 69:0.00075301205 70:0.010542169 71:0.0015060241 72:0.0030120482 73:0.016566265 74:0.00075301205 75:0.0052710843 76:0.0015060241 77:0.0060240964 78:0.00075301205 79:0.0037650602 80:0.0052710843 81:0.0022590361 82:0.0045180723 83:0.011295181 84:0.0052710843 85:0.0097891566 86:0.0037650602 87:0.0067771084 88:0.0037650602 89:0.011295181 90:0.0015060241 91:0.0015060241 92:0.00075301205 93:0.00075301205 94:0.0015060241 95:0.0075301205 96:0.00075301205 97:0.0082831325 98:0.00075301205 99:0.0045180723 100:0.0037650602 102:0.0045180723 103:0.0075301205 104:0.0037650602 105:0.00075301205 106:0.0090361446 107:0.0052710843 108:0.0022590361 111:0.0015060241 112:0.0015060241 113:0.0060240964 114:0.0037650602 115:0.0030120482 116:0.0015060241 117:0.0037650602 118:0.00075301205 119:0.0067771084 120:0.00075301205 121:0.00075301205 123:0.0030120482 124:0.0022590361 125:0.0052710843 126:0.0022590361 127:0.0022590361 129:0.0022590361 130:0.0045180723 131:0.011295181 132:0.0015060241 133:0.00075301205 134:0.0082831325 135:0.0022590361 136:0.0045180723 137:0.00075301205 139:0.0015060241 140:0.00075301205 142:0.0052710843 143:0.00075301205 144:0.0037650602 145:0.0037650602 146:0.0075301205 147:0.0015060241 148:0.00075301205 149:0.0082831325 150:0.0082831325 151:0.0075301205 153:0.0022590361 154:0.0037650602 155:0.015813253 156:0.00075301205 157:0.0015060241 158:0.0030120482 160:0.0052710843 161:0.00075301205 162:0.0022590361 163:0.0022590361 164:0.00075301205 165:0.0022590361 166:0.0067771084 167:0.0030120482 168:0.0015060241 169:0.0022590361 170:0.0030120482 172:0.0037650602 173:0.0022590361 174:0.0030120482 175:0.0015060241 176:0.0022590361 178:0.0037650602 179:0.0022590361 180:0.0037650602 181:0.0052710843 182:0.0037650602 183:0.0015060241 184:0.0037650602 185:0.0030120482 186:0.0015060241 187:0.00075301205 188:0.0015060241 189:0.0015060241 190:0.0022590361 191:0.0015060241 192:0.00075301205 193:0.0022590361 194:0.00075301205 196:0.00075301205 197:0.0037650602 198:0.0045180723 199:0.0090361446 200:0.0060240964 201:0.015060241 202:0.0015060241 203:0.0030120482 204:0.0082831325 205:0.0060240964 206:0.00075301205 207:0.0015060241 208:0.00075301205 209:0.0015060241 210:0.0015060241 211:0.0067771084 212:0.0037650602 213:0.012048193 214:0.0045180723 215:0.0037650602 216:0.0030120482 217:0.00075301205 218:0.0015060241 219:0.011295181 220:0.00075301205 222:0.011295181 223:0.012048193 224:0.00075301205 226:0.00075301205 227:0.012801205 228:0.013554217 229:0.0067771084 230:0.0067771084 231:0.00075301205 232:0.00075301205 233:0.0015060241 235:0.0030120482 236:0.0030120482 237:0.0022590361 238:0.00075301205 239:0.0060240964 240:0.0052710843 241:0.0022590361 242:0.0030120482 243:0.012801205 244:0.0022590361 246:0.0030120482 247:0.0090361446 248:0.019578313 249:0.0022590361 250:0.0045180723 251:0.0082831325 252:0.0015060241 253:0.0097891566 254:0.0022590361 256:0.0030120482 
3.969670897547863 1:0.0031007752 2:0.0093023256 3:0.0031007752 5:0.0093023256 8:0.012403101 11:0.0015503876 13:0.007751938 14:0.026356589 15:0.0062015504 16:0.0015503876 17:0.0015503876 18:0.0093023256 19:0.0031007752 20:0.0031007752 22:0.0046511628 23:0.0031007752 26:0.0062015504 27:0.007751938 30:0.0015503876 32:0.0015503876 33:0.0031007752 34:0.007751938 35:0.017054264 36:0.0046511628 37:0.0093023256 39:0.0093023256 41:0.013953488 42:0.024806202 43:0.0031007752 44:0.0046511628 45:0.0062015504 48:0.0046511628 51:0.0031007752 53:0.0015503876 54:0.0062015504 55:0.0015503876 58:0.007751938 59:0.0031007752 60:0.0015503876 62:0.007751938 65:0.0062015504 66:0.007751938 67:0.007751938 68:0.007751938 69:0.0015503876 70:0.0015503876 72:0.0031007752 73:0.018604651 74:0.0031007752 75:0.0093023256 77:0.0031007752 80:0.0031007752 81:0.0015503876 82:0.0015503876 83:0.0062015504 87:0.0015503876 88:0.0046511628 89:0.0046511628 90:0.0046511628 92:0.0015503876 93:0.0031007752 94:0.0062015504 95:0.0031007752 97:0.015503876 98:0.0046511628 99:0.0046511628 100:0.0015503876 102:0.0093023256 103:0.012403101 104:0.010852713 106:0.007751938 107:0.007751938 108:0.007751938 112:0.0031007752 113:0.0046511628 115:0.015503876 116:0.0015503876 117:0.0015503876 118:0.012403101 119:0.0031007752 120:0.0015503876 121:0.0046511628 122:0.0015503876 127:0.0031007752 128:0.0046511628 129:0.0015503876 130:0.0046511628 131:0.0015503876 132:0.0031007752 133:0.0062015504 135:0.0015503876 136:0.0015503876 137:0.0015503876 138:0.0015503876 139:0.0046511628 140:0.0062015504 141:0.0015503876 143:0.0015503876 144:0.007751938 145:0.0015503876 146:0.007751938 147:0.0046511628 148:0.0031007752 149:0.0062015504 150:0.0046511628 151:0.0031007752 152:0.0015503876 154:0.0031007752 155:0.0031007752 156:0.0031007752 157:0.0015503876 159:0.0031007752 160:0.0046511628 161:0.0046511628 163:0.0093023256 165:0.0031007752 166:0.010852713 167:0.0031007752 168:0.0015503876 169:0.0015503876 170:0.0031007752 171:0.0015503876 172:0.0062015504 173:0.0062015504 174:0.018604651 176:0.0015503876 177:0.0031007752 179:0.0062015504 180:0.0062015504 181:0.017054264 182:0.007751938 183:0.0031007752 184:0.0046511628 185:0.0093023256 187:0.0046511628 188:0.013953488 190:0.0031007752 191:0.0093023256 193:0.0062015504 194:0.0015503876 195:0.007751938 196:0.0015503876 199:0.0015503876 201:0.0046511628 203:0.0046511628 204:0.0015503876 205:0.0015503876 207:0.0015503876 208:0.012403101 209:0.0031007752 210:0.0046511628 211:0.0031007752 213:0.0031007752 216:0.0062015504 217:0.0046511628 219:0.0015503876 220:0.0015503876 222:0.0046511628 223:0.021705426 224:0.0015503876 225:0.0031007752 226:0.0062015504 228:0.0031007752 229:0.0031007752 230:0.0031007752 232:0.0015503876 233:0.0046511628 234:0.0046511628 235:0.0062015504 236:0.0015503876 238:0.0031007752 239:0.013953488 240:0.013953488 241:0.0015503876 242:0.0015503876 243:0.0046511628 244:0.0015503876 247:0.0031007752 248:0.0015503876 249:0.0046511628 250:0.0031007752 252:0.013953488 254:0.007751938 256:0.017054264 
8.509363812746873 1:0.003455425 2:0.01935038 3:0.002073255 4:0.002073255 5:0.00691085 8:0.02073255 9:0.008984105 10:0.00138217 12:0.000691085 13:0.002073255 15:0.00138217 16:0.01243953 18:0.010366275 20:0.004837595 21:0.00414651 22:0.00276434 23:0.00138217 24:0.002073255 25:0.002073255 26:0.000691085 27:0.003455425 28:0.00552868 30:0.002073255 31:0.002073255 32:0.006219765 33:0.00276434 34:0.00276434 35:0.002073255 36:0.000691085 37:0.003455425 38:0.00414651 39:0.004837595 40:0.00138217 41:0.000691085 42:0.000691085 43:0.00276434 45:0.00138217 47:0.000691085 48:0.00276434 50:0.000691085 51:0.000691085 52:0.00276434 53:0.00414651 54:0.004837595 55:0.00552868 56:0.006219765 57:0.006219765 58:0.006219765 59:0.003455425 60:0.006219765 61:0.008984105 62:0.00138217 63:0.00138217 64:0.00276434 65:0.002073255 66:0.00691085 67:0.011748445 68:0.006219765 70:0.000691085 71:0.00276434 72:0.00138217 73:0.00552868 74:0.00276434 75:0.00414651 76:0.000691085 77:0.004837595 78:0.003455425 79:0.002073255 80:0.014512785 81:0.004837595 82:0.007601935 83:0.008984105 84:0.00691085 85:0.000691085 86:0.00138217 87:0.01796821 88:0.00276434 89:0.006219765 90:0.00414651 91:0.00414651 92:0.00138217 93:0.00138217 94:0.002073255 95:0.002073255 96:0.00691085 97:0.010366275 98:0.00138217 100:0.007601935 102:0.01105736 103:0.00138217 104:0.00414651 106:0.003455425 107:0.00276434 108:0.002073255 109:0.000691085 110:0.004837595 111:0.002073255 112:0.003455425 113:0.006219765 114:0.006219765 115:0.00829302 116:0.003455425 117:0.003455425 118:0.002073255 119:0.00967519 121:0.011748445 122:0.00138217 123:0.002073255 124:0.00138217 125:0.000691085 126:0.000691085 127:0.000691085 128:0.006219765 130:0.004837595 131:0.00552868 132:0.000691085 133:0.00276434 134:0.003455425 135:0.00138217 136:0.002073255 137:0.00414651 138:0.002073255 139:0.006219765 140:0.00552868 141:0.003455425 142:0.00276434 143:0.00414651 144:0.002073255 145:0.000691085 146:0.00276434 147:0.002073255 148:0.010366275 149:0.00276434 150:0.01796821 151:0.00552868 152:0.00138217 153:0.002073255 154:0.00829302 155:0.00552868 156:0.00967519 157:0.00276434 158:0.00138217 159:0.00138217 160:0.00414651 161:0.003455425 162:0.00138217 163:0.00276434 165:0.008984105 166:0.00414651 167:0.00691085 169:0.007601935 170:0.004837595 171:0.00138217 172:0.01243953 173:0.003455425 174:0.00691085 175:0.00138217 176:0.000691085 178:0.002073255 179:0.002073255 180:0.000691085 181:0.02211472 183:0.004837595 185:0.000691085 186:0.003455425 187:0.00552868 188:0.006219765 190:0.00276434 191:0.006219765 193:0.00138217 194:0.000691085 195:0.000691085 196:0.000691085 197:0.000691085 198:0.01520387 199:0.00414651 200:0.000691085 201:0.01105736 202:0.004837595 203:0.00414651 204:0.02349689 205:0.000691085 207:0.000691085 208:0.002073255 209:0.000691085 210:0.003455425 211:0.004837595 212:0.002073255 213:0.00414651 214:0.003455425 215:0.01105736 216:0.000691085 217:0.00414651 218:0.003455425 219:0.00552868 220:0.002073255 221:0.000691085 222:0.002073255 223:0.006219765 224:0.00138217 226:0.000691085 228:0.01243953 229:0.002073255 230:0.00414651 232:0.00138217 233:0.00138217 234:0.002073255 235:0.010366275 236:0.004837595 237:0.002073255 238:0.000691085 239:0.004837595 240:0.011748445 241:0.00414651 243:0.00276434 244:0.000691085 246:0.003455425 247:0.003455425 248:0.007601935 249:0.01105736 250:0.007601935 251:0.01243953 252:0.00138217 253:0.010366275 256:0.00552868 
8.374109008898026 2:0.0027210884 3:0.00045351474 5:0.0031746032 6:0.0013605442 8:0.0027210884 9:0.0095238095 10:0.0027210884 12:0.0013605442 13:0.0013605442 14:0.0022675737 15:0.00045351474 16:0.0081632653 17:0.00090702948 18:0.018594104 19:0.00090702948 20:0.0058956916 21:0.00090702948 22:0.0027210884 24:0.00045351474 25:0.0013605442 26:0.00090702948 28:0.00090702948 29:0.00045351474 30:0.015419501 31:0.0022675737 32:0.0013605442 33:0.0013605442 35:0.001814059 36:0.0027210884 37:0.0040816327 38:0.00045351474 39:0.00045351474 40:0.0013605442 41:0.0022675737 42:0.00045351474 43:0.0013605442 44:0.0013605442 45:0.0072562358 47:0.00045351474 48:0.0049886621 51:0.0022675737 52:0.00090702948 53:0.00090702948 54:0.027664399 55:0.00090702948 56:0.040816327 57:0.00090702948 58:0.029478458 59:0.001814059 60:0.013151927 61:0.00090702948 62:0.0036281179 64:0.00045351474 65:0.0045351474 66:0.00045351474 67:0.022675737 68:0.0022675737 69:0.00045351474 70:0.0031746032 71:0.00090702948 72:0.001814059 73:0.0045351474 77:0.0099773243 79:0.0045351474 80:0.014512472 81:0.0027210884 82:0.0027210884 83:0.036734694 84:0.0090702948 85:0.00090702948 86:0.00045351474 87:0.025396825 88:0.0027210884 89:0.001814059 91:0.00090702948 92:0.00045351474 93:0.0013605442 95:0.0013605442 96:0.0049886621 100:0.0013605442 101:0.0036281179 102:0.0040816327 103:0.0027210884 104:0.001814059 106:0.00090702948 107:0.001814059 108:0.0027210884 110:0.0072562358 111:0.00045351474 112:0.0027210884 113:0.012244898 114:0.001814059 115:0.034013605 116:0.00090702948 119:0.00045351474 121:0.057596372 122:0.0022675737 123:0.00045351474 125:0.00045351474 126:0.00045351474 127:0.0013605442 128:0.0036281179 130:0.013605442 131:0.0058956916 132:0.00045351474 133:0.00045351474 134:0.0013605442 135:0.00090702948 136:0.001814059 137:0.0031746032 138:0.0077097506 139:0.00045351474 140:0.00045351474 142:0.00090702948 143:0.00861678 146:0.0036281179 148:0.036734694 149:0.027664399 150:0.0063492063 151:0.0036281179 152:0.0090702948 154:0.0022675737 155:0.0049886621 156:0.0036281179 159:0.00045351474 160:0.00090702948 162:0.00045351474 163:0.0027210884 165:0.001814059 166:0.00090702948 167:0.0031746032 169:0.0077097506 170:0.0040816327 172:0.016780045 174:0.00090702948 178:0.0063492063 181:0.0049886621 183:0.01723356 185:0.00045351474 186:0.0081632653 187:0.00090702948 188:0.00045351474 191:0.0013605442 193:0.00090702948 195:0.00090702948 198:0.0027210884 199:0.0040816327 200:0.00045351474 201:0.0045351474 202:0.001814059 203:0.001814059 204:0.048979592 205:0.00045351474 206:0.00090702948 207:0.00045351474 208:0.0022675737 209:0.001814059 211:0.00090702948 212:0.00045351474 213:0.00090702948 215:0.0049886621 216:0.00045351474 217:0.0013605442 218:0.00045351474 219:0.0022675737 220:0.00090702948 221:0.00045351474 222:0.00090702948 223:0.0049886621 224:0.0013605442 226:0.00045351474 227:0.0027210884 228:0.0063492063 229:0.0013605442 230:0.024489796 231:0.0013605442 232:0.0031746032 233:0.0013605442 234:0.00045351474 235:0.0045351474 236:0.0022675737 237:0.00045351474 238:0.00045351474 239:0.0095238095 240:0.00045351474 241:0.010430839 242:0.0090702948 243:0.0049886621 244:0.00045351474 245:0.00090702948 246:0.0027210884 247:0.00045351474 248:0.00861678 249:0.020408163 250:0.0072562358 251:0.0036281179 253:0.0013605442 254:0.0013605442 256:0.0027210884 
3.463041490341716 1:0.00074074074 2:0.0066666667 3:0.0014814815 5:0.0081481481 6:0.002962963 7:0.0022222222 8:0.0066666667 9:0.0037037037 10:0.0022222222 11:0.0044444444 12:0.0014814815 13:0.00074074074 15:0.0074074074 16:0.0074074074 17:0.0022222222 19:0.0014814815 20:0.002962963 21:0.0022222222 22:0.0059259259 23:0.013333333 24:0.0051851852 25:0.0081481481 26:0.018518519 27:0.002962963 29:0.0066666667 30:0.002962963 31:0.0074074074 32:0.0014814815 34:0.0022222222 35:0.0022222222 36:0.0044444444 37:0.0014814815 38:0.0044444444 39:0.0014814815 40:0.0022222222 41:0.00074074074 42:0.0088888889 43:0.00074074074 44:0.024444444 45:0.0022222222 46:0.00074074074 47:0.0037037037 48:0.01037037 49:0.0014814815 50:0.0022222222 52:0.0014814815 53:0.0014814815 54:0.0044444444 55:0.0096296296 56:0.00074074074 57:0.00074074074 58:0.0059259259 59:0.0022222222 60:0.00074074074 61:0.00074074074 62:0.0022222222 63:0.011111111 64:0.0014814815 65:0.0014814815 67:0.0051851852 68:0.0044444444 69:0.002962963 70:0.0014814815 71:0.00074074074 73:0.0088888889 74:0.002962963 75:0.013333333 76:0.0044444444 77:0.00074074074 78:0.0037037037 79:0.0044444444 80:0.0014814815 81:0.0022222222 82:0.00074074074 83:0.0014814815 84:0.002962963 85:0.0014814815 86:0.0059259259 87:0.0074074074 88:0.0044444444 89:0.012592593 90:0.013333333 92:0.002962963 93:0.0066666667 94:0.0014814815 95:0.0037037037 96:0.0014814815 97:0.0037037037 98:0.0022222222 99:0.0074074074 100:0.0022222222 101:0.00074074074 102:0.02 103:0.01037037 104:0.012592593 105:0.0022222222 106:0.0044444444 107:0.002962963 109:0.00074074074 110:0.00074074074 112:0.0044444444 113:0.0022222222 114:0.0014814815 116:0.014074074 117:0.0044444444 118:0.0037037037 119:0.0059259259 120:0.0066666667 121:0.0022222222 122:0.0037037037 123:0.0014814815 124:0.01037037 125:0.002962963 126:0.0044444444 127:0.0022222222 129:0.0044444444 130:0.002962963 131:0.0014814815 132:0.0022222222 133:0.002962963 134:0.0037037037 135:0.0022222222 136:0.002962963 137:0.0059259259 138:0.0014814815 139:0.01037037 140:0.0066666667 141:0.002962963 142:0.0059259259 143:0.00074074074 144:0.0044444444 145:0.0066666667 146:0.0014814815 147:0.0059259259 148:0.002962963 149:0.0096296296 150:0.00074074074 151:0.0059259259 152:0.0014814815 153:0.0037037037 154:0.0014814815 155:0.0014814815 156:0.002962963 157:0.011111111 158:0.00074074074 159:0.0022222222 160:0.00074074074 161:0.01037037 162:0.0037037037 163:0.0022222222 164:0.00074074074 165:0.00074074074 166:0.00074074074 167:0.0014814815 169:0.00074074074 170:0.0022222222 171:0.0014814815 172:0.00074074074 173:0.01037037 174:0.0088888889 175:0.01037037 176:0.00074074074 177:0.0022222222 179:0.0051851852 180:0.0066666667 181:0.0051851852 182:0.014814815 183:0.0022222222 184:0.00074074074 185:0.012592593 186:0.0022222222 188:0.002962963 189:0.0044444444 190:0.0088888889 191:0.0022222222 192:0.0014814815 193:0.0051851852 194:0.0014814815 195:0.0044444444 197:0.00074074074 198:0.002962963 199:0.00074074074 200:0.0014814815 201:0.0051851852 202:0.0044444444 204:0.0014814815 205:0.002962963 206:0.0096296296 207:0.0059259259 209:0.00074074074 210:0.013333333 211:0.0022222222 212:0.0022222222 213:0.0014814815 214:0.0066666667 215:0.0022222222 216:0.017037037 217:0.016296296 218:0.0014814815 219:0.0037037037 220:0.0037037037 221:0.0081481481 222:0.0051851852 224:0.0014814815 226:0.00074074074 227:0.0014814815 228:0.0044444444 229:0.0022222222 230:0.0014814815 232:0.00074074074 233:0.002962963 234:0.017777778 235:0.0051851852 237:0.0022222222 238:0.00074074074 239:0.00074074074 240:0.0059259259 241:0.016296296 242:0.0014814815 243:0.00074074074 245:0.00074074074 246:0.00074074074 247:0.0037037037 249:0.0022222222 250:0.0037037037 251:0.0022222222 252:0.0014814815 253:0.00074074074 254:0.014074074 255:0.00074074074 256:0.002962963 
5.242853229412309 1:0.0010638298 2:0.0063829787 5:0.012765957 7:0.0010638298 8:0.0021276596 9:0.010638298 10:0.0042553191 11:0.0031914894 13:0.0031914894 14:0.0021276596 16:0.0085106383 18:0.013829787 20:0.0074468085 22:0.012765957 24:0.0010638298 26:0.0031914894 27:0.0053191489 28:0.0010638298 29:0.0010638298 33:0.0042553191 35:0.0042553191 38:0.0021276596 39:0.0031914894 41:0.0053191489 42:0.0053191489 43:0.0042553191 44:0.0031914894 45:0.0010638298 47:0.0010638298 48:0.0031914894 51:0.0010638298 52:0.0021276596 53:0.0053191489 54:0.0053191489 55:0.0042553191 56:0.0021276596 57:0.0010638298 58:0.0010638298 59:0.0063829787 60:0.0085106383 61:0.0053191489 62:0.0074468085 63:0.022340426 64:0.0010638298 65:0.0010638298 67:0.013829787 70:0.014893617 72:0.0021276596 73:0.0095744681 74:0.0010638298 75:0.0031914894 77:0.0010638298 79:0.0010638298 80:0.0021276596 81:0.0021276596 82:0.0021276596 83:0.0053191489 84:0.0021276596 85:0.0021276596 86:0.0085106383 87:0.0021276596 88:0.010638298 89:0.0031914894 90:0.019148936 93:0.0010638298 95:0.0031914894 96:0.0021276596 97:0.0053191489 99:0.0053191489 100:0.0010638298 101:0.0031914894 102:0.0053191489 103:0.0053191489 104:0.0085106383 105:0.0021276596 106:0.0031914894 107:0.010638298 108:0.0074468085 109:0.0021276596 111:0.0042553191 112:0.0010638298 113:0.0085106383 116:0.0053191489 117:0.0063829787 118:0.0095744681 119:0.014893617 120:0.0010638298 121:0.011702128 123:0.0021276596 124:0.0021276596 126:0.0021276596 127:0.0095744681 128:0.0042553191 129:0.0010638298 130:0.012765957 131:0.0085106383 132:0.0010638298 134:0.0053191489 135:0.0010638298 136:0.0063829787 137:0.0042553191 138:0.0010638298 139:0.0063829787 140:0.0031914894 142:0.0010638298 143:0.0010638298 144:0.0021276596 145:0.0010638298 146:0.0010638298 147:0.0021276596 148:0.0031914894 149:0.028723404 151:0.0053191489 153:0.0010638298 154:0.0063829787 155:0.0042553191 157:0.0095744681 161:0.013829787 162:0.0042553191 163:0.0021276596 164:0.0021276596 166:0.0074468085 167:0.0074468085 169:0.0010638298 170:0.0010638298 172:0.025531915 173:0.0031914894 174:0.011702128 175:0.0031914894 178:0.0031914894 180:0.0063829787 182:0.0053191489 183:0.011702128 184:0.010638298 185:0.0053191489 186:0.0042553191 187:0.0010638298 188:0.0042553191 189:0.0010638298 190:0.0031914894 191:0.011702128 193:0.0010638298 194:0.0010638298 195:0.0010638298 198:0.0010638298 200:0.0031914894 201:0.012765957 202:0.0074468085 204:0.0021276596 205:0.0031914894 206:0.023404255 207:0.0010638298 210:0.0031914894 211:0.0010638298 212:0.0031914894 213:0.0010638298 214:0.0010638298 216:0.0053191489 217:0.011702128 219:0.0021276596 220:0.0010638298 221:0.0031914894 222:0.010638298 223:0.0031914894 224:0.0010638298 227:0.0021276596 228:0.029787234 229:0.0042553191 230:0.015957447 233:0.0042553191 234:0.0031914894 235:0.0053191489 236:0.0010638298 238:0.0063829787 240:0.0074468085 241:0.0095744681 242:0.0085106383 243:0.0010638298 244:0.0010638298 246:0.0031914894 247:0.0042553191 248:0.0085106383 249:0.0063829787 250:0.021276596 251:0.0053191489 253:0.0042553191 254:0.0010638298 256:0.0031914894 
9.388881196016872 1:0.00064850843 2:0.0071335927 3:0.0032425422 4:0.0012970169 5:0.0058365759 7:0.0012970169 8:0.0019455253 9:0.0032425422 10:0.0032425422 11:0.0064850843 13:0.0012970169 14:0.0012970169 15:0.0051880674 16:0.004539559 17:0.0025940337 18:0.004539559 20:0.0032425422 21:0.0019455253 22:0.0097276265 23:0.0051880674 24:0.0064850843 25:0.0032425422 26:0.0019455253 27:0.01232166 28:0.0025940337 29:0.0025940337 30:0.00064850843 31:0.0038910506 32:0.004539559 33:0.0012970169 34:0.0012970169 35:0.0038910506 36:0.0032425422 37:0.0012970169 39:0.0019455253 40:0.0038910506 41:0.0038910506 42:0.0058365759 43:0.0025940337 44:0.0058365759 45:0.0019455253 47:0.00064850843 48:0.0012970169 49:0.0012970169 50:0.0019455253 51:0.0012970169 52:0.0038910506 53:0.0025940337 54:0.0012970169 55:0.009079118 56:0.0077821012 57:0.00064850843 58:0.0071335927 59:0.009079118 60:0.0012970169 61:0.0032425422 62:0.0032425422 63:0.016212711 64:0.0012970169 65:0.0012970169 66:0.0012970169 67:0.0025940337 68:0.0032425422 70:0.0097276265 72:0.0038910506 73:0.0032425422 74:0.0032425422 75:0.0058365759 77:0.004539559 79:0.0058365759 80:0.00064850843 81:0.0019455253 82:0.0012970169 83:0.0064850843 84:0.0038910506 85:0.0025940337 86:0.0064850843 87:0.0025940337 88:0.0077821012 89:0.009079118 90:0.0077821012 91:0.004539559 92:0.0038910506 93:0.011673152 94:0.00064850843 95:0.0025940337 96:0.0051880674 97:0.004539559 98:0.0038910506 99:0.011024643 100:0.0019455253 101:0.004539559 102:0.0064850843 103:0.00064850843 104:0.009079118 105:0.0019455253 106:0.009079118 107:0.0019455253 108:0.00064850843 110:0.0012970169 111:0.00064850843 112:0.00064850843 113:0.00064850843 114:0.0012970169 115:0.00064850843 116:0.0025940337 117:0.004539559 118:0.0058365759 119:0.0064850843 120:0.0032425422 121:0.0032425422 122:0.0038910506 123:0.0025940337 124:0.0084306096 126:0.0038910506 127:0.0038910506 128:0.00064850843 129:0.0019455253 130:0.0019455253 131:0.0019455253 132:0.00064850843 134:0.004539559 135:0.0032425422 136:0.0019455253 137:0.0019455253 139:0.0097276265 140:0.0025940337 142:0.0012970169 143:0.0032425422 144:0.0012970169 146:0.0019455253 147:0.0071335927 149:0.0077821012 150:0.0025940337 151:0.0071335927 152:0.00064850843 153:0.0038910506 154:0.0019455253 155:0.004539559 157:0.02075227 158:0.0071335927 159:0.0019455253 160:0.0019455253 161:0.004539559 162:0.0032425422 164:0.0019455253 166:0.013618677 167:0.0038910506 169:0.0032425422 170:0.0012970169 171:0.0032425422 172:0.0064850843 173:0.0071335927 174:0.0025940337 175:0.0025940337 176:0.00064850843 177:0.0012970169 178:0.0058365759 179:0.0051880674 180:0.011673152 181:0.00064850843 182:0.011024643 183:0.0038910506 184:0.0058365759 185:0.012970169 186:0.0071335927 187:0.0051880674 188:0.0071335927 189:0.0019455253 190:0.0097276265 191:0.0019455253 192:0.0012970169 193:0.0032425422 194:0.00064850843 195:0.0025940337 196:0.004539559 197:0.0025940337 198:0.0025940337 199:0.0064850843 200:0.0019455253 201:0.01232166 202:0.0025940337 203:0.0019455253 204:0.0019455253 205:0.017509728 206:0.017509728 207:0.0058365759 208:0.00064850843 209:0.00064850843 210:0.011024643 211:0.0012970169 212:0.004539559 213:0.0058365759 214:0.0025940337 216:0.0051880674 217:0.0064850843 219:0.0025940337 220:0.0051880674 221:0.0019455253 222:0.012970169 223:0.0025940337 224:0.0019455253 225:0.0038910506 226:0.0019455253 227:0.0058365759 228:0.016212711 229:0.0077821012 230:0.0038910506 231:0.0012970169 232:0.00064850843 233:0.0025940337 234:0.0058365759 235:0.0064850843 236:0.0097276265 237:0.0012970169 238:0.0019455253 239:0.0032425422 240:0.004539559 241:0.0064850843 242:0.009079118 243:0.0019455253 244:0.0032425422 246:0.00064850843 247:0.0012970169 248:0.009079118 249:0.00064850843 250:0.0064850843 251:0.0051880674 252:0.0025940337 253:0.0038910506 254:0.0058365759 256:0.0071335927 
