svm_type c_svc
kernel_type rbf
gamma 9
nr_class 2
total_sv 1689
rho 1.01975
label 1 -1
probA -11.4562
probB -9.37105
nr_sv 523 1166
SV
1 1:0.084768 2:0.032832 3:5.3e-05 4:3.7e-05 5:0.000789 6:0.020507 7:0.001387 11:9.1e-05 12:2.7e-05 17:0.002576 18:0.002747 19:4.8e-05 20:1.1e-05 21:0.001941 22:0.11064 23:0.030597 26:0.002101 27:0.049552 28:0.003707 32:0.000672 33:3.2e-05 37:0.000315 38:0.003429 39:0.002219 41:2.1e-05 42:0.003456 43:0.417328 44:0.005616 47:0.001253 48:0.004485 54:5e-06 58:0.000192 59:0.003472 60:0.000837 63:0.003403 64:0.208853 
1 1:0.062091 2:0.003387 5:0.00024 6:0.033936 7:0.002789 11:2.1e-05 17:0.004123 18:3.2e-05 21:0.006965 22:0.260597 23:0.049467 26:0.000544 27:0.075291 28:0.005861 32:1.1e-05 37:1.6e-05 38:0.019131 39:1.6e-05 42:0.022688 43:0.083179 44:0.077707 47:0.000149 48:0.095995 58:5e-06 59:0.002437 60:5e-06 63:0.002187 64:0.191131 
1 1:0.660624 2:0.032795 3:0.000699 4:0.000517 5:0.000619 6:0.045861 7:0.001371 8:2.1e-05 17:0.003509 18:0.002421 19:0.000117 20:5.3e-05 21:0.000784 22:0.158475 23:0.025744 24:8e-05 26:0.000469 27:0.013259 33:1.1e-05 34:7.5e-05 38:0.001493 39:0.000549 40:1.1e-05 42:0.000256 43:0.036443 44:0.001312 47:0.000203 48:0.00144 54:4.3e-05 55:1.6e-05 59:0.00048 60:0.000123 63:0.000112 64:0.010016 
1 1:0.125307 2:0.002896 3:0.000117 5:0.036976 6:0.140661 7:7.5e-05 10:0.000197 11:4.3e-05 17:0.000128 18:0.000245 19:4.3e-05 21:0.000501 22:0.371739 23:0.011061 24:1.1e-05 26:0.006752 27:0.025547 28:0.000144 38:0.000363 39:0.000347 42:0.000891 43:0.065083 44:0.002069 47:0.002613 48:0.00464 55:5e-06 59:0.000325 60:0.0004 63:0.000763 64:0.200059 
1 1:0.235067 2:0.008677 3:0.000944 5:0.005685 6:0.032299 7:0.001173 8:3.2e-05 10:0.02016 11:0.000555 12:1.1e-05 17:0.063984 18:0.004955 19:9.6e-05 21:0.038283 22:0.151429 23:0.01624 24:1.1e-05 26:0.014752 27:0.011605 28:2.7e-05 31:0.000101 33:5e-06 35:5e-06 37:0.000699 38:0.060496 39:0.003845 40:5e-06 41:1.6e-05 42:0.05728 43:0.146944 44:0.001541 47:0.00088 48:0.001413 57:5e-06 58:0.000389 59:0.037755 60:0.001685 62:1.6e-05 63:0.019867 64:0.061067 
1 1:0.143608 2:0.003361 3:6e-06 5:0.001506 6:0.009554 7:0.000199 11:8.4e-05 17:0.056777 18:0.002229 19:2.4e-05 21:0.012048 22:0.080295 23:0.017572 24:6e-06 26:0.002819 27:0.021169 28:0.000331 32:0.000163 33:2.4e-05 37:0.002337 38:0.036729 39:0.000572 40:6e-06 42:0.05394 43:0.288723 44:0.006024 47:0.001566 48:0.009048 58:0.000904 59:0.033958 60:9.6e-05 63:0.008229 64:0.20609 
1 1:0.239115 2:0.017723 3:0.005851 4:0.002736 5:0.003157 6:0.012949 7:0.00032 8:0.000272 10:0.000229 11:0.000171 12:0.000176 16:5e-06 17:0.025813 18:0.009109 19:0.000667 20:0.001589 21:0.038928 22:0.20624 23:0.015152 24:0.00632 26:0.006208 27:0.038027 28:0.002693 31:0.001061 32:0.000336 37:1.6e-05 38:0.013541 39:0.001904 40:0.000267 42:0.013952 43:0.066987 44:0.024373 47:0.003392 48:0.033616 58:0.001131 59:0.011797 60:0.000293 63:0.008368 64:0.185515 
1 1:0.101652 2:0.004192 3:3e-05 5:0.000306 6:0.001453 7:0.007411 8:0.000198 11:3e-05 12:0.000276 16:6e-06 17:0.02973 18:0.003568 21:0.030324 22:0.053057 23:0.000384 24:6e-06 25:1.2e-05 26:0.00155 27:0.002901 28:0.000649 32:4.8e-05 37:0.004054 38:0.113141 39:0.000132 40:6e-06 41:0.000132 42:0.243658 43:0.320517 44:0.006997 46:1.8e-05 47:0.000913 48:0.004138 53:0.000174 54:0.000264 57:8.4e-05 58:0.008517 59:0.0137 60:7.2e-05 62:0.000114 63:0.019111 64:0.026474 
1 1:0.168324 2:0.007634 3:0.001213 4:0.000583 5:0.004006 6:0.011646 7:0.00164 8:0.00021 11:0.000162 12:0.000348 16:6.6e-05 17:0.00152 18:9.6e-05 19:4.2e-05 20:4.8e-05 21:0.003207 22:0.290258 23:0.021748 24:0.000535 25:2.4e-05 26:0.03218 27:0.179213 28:0.001381 31:6e-06 32:0.000102 33:3.6e-05 37:0.000943 38:0.018817 39:0.000781 40:2.4e-05 41:6e-06 42:0.004631 43:0.068757 44:0.00164 47:0.002198 48:0.003477 53:6e-06 58:1.8e-05 59:0.001207 60:0.00015 63:0.001814 64:0.169303 
1 1:0.138378 2:0.005081 3:0.000727 4:0.000517 5:0.001303 6:0.031201 7:0.004631 8:3e-05 10:7.8e-05 11:0.007315 12:0.003447 16:0.008991 17:0.012048 18:0.002036 19:0.001015 20:0.00027 21:0.005676 22:0.312126 23:0.018048 24:0.005177 26:0.002613 27:0.140847 28:0.006979 31:3e-05 32:0.069303 33:1.8e-05 37:0.000535 38:0.057321 39:0.000366 40:0.000462 42:0.031135 43:0.066799 44:0.00582 47:0.000733 48:0.019063 53:1.2e-05 54:3e-05 55:6e-06 58:0.000787 59:0.001664 60:0.000462 63:0.002474 64:0.034444 
1 1:0.177592 2:0.009736 3:0.000757 4:0.001778 5:0.000168 6:0.017033 7:0.003087 8:0.000721 11:1.8e-05 12:8.4e-05 17:0.006817 18:6.6e-05 19:1.2e-05 20:2.4e-05 21:0.002036 22:0.01764 23:0.106883 24:0.00773 26:4.8e-05 27:0.348895 28:0.057778 37:0.00015 38:0.001213 39:2.4e-05 40:6e-06 42:0.000709 43:0.029622 44:0.134276 48:0.050468 58:0.000222 59:0.000613 60:1.8e-05 63:0.000192 64:0.023586 
1 1:0.26672 2:0.036107 3:0.0004 4:0.00024 5:0.006459 6:0.023733 7:0.006453 8:0.000341 10:0.003931 11:0.005675 12:0.00744 15:0.000789 16:0.000139 17:0.013259 18:0.005845 19:0.000245 20:4.3e-05 21:0.010395 22:0.19752 23:0.021355 24:0.000944 26:0.006405 27:0.022971 28:0.002048 31:0.006123 32:0.001707 33:5e-06 37:0.000581 38:0.009627 39:0.00216 40:0.000597 41:4.3e-05 42:0.004565 43:0.078773 44:0.019787 47:0.003867 48:0.011339 53:8.5e-05 54:1.1e-05 57:0.002176 58:0.000816 59:0.004629 60:0.001269 61:0.000283 62:0.001083 63:0.003803 64:0.207216 
1 1:0.109696 2:0.004528 3:1.6e-05 5:0.000245 6:0.002208 7:0.000149 11:2.7e-05 17:0.061056 18:0.006277 19:2.7e-05 21:0.028197 22:0.206048 23:0.018277 24:0.000101 25:5e-06 26:0.000507 27:0.014091 28:0.006283 31:1.6e-05 32:5.9e-05 33:5e-06 37:0.004699 38:0.098336 39:0.005893 40:0.000187 41:0.001307 42:0.034912 43:0.148368 44:0.044288 47:0.000411 48:0.015605 57:5e-06 58:0.002032 59:0.064597 60:0.002219 62:1.6e-05 63:0.055056 64:0.064251 
1 1:0.235749 2:0.028571 3:0.004725 4:0.000117 5:0.000677 6:0.010592 7:0.001387 17:0.029541 18:0.010251 19:0.002827 20:0.009312 21:0.008325 22:0.322507 23:0.056347 24:0.002176 25:0.000224 26:0.000624 27:0.025904 28:0.013653 37:2.1e-05 38:0.011333 39:0.001456 40:0.000459 42:0.007013 43:0.185232 44:0.012267 47:0.000171 48:0.004352 59:0.00288 60:0.000597 63:0.001275 64:0.009435 
1 1:0.286411 2:0.016192 3:0.000987 4:0.000464 5:0.001003 6:0.015067 7:0.002837 8:0.004 11:0.000357 12:0.004224 16:0.000533 17:0.017664 18:0.002187 19:0.00048 20:0.000384 21:0.011141 22:0.121003 23:0.016053 24:0.002277 26:0.003056 27:0.010965 28:0.003333 32:0.000693 33:0.000128 34:5.3e-05 35:1.1e-05 36:5e-06 37:0.002672 38:0.024677 39:0.001035 40:0.000603 42:0.020741 43:0.061637 44:0.00752 47:0.000587 48:0.004704 53:1.6e-05 54:0.000384 55:8e-05 56:8e-05 57:0.000133 58:0.018448 59:0.033936 60:0.001776 62:5e-06 63:0.029419 64:0.270037 
1 1:0.037215 2:0.004211 5:0.000586 6:0.00452 7:1.2e-05 17:0.004695 18:0.002369 19:1.2e-05 21:0.004109 22:0.115063 23:0.007831 24:6e-06 26:0.001946 27:0.004381 28:1.8e-05 38:0.005523 39:0.001734 40:1.2e-05 42:0.00768 43:0.15397 44:0.050066 47:0.000236 48:0.024761 59:0.035498 60:0.002792 63:0.043843 64:0.486912 
1 1:0.048283 2:0.002091 3:0.000192 4:5e-06 5:0.043872 6:0.057653 7:1.6e-05 10:0.000885 11:0.000107 17:0.001035 18:0.000219 19:5.9e-05 21:0.019029 22:0.290421 23:0.008587 24:2.1e-05 26:0.007472 27:0.017744 38:0.027088 39:0.000736 42:0.033296 43:0.146352 44:0.008299 47:0.000613 48:0.020944 59:0.132843 60:8e-05 63:0.110352 64:0.021707 
1 1:0.363173 2:0.023883 3:0.001264 5:0.005973 6:0.074059 7:0.022725 8:0.000853 10:0.000165 11:0.010565 12:0.109995 16:0.019269 17:0.006773 18:0.000357 21:0.00648 22:0.10896 23:0.035819 24:0.001776 26:0.0008 27:0.039819 28:0.010155 32:0.004251 37:0.005627 38:0.004224 39:0.000379 41:5e-06 42:0.004043 43:0.033648 44:0.014912 47:0.000176 48:0.020912 58:5.9e-05 59:0.001968 60:6.9e-05 63:0.001035 64:0.065829 
1 1:0.165264 2:0.006715 3:0.000437 4:5e-06 5:0.002229 6:0.010144 7:0.000101 17:0.005573 18:9.1e-05 19:5e-06 20:5e-06 21:0.049659 22:0.125291 23:0.039616 24:0.000101 25:5e-06 26:0.000688 27:0.059024 28:0.000101 33:8.5e-05 37:0.001861 38:0.002501 39:0.000117 40:5e-06 41:4.8e-05 42:0.001771 43:0.147835 44:0.002603 47:8.5e-05 48:0.001963 53:0.000336 57:0.001728 58:0.184165 59:0.009344 60:9.1e-05 61:0.000128 62:0.003296 63:0.070464 64:0.106517 
1 1:0.129082 2:0.005066 5:0.027584 6:0.067257 7:3.7e-05 10:0.001582 11:9e-06 17:0.006994 21:0.050833 22:0.092444 23:0.016554 26:0.013979 27:0.04073 31:9e-06 37:0.011189 38:0.010346 39:2.8e-05 42:0.011414 43:0.061966 44:0.012294 47:0.001386 48:0.088661 58:0.001367 59:0.015468 60:9e-06 63:0.046376 64:0.287331 
1 1:0.175008 2:0.005717 3:2.1e-05 5:0.013669 6:0.009536 7:2.7e-05 8:5e-06 10:0.000976 11:0.000208 17:0.011728 18:0.002016 19:1.6e-05 21:0.022107 22:0.249696 23:0.0192 24:1.1e-05 25:1.1e-05 26:0.01088 27:0.06136 28:4.3e-05 31:3.2e-05 37:0.001077 38:0.009723 39:0.009531 40:1.1e-05 41:0.00072 42:0.016048 43:0.162661 44:0.005413 47:0.000416 48:0.001968 53:5e-06 57:0.000133 58:0.000587 59:0.003104 60:0.005328 61:1.6e-05 62:0.000357 63:0.002891 64:0.197744 
1 1:0.160789 2:0.003509 3:0.000219 4:3.2e-05 5:0.088939 6:0.099461 7:0.00032 8:2.7e-05 10:0.01768 11:0.0012 12:5e-06 15:1.1e-05 16:1.1e-05 17:0.001392 18:0.000229 19:5e-06 21:0.002096 22:0.238208 23:0.006496 24:2.7e-05 25:1.6e-05 26:0.024912 27:0.049397 28:8.5e-05 31:0.000485 32:0.000149 37:5e-06 38:0.001653 39:0.000341 40:1.1e-05 42:0.002709 43:0.157141 44:0.009803 47:0.002859 48:0.028816 59:0.000891 60:5.3e-05 63:0.003424 64:0.096592 
1 1:0.075409 2:0.017579 3:0.001744 5:2.4e-05 6:0.000896 7:0.000122 8:6e-06 17:0.191043 18:0.067902 19:0.034866 21:0.001762 22:0.07575 23:0.075854 24:0.003884 27:0.006079 28:0.000988 38:0.004311 39:0.039854 40:0.000799 42:0.000256 43:0.195329 44:0.060573 47:3e-05 48:0.008585 58:6e-06 59:0.000726 60:0.00236 63:0.000774 64:0.132488 
1 1:0.39289 2:0.000724 3:0.00173 4:0.005442 5:0.177055 6:0.010252 7:0.000405 8:6e-06 9:0.003595 10:0.005571 11:0.001276 15:3.7e-05 16:1.8e-05 17:0.003313 18:1.2e-05 19:0.000748 20:0.004558 21:0.068748 22:0.013626 23:0.001681 24:0.002521 25:0.078485 26:0.035215 27:0.020012 28:0.000926 29:1.2e-05 30:0.000564 31:0.007748 32:0.002301 33:6e-06 37:0.01154 38:0.001209 39:4.9e-05 40:4.9e-05 41:0.008767 42:0.018442 43:0.027693 44:0.003736 45:0.000104 46:0.00084 47:0.008387 48:0.014202 53:2.5e-05 57:0.000853 58:0.002877 59:0.003117 60:6.7e-05 61:5.5e-05 62:0.001362 63:0.018515 64:0.038632 
1 1:0.434189 2:0.075728 3:0.004874 4:0.000136 5:0.000471 6:0.020481 7:0.006466 8:2.4e-05 11:5e-06 12:1e-05 17:0.003461 18:0.007874 19:0.000325 20:1e-05 21:0.001097 22:0.098204 23:0.09984 24:0.011835 26:0.000126 27:0.008937 28:0.001743 32:1.5e-05 38:0.002859 39:0.009505 40:0.002092 42:0.000612 43:0.037617 44:0.085301 47:0.000126 48:0.007714 59:0.003728 60:0.003879 63:0.000209 64:0.07051 
1 1:0.102187 2:0.005664 3:0.001136 4:0.000101 5:0.001877 6:0.002587 7:0.000475 11:0.000165 12:0.000293 16:5.3e-05 17:0.046384 18:0.005685 19:0.006848 20:0.001221 21:0.012347 22:0.058315 23:0.002 24:0.001419 25:0.004411 26:0.004853 27:0.00248 28:0.000427 29:4.8e-05 32:9.6e-05 33:0.076069 34:0.010816 35:0.001739 36:0.000293 37:0.036848 38:0.037829 39:0.002021 40:0.001371 41:0.025499 42:0.061131 43:0.081147 44:0.000496 45:5e-06 46:3.2e-05 47:0.001435 48:0.00096 49:0.0364 50:0.000187 51:8e-05 53:0.103691 54:0.016613 55:0.000517 56:1.6e-05 57:0.000363 58:0.048725 59:0.089365 60:0.000603 62:0.000288 63:0.02192 64:0.082469 
1 1:0.162595 2:0.059592 3:0.000523 4:6e-06 5:0.002787 6:0.122006 7:0.050018 8:4.2e-05 10:0.000679 11:0.018132 12:0.000733 15:4.2e-05 16:0.000541 17:0.009598 18:0.001063 19:3.6e-05 20:1.2e-05 21:0.018306 22:0.065646 23:0.071532 24:9.6e-05 25:9e-05 26:0.001231 27:0.136793 28:0.046571 31:0.001189 32:0.01194 33:1.8e-05 37:0.001033 38:0.013423 39:0.001802 40:4.2e-05 41:0.00015 42:0.003297 43:0.02767 44:0.026613 46:2.4e-05 47:0.001141 48:0.052985 54:6e-06 58:0.001664 59:0.004745 60:0.000787 62:5.4e-05 63:0.009099 64:0.073652 
1 1:0.209778 2:0.073694 3:0.012811 4:0.001351 5:0.00976 6:0.059934 7:0.051069 8:0.00815 10:0.011393 11:0.054511 12:0.009399 15:0.015748 16:0.000649 17:0.004156 18:0.005117 19:8.4e-05 20:6e-06 21:0.005051 22:0.110072 23:0.006829 24:0.000264 26:0.000529 27:0.025429 28:0.006486 32:0.00024 37:0.000156 38:0.00385 39:0.000294 41:1.2e-05 42:0.004589 43:0.016961 44:0.000402 47:0.000396 48:0.00021 59:0.005688 60:8.4e-05 63:0.005237 64:0.27961 
1 1:0.121392 2:0.002549 3:0.000677 4:7.5e-05 5:0.001541 6:0.004048 7:0.000363 8:4.8e-05 10:5e-06 11:5.3e-05 17:0.014213 18:0.000245 19:5.9e-05 20:5e-06 21:0.066651 22:0.118928 23:0.002715 24:0.000133 26:0.005515 27:0.002949 28:0.000112 31:8e-05 32:5e-06 37:0.005733 38:0.011541 39:0.000368 40:5e-06 41:4.3e-05 42:0.036741 43:0.258277 44:0.000288 47:0.000976 48:0.000624 57:5e-06 58:0.000165 59:0.009067 60:3.2e-05 62:1.1e-05 63:0.086939 64:0.246821 
1 1:0.107526 2:0.000979 3:0.00045 5:0.024721 6:0.148691 7:0.002559 10:0.000228 11:0.003021 12:4.2e-05 17:0.002306 18:0.000456 19:0.000432 20:1.8e-05 21:0.020841 22:0.158745 23:0.003051 24:7.2e-05 26:0.034468 27:0.021231 28:0.000186 31:3e-05 32:0.000216 37:0.000721 38:0.016505 39:0.000571 40:0.000102 42:0.036613 43:0.057177 44:0.00161 47:0.002036 48:0.00388 53:4.2e-05 58:0.000577 59:0.02448 60:0.000414 63:0.072006 64:0.252997 
1 1:0.398987 2:0.11168 3:0.000709 4:2.7e-05 5:0.061205 6:0.198139 7:0.025109 8:0.000805 9:6.9e-05 10:0.000507 11:0.000533 12:3.7e-05 16:5e-06 17:0.008048 18:0.000597 21:0.007264 22:0.075899 23:0.038053 24:0.000117 25:0.000128 26:0.001808 27:0.032507 28:0.001221 31:8.5e-05 32:3.2e-05 33:0.002848 37:0.001733 38:0.004277 39:0.000112 41:1.1e-05 42:0.002736 43:0.009893 44:0.003707 47:0.000395 48:0.002347 53:0.000112 54:3.7e-05 57:4.3e-05 58:0.000491 59:0.000944 60:1.6e-05 62:1.6e-05 63:0.000427 64:0.006283 
1 1:0.210363 2:0.076379 3:0.009627 5:0.001792 6:0.012373 17:0.031787 18:0.018005 19:0.034629 20:2.7e-05 21:0.023387 22:0.256352 23:0.032901 24:0.000821 26:0.002192 27:0.015408 33:0.000192 34:4.3e-05 37:0.000331 38:0.058907 39:0.015963 40:0.008757 42:0.015451 43:0.038619 44:0.013029 47:0.000112 48:8e-05 54:0.000107 55:3.7e-05 58:0.000432 59:0.016912 60:0.029621 63:0.007995 64:0.067371 
1 1:0.415424 2:0.208965 3:0.192928 4:0.037659 5:0.000416 6:0.020459 7:0.01112 8:0.009493 11:1.1e-05 12:0.000459 17:0.000608 18:0.001419 19:0.001232 20:5e-06 21:0.000784 22:0.046107 23:0.015152 24:0.0016 26:0.000277 27:0.001115 28:0.001669 32:4.3e-05 38:0.000272 39:0.001776 40:0.000171 42:0.000533 43:0.020096 44:0.002091 47:0.000133 48:0.0004 59:0.000107 60:0.000288 63:0.000149 64:0.00704 
1 1:0.099424 2:0.006736 3:0.006533 4:0.00472 5:0.034827 6:0.076144 7:0.000651 8:0.000181 10:0.004117 11:9.1e-05 17:0.002512 18:0.000368 19:0.000555 20:0.000352 21:0.007765 22:0.130587 23:0.006832 24:0.002059 25:2.1e-05 26:0.03576 27:0.023877 28:0.000197 31:5.3e-05 37:1.6e-05 38:0.011339 39:0.000432 40:0.000379 41:5e-06 42:0.043051 43:0.124976 44:0.005739 47:0.009941 48:0.007051 58:0.000101 59:0.012432 60:0.000379 63:0.156448 64:0.183349 
1 1:0.451074 2:0.017241 3:1.2e-05 5:0.037086 6:0.092222 7:0.000426 10:0.001704 11:0.000358 17:0.002877 18:0.000265 19:1.2e-05 21:0.002883 22:0.194173 23:0.009623 26:0.013327 27:0.042309 28:1.9e-05 31:0.000136 32:1.9e-05 38:0.000716 39:4.9e-05 40:6e-06 42:0.00063 43:0.070951 44:0.003494 47:0.001648 48:0.004796 59:0.000901 60:9.3e-05 63:0.001278 64:0.049673 
1 1:0.032352 2:0.006981 3:0.00032 4:5.9e-05 5:0.00872 6:0.016555 7:0.000219 8:1.6e-05 10:0.000496 11:0.000144 17:0.003563 18:0.002336 19:0.000117 20:0.000224 21:0.022757 22:0.251125 23:0.017845 24:0.001291 25:0.000379 26:0.010165 27:0.050896 28:0.000656 30:1.6e-05 31:5e-06 32:8.5e-05 38:0.009659 39:0.000811 40:0.003408 42:0.012021 43:0.092677 44:0.017461 46:0.000149 47:0.002309 48:0.005317 59:0.001216 60:0.000133 63:0.08752 64:0.339995 
1 1:0.374299 2:0.028949 3:1.1e-05 5:0.000176 6:0.010389 7:0.000107 11:5e-06 16:6.9e-05 17:0.015611 18:0.000987 21:0.011563 22:0.044613 23:0.009723 24:0.000363 26:0.009851 27:0.012475 28:0.000283 31:0.00176 32:0.003061 37:0.003387 38:0.001285 39:0.001952 40:0.000133 41:0.001675 42:0.007115 43:0.085691 44:0.004197 46:5e-06 47:0.012475 48:0.045963 57:0.002677 58:2.1e-05 59:0.008608 60:0.001141 61:0.002384 62:0.000219 63:0.006427 64:0.290352 
1 1:0.048479 2:0.037846 5:6e-06 6:0.053822 7:0.009391 8:6e-06 11:0.001107 12:6e-06 21:6e-06 22:0.021882 23:0.079249 26:6e-06 27:0.109509 28:0.081083 32:0.001456 43:0.007757 44:0.081355 47:4.7e-05 48:0.045308 63:0.001355 64:0.420325 
1 1:0.351522 2:0.00849 3:0.000327 4:0.000519 5:0.021166 6:0.02972 7:0.004012 8:0.000274 11:1.2e-05 12:2.3e-05 17:0.011481 18:0.000286 21:0.019603 22:0.054455 23:0.056047 24:0.000274 26:0.000496 27:0.085813 28:0.028554 37:0.000496 38:0.013219 39:0.000309 41:0.00014 42:0.007341 43:0.03502 44:0.118292 47:0.000222 48:0.086601 58:9.9e-05 59:0.001481 60:5.8e-05 62:6e-06 63:0.000443 64:0.063201 
1 1:0.046624 2:0.031643 3:5e-06 5:0.001627 6:0.062539 7:0.000859 8:5.3e-05 10:6.9e-05 11:0.000144 12:5e-06 17:0.000704 18:8e-05 21:0.002992 22:0.049312 23:0.020011 24:3.7e-05 26:0.000629 27:0.02976 28:0.00112 32:3.2e-05 38:0.000395 39:9.6e-05 42:0.004272 43:0.343339 44:0.011877 47:0.003104 48:0.028277 59:0.1576 60:0.000491 63:0.078395 64:0.123909 
1 1:0.556677 2:0.006608 3:0.000485 4:3.7e-05 5:0.033152 6:0.015781 7:0.000683 8:5e-06 10:0.000235 11:0.000133 12:2.7e-05 17:0.003776 18:0.000683 19:5e-06 20:1.1e-05 21:0.007867 22:0.059104 23:0.001627 24:2.7e-05 26:0.002837 27:0.002752 28:0.000389 31:5.3e-05 32:4.3e-05 37:5e-06 38:0.006245 39:0.000768 42:0.007675 43:0.044203 44:0.003333 47:0.000603 48:0.004213 59:0.004453 60:0.00056 63:0.004464 64:0.23048 
1 1:0.127733 2:0.016923 3:0.031904 4:0.008976 5:0.004709 6:0.027611 7:0.001232 8:0.001232 9:1.1e-05 10:0.000709 11:0.001115 12:1.6e-05 17:0.01232 18:0.003413 19:0.006491 20:0.008005 21:0.00656 22:0.081088 23:0.019755 24:0.008091 25:4.3e-05 26:0.009803 27:0.019584 28:0.005568 31:0.000325 32:0.000971 33:9.1e-05 34:2.1e-05 35:2.1e-05 36:1.1e-05 37:0.000736 38:0.009909 39:0.00488 40:0.001099 41:0.000123 42:0.017291 43:0.263077 44:0.018267 45:1.6e-05 46:9.6e-05 47:0.005029 48:0.023579 53:0.000757 54:8.5e-05 55:1.6e-05 56:5e-06 57:0.001333 58:0.028432 59:0.012267 60:0.000896 61:0.000245 62:0.029147 63:0.037413 64:0.140971 
1 1:0.522515 2:0.053515 3:2e-05 5:0.005635 6:0.037175 7:0.00675 10:0.000145 11:0.000445 12:1e-05 17:0.01873 18:0.001165 19:5e-06 21:0.014835 22:0.08489 23:0.0192 24:3.5e-05 26:0.00193 27:0.02282 28:0.0038 31:1e-05 32:0.000145 33:5e-05 37:0.002315 38:0.0089 39:0.000415 41:2.5e-05 42:0.00825 43:0.03941 44:0.014295 47:0.0013 48:0.018455 53:1.5e-05 54:7.5e-05 58:0.00399 59:0.00557 60:7.5e-05 62:8.5e-05 63:0.014575 64:0.088425 
1 1:0.307598 2:0.032715 3:0.030907 4:0.010601 5:0.000468 6:0.00191 7:9.6e-05 8:0.000925 10:6e-06 11:1.8e-05 12:1.2e-05 17:0.022138 18:0.002937 19:0.0017 20:0.001183 21:0.004823 22:0.073453 23:0.00976 24:0.002577 25:1.8e-05 26:0.000342 27:0.00376 28:1.8e-05 33:6e-06 37:0.000571 38:0.017748 39:0.006438 40:0.000432 42:0.004114 43:0.076384 44:0.001946 47:0.001153 48:0.005922 54:1.8e-05 55:6e-06 58:0.00048 59:0.012997 60:0.000979 63:0.006012 64:0.356829 
1 1:0.345315 2:0.036757 3:0.004402 4:0.000348 5:0.002144 6:0.012919 7:0.00182 8:9.6e-05 10:1.8e-05 12:3.6e-05 17:0.033063 18:0.00194 19:0.000847 20:0.00015 21:0.02564 22:0.094096 23:0.049129 24:0.001868 26:0.000402 27:0.00624 28:0.00191 33:6e-06 37:0.010805 38:0.053556 39:0.007063 40:0.000547 42:0.021574 43:0.082541 44:0.026973 47:0.00015 48:0.003784 54:0.000246 58:0.024408 59:0.046955 60:0.011321 63:0.015123 64:0.075808 
1 1:0.227892 2:0.003698 3:0.000852 4:0.000221 5:0.00158 6:0.006771 7:9.7e-05 8:2.7e-05 10:0.000291 11:0.000124 12:0.000156 15:3.2e-05 16:0.000582 17:0.012054 18:0.003057 19:0.000135 20:1.6e-05 21:0.024054 22:0.128248 23:0.00642 24:0.000108 26:0.003369 27:0.011558 28:0.000895 31:0.000615 32:0.001617 33:2.7e-05 37:0.018038 38:0.065391 39:0.001353 40:4.9e-05 41:1.6e-05 42:0.064199 43:0.17173 44:0.007606 46:1.6e-05 47:0.00173 48:0.018679 53:0.000604 54:6.5e-05 57:0.000183 58:0.045984 59:0.016863 60:0.000933 62:0.000146 63:0.02186 64:0.130059 
1 1:0.106251 2:0.002406 3:2.4e-05 5:0.012519 6:0.03317 7:4.8e-05 10:0.003684 11:0.001158 17:0.012955 18:0.000806 21:0.021081 22:0.181606 23:0.029116 24:0.000281 26:0.00923 27:0.047922 28:0.007606 31:4.2e-05 32:6e-06 37:3e-05 38:0.009021 39:0.000597 42:0.00477 43:0.116991 44:0.022 47:0.000591 48:0.012269 58:6e-06 59:0.005815 60:6.6e-05 63:0.112006 64:0.245928 
1 1:0.204802 2:0.017021 3:0.00155 4:0.000274 5:0.001125 6:0.015131 7:0.00341 8:2.4e-05 9:7.9e-05 10:0.000128 11:0.000705 12:0.00028 16:7.3e-05 17:0.014729 18:0.005216 19:0.000511 20:0.000334 21:0.007739 22:0.115982 23:0.099459 24:0.001271 25:2.4e-05 26:0.000784 27:0.067404 28:0.007112 30:1.2e-05 31:0.000128 32:0.000979 33:6.7e-05 34:3e-05 36:6e-06 37:0.005422 38:0.044875 39:0.004754 40:0.000304 41:2.4e-05 42:0.011009 43:0.104438 44:0.01938 47:0.000328 48:0.005362 53:5.5e-05 54:0.006809 55:3e-05 57:2.4e-05 58:0.069191 59:0.062815 60:0.00566 62:1.8e-05 63:0.01031 64:0.082802 
1 1:0.226287 2:0.041904 3:3.2e-05 5:0.002032 6:0.063585 7:0.000191 11:0.00016 17:0.00317 18:0.000984 19:1.1e-05 21:0.000798 22:0.353165 23:0.029947 26:0.000633 27:0.030761 28:2.7e-05 38:0.001005 39:0.000202 42:0.000431 43:0.096138 44:0.000867 47:0.000473 48:0.003234 59:0.000452 60:8e-05 63:9.6e-05 64:0.143335 
1 1:0.204256 2:0.02632 3:0.00056 4:5.3e-05 5:0.00328 6:0.009328 7:0.006475 8:8.5e-05 9:5e-06 10:5e-06 11:0.000187 12:0.000224 17:0.031195 18:0.006517 19:0.001824 20:8.5e-05 21:0.031227 22:0.200144 23:0.026597 24:0.002405 25:0.000176 26:0.020192 27:0.017835 28:0.004133 30:0.005749 31:4.3e-05 32:0.000123 33:9.1e-05 35:1.1e-05 36:1.1e-05 37:0.002832 38:0.055707 39:0.004235 40:0.000336 41:0.000245 42:0.021877 43:0.112453 44:0.031147 46:0.000128 47:0.001664 48:0.024592 54:2.1e-05 56:1.1e-05 58:0.00088 59:0.011424 60:0.001995 62:0.000501 63:0.008965 64:0.121851 
1 1:0.176276 2:0.069676 3:0.034529 5:0.012 6:0.041471 7:5.4e-05 17:0.001556 18:0.000649 19:0.001051 21:0.008258 22:0.22955 23:0.007862 26:0.004985 27:0.000739 38:0.006246 39:0.000456 42:0.024372 43:0.378144 44:4.2e-05 47:0.000114 48:5.4e-05 59:0.000156 63:0.000408 64:0.001351 
1 1:0.095779 2:0.004274 3:1.4e-05 5:0.005201 6:0.011476 7:0.000774 8:4.2e-05 10:2.8e-05 11:0.001004 12:0.000265 16:9.1e-05 17:0.00396 18:0.00076 21:0.0073 22:0.181811 23:0.011811 26:0.014063 27:0.071487 28:0.004448 31:0.00039 32:0.008625 38:0.000112 39:2.1e-05 42:0.003814 43:0.082497 44:0.009768 47:0.004448 48:0.04129 58:1.4e-05 59:0.010159 63:0.024529 64:0.399745 
1 1:0.165888 2:0.011248 3:0.001755 4:0.000165 5:0.00224 6:0.007984 7:0.002613 8:9.1e-05 9:5e-06 11:0.001301 12:0.000379 17:0.0292 18:0.004373 19:2.1e-05 20:2.1e-05 21:0.021237 22:0.284811 23:0.015488 24:0.000149 26:0.001221 27:0.007648 28:0.002528 32:6.9e-05 33:5.9e-05 37:0.000208 38:0.104944 39:0.001003 40:1.1e-05 42:0.028635 43:0.143147 44:0.005968 47:0.000171 48:0.000373 58:0.000368 59:0.044736 60:0.000171 63:0.041413 64:0.068357 
1 1:0.301952 2:0.010637 3:0.00027 4:6e-06 5:0.006294 6:0.008709 7:0.000348 8:0.000108 10:6e-05 11:1.8e-05 12:1.8e-05 17:0.014703 18:0.001982 19:0.000396 20:6.6e-05 21:0.012324 22:0.068613 23:0.059129 24:0.000517 25:0.00033 26:0.003261 27:0.009508 28:0.000637 32:0.000102 33:0.000312 34:0.000348 35:0.000282 36:1.8e-05 37:0.001562 38:0.017177 39:0.001393 40:0.001165 41:0.000871 42:0.007135 43:0.066625 44:0.012426 45:1.2e-05 47:0.000973 48:0.010691 49:6e-06 50:1.8e-05 51:6e-05 52:1.8e-05 53:7.2e-05 54:0.000631 55:0.000276 56:0.000132 57:0.000126 58:0.002625 59:0.011471 60:0.004505 62:0.000216 63:0.044192 64:0.314673 
1 1:0.184875 2:0.001899 3:0.000293 4:0.000581 5:0.018133 6:0.025061 7:0.000565 8:0.001632 10:0.000395 11:3.2e-05 12:1.1e-05 17:0.007648 18:0.000272 19:5e-06 20:3.2e-05 21:0.035563 22:0.195664 23:0.005696 24:0.003195 26:0.006059 27:0.023984 28:0.002267 31:5.9e-05 32:1.1e-05 37:1.1e-05 38:0.007605 39:0.000133 40:0.000139 42:0.013989 43:0.233701 44:0.004949 47:0.003755 48:0.006315 58:0.000107 59:0.024272 60:0.000341 63:0.024677 64:0.166075 
1 1:0.634925 2:0.013784 3:0.005465 4:0.00191 5:0.003664 6:0.009604 7:0.00167 8:6e-05 11:0.000168 12:0.00012 17:0.013105 18:0.000661 19:0.00015 20:4.8e-05 21:0.024102 22:0.130438 23:0.002685 24:0.000114 26:0.000108 27:0.00042 28:0.00039 32:4.2e-05 38:0.009784 39:0.004342 42:0.00433 43:0.053213 44:7.8e-05 47:0.000108 48:9e-05 59:0.022589 60:9e-05 63:0.017784 64:0.043958 
1 1:0.090635 2:0.020416 3:2.7e-05 5:0.019691 6:0.020048 7:6.9e-05 10:0.000603 11:1.6e-05 17:0.008896 18:0.109093 19:0.022827 20:5.9e-05 21:0.015739 22:0.122768 23:0.024651 24:0.000272 25:5e-06 26:0.009963 27:0.020592 28:0.002149 31:0.000432 32:2.1e-05 33:5.3e-05 34:0.003477 35:0.029611 36:0.011045 37:4.3e-05 38:0.015141 39:0.043728 40:0.011792 42:0.008955 43:0.101867 44:0.023056 47:0.003611 48:0.006192 50:5e-06 51:0.000112 52:0.003579 54:8.5e-05 55:0.001563 56:0.018155 58:0.000608 59:0.034987 60:0.016405 62:5e-06 63:0.109936 64:0.067019 
1 1:0.103093 2:0.007958 3:0.00117 5:0.009099 6:0.012251 7:0.001493 8:0.000155 10:0.000716 11:0.00086 12:0.000227 15:7.8e-05 16:0.000101 17:0.007379 18:0.000191 19:1.8e-05 21:0.07197 22:0.132203 23:0.013194 24:0.000424 25:7.8e-05 26:0.009331 27:0.03443 28:0.004119 31:0.001373 32:0.007881 37:0.000848 38:0.003821 39:0.000119 40:2.4e-05 41:0.000955 42:0.01191 43:0.068484 44:0.030084 47:0.001964 48:0.094949 54:6e-06 59:0.000478 60:9e-05 63:0.002131 64:0.364346 
1 1:0.309232 2:0.005299 3:0.001354 4:0.000579 5:0.004642 6:0.008737 7:0.002865 8:0.001836 11:1.3e-05 12:8.5e-05 17:0.00498 18:0.000508 19:2e-05 20:5.9e-05 21:0.010736 22:0.170632 23:0.012025 24:0.000775 25:1.3e-05 26:0.001283 27:0.007415 28:0.002057 37:0.000228 38:0.006302 39:0.000729 40:2e-05 41:8.5e-05 42:0.010579 43:0.103216 44:0.009134 45:2e-05 47:0.000345 48:0.007181 59:0.005638 60:0.000534 61:2e-05 62:7e-06 63:0.013079 64:0.297741 
1 1:0.128347 2:0.043355 3:1.1e-05 5:0.01728 6:0.113152 7:0.000128 8:1.6e-05 11:5e-06 12:3.7e-05 16:2.7e-05 17:0.000832 18:0.000512 21:0.005637 22:0.240597 23:0.078405 26:0.001461 27:0.051904 28:2.7e-05 32:1.1e-05 38:0.004187 39:0.000187 42:0.006576 43:0.055365 44:0.000352 47:0.000203 48:0.000187 59:0.031365 60:1.6e-05 63:0.057568 64:0.162251 
1 1:0.338084 2:0.000613 5:0.060114 6:0.065327 7:4.2e-05 10:0.000919 11:8.4e-05 17:0.005868 18:0.000138 21:0.009159 22:0.184505 23:0.002733 26:0.033165 27:0.053015 28:6.6e-05 31:3.6e-05 32:7.2e-05 33:3.6e-05 37:0.000883 38:0.00779 39:0.000108 42:0.006 43:0.1777 44:0.0037 47:0.00218 48:0.00964 53:6e-06 54:0.000204 58:0.001273 59:0.007309 60:6e-05 63:0.002829 64:0.026342 
1 1:0.472923 2:0.002768 3:1.1e-05 5:0.009637 6:0.013792 7:0.002315 8:0.000624 11:0.001771 12:0.00216 16:0.000341 17:0.002789 18:6.4e-05 21:0.007611 22:0.167552 23:0.003365 24:5e-06 26:0.002016 27:0.018251 28:0.002773 31:3.2e-05 32:0.002485 37:0.006229 38:0.004432 39:3.7e-05 41:0.001851 42:0.009285 43:0.116971 44:0.002469 47:0.004288 48:0.020741 57:5e-06 58:0.000267 59:0.004091 60:0.000208 62:1.1e-05 63:0.004987 64:0.110843 
1 1:0.145598 2:0.053021 3:1.8e-05 5:0.000889 6:0.043838 7:0.000324 8:0.000132 10:0.000288 11:6e-06 12:2.4e-05 17:0.006072 18:0.001778 21:0.002967 22:0.222474 23:0.025333 24:1.8e-05 26:0.015303 27:0.063616 28:7.2e-05 31:0.001033 32:1.2e-05 38:0.011381 39:0.004721 42:0.008835 43:0.213195 44:0.004354 47:0.006775 48:0.011622 59:0.014619 60:0.003688 63:0.007375 64:0.130619 
1 1:0.18941 2:0.005361 3:0.001524 4:6.6e-05 5:0.117982 6:0.335771 7:0.002398 8:3e-05 11:0.00206 12:6e-06 17:0.003235 18:0.000319 21:0.002699 22:0.204108 23:0.010072 24:0.000102 26:0.002349 27:0.021789 28:6.6e-05 33:1.2e-05 37:0.00112 38:0.001349 39:0.000669 42:0.000488 43:0.096958 44:5.4e-05 
1 1:0.136528 2:0.089461 3:0.000256 5:0.020613 6:0.110827 7:0.00624 8:0.000443 10:5.3e-05 11:0.001157 12:0.001323 17:0.000283 18:0.000149 19:5e-06 21:0.002016 22:0.127931 23:0.056896 24:0.000203 26:0.006192 27:0.074117 28:0.002315 31:3.2e-05 32:0.000432 37:1.6e-05 38:0.000629 39:8e-05 40:5e-06 42:0.003685 43:0.173829 44:0.043296 47:0.00368 48:0.067248 59:0.000443 60:2.1e-05 63:0.005013 64:0.064581 
1 1:0.634199 2:0.006151 3:0.000139 5:0.01859 6:0.028608 7:0.000289 8:6e-06 10:0.000886 11:0.000663 12:1.8e-05 15:6e-05 16:1.2e-05 17:0.05359 18:0.002169 19:7.2e-05 20:6e-06 21:0.036301 22:0.134843 23:0.003145 24:6e-05 26:0.001373 27:0.009151 28:0.0005 31:0.00038 32:0.000283 33:2.4e-05 37:0.00056 38:0.010404 39:0.000392 40:3e-05 42:0.00397 43:0.019554 44:0.002753 47:0.000789 48:0.011627 53:1.2e-05 54:9.6e-05 55:6e-06 58:0.000524 59:0.002108 60:0.000157 62:1.2e-05 63:0.002886 64:0.012602 
1 1:0.153925 2:0.016864 3:0.000304 5:0.028203 6:0.13024 7:0.007851 8:3.2e-05 10:0.003472 11:3.7e-05 17:0.001877 18:0.000805 21:0.009397 22:0.227269 23:0.042347 24:0.000379 26:0.021877 27:0.022171 28:0.00024 31:1.1e-05 33:5e-06 37:3.7e-05 38:0.002955 39:0.000944 42:0.022352 43:0.133936 44:0.000619 47:0.005493 48:0.000192 58:1.1e-05 59:0.038965 60:0.000283 63:0.046293 64:0.080613 
1 1:0.141208 2:0.001083 3:5e-05 5:0.036508 6:0.02705 7:0.000392 8:3.3e-05 10:0.001475 11:0.000333 12:1.7e-05 17:0.012008 21:0.0316 22:0.184833 23:0.001642 24:2.5e-05 26:0.024692 27:0.039875 28:0.000475 31:0.002808 32:0.000808 38:0.00485 39:0.0001 42:0.024625 43:0.1195 44:0.000175 47:0.022317 48:0.016117 59:0.082658 63:0.076917 64:0.145825 
1 1:0.507488 2:0.035221 5:0.018864 6:0.033723 7:0.000843 17:0.005259 18:0.000549 21:0.013472 22:0.127899 23:0.022192 24:5e-06 26:0.001093 27:0.003323 37:6.9e-05 38:0.022661 39:0.002261 40:5e-06 42:0.021515 43:0.099835 44:0.001728 47:0.000256 48:0.000405 58:3.2e-05 59:0.023803 60:0.000427 63:0.004427 64:0.052645 
1 1:0.184811 2:0.018485 3:0.01128 4:0.000208 5:0.003979 6:0.016693 7:4.8e-05 8:5e-06 10:5.3e-05 17:0.014917 18:0.002848 19:0.003637 20:4.8e-05 21:0.010907 22:0.243824 23:0.022763 24:0.000139 26:0.004533 27:0.019792 28:0.000464 32:1.6e-05 33:6.9e-05 34:5.9e-05 37:0.000277 38:0.020197 39:0.004267 40:5.9e-05 41:5e-06 42:0.036144 43:0.162512 44:0.009435 47:0.004859 48:0.009664 57:1.1e-05 58:0.000192 59:0.004688 60:0.000587 62:4.3e-05 63:0.005851 64:0.181632 
1 1:0.303376 2:0.035179 3:0.004592 4:0.000747 5:0.000149 6:0.023712 7:0.001861 8:0.000112 11:0.000101 12:0.000208 16:2.1e-05 17:0.068064 18:0.008939 19:0.001387 20:0.002165 21:0.007013 22:0.033445 23:0.008027 24:0.005637 26:8e-05 27:0.004267 28:0.000608 32:5.3e-05 33:0.036224 34:0.000352 35:3.7e-05 36:5e-06 37:0.031744 38:0.047408 39:0.003312 40:0.001227 41:1.6e-05 42:0.002757 43:0.03256 44:0.005685 47:7.5e-05 48:0.004053 49:0.011141 53:0.110235 54:0.007376 55:0.000165 56:5e-06 57:0.038688 58:0.055275 59:0.010693 60:0.002085 62:0.030101 63:0.004603 64:0.054432 
1 1:0.107735 2:0.00452 3:0.001335 4:0.001055 5:0.00128 6:0.01041 7:0.00099 8:7.5e-05 10:5e-06 11:0.00026 12:0.002685 16:0.00221 17:0.003615 18:0.000545 19:0.00062 20:0.00191 21:0.004685 22:0.314795 23:0.0303 24:0.00031 25:0.00011 26:0.00159 27:0.052105 28:0.007135 32:0.02115 33:0.0008 34:4.5e-05 35:0.000175 36:2e-05 37:0.00112 38:0.00644 39:0.00079 40:3.5e-05 41:0.00035 42:0.007045 43:0.105345 44:0.01297 45:4e-05 46:3e-05 47:0.000925 48:0.02108 49:5e-06 53:0.00079 57:0.000495 58:0.001845 59:0.00419 60:0.000465 61:7e-05 62:0.015525 63:0.180465 64:0.06751 
1 1:0.199696 2:5.3e-05 5:0.003947 6:0.000864 17:0.022037 18:3.2e-05 21:0.034539 22:0.063504 23:0.000128 26:0.000731 27:0.000517 33:5e-06 37:1.1e-05 38:0.011776 39:3.7e-05 42:0.011557 43:0.043765 44:6.9e-05 47:0.000245 48:0.00016 58:2.7e-05 59:0.015616 60:3.7e-05 63:0.016235 64:0.574411 
1 1:0.057541 2:0.000384 3:0.000155 4:1.6e-05 5:0.061829 6:0.156357 7:0.000123 8:3.7e-05 17:0.000464 18:2.7e-05 19:0.000133 20:3.2e-05 21:0.003803 22:0.543968 23:0.002864 24:0.005424 26:0.001243 27:0.003675 28:0.000603 37:5e-06 38:0.001424 39:5.3e-05 40:0.000432 42:0.003317 43:0.034496 44:0.017019 47:0.000448 48:0.001227 59:0.005691 60:0.000357 63:0.009269 64:0.087584 
1 1:0.229851 2:0.05128 3:0.02512 4:0.006656 5:0.042555 6:0.078576 7:0.001824 8:0.000107 10:0.008208 11:0.002384 12:7.5e-05 15:6.9e-05 16:1.6e-05 17:0.006837 18:0.001915 19:0.001451 20:0.023995 21:0.012901 22:0.102517 23:0.0144 24:0.026715 26:0.034859 27:0.085003 28:0.003195 31:0.017707 32:0.003797 37:2.1e-05 38:0.008043 39:0.001216 40:0.004021 42:0.006149 43:0.0752 44:0.008949 47:0.008352 48:0.020891 58:0.000448 59:0.0072 60:0.000933 63:0.004859 64:0.071707 
1 1:0.232373 2:0.002421 5:0.002112 6:0.005125 17:0.008496 18:0.004709 19:5e-06 21:0.004427 22:0.376997 23:0.004043 26:0.000672 27:0.002261 38:0.003408 39:0.000517 40:1.6e-05 42:0.001904 43:0.018021 44:0.000891 47:5.9e-05 48:0.000485 58:5e-06 59:0.000341 60:8.5e-05 63:0.000187 64:0.330437 
1 1:0.192849 2:0.059795 3:0.002801 4:0.019789 5:0.001602 6:0.059416 7:0.030807 8:0.002476 10:6e-06 11:0.001006 12:0.000596 15:6e-06 16:1.2e-05 17:4.2e-05 18:0.000361 19:2.4e-05 20:1.2e-05 21:0.000181 22:0.041771 23:0.074434 24:0.005554 26:0.00197 27:0.081102 28:0.086645 31:6e-06 32:0.002669 38:1.8e-05 39:0.000102 42:0.000145 43:0.053518 44:0.092771 47:0.006108 48:0.130928 59:1.8e-05 60:5.4e-05 63:0.000277 64:0.050127 
1 1:0.140925 2:0.003118 5:0.013856 6:0.052246 7:0.000326 9:1.1e-05 10:0.006417 11:0.006663 12:0.000198 14:5e-06 15:0.001273 16:0.002364 17:0.014989 18:0.004011 21:0.002321 22:0.191353 23:0.011909 25:5e-06 26:0.040535 27:0.056342 28:0.000588 31:0.001219 32:0.00469 33:0.003904 34:0.000519 37:0.000444 38:0.012214 39:0.003599 42:0.002144 43:0.192433 44:0.01138 46:5e-06 47:0.004936 48:0.036102 49:0.001198 50:0.00023 53:0.000187 54:0.003481 55:0.000572 56:5e-06 58:0.000406 59:0.010743 60:0.008749 62:5e-06 63:0.000861 64:0.150519 
1 1:0.087611 2:0.00688 3:0.002128 4:5.3e-05 5:0.000667 6:0.004224 7:0.000101 8:0.000117 17:0.008507 18:0.003989 19:0.006736 20:6.4e-05 21:0.003648 22:0.157205 23:0.073365 24:0.000203 26:0.000464 27:0.003728 28:3.2e-05 32:5e-06 33:0.000112 34:6.4e-05 37:0.001211 38:0.068272 39:0.010176 40:4.3e-05 41:0.000203 42:0.015013 43:0.250699 44:0.018603 47:0.001344 48:0.010272 53:0.000197 54:2.7e-05 57:0.000437 58:0.002597 59:0.016805 60:0.011723 63:0.004608 64:0.227867 
1 1:0.619995 2:0.010267 3:1.1e-05 4:1.6e-05 5:0.003979 6:0.019525 7:2.1e-05 8:5e-06 15:5e-06 16:5e-06 17:0.012336 18:0.000443 21:0.016688 22:0.126464 23:0.004229 26:0.000645 27:0.004773 28:2.1e-05 32:2.1e-05 37:0.000235 38:0.031739 39:0.0008 41:3.2e-05 42:0.03136 43:0.040971 44:0.002576 47:0.000181 48:0.002816 53:1.1e-05 58:0.000288 59:0.015744 60:0.000165 62:1.1e-05 63:0.01584 64:0.037781 
1 1:0.294197 2:0.001984 3:0.001077 4:5e-06 5:0.005093 6:0.007104 7:0.001733 10:5e-06 11:0.004928 12:0.000757 16:0.000699 17:0.0872 18:0.004277 19:0.015072 20:0.002427 21:0.066992 22:0.123467 23:0.002517 24:0.000624 26:0.010373 27:0.002219 28:0.00048 31:2.1e-05 32:0.004293 33:0.000704 34:3.7e-05 35:9.1e-05 36:5e-06 37:0.006272 38:0.022437 39:0.001083 40:0.000683 41:2.1e-05 42:0.070304 43:0.062875 44:0.000395 47:0.008528 48:0.003173 54:1.1e-05 58:0.000672 59:0.006352 60:0.000123 63:0.02624 64:0.152448 
1 1:0.121029 2:0.003339 5:0.004704 6:0.014432 7:0.000139 11:1.1e-05 17:0.004128 18:0.000672 21:0.007376 22:0.205872 23:0.006507 26:0.002059 27:0.015317 28:8.5e-05 31:1.1e-05 32:7.5e-05 33:1.1e-05 34:1.1e-05 37:0.000123 38:0.006843 39:0.000923 42:0.006475 43:0.144464 44:0.006587 47:0.001285 48:0.018971 54:1.6e-05 58:0.000245 59:0.034213 60:0.000544 63:0.037323 64:0.356213 
1 1:0.234891 2:0.006976 3:0.042651 4:0.007637 5:0.001035 6:0.004912 7:0.00336 8:0.000885 11:0.000517 12:2.1e-05 16:5e-06 17:0.019541 18:0.00264 19:0.002341 20:0.000624 21:0.006053 22:0.202085 23:0.017787 24:0.005072 26:0.000997 27:0.00664 28:0.001115 32:0.000128 33:0.001008 34:5e-06 35:3.2e-05 36:9.6e-05 37:0.001867 38:0.025504 39:0.002395 40:0.000421 42:0.00616 43:0.207595 44:0.021653 47:0.004187 48:0.036245 50:5e-06 51:1.1e-05 52:3.2e-05 53:6.9e-05 54:5.9e-05 55:8e-05 56:4.8e-05 58:0.000101 59:0.005664 60:0.001163 62:5e-06 63:0.003579 64:0.114101 
1 1:0.127323 2:0.014459 3:0.001664 4:0.000293 5:0.000693 6:0.008139 7:0.007003 8:0.00016 9:0.000389 10:3.7e-05 11:0.003083 12:0.019547 16:0.0168 17:0.025211 18:0.006811 19:0.000288 20:9.1e-05 21:0.015931 22:0.193547 23:0.016837 24:0.000453 25:0.001115 26:0.001861 27:0.022933 28:0.004981 31:1.6e-05 32:0.018453 33:0.000693 34:2.1e-05 37:0.003755 38:0.106837 39:0.004549 40:0.000155 41:0.000149 42:0.043707 43:0.183253 44:0.006021 46:7.5e-05 47:0.001856 48:0.020235 53:0.000112 54:5.3e-05 56:5e-06 58:0.000656 59:0.012907 60:0.000875 62:3.2e-05 63:0.005557 64:0.100379 
1 1:0.318091 2:0.022917 3:0.010805 4:0.031477 5:0.002155 6:0.003637 7:0.000139 8:0.009024 12:5e-06 17:0.017445 18:0.002619 19:0.000267 20:0.000864 21:0.027648 22:0.070256 23:0.004112 24:0.0192 25:5e-06 26:0.001771 27:0.005333 28:0.000432 32:1.6e-05 33:0.000197 34:4.3e-05 37:0.002469 38:0.019355 39:0.001147 40:0.004048 41:8.5e-05 42:0.016224 43:0.352165 44:0.006512 46:5e-06 47:0.000448 48:0.001691 49:5e-06 53:2.1e-05 54:0.000101 57:3.2e-05 58:0.005712 59:0.009765 60:0.000848 62:6.9e-05 63:0.004357 64:0.02648 
1 1:0.197328 2:0.035115 3:0.0048 4:0.001205 5:0.000805 6:0.037845 7:0.005339 8:4.8e-05 10:2.1e-05 11:0.001835 12:0.001445 14:5e-06 16:0.014688 17:0.018736 18:0.000848 19:0.000784 20:0.004427 21:0.013205 22:0.116539 23:0.061936 24:0.022448 26:0.00072 27:0.037547 28:0.005317 31:3.7e-05 32:0.003872 33:0.000219 34:1.6e-05 37:0.001365 38:0.011824 39:0.000885 40:0.00136 41:0.000176 42:0.007568 43:0.221611 44:0.018544 47:0.000272 48:0.014912 53:8.5e-05 54:0.000213 55:2.1e-05 56:5e-06 57:0.000341 58:0.000405 59:0.009909 60:0.000507 62:1.1e-05 63:0.022912 64:0.099941 
1 1:0.008817 2:0.000108 5:0.002739 6:0.185003 17:0.005616 18:0.000979 21:0.00594 22:0.27618 23:0.000919 26:0.001051 27:0.00218 33:6e-06 37:0.020895 38:0.007856 39:0.000186 40:6e-06 41:0.00573 42:0.015027 43:0.419934 44:0.000222 47:0.00048 48:0.000589 53:2.4e-05 57:0.013255 58:0.008372 59:0.002991 60:8.4e-05 62:0.000126 63:0.003489 64:0.011195 
1 1:0.106021 2:0.004027 3:0.000299 5:0.016859 6:0.007232 7:0.000411 11:5e-06 17:0.005904 18:0.00096 19:0.000891 20:1.6e-05 21:0.074971 22:0.391083 23:0.006699 24:9.1e-05 26:0.004213 27:0.010352 28:0.000853 37:0.00184 38:0.092763 39:0.000896 40:2.1e-05 41:0.000176 42:0.027856 43:0.034533 44:0.006784 47:0.001573 48:0.018507 53:5e-06 54:1.6e-05 58:0.000395 59:0.002971 60:0.000299 63:0.002059 64:0.178421 
1 1:0.186645 2:0.013925 3:0.002661 4:0.000416 5:0.005968 6:0.035781 7:0.006267 8:0.002107 9:0.004027 10:0.007536 11:0.022576 12:0.003925 13:6.9e-05 14:6.9e-05 15:0.002901 16:0.005024 17:0.037979 18:0.008491 19:9.6e-05 20:2.7e-05 21:0.004379 22:0.116539 23:0.098155 24:0.00088 25:0.001819 26:0.002213 27:0.114197 28:0.006539 29:0.000171 30:4.8e-05 31:0.001904 32:0.004 33:0.001856 34:0.003381 37:0.003888 38:0.008731 39:0.004907 40:5.9e-05 41:0.000501 42:0.003131 43:0.151739 44:0.017371 46:4.8e-05 47:0.000677 48:0.01016 50:1.1e-05 53:0.00192 54:0.002139 55:0.000363 57:0.001765 58:0.002523 59:0.026053 60:0.000757 61:0.000101 62:6.4e-05 63:0.034464 64:0.026059 
1 1:0.119035 2:0.023472 3:0.000219 4:1.1e-05 5:0.004731 6:0.013947 7:0.002405 8:1.6e-05 10:9.1e-05 11:0.006176 12:0.000624 15:1.1e-05 16:0.000427 17:0.01088 18:0.000987 19:0.000405 20:1.6e-05 21:0.041083 22:0.202304 23:0.007712 24:0.000325 25:0.000144 26:0.043755 27:0.020539 28:0.006816 31:7.5e-05 32:0.005723 33:2.7e-05 37:0.002064 38:0.006763 39:0.000811 40:5e-06 41:0.00048 42:0.073056 43:0.248176 44:0.002315 46:2.7e-05 47:0.003429 48:0.024192 53:0.000379 54:0.000405 55:2.1e-05 57:1.1e-05 58:0.001275 59:0.015163 60:7.5e-05 61:5e-06 62:0.000309 63:0.023957 64:0.085131 
1 1:0.302091 2:0.038507 3:0.000347 5:8.5e-05 6:0.036901 7:0.021093 8:0.001131 11:2.1e-05 12:1.6e-05 17:0.017835 18:0.001232 19:5.9e-05 21:0.030293 22:0.171211 23:0.134091 24:0.002373 26:0.000181 27:0.01968 28:0.016283 32:9.6e-05 33:0.000107 34:5e-06 37:0.002416 38:0.016944 39:0.000939 40:5e-06 42:0.009099 43:0.056896 44:0.005515 47:0.000405 48:0.005445 54:0.000117 55:3.2e-05 58:0.018907 59:0.015995 60:0.000112 63:0.005979 64:0.067557 
1 1:0.189445 2:0.038432 3:0.027451 4:0.009707 5:0.000277 6:0.00248 7:0.000411 8:0.000192 11:5e-06 16:1.1e-05 17:0.015029 18:0.014069 19:0.004016 20:0.005077 21:0.007381 22:0.124517 23:0.082059 24:0.008496 26:0.000107 27:0.001248 28:0.000171 31:5e-06 32:0.000213 33:0.001925 36:1.1e-05 37:0.008928 38:0.023093 39:0.029963 40:0.025664 42:0.007499 43:0.081189 44:0.044016 47:9.1e-05 48:0.002571 53:0.000123 54:0.000773 55:5e-06 58:0.00224 59:0.016496 60:0.016283 63:0.003477 64:0.204853 
1 1:0.232572 2:0.058398 3:0.000627 4:6e-06 5:0.000614 6:0.076795 7:0.000705 10:0.000566 11:0.00091 17:0.001343 18:0.000464 19:0.000663 21:0.001771 22:0.044596 23:0.003783 24:1.2e-05 26:0.000404 27:0.003404 28:1.2e-05 37:4.8e-05 38:0.000295 39:0.000133 41:6e-06 42:0.00056 43:0.028006 44:0.000464 47:0.00094 48:0.000386 59:0.000181 60:0.000271 63:0.001367 64:0.539699 
1 1:0.235952 2:0.011152 3:2.1e-05 5:0.008155 6:0.035872 7:0.006075 10:4.8e-05 11:0.000155 12:5e-06 17:0.016 18:0.003056 21:0.007659 22:0.088709 23:0.009963 24:1.1e-05 25:4.3e-05 26:0.001125 27:0.011099 28:0.002112 31:1.6e-05 32:8e-05 37:0.176475 38:0.008155 39:0.0004 41:5.3e-05 42:0.00736 43:0.023029 44:0.001125 46:6.9e-05 47:0.000635 48:0.001941 53:0.013291 54:0.076208 58:0.091611 59:0.076933 60:0.000256 63:0.020608 64:0.064544 
1 1:0.223669 2:0.007957 3:0.000704 4:0.000117 5:0.004677 6:0.020363 7:0.000416 8:1.6e-05 10:0.001739 11:0.001301 12:7.5e-05 15:5e-06 16:0.000123 17:0.016896 18:0.000907 19:7.5e-05 20:4.8e-05 21:0.010779 22:0.10128 23:0.018075 24:0.000155 26:0.002512 27:0.024533 28:0.000693 31:4.8e-05 32:5.9e-05 33:6.4e-05 34:1.6e-05 35:5e-06 37:0.002992 38:0.024469 39:0.001339 40:5.9e-05 41:0.000101 42:0.044997 43:0.288347 44:0.075381 46:5e-06 47:0.000859 48:0.008165 54:0.000128 55:3.2e-05 57:1.6e-05 58:0.001301 59:0.017621 60:0.001259 61:3.2e-05 62:9.6e-05 63:0.005637 64:0.089856 
1 1:0.179255 2:0.018691 3:0.001874 4:6e-06 5:0.008733 6:0.018156 7:0.004486 8:1.8e-05 10:0.00045 11:0.000294 17:0.007544 18:0.003676 19:4.8e-05 20:1.2e-05 21:0.014474 22:0.292601 23:0.038565 24:0.000895 26:0.001435 27:0.027135 28:0.001063 37:0.000661 38:0.02427 39:0.005976 40:0.014318 41:2.4e-05 42:0.065982 43:0.176679 44:0.013135 47:0.000372 48:0.006595 56:3e-05 58:0.000619 59:0.057502 60:0.002078 62:6e-06 63:0.000955 64:0.011387 
1 1:0.179392 2:0.012096 3:0.009269 4:0.006821 5:0.008597 6:0.019189 7:0.004256 8:0.000848 10:0.000837 11:0.000976 12:0.000128 15:0.000309 16:5.9e-05 17:0.008656 18:0.000549 19:0.001035 20:0.001232 21:0.024805 22:0.261195 23:0.020656 24:0.005312 26:0.032613 27:0.022507 28:0.000875 31:0.00192 32:0.001771 33:1.1e-05 37:0.000117 38:0.006661 39:0.000229 40:0.000101 41:5e-06 42:0.077744 43:0.163157 44:0.008053 46:1.6e-05 47:0.00344 48:0.008667 53:7.5e-05 54:1.6e-05 58:0.000139 59:0.018021 60:0.000331 63:0.014997 64:0.072315 
1 1:0.037371 2:0.003451 3:4.8e-05 5:0.000192 6:0.003328 7:0.002485 8:4.3e-05 11:0.002928 12:0.002885 16:0.000144 17:0.012907 18:0.000779 19:9.1e-05 21:0.006091 22:0.261691 23:0.007701 24:2.1e-05 26:0.00032 27:0.005488 28:0.001067 32:0.001829 37:0.000107 38:0.017493 39:0.000651 42:0.016939 43:0.092624 44:0.00304 47:0.000896 48:0.005243 58:0.278576 59:0.167541 60:0.000181 63:0.010981 64:0.054869 
1 1:0.087056 2:0.020549 3:0.000512 5:0.002699 6:0.007253 7:0.000683 10:5e-06 11:0.001509 12:0.000176 17:0.025349 18:0.002437 19:0.004405 21:0.012448 22:0.056939 23:0.032 24:0.000219 25:0.001024 26:0.004619 27:0.02688 28:0.000928 31:0.001237 32:3.7e-05 33:0.01952 34:6.4e-05 35:0.001541 36:2.7e-05 37:0.048208 38:0.020821 39:0.001739 40:4.3e-05 41:0.002869 42:0.020805 43:0.339413 44:0.042363 46:0.000112 47:0.004656 48:0.012971 58:0.000443 59:0.013787 60:0.004453 63:0.007893 64:0.169307 
1 1:0.118843 2:0.024258 3:0.020916 4:0.001174 5:0.007539 6:0.040742 7:0.00741 8:0.00073 10:0.041107 11:0.017579 12:5.1e-05 14:2.2e-05 15:0.010685 16:0.000618 17:0.009292 18:0.001416 19:0.001494 20:0.000315 21:0.002298 22:0.068455 23:0.08477 24:0.002096 26:0.008635 27:0.044607 28:0.00273 31:0.020871 32:0.010792 33:0.000337 34:6e-06 37:0.003461 38:0.029393 39:0.002612 40:2.8e-05 41:6e-06 42:0.015079 43:0.18232 44:0.014876 47:0.005084 48:0.030596 53:1.1e-05 54:0.000101 57:2.8e-05 58:0.000169 59:0.043792 60:0.0025 61:1.1e-05 62:1.7e-05 63:0.006972 64:0.113157 
1 1:0.258165 2:0.016213 3:0.00072 5:0.076171 6:0.022517 7:0.001195 8:1.1e-05 9:0.00024 10:0.003168 11:0.001957 12:0.000144 14:0.000432 15:0.001125 16:0.000565 17:0.026725 18:0.017701 19:0.007077 20:1.6e-05 21:0.001573 22:0.044789 23:0.012053 24:0.000277 26:0.005035 27:0.013803 28:0.000437 30:2.1e-05 31:0.001264 32:0.001557 33:0.001099 34:0.001701 35:0.003152 36:9.1e-05 37:0.000843 38:0.014293 39:0.01608 40:0.000427 42:0.002629 43:0.264064 44:0.006933 46:5e-06 47:0.002128 48:0.008832 49:0.000357 50:0.000235 51:9.6e-05 52:1.1e-05 53:3.2e-05 54:0.001349 55:0.001552 56:0.000235 58:0.000149 59:0.017717 60:0.039259 63:0.000507 64:0.101269 
1 1:0.169408 2:0.024859 3:0.005072 4:0.00112 5:0.047083 6:0.099504 7:0.000885 8:0.000352 10:0.037077 11:0.002907 12:0.000197 15:0.000261 17:0.007419 18:0.002128 19:0.00696 20:1.6e-05 21:0.054128 22:0.118277 23:0.019829 24:0.005365 25:0.000187 26:0.055589 27:0.054987 28:0.000512 31:0.000933 32:0.000171 33:0.000379 34:5e-06 37:0.009803 38:0.007243 39:0.000971 40:0.006683 41:0.004933 42:0.078176 43:0.085403 44:0.017781 46:5e-06 47:0.003669 48:0.006011 53:6.4e-05 54:0.000101 55:3.7e-05 57:0.000155 58:0.003643 59:0.011248 60:0.001333 62:0.000176 63:0.014528 64:0.032427 
1 1:0.319569 2:0.00735 3:0.000194 5:0.066452 6:0.09162 7:0.000211 10:0.002306 17:0.000467 18:0.000167 19:0.000167 20:9e-06 21:0.003336 22:0.093732 23:0.00544 24:0.000158 26:0.028988 27:0.042588 28:0.000202 31:0.000238 38:0.00015 39:0.000132 40:3.5e-05 42:0.000555 43:0.07919 44:0.00419 47:0.006725 48:0.030783 59:0.001532 60:0.000229 63:0.002315 64:0.210968 
1 1:0.543399 2:0.100955 3:0.013351 4:0.002288 5:0.002877 6:0.082 7:0.027219 8:0.009844 9:1.8e-05 10:0.00015 11:0.000667 12:0.010222 15:4.2e-05 16:0.0003 17:0.010414 18:0.004883 19:7.8e-05 20:6e-06 21:0.000745 22:0.052565 23:0.023574 24:0.001886 25:4.8e-05 26:0.001453 27:0.015411 28:0.008042 29:1.8e-05 30:2.4e-05 31:0.000198 32:0.001099 33:0.001646 34:0.000517 35:4.8e-05 36:6e-06 37:0.000643 38:0.004468 39:0.001724 40:0.000126 42:0.000787 43:0.008462 44:0.004997 46:5.4e-05 47:0.001057 48:0.007502 49:0.000126 50:1.2e-05 51:0.000258 52:3e-05 53:0.001526 54:0.002366 55:0.000607 56:0.000198 57:0.000222 58:0.001237 59:0.003339 60:0.001405 62:0.000541 63:0.003213 64:0.039105 
1 1:0.030149 2:0.015291 5:0.011003 6:0.050864 7:3.7e-05 17:0.009104 18:0.025243 21:0.005515 22:0.708027 23:0.006571 26:0.001435 27:0.005845 28:9.6e-05 32:1.6e-05 38:0.009344 39:0.000949 42:0.004347 43:0.037616 44:0.000635 47:5.3e-05 48:0.000757 59:0.002773 60:2.7e-05 63:0.003083 64:0.071221 
1 1:0.186885 2:0.001643 3:5.9e-05 5:0.066485 6:0.031995 7:0.000741 8:1.1e-05 9:2.1e-05 10:0.005909 11:0.001877 12:8.5e-05 14:2.1e-05 15:0.000187 16:0.000464 17:0.064475 18:0.028741 19:0.000949 20:1.1e-05 21:0.044827 22:0.114192 23:0.013584 24:9.1e-05 25:0.000496 26:0.042853 27:0.006283 28:0.000448 30:8e-05 31:0.00128 32:0.001653 33:0.003936 34:0.004117 35:0.009808 36:0.000555 37:0.001787 38:0.020352 39:0.0224 40:0.001685 41:0.000101 42:0.006923 43:0.026005 44:0.001723 45:3.2e-05 46:0.000267 47:0.008059 48:0.011344 49:0.000997 50:0.001483 51:0.001237 52:0.000869 53:0.000661 54:0.005104 55:0.003611 56:0.007685 57:5.9e-05 58:0.001904 59:0.037109 60:0.016587 62:0.000123 63:0.005088 64:0.182043 
1 1:0.210104 2:0.024474 3:0.000487 5:0.000609 6:0.013483 7:0.010161 8:7.4e-05 11:0.000235 12:0.000535 16:0.000135 17:0.044122 18:0.005543 19:7e-05 20:1.3e-05 21:0.018304 22:0.270191 23:0.05623 24:1.7e-05 26:0.000565 27:0.061204 28:0.002417 32:0.000448 34:4e-06 38:0.014343 39:0.003948 40:4e-06 42:0.001813 43:0.180974 44:0.044435 47:0.000604 48:0.010643 55:9e-06 59:0.000483 60:0.000909 63:0.000413 64:0.021996 
1 1:0.13976 2:0.003349 3:5.9e-05 5:0.006821 6:0.003781 7:0.000827 8:3.7e-05 12:1.1e-05 17:0.00616 18:0.00144 21:0.023611 22:0.070048 23:0.003189 26:0.001008 27:0.017771 38:0.010299 39:0.000368 42:0.009248 43:0.379637 44:0.000619 47:0.000571 48:0.000475 59:0.160368 60:0.000443 63:0.084368 64:0.075733 
1 1:0.302361 2:0.008301 3:1.2e-05 5:0.016175 6:0.032946 7:0.000151 11:6e-06 17:0.005494 18:0.000753 19:6e-06 21:0.010048 22:0.138807 23:0.004952 24:1.2e-05 25:6e-06 26:0.001741 27:0.003157 28:2.4e-05 33:1.2e-05 34:1.2e-05 37:0.000205 38:0.027892 39:0.002488 40:6e-06 41:1.2e-05 42:0.015651 43:0.07744 44:0.002127 47:0.000235 48:0.000241 53:6e-06 54:1.8e-05 58:0.000416 59:0.050066 60:0.001114 63:0.027898 64:0.269211 
1 1:0.019189 2:0.002731 3:2.1e-05 5:0.001648 6:0.00328 7:0.000251 8:5e-06 11:2.1e-05 12:5e-06 17:0.01168 18:0.002571 19:0.00024 21:0.024875 22:0.126581 23:0.010064 24:5.3e-05 25:5.3e-05 26:0.004784 27:0.020149 28:0.002795 30:5e-06 31:2.1e-05 37:0.000576 38:0.035947 39:0.004389 40:0.001109 42:0.033152 43:0.123813 44:0.009728 46:5e-06 47:0.006192 48:0.009888 54:5.9e-05 55:2.7e-05 56:5e-06 58:0.009472 59:0.027435 60:0.003707 63:0.016272 64:0.4872 
1 1:0.12184 2:0.001632 3:0.000416 4:0.000117 5:1.1e-05 6:0.000261 7:0.000261 8:2.1e-05 11:4.3e-05 12:0.000192 17:0.011408 18:0.001307 19:0.000405 20:0.000224 21:0.010917 22:0.04104 23:0.001552 24:0.000357 26:2.7e-05 27:0.002133 28:0.002539 32:0.000352 37:1.1e-05 38:0.022517 39:0.000171 40:0.000101 42:0.050768 43:0.241184 44:0.014725 47:4.3e-05 48:0.012357 58:0.000208 59:0.059483 60:0.000219 63:0.004661 64:0.396496 
1 1:0.261303 2:0.036066 3:0.013447 4:3.6e-05 5:0.003664 6:0.023213 7:0.015273 8:0.001532 11:6e-06 12:0.000258 17:0.01618 18:0.000901 19:4.8e-05 21:0.071904 22:0.308006 23:0.009886 24:0.000468 26:0.001081 27:0.006877 28:0.00176 32:0.000114 33:7.8e-05 37:0.000787 38:0.022312 39:0.00033 40:1.2e-05 42:0.040474 43:0.071826 44:0.003243 47:0.001694 48:0.001033 54:0.000228 58:0.000456 59:0.005045 60:0.000114 62:3e-05 63:0.006282 64:0.07403 
1 1:0.616783 2:5.9e-05 3:5.3e-05 4:2.4e-05 5:0.004249 6:0.000754 7:0.000119 8:0.000101 9:1.2e-05 10:0.000398 11:0.001258 12:0.000908 15:6.5e-05 16:0.001086 17:0.066516 18:1.2e-05 20:6e-06 21:0.212481 22:0.000356 23:3e-05 24:0.000113 25:0.004386 26:0.000481 27:0.000522 28:0.00032 31:0.000255 32:0.002665 33:1.2e-05 37:0.003887 38:3.6e-05 41:0.014599 42:0.011448 43:0.000172 44:4.2e-05 46:4.7e-05 47:0.000261 48:0.000682 57:5.3e-05 58:0.001033 59:1.8e-05 61:1.8e-05 62:0.002421 63:0.001056 64:0.050202 
1 1:0.359587 2:0.023497 3:0.001665 5:0.00115 6:0.024545 7:0.000671 8:0.000168 12:1.8e-05 17:0.032587 18:0.000707 19:2.4e-05 21:0.029497 22:0.17988 23:0.009689 24:9e-05 26:0.000731 27:0.004503 28:0.000168 33:0.000234 37:0.027928 38:0.012377 39:0.000832 40:7.8e-05 41:1.8e-05 42:0.023275 43:0.101569 44:0.002743 47:0.000862 48:0.001126 53:0.00012 54:0.000222 57:6e-05 58:0.006 59:0.015126 60:0.000808 63:0.012707 64:0.124743 
1 1:0.709979 2:0.028544 3:0.053893 4:0.013648 5:0.000747 6:0.009461 7:0.008443 8:0.000197 9:5e-06 10:5e-06 11:0.000107 12:0.000325 16:5e-06 17:0.000427 18:0.0008 19:0.000155 20:1.6e-05 21:0.000192 22:0.016789 23:0.038869 24:0.000485 26:7.5e-05 27:0.015925 28:0.004427 31:5e-06 32:7.5e-05 34:5e-06 38:0.000693 39:0.000704 40:5e-06 42:0.000144 43:0.043712 44:0.002731 47:6.4e-05 48:0.000677 58:2.1e-05 59:0.003291 60:0.002656 63:0.000144 64:0.041552 
1 1:0.193669 2:0.058075 3:0.004203 4:1.1e-05 5:0.000709 6:0.090165 7:0.035851 8:0.007104 11:0.000251 12:0.03288 17:0.000229 18:9.1e-05 21:0.000608 22:0.203168 23:0.028203 24:0.003909 26:0.000325 27:0.013029 28:0.109392 32:0.002549 38:0.000512 39:3.7e-05 40:5e-06 42:0.001947 43:0.122379 44:0.005867 47:0.000192 48:0.007152 59:0.033013 63:0.029723 64:0.014752 
1 1:0.343824 2:0.012576 3:0.000491 5:0.001867 6:0.013984 7:0.003216 8:1.1e-05 10:1.1e-05 11:0.000565 12:1.1e-05 17:0.068923 18:0.002437 19:8e-05 21:0.046795 22:0.089803 23:0.020448 24:3.7e-05 25:5e-06 26:0.001221 27:0.023925 28:0.000709 31:5e-06 32:8e-05 33:9.6e-05 34:1.6e-05 37:0.000197 38:0.008667 39:0.00184 40:4.8e-05 42:0.004581 43:0.160219 44:0.003792 47:0.000395 48:0.002075 55:1.1e-05 56:5e-06 58:2.1e-05 59:0.008763 60:0.000405 63:0.009136 64:0.168709 
1 1:0.613544 2:0.011832 3:0.005904 4:0.000336 5:0.017622 6:0.030204 7:0.00027 10:0.002589 11:0.00218 12:3.6e-05 15:0.000228 16:4.2e-05 17:0.011946 18:0.000216 19:6e-06 21:0.042505 22:0.085904 23:0.004985 24:2.4e-05 25:0.000925 26:0.004384 27:0.015976 28:0.000414 31:0.001291 32:0.000811 37:0.000348 38:0.011874 39:0.000444 41:4.8e-05 42:0.014186 43:0.053502 44:0.003976 45:1.2e-05 46:6e-06 47:0.000637 48:0.005682 55:6e-06 57:1.2e-05 58:0.000258 59:0.012679 60:0.000258 62:1.2e-05 63:0.008655 64:0.033231 
1 1:0.261317 2:0.002458 3:0.000117 5:0.036025 6:0.017067 7:6.7e-05 10:1.7e-05 11:8e-06 17:0.02255 18:0.0028 19:0.007067 21:0.038183 22:0.140083 23:0.019558 24:0.005167 26:0.011092 27:0.035183 28:0.011283 37:0.000117 38:0.010925 39:0.003575 40:0.000467 42:0.02825 43:0.046767 44:0.017367 47:0.001758 48:0.003858 58:0.000808 59:0.022133 60:0.000825 62:0.000683 63:0.114358 64:0.138067 
1 1:0.166421 2:0.018395 3:0.004021 4:0.000464 5:0.002304 6:0.01768 7:0.00064 8:4.8e-05 10:0.000192 11:0.000747 12:0.000651 16:0.002021 17:0.030805 18:0.002357 19:0.002107 20:0.001637 21:0.03 22:0.100235 23:0.02544 24:0.002331 26:0.002651 27:0.012448 28:0.001536 31:0.000139 32:0.007525 33:3.2e-05 34:1.1e-05 37:0.022213 38:0.027947 39:0.003451 40:0.00168 41:0.002213 42:0.019264 43:0.166389 44:0.0224 46:5e-06 47:0.000747 48:0.020128 53:1.1e-05 54:0.000133 55:5e-06 57:6.4e-05 58:0.008789 59:0.051056 60:0.021067 62:0.001557 63:0.007317 64:0.190725 
1 1:0.040088 2:0.053207 3:0.003247 4:0.005024 5:0.000603 6:0.023125 7:0.008231 8:0.005132 11:5.4e-05 12:0.001919 16:0.002454 17:0.021003 18:0.034129 19:0.005356 20:0.002441 21:0.004793 22:0.3448 23:0.087566 24:0.035905 25:6.8e-05 26:0.008956 27:0.034556 28:0.027044 29:7e-06 32:0.004637 37:3.4e-05 38:0.018529 39:0.011844 40:0.000427 41:2e-05 42:0.011308 43:0.130061 44:0.049437 45:2e-05 47:7e-06 48:0.015905 57:2.7e-05 58:7e-06 61:2e-05 62:1.4e-05 63:2.7e-05 64:0.007966 
1 1:0.163609 2:0.0343 3:0.005751 4:0.007842 5:0.000166 6:0.014726 7:0.000277 8:0.000325 10:0.000135 11:4e-05 12:4e-05 16:1.6e-05 17:0.023891 18:0.043536 19:0.001774 20:0.002693 21:0.001283 22:0.257597 23:0.037429 24:0.00202 26:0.000539 27:0.024715 28:0.000863 31:0.000111 32:0.000483 33:0.003438 34:0.000871 37:0.000642 38:0.021119 39:0.004864 40:0.00038 42:0.012936 43:0.12439 44:0.011914 47:0.000198 48:0.01208 49:0.001141 53:0.002646 54:0.002685 55:1.6e-05 58:0.000372 59:0.013387 60:0.001941 62:0.000879 63:0.021245 64:0.138696 
1 1:0.271732 2:0.004152 3:5e-06 5:0.251707 6:0.018338 7:0.000535 8:0.000258 9:2e-05 10:9.6e-05 11:0.000601 12:8.1e-05 17:0.004495 18:0.000232 21:0.069505 22:0.127096 23:0.002404 25:0.000449 26:0.029389 27:0.013227 28:0.000202 31:0.000101 32:2e-05 38:0.006515 39:0.000146 42:0.047889 43:0.088197 44:0.000808 47:0.008677 48:0.002652 59:0.003899 60:7.1e-05 63:0.024081 64:0.022419 
1 1:0.171781 2:0.051093 3:0.007547 4:6.9e-05 5:0.000544 6:0.006331 7:0.001109 8:1.1e-05 10:5e-06 11:6.4e-05 12:1.6e-05 17:0.011456 18:0.011509 19:0.003061 20:7.5e-05 21:0.015259 22:0.186603 23:0.123637 24:0.001685 26:0.000411 27:0.007771 28:0.000341 31:1.1e-05 32:6.4e-05 34:1.1e-05 36:5e-06 37:1.1e-05 38:0.013168 39:0.004997 40:0.00032 42:0.006443 43:0.107152 44:0.014837 47:0.000352 48:0.014645 54:1.6e-05 58:2.1e-05 59:0.008091 60:0.00216 63:0.00904 64:0.218277 
1 1:0.219584 2:0.065739 3:0.000864 4:0.001536 5:0.00072 6:0.102955 7:0.032997 8:0.00208 10:0.001163 11:0.014373 12:0.000715 15:1.6e-05 16:0.000405 17:0.003301 18:0.001408 20:1.1e-05 21:0.00144 22:0.077723 23:0.047888 24:0.000704 25:0.000309 26:0.001349 27:0.142528 28:0.047787 30:2.7e-05 31:7.5e-05 32:0.0032 34:5e-06 38:0.000341 39:0.000128 41:8.5e-05 42:0.001664 43:0.020811 44:0.030773 46:0.001397 47:0.000944 48:0.11088 55:2.1e-05 58:4.8e-05 59:0.000293 60:8e-05 62:0.000837 63:0.008165 64:0.052629 
1 1:0.460949 2:0.060352 5:0.000283 6:0.2348 7:0.0064 8:1.6e-05 10:5e-06 11:0.000304 12:0.000144 17:0.000165 18:0.000645 22:0.056923 23:0.045771 26:2.1e-05 27:0.063568 28:0.004555 32:0.000789 33:2.1e-05 34:5.3e-05 38:0.000171 39:0.000331 43:0.007429 44:0.007669 47:1.6e-05 48:0.017781 50:1.1e-05 51:5e-06 54:5e-06 55:7.5e-05 59:0.000229 60:0.000459 64:0.030053 
1 1:0.295419 2:0.075381 3:0.030683 4:0.002288 5:0.001035 6:0.02992 7:0.017632 8:0.017851 10:0.000645 11:0.001104 12:0.03624 16:8e-05 17:0.005557 18:0.004891 19:0.000645 20:0.00024 21:0.000853 22:0.108576 23:0.02888 24:0.001989 26:0.000475 27:0.017248 28:0.025685 31:0.000304 32:0.002624 33:1.1e-05 34:0.000192 35:5e-06 36:5e-06 37:5e-06 38:0.003424 39:0.002315 40:0.000107 42:0.001872 43:0.055723 44:0.036549 47:0.000219 48:0.01616 54:1.1e-05 55:3.7e-05 58:0.00016 59:0.003339 60:0.002011 63:0.001184 64:0.170427 
1 1:0.325147 2:0.005915 3:0.001328 4:0.002907 5:0.001168 6:0.003072 7:0.000277 8:0.002389 10:2.1e-05 11:8.5e-05 12:4.8e-05 15:1.1e-05 16:2.1e-05 17:0.051648 18:0.002064 19:0.000448 20:0.000949 21:0.029893 22:0.071104 23:0.004325 24:0.004309 26:0.000603 27:0.002576 28:0.000496 31:5e-06 32:0.000624 33:0.002368 34:6.9e-05 35:2.7e-05 36:0.000107 37:0.008053 38:0.033029 39:0.001253 40:0.000731 42:0.013803 43:0.216955 44:0.025328 47:0.000528 48:0.010032 49:3.7e-05 53:0.00048 54:0.000843 55:5e-06 56:4.3e-05 57:8.5e-05 58:0.003909 59:0.020699 60:0.014315 62:5e-06 63:0.003424 64:0.132437 
1 1:0.061797 2:0.035627 3:0.023408 4:0.001723 5:0.001237 6:0.006891 7:0.000448 8:8.5e-05 12:5.9e-05 17:0.008661 18:0.011509 19:0.002821 20:0.008576 21:0.004624 22:0.179365 23:0.028107 24:0.05752 26:0.002944 27:0.010011 28:0.000309 33:1.1e-05 37:0.000123 38:0.018437 39:0.003835 40:0.027803 42:0.006848 43:0.120336 44:0.089024 47:0.002251 48:0.017515 53:1.6e-05 54:1.6e-05 57:1.1e-05 58:0.000965 59:0.006832 60:0.007355 62:9.6e-05 63:0.004069 64:0.248736 
1 1:0.012192 2:0.001376 3:1.6e-05 5:0.000181 6:0.002757 7:0.000341 17:0.000907 18:0.000171 21:0.001072 22:0.372107 23:0.087189 26:0.000219 27:0.005579 38:0.000576 39:9.6e-05 42:0.001045 43:0.513867 44:4.3e-05 47:5e-06 59:0.000107 60:3.2e-05 63:5.9e-05 64:6.4e-05 
1 1:0.410553 2:0.031366 3:6e-06 5:0.036905 6:0.036709 7:0.001971 8:6e-06 11:6e-06 17:0.003879 18:0.000363 21:0.012127 22:0.030346 23:0.007354 24:6.3e-05 26:0.000259 27:0.004548 28:0.001043 37:7.5e-05 38:0.011216 39:0.000323 42:0.005009 43:0.012 44:0.004052 47:7.5e-05 48:0.006663 59:0.000202 60:0.000133 63:0.000323 64:0.382427 
1 1:0.228144 2:0.012787 3:0.008967 4:0.007285 5:0.058366 6:0.121369 7:0.007682 8:0.006486 9:6.6e-05 10:0.000432 11:0.001514 12:0.004829 15:3e-05 16:0.000703 17:0.013231 18:0.005808 19:0.002643 20:0.00185 21:0.014378 22:0.116474 23:0.020637 24:0.004288 25:0.005796 26:0.01206 27:0.071039 28:0.005219 29:0.000114 30:6e-06 31:0.00015 32:0.004571 33:0.00591 34:0.003622 35:0.000601 36:1.2e-05 37:0.006402 38:0.011183 39:0.004991 40:0.000859 41:0.001219 42:0.002787 43:0.037027 44:0.013423 45:0.000486 46:0.00021 47:0.000865 48:0.005309 49:0.000823 50:0.000228 51:6e-05 53:0.01803 54:0.010156 55:0.002186 56:6e-05 57:0.011033 58:0.07188 59:0.009291 60:0.00152 61:0.000348 62:0.003417 63:0.008288 64:0.030847 
1 1:0.118165 2:0.002016 5:0.044459 6:0.063061 7:6.4e-05 10:0.002715 11:0.000229 17:0.021952 18:0.000592 21:0.018859 22:0.172379 23:0.005595 24:5e-06 25:0.000213 26:0.029307 27:0.057621 28:0.000325 31:0.000123 33:5e-06 34:5e-06 37:0.001216 38:0.005403 39:0.000347 41:8e-05 42:0.004347 43:0.235664 44:0.009675 46:6.9e-05 47:0.001728 48:0.011157 58:0.000288 59:0.002037 60:0.000123 62:5e-06 63:0.168795 64:0.021376 
1 1:0.391819 2:0.000187 5:0.030779 6:0.018544 7:2.7e-05 10:0.000251 11:0.000288 12:2.7e-05 16:1.6e-05 17:0.001509 18:1.1e-05 21:0.01288 22:0.115861 23:0.000123 25:1.6e-05 26:0.01832 27:0.011099 28:8.5e-05 31:0.000123 32:0.000123 37:0.000848 38:0.019552 39:2.1e-05 41:0.000672 42:0.056427 43:0.164501 44:0.00136 46:7.5e-05 47:0.007909 48:0.009349 58:0.0008 59:0.012331 60:2.7e-05 62:0.000784 63:0.024347 64:0.098912 
1 1:0.126037 2:0.005179 3:0.000336 4:2.7e-05 5:0.001344 6:0.011483 7:0.000315 8:0.000491 11:2.1e-05 12:0.00016 16:5e-06 17:0.007419 18:0.000773 19:0.000181 20:2.7e-05 21:0.010251 22:0.096811 23:0.052677 24:0.001685 26:0.001104 27:0.020384 28:0.000688 32:5.9e-05 33:5e-06 37:0.000912 38:0.003467 39:0.000848 40:3.7e-05 41:5e-06 42:0.003989 43:0.098667 44:0.005024 47:0.001392 48:0.005147 53:0.001307 54:0.003061 57:1.6e-05 58:0.336187 59:0.008309 60:0.001179 62:0.007755 63:0.097541 64:0.087696 
1 1:0.085736 2:0.010787 3:0.000198 4:4.2e-05 5:0.002408 6:0.058943 7:0.065814 8:0.000138 10:1.8e-05 11:0.009808 12:0.001459 17:0.004144 18:0.000306 19:1.2e-05 21:0.006 22:0.214607 23:0.039381 24:6.6e-05 26:0.000679 27:0.034348 28:0.028763 32:0.000589 37:6e-06 38:0.002589 39:7.2e-05 42:0.00379 43:0.273267 44:0.015712 47:0.006637 48:0.077297 59:0.000468 60:4.8e-05 63:0.000444 64:0.055423 
1 1:0.257077 2:0.016005 3:5e-06 5:0.010571 6:0.018912 7:8.5e-05 9:5e-06 17:0.00552 18:0.001883 21:0.005131 22:0.274747 23:0.020875 26:0.00432 27:0.022613 28:1.1e-05 37:0.000171 38:0.005061 39:0.000864 42:0.007525 43:0.087664 44:0.001819 47:0.001456 48:0.002651 58:6.9e-05 59:0.003616 60:0.000283 63:0.003472 64:0.247589 
1 1:0.155189 2:0.0103 3:0.000156 4:1.2e-05 5:0.020781 6:0.03579 7:0.000114 8:5.4e-05 10:0.006715 11:0.003682 12:4.8e-05 15:0.00018 16:6e-06 17:0.044757 18:0.006697 19:0.00018 21:0.06973 22:0.179628 23:0.007003 24:3.6e-05 25:3e-05 26:0.00997 27:0.024871 28:8.4e-05 31:0.000336 32:4.8e-05 33:0.000396 37:0.044186 38:0.076895 39:0.000769 41:9.6e-05 42:0.026294 43:0.08973 44:0.004775 47:0.001195 48:0.011219 53:0.000396 54:3e-05 57:0.001574 58:0.002378 59:0.007297 60:0.000402 62:4.2e-05 63:0.004775 64:0.151153 
1 1:0.138006 2:0.001387 3:0.000294 5:0.002571 6:0.002919 7:3.6e-05 17:0.024354 18:0.000709 21:0.012847 22:0.144444 23:0.022967 24:5.4e-05 26:0.02358 27:0.042733 28:0.00012 33:1.8e-05 37:0.000108 38:0.034811 39:0.001177 40:1.8e-05 42:0.014168 43:0.215195 44:0.019946 47:0.005592 48:0.010324 54:1.8e-05 58:4.8e-05 59:0.01394 60:0.001423 63:0.007033 64:0.259159 
1 1:0.565277 2:0.002489 5:0.002577 6:0.006051 7:0.00092 17:0.010015 18:7e-06 21:0.017372 22:0.104314 23:0.009569 24:0.000124 26:0.00646 27:0.023599 28:0.000431 37:3.6e-05 38:0.009927 39:0.000124 42:0.01781 43:0.131993 44:0.003489 47:0.000153 48:0.002949 58:7e-06 59:0.005234 60:2.9e-05 63:0.003314 64:0.07573 
1 1:0.356982 2:0.007311 3:6e-06 5:0.004024 6:0.051886 10:6e-06 17:0.001778 18:5.4e-05 21:0.002491 22:0.130269 23:0.001503 26:0.002299 27:0.005509 38:0.000868 39:4.2e-05 42:0.001132 43:0.27397 44:0.000311 47:0.003425 48:0.001114 59:0.001503 60:0.000204 63:0.004365 64:0.148946 
1 1:0.14685 2:0.02457 3:0.012505 4:0.005095 5:0.000175 6:0.00353 7:0.007055 8:0.00016 12:5e-06 17:0.07915 18:0.102525 19:0.004035 20:0.00091 21:0.003025 22:0.230995 23:0.067025 24:0.00391 26:0.000595 27:0.00744 28:0.017135 32:5e-06 34:6.5e-05 35:4e-05 36:5e-06 38:0.01782 39:0.02098 40:0.001875 42:0.00144 43:0.053415 44:0.040755 47:0.000145 48:0.00439 55:5e-05 56:3.5e-05 59:0.008235 60:0.010035 63:0.00079 64:0.12323 
1 1:0.045152 2:0.004859 3:1.6e-05 5:0.000651 6:0.002512 17:0.019947 18:0.001088 19:5.9e-05 21:0.141744 22:0.113739 23:0.13912 25:0.000107 26:0.000619 27:0.010288 28:1.6e-05 34:1.6e-05 37:0.010592 38:0.036475 39:0.011621 40:5e-06 41:0.016123 42:0.065461 43:0.215168 44:0.001131 45:0.000133 46:0.000192 47:0.002187 48:0.00312 54:3.7e-05 55:6.9e-05 57:0.000139 58:0.001456 59:0.027499 60:0.000491 61:0.000176 62:0.0008 63:0.05832 64:0.068875 
1 1:0.017285 2:0.017117 3:4.8e-05 5:0.001982 6:0.06397 7:0.001922 8:3e-05 10:1.2e-05 11:1.2e-05 12:3e-05 17:0.000673 18:0.001249 19:6e-06 21:0.001351 22:0.440979 23:0.007952 24:4.8e-05 25:0.000444 26:0.002444 27:0.012895 28:7.8e-05 32:1.8e-05 37:1.2e-05 38:0.002775 39:0.000372 41:3.6e-05 42:0.007453 43:0.094168 44:0.0003 46:6e-06 47:0.000859 48:0.000402 59:0.024571 60:1.2e-05 63:0.17236 64:0.126126 
1 1:0.14286 2:0.00427 3:5e-06 5:0.002065 6:0.02228 7:0.001415 10:2e-05 11:0.00628 12:0.00802 16:0.000875 17:0.00193 18:0.00095 21:0.00062 22:0.07936 23:0.04585 26:0.00185 27:0.21519 28:0.000215 32:0.000575 38:0.00053 39:0.000135 42:0.000335 43:0.16153 44:0.000465 47:0.000665 48:0.001765 59:0.01915 60:0.00119 63:0.0156 64:0.264005 
1 1:0.228235 2:0.006873 3:0.00012 4:0.000554 5:0.052181 6:0.060157 7:0.001663 10:0.003735 11:0.000169 17:0.018036 18:0.000404 21:0.021151 22:0.260813 23:0.013512 24:1.2e-05 25:1.8e-05 26:0.025277 27:0.052735 28:0.000639 30:6e-06 31:0.004946 32:0.000277 33:6e-06 37:0.00244 38:0.005602 39:6e-06 40:6e-06 41:0.000861 42:0.03 43:0.064422 44:0.007759 46:6e-06 47:0.01109 48:0.027072 53:6e-06 57:3e-05 58:0.017301 59:0.031205 60:3.6e-05 61:5.4e-05 62:0.00062 63:0.020831 64:0.029133 
1 1:0.120136 2:0.012407 3:0.002396 4:8.1e-05 5:0.002119 6:0.021783 7:0.00245 8:0.000293 11:0.000103 12:0.00013 16:1.6e-05 17:0.009799 18:0.000721 19:0.00032 20:2.2e-05 21:0.004986 22:0.368943 23:0.022363 24:0.000634 26:0.005821 27:0.044233 28:0.001984 32:0.000282 33:0.000889 37:0.001783 38:0.005447 39:0.000439 40:2.7e-05 41:0.000179 42:0.009518 43:0.138656 44:0.016482 47:0.008222 48:0.049138 53:0.000184 54:0.000152 57:0.000249 58:0.000298 59:0.001805 60:0.000125 62:4.9e-05 63:0.002748 64:0.141588 
1 1:0.327861 2:0.013995 5:8e-05 6:0.006624 17:0.055947 18:0.023157 21:0.005152 22:0.159061 23:0.028421 26:2.1e-05 27:0.004203 33:5e-06 34:1.1e-05 37:9.1e-05 38:0.013472 39:0.011456 42:0.000907 43:0.17632 44:0.011701 47:5e-06 48:5.9e-05 55:5e-06 58:2.7e-05 59:0.027835 60:0.03176 63:0.000629 64:0.101195 
1 1:0.141845 2:0.001381 5:0.010096 6:0.005349 7:5e-06 10:2.7e-05 11:1.6e-05 17:0.039792 18:0.000768 21:0.065605 22:0.258293 23:0.014789 25:5e-06 26:0.008885 27:0.009973 28:4.8e-05 31:3.7e-05 32:3.2e-05 37:0.001083 38:0.030363 39:0.000693 40:5e-06 42:0.055387 43:0.132944 44:0.002293 46:2.1e-05 47:0.001419 48:0.001285 53:3.2e-05 54:1.1e-05 57:3.7e-05 58:0.005557 59:0.028555 60:0.000469 62:2.1e-05 63:0.045008 64:0.137867 
1 1:0.18944 2:0.004555 3:0.000805 5:5e-06 6:0.000304 7:0.002133 8:0.001131 11:5e-06 12:0.000352 17:0.053472 18:0.000699 19:1.6e-05 21:0.247136 22:0.176859 23:0.136235 24:0.026427 27:0.000464 28:0.047851 32:0.011019 37:0.017179 38:0.029733 39:0.033744 40:0.000107 42:0.000699 43:0.013472 44:0.003557 48:0.002149 60:5e-06 64:0.000448 
1 1:0.202511 2:0.007529 3:0.0027 4:0.002283 5:0.005831 6:0.03865 7:0.005022 8:0.001459 10:5e-06 11:0.015112 12:0.021573 15:5e-06 16:0.134427 17:0.012571 18:0.000199 19:0.000119 20:6.5e-05 21:0.011643 22:0.191663 23:0.00336 24:0.00336 26:0.002119 27:0.015707 28:0.003732 32:0.011598 37:0.000471 38:0.011176 39:8.9e-05 40:0.000213 41:6.9e-05 42:0.01403 43:0.180978 44:0.001603 47:0.000412 48:0.002273 54:2e-05 58:0.011067 59:0.002114 60:0.000179 63:0.001419 64:0.080645 
1 1:0.503312 2:0.019504 3:0.004336 4:0.001627 5:0.014 6:0.038784 7:0.00048 8:2.1e-05 10:0.001584 11:0.000448 15:4.8e-05 16:5e-06 17:0.004736 18:0.000859 19:0.000176 20:0.000101 21:0.002677 22:0.119787 23:0.004763 24:0.000293 26:0.008976 27:0.018496 28:0.000165 31:0.000443 32:0.000181 33:0.000315 37:0.001035 38:0.004037 39:0.00056 40:3.7e-05 42:0.002037 43:0.100469 44:0.001061 47:0.005483 48:0.00552 54:1.6e-05 55:1.1e-05 58:2.1e-05 59:0.002048 60:0.000181 63:0.002027 64:0.129339 
1 1:0.157332 2:0.004354 5:0.026883 6:0.019284 7:0.000441 10:0.001923 11:0.012473 12:0.00028 17:0.005409 18:0.000307 21:0.019538 22:0.072543 23:0.001122 26:0.059802 27:0.060524 28:0.000654 31:0.012113 32:0.000588 37:0.002978 38:0.002684 39:0.000187 42:0.014156 43:0.069805 44:0.000841 47:0.0414 48:0.021982 59:0.009976 60:0.000227 63:0.042668 64:0.337527 
1 1:0.177131 2:0.002459 3:3.7e-05 5:0.001605 6:0.002768 10:4.8e-05 11:0.000149 15:8e-05 16:0.000304 17:0.043211 18:0.002005 19:4.3e-05 20:1.1e-05 21:0.011189 22:0.100309 23:0.007387 24:0.00016 26:0.000891 27:0.006064 28:8.5e-05 31:0.000293 32:0.001632 33:0.008048 34:0.000197 37:0.07768 38:0.048 39:0.001936 40:0.000203 41:4.3e-05 42:0.002656 43:0.069301 44:0.005328 47:0.000651 48:0.006288 49:1.1e-05 53:0.050459 54:0.102587 55:0.000171 56:5e-06 57:0.020784 58:0.07232 59:0.010576 60:0.001691 61:0.002133 62:0.011456 63:0.003408 64:0.146208 
1 1:0.243552 2:0.006864 3:0.000315 5:0.084539 6:0.113408 7:0.001813 10:0.012688 11:0.001195 15:0.0004 16:5e-06 17:0.013381 18:0.000528 19:3.7e-05 21:0.016651 22:0.083744 23:0.027104 24:0.001493 26:0.006667 27:0.032213 28:0.004651 31:0.000709 32:0.000139 33:4.8e-05 37:0.001179 38:0.026501 39:0.000288 40:1.6e-05 42:0.026816 43:0.079312 44:0.049872 47:0.001301 48:0.023168 54:0.000304 58:0.001072 59:0.00976 60:0.000245 63:0.012235 64:0.115787 
1 1:0.170145 2:0.013478 3:0.002116 4:0.003826 5:0.002145 6:0.008773 7:0.004271 8:0.002502 10:0.000242 11:0.000986 12:0.010126 15:2.9e-05 16:0.006232 17:0.010512 18:0.005903 19:0.000599 20:0.000638 21:0.010213 22:0.091343 23:0.05086 24:0.004551 26:0.003749 27:0.036029 28:0.011237 30:1.9e-05 31:0.000464 32:0.011498 33:0.002193 34:0.000106 37:0.016638 38:0.008164 39:0.003787 40:0.00114 41:2.9e-05 42:0.003787 43:0.091217 44:0.032986 47:0.006367 48:0.037739 53:0.000126 54:0.000232 55:1.9e-05 57:1e-05 58:0.001807 59:0.005971 60:0.001932 63:0.017208 64:0.306058 
1 1:0.299088 2:0.009579 3:0.001083 4:0.000619 5:0.01728 6:0.037995 7:0.001019 8:5.3e-05 10:8.5e-05 11:0.000693 12:5.9e-05 16:0.000357 17:0.01032 18:0.000475 19:5.9e-05 20:3.7e-05 21:0.006325 22:0.104117 23:0.008091 24:0.000107 25:5e-06 26:0.002549 27:0.02728 28:0.0024 31:2.1e-05 32:0.000448 33:0.000565 37:0.000565 38:0.002315 39:0.000197 41:5.9e-05 42:0.006192 43:0.052267 44:0.019115 47:0.00096 48:0.015899 53:8e-05 54:2.7e-05 57:0.000165 58:0.147813 59:0.043456 60:2.1e-05 62:0.004581 63:0.067829 64:0.107749 
1 1:0.056555 2:0.002725 3:0.000112 5:0.002155 6:0.007413 7:0.000176 11:1.6e-05 17:0.003941 18:0.000224 19:4.8e-05 20:1.1e-05 21:0.009808 22:0.235061 23:0.004453 24:0.002928 26:0.002341 27:0.031792 28:0.004357 38:0.162272 39:8.5e-05 40:2.1e-05 42:0.052997 43:0.398987 44:0.001264 47:0.001611 48:0.002464 59:0.000475 63:0.001093 64:0.014613 
1 1:0.210629 2:0.002768 5:0.016176 6:0.003365 10:6.4e-05 17:0.043803 18:0.005323 21:0.059029 22:0.121285 23:0.007851 25:4.3e-05 26:0.005424 27:0.002389 28:5e-06 31:5e-06 32:5e-06 33:0.000229 34:5e-06 37:0.007621 38:0.073195 39:0.003931 41:0.00152 42:0.019189 43:0.070768 44:0.003931 46:6.9e-05 47:0.001003 48:0.001909 53:0.000155 54:0.000309 55:5e-06 57:0.000709 58:0.007835 59:0.006395 60:0.000555 62:0.007712 63:0.078043 64:0.236747 
1 1:0.214512 2:0.014827 3:0.000432 4:1.6e-05 5:0.011941 6:0.018187 7:0.001291 8:8e-05 10:0.000992 11:0.00272 12:9.1e-05 15:6.4e-05 16:0.000165 17:0.049195 18:0.025995 19:7.5e-05 20:5e-06 21:0.064251 22:0.191008 23:0.002421 24:0.000501 26:0.002624 27:0.008704 28:0.001141 31:0.000251 32:0.003323 34:3.2e-05 37:0.000555 38:0.032763 39:0.001461 40:0.000112 42:0.006304 43:0.043872 44:0.001723 47:0.000315 48:0.003019 55:4.3e-05 58:0.001349 59:0.015995 60:0.001008 63:0.00368 64:0.27296 
1 1:0.127892 2:0.011234 3:0.026437 4:0.068054 5:0.053802 6:0.020114 7:0.001263 8:0.007737 10:3e-05 11:5.4e-05 16:2.4e-05 17:0.00682 18:0.001138 19:8.4e-05 20:0.000281 21:0.017665 22:0.109802 23:0.020904 24:0.01918 25:6e-06 26:0.010659 27:0.018515 28:0.002677 32:9e-05 33:0.000341 37:0.001198 38:0.012599 39:0.00124 40:0.000671 41:4.2e-05 42:0.01779 43:0.132335 44:0.092683 47:0.002904 48:0.036772 49:7.2e-05 53:7.2e-05 54:6.6e-05 58:0.000964 59:0.01909 60:0.001832 62:1.2e-05 63:0.010641 64:0.144216 
1 1:0.013221 2:0.001189 6:0.000208 17:0.000352 18:0.001776 22:0.128949 23:0.077115 26:9.6e-05 27:0.038133 38:2.7e-05 39:0.002571 43:0.73624 44:5e-06 59:0.000117 
1 1:0.712341 2:0.054267 3:0.001653 4:0.000288 5:0.001883 6:0.043723 7:0.004864 8:0.000512 11:4.3e-05 12:0.000224 13:3.2e-05 16:8e-05 17:0.00544 18:0.000709 19:0.000155 20:5e-06 21:0.011829 22:0.052539 23:0.015717 24:6.4e-05 26:0.000475 27:0.016704 28:0.000613 29:3.2e-05 31:5e-06 32:3.7e-05 33:1.1e-05 34:1.1e-05 37:5e-06 38:0.003621 39:0.000133 41:5e-06 42:0.002997 43:0.028288 44:0.006795 47:0.000219 48:0.010181 49:5e-06 50:5e-06 59:0.000117 60:4.3e-05 63:0.000139 64:0.023189 
1 1:0.233376 2:0.008501 3:6.4e-05 5:0.003851 6:0.017029 7:0.017269 8:5e-06 10:1.6e-05 11:0.000331 12:3.2e-05 17:0.036907 18:0.00152 21:0.027221 22:0.153339 23:0.005333 24:5e-06 25:5e-06 26:0.004459 27:0.01464 28:6.9e-05 32:5e-06 33:2.7e-05 34:1.1e-05 37:0.044965 38:0.008555 39:0.00096 41:0.010085 42:0.017856 43:0.078288 44:0.001035 46:2.7e-05 47:0.003029 48:0.002885 53:0.000123 54:3.2e-05 55:1.1e-05 57:0.037061 58:0.011365 59:0.005339 60:0.000539 61:0.008544 62:0.010005 63:0.063088 64:0.172192 
1 1:0.335644 22:0.423856 43:0.128763 64:0.111737 
1 1:0.029008 2:0.006688 3:0.000171 4:5e-06 5:0.001163 6:0.013237 7:0.001227 8:0.000139 9:2.1e-05 10:0.000203 17:0.000864 18:0.000475 21:0.002005 22:0.309531 23:0.015365 24:2.7e-05 26:0.002272 27:0.013947 28:1.6e-05 38:0.000853 39:0.000763 42:0.000768 43:0.172336 44:0.004368 47:0.000752 48:0.003771 59:0.003349 60:0.000939 63:0.001024 64:0.414715 
1 22:0.007497 23:0.002275 26:0.013753 27:0.080153 28:8e-05 32:3.2e-05 38:0.000569 39:0.001298 42:0.018847 43:0.680451 44:0.072264 47:7.2e-05 48:0.041498 59:0.00366 60:0.000112 63:0.004117 64:0.073321 
1 1:0.073488 2:0.065531 3:0.080859 4:0.000955 5:0.0008 6:0.004331 7:0.00592 8:0.000256 9:1.1e-05 10:2.7e-05 11:0.000619 12:0.000112 16:2.7e-05 17:0.066059 18:0.008384 19:0.009104 20:0.000315 21:0.022267 22:0.089771 23:0.088155 24:0.005344 25:7.5e-05 26:0.003515 27:0.023899 28:0.000837 32:0.000128 37:0.014384 38:0.022187 39:0.011712 40:0.004608 41:2.1e-05 42:0.008011 43:0.054523 44:0.025733 46:6.9e-05 47:0.000197 48:0.004091 54:1.6e-05 55:1.6e-05 58:0.002779 59:0.01936 60:0.000688 62:4.3e-05 63:0.003184 64:0.277595 
1 1:0.411069 2:0.00836 3:0.000174 5:0.019862 6:0.044571 7:0.041339 8:0.00021 10:3e-05 11:0.005742 12:0.00791 16:0.002925 17:0.002523 18:0.000312 19:3e-05 20:6e-06 21:0.002661 22:0.063778 23:0.008727 24:0.00024 26:0.001676 27:0.011784 28:0.01976 31:6e-06 32:0.011502 37:1.2e-05 38:0.002102 39:0.000162 40:3e-05 42:0.001165 43:0.172228 44:0.003159 47:0.00042 48:0.018553 59:0.008054 60:0.001814 63:0.000739 64:0.126366 
1 1:0.334511 2:0.028444 3:0.002739 4:0.000847 5:0.00391 6:0.019459 7:0.002697 8:0.000565 10:4.8e-05 11:0.000294 12:0.00045 16:3.6e-05 17:0.021808 18:0.006114 19:0.000589 20:0.000619 21:0.094066 22:0.143489 23:0.034354 24:0.001165 25:6e-06 26:0.002913 27:0.029868 28:0.005165 31:6e-06 32:0.000535 34:3e-05 37:0.026931 38:0.026769 39:0.002685 40:0.000474 41:0.012312 42:0.025099 43:0.073369 44:0.011153 47:0.001736 48:0.012456 54:1.2e-05 55:6e-06 57:0.000126 58:0.005495 59:0.004865 60:0.001309 62:0.000781 63:0.012967 64:0.046727 
1 1:0.036272 2:0.002053 3:0.000592 4:4.8e-05 5:8.5e-05 6:0.000827 7:0.000475 8:0.000603 10:1.1e-05 11:2.1e-05 12:3.2e-05 16:5e-06 17:0.054576 18:0.00168 19:0.000592 20:0.000416 21:0.031136 22:0.099979 23:0.007109 24:0.002912 26:0.00088 27:0.006037 28:0.000725 31:5e-06 32:0.000213 33:0.000437 37:0.009573 38:0.217675 39:0.001936 40:0.001115 41:5e-06 42:0.103477 43:0.081067 44:0.006576 47:0.000896 48:0.02016 53:0.000251 54:0.000213 55:5e-06 57:5.9e-05 58:0.023381 59:0.014341 60:0.001493 62:0.001867 63:0.009947 64:0.25824 
1 1:0.534861 2:0.008341 3:5e-06 5:0.019743 6:0.028184 7:0.00042 17:0.001045 18:0.000157 21:0.014173 22:0.119948 23:0.009995 26:0.003507 27:0.01316 28:1e-05 37:0.000152 38:0.007769 39:0.000924 42:0.00537 43:0.049092 44:0.00222 47:0.000315 48:0.001675 58:1e-05 59:0.008283 60:0.00073 63:0.005291 64:0.164619 
1 1:0.142551 2:0.017591 3:0.000283 4:5e-06 5:0.000777 6:0.013391 7:0.000147 8:1e-05 17:0.029675 18:0.001638 19:0.000252 20:7.3e-05 21:0.033323 22:0.177291 23:0.023134 24:0.001039 26:0.001129 27:0.02222 28:0.005213 32:6.3e-05 33:1e-05 37:0.000509 38:0.066934 39:0.000966 40:0.000136 41:5.8e-05 42:0.038514 43:0.093759 44:0.023486 47:0.002929 48:0.027979 53:0.000241 54:0.000178 55:2.1e-05 56:1e-05 57:0.000205 58:0.005024 59:0.01474 60:0.000451 61:4.7e-05 62:0.001654 63:0.037218 64:0.215123 
1 1:0.038245 2:0.056821 5:0.000144 6:0.053467 7:9.1e-05 11:2.7e-05 17:0.001941 18:0.001467 21:0.000608 22:0.123744 23:0.020011 26:0.000533 27:0.002779 28:1.6e-05 33:5e-06 34:2.1e-05 37:5e-06 38:0.215605 39:0.003243 40:3.2e-05 42:0.095029 43:0.162277 44:0.001269 47:0.000139 48:0.001248 54:5e-06 58:5.3e-05 59:0.039744 60:0.000768 63:0.068864 64:0.111797 
1 1:0.080193 2:0.00672 5:0.004555 6:0.090363 7:0.00038 17:0.022085 18:0.000102 21:0.038374 22:0.196635 23:0.091575 24:1.1e-05 26:0.001915 27:0.135552 28:0.000646 31:7.4e-05 32:6e-06 37:0.003008 38:0.002958 39:9.1e-05 42:0.000323 43:0.213955 44:0.015286 47:0.004431 48:0.025841 59:0.000941 60:0.000164 63:0.000125 64:0.063694 
1 1:0.625072 2:0.013899 3:9.6e-05 5:0.071125 6:0.065979 7:0.000197 8:0.000149 10:0.000133 11:2.1e-05 12:0.000101 16:6.9e-05 17:0.008165 18:5.3e-05 19:1.6e-05 21:0.004672 22:0.102848 23:0.004421 24:0.000112 26:0.003093 27:0.007045 28:0.000272 31:1.1e-05 32:0.000229 33:3.2e-05 37:2.1e-05 38:0.000571 39:3.7e-05 40:1.1e-05 42:0.000613 43:0.030331 44:0.001328 47:0.000245 48:0.001024 54:5e-06 58:2.7e-05 59:0.000805 60:9.6e-05 63:0.0008 64:0.056272 
1 1:0.369013 2:0.001904 3:0.000203 5:0.004453 6:0.001301 7:2.7e-05 17:0.043877 18:0.00096 19:0.000128 20:5e-06 21:0.039755 22:0.206304 23:0.000347 24:5e-06 26:0.000363 27:0.000144 37:1.1e-05 38:0.026176 39:0.000619 42:0.01264 43:0.062821 44:8.5e-05 47:0.000251 48:0.000117 58:5e-06 59:0.016181 60:0.000373 63:0.010811 64:0.20112 
1 1:0.47062 5:3.7e-05 6:0.015755 22:0.342344 27:0.004896 43:0.13789 47:6e-06 48:0.003178 64:0.025276 
1 1:0.444126 22:0.237213 43:0.202715 64:0.115946 
1 1:0.048005 2:0.00376 3:0.010933 4:0.052085 5:0.000437 6:0.000955 7:3.7e-05 8:0.001291 10:5.9e-05 11:0.000565 12:5e-06 15:0.000112 16:0.002987 17:0.010955 18:0.001877 19:0.000976 20:0.003877 21:0.008299 22:0.076245 23:0.02888 24:0.012272 26:0.002384 27:0.002267 28:0.000939 31:5.3e-05 32:0.001568 33:3.7e-05 34:4.3e-05 35:5e-06 36:0.000139 37:3.2e-05 38:0.086608 39:0.006571 40:0.01264 42:0.096587 43:0.401216 44:0.008805 47:0.000603 48:0.004544 53:5e-06 54:0.000128 55:0.000101 56:0.000133 58:0.000155 59:0.056933 60:0.009557 63:0.010709 64:0.032624 
1 1:0.415929 2:0.005477 3:5e-06 5:0.002508 6:0.016675 17:0.001645 18:0.000107 19:5e-06 21:0.003853 22:0.073152 23:0.001305 24:5e-06 26:0.000893 27:0.005041 38:0.003305 39:1e-05 42:0.007066 43:0.043431 44:0.000244 47:0.00033 48:0.008817 59:0.021467 63:0.021376 64:0.367355 
1 1:0.251963 2:0.001823 3:1.9e-05 5:0.001521 6:0.00347 7:7.4e-05 17:0.050851 18:0.000656 21:0.110651 22:0.345674 23:0.006898 24:1.4e-05 26:0.000642 27:0.002409 28:0.000567 32:3.3e-05 37:0.006065 38:0.04827 39:0.000856 41:0.000228 42:0.018874 43:0.041735 44:0.003572 47:9.8e-05 48:0.004149 53:3.3e-05 54:1.9e-05 57:0.000423 58:0.001767 59:0.00786 60:0.000135 61:0.000316 62:0.00087 63:0.004702 64:0.082763 
1 1:0.287537 2:0.020731 3:0.000858 5:0.00164 6:0.031017 7:0.011235 8:0.00088 12:2.3e-05 17:0.00289 18:5.3e-05 21:0.01587 22:0.058039 23:0.049777 24:0.003258 26:0.000369 27:0.055541 28:0.023094 37:0.019158 38:0.017984 39:8e-06 41:0.00453 42:0.09722 43:0.031258 44:0.049197 47:6e-05 48:0.007126 58:0.017187 59:0.044607 60:8e-06 63:0.080997 64:0.067851 
1 1:0.070971 2:0.002779 3:0.000123 4:0.000107 5:0.000555 6:0.001403 7:1.1e-05 11:1.1e-05 17:0.035979 18:0.008464 19:0.000155 20:0.000208 21:0.015003 22:0.297227 23:0.011429 24:3.2e-05 26:0.000683 27:0.002341 28:0.000107 32:0.000165 33:0.000395 34:2.1e-05 35:1.1e-05 36:2.7e-05 37:0.002917 38:0.126736 39:0.02112 40:0.000107 42:0.001499 43:0.054011 44:0.001824 47:3.2e-05 48:0.000149 54:0.001781 55:5e-06 56:5e-06 58:0.157728 59:0.091552 60:0.001067 63:0.081819 64:0.009445 
1 1:0.151564 2:0.069327 3:0.009467 4:0.000121 5:0.000552 6:0.067406 7:0.019442 8:0.012406 11:0.001836 12:0.004891 16:0.000103 17:0.002861 18:0.001158 19:6e-06 21:0.003636 22:0.081855 23:0.042406 24:0.007358 25:6e-06 26:0.000448 27:0.049661 28:0.018097 32:0.002012 37:0.000212 38:0.007042 39:0.000339 41:0.000133 42:0.010612 43:0.038812 44:0.004873 45:6e-06 47:0.000188 48:0.003661 57:4.2e-05 58:0.274152 59:0.095473 60:4.8e-05 62:0.000139 63:0.009842 64:0.007806 
1 1:0.179349 2:0.001243 3:6.9e-05 5:0.045792 6:0.059424 7:0.000133 10:0.02696 11:2.1e-05 17:0.002229 18:0.000224 21:0.015029 22:0.140795 23:0.001664 26:0.025131 27:0.0144 31:1.1e-05 37:4.8e-05 38:0.008768 39:0.000741 42:0.008 43:0.237291 44:0.007152 47:0.001221 48:0.005541 54:5e-06 58:2.1e-05 59:0.002709 60:0.000597 63:0.000939 64:0.214491 
1 1:0.089985 2:0.004267 5:0.007794 6:0.213916 17:0.001252 18:5.3e-05 21:0.006824 22:0.052466 23:0.000511 26:0.000496 27:0.001061 37:7.6e-05 38:0.001924 39:0.000366 42:0.003473 43:0.151969 44:0.000313 47:7.6e-05 48:0.000183 59:0.161206 60:0.00087 63:0.124015 64:0.176901 
1 1:0.060139 2:0.007269 3:0.000656 4:0.000496 5:0.000939 6:0.00128 7:3.2e-05 8:9.1e-05 11:5e-06 12:1.1e-05 17:0.0144 18:0.008053 19:0.000256 20:9.6e-05 21:0.006123 22:0.108325 23:0.0084 24:0.000176 26:0.005216 27:0.006384 28:0.000107 32:3.7e-05 38:0.018651 39:0.004251 40:4.8e-05 42:0.046315 43:0.698864 44:0.001509 47:0.001323 48:0.000149 59:5.9e-05 60:5e-06 63:4.3e-05 64:0.000293 
1 1:0.179909 2:0.021397 5:0.001685 6:0.069899 7:0.000261 10:2.1e-05 11:3.7e-05 17:0.000485 18:0.000373 21:0.000581 22:0.104725 23:0.011184 26:0.006037 27:0.067285 28:0.000251 31:1.1e-05 32:5e-06 38:0.000405 39:0.000288 42:0.001429 43:0.075824 44:0.003083 47:0.000171 48:0.003675 59:0.028085 60:0.000203 63:0.044976 64:0.377712 
1 1:0.285621 2:0.045547 3:2.1e-05 5:0.000357 6:0.123275 7:0.098448 8:1.6e-05 11:0.00096 12:3.2e-05 17:0.048784 18:0.003387 19:1.6e-05 21:0.010992 22:0.036005 23:0.074421 24:5e-06 26:0.000128 27:0.034949 28:0.000821 32:1.1e-05 33:0.003333 34:0.000187 37:0.018512 38:0.054309 39:0.006693 40:5e-06 42:0.002309 43:0.05336 44:0.002789 47:0.000683 48:0.001019 49:7.5e-05 50:0.000101 54:0.003349 55:0.0004 58:0.001269 59:0.011333 60:0.000725 63:0.012144 64:0.063605 
1 1:0.088309 2:0.016773 5:0.000555 6:0.011664 7:5e-06 17:0.004683 18:0.000661 21:0.005077 22:0.284277 23:0.000405 26:5.3e-05 27:0.000725 28:0.000485 32:7.5e-05 37:5.3e-05 38:0.003968 39:0.00016 41:5.3e-05 42:0.005792 43:0.410507 44:0.000587 47:0.000139 48:0.000773 58:1.1e-05 59:0.086 60:2.1e-05 63:0.026645 64:0.051541 
1 1:0.128928 2:0.026272 3:0.007915 5:0.046848 6:0.058475 7:0.024517 8:0.002432 10:0.004629 11:0.000133 12:0.000245 17:0.002603 18:0.000432 21:0.003851 22:0.255632 23:0.018923 24:0.001083 26:0.017483 27:0.030341 28:0.009797 31:0.000453 32:0.000117 38:0.001248 39:0.000187 42:0.001931 43:0.087824 44:0.012016 47:0.005611 48:0.028864 58:2.7e-05 59:0.006395 60:0.000352 63:0.018656 64:0.195781 
1 1:0.531988 2:0.005584 3:0.000837 4:0.001994 5:0.000235 6:0.000542 7:0.000771 8:0.000175 12:6.6e-05 17:0.020747 18:0.000392 19:3.6e-05 20:5.4e-05 21:0.058488 22:0.005223 23:0.000355 24:0.000584 25:6e-06 26:0.00012 27:0.00012 28:0.000386 32:4.2e-05 33:3.6e-05 37:0.065898 38:0.004102 39:1.8e-05 40:2.4e-05 41:0.014295 42:0.009578 43:0.000331 44:0.000181 46:6e-06 47:4.8e-05 48:0.000277 53:0.000795 57:0.008343 58:0.024819 59:9e-05 60:1.2e-05 61:0.000476 62:0.045416 63:0.179988 64:0.016518 
1 1:0.50048 2:0.007749 3:0.000971 4:0.000149 5:0.079397 6:0.002229 7:0.00016 8:3.2e-05 9:0.021627 10:4.3e-05 17:0.00248 18:0.001456 19:3.7e-05 20:5e-06 21:0.094789 22:0.059072 23:0.003072 24:0.000336 25:0.0428 26:0.017819 27:0.000741 28:0.000187 29:0.005648 30:0.003168 33:0.000101 34:1.6e-05 37:0.00112 38:0.005003 39:0.001728 40:1.1e-05 41:0.003381 42:0.043168 43:0.040939 44:0.001429 45:0.000939 46:0.019669 47:0.009045 48:0.000219 53:3.7e-05 54:0.000277 55:5e-06 57:9.6e-05 58:0.00032 59:0.000384 60:0.000597 61:0.000533 62:0.001568 63:0.020555 64:0.004411 
1 1:0.319612 2:0.0169 3:0.001164 4:0.00588 5:0.020164 6:0.032752 7:0.002804 8:0.006304 10:6e-05 11:0.000772 12:0.01568 16:0.003924 17:0.006932 18:0.00156 19:0.000492 20:0.000144 21:0.056052 22:0.243148 23:0.015588 24:0.000408 25:1.2e-05 26:0.003232 27:0.011028 28:0.005432 30:4e-06 31:4e-06 32:0.020424 34:1.6e-05 35:1.6e-05 37:0.001048 38:0.048172 39:0.0018 40:7.6e-05 41:0.000164 42:0.063668 43:0.043328 44:0.00182 47:0.000532 48:0.00392 53:7.6e-05 54:0.000112 55:2e-05 57:0.0007 58:0.001624 59:0.008272 60:0.000352 61:5.6e-05 62:3.6e-05 63:0.004588 64:0.029128 
1 1:0.274784 2:0.010608 3:0.032011 4:0.007333 5:0.003163 6:0.001077 7:0.007552 8:0.003531 12:1.6e-05 17:0.008667 18:0.000661 19:8e-05 20:2.7e-05 21:0.0184 22:0.060277 23:0.011195 24:0.004149 26:0.001232 27:0.002859 28:0.001973 37:1.1e-05 38:0.008475 39:0.002976 40:3.2e-05 42:0.004011 43:0.116267 44:0.019499 47:0.005925 48:0.023061 58:5e-06 59:0.000773 60:0.000544 63:0.000955 64:0.367872 
1 1:0.372274 2:0.024599 3:0.016729 4:6.5e-05 5:0.007877 6:0.038715 7:0.002874 11:9.4e-05 12:0.000108 16:3.6e-05 17:0.004339 18:0.000245 19:0.000224 20:7.9e-05 21:0.008079 22:0.096556 23:0.015545 24:0.00052 26:0.001798 27:0.041509 28:0.000202 32:7.2e-05 33:0.000108 37:0.000217 38:0.002924 39:0.000137 41:7e-06 42:0.004166 43:0.203437 44:0.00426 47:0.000534 48:0.007321 53:1.4e-05 58:0.000101 59:0.006368 60:0.000173 63:0.009661 64:0.128029 
1 1:0.121211 2:0.011877 5:0.015035 6:0.055168 7:0.001573 10:2.1e-05 11:0.000203 15:1.1e-05 17:0.002011 18:0.000325 21:0.007344 22:0.282181 23:0.006555 24:5e-06 26:0.00368 27:0.020453 28:0.000437 31:5e-06 38:0.01232 39:0.000581 42:0.019029 43:0.264133 44:0.000517 47:0.000544 48:0.000576 59:0.004507 60:0.000325 63:0.027531 64:0.14184 
1 1:0.309867 2:0.039845 3:0.000315 4:5e-06 5:0.000485 6:0.0148 7:0.002928 8:2.1e-05 11:4.3e-05 17:0.020805 18:0.009547 19:5.3e-05 21:0.004715 22:0.205493 23:0.041723 24:0.00336 26:0.000384 27:0.012587 28:0.003147 32:0.000155 33:0.000912 34:0.000101 37:0.000384 38:0.053595 39:0.001563 40:0.000261 41:1.1e-05 42:0.009141 43:0.151312 44:0.028619 47:0.000128 48:0.015867 49:0.000907 53:0.004085 54:0.000197 55:2.7e-05 56:2.7e-05 58:0.000272 59:0.002224 60:0.000912 63:0.000357 64:0.058821 
1 1:0.078805 2:0.00424 3:0.000315 4:0.000112 5:0.008629 6:0.060976 7:0.003269 8:5.9e-05 10:0.002565 11:0.004453 12:0.000544 16:0.000379 17:0.027344 18:0.000965 19:0.00016 20:0.000283 21:0.046885 22:0.211461 23:0.016992 24:0.001115 25:5.9e-05 26:0.008277 27:0.169589 28:0.017552 31:0.001307 32:0.011648 37:0.001413 38:0.025963 39:0.000811 40:0.000117 42:0.007157 43:0.168533 44:0.013995 47:0.000363 48:0.033563 54:5e-06 58:0.000667 59:0.002181 60:0.000336 62:7.5e-05 63:0.014363 64:0.052475 
1 1:0.240228 2:0.023459 3:0.000159 4:8.5e-05 5:0.009385 6:0.058053 7:0.000541 17:0.02444 18:0.01731 19:4.2e-05 20:3.2e-05 21:0.013581 22:0.209416 23:0.021634 24:1.1e-05 26:0.001231 27:0.009385 32:5e-06 33:1.1e-05 34:5e-06 37:0.000106 38:0.00296 39:0.000488 42:0.00174 43:0.060753 44:0.001735 47:0.001088 48:0.013629 59:0.059215 60:0.000578 63:0.026987 64:0.201708 
1 1:0.240155 2:0.005003 3:0.000171 5:0.06704 6:0.072827 7:0.000992 10:0.004496 11:0.001216 12:5e-06 15:3.7e-05 16:5e-06 17:0.005056 18:0.000704 19:2.7e-05 21:0.018325 22:0.20288 23:0.007509 24:5.9e-05 25:5e-06 26:0.022901 27:0.027003 28:0.001536 31:0.001077 32:0.001376 38:0.009403 39:0.001067 40:2.7e-05 42:0.012011 43:0.077573 44:0.006416 47:0.004331 48:0.008693 58:0.000112 59:0.020155 60:0.001632 63:0.036229 64:0.141947 
1 1:0.203541 2:0.002165 3:9.6e-05 4:5.9e-05 5:0.032651 6:0.023211 7:2.7e-05 8:8e-05 10:0.000112 11:5e-06 12:0.000144 15:5e-06 16:0.000107 17:0.005941 18:0.000304 21:0.037712 22:0.201024 23:0.001285 24:4.3e-05 25:2.1e-05 26:0.019509 27:0.020032 28:3.7e-05 30:5e-06 31:1.6e-05 32:5e-06 37:5.9e-05 38:0.004843 39:0.000235 41:5e-06 42:0.038245 43:0.083899 44:0.000816 46:1.1e-05 47:0.004053 48:0.004603 58:0.000133 59:0.009077 60:0.000219 62:5e-06 63:0.015413 64:0.290245 
1 1:0.241326 2:0.012139 3:0.001556 5:0.00085 6:0.011257 7:0.00139 8:1.6e-05 11:0.001176 17:0.037834 18:0.001476 19:3.7e-05 21:0.016273 22:0.130481 23:0.014658 24:0.000348 26:0.000749 27:0.01792 28:0.000128 33:0.000118 37:0.000583 38:0.063257 39:0.00085 42:0.008995 43:0.228567 44:0.005535 47:0.000727 48:0.005198 58:3.7e-05 59:0.03592 60:0.001503 63:0.014604 64:0.144492 
1 1:0.274549 22:0.386944 43:0.24256 64:0.095947 
1 21:8e-06 22:0.710226 23:0.007366 24:0.000226 26:0.000717 27:0.005042 28:0.000151 31:5.3e-05 32:0.000355 38:0.003789 39:0.013864 40:0.000204 42:0.000415 43:0.149494 44:0.037026 47:0.000717 48:0.006408 55:8e-06 56:5.3e-05 59:0.008264 60:0.038302 63:0.000287 64:0.017026 
1 1:0.233544 2:0.012384 3:0.001946 4:0.000102 5:0.021952 6:0.035171 7:0.002378 8:0.00048 10:2.4e-05 11:0.00018 12:0.000156 16:6e-06 17:0.002691 18:0.000691 19:0.000595 20:0.000336 21:0.005315 22:0.144342 23:0.046757 24:0.003916 25:1.8e-05 26:0.001387 27:0.072138 28:0.011195 32:0.000787 33:3e-05 36:1.2e-05 37:0.000901 38:0.002192 39:0.000541 40:0.000258 41:0.000324 42:0.002228 43:0.154535 44:0.011237 46:3e-05 47:0.000288 48:0.006925 53:1.2e-05 57:6e-05 58:0.000408 59:0.100817 60:0.000384 62:1.8e-05 63:0.038823 64:0.081483 
1 1:0.216523 2:0.009739 3:0.000544 4:0.000219 5:0.000517 6:0.0048 7:0.002011 8:0.000555 11:0.000128 12:0.000512 16:0.000373 17:0.010853 18:0.001211 19:0.00016 20:2.7e-05 21:0.008811 22:0.187344 23:0.019637 24:0.000384 26:0.002592 27:0.023168 28:0.001008 32:0.000283 33:1.1e-05 37:0.002848 38:0.045616 39:0.001179 40:2.7e-05 42:0.026725 43:0.333947 44:0.034843 47:9.1e-05 48:0.03088 58:9.6e-05 59:0.004235 60:0.000192 63:0.00224 64:0.025675 
1 1:0.212071 2:0.022313 3:2.3e-05 5:0.001081 6:0.040212 7:0.019872 17:0.030809 18:0.004142 19:1.5e-05 21:0.023212 22:0.185699 23:0.040831 26:0.000718 27:0.012834 28:0.017423 33:0.001141 37:0.001164 38:0.008768 39:0.000272 42:0.01161 43:0.086568 44:0.018655 47:0.000574 48:0.008466 59:0.006629 60:0.000204 63:0.004067 64:0.240627 
1 1:0.179803 2:0.005125 3:0.000171 4:5e-06 5:0.009248 6:0.006427 7:8.5e-05 10:3.7e-05 11:1.6e-05 17:0.007979 18:0.002208 19:0.000203 20:4.8e-05 21:0.012101 22:0.123349 23:0.004437 24:8.5e-05 26:0.016011 27:0.017003 28:6.9e-05 32:0.000101 33:0.001515 37:0.00152 38:0.010987 39:0.001371 40:1.6e-05 42:0.013424 43:0.212853 44:0.024891 47:0.0012 48:0.018224 54:0.000128 58:0.000224 59:0.051397 60:0.005941 63:0.006256 64:0.265541 
1 1:0.271976 2:0.002012 3:0.000282 5:0.016733 6:0.005904 7:3e-05 17:0.001628 18:2.4e-05 21:0.038985 22:0.214048 23:0.003135 26:0.011345 27:0.009063 28:1.2e-05 38:0.002871 39:3.6e-05 42:0.023021 43:0.171802 44:0.023411 47:0.000847 48:0.044577 59:0.004883 60:0.00012 63:0.011664 64:0.141592 
1 1:0.291968 22:0.179312 43:0.167381 64:0.36134 
1 1:0.317081 2:0.000715 3:3e-05 4:1.8e-05 5:0.037237 6:0.040108 7:6e-06 8:1.8e-05 10:0.000438 11:4.2e-05 12:1.2e-05 17:0.005646 18:0.000222 21:0.011333 22:0.162336 23:0.000787 24:0.000102 26:0.017273 27:0.018985 28:3e-05 31:0.00015 32:6e-06 38:0.010685 39:0.00012 40:6e-06 42:0.039598 43:0.133159 44:0.000517 47:0.00155 48:0.001189 58:1.2e-05 59:0.056595 60:1.8e-05 63:0.046829 64:0.097147 
1 1:0.500288 2:0.019653 3:2.7e-05 5:0.007541 6:0.017493 7:0.002587 10:0.000101 11:0.000475 16:5e-06 17:0.017013 18:0.000592 19:5e-06 21:0.023456 22:0.088933 23:0.008645 24:2.7e-05 26:0.003307 27:0.025637 28:0.000336 31:6.4e-05 32:0.000107 33:5.3e-05 34:5e-06 37:0.000379 38:0.017957 39:0.000219 42:0.045131 43:0.070997 44:0.018795 46:5e-06 47:0.001131 48:0.01656 54:1.1e-05 58:0.000603 59:0.023653 60:0.000187 63:0.012608 64:0.075413 
1 1:0.204233 2:0.034388 3:0.047599 4:0.04743 5:0.002621 6:0.005184 7:0.002893 8:0.008375 11:0.00011 12:0.000201 17:0.004505 18:0.002874 19:0.000343 20:5.2e-05 21:0.004906 22:0.074155 23:0.042887 24:0.012201 25:1.3e-05 26:0.000188 27:0.002783 28:0.003294 32:6e-06 33:0.000356 34:6e-06 37:0.005249 38:0.004932 39:0.025159 40:0.000466 41:0.000136 42:0.001269 43:0.167909 44:0.04532 47:5.2e-05 48:0.002401 53:5.2e-05 54:1.9e-05 57:6e-06 58:0.000123 59:0.002803 60:0.013573 62:6e-06 63:0.000498 64:0.228421 
1 1:0.48305 2:0.004057 5:0.04 6:0.046209 17:0.011256 18:5.8e-05 21:0.031898 22:0.083617 23:2.3e-05 26:0.000203 27:3.5e-05 38:0.00934 39:6e-06 42:0.01173 43:0.031829 47:3.5e-05 59:0.008223 60:1.7e-05 63:0.012581 64:0.225833 
1 1:0.144931 2:0.000132 5:0.014198 6:0.001604 17:0.037483 18:7.2e-05 19:6e-06 21:0.101033 22:0.199105 23:0.000168 26:7.8e-05 27:4.2e-05 37:3e-05 38:0.078288 39:9.6e-05 42:0.085616 43:0.140414 48:6e-06 58:0.013664 59:0.173351 60:1.2e-05 63:0.006613 64:0.003057 
1 1:0.16008 2:0.006901 3:0.002768 4:0.001387 5:0.007957 6:0.003227 7:0.000811 8:0.005248 12:0.000704 16:0.001765 17:0.033451 18:0.001163 19:0.000171 20:0.000101 21:0.078075 22:0.107285 23:0.002064 24:0.000517 26:0.002347 27:0.00336 28:0.000133 32:0.000368 37:1.6e-05 38:0.011541 39:0.000139 40:1.6e-05 42:0.023419 43:0.350352 44:0.000133 47:0.033989 48:0.0004 59:0.000261 63:0.152155 64:0.007696 
1 1:0.008937 2:0.00212 3:9.6e-05 4:1.8e-05 5:2.4e-05 6:0.032769 7:0.001411 8:4.8e-05 12:6e-06 17:0.000859 18:0.00021 21:0.000396 22:0.103081 23:0.196084 24:9e-05 26:0.000114 27:0.243039 28:0.003574 33:1.8e-05 37:0.000432 38:0.000186 39:0.000114 42:0.009568 43:0.154643 44:0.055928 47:6e-06 48:0.011724 53:0.000204 54:6e-06 57:0.000799 58:0.008535 59:0.083441 60:6.6e-05 61:6e-06 62:9e-05 63:0.014583 64:0.066775 
1 1:0.205883 2:0.005637 3:0.000757 4:0.000149 5:0.011413 6:0.022395 7:0.002517 8:0.000144 9:7.5e-05 10:3.7e-05 11:0.000501 12:9.1e-05 15:5e-06 16:1.1e-05 17:0.002037 18:0.000517 19:0.000139 20:2.1e-05 21:0.073877 22:0.148501 23:0.009632 24:0.000261 25:0.00088 26:0.006693 27:0.022933 28:0.000341 30:3.2e-05 31:0.000277 32:0.000363 37:0.001648 38:0.006453 39:0.000613 40:6.9e-05 41:0.000315 42:0.018971 43:0.312741 44:0.006704 45:3.7e-05 46:0.001205 47:0.004171 48:0.024043 53:0.000261 54:5e-06 57:0.000315 58:0.000464 59:0.005755 60:0.00064 62:3.2e-05 63:0.010987 64:0.088448 
1 1:0.017088 2:0.011883 3:0.043499 4:0.000603 5:0.002517 6:0.030128 7:0.002288 8:4.8e-05 10:0.001573 11:0.001296 17:0.004688 18:0.000971 19:0.001429 20:3.7e-05 21:0.003205 22:0.117221 23:0.013685 24:8e-05 26:0.005888 27:0.043979 28:6.4e-05 31:1.1e-05 32:1.1e-05 33:7.5e-05 34:4.3e-05 37:0.002501 38:0.020448 39:0.003285 40:1.6e-05 42:0.017941 43:0.445067 44:0.004917 47:0.000789 48:0.002784 54:2.7e-05 55:2.1e-05 58:5.3e-05 59:0.126944 60:0.000901 63:0.004939 64:0.067056 
1 1:0.168021 2:0.009029 3:0.001349 4:0.001653 5:0.000987 6:0.001451 7:4.3e-05 8:0.000224 10:5e-06 11:2.1e-05 17:0.019397 18:0.004485 19:0.000485 20:0.000187 21:0.044187 22:0.489339 23:0.009397 24:0.002949 25:2.7e-05 26:0.015429 27:0.031835 28:0.000811 33:2.1e-05 34:1.1e-05 37:0.002075 38:0.041973 39:0.00168 40:0.001536 42:0.032448 43:0.070128 44:0.002229 46:1.6e-05 47:0.000176 48:1.6e-05 53:0.000464 54:0.000336 57:0.000171 58:0.000571 59:0.014896 60:0.000747 63:0.012923 64:0.016272 
1 1:0.733748 2:0.014811 3:0.0003 4:0.000468 5:0.018817 6:0.017724 7:0.000114 8:2.4e-05 11:6e-06 12:1.8e-05 17:0.012312 18:0.004877 20:2.4e-05 21:0.013105 22:0.176204 23:0.000306 24:0.000102 26:0.000114 27:0.000174 28:0.000126 32:0.000108 37:0.000276 38:0.001453 39:6e-06 41:2.4e-05 42:0.000733 43:0.000138 44:2.4e-05 47:3.6e-05 48:7.2e-05 55:6e-06 57:1.2e-05 58:0.000168 59:0.000162 60:1.8e-05 63:0.000144 64:0.003243 
1 1:0.197824 2:0.029355 3:0.000192 4:2.1e-05 5:0.007408 6:0.03712 7:0.001445 8:5e-06 10:4.8e-05 11:0.000101 12:4.3e-05 17:0.019104 18:0.020827 19:0.001072 21:0.025312 22:0.087259 23:0.045584 24:1.6e-05 25:4.3e-05 26:0.002384 27:0.020235 28:3.7e-05 37:0.000795 38:0.019947 39:0.002128 41:8.5e-05 42:0.200539 43:0.216363 44:0.000517 45:1.1e-05 47:0.003845 48:0.005051 58:0.002283 59:0.023051 60:2.7e-05 61:5e-06 63:0.003195 64:0.026725 
1 1:0.238208 2:0.013717 3:0.000155 5:0.001664 6:0.007509 7:0.003003 8:2.7e-05 11:3.2e-05 17:0.061035 18:0.003051 19:1.1e-05 21:0.037125 22:0.364864 23:0.005355 24:5e-06 26:0.000123 27:0.001237 28:4.3e-05 33:6.9e-05 37:0.002661 38:0.169781 39:0.001931 40:5e-06 42:0.028549 43:0.054821 44:0.00032 47:5e-06 48:0.000171 53:0.000117 54:3.7e-05 55:1.1e-05 58:0.000389 59:0.003088 60:5.3e-05 63:0.000261 64:0.000565 
1 1:0.491049 2:0.070419 3:0.005961 5:0.001296 6:0.027616 7:0.008355 8:0.000527 10:2.5e-05 11:0.002374 12:0.002409 16:2e-05 17:0.035478 18:0.001961 19:0.000276 21:0.028926 22:0.037281 23:0.016433 24:0.000236 26:0.000512 27:0.013704 28:0.00365 31:2e-05 32:0.000877 33:0.001276 37:0.071719 38:0.008951 39:0.001099 40:0.000158 41:2e-05 42:0.001443 43:0.020414 44:0.009567 47:0.000443 48:0.009256 53:5e-06 54:2e-05 55:5e-06 58:0.000158 59:0.001808 60:0.001882 63:0.001547 64:0.120828 
1 1:0.101934 2:0.019279 3:0.000156 5:3e-05 6:0.008468 7:0.000108 17:0.014895 18:0.004799 19:0.00021 21:0.002961 22:0.172829 23:0.020739 24:1.8e-05 26:0.00015 27:0.004036 28:1.2e-05 38:0.037712 39:0.015634 40:9.6e-05 42:0.008985 43:0.105441 44:0.004324 47:8.4e-05 48:0.001261 55:6e-06 59:0.390817 60:0.002366 63:0.021574 64:0.061075 
1 1:0.136629 2:0.036133 3:0.027365 5:0.150528 6:0.133104 7:0.006741 9:0.000304 10:0.023691 11:0.005845 16:5e-06 17:0.003643 18:9.1e-05 19:1.1e-05 21:0.014363 22:0.019077 23:0.000896 24:5e-06 25:0.000587 26:0.038091 27:0.008123 28:5.9e-05 30:2.1e-05 31:0.000539 32:8e-05 37:0.003328 38:0.000101 39:6.4e-05 41:0.00152 42:0.007803 43:0.015008 44:0.000149 46:0.000725 47:0.037659 48:0.004405 57:2.7e-05 58:5e-06 59:0.000213 60:4.3e-05 62:5.3e-05 63:0.007728 64:0.315237 
1 1:0.129402 2:0.026743 3:1.8e-05 5:0.000139 6:0.008199 7:0.000495 17:0.022272 18:0.001698 19:1.2e-05 21:0.01194 22:0.247861 23:0.055317 26:0.000133 27:0.016852 28:0.000344 38:0.023275 39:0.002018 42:0.012864 43:0.160985 44:0.014236 47:0.000103 48:0.019619 59:0.037825 60:0.002562 63:0.021801 64:0.183287 
1 1:0.106325 2:0.031024 3:0.000656 5:0.002773 6:0.043904 7:0.011632 8:0.00016 10:4.8e-05 11:0.000197 17:0.005509 18:0.001899 19:3.7e-05 20:5e-06 21:0.003573 22:0.20216 23:0.071979 24:0.003195 26:0.00344 27:0.066576 28:0.010629 32:0.000629 37:2.1e-05 38:0.015861 39:0.006389 40:2.7e-05 42:0.00952 43:0.231365 44:0.021051 47:0.001237 48:0.011216 58:0.00016 59:0.010928 60:0.000661 62:5e-06 63:0.006133 64:0.119072 
1 1:0.522763 2:0.058517 3:0.007928 4:0.001952 5:0.000721 6:0.022054 7:0.001195 8:0.000276 17:0.097694 18:0.001027 19:0.000258 20:6e-06 21:0.112751 22:0.060925 23:0.008216 24:0.001261 26:0.000763 27:0.006913 28:0.000691 37:0.011495 38:0.003075 39:0.000138 41:0.001495 42:0.004144 43:0.026847 44:0.007652 47:0.000541 48:0.005958 53:0.001165 54:6e-06 57:0.002336 58:0.000799 59:0.000937 60:0.000144 61:0.001724 62:0.001838 63:0.001381 64:0.022414 
1 1:0.089285 2:0.000512 3:0.000133 4:2.1e-05 5:0.038267 6:0.016245 7:9.1e-05 8:0.000107 10:0.000736 11:5e-06 12:0.000117 17:0.004773 18:0.000475 19:0.001083 20:0.000267 21:0.020197 22:0.375285 23:0.005995 24:0.00096 26:0.034517 27:0.012875 28:0.001605 37:0.000117 38:0.011173 39:0.0012 40:0.000261 42:0.012912 43:0.165557 44:0.006821 47:0.003413 48:0.007035 53:5e-06 54:1.1e-05 58:0.000944 59:0.006955 60:0.000763 63:0.009483 64:0.169797 
1 1:0.032533 2:0.001648 3:7.5e-05 5:0.000629 6:0.005397 7:8.5e-05 17:0.003835 18:0.000816 19:1.6e-05 21:0.004715 22:0.239493 23:0.004416 26:0.00096 27:0.005312 37:5e-06 38:0.021995 39:0.000475 42:0.024267 43:0.394555 44:0.005589 47:0.000395 48:0.001088 59:0.002795 60:0.007024 63:0.00032 64:0.241563 
1 1:0.077243 2:0.032378 3:0.007237 4:0.000408 5:0.001538 6:0.017039 7:0.001423 8:0.001832 11:0.00015 17:0.011135 18:0.001471 19:0.00033 20:1.2e-05 21:0.012667 22:0.410781 23:0.01648 24:0.002078 26:0.001195 27:0.013934 28:0.000468 37:0.002889 38:0.027243 39:0.00224 40:2.4e-05 41:0.000204 42:0.016354 43:0.292799 44:0.005964 47:0.000426 48:0.004853 58:0.000186 59:0.004865 60:0.000222 63:0.003333 64:0.028595 
1 1:0.313381 22:0.397883 43:0.033259 64:0.255477 
1 1:0.56373 2:0.058124 3:0.004394 4:0.001307 5:0.008846 6:0.022751 7:0.005008 8:0.000353 10:7.5e-05 11:0.000237 12:0.000158 16:6.2e-05 17:0.00012 18:0.000548 19:0.000158 20:8.7e-05 21:0.000216 22:0.007174 23:0.014021 24:0.000751 25:3.7e-05 26:0.000718 27:0.022436 28:0.009286 30:4e-06 31:0.000124 32:0.000734 34:4e-06 37:8e-06 38:0.000456 39:0.000639 40:1.2e-05 41:5.4e-05 42:0.000178 43:0.00332 44:0.018021 45:4.1e-05 46:0.000241 47:0.000465 48:0.085668 55:4e-06 58:4e-06 59:1.7e-05 60:2.9e-05 61:7.9e-05 62:0.000295 63:0.000224 64:0.16878 
