svm_type c_svc
kernel_type rbf
gamma 9
nr_class 2
total_sv 882
rho 1.0132
label 1 -1
probA -18.6391
probB -15.7199
nr_sv 205 677
SV
1 1:0.241296 2:0.039184 5:0.000373 6:0.084987 7:6.9e-05 11:6.4e-05 12:0.000304 16:0.001797 17:0.001835 18:0.001061 21:0.000101 22:0.206331 23:0.073173 26:0.000181 27:0.044773 28:0.000245 37:5e-06 38:0.000251 39:0.000293 42:0.000293 43:0.068773 44:0.041707 47:5e-06 48:0.079211 58:5.9e-05 59:0.004368 60:0.000224 63:0.004272 64:0.104763 
1 1:0.337019 2:0.058576 3:5e-06 5:0.002277 6:0.100949 7:0.010437 17:3.2e-05 18:0.000405 21:8.5e-05 22:0.170992 23:0.094848 26:0.000107 27:0.032059 28:0.001008 38:0.001808 39:0.000747 42:0.003957 43:0.103408 44:0.014128 47:9.1e-05 48:0.015659 59:0.000309 60:0.000373 63:5.3e-05 64:0.050667 
1 1:0.338475 2:0.023595 3:0.005253 5:0.001611 6:0.007419 7:0.000603 11:5e-06 17:0.047957 18:0.001936 19:0.000651 20:3.2e-05 21:0.014987 22:0.155365 23:0.059963 24:0.002869 26:0.000309 27:0.040853 28:0.003179 32:2.7e-05 33:0.000144 37:0.001584 38:0.01288 39:0.003051 40:0.000496 41:0.000208 42:0.005264 43:0.186027 44:0.030048 47:8.5e-05 48:0.002619 53:0.000219 57:1.6e-05 58:5e-06 59:0.010384 60:0.003957 63:0.000725 64:0.0372 
1 1:0.275653 2:0.161104 3:0.001248 5:0.000379 6:0.109429 7:0.004373 17:0.001227 18:0.000619 19:5e-06 21:0.001077 22:0.12352 23:0.039093 24:1.1e-05 26:0.006517 27:0.050789 28:6.4e-05 37:2.7e-05 38:0.005163 39:0.000517 41:1.1e-05 42:0.007328 43:0.160907 44:0.030565 47:0.000229 48:0.006693 59:0.00264 60:0.000629 63:0.001397 64:0.008784 
1 1:0.505854 2:0.206734 3:0.000257 5:0.001577 6:0.02869 7:0.004321 10:0.000161 17:0.000191 18:0.000235 21:0.000191 22:0.015537 23:0.07142 24:0.010446 26:0.000308 27:0.006998 28:0.02577 37:8.8e-05 38:0.001218 39:0.000183 40:0.000154 42:0.004145 43:0.029798 44:0.017899 47:0.00347 48:0.000851 58:0.001775 59:0.002223 60:2.2e-05 62:0.000836 63:0.052421 64:0.006228 
1 1:0.220109 2:0.096665 3:0.028411 5:0.005208 6:0.019897 7:0.012139 8:3e-05 10:6e-05 11:0.00029 12:7.9e-05 15:6e-06 16:4.2e-05 17:0.047275 18:0.006532 19:0.004024 21:0.073668 22:0.111335 23:0.038997 24:4.2e-05 25:7.9e-05 26:0.000773 27:0.009583 28:0.000121 29:8.5e-05 30:0.000363 31:6e-06 32:3e-05 33:0.000121 34:1.8e-05 37:0.001317 38:0.032701 39:0.000912 40:3e-05 41:0.000169 42:0.006012 43:0.154937 44:0.079523 46:0.000888 47:0.000598 48:0.029801 54:7.3e-05 57:2.4e-05 58:0.000429 59:0.003843 60:0.00064 63:0.002695 64:0.00942 
1 1:0.172249 2:0.048386 3:0.034107 5:0.00095 6:0.018659 7:0.025306 8:5.9e-05 11:0.005359 12:0.00251 17:0.001145 18:0.00016 19:0.000113 20:6e-06 21:0.001656 22:0.020647 23:0.018095 24:0.000261 25:6e-06 26:0.000831 27:0.02635 28:0.025442 32:0.001163 37:0.000107 38:0.001128 39:3.6e-05 41:2.4e-05 42:0.01797 43:0.116599 44:0.016315 47:0.000855 48:0.01689 58:0.000131 59:0.016896 60:0.000522 63:0.020297 64:0.388772 
1 1:0.087835 2:0.240619 3:7.5e-05 5:0.001307 6:0.095173 7:0.001275 8:3.7e-05 11:5.9e-05 12:4.8e-05 17:0.010939 18:0.000784 19:1.6e-05 21:0.000261 22:0.123728 23:0.199275 24:7.5e-05 26:0.000517 27:0.139019 28:0.002107 32:0.000389 38:0.010763 39:0.000517 42:0.000928 43:0.076107 44:0.000555 47:0.000213 48:0.000571 55:1.1e-05 59:0.002501 60:0.000176 63:0.001157 64:0.002965 
1 1:0.033808 2:0.009424 3:0.000128 4:5e-06 5:0.015552 6:0.106053 7:0.018459 8:0.000155 10:5.9e-05 11:0.004544 12:0.000528 17:0.000331 18:0.000779 19:1.1e-05 21:0.004192 22:0.305696 23:0.163024 24:0.000475 25:0.000171 26:0.005387 27:0.100267 28:0.014619 31:4.8e-05 32:0.000608 37:0.000117 38:0.002795 39:0.014203 40:0.000117 41:0.001605 42:0.020624 43:0.114059 44:0.035493 47:0.000363 48:0.008341 58:5e-06 59:0.001083 60:0.00152 63:0.000816 64:0.014539 
1 1:0.311296 2:0.000373 5:0.000603 6:0.002496 7:5e-06 10:0.000139 11:0.000213 16:1.1e-05 17:0.052384 18:0.043712 21:0.000443 22:0.099861 23:0.002016 26:0.002624 27:0.005184 31:4.3e-05 32:4.8e-05 33:0.000331 34:0.001856 37:1.1e-05 38:0.042992 39:0.027275 42:0.004384 43:0.266107 44:0.000549 47:0.022363 48:0.013573 49:1.1e-05 50:5e-06 53:5e-06 54:7.5e-05 55:3.7e-05 58:1.6e-05 59:0.00504 60:0.000437 63:0.005648 64:0.087835 
1 1:0.11616 2:0.040939 3:2.1e-05 5:0.000107 6:0.012144 7:6.9e-05 17:0.031621 18:0.002053 19:0.000101 21:0.007211 22:0.137424 23:0.042928 24:3.2e-05 26:0.000128 27:0.019211 28:0.00096 33:0.000128 34:1.1e-05 37:7.5e-05 38:0.047376 39:0.003819 42:0.065851 43:0.3608 44:0.046192 47:0.000165 48:0.028037 54:1.6e-05 58:2.1e-05 59:0.016048 60:0.001669 63:0.000981 64:0.017701 
1 1:0.155328 2:0.053979 3:0.175099 5:0.000331 6:0.018736 7:0.041232 11:4.3e-05 17:0.000528 18:0.000747 19:0.001131 20:1.1e-05 21:0.000261 22:0.033317 23:0.046144 24:3.7e-05 26:0.000672 27:0.016304 28:5.9e-05 31:5e-06 34:5e-06 37:6.9e-05 38:0.000709 39:0.001259 40:0.000133 42:0.000901 43:0.247253 44:0.154933 47:0.000299 48:0.011099 58:5e-06 59:0.000475 60:0.001045 63:0.00024 64:0.037611 
1 1:0.090384 2:0.015856 3:0.000469 4:5.9e-05 5:0.000229 6:0.101456 7:0.064491 8:5e-06 10:4.8e-05 11:0.000421 12:2.1e-05 16:4.8e-05 17:0.002203 18:0.000688 19:2.1e-05 21:0.00016 22:0.106 23:0.116059 24:5.3e-05 25:5e-06 26:0.000517 27:0.205344 28:0.058304 31:4.8e-05 32:0.000149 34:1.6e-05 35:5e-06 37:5.3e-05 38:0.00056 39:0.000736 41:1.6e-05 42:0.000144 43:0.150165 44:0.019632 46:4.3e-05 47:9.6e-05 48:0.019253 56:5e-06 59:0.002187 60:0.001872 63:0.000779 64:0.041397 
1 1:0.000907 2:0.002132 3:3.6e-05 6:0.005147 11:6e-06 18:0.000276 19:0.001201 20:0.000252 22:0.029015 23:0.09821 24:0.006474 26:5.4e-05 27:0.067327 28:0.000456 32:0.000102 39:0.000559 40:0.019171 43:0.028084 44:0.07582 47:1.8e-05 48:0.128054 60:0.006366 64:0.53033 
1 1:0.145066 2:0.035524 3:0.000342 5:0.003835 6:0.012923 7:0.000192 10:0.000336 11:4.1e-05 15:8.2e-05 16:7e-06 17:0.015868 18:0.006321 19:0.000705 21:0.00491 22:0.142519 23:0.010684 24:1.4e-05 26:0.011122 27:0.026086 28:0.00013 31:0.000281 32:0.00013 33:0.000753 37:0.003835 38:0.013444 39:0.002602 42:0.009026 43:0.320027 44:0.003678 47:0.00867 48:0.014012 59:0.009287 60:0.001383 63:0.006691 64:0.189472 
1 1:0.067824 2:0.156133 3:0.003019 5:0.001072 6:0.044032 7:0.042128 8:0.000576 11:9.1e-05 12:0.001237 17:5e-06 21:0.000752 22:0.057243 23:0.073808 24:1.1e-05 26:8.5e-05 27:0.518939 28:0.026853 32:9.6e-05 38:5e-06 39:5e-06 42:5e-06 43:0.000859 44:0.002245 48:0.001861 63:5e-06 64:0.001109 
1 1:0.253772 2:0.017045 3:7.2e-05 4:6e-06 5:0.00352 6:0.025453 7:0.000156 8:1.2e-05 11:6e-06 17:0.000216 18:0.000144 21:0.001796 22:0.176637 23:0.047832 24:0.000102 26:0.000486 27:0.103706 28:0.00218 32:1.2e-05 38:0.000625 39:0.00015 42:0.000318 43:0.251544 44:0.019832 47:7.2e-05 48:0.017778 64:0.076529 
1 1:0.197797 2:0.166005 3:0.174997 4:0.002091 5:0.002208 6:0.026043 7:0.016619 8:0.000245 10:9.6e-05 11:0.000128 17:0.000363 18:0.001317 19:0.005451 20:0.006101 21:0.001771 22:0.060048 23:0.023173 24:0.000133 26:0.00232 27:0.015936 28:0.000288 31:1.6e-05 32:5e-06 38:0.001067 39:0.001088 40:1.1e-05 41:5e-06 42:0.001536 43:0.124875 44:0.034117 47:0.001285 48:0.026411 59:0.00016 60:0.000187 63:0.000192 64:0.105915 
1 1:0.389249 2:0.085029 3:0.006717 4:0.000376 5:0.000936 6:0.007786 7:0.003954 8:0.000312 17:0.074353 18:0.008162 19:0.001526 20:0.000439 21:0.018324 22:0.049445 23:0.024803 24:0.00178 26:0.000266 27:0.009844 28:0.000272 33:6e-06 37:0.011191 38:0.017832 39:0.000497 40:3.5e-05 41:1.2e-05 42:0.036936 43:0.061272 44:0.010387 47:4.6e-05 48:0.000867 58:0.02274 59:0.046925 60:0.000168 63:0.018364 64:0.08915 
1 1:0.284693 2:0.197589 3:0.000112 5:0.000565 6:0.119179 7:0.007749 11:0.002165 12:0.006875 17:0.002816 18:0.002539 19:0.011541 21:0.004709 22:0.147035 23:0.063504 24:4.8e-05 26:0.000608 27:0.016389 28:0.001701 32:0.000523 33:7.5e-05 34:5e-06 35:0.000501 36:1.1e-05 37:0.001477 38:0.006565 39:0.034955 40:0.015365 42:0.005899 43:0.022197 44:0.010805 47:2.7e-05 48:0.004075 54:0.00016 55:5.9e-05 56:0.000144 58:0.000923 59:0.005264 60:0.003664 63:0.003147 64:0.014341 
1 1:0.534102 2:0.043225 3:0.000979 4:0.000114 5:0.004318 6:0.057532 7:0.004847 8:0.000354 9:1.2e-05 10:2.4e-05 11:0.000535 12:0.000757 16:0.0003 17:8.4e-05 18:0.000102 20:6e-06 21:0.002024 22:0.106517 23:0.057339 24:0.010216 25:6e-06 26:0.002697 27:0.044264 28:0.005009 32:0.00233 38:8.4e-05 39:3.6e-05 42:0.000895 43:0.037327 44:0.016036 46:6e-06 47:0.000745 48:0.011357 59:0.000126 60:4.2e-05 63:0.000811 64:0.054841 
1 1:0.479136 2:0.016325 5:0.001717 6:0.023429 17:0.0036 18:0.000869 21:0.001931 22:0.214693 23:0.00432 26:3.2e-05 27:0.002533 33:0.000357 34:3.7e-05 37:0.000133 38:0.012939 39:0.000912 42:0.006032 43:0.094608 44:0.007947 47:0.000155 48:0.001963 49:1.6e-05 54:0.000848 55:3.7e-05 58:0.000827 59:0.006416 60:0.001061 63:0.002885 64:0.11424 
1 1:0.012357 2:0.020245 3:0.098309 4:0.067131 5:0.000864 6:0.050987 7:0.102085 8:0.087307 11:0.001477 12:0.029339 17:0.000155 18:0.000117 20:0.000139 21:0.000176 22:0.057248 23:0.01024 24:0.209984 26:0.000864 27:0.006181 28:0.019104 32:2.1e-05 38:0.000811 39:5.3e-05 40:1.1e-05 42:0.001717 43:0.021541 44:0.006112 47:0.000181 48:0.001227 59:0.000747 60:0.00024 63:0.000453 64:0.192576 
1 1:0.539111 2:0.113033 3:0.01018 5:0.008511 6:0.062511 7:0.012631 10:3.6e-05 11:0.000324 17:0.002372 18:6e-06 21:0.010018 22:0.017399 23:0.033003 24:0.000102 26:0.000847 27:0.043688 28:0.009141 32:0.002024 38:1.2e-05 39:1.8e-05 42:6e-06 43:0.019784 44:0.014655 47:7.8e-05 48:0.050955 59:3.6e-05 60:6e-06 63:2.4e-05 64:0.049489 
1 1:0.401781 2:0.049291 3:0.000747 5:0.003552 6:0.034608 7:0.011323 17:0.001968 18:0.000496 19:0.000315 21:0.001728 22:0.170507 23:0.030731 24:0.000608 26:0.000352 27:0.0112 28:0.026123 33:1.1e-05 37:5.9e-05 38:0.001195 39:0.000384 40:5e-06 42:0.005845 43:0.113168 44:0.064256 47:0.001061 48:0.004059 58:5.3e-05 59:0.012416 60:6.4e-05 62:1.1e-05 63:0.033781 64:0.018304 
1 1:0.185392 2:0.085899 3:0.000411 4:0.000448 5:0.009819 6:0.305536 7:0.000768 8:0.000832 10:0.090139 11:0.00648 17:0.000133 18:0.011109 19:0.014437 20:2.7e-05 21:3.2e-05 22:0.083429 23:0.013803 24:0.000277 26:0.014075 27:0.097584 38:5e-06 39:0.000203 42:1.1e-05 43:0.059888 44:0.002469 47:0.00056 48:0.004693 59:3.2e-05 60:2.1e-05 63:5e-06 64:0.011483 
1 1:0.123552 2:0.032119 3:0.005188 5:0.000878 6:0.015958 7:0.000215 10:0.000579 11:0.000221 14:6e-06 15:4.2e-05 17:0.049278 18:0.000603 19:6e-06 21:0.019845 22:0.236854 23:0.038943 26:0.004466 27:0.025015 28:0.000167 31:0.001284 32:0.000245 33:2.4e-05 37:0.002961 38:0.045313 39:0.000322 42:0.045791 43:0.310084 44:0.007236 47:0.002221 48:0.007493 54:6e-06 58:6e-06 59:0.000794 60:0.000185 63:0.000776 64:0.021325 
1 1:0.138336 2:0.105765 3:0.000491 5:1.1e-05 6:0.135893 7:0.009184 17:0.000139 18:0.000448 19:0.000213 21:7.5e-05 22:0.070101 23:0.125877 24:0.002635 26:1.6e-05 27:0.051216 28:0.004624 38:0.022128 39:0.001104 40:5e-06 42:0.011387 43:0.207627 44:0.026 47:1.1e-05 48:0.003211 59:0.032869 60:0.001531 63:0.000181 64:0.048923 
1 1:0.194643 2:0.076871 3:0.003009 5:0.000246 6:0.0263 7:0.013892 8:3.6e-05 11:6e-06 12:6e-06 17:0.044276 18:0.006781 19:5.4e-05 21:0.015123 22:0.172504 23:0.081988 24:0.004607 26:3.6e-05 27:0.012282 28:0.005447 37:0.000156 38:0.003538 39:0.001628 40:6e-06 42:0.000372 43:0.310486 44:0.011994 48:0.002018 59:0.000126 60:0.000282 63:3.6e-05 64:0.011249 
1 1:0.166037 2:0.083819 3:0.006608 5:0.000539 6:0.125333 7:0.002165 17:2.1e-05 18:6.4e-05 21:3.2e-05 22:0.047296 23:0.034827 27:0.183243 28:0.000128 43:0.074688 44:0.055915 48:0.085819 64:0.133467 
1 1:0.422987 2:0.035237 3:0.000245 5:0.004699 6:0.101653 7:0.005323 8:1.1e-05 10:4.3e-05 11:0.000848 12:4.8e-05 16:5e-06 17:0.005749 18:0.001136 19:5.3e-05 20:1.6e-05 21:0.001531 22:0.089824 23:0.03832 24:0.000245 25:3.2e-05 26:0.002677 27:0.087301 28:0.017749 31:3.2e-05 32:0.006757 33:5.9e-05 37:9.1e-05 38:0.000453 39:0.000213 40:5.3e-05 42:0.000736 43:0.047232 44:0.026187 45:1.6e-05 46:5e-06 47:0.001621 48:0.054517 54:1.1e-05 59:0.000549 60:9.1e-05 62:5e-06 63:0.000571 64:0.045067 
1 1:0.119285 2:0.070763 3:0.053691 4:0.000272 5:0.000299 6:0.017184 7:0.005515 8:0.000251 11:2.1e-05 12:5e-06 17:0.005227 18:0.002827 19:0.001995 20:5.9e-05 21:0.00296 22:0.081147 23:0.04152 24:0.001387 26:0.000176 27:0.025488 28:0.010507 32:8.5e-05 33:2.1e-05 34:1.1e-05 35:2.7e-05 37:6.4e-05 38:0.001931 39:0.001611 40:0.000171 42:0.000368 43:0.075947 44:0.050603 47:3.2e-05 48:0.056139 55:5e-06 59:0.001605 60:0.001653 63:0.000187 64:0.368965 
1 1:0.313333 2:0.080781 5:0.001273 6:0.07639 7:0.000186 11:1.2e-05 17:0.015514 18:0.004132 21:0.010523 22:0.319117 23:0.021201 26:0.001099 27:0.018739 28:9e-05 31:1.2e-05 32:2.4e-05 37:0.004625 38:0.008102 39:0.003375 42:0.002336 43:0.083219 44:0.003994 47:0.000468 48:0.004751 54:0.000102 58:1.8e-05 59:0.001345 60:0.000498 63:0.000529 64:0.02421 
1 1:0.175432 2:0.042074 3:0.081289 4:0.00226 5:0.00243 6:0.017629 7:0.008255 8:0.00018 10:5.8e-05 11:0.000509 17:0.004578 18:0.000164 19:0.001294 20:7.4e-05 21:0.010196 22:0.058159 23:0.031024 24:0.000408 26:0.002127 27:0.026859 28:9e-05 38:0.003363 39:0.000276 40:4.8e-05 42:0.041878 43:0.257082 44:0.010302 47:0.009093 48:0.02695 59:0.002854 60:0.000318 63:0.005825 64:0.176918 
1 1:0.068561 2:0.009294 5:0.00192 6:0.04531 7:3.2e-05 17:0.00077 18:0.000727 19:0.00015 21:0.001759 22:0.410283 23:0.035717 24:1.1e-05 26:0.003043 27:0.040198 28:4.3e-05 34:1.1e-05 35:1.1e-05 37:5e-06 38:0.005107 39:0.015011 40:0.000957 42:0.00208 43:0.19777 44:0.025091 47:0.000599 48:0.000888 54:9.1e-05 55:0.000235 56:0.000112 58:0.001283 59:0.038096 60:0.019241 63:0.00592 64:0.069674 
1 1:0.024128 2:0.023627 5:0.001136 6:0.049259 7:0.002736 11:5e-06 17:0.004464 18:0.015397 21:0.002885 22:0.339467 23:0.138832 24:5e-06 25:1.1e-05 26:0.003051 27:0.034512 28:0.000907 31:1.6e-05 32:0.000421 33:1.1e-05 34:1.1e-05 37:0.000336 38:0.010043 39:0.002736 40:2.1e-05 42:0.009947 43:0.065851 44:0.005259 46:2.1e-05 47:0.014021 48:0.010715 54:0.00016 55:1.1e-05 58:0.001109 59:0.008347 60:0.000197 62:1.1e-05 63:0.031733 64:0.198603 
1 1:0.150645 2:0.120672 3:0.000176 4:2.1e-05 5:0.000235 6:0.028795 7:0.000555 10:2.7e-05 11:0.000112 12:1.1e-05 15:5e-06 16:1.1e-05 17:0.025333 18:0.005915 19:9.1e-05 20:1.1e-05 21:0.018651 22:0.275408 23:0.014635 24:0.000176 26:0.001547 27:0.013285 28:0.000128 31:0.000491 32:0.001115 33:0.000352 34:1.6e-05 37:0.002304 38:0.011072 39:0.000592 40:2.7e-05 41:5.9e-05 42:0.002795 43:0.214789 44:0.054192 47:0.002869 48:0.043072 49:5e-06 53:0.000229 54:8e-05 57:5.9e-05 58:0.000837 59:0.000976 60:0.000219 62:5e-06 63:0.000427 64:0.006976 
1 1:0.147406 2:0.032011 3:0.003465 4:9.6e-05 5:0.00131 6:0.078717 7:0.022326 8:0.000203 11:0.00023 12:0.000503 17:0.029989 18:0.001385 19:0.000112 20:0.000219 21:0.010888 22:0.31446 23:0.070663 24:0.001626 26:0.003337 27:0.033743 28:0.009358 31:1.1e-05 32:0.000241 33:0.000305 34:0.00016 36:5.9e-05 37:0.002738 38:0.016551 39:0.002128 40:0.00084 42:0.011519 43:0.14085 44:0.00784 47:0.001075 48:0.00461 50:2.7e-05 54:0.00023 55:0.000139 56:9.1e-05 58:0.000807 59:0.006123 60:0.000594 63:0.006337 64:0.034679 
1 1:0.055392 2:0.067664 3:0.040336 4:4e-05 5:0.001368 6:0.10108 7:0.014176 8:0.002904 11:0.000104 12:0.003712 17:0.003192 18:0.000744 19:0.005808 20:0.001264 21:0.016976 22:0.581928 23:0.003256 24:0.000944 26:0.001512 27:0.005144 28:0.010984 31:1.6e-05 32:0.000336 37:4.8e-05 38:0.027432 42:0.048616 43:0.002328 44:0.000408 47:8.8e-05 48:0.001808 63:6.4e-05 64:0.000328 
1 1:0.0608 2:0.014197 3:0.000203 5:0.000853 6:0.040805 7:0.132565 8:0.001755 11:0.001696 12:0.00072 17:0.001979 18:0.001749 19:1.6e-05 21:0.000944 22:0.058411 23:0.151419 24:0.00168 26:0.000336 27:0.111968 28:0.024747 31:2.1e-05 32:3.7e-05 37:0.000181 38:0.008149 39:0.004832 40:2.1e-05 42:0.002331 43:0.077723 44:0.110139 47:0.000928 48:0.089531 53:4.3e-05 54:2.7e-05 55:1.1e-05 57:2.7e-05 58:0.011733 59:0.010827 60:0.000571 62:1.1e-05 63:0.010885 64:0.065131 
1 1:0.102165 2:0.086784 3:0.002837 5:0.000635 6:0.189563 7:0.001291 11:5e-06 17:0.026021 18:0.000117 21:0.004528 22:0.220005 23:0.065947 25:5e-06 26:0.005237 27:0.145739 37:1.6e-05 38:0.000251 39:2.7e-05 41:5e-06 42:0.000384 43:0.145579 44:9.1e-05 46:5e-06 47:0.000757 48:0.000427 58:5e-06 59:4.3e-05 63:0.000229 64:0.001301 
1 1:0.235088 2:0.098741 3:2.1e-05 5:0.000144 6:0.106805 7:0.002859 17:0.009803 18:0.000928 21:0.007755 22:0.119904 23:0.286053 26:0.000117 27:0.112576 38:9.1e-05 39:0.00032 42:0.000181 43:0.005579 44:0.001504 47:0.000155 48:0.001003 59:1.1e-05 60:2.1e-05 63:1.6e-05 64:0.010325 
1 1:0.07074 2:0.013707 5:0.002448 6:0.057796 7:9.4e-05 17:0.000967 18:0.000166 21:0.001514 22:0.428519 23:0.020359 26:0.006249 27:0.02842 33:1.1e-05 37:2.2e-05 38:0.009448 39:0.000409 42:0.017878 43:0.17642 44:0.001834 47:0.000199 48:0.000376 58:1.1e-05 59:0.020785 60:0.001497 63:0.035227 64:0.104906 
1 1:0.259675 2:0.103941 3:0.029051 4:0.004363 5:0.011168 6:0.007045 7:0.005296 8:0.000229 10:7.5e-05 11:0.000192 12:0.000123 17:0.00144 18:0.002331 19:0.00112 20:0.000672 21:0.013632 22:0.057275 23:0.045829 24:0.001776 25:5.3e-05 26:0.002912 27:0.010805 28:0.004107 31:8.5e-05 32:3.2e-05 37:3.7e-05 38:0.002656 39:0.00328 40:0.000805 41:2.1e-05 42:0.008619 43:0.333733 44:0.005349 46:5e-06 47:0.00192 48:0.005781 56:5e-06 59:0.003397 60:0.000779 63:0.002747 64:0.067637 
1 1:0.840549 2:0.002853 3:5e-06 5:0.01312 6:0.007563 7:0.000112 9:5e-06 10:0.000469 11:0.000336 12:1.6e-05 15:5e-06 16:1.6e-05 17:0.036683 18:0.012811 19:2.1e-05 21:0.005035 22:0.048587 23:0.001323 26:0.001771 27:0.003424 28:3.7e-05 31:0.000331 32:3.7e-05 33:0.000421 34:0.007371 35:7.5e-05 37:3.2e-05 38:0.008555 39:0.004661 42:0.000443 43:0.002421 44:4.8e-05 47:0.000155 48:6.9e-05 49:0.000139 50:1.6e-05 53:1.1e-05 54:1.1e-05 55:5.9e-05 59:0.000101 60:0.00016 63:2.1e-05 64:0.000123 
1 1:0.108806 2:0.15286 3:0.000925 4:0.00123 5:0.001946 6:0.021654 7:0.001779 8:0.00197 11:1.2e-05 17:0.005522 18:0.025212 19:0.001152 20:0.000113 21:0.002704 22:0.116084 23:0.046567 24:0.002251 26:0.001928 27:0.040406 28:0.008645 32:1.2e-05 38:0.000507 39:0.001057 40:9e-05 42:0.010107 43:0.118573 44:0.126376 46:0.000143 47:0.002931 48:0.107701 58:0.000299 59:0.000991 60:0.000884 62:0.000179 63:0.007767 64:0.080615 
1 1:0.220576 2:0.045125 3:5e-06 5:0.000592 6:0.04224 7:0.00168 8:6.9e-05 11:5e-06 12:1.6e-05 17:0.001531 18:0.001835 21:0.000672 22:0.341744 23:0.041701 24:0.000224 26:0.002683 27:0.030384 28:0.002816 32:0.000123 34:5e-06 37:1.1e-05 38:0.009605 39:0.009963 42:0.00456 43:0.136651 44:0.004821 47:0.000891 48:0.008224 58:0.000549 59:0.015589 60:0.00048 62:5e-06 63:0.006928 64:0.067696 
1 1:0.145984 2:0.097141 3:0.004261 5:0.009157 6:0.09952 7:0.014368 17:2.1e-05 21:0.000176 22:0.122293 23:0.071467 26:0.007776 27:0.296213 28:0.01792 43:0.101211 44:0.012325 48:0.000144 64:2.1e-05 
1 1:0.104971 2:0.165536 3:0.036336 4:0.001152 5:0.002096 6:0.056363 7:0.171824 8:0.014859 9:8.5e-05 10:0.00032 11:0.003669 12:0.008048 13:5e-06 16:0.000608 17:0.002523 18:0.000603 19:0.000267 20:0.000693 21:0.001349 22:0.028923 23:0.089152 24:0.007824 25:1.6e-05 26:0.000944 27:0.076389 28:0.083648 29:1.6e-05 30:0.000101 31:0.000597 32:0.005872 38:0.003557 39:0.000331 40:1.1e-05 42:0.003211 43:0.022443 44:0.036768 46:3.7e-05 47:0.000432 48:0.033728 59:0.001781 60:8e-05 63:0.000427 64:0.032405 
1 1:0.077205 2:0.05624 3:0.000768 5:0.000128 6:0.008693 7:0.005968 12:1.1e-05 17:0.013163 18:0.028773 19:5.3e-05 20:5e-06 21:0.013541 22:0.249077 23:0.085381 24:0.000325 26:0.008272 27:0.050325 28:0.010261 31:8e-05 32:0.000917 37:4.3e-05 38:0.003712 39:0.007461 40:6.4e-05 41:5e-06 42:0.018283 43:0.194464 44:0.060277 47:0.004251 48:0.041595 54:5e-06 58:5e-06 59:0.002277 60:0.002283 63:0.001883 64:0.054203 
1 1:0.252459 2:0.022352 3:0.000128 5:0.004021 6:0.006128 7:0.00088 9:3.2e-05 10:0.000197 17:0.065952 18:0.006731 19:0.000208 21:0.038549 22:0.148379 23:0.065547 24:0.000144 25:5e-06 26:0.001541 27:0.021232 28:0.001525 33:5e-06 34:1.6e-05 37:2.1e-05 38:0.008213 39:0.008704 40:0.000651 42:0.005285 43:0.089467 44:0.033029 47:0.001008 48:0.009616 59:0.00624 60:0.00128 63:0.016411 64:0.184043 
1 1:0.343326 2:0.002715 3:4.1e-05 5:0.013794 6:0.023904 7:0.000165 10:0.000323 11:0.001402 12:0.000124 15:0.000179 16:0.001698 17:0.033086 18:0.029395 19:0.000261 21:0.00178 22:0.268124 23:0.00154 26:0.050543 27:0.044296 28:2.7e-05 31:0.000935 32:0.002199 33:0.004426 34:0.012392 35:0.000557 37:5.5e-05 38:0.010619 39:0.003278 40:7.6e-05 42:0.000935 43:0.040433 44:0.000124 47:0.04101 48:0.012021 49:0.001223 50:0.001519 51:0.002454 53:0.000412 54:0.002309 55:0.017966 56:0.004467 58:0.00066 59:0.002797 60:0.014351 63:0.000515 64:0.005546 
1 1:0.063515 2:0.005451 5:0.000315 6:0.004064 11:1.6e-05 17:0.15264 18:0.005072 21:0.016107 22:0.050528 23:0.000251 26:0.001712 27:0.001605 28:5e-06 33:0.049819 34:0.000251 37:0.104811 38:0.053467 39:0.000752 40:5e-06 41:2.1e-05 42:0.045195 43:0.090667 44:0.001077 47:0.007845 48:0.006784 49:4.3e-05 53:0.003861 54:0.012805 57:4.8e-05 58:0.010549 59:0.032512 60:0.000101 63:0.115973 64:0.162133 
1 1:0.055621 2:0.014875 3:0.002555 4:0.000112 5:0.000331 6:0.009339 7:0.009072 8:0.000613 10:5.3e-05 11:0.000101 12:0.0004 16:2.1e-05 17:0.027392 18:0.002912 19:0.000619 21:0.018933 22:0.078853 23:0.042565 24:0.005237 26:0.001616 27:0.01528 28:0.015173 31:5e-06 32:0.000491 37:0.000149 38:0.04512 39:0.004773 40:0.000128 41:3.2e-05 42:0.045184 43:0.115963 44:0.076976 47:0.002197 48:0.138672 58:5e-06 59:0.000597 60:0.000544 63:0.001328 64:0.26616 
1 1:0.282213 2:0.05304 5:0.002299 6:0.109461 7:0.000965 11:0.000315 17:0.069893 18:0.001248 21:0.003141 22:0.335941 23:0.087621 26:0.003168 27:0.041611 28:1.6e-05 32:1.1e-05 33:0.000341 37:0.001077 38:0.000507 39:0.000155 42:0.000181 43:0.006528 44:4.8e-05 48:3.7e-05 58:1.1e-05 59:4.3e-05 63:4.8e-05 64:8e-05 
1 1:0.079075 2:0.041255 3:0.00045 5:3e-05 6:0.027039 7:0.006691 8:6e-06 11:6.6e-05 12:0.000258 16:3e-05 17:0.00364 18:0.003075 19:1.2e-05 21:0.001177 22:0.061489 23:0.060036 24:0.000102 26:4.8e-05 27:0.047447 28:0.016913 32:0.00024 33:6e-06 34:6e-06 37:0.000156 38:0.003183 39:0.003249 42:0.000589 43:0.327471 44:0.072787 47:0.009922 48:0.060216 58:6e-06 59:0.026468 60:0.00042 63:0.01385 64:0.132589 
1 1:0.056462 2:0.031815 3:4.3e-05 5:0.002825 6:0.040215 7:0.001465 9:8.6e-05 17:0.003668 21:0.00976 22:0.164049 23:0.147606 25:0.00288 26:0.042382 27:0.112966 28:9.2e-05 37:0.000271 38:0.001895 39:6e-06 41:0.004326 42:0.09504 43:0.222222 44:0.008738 47:0.011711 48:0.013828 58:0.000751 59:0.012283 63:0.007385 64:0.005231 
1 1:0.02756 2:0.091365 3:0.029843 4:0.000409 5:0.000862 6:0.010258 7:0.021283 8:0.008214 12:1.3e-05 17:0.009579 18:0.074038 19:0.069591 20:0.016635 21:0.002717 22:0.088994 23:0.223094 24:0.087453 26:0.000119 27:0.002214 28:0.043 35:3.1e-05 36:6e-06 37:3.8e-05 38:0.001038 39:0.007409 40:0.014541 41:4.4e-05 42:0.000245 43:0.004774 44:0.06944 47:6e-06 48:0.02161 55:2.5e-05 56:2.5e-05 57:6e-06 58:0.000138 59:0.003195 60:0.00627 62:6e-06 63:0.00161 64:0.062302 
1 1:0.347079 2:0.038028 3:0.000209 5:0.011785 6:0.050367 7:0.007565 8:0.001977 10:4e-05 11:0.000463 12:0.00165 15:6e-06 16:1.7e-05 17:0.000282 18:3.4e-05 21:0.003085 22:0.036322 23:0.041977 24:0.000441 26:0.001113 27:0.058983 28:0.015079 37:1.7e-05 38:0.000333 39:0.000492 40:4e-05 42:0.001678 43:0.046119 44:0.103763 47:6e-06 48:0.014853 58:1.1e-05 59:0.000181 60:0.001407 63:7.3e-05 64:0.214525 
1 1:0.098795 2:0.139435 3:0.000432 5:0.004741 6:0.037691 7:0.002896 10:0.000464 11:0.000139 17:0.000608 18:0.012709 19:0.003637 21:0.000635 22:0.087915 23:0.065883 24:1.1e-05 26:0.000699 27:0.038357 28:0.002523 31:1.1e-05 32:4.3e-05 38:0.000251 39:0.004213 40:1.6e-05 42:0.000704 43:0.297093 44:0.067573 47:0.001184 48:0.030016 59:0.010171 60:0.008075 63:0.015483 64:0.0676 
1 1:0.086531 2:0.061077 3:0.000131 5:8.9e-05 6:0.010075 7:0.000704 8:6.5e-05 17:0.004746 18:0.001622 19:5e-06 21:0.037152 22:0.057921 23:0.005744 24:0.001515 26:0.000503 27:0.002965 28:0.00234 37:0.014783 38:0.040862 39:0.000224 41:0.000793 42:0.091599 43:0.062219 44:0.050368 47:0.000242 48:0.042457 57:5.1e-05 58:0.021371 59:0.018923 60:2.8e-05 62:0.0031 63:0.040569 64:0.339226 
1 1:0.094 2:0.026571 3:7.5e-05 5:7.5e-05 6:0.203045 7:0.027952 8:0.000155 11:0.000197 12:0.000144 17:0.024405 18:0.000171 19:5e-06 21:0.033835 22:0.107221 23:0.063813 24:3.2e-05 26:0.000315 27:0.054923 28:0.000656 32:0.000773 38:0.000896 39:0.000176 42:0.003067 43:0.340224 44:0.003125 47:0.000619 48:0.005931 59:0.001344 60:6.9e-05 63:0.001253 64:0.004933 
1 1:0.322416 2:0.342299 3:0.000763 6:0.064043 7:0.174395 8:0.000939 11:0.016848 12:0.01096 23:2.7e-05 27:0.011339 28:0.052827 32:0.003061 48:8.5e-05 
1 1:0.164778 2:0.003752 5:0.003499 6:0.027801 17:4.6e-05 18:5.4e-05 21:2.9e-05 22:0.385114 23:0.000969 26:0.005122 27:0.021462 38:7.5e-05 39:5e-05 42:0.000195 43:0.211615 44:0.00019 47:0.001619 48:0.005768 59:1.2e-05 63:6.6e-05 64:0.167785 
1 1:0.073893 2:0.172309 3:0.004976 4:5.3e-05 5:0.000384 6:0.121685 7:0.063056 8:0.000437 11:6.4e-05 17:0.001819 18:0.004112 19:0.000475 20:3.7e-05 21:0.006629 22:0.173179 23:0.092976 24:0.014336 26:0.00168 27:0.078688 28:0.008144 31:5e-06 32:1.1e-05 37:0.001349 38:0.004747 39:0.000581 40:0.000315 41:1.1e-05 42:0.004464 43:0.110277 44:0.021237 47:0.001669 48:0.011013 54:1.6e-05 55:0.000123 58:0.000469 59:0.000437 60:0.000261 62:0.000411 63:0.00112 64:0.022549 
1 1:0.205226 2:0.05073 3:0.124596 4:5e-05 5:0.003042 6:0.018368 7:0.011894 8:0.000992 10:8.4e-05 11:0.000423 12:9.5e-05 16:1.1e-05 17:0.005788 18:0.001298 19:0.002864 20:2.8e-05 21:0.014301 22:0.120056 23:0.05146 24:0.003616 25:1.1e-05 26:0.005577 27:0.123354 28:0.005437 31:3.9e-05 32:0.000914 33:3.9e-05 34:6e-06 37:0.000156 38:0.003604 39:0.000479 40:6.1e-05 42:0.003967 43:0.169426 44:0.008273 47:0.002735 48:0.014735 53:6e-06 54:5e-05 55:1.1e-05 57:6e-06 58:0.000123 59:0.003872 60:0.000362 62:6e-06 63:0.002407 64:0.039426 
1 1:0.112325 2:0.043685 3:2.1e-05 5:0.001408 6:0.106987 7:0.007547 10:1.1e-05 11:9.1e-05 17:0.000901 18:0.000645 21:0.000464 22:0.174112 23:0.022048 26:0.019168 27:0.116176 28:4.3e-05 31:5e-06 32:1.6e-05 37:1.1e-05 38:0.002219 39:0.000555 42:0.006235 43:0.317413 44:0.000224 47:0.001408 48:0.001227 58:6.4e-05 59:0.005045 60:5e-06 63:0.019968 64:0.039973 
1 1:0.396584 2:0.002337 5:0.00197 6:0.016608 17:6e-06 18:6.6e-05 21:1.2e-05 22:0.386946 23:0.000813 26:0.000464 27:0.005211 38:1.2e-05 39:4.8e-05 42:6e-06 43:0.144608 44:0.00038 47:0.001054 48:0.001259 59:7.2e-05 60:0.000127 63:0.000398 64:0.041018 
1 1:0.099803 2:0.104171 3:0.100555 4:1.6e-05 5:4.3e-05 6:0.016267 7:0.015035 8:5e-06 11:5e-06 17:0.001504 18:0.006912 19:0.003867 20:0.000421 21:0.00048 22:0.051451 23:0.042779 24:0.002133 26:3.7e-05 27:0.032256 28:0.004768 34:5e-06 38:0.001307 39:0.000768 40:0.000139 42:0.000155 43:0.171531 44:0.063157 47:0.000187 48:0.046085 59:0.000565 60:0.000704 63:0.000155 64:0.232736 
1 1:0.285083 2:0.172736 3:0.003877 5:0.000309 6:0.056427 7:0.001589 17:0.017909 18:0.001211 19:0.00136 21:0.015035 22:0.122064 23:0.009365 26:0.003317 27:0.033413 28:0.000699 32:5e-06 33:1.1e-05 37:4.8e-05 38:0.009723 39:0.000459 42:0.004603 43:0.205824 44:0.000245 47:0.000101 48:0.000315 54:5e-06 55:5e-06 58:0.000256 59:0.010331 60:3.2e-05 63:0.011376 64:0.032267 
1 1:0.222256 2:0.005147 3:5e-06 5:0.000107 6:0.001621 7:7.5e-05 10:0.000325 11:0.000261 15:0.000155 16:5e-06 17:0.109493 18:0.173445 19:0.000229 20:1.6e-05 21:0.000352 22:0.115904 23:0.001045 24:1.1e-05 26:0.00096 27:0.002123 28:2.7e-05 30:5e-06 31:0.000224 32:4.8e-05 33:0.001051 34:0.005333 35:0.001157 36:1.1e-05 37:3.7e-05 38:0.030992 39:0.088848 40:0.000203 42:0.000421 43:0.072859 44:0.001259 46:5e-06 47:0.000725 48:0.00152 50:0.010256 51:0.063691 52:1.6e-05 54:0.000507 55:0.004331 56:7.5e-05 58:0.000165 59:0.060901 60:0.015552 62:5e-06 63:0.000181 64:0.006059 
1 1:0.137701 2:0.06424 3:0.006187 4:0.000144 5:0.00376 6:0.094453 7:0.056213 8:0.000299 10:5e-06 11:0.002661 12:0.000976 15:1.1e-05 16:5e-06 17:0.003424 18:0.002448 19:0.00024 20:2.1e-05 21:0.008763 22:0.172208 23:0.058048 24:0.001392 25:0.001573 26:0.001957 27:0.082016 28:0.055413 31:5.3e-05 32:0.000416 37:0.000171 38:0.003051 39:0.00064 40:1.1e-05 41:0.000485 42:0.005109 43:0.058272 44:0.057824 46:0.000101 47:0.000859 48:0.070272 53:1.1e-05 57:6.4e-05 58:5.9e-05 59:0.001616 60:0.000288 61:9.1e-05 62:8e-05 63:0.000811 64:0.045557 
1 1:0.334101 2:0.135392 3:0.000341 5:0.000523 6:0.112379 7:0.002133 17:0.001061 18:0.000411 19:5e-06 21:0.000645 22:0.094656 23:0.028395 24:5e-06 26:0.000304 27:0.036011 28:0.008987 32:1.6e-05 38:0.006048 39:0.00016 42:0.008656 43:0.07136 44:0.013936 47:0.000197 48:0.032075 58:1.1e-05 59:0.023925 60:0.000197 63:0.007643 64:0.080427 
1 1:0.374518 2:0.115602 3:0.003729 4:1.2e-05 5:0.000157 6:0.01909 7:0.030735 8:0.003235 11:7.2e-05 12:5.4e-05 17:0.021301 18:0.006422 19:2.4e-05 21:0.006482 22:0.052687 23:0.025139 24:0.009783 26:1.8e-05 27:0.029151 28:0.039054 32:9e-05 33:6e-06 37:5.4e-05 38:0.00097 39:0.00706 42:6e-06 43:0.048608 44:0.104807 48:0.070663 59:0.000873 60:0.006084 64:0.023512 
1 1:0.395184 2:0.161413 3:5.3e-05 5:0.001792 6:0.148923 7:0.005968 17:0.000677 18:0.000741 19:5e-06 21:0.00104 22:0.1012 23:0.092784 24:6.4e-05 26:3.2e-05 27:0.021157 28:0.001856 38:1.6e-05 39:0.003355 40:3.7e-05 43:0.012032 44:0.036373 47:5e-06 48:0.000341 59:0.000101 60:0.002411 64:0.012437 
1 1:0.111541 2:0.188378 3:0.046907 5:1.2e-05 6:0.00626 7:0.082159 8:0.004244 17:4e-06 18:0.000577 19:5.3e-05 22:0.037963 23:0.075935 24:0.066581 26:0.000138 27:0.024207 28:0.019813 38:0.000362 39:0.001016 40:4e-06 42:0.000207 43:0.18098 44:0.050573 47:0.000297 48:0.023931 59:0.001037 60:0.00063 63:0.000443 64:0.075748 
1 1:0.209898 2:0.2123 3:3e-05 5:1.8e-05 6:0.124721 7:0.005748 17:0.001309 18:3e-05 21:0.000715 22:0.092468 23:0.118937 26:0.000204 27:0.035489 31:6e-06 32:6e-06 38:0.014955 39:9e-05 42:0.023682 43:0.145303 44:0.002162 47:0.000414 48:0.000372 59:0.003694 60:4.2e-05 63:0.003273 64:0.004132 
1 1:0.270414 2:0.127033 3:0.023321 5:3e-05 6:0.010246 7:0.005808 17:0.015333 18:0.023057 19:0.014793 21:0.004078 22:0.051838 23:0.146336 24:0.001526 26:9e-05 27:0.025453 28:0.002486 37:2.4e-05 38:0.000619 39:0.002012 40:0.000925 42:0.000144 43:0.084144 44:0.105772 47:6e-05 48:0.01161 59:0.001033 60:0.004643 63:0.0003 64:0.066871 
1 1:0.481562 2:0.038234 3:0.005393 5:0.002258 6:0.026661 7:0.003237 10:0.000414 11:0.000138 12:6e-06 15:1.8e-05 17:0.082126 18:0.000498 19:3.6e-05 21:0.043141 22:0.056949 23:0.010186 24:0.000336 26:0.000643 27:0.005435 28:0.008168 31:0.00012 32:0.00015 33:0.000655 37:0.062042 38:0.007351 39:0.000174 41:6e-06 42:0.01152 43:0.037453 44:0.021021 47:0.000625 48:0.016414 59:0.007225 60:0.000114 63:0.004979 64:0.064709 
1 1:0.331819 2:0.072101 3:5e-06 5:0.00264 6:0.024869 7:8e-05 9:5e-06 10:1.1e-05 17:0.015803 18:0.030907 19:5e-06 21:0.003467 22:0.238091 23:0.034752 25:5e-06 26:0.003552 27:0.012421 37:5e-06 38:0.011595 39:0.016176 41:5e-06 42:0.005632 43:0.190075 44:0.001328 47:0.000155 48:0.00256 56:5e-06 58:5.9e-05 59:0.000592 60:3.2e-05 63:1.1e-05 64:0.001237 
1 1:0.025628 2:0.021652 3:0.064907 4:0.137015 5:1.2e-05 6:0.013934 7:0.041556 8:0.072468 11:0.001243 12:0.041766 17:0.000577 18:6e-05 19:1.8e-05 21:0.0017 22:0.011249 23:0.008811 24:0.001706 26:6e-06 27:0.013766 28:0.064024 31:6e-06 32:0.000571 37:0.000348 38:0.010571 39:0.000102 40:3e-05 42:0.00803 43:0.028877 44:0.022835 47:1.8e-05 48:0.026889 58:2.4e-05 59:0.010006 60:0.000174 63:0.002505 64:0.366919 
1 1:0.227845 2:0.178293 3:0.003808 5:0.004944 6:0.017211 7:0.006597 17:0.000128 18:0.000784 19:5e-06 21:0.000539 22:0.064608 23:0.050149 26:0.000155 27:0.054709 28:0.000171 38:0.000752 39:0.002629 42:0.000208 43:0.316021 44:0.058128 47:3.7e-05 48:0.001024 59:0.000784 60:0.0052 63:3.7e-05 64:0.005232 
1 1:0.111573 2:0.029696 3:0.007824 4:2.7e-05 5:0.003664 6:0.038869 7:0.016149 10:0.001589 11:0.003328 12:4.8e-05 14:3.2e-05 15:0.000587 16:0.000149 17:0.015077 18:0.002277 19:0.000629 21:0.006581 22:0.094715 23:0.16712 24:0.000251 25:2.7e-05 26:0.002133 27:0.108517 28:0.004848 30:5e-06 31:0.000688 32:0.000485 33:5e-06 37:0.001808 38:0.002027 39:0.000976 40:3.2e-05 41:8e-05 42:0.001339 43:0.163093 44:0.083093 47:0.000784 48:0.048395 54:5e-06 58:1.1e-05 59:0.001152 60:0.000789 63:0.00088 64:0.07864 
1 1:0.269992 2:0.021758 5:6.8e-05 6:0.037434 7:0.006008 11:1.5e-05 17:0.000672 18:0.001487 21:0.00046 22:0.141019 23:0.078528 24:8e-06 26:5.3e-05 27:0.016996 28:0.006242 32:0.000762 38:0.002898 39:5.3e-05 42:0.002377 43:0.022906 44:0.004604 47:1.5e-05 48:0.019449 58:8e-06 59:0.001804 60:4.5e-05 63:0.001132 64:0.363208 
1 1:0.171387 2:0.175355 3:0.122608 4:0.003168 5:0.000779 6:0.040053 7:0.061328 8:0.002171 10:5e-06 11:0.000272 12:0.000101 16:2.1e-05 17:0.00272 18:0.003301 19:0.000736 20:0.000229 21:0.000752 22:0.045157 23:0.064256 24:0.001365 26:0.000443 27:0.03816 28:0.001435 32:0.003755 34:4.3e-05 35:5e-06 36:2.7e-05 38:8e-05 39:0.001349 40:9.6e-05 42:4.3e-05 43:0.112763 44:0.049179 47:0.001285 48:0.020565 59:0.000203 60:0.001659 63:8e-05 64:0.073067 
1 1:0.201232 2:0.053051 3:0.001957 4:1.6e-05 5:0.009216 6:0.045787 7:0.005093 8:0.000363 10:1.6e-05 11:0.000213 12:0.000144 17:0.009179 18:0.018736 19:0.004315 20:0.000256 21:0.010544 22:0.312032 23:0.105616 24:0.009067 26:0.007627 27:0.049632 28:0.00792 30:5e-06 31:8e-05 32:0.000875 37:3.7e-05 38:0.003883 39:0.006576 40:0.000827 42:0.005712 43:0.052517 44:0.011552 46:3.7e-05 47:0.003131 48:0.01216 58:8e-05 59:0.001179 60:0.001189 62:2.7e-05 63:0.001851 64:0.046272 
1 1:0.1328 2:0.082976 3:0.061829 4:0.000293 5:0.000165 6:0.032955 7:0.074944 8:0.015627 11:0.000432 12:0.000229 17:2.1e-05 18:0.000251 19:0.000416 20:0.000528 21:4.3e-05 22:0.041813 23:0.071632 24:0.034283 26:5.9e-05 27:0.100645 28:0.09432 32:0.003259 38:4.3e-05 39:0.00016 40:5e-06 43:0.084677 44:0.03968 47:2.7e-05 48:0.09976 59:1.1e-05 60:5.3e-05 64:0.026064 
1 1:0.339515 2:0.012187 5:0.000677 6:0.005008 17:0.000459 18:0.001968 21:0.000432 22:0.050213 23:0.094437 26:0.000197 27:0.127557 37:1.6e-05 38:8e-05 39:0.000432 41:5e-06 42:0.000384 43:0.103259 44:0.058347 47:0.000112 48:0.067685 58:5.9e-05 59:5.9e-05 60:9.6e-05 62:5e-06 63:1.6e-05 64:0.136795 
1 1:0.513579 2:0.043307 3:0.000208 6:0.010368 7:0.002219 17:0.016005 18:0.005184 19:0.001093 21:0.000203 22:0.025168 23:0.037301 24:0.000757 27:0.017227 28:0.011403 38:5.3e-05 39:0.000128 40:2.1e-05 43:0.138731 44:0.095584 47:2.7e-05 48:0.038293 60:5.9e-05 64:0.043083 
1 1:0.051029 2:0.03384 3:0.008896 5:0.000635 6:0.050704 7:0.00576 11:2.1e-05 17:0.001349 18:0.002336 19:3.2e-05 21:0.000821 22:0.206059 23:0.054736 24:4.8e-05 26:0.000661 27:0.073163 28:0.000453 32:4.8e-05 38:0.000987 39:0.001024 40:4.8e-05 42:0.001003 43:0.471883 44:0.005083 47:0.000421 48:0.003648 59:0.000997 60:0.000768 63:5.9e-05 64:0.023488 
1 1:0.065988 2:0.110126 3:0.002366 5:1.8e-05 6:0.034907 7:0.047321 8:0.073165 11:0.016438 12:0.010318 17:0.012 18:0.002168 21:0.002108 22:0.035009 23:0.031141 24:0.001646 26:6e-06 27:0.184288 28:0.019267 37:0.004228 38:0.042865 39:0.001471 41:9.6e-05 42:0.11248 43:0.058643 44:0.01955 47:3e-05 48:0.003616 54:3.6e-05 57:3e-05 58:0.008354 59:0.012931 60:0.000318 62:6.6e-05 63:0.006372 64:0.080631 
1 1:0.203682 2:0.092803 3:0.000141 5:0.000247 6:0.018773 7:0.004136 10:2e-05 11:5e-06 17:0.019005 18:0.004889 19:3.5e-05 21:0.01298 22:0.158576 23:0.048449 24:6.6e-05 25:5.6e-05 26:0.000818 27:0.053652 28:0.000818 31:4.5e-05 32:1.5e-05 33:0.000116 34:5e-06 35:5e-06 37:0.007929 38:0.027975 39:0.001298 40:2e-05 41:0.000167 42:0.021667 43:0.204232 44:0.007717 46:1.5e-05 47:0.001758 48:0.002874 49:5e-06 53:0.000146 54:0.000106 55:2.5e-05 57:8.6e-05 58:0.001687 59:0.012697 60:0.000576 63:0.004126 64:0.085556 
1 1:0.062549 2:0.115648 3:0.000581 5:0.000144 6:0.215712 7:0.010149 11:6.4e-05 17:0.000117 18:0.001675 19:0.000699 21:0.000928 22:0.107296 23:0.128629 24:0.003653 26:0.00024 27:0.089803 28:0.004384 32:1.1e-05 38:0.000864 39:0.000528 40:0.001147 42:0.005227 43:0.030107 44:0.036683 46:5e-06 47:0.000107 48:0.021243 58:0.00024 59:0.000693 60:0.000357 62:4.8e-05 63:0.003765 64:0.156704 
1 1:0.188217 2:0.074614 3:0.000108 5:0.000627 6:0.052819 7:0.022386 8:6e-06 11:6e-06 17:0.000331 18:0.000223 21:0.000494 22:0.216524 23:0.077855 24:6e-06 26:0.000428 27:0.077675 28:0.006952 32:3e-05 38:0.000283 39:6e-05 42:0.000404 43:0.103193 44:0.035892 47:0.000229 48:0.015325 59:0.000223 60:0.000114 63:0.000265 64:0.124711 
1 1:0.264539 2:0.033877 3:0.000923 4:0.000725 5:0.001536 6:0.036117 7:0.002768 8:2.1e-05 10:0.000117 11:0.000235 12:4.3e-05 15:5e-06 17:0.009989 18:0.001797 19:0.000293 20:0.000277 21:0.014715 22:0.195125 23:0.061211 24:0.002539 26:0.0088 27:0.053077 28:0.002709 31:0.000464 32:0.000843 33:5e-06 34:0.000261 35:1.1e-05 37:0.000357 38:0.006837 39:0.003995 40:0.009205 41:4.3e-05 42:0.01872 43:0.135936 44:0.09112 47:0.000549 48:0.016187 53:1.6e-05 54:1.1e-05 55:1.1e-05 56:0.000603 57:2.1e-05 58:0.002395 59:0.003856 60:0.000981 62:7.5e-05 63:0.000939 64:0.01512 
1 1:0.054651 2:0.058144 3:0.005083 4:4.3e-05 5:0.002528 6:0.069963 7:0.063003 8:0.010037 10:1.1e-05 11:0.000843 12:0.000688 17:0.000267 18:0.001323 19:0.001307 20:0.000224 21:0.000795 22:0.060331 23:0.136064 24:0.103589 26:0.000448 27:0.107621 28:0.049659 31:5e-06 32:0.000955 35:5e-06 38:8.5e-05 39:0.001525 40:0.006267 42:2.7e-05 43:0.040528 44:0.083616 47:4.3e-05 48:0.047611 59:8e-05 60:0.002661 63:2.7e-05 64:0.089947 
1 1:0.222037 2:0.213355 3:0.039483 5:0.000128 6:0.191675 7:0.133061 8:1.1e-05 11:0.001435 17:0.000117 18:0.000795 19:0.000203 21:1.6e-05 22:0.023717 23:0.077141 24:0.000149 26:0.000181 27:0.010203 28:2.7e-05 38:5e-06 39:2.1e-05 42:3.7e-05 43:0.053365 44:0.004021 47:1.6e-05 48:0.028453 64:0.000347 
1 1:0.315744 2:0.009872 3:4.3e-05 5:0.00072 6:0.025227 7:0.007259 17:0.009467 18:0.000704 21:0.005856 22:0.12464 23:0.040069 24:5.3e-05 26:0.000181 27:0.055947 28:0.004272 37:5e-06 38:0.002107 39:0.000219 40:5e-06 42:0.001355 43:0.138117 44:0.00368 47:0.001808 48:0.036331 59:0.008603 60:0.000117 63:0.020011 64:0.187589 
1 1:0.253744 2:0.082987 3:0.001387 5:0.001301 6:0.098384 7:0.008357 11:1.1e-05 17:0.005365 18:0.002171 19:0.000245 21:0.010043 22:0.162075 23:0.056059 24:0.000357 26:0.002139 27:0.021712 28:3.2e-05 33:5.9e-05 37:0.000384 38:0.012757 39:0.003317 40:0.000656 41:5e-06 42:0.01104 43:0.102672 44:0.015461 47:0.000325 48:0.002144 54:5.9e-05 58:0.001733 59:0.011568 60:0.004299 62:1.6e-05 63:0.017429 64:0.109707 
1 1:0.158491 2:0.099232 3:0.0004 5:0.001707 6:0.056789 7:0.000485 9:5e-06 10:2.7e-05 11:3.2e-05 12:1.1e-05 17:0.002325 18:0.028176 19:0.013936 20:5e-06 21:0.002283 22:0.182688 23:0.09504 24:0.000123 25:3.7e-05 26:0.004005 27:0.046112 28:3.7e-05 30:5e-06 31:0.000139 32:1.1e-05 33:5e-06 34:3.7e-05 35:3.2e-05 37:8.5e-05 38:0.008949 39:0.010965 40:0.000747 41:1.1e-05 42:0.007483 43:0.177579 44:0.005621 46:3.2e-05 47:0.001957 48:0.003835 53:5e-06 54:5e-06 55:6.9e-05 56:5e-06 57:1.1e-05 58:0.00016 59:0.035285 60:0.002501 62:1.1e-05 63:0.017584 64:0.034923 
1 1:0.185167 2:0.035224 3:4.2e-05 5:0.014687 6:0.036161 7:0.001724 9:5e-06 10:0.000151 11:1e-05 12:5e-06 17:0.007333 18:0.000589 21:0.012214 22:0.072625 23:0.111198 24:0.000109 25:0.000495 26:0.003255 27:0.066646 28:0.000302 33:0.000156 34:5e-06 35:5e-06 37:0.00151 38:0.01651 39:0.003312 40:5e-06 41:0.000438 42:0.009052 43:0.173208 44:0.067849 46:0.000109 47:0.000969 48:0.054328 53:6.8e-05 54:7.8e-05 55:9.9e-05 56:1e-05 57:2.1e-05 58:0.001656 59:0.017891 60:0.00112 62:0.000104 63:0.011958 64:0.091594 
1 1:0.137081 2:0.111562 3:3.6e-05 5:0.015477 6:0.088258 7:0.001267 8:2.4e-05 11:1.2e-05 12:4.2e-05 16:6e-06 17:0.000372 18:0.003183 21:0.002817 22:0.325946 23:0.023237 24:0.000144 26:0.002258 27:0.023393 28:0.003219 31:6e-06 32:0.00018 38:0.006096 39:0.006997 40:3e-05 42:0.007309 43:0.165189 44:0.002306 47:0.001694 48:0.002763 58:1.2e-05 59:0.007147 60:0.00048 63:0.011832 64:0.049622 
1 1:0.229445 2:0.093579 3:0.00688 4:0.000853 5:0.001979 6:0.036715 7:0.042645 8:0.000336 11:0.000213 12:0.000187 16:8e-05 17:0.010107 18:0.002309 19:0.000192 20:0.000224 21:0.006955 22:0.145861 23:0.106192 24:0.000635 25:2.7e-05 26:0.000853 27:0.034389 28:0.000549 29:2.7e-05 31:5e-06 32:0.000203 33:0.004267 34:1.6e-05 37:0.001344 38:0.010075 39:0.001301 40:8.5e-05 41:0.000144 42:0.003269 43:0.102677 44:0.006725 46:1.6e-05 47:0.00064 48:0.022197 53:1.1e-05 54:3.2e-05 57:9.6e-05 58:0.000629 59:0.006528 60:0.001083 62:0.000117 63:0.002715 64:0.114592 
1 1:0.100379 2:0.199819 3:0.083088 4:0.01152 5:1.1e-05 6:0.032752 7:0.242245 8:0.145061 11:0.000864 12:0.019269 16:0.000325 18:7.5e-05 19:6.4e-05 20:1.6e-05 22:0.001307 23:0.014171 24:0.016283 27:0.00136 28:0.063659 32:0.024992 35:5e-06 39:5e-06 40:1.6e-05 43:1.6e-05 44:0.003328 48:0.019461 60:5e-06 64:0.019904 
1 1:0.614187 2:0.158251 3:0.001109 4:0.000107 5:0.001003 6:0.094107 7:0.01872 8:0.00016 10:2.1e-05 11:0.000139 12:2.1e-05 17:0.000256 18:6.9e-05 19:5.3e-05 21:0.000453 22:0.014752 23:0.030731 24:0.000261 25:5.9e-05 26:0.000261 27:0.023317 28:0.015477 32:6.9e-05 37:8.5e-05 38:0.00016 39:1.6e-05 40:3.2e-05 41:5.3e-05 42:0.000208 43:0.000997 44:0.011365 45:1.6e-05 46:4.3e-05 47:4.8e-05 48:0.007291 57:5e-06 58:4.3e-05 59:6.9e-05 60:5.9e-05 61:5e-06 62:6.4e-05 63:0.000219 64:0.005637 
1 1:0.341205 2:0.043803 3:0.000293 5:1.1e-05 6:0.022997 7:0.002027 17:0.050587 18:0.011429 19:0.000635 21:0.010469 22:0.052139 23:0.029723 24:5e-06 27:0.013397 37:7.5e-05 38:0.033035 39:0.00216 40:0.000299 41:3.7e-05 42:0.012368 43:0.094981 44:0.006277 47:5e-06 48:5e-06 58:0.00032 59:0.057093 60:0.001685 62:5e-06 63:0.011499 64:0.201435 
1 1:0.463829 2:0.064565 3:0.104619 5:0.00336 6:0.058747 7:0.000725 17:0.002037 18:0.002496 19:0.035659 21:0.001285 22:0.058267 23:0.043813 26:0.000331 27:0.02496 28:0.000272 38:0.000427 39:0.001557 42:0.000267 43:0.067973 44:0.006027 47:0.000773 48:0.013611 59:2.7e-05 60:5e-06 63:2.1e-05 64:0.044347 
1 1:0.297723 2:0.049728 3:0.009141 4:0.002784 5:0.00128 6:0.065856 7:0.122389 8:0.013344 10:8.5e-05 11:0.01672 12:0.046704 15:1.6e-05 16:0.001083 17:0.000768 18:0.00056 19:4.8e-05 20:2.7e-05 21:0.000677 22:0.022827 23:0.077168 24:0.003504 25:5e-06 26:0.000555 27:0.037509 28:0.091888 31:0.000128 32:0.044512 33:1.1e-05 37:5.3e-05 38:0.00024 39:0.000139 40:5e-06 41:1.6e-05 42:0.000277 43:0.005536 44:0.032539 46:1.1e-05 47:0.000144 48:0.026907 53:5e-06 54:1.1e-05 57:5e-06 58:2.7e-05 59:0.000133 60:9.1e-05 62:1.1e-05 63:9.6e-05 64:0.026715 
1 1:0.143227 2:0.052363 3:1.1e-05 5:0.001813 6:0.098304 7:0.019019 10:5e-06 11:0.002 12:0.001099 17:0.006016 18:0.002315 21:0.00432 22:0.158043 23:0.028229 26:0.009621 27:0.119749 28:0.017269 32:0.001915 33:9.1e-05 37:0.002576 38:0.024619 39:0.000549 41:3.7e-05 42:0.039387 43:0.123835 44:0.016576 47:9.6e-05 48:0.051632 53:4.3e-05 54:1.1e-05 57:0.000752 58:0.023301 59:0.010283 60:0.000117 63:0.000165 64:0.040613 
1 1:0.335563 2:0.004359 5:0.319174 6:0.038431 7:0.000677 9:0.000371 10:0.012006 11:0.001287 12:1.2e-05 15:9e-05 16:0.000228 17:0.035892 18:0.005994 21:0.006707 22:0.075988 23:0.002988 25:6e-06 26:0.011653 27:0.008216 28:4.8e-05 31:0.00106 32:0.000431 33:0.003617 34:0.000533 37:0.001246 38:0.013174 39:0.003838 42:0.00121 43:0.108946 44:9.6e-05 47:0.001341 48:0.00188 49:0.000144 50:4.8e-05 53:3.6e-05 54:0.000503 55:0.000138 58:1.8e-05 59:0.000287 60:5.4e-05 63:0.00015 64:0.001563 
1 1:0.132843 2:0.027712 3:8.5e-05 5:0.000384 6:0.015584 7:6.9e-05 17:0.002357 18:0.001637 21:0.003173 22:0.229973 23:0.046096 26:0.005616 27:0.032416 37:0.000203 38:0.021115 39:0.001301 42:0.032427 43:0.289179 44:0.013573 47:0.001424 48:0.010368 58:4.8e-05 59:0.011397 60:0.000784 63:0.010752 64:0.109483 
1 1:0.101682 2:0.061787 5:0.001238 6:0.072833 7:0.001607 10:2.1e-05 11:9.2e-05 17:0.001004 18:0.001397 21:0.001326 22:0.410318 23:0.044941 26:0.001728 27:0.015724 38:0.014632 39:0.002033 42:0.007552 43:0.190331 44:0.000347 47:0.000485 48:0.000326 59:0.017837 60:0.000372 63:0.008452 64:0.041933 
1 1:0.493459 2:0.038474 5:0.037232 6:0.061093 7:0.004119 10:4.1e-05 11:0.000691 17:0.016309 18:0.002918 21:0.027495 22:0.173485 23:0.050541 24:5e-06 25:2.6e-05 26:0.006624 27:0.037665 28:9.8e-05 38:0.001031 39:0.000366 42:0.002227 43:0.043613 44:0.000552 47:0.000572 48:0.000521 59:4.1e-05 60:2.1e-05 63:0.000216 64:0.000567 
1 1:0.478757 2:0.05336 5:0.007024 6:0.061483 17:0.001152 18:0.002091 21:0.001904 22:0.225723 23:0.010683 26:0.011429 27:0.013349 38:0.002779 39:0.000123 42:0.006389 43:0.106885 44:0.001376 47:0.002613 48:0.008688 59:5e-06 63:4.8e-05 64:0.004139 
1 1:0.185408 2:0.047147 3:0.013141 4:5e-06 5:7.5e-05 6:0.079739 7:0.131808 8:0.162885 11:0.007056 12:0.043141 17:0.000128 18:0.000443 21:1.6e-05 22:0.046437 23:0.045301 24:0.043771 25:5e-06 26:2.7e-05 27:0.005765 28:0.119771 32:5e-06 37:1.6e-05 38:3.7e-05 39:4.3e-05 42:5e-06 43:0.007109 44:0.010261 48:0.019899 54:5e-06 60:5e-06 64:0.030544 
1 1:0.206825 2:0.262072 3:0.15309 4:0.000566 5:0.000187 6:0.007307 7:0.017259 8:0.007976 11:6e-06 12:5.4e-05 18:6e-06 19:6e-06 20:1.2e-05 22:0.000699 23:0.007669 24:0.007645 27:0.000639 28:0.011735 39:0.000265 40:0.000831 43:0.000886 44:0.048795 48:0.002127 59:1.2e-05 60:0.003398 64:0.259934 
1 1:0.204407 2:0.067766 3:1.2e-05 5:0.003982 6:0.057168 7:6e-05 17:0.014485 18:0.003078 19:0.000515 21:0.01409 22:0.171455 23:0.021126 26:0.000545 27:0.025216 28:0.00015 33:1.2e-05 37:0.002084 38:0.009168 39:0.001347 40:6e-06 42:0.00291 43:0.176222 44:0.011353 47:0.000545 48:0.015275 53:0.000108 54:3e-05 58:0.000497 59:0.010257 60:0.000521 63:0.008006 64:0.177605 
1 1:0.410366 2:0.025988 3:2.4e-05 5:0.000655 6:0.007766 7:0.001868 17:0.009754 18:0.004216 20:6e-06 21:0.00648 22:0.108036 23:0.011465 24:4.8e-05 26:0.002721 27:0.03761 28:0.000198 37:0.001556 38:0.008649 39:0.001405 40:1.2e-05 41:1.2e-05 42:0.011736 43:0.191574 44:0.001453 47:0.005195 48:0.003868 57:6e-06 58:0.00024 59:0.00391 60:8.4e-05 62:1.2e-05 63:0.016126 64:0.126961 
1 1:0.219341 2:0.046311 3:0.002359 4:0.000473 5:0.001036 6:0.059419 7:0.011814 8:0.000407 9:1.8e-05 10:3.6e-05 11:0.000443 12:0.000623 16:0.00015 17:0.007311 18:0.000994 19:0.000623 20:0.000156 21:0.031395 22:0.061425 23:0.122168 24:0.000335 25:6e-05 26:0.000599 27:0.263461 28:0.001934 31:1.2e-05 32:1.2e-05 33:3.6e-05 34:1.8e-05 37:0.002018 38:0.001467 39:0.000629 40:3e-05 41:0.000144 42:0.001204 43:0.155934 44:0.001467 47:0.000168 48:0.000246 53:8.4e-05 54:6e-06 58:0.00012 59:0.000455 60:0.00024 63:0.000401 64:0.002419 
1 1:0.014941 2:0.030267 3:0.0001 6:0.021977 7:0.000231 18:0.000887 19:9e-05 22:0.123127 23:0.295683 24:0.000285 27:0.105172 28:0.000733 39:0.003154 40:0.000104 43:0.285059 44:0.114502 48:0.000629 60:2.3e-05 64:0.003036 
1 1:0.114817 2:0.095622 3:0.024252 4:0.001736 5:0.013099 6:0.047123 7:0.005832 8:0.001357 10:6.6e-05 11:0.002078 12:0.010619 15:1.8e-05 16:0.000414 17:0.01027 18:0.000985 19:0.000931 20:3.6e-05 21:0.007099 22:0.287994 23:0.206871 24:0.004066 25:0.001778 26:0.006078 27:0.051063 28:0.005622 31:1.2e-05 32:0.000847 33:0.002192 37:0.004967 38:0.002138 39:0.000456 40:4.8e-05 41:1.8e-05 42:0.00191 43:0.0517 44:0.008889 47:0.000498 48:0.003982 58:6e-06 59:0.000468 60:0.000468 63:0.000613 64:0.020961 
1 1:0.329589 2:0.031696 3:0.002475 5:0.002709 6:0.032336 7:0.011707 8:6.4e-05 10:0.000123 11:0.000187 12:0.000176 17:0.000693 18:0.001547 19:0.000651 21:0.000437 22:0.084389 23:0.062901 24:0.000379 26:0.001547 27:0.104085 28:0.009408 31:1.1e-05 38:0.000256 39:0.000432 40:3.7e-05 42:0.000117 43:0.141797 44:0.139861 47:0.000496 48:0.015563 59:0.000187 60:0.000117 63:0.000229 64:0.023797 
1 1:0.027416 2:0.05809 3:0.000458 5:6e-06 6:0.051663 7:0.065723 11:1.2e-05 12:6e-06 17:1.8e-05 18:3.6e-05 21:1.2e-05 22:0.125988 23:0.152337 24:9e-05 26:1.2e-05 27:0.13394 28:0.006614 38:6e-06 39:2.4e-05 42:1.2e-05 43:0.32706 44:0.045741 47:2.4e-05 48:0.001386 59:6e-05 60:1.8e-05 63:7.8e-05 64:0.003169 
1 1:0.018795 2:0.002571 5:0.000677 6:0.00984 17:0.001792 18:0.000107 21:0.004123 22:0.272624 23:0.018757 26:0.001339 27:0.055099 38:0.078048 39:0.00016 42:0.062683 43:0.446747 44:0.000448 47:0.000267 48:0.000325 59:0.019397 60:0.000117 63:0.002059 64:0.004027 
1 1:0.121792 2:0.023269 3:0.000533 4:5e-06 5:0.001589 6:0.067653 7:0.006437 8:8e-05 11:0.002917 12:0.000208 16:0.000347 17:0.005451 18:0.000555 19:9.1e-05 20:2.7e-05 21:0.010789 22:0.202069 23:0.117248 24:0.000693 26:0.000533 27:0.071189 28:0.010965 32:0.00168 33:2.7e-05 37:0.008261 38:0.008336 39:0.000587 40:9.1e-05 41:0.002891 42:0.010005 43:0.092597 44:0.038715 47:0.000261 48:0.048997 53:0.000395 54:7.5e-05 57:0.008731 58:0.021259 59:0.006128 60:0.000261 62:0.011883 63:0.012688 64:0.081691 
1 1:0.238773 2:0.088453 3:0.006379 4:0.000496 5:0.000304 6:0.01016 7:0.004341 8:2.7e-05 17:0.006331 18:0.005824 19:0.000144 20:4.3e-05 21:0.001712 22:0.095947 23:0.06368 24:0.000261 26:2.1e-05 27:0.003013 28:0.000613 33:5e-06 37:0.000117 38:0.002571 39:0.025509 40:3.2e-05 42:0.000453 43:0.231717 44:0.015419 47:1.1e-05 48:0.000603 59:0.007184 60:0.030155 63:0.000352 64:0.159349 
1 1:0.46758 2:0.059862 3:0.007351 4:0.005057 5:0.000396 6:0.063435 7:0.097291 8:1.2e-05 11:6e-06 17:0.000811 18:5.4e-05 19:3.6e-05 20:0.000583 21:0.000775 22:0.069646 23:0.082751 24:0.000511 25:3.6e-05 26:7.8e-05 27:0.040312 28:0.002474 32:6e-06 37:0.005183 38:0.000198 39:9.6e-05 40:6.6e-05 41:0.000342 42:0.000108 43:0.019982 44:0.032961 47:7.2e-05 48:0.014162 53:0.001435 54:6e-06 55:6e-06 57:0.004336 58:0.00155 59:5.4e-05 60:6e-05 63:6e-06 64:0.020312 
1 1:0.28848 2:0.089424 3:0.000555 5:0.018549 6:0.012341 7:0.000757 9:0.000251 10:0.005653 11:0.000123 12:5e-06 14:4.3e-05 15:3.7e-05 16:2.7e-05 17:0.003333 18:0.004192 20:5e-06 21:0.008549 22:0.176197 23:0.019701 24:0.000192 25:4.8e-05 26:0.028011 27:0.037851 28:0.000789 30:0.000411 31:0.010213 32:0.000363 37:0.000256 38:0.006789 39:0.003408 41:0.000181 42:0.017963 43:0.145184 44:0.006155 45:1.6e-05 46:5e-06 47:0.01248 48:0.011285 55:5e-06 58:0.000165 59:0.00816 60:0.000795 61:1.6e-05 62:0.00312 63:0.016832 64:0.061083 
1 1:0.425718 2:0.073243 5:0.000144 6:0.144054 7:0.000162 18:6e-06 22:0.188384 23:0.076895 26:0.000132 27:0.059297 28:0.000216 38:6e-06 39:6e-06 42:6e-06 43:0.021249 44:0.009201 48:0.001219 64:6e-05 
1 1:0.386619 2:0.054914 6:0.045872 18:2.5e-05 22:0.177199 23:0.000344 27:0.000314 43:0.003916 44:0.000206 48:0.000226 60:5e-06 64:0.330359 
1 1:0.361819 2:0.076144 3:0.000533 5:0.001152 6:0.0996 7:0.000459 17:0.000427 18:0.002459 19:3.2e-05 21:0.000629 22:0.172091 23:0.034128 26:0.000149 27:0.023456 28:0.000443 37:5e-06 38:0.000464 39:9.6e-05 42:0.000336 43:0.098901 44:0.012512 47:7.5e-05 48:0.009216 59:0.000256 60:9.1e-05 63:0.000213 64:0.104315 
1 1:0.159424 2:0.005936 3:0.002683 4:0.000443 5:5.3e-05 6:0.046293 7:0.000165 8:5e-06 17:0.000773 18:0.000181 19:7.5e-05 20:3.7e-05 21:0.000763 22:0.255915 23:0.087483 24:0.000443 26:0.000149 27:0.110928 28:0.000277 38:0.023707 39:9.1e-05 40:2.7e-05 42:0.035376 43:0.186981 44:0.024773 47:3.2e-05 48:0.02632 59:0.000101 60:6.4e-05 63:1.1e-05 64:0.030491 
1 1:0.186976 2:0.09848 3:0.003744 4:1.1e-05 5:0.007819 6:0.027563 7:0.017808 8:1.6e-05 10:1.6e-05 11:0.003872 12:0.000133 16:2.1e-05 17:0.012624 18:0.002432 19:1.1e-05 20:1.1e-05 21:0.024373 22:0.050085 23:0.005536 24:6.9e-05 26:0.001163 27:0.027883 28:0.000491 32:0.000293 33:0.000325 34:1.6e-05 37:8e-05 38:0.004667 39:0.000485 40:2.7e-05 42:0.003216 43:0.242981 44:0.001376 47:0.010395 48:0.027285 54:8.5e-05 55:5e-06 58:0.000181 59:0.031205 60:0.000432 63:0.037109 64:0.168699 
1 1:0.300437 2:0.007008 5:0.00136 6:0.004816 7:1.1e-05 11:3.7e-05 17:0.000437 18:0.000261 21:0.000267 22:0.101819 23:0.036571 26:0.001931 27:0.130112 38:0.00016 39:0.000101 42:0.000677 43:0.412704 44:6.4e-05 47:0.000128 48:0.000464 59:2.7e-05 60:2.1e-05 63:1.1e-05 64:0.000576 
1 1:0.252186 2:0.232287 3:0.001922 4:6e-06 5:0.000491 6:0.074796 7:0.275922 8:0.001581 9:6e-06 11:0.036174 12:0.037329 16:0.000994 17:2.4e-05 18:3e-05 21:7.2e-05 22:0.001096 23:0.001036 24:4.8e-05 26:0.00018 27:0.00409 28:0.044485 30:6e-06 32:0.020892 38:3e-05 39:1.2e-05 42:6.6e-05 43:0.000335 44:0.001455 47:6e-05 48:0.008719 58:6e-06 59:3e-05 63:4.2e-05 64:0.003593 
1 1:0.083109 2:0.035488 3:0.000352 5:0.000395 6:0.018805 7:0.000917 8:0.000117 17:0.008192 18:0.008709 19:1.6e-05 21:0.005579 22:0.353472 23:0.023061 24:6.4e-05 26:0.000283 27:0.011499 28:0.000363 33:5e-06 37:6.9e-05 38:0.046864 39:0.018379 42:0.017637 43:0.184032 44:0.000693 47:3.2e-05 48:0.000368 54:1.1e-05 58:0.000128 59:0.098363 60:0.000779 63:0.007611 64:0.074608 
1 1:0.502924 2:0.0446 3:0.000612 4:2.8e-05 5:0.000404 6:0.022976 7:0.001048 8:1.6e-05 10:8.8e-05 11:0.000192 17:0.000788 18:0.00506 19:0.00046 20:0.000348 21:0.000296 22:0.046028 23:0.009988 24:0.001152 26:0.000824 27:0.0097 28:0.000524 31:0.000216 32:0.00044 38:0.001248 39:0.001784 40:0.00082 42:0.00066 43:0.04376 44:0.008364 47:0.000496 48:0.006336 59:0.002308 60:0.003568 63:0.001144 64:0.2808 
1 1:0.3803 2:0.037706 3:0.001622 4:0.000138 5:0.001622 6:0.025093 7:0.001586 8:0.000174 12:5.4e-05 16:2.4e-05 17:0.002078 18:0.001592 19:3e-05 20:1.8e-05 21:0.001562 22:0.148829 23:0.028186 24:0.000234 26:0.004072 27:0.033273 28:0.006216 32:0.000781 38:0.004607 39:0.000679 40:2.4e-05 42:0.002763 43:0.171982 44:0.014168 47:0.00048 48:0.01403 54:6e-06 58:2.4e-05 59:0.007081 60:0.000456 63:0.002565 64:0.105946 
1 1:0.467003 2:0.001424 3:5e-06 5:0.003333 6:0.003317 7:3.2e-05 9:0.000139 10:0.000224 11:0.000224 12:1.1e-05 14:5e-06 15:0.001499 16:0.001115 17:0.110475 18:0.0452 21:0.016709 22:0.186405 23:0.000235 25:1.6e-05 26:0.001509 27:0.001312 28:4.8e-05 30:7.5e-05 31:0.003205 32:0.008037 33:0.003829 34:0.000117 37:0.002485 38:0.021563 39:0.002752 41:5e-06 42:0.00664 43:0.01976 44:8.5e-05 46:1.1e-05 47:0.001093 48:0.024779 49:0.000133 50:6.4e-05 53:0.000197 54:0.000277 55:5e-06 57:5e-06 58:0.000139 59:0.001701 60:0.000725 62:4.3e-05 63:0.002011 64:0.060021 
1 1:0.416347 2:0.026443 3:0.009931 4:0.007408 5:0.009696 6:0.041547 7:0.009285 9:5e-06 10:5.3e-05 11:0.000139 12:5e-06 17:0.004155 18:0.000757 19:0.000469 20:0.000235 21:0.007781 22:0.08696 23:0.03136 24:0.000544 25:5e-06 26:0.001925 27:0.030427 28:0.000133 31:5e-06 32:1.1e-05 36:5e-06 37:0.000688 38:0.01344 39:0.000651 40:0.000325 41:0.000379 42:0.005765 43:0.122336 44:0.007008 47:0.00464 48:0.004064 53:6.9e-05 54:0.001771 57:0.000315 58:0.011371 59:0.006384 60:0.000603 61:1.1e-05 62:6.9e-05 63:0.010283 64:0.124197 
1 1:0.095392 2:0.017248 3:0.000843 4:4.3e-05 5:0.000848 6:0.011547 7:0.000336 8:5.9e-05 11:1.1e-05 12:2.7e-05 17:0.008304 18:0.002011 19:1.1e-05 20:1.1e-05 21:0.001029 22:0.315653 23:0.074944 24:3.7e-05 26:0.00088 27:0.016181 28:7.5e-05 32:2.1e-05 37:9.6e-05 38:0.003632 39:0.001429 41:1.6e-05 42:0.001563 43:0.270987 44:0.018272 47:0.002533 48:0.031381 58:5.3e-05 59:0.001093 60:0.000197 63:0.000725 64:0.122512 
1 1:0.193563 2:0.122251 3:0.013632 4:5e-06 5:0.000661 6:0.056213 7:0.162811 8:0.002789 10:9.6e-05 11:9.6e-05 12:0.001253 15:1.1e-05 17:0.002843 18:0.003275 19:4.8e-05 21:0.001184 22:0.063488 23:0.102661 24:0.00328 26:0.00048 27:0.017643 28:0.037909 31:3.7e-05 32:0.000832 33:0.000149 34:0.000128 35:5e-06 37:0.001115 38:0.004293 39:0.011008 40:7.5e-05 41:3.2e-05 42:0.001925 43:0.030133 44:0.050661 47:0.000533 48:0.015205 53:4.8e-05 54:0.000261 55:0.000128 58:0.000592 59:0.013931 60:0.003179 62:2.1e-05 63:0.013963 64:0.065552 
1 1:0.039963 2:0.107435 3:0.200635 4:0.02016 5:6.4e-05 6:0.03144 7:0.087525 8:0.006571 11:5e-06 12:1.1e-05 17:0.0196 18:0.00112 19:0.000219 20:0.001627 21:0.006299 22:0.039163 23:0.160075 24:0.058405 26:7.5e-05 27:0.043515 28:0.063243 32:1.1e-05 37:5e-06 38:0.006149 39:0.000245 40:0.000107 42:0.000405 43:0.018288 44:0.06984 47:3.2e-05 48:0.015381 58:2.1e-05 59:4.3e-05 60:1.6e-05 62:5e-06 63:8e-05 64:0.002224 
1 1:0.503813 2:0.218151 3:0.002488 4:0.000633 6:0.104229 7:0.071608 8:0.002506 11:5.4e-05 12:2.4e-05 22:0.01253 23:0.021211 24:5.4e-05 26:0.004584 27:0.025259 28:0.008361 32:1.8e-05 38:6e-06 42:0.000157 43:0.007916 44:0.003325 47:0.001114 48:0.005253 59:4.2e-05 63:0.00062 64:0.006042 
1 1:0.345984 2:0.025653 3:0.000139 4:4.3e-05 5:0.003925 6:0.067264 7:1.6e-05 8:2.7e-05 17:0.000864 18:5.9e-05 19:1.6e-05 21:0.005584 22:0.228789 23:0.009621 24:6.9e-05 25:0.007829 26:0.00128 27:0.012373 28:5e-06 29:2.7e-05 38:0.006949 39:0.000155 40:3.2e-05 41:0.007525 42:0.013109 43:0.118933 44:0.007109 45:0.013408 46:0.016789 47:0.001915 48:0.006933 58:0.000181 59:0.004235 60:0.000192 62:0.000395 63:0.005173 64:0.087397 
1 1:0.113211 2:0.051627 3:0.005589 5:0.001877 6:0.008341 7:0.00976 17:0.05584 18:0.063285 19:0.018379 21:0.010336 22:0.078661 23:0.379488 24:0.015627 26:4.3e-05 27:0.001184 28:0.000592 37:5e-06 38:0.003557 39:0.012571 40:0.015371 42:0.000811 43:0.013605 44:0.013749 47:0.000213 48:0.000544 59:0.000997 60:0.012453 63:0.000512 64:0.111771 
1 1:0.13272 2:0.115077 3:0.067387 5:0.000277 6:0.004347 7:8e-05 17:0.011077 18:0.010117 19:0.120752 20:0.032405 21:0.013611 22:0.101024 23:0.144912 24:0.000469 26:0.000363 27:0.024117 28:0.000795 33:0.000565 34:1.1e-05 36:5e-06 37:0.032069 38:0.005408 39:0.003701 40:0.000848 42:0.000821 43:0.0744 44:0.057749 47:1.6e-05 48:0.005387 59:0.002293 60:0.005616 63:0.001077 64:0.030501 
1 1:0.344568 2:0.153968 3:0.000751 5:0.000385 6:0.090252 7:0.032631 17:0.000517 18:0.000492 21:0.000972 22:0.143274 23:0.058114 26:0.000631 27:0.028284 38:0.000498 39:0.001464 42:0.000782 43:0.137224 44:0.000265 47:0.00029 48:0.000524 59:0.000259 60:3.8e-05 63:0.000196 64:0.003621 
1 1:0.46941 2:0.14056 3:0.003825 4:0.000386 5:0.000151 6:0.101187 7:0.017458 8:0.000675 11:0.000169 12:0.000482 17:0.000373 18:0.000139 21:0.000608 22:0.05844 23:0.041422 24:0.000169 26:7.8e-05 27:0.031211 28:0.032795 32:0.00509 38:0.002151 39:0.000873 42:0.00147 43:0.031741 44:0.003084 47:3e-05 48:0.017946 59:0.000416 60:2.4e-05 63:0.001542 64:0.036096 
1 1:0.16392 2:0.134139 3:0.002709 4:0.000267 5:0.00184 6:0.125392 7:0.027728 8:0.001344 10:3.7e-05 11:0.002587 12:0.000789 17:0.002912 18:0.001717 21:0.001109 22:0.068112 23:0.028123 24:5e-06 26:0.000875 27:0.131104 28:0.020096 33:1.6e-05 37:3.7e-05 38:0.000875 39:0.000331 42:0.00056 43:0.043648 44:0.104427 47:0.00048 48:0.076389 53:4.8e-05 55:5e-06 59:0.000315 60:0.000331 63:0.003024 64:0.054709 
1 1:0.255787 2:0.316656 3:0.000891 5:7.5e-05 6:0.074048 7:0.107259 8:0.00056 11:0.001019 12:0.002656 16:5e-06 17:0.000192 18:0.000741 21:2.7e-05 22:0.011605 23:0.030389 24:0.000176 27:0.009637 28:0.089232 32:3.7e-05 38:3.7e-05 39:2.7e-05 42:1.1e-05 43:0.000411 44:0.080485 48:0.017621 59:1.6e-05 60:5e-06 64:0.000395 
1 1:0.225589 2:0.173024 5:0.000325 6:0.140139 7:0.007291 11:1.1e-05 17:0.005392 18:0.001141 21:0.001627 22:0.177989 23:0.074235 26:0.001648 27:0.037093 28:0.000101 37:5e-06 38:0.001269 39:0.000181 42:0.001712 43:0.052027 44:0.002592 47:0.000779 48:0.002192 59:0.003296 60:0.000459 63:0.002069 64:0.087813 
1 1:0.299829 2:0.105147 3:9.1e-05 5:0.000992 6:0.026037 7:0.000181 10:0.000155 11:0.000363 12:9.6e-05 16:5e-06 17:0.009579 18:0.000453 19:1.6e-05 20:5e-06 21:0.009077 22:0.112875 23:0.013285 24:0.00408 26:0.004709 27:0.010176 28:0.00056 31:4.8e-05 32:0.004533 37:1.6e-05 38:0.020939 39:0.000757 40:0.000437 42:0.012581 43:0.11656 44:0.011435 47:0.007557 48:0.006304 58:0.000219 59:0.008955 60:0.000811 63:0.012597 64:0.198539 
1 1:0.645417 2:0.098336 5:0.000288 6:0.073069 7:1.8e-05 17:0.000138 18:1.2e-05 21:0.00027 22:0.09821 23:0.000919 26:0.000138 27:0.000883 28:1.2e-05 38:0.000853 39:9e-05 42:0.000859 43:0.020523 44:0.000925 47:0.000228 48:0.002559 59:0.002384 60:0.000246 63:0.001441 64:0.05218 
1 1:0.151659 2:0.183072 3:0.001563 5:0.001392 6:0.110037 7:0.020507 10:1.6e-05 11:1.1e-05 17:0.000331 18:4.8e-05 21:0.001589 22:0.080299 23:0.104725 26:0.003861 27:0.144667 28:0.000629 31:5e-06 32:1.1e-05 37:6.4e-05 38:0.000155 39:1.6e-05 42:0.004475 43:0.101312 44:0.002336 46:5e-06 47:0.008384 48:0.006405 58:5e-06 59:0.001499 60:8e-05 63:0.006075 64:0.064768 
1 1:0.167611 2:0.150336 3:0.000757 5:3.2e-05 6:0.022821 7:0.043157 8:0.000133 11:0.000517 12:0.001221 17:0.000171 18:0.000235 19:1.6e-05 21:9.6e-05 22:0.023344 23:0.069968 24:0.000539 25:1.6e-05 26:0.000197 27:0.067669 28:0.202597 32:1.1e-05 37:5e-06 38:0.000192 39:0.000267 40:2.7e-05 41:4.8e-05 42:0.000379 43:0.035579 44:0.116736 46:1.1e-05 47:0.000112 48:0.090085 57:5e-06 58:3.7e-05 59:0.000133 60:0.000133 61:5e-06 62:2.7e-05 63:0.000117 64:0.004656 
1 1:0.020395 2:0.047984 3:0.00048 4:6.4e-05 5:0.000389 6:0.101477 7:0.091835 10:1.1e-05 11:5.9e-05 12:1.1e-05 17:0.001003 18:0.000395 19:0.000165 20:2.7e-05 21:0.001205 22:0.063701 23:0.077136 24:2.7e-05 26:0.00128 27:0.131387 28:1.6e-05 33:5e-06 37:0.000448 38:0.002304 39:0.000299 40:1.1e-05 41:0.000165 42:0.001867 43:0.26968 44:0.006405 46:5e-06 47:0.001552 48:0.002245 53:2.7e-05 57:6.9e-05 58:0.000272 59:0.020112 60:0.000389 63:0.010336 64:0.144763 
1 1:0.265861 2:0.030496 3:0.000571 5:0.001856 6:0.011125 7:0.006112 11:1.6e-05 17:0.065024 18:0.033259 19:0.001307 20:5e-06 21:0.040347 22:0.060453 23:0.078533 25:0.000656 26:0.000405 27:0.099483 28:1.1e-05 34:2.1e-05 37:0.000373 38:0.003051 39:0.001147 40:1.1e-05 41:7.5e-05 42:0.000299 43:0.128059 44:0.000757 47:5.9e-05 48:0.000107 54:1.6e-05 55:1.6e-05 59:0.001691 60:0.002149 63:0.000235 64:0.166416 
1 1:0.342443 2:0.043115 3:0.000165 5:0.002395 6:0.025984 7:0.000272 11:1.6e-05 17:0.001157 18:0.000629 19:5e-06 21:0.006475 22:0.237392 23:0.010981 24:5e-06 26:0.001467 27:0.009072 28:0.000267 31:5e-06 32:4.3e-05 37:3.2e-05 38:0.003573 39:0.000944 42:0.005344 43:0.060181 44:0.010421 47:0.009168 48:0.009392 59:0.004032 60:0.000288 63:0.003616 64:0.21112 
1 1:0.16864 2:0.101515 3:0.000171 5:4.3e-05 6:0.117936 7:0.032677 8:0.000187 11:0.001035 12:0.001211 17:0.020965 18:0.000896 19:2.7e-05 21:0.009275 22:0.115707 23:0.062165 24:9.1e-05 26:7.5e-05 27:0.015989 28:0.004912 32:0.000123 37:3.7e-05 38:0.002299 39:0.000421 42:0.000661 43:0.303301 44:0.007888 47:3.7e-05 48:0.001755 54:0.000277 58:0.000875 59:0.002304 60:0.000251 63:0.000821 64:0.025435 
1 1:0.182856 2:0.10942 3:0.000457 5:0.002282 6:0.047793 7:0.001495 9:6.4e-05 10:0.000319 17:0.005745 18:0.0125 19:0.000229 21:0.002165 22:0.313867 23:0.052867 24:6.9e-05 25:1.1e-05 26:0.001872 27:0.017894 28:9.6e-05 31:1.1e-05 33:1.6e-05 34:9e-05 37:2.7e-05 38:0.007197 39:0.002165 40:5e-06 42:0.00609 43:0.075186 44:0.001479 46:5e-06 47:0.001181 48:0.000782 54:1.1e-05 55:5e-06 58:1.6e-05 59:0.014729 60:0.000351 63:0.054899 64:0.083755 
1 1:0.097357 2:0.039516 3:0.041361 4:1.1e-05 5:0.00107 6:0.02902 7:0.014861 8:8.5e-05 11:0.000583 12:6e-06 17:0.008339 18:0.00248 19:0.005746 20:1.1e-05 21:0.117766 22:0.107525 23:0.080589 24:0.005174 26:0.001279 27:0.102911 28:0.003148 32:0.000136 33:1.1e-05 37:0.006975 38:0.017369 39:0.002757 40:0.001432 41:0.000311 42:0.016525 43:0.214314 44:0.016944 47:0.000911 48:0.016825 53:1.1e-05 58:0.005905 59:0.008928 60:0.000674 63:0.006403 64:0.024729 
1 1:0.067653 2:0.180475 3:0.068981 4:0.000672 5:3.2e-05 6:0.049499 7:0.048149 8:0.001824 11:0.000357 12:0.003573 17:0.0028 18:0.001109 19:0.000165 21:0.000421 22:0.021083 23:0.114528 24:0.001429 26:5e-06 27:0.125829 28:0.026928 32:0.001403 38:0.000235 39:0.000715 40:5e-06 42:9.6e-05 43:0.016704 44:0.037115 47:1.6e-05 48:0.043211 59:0.000629 60:0.000213 63:0.000139 64:0.184005 
1 1:0.337819 2:0.100197 3:0.105413 4:4.8e-05 5:0.004907 6:0.017893 7:0.00048 8:1.1e-05 10:5e-06 12:5e-06 17:0.000848 18:0.000304 19:0.004939 20:0.000149 21:0.00168 22:0.089243 23:0.027221 24:0.002571 26:0.000779 27:0.011941 28:0.000176 31:0.000128 32:0.000107 38:0.000901 39:0.00072 40:0.000848 42:0.001077 43:0.065008 44:0.02264 47:0.000411 48:0.03728 59:0.004453 60:0.000219 63:0.003653 64:0.155925 
1 1:0.028907 2:0.003061 3:0.129621 4:0.079824 5:0.000107 6:0.001563 7:0.007952 8:0.007957 17:0.028213 18:0.001072 19:2.7e-05 21:4.8e-05 22:0.038101 23:0.02464 24:3.7e-05 26:0.000357 27:0.01616 38:0.000725 39:0.001845 42:0.000192 43:0.284576 44:0.049589 47:0.001632 48:0.087568 59:0.070843 60:0.002507 63:0.042411 64:0.090464 
1 1:0.118485 2:0.168528 3:0.00952 4:0.000544 5:0.001131 6:0.065403 7:0.188864 8:0.000864 9:0.000528 10:0.000304 11:0.0024 12:0.00056 16:1.1e-05 17:0.001413 18:0.003381 19:0.031552 21:0.001771 22:0.026011 23:0.060699 24:0.000421 25:0.003413 26:0.002939 27:0.043557 28:0.006283 29:5e-06 31:4.8e-05 32:0.000107 33:3.7e-05 34:2.7e-05 37:0.002501 38:0.003525 39:0.00112 40:0.000261 41:0.000176 42:0.001344 43:0.045019 44:0.015627 46:3.7e-05 47:0.005819 48:0.033211 54:5e-06 57:0.000133 58:0.000224 59:0.000581 60:0.000656 62:5e-06 63:0.000395 64:0.150555 
1 1:0.185024 2:0.025973 3:0.006251 5:0.001835 6:0.017312 7:0.0016 8:3.7e-05 10:2.1e-05 11:0.000203 12:1.1e-05 17:0.003104 18:0.001931 19:0.000213 21:0.004432 22:0.090005 23:0.019125 24:0.000965 26:0.001595 27:0.034965 28:0.000256 31:7.5e-05 32:3.2e-05 33:0.000176 37:0.001093 38:0.004443 39:0.001205 40:0.000213 41:5e-06 42:0.002725 43:0.129467 44:0.010421 47:0.007579 48:0.087317 53:5e-06 58:3.7e-05 59:0.004341 60:0.000869 63:0.011248 64:0.343888 
1 1:0.187501 2:0.291131 3:0.02679 5:0.001906 6:0.157042 7:0.146998 8:4.4e-05 10:1e-05 11:5e-06 12:1e-05 17:0.000198 18:0.000267 19:5.4e-05 21:0.001032 22:0.041407 23:0.051951 24:5e-06 26:0.001185 27:0.020706 28:5e-06 38:0.000114 39:0.000242 40:5e-06 42:0.000943 43:0.049575 44:0.003457 46:1e-05 47:0.001057 48:0.00363 59:0.000104 60:0.000286 63:0.000672 64:0.011659 
1 1:0.034943 2:0.079334 3:0.009986 5:7e-06 6:0.007174 7:0.148244 8:0.016091 11:0.002153 12:0.024455 17:7.1e-05 18:2.8e-05 22:0.012698 23:0.01971 24:7e-06 27:0.024462 28:0.007613 32:0.000361 38:9.9e-05 39:0.000163 42:7e-06 43:0.187974 44:0.139986 47:0.000135 48:0.070482 59:5e-05 60:0.000234 63:0.000135 64:0.213399 
1 1:0.091035 2:0.04712 3:0.00728 5:0.005963 6:0.033317 7:0.032171 9:5e-06 10:0.000411 11:0.000155 12:1.6e-05 14:1.6e-05 15:2.1e-05 17:0.01304 18:0.00112 19:0.008747 21:0.012331 22:0.070283 23:0.058693 24:0.001403 26:0.001776 27:0.049499 28:0.010549 30:1.6e-05 31:0.004928 32:0.001355 33:1.6e-05 34:5e-06 37:0.000187 38:0.005824 39:0.001408 40:1.6e-05 42:0.001648 43:0.205243 44:0.080411 47:0.026336 48:0.111973 54:5.9e-05 55:3.2e-05 58:3.7e-05 59:0.001115 60:0.001131 63:0.000672 64:0.11264 
1 1:0.072069 2:0.028709 3:3.2e-05 6:0.01608 7:0.012688 17:6.9e-05 18:0.000347 22:0.042283 23:0.216235 24:0.004672 26:5e-06 27:0.108245 28:0.113717 39:2.1e-05 43:0.072763 44:0.308795 48:0.002715 60:5e-06 64:0.000549 
1 1:0.020949 2:0.044608 5:0.002037 6:0.124965 7:2.1e-05 17:0.000379 18:0.000112 21:0.002896 22:0.170341 23:0.118203 26:0.000171 27:0.142267 28:3.2e-05 38:1.6e-05 42:3.7e-05 43:0.233568 44:0.113733 47:0.000155 48:0.021141 59:1.6e-05 60:1.6e-05 63:6.4e-05 64:0.004272 
1 1:0.681147 2:0.013104 5:0.002021 6:0.012085 7:0.000837 11:5.3e-05 12:3.2e-05 17:0.032789 18:0.005195 21:0.024507 22:0.072261 23:0.002731 26:0.000581 27:0.001253 28:0.00016 32:7.5e-05 37:0.001109 38:0.010155 39:0.001088 42:0.008357 43:0.015931 44:0.000805 47:0.000208 48:0.0004 57:5e-06 58:0.000779 59:0.002885 60:0.000411 63:0.003115 64:0.10592 
1 1:0.096677 2:0.004347 3:0.077141 4:0.012341 5:0.005157 6:0.016405 7:0.006571 8:0.004192 9:1.6e-05 10:0.004107 11:0.001285 12:0.004827 15:4.3e-05 16:0.00016 17:0.005541 18:0.001349 19:0.000656 20:0.000331 21:0.012592 22:0.184421 23:0.015024 24:0.002155 25:1.6e-05 26:0.007173 27:0.022677 28:0.035323 31:0.000955 32:0.00256 33:7.5e-05 34:7.5e-05 37:0.000336 38:0.011056 39:0.002181 40:0.000683 41:5.9e-05 42:0.008219 43:0.079643 44:0.084971 47:0.002101 48:0.061307 53:4.8e-05 54:2.1e-05 55:5.3e-05 57:1.1e-05 58:0.000667 59:0.006421 60:0.001851 62:5.3e-05 63:0.006448 64:0.20968 
1 1:0.048257 2:0.022507 3:0.000209 4:6e-06 5:0.000257 6:0.004537 7:0.000496 8:6e-06 11:1.2e-05 17:0.006209 18:0.00031 19:4.8e-05 21:0.018322 22:0.179301 23:0.078496 26:0.004036 27:0.087737 33:0.000143 37:0.181063 38:0.030848 39:0.000412 41:1.2e-05 42:0.048907 43:0.280621 44:0.0008 47:0.000299 48:0.000376 53:0.000245 54:0.000209 57:1.2e-05 58:0.00123 59:0.002155 60:1.8e-05 63:0.000991 64:0.000913 
1 1:0.431019 2:0.02568 5:0.002261 6:0.016309 7:0.000448 8:0.000133 12:1.6e-05 17:0.004875 18:0.000459 21:0.003237 22:0.225227 23:0.028304 24:6.9e-05 26:2.1e-05 27:0.012901 28:0.001979 38:0.021344 39:0.006987 42:0.001541 43:0.187509 44:0.014496 47:5e-06 48:0.006053 59:0.000528 60:0.002368 64:0.006229 
1 1:0.144213 2:0.135349 3:0.003269 5:0.000997 6:0.020203 7:0.005872 10:1.6e-05 11:0.000107 17:0.003803 18:0.001163 19:5.3e-05 21:0.006789 22:0.088544 23:0.1116 24:1.1e-05 25:1.1e-05 26:0.003088 27:0.077803 28:0.000283 31:5.9e-05 32:0.000309 37:0.000267 38:0.003819 39:0.001701 40:1.1e-05 41:8e-05 42:0.019307 43:0.173168 44:0.176053 47:0.004677 48:0.001189 53:6.9e-05 54:0.000245 57:0.000149 58:0.000869 59:0.001131 60:6.9e-05 62:0.00024 63:0.008821 64:0.004592 
1 1:0.160352 2:0.014901 3:5e-06 5:9.1e-05 6:0.007243 7:0.019483 8:0.000139 10:0.000192 11:0.000587 12:0.000869 16:1.1e-05 17:0.012197 18:0.000565 21:0.000768 22:0.105387 23:0.031712 24:0.001739 26:0.001072 27:0.018907 28:0.083792 31:4.8e-05 32:0.00168 37:0.001024 38:0.002891 39:0.001019 40:5e-06 41:0.00016 42:0.005477 43:0.34304 44:0.005339 47:0.001467 48:0.003888 54:1.1e-05 55:5e-06 58:0.000283 59:0.012592 60:0.001648 63:0.004928 64:0.154485 
1 1:0.221109 2:0.224347 3:1.1e-05 5:0.001861 6:0.094384 7:0.002581 17:0.003403 18:0.000757 19:5e-06 21:0.003456 22:0.172 23:0.000171 26:9.1e-05 27:5.3e-05 37:8.5e-05 38:0.006752 39:0.0004 41:2.7e-05 42:0.009253 43:0.208875 44:7.5e-05 47:9.6e-05 48:3.2e-05 59:0.041232 60:0.000416 63:0.002704 64:0.005824 
1 1:0.301755 2:0.334085 3:0.078453 4:0.000128 5:0.000213 6:0.029344 7:0.058064 8:0.006475 10:5e-06 11:0.011765 12:0.006437 16:0.001269 17:0.000165 18:0.001195 19:0.000267 20:5e-06 21:1.6e-05 22:0.0192 23:0.026176 24:0.000176 26:0.000283 27:0.027109 28:0.051835 32:0.04328 38:0.000112 39:0.000197 42:4.8e-05 43:0.001291 44:0.000464 48:0.000187 
1 1:0.56607 2:0.19224 3:0.00315 4:8.5e-05 5:0.0009 6:0.07679 7:0.0145 8:0.00223 10:0.00017 11:0.001895 12:0.002605 14:5e-06 15:6.5e-05 16:0.000545 17:0.00016 18:0.00052 21:0.000335 22:0.055445 23:0.013755 24:6.5e-05 26:0.001055 27:0.01217 28:0.002375 31:0.00212 32:0.00346 38:0.00049 39:0.00022 42:0.00071 43:0.014175 44:0.003405 46:5e-06 47:0.001835 48:0.01313 59:7.5e-05 60:3.5e-05 63:0.00029 64:0.01292 
1 1:0.501183 2:0.044691 3:0.007207 4:6e-06 5:0.000535 6:0.025285 7:0.000318 8:0.000156 12:1.8e-05 17:0.033592 18:0.002162 19:0.157459 20:0.015375 21:0.006168 22:0.052354 23:0.045814 24:0.022517 26:0.000288 27:0.013688 28:0.001285 38:0.00015 39:0.000637 40:0.002685 42:0.00018 43:0.020523 44:0.025526 47:0.000204 48:0.011904 59:7.2e-05 60:0.000595 63:0.000336 64:0.007087 
1 1:0.240947 2:0.064292 3:0.006864 4:0.00016 5:0.009 6:0.027272 7:0.02579 8:0.002255 9:0.000107 10:0.002963 11:0.005638 12:0.006955 15:0.001099 16:0.000782 17:0.031366 18:0.000177 19:1.6e-05 20:0.000292 21:0.011465 22:0.030683 23:0.007477 24:0.000724 26:0.003037 27:0.018428 28:0.006687 31:0.001403 32:0.006029 33:0.000597 34:2.1e-05 36:2.1e-05 37:0.002288 38:0.012951 39:6.2e-05 40:0.000263 42:0.006556 43:0.0203 44:0.006136 47:0.001333 48:0.024798 54:0.001004 56:0.000128 58:0.004305 59:0.008959 60:0.000416 63:0.006267 64:0.391687 
1 1:0.42832 2:0.169125 3:0.001536 5:0.001467 6:0.114299 7:0.026427 8:0.017856 10:5e-06 11:0.000496 12:0.010096 16:5e-06 17:0.000549 18:0.001824 19:0.000133 21:0.000267 22:0.099728 23:0.014517 24:0.001829 25:5e-06 26:9.1e-05 27:0.005888 28:0.022277 32:0.001152 33:5e-06 38:0.000256 39:0.000368 40:0.000117 42:6.9e-05 43:0.003179 44:0.003797 47:1.1e-05 48:0.008613 59:0.000283 60:0.000315 63:5.3e-05 64:0.06504 
1 1:0.353781 17:0.320571 18:0.018379 22:0.073483 38:0.024165 39:0.003045 43:0.113408 59:0.030363 60:0.004 63:1.1e-05 64:0.058795 
1 1:0.079925 2:0.030917 3:0.000651 4:9.1e-05 5:0.003872 6:0.085157 7:0.024587 17:6.4e-05 18:5.9e-05 19:6.4e-05 20:2.1e-05 21:0.036528 22:0.186251 23:0.04664 26:0.000821 27:0.121333 28:0.000768 38:0.000661 39:0.000155 40:5e-06 42:0.001141 43:0.191349 44:0.035696 47:0.000709 48:0.010384 59:0.013365 60:0.001136 63:0.015648 64:0.112 
1 1:0.187319 2:0.129272 3:0.001391 5:0.000907 6:0.063379 7:0.001469 10:4.8e-05 11:6e-06 17:0.000304 18:0.000281 21:0.000651 22:0.135206 23:0.080084 24:6e-06 26:0.0008 27:0.060758 28:0.000149 38:0.003445 39:0.000227 42:0.002842 43:0.304687 44:0.007307 47:0.000233 48:0.006537 59:0.004012 60:1.2e-05 63:0.002758 64:0.00591 
1 1:0.238867 2:0.069952 3:0.000734 5:0.000287 6:0.163197 7:0.16416 8:5e-06 11:0.026383 12:0.015676 16:7.4e-05 17:8e-05 18:6.9e-05 21:0.00017 22:0.040314 23:0.024383 25:1.1e-05 26:0.000516 27:0.052473 28:0.027867 32:0.00083 38:4.3e-05 39:3.7e-05 41:1.1e-05 42:0.000202 43:0.00617 44:0.002723 47:0.000234 48:0.007229 59:0.000144 60:2.1e-05 63:0.0005 64:0.156638 
1 1:0.584789 2:0.196379 3:0.004347 4:5e-06 6:0.008416 7:0.020507 8:0.000363 17:5.9e-05 18:0.005845 19:0.000107 21:5e-06 22:0.043477 23:0.040576 24:0.000987 26:1.1e-05 27:0.001243 28:0.000805 34:1.1e-05 38:0.000117 39:0.006059 40:7.5e-05 42:1.1e-05 43:0.015915 44:0.016128 47:2.1e-05 48:0.0008 56:5e-06 59:0.000544 60:0.004635 63:1.1e-05 64:0.047749 
1 1:0.018155 2:0.05888 3:0.001275 4:0.00032 5:0.003125 6:0.090059 7:0.075387 8:0.002523 10:0.000171 11:0.001397 12:0.001488 17:5e-06 19:3.7e-05 20:0.000133 21:4.8e-05 22:0.080128 23:0.037776 24:0.000869 26:0.003413 27:0.134272 28:0.030235 31:5e-06 32:1.1e-05 38:0.000107 39:5e-06 40:1.1e-05 42:0.000187 43:0.075808 44:0.070619 47:0.003867 48:0.118843 59:8e-05 60:2.1e-05 63:0.000379 64:0.190363 
1 1:0.815313 2:0.031916 5:1.2e-05 6:0.063337 7:0.001773 10:6e-06 11:4.8e-05 15:2.4e-05 16:2.4e-05 17:0.009403 18:0.001427 21:0.000752 22:0.016824 23:0.008579 26:6e-06 27:0.006806 28:6e-06 31:6e-06 32:2.4e-05 33:0.002585 34:3.6e-05 37:0.001057 38:0.000955 39:1.8e-05 41:0.000257 42:0.000418 43:0.000979 44:1.2e-05 46:6e-06 47:4.8e-05 48:1.2e-05 49:0.001099 50:6e-06 53:0.001349 54:0.000364 57:0.000633 58:0.000878 59:0.00086 60:1.8e-05 61:2.4e-05 62:0.001755 63:0.002501 64:0.027845 
1 1:0.06991 2:0.003526 3:1.8e-05 5:0.000865 6:0.005958 7:0.000901 17:0.01209 18:0.000372 21:0.011958 22:0.167045 23:0.00997 24:0.000138 26:0.001033 27:0.005039 28:0.000901 33:1.2e-05 37:0.004156 38:0.060925 39:0.003141 42:0.034955 43:0.46427 44:0.005465 46:6e-06 47:0.009628 48:0.016186 53:5.4e-05 54:0.000234 58:0.000829 59:0.026378 60:8.4e-05 63:0.015802 64:0.06815 
1 1:0.039525 2:0.023653 5:0.000272 6:0.105803 7:0.018965 17:0.002629 18:0.000299 21:0.008117 22:0.268208 23:0.08952 26:0.001163 27:0.170224 28:0.001061 37:0.000725 38:0.008133 39:0.002715 42:0.006352 43:0.164832 44:0.001387 47:0.000208 48:0.001595 54:5e-06 58:6.9e-05 59:0.015344 60:0.000331 63:0.011355 64:0.057509 
1 1:0.109264 2:0.029051 3:0.001968 4:0.0044 5:0.004475 6:0.026544 7:0.018949 8:0.000741 9:4.3e-05 10:0.000128 11:0.001595 12:0.002667 14:5e-06 15:3.7e-05 16:1.1e-05 17:0.017216 18:0.001285 19:7.5e-05 20:3.7e-05 21:0.003755 22:0.127104 23:0.036229 24:0.000405 25:2.7e-05 26:0.031131 27:0.044741 28:0.037323 30:5e-06 31:7.5e-05 32:0.013509 37:0.001115 38:0.006805 39:0.004848 40:9.1e-05 41:1.1e-05 42:0.028667 43:0.314928 44:0.005915 46:5e-06 47:0.004592 48:0.032176 53:3.2e-05 54:2.7e-05 58:0.0008 59:0.002811 60:0.001504 63:0.003776 64:0.079104 
1 1:0.668264 2:0.044547 5:0.00997 6:0.011423 17:0.008258 18:0.005574 21:0.01194 22:0.240024 
1 1:0.054341 2:0.064912 3:0.005637 4:0.000779 5:1.6e-05 6:0.037328 7:0.046805 8:0.001072 11:0.003248 12:0.000395 16:1.1e-05 17:0.002757 18:0.001653 19:9.1e-05 21:0.000112 22:0.064112 23:0.075536 24:0.009125 26:0.000165 27:0.117189 28:0.017072 32:0.000272 38:6.4e-05 39:0.000512 40:3.2e-05 42:1.1e-05 43:0.185269 44:0.125573 47:0.000107 48:0.099216 59:1.6e-05 60:0.00016 64:0.086411 
1 1:0.152901 2:0.015225 3:0.000324 5:0.000288 6:0.013063 7:0.002721 17:0.000378 18:0.00018 19:0.000378 20:0.000577 21:9e-05 22:0.10582 23:0.122937 24:0.000252 26:0.000234 27:0.204721 28:0.000198 38:0.000973 39:0.000252 40:0.000505 42:0.00045 43:0.156234 44:0.019964 47:0.000414 48:0.004288 59:0.00164 60:0.000126 63:0.001279 64:0.193586 
1 1:0.218656 2:0.155915 3:0.003301 4:5e-06 5:0.000459 6:0.022005 7:0.018091 8:5e-06 11:5e-06 12:5e-06 17:0.009579 18:0.002203 19:0.000192 20:0.00016 21:0.00448 22:0.116283 23:0.039621 24:0.000885 26:0.002779 27:0.019573 28:0.000875 31:3.2e-05 32:0.000507 33:0.000117 34:7.5e-05 35:2.1e-05 37:1.6e-05 38:0.007984 39:0.001957 40:0.000213 42:0.018453 43:0.220091 44:0.00704 47:0.000315 48:0.004075 49:5e-06 54:4.3e-05 55:4.8e-05 58:5e-06 59:0.010032 60:0.003115 63:0.008576 64:0.102203 
1 1:0.061083 2:0.005573 5:0.087045 6:0.053536 7:3.2e-05 9:3.2e-05 10:0.007851 11:3.7e-05 17:0.001301 18:0.001765 21:0.001488 22:0.156048 23:0.168747 26:0.020491 27:0.047659 28:0.000731 31:5e-06 32:1.1e-05 38:0.0012 39:0.0112 42:0.000976 43:0.214928 44:0.069557 47:0.000171 48:0.067397 59:0.000128 60:0.006544 63:0.000112 64:0.014352 
1 1:0.074738 2:0.079834 3:5e-06 5:0.000176 6:0.026241 7:0.000834 17:0.015428 18:0.000754 21:0.001588 22:0.187545 23:0.061957 26:0.003241 27:0.081251 28:0.000636 37:3.2e-05 38:0.005706 39:0.001193 42:0.002925 43:0.374118 44:0.003417 47:0.000294 48:0.001476 59:0.001684 60:0.000267 63:0.000866 64:0.073791 
1 1:0.064165 2:0.051563 3:0.001675 5:0.0008 6:0.110453 7:0.001024 17:0.000277 18:8.5e-05 19:0.000555 21:0.000981 22:0.522208 23:0.038629 24:2.7e-05 26:0.015477 27:0.039771 28:5e-06 38:0.000581 39:5.3e-05 42:0.008155 43:0.143035 44:3.7e-05 47:3.2e-05 58:5e-06 59:0.000181 60:5e-06 63:9.1e-05 64:0.000128 
1 1:0.246337 2:0.00612 3:0.000512 5:0.001392 6:0.030669 7:0.000819 8:1.2e-05 11:0.000205 17:0.004042 18:0.000307 19:7.8e-05 21:0.001639 22:0.287572 23:0.019548 24:1.2e-05 26:0.00162 27:0.038898 28:0.000102 32:6e-06 37:0.000163 38:0.010771 39:0.00097 42:0.005554 43:0.185867 44:0.00912 47:0.00088 48:0.03044 54:6e-06 58:0.000169 59:0.011663 60:0.000542 63:0.003855 64:0.100108 
1 1:0.118016 2:0.003349 3:0.015115 4:2.7e-05 5:0.001877 6:0.013531 7:0.011232 8:0.000208 17:0.00704 18:0.000101 19:0.000197 20:9.1e-05 21:0.010112 22:0.097941 23:0.033573 24:0.000187 26:0.000709 27:0.092533 28:0.000432 37:0.000512 38:0.015253 39:0.000155 40:0.000123 41:1.1e-05 42:0.006309 43:0.274475 44:0.088325 47:0.001365 48:0.052037 53:5e-06 54:1.1e-05 57:2.7e-05 58:0.000608 59:0.002672 60:0.000368 62:0.000101 63:0.001387 64:0.149984 
1 1:0.101832 2:0.216493 3:0.040509 4:8e-06 5:0.00012 6:0.013764 7:0.041311 8:0.006325 11:0.000232 12:0.010196 17:0.03392 18:0.004798 19:0.000212 20:8e-06 21:0.000886 22:0.008361 23:0.035752 24:0.002365 26:0.0001 27:0.049291 28:0.016277 32:0.000104 38:0.000277 39:0.000232 40:7.6e-05 42:0.000417 43:0.028052 44:0.021639 47:6.4e-05 48:0.174962 60:2.8e-05 64:0.191391 
1 1:0.063072 2:0.123477 3:0.009936 4:1.1e-05 5:0.000213 6:0.087776 7:0.046251 8:0.000256 10:5e-06 11:0.000245 12:0.000165 17:0.000197 18:0.000133 19:0.000107 20:1.1e-05 21:0.000347 22:0.029989 23:0.171376 24:0.000139 26:0.000112 27:0.230432 28:0.060565 32:0.010795 33:1.1e-05 37:0.000267 38:0.000213 39:0.000128 40:4.8e-05 42:8e-05 43:0.05112 44:0.084736 47:5e-06 48:0.020667 54:1.1e-05 58:1.6e-05 59:6.4e-05 60:2.7e-05 63:2.7e-05 64:0.006971 
-0.2782186437110503 1:0.452789 2:0.045333 3:0.03981 5:0.011272 6:0.014196 7:0.012398 8:3.7e-05 11:3.1e-05 17:0.025755 18:0.004826 19:0.000917 21:0.018153 22:0.118135 23:0.017584 24:0.003156 26:0.001872 27:0.002043 28:0.000312 33:4.9e-05 37:1.8e-05 38:0.007131 39:0.001205 40:0.000116 42:0.005645 43:0.145388 44:0.001853 47:0.003835 48:0.000361 59:0.006612 60:0.000147 63:0.035187 64:0.023835 
-0.2316591810911921 1:0.062091 2:0.003387 5:0.00024 6:0.033936 7:0.002789 11:2.1e-05 17:0.004123 18:3.2e-05 21:0.006965 22:0.260597 23:0.049467 26:0.000544 27:0.075291 28:0.005861 32:1.1e-05 37:1.6e-05 38:0.019131 39:1.6e-05 42:0.022688 43:0.083179 44:0.077707 47:0.000149 48:0.095995 58:5e-06 59:0.002437 60:5e-06 63:0.002187 64:0.191131 
-0.1401785646231155 1:0.137866 2:0.043725 5:0.005776 6:0.041008 7:0.004762 10:0.002667 11:0.00158 14:6e-06 15:0.001188 16:0.000196 17:0.004258 18:0.002768 19:6e-06 21:0.001188 22:0.064303 23:0.039031 26:0.001384 27:0.03302 28:0.001983 31:0.003384 32:0.008695 38:0.005518 39:0.000779 42:0.001933 43:0.041182 44:0.024807 47:0.002034 48:0.106644 59:0.00665 60:0.000896 63:0.001367 64:0.409401 
-0.29210388429652 1:0.321798 2:0.128826 5:0.002368 6:0.137271 7:4e-06 17:0.000733 18:0.000211 21:0.000457 22:0.257927 23:0.015968 26:0.001134 27:0.003194 38:0.004628 39:4.5e-05 42:0.012591 43:0.055032 59:0.019344 60:4e-06 63:0.032194 64:0.006271 
-0.06760688736965341 1:0.421413 2:0.184371 3:0.357108 4:6.6e-05 5:6.6e-05 6:0.003587 7:0.003042 8:6e-06 18:1.8e-05 19:6e-06 22:0.002108 23:0.008108 24:0.000461 26:3e-05 27:0.002431 28:0.007611 39:6e-06 43:0.000228 44:0.008419 48:0.000707 64:0.00021 
-0.001414945688055939 1:0.084853 2:0.035915 3:0.005013 4:0.0012 5:0.016107 6:0.08912 7:0.011957 8:0.004816 11:1.1e-05 12:0.000619 17:0.020709 18:0.002219 19:0.002885 20:3.7e-05 21:0.075776 22:0.456219 23:0.023755 24:0.006416 26:0.00064 27:0.020027 28:0.05344 32:0.000128 37:1.1e-05 38:0.010549 39:0.000256 40:3.2e-05 42:0.001872 43:0.031456 44:0.006555 47:3.2e-05 48:0.004715 59:0.000448 60:0.000213 63:0.000363 64:0.031637 
-1 1:0.431982 2:0.203333 3:0.006198 5:3e-05 6:0.059514 7:0.056138 8:0.001165 11:6e-06 12:0.000787 17:0.002204 18:0.003099 19:0.004168 21:7.2e-05 22:0.030054 23:0.074108 24:0.000511 26:0.000108 27:0.009652 28:0.014396 32:0.000258 38:1.8e-05 39:0.00433 40:0.000132 42:0.000288 43:0.047135 44:0.012883 47:0.003093 48:0.003153 59:9.6e-05 60:0.000847 63:0.012216 64:0.018024 
-0.8139727257388188 1:0.587525 2:0.145829 3:0.005557 4:0.000171 5:0.002251 6:0.100411 7:0.03192 8:0.001424 10:5e-06 11:0.000283 12:0.000891 17:5e-06 18:1.1e-05 21:1.6e-05 22:0.020491 23:0.032096 24:0.003947 26:1.6e-05 27:0.022997 28:0.021547 31:2.7e-05 32:0.000261 43:0.001312 44:0.007691 48:0.008043 64:0.005275 
-1 1:0.19784 2:0.167531 3:0.018523 5:4.8e-05 6:0.021733 7:0.008549 8:0.000165 11:1.1e-05 12:1.1e-05 17:0.0116 18:0.000629 21:0.000773 22:0.180443 23:0.037077 24:4.3e-05 26:0.000117 27:0.024395 28:0.000987 31:5e-06 32:1.6e-05 38:7.5e-05 39:4.3e-05 42:2.7e-05 43:0.188373 44:0.101131 47:1.1e-05 48:0.023072 59:1.6e-05 63:1.6e-05 64:0.016741 
-0.3183894959210348 1:0.22573 2:0.063339 3:0.000144 5:0.000282 6:0.018264 7:0.015922 8:0.001772 11:0.008108 12:0.019279 16:0.003718 17:0.003027 18:0.001562 21:0.001207 22:0.045423 23:0.022733 24:6e-06 26:0.000168 27:0.011219 28:0.000589 31:6e-06 32:0.002264 38:0.002072 39:0.000216 42:0.001568 43:0.043946 44:0.074895 47:6e-06 48:0.042859 58:6e-06 59:0.003153 60:0.001435 63:0.000691 64:0.38439 
-0.0691411918581652 1:0.673803 2:0.022139 3:0.002213 4:0.001269 5:9.1e-05 6:0.010224 7:0.001216 8:0.000213 11:0.000133 12:0.000144 16:0.00048 17:0.019557 18:0.001205 19:0.017792 20:0.05056 21:0.014187 22:0.031728 23:0.028869 24:0.030597 26:5.3e-05 27:0.013829 28:0.000293 32:0.000176 33:2.7e-05 37:0.000256 38:0.003525 39:0.001093 40:0.000181 41:4.8e-05 42:0.003557 43:0.030843 44:0.027477 47:5.3e-05 48:0.001392 53:1.6e-05 54:5e-06 57:8.5e-05 58:0.000165 59:0.002757 60:0.000256 61:1.6e-05 62:0.000197 63:0.0016 64:0.005675 
-0.9092690577707823 1:0.055321 2:0.089993 3:0.06252 4:0.003399 5:7e-06 6:0.035848 7:0.122441 8:0.087195 11:0.000508 12:0.022846 16:0.000247 17:0.00012 18:0.002678 19:2.7e-05 20:8.7e-05 21:7e-06 22:0.020181 23:0.034111 24:0.015667 26:2.7e-05 27:0.018598 28:0.098815 32:0.007726 38:0.000401 39:0.000501 43:0.002818 44:0.016328 47:2.7e-05 48:0.106835 60:0.0001 63:7e-06 64:0.194618 
-0.05660612825150068 1:0.036195 2:0.048736 3:0.003246 4:0.000982 5:0.000347 6:0.058045 7:0.241437 8:0.00414 11:0.011994 12:0.009937 17:0.03747 18:0.001983 19:0.00014 20:8e-05 21:0.020274 22:0.082307 23:0.014952 24:0.000554 26:0.000127 27:0.026839 28:0.009536 32:0.00394 33:0.000134 37:0.023199 38:0.007413 39:0.000354 40:0.000247 41:3.3e-05 42:0.004194 43:0.038652 44:0.034125 47:0.000381 48:0.025336 53:0.03347 54:9.3e-05 57:0.037671 58:0.007426 59:0.002965 60:0.000267 62:0.000287 63:0.0078 64:0.16269 
-0.6100924111652503 1:0.062914 2:0.048489 3:0.111864 4:0.042599 5:0.017423 6:0.01747 7:0.16651 8:0.016441 9:2e-05 10:1.3e-05 11:0.000147 12:0.001182 17:0.003259 18:0.003633 19:0.002872 20:0.015259 21:0.002584 22:0.037831 23:0.083188 24:0.0744 25:9.3e-05 26:0.001496 27:0.054827 28:0.086367 30:0.000147 38:7.3e-05 39:0.001763 40:0.080857 42:0.001703 43:0.011887 44:0.027968 46:0.004287 47:0.00177 48:0.003045 55:0.000174 56:2e-05 59:0.007733 60:0.000928 62:4.7e-05 63:0.00016 64:0.006558 
-1 1:0.254454 2:0.09877 3:4.9e-05 5:0.011279 6:0.066632 7:0.030454 10:5e-06 11:2.5e-05 17:0.004173 18:0.001101 21:0.011131 22:0.13919 23:0.08959 26:0.000252 27:0.040563 28:0.00036 32:2e-05 33:0.00077 37:2.5e-05 38:0.000691 39:0.000168 42:0.000825 43:0.145872 44:0.02603 46:5e-06 47:0.000953 48:0.007728 59:0.007891 60:0.000158 63:0.009323 64:0.051511 
-0.4655764580212294 1:0.524544 2:0.205392 5:0.000789 6:0.09056 17:0.003365 18:0.000251 21:0.0008 22:0.023712 23:0.029125 26:1.1e-05 27:0.000555 28:5.3e-05 38:0.00112 39:0.000325 42:0.000747 43:0.014549 44:0.000779 47:5e-06 48:0.000112 54:6.9e-05 55:3.2e-05 58:1.1e-05 59:0.017973 60:0.000395 63:0.009307 64:0.075419 
-0.05952165367232563 1:0.075409 2:0.017579 3:0.001744 5:2.4e-05 6:0.000896 7:0.000122 8:6e-06 17:0.191043 18:0.067902 19:0.034866 21:0.001762 22:0.07575 23:0.075854 24:0.003884 27:0.006079 28:0.000988 38:0.004311 39:0.039854 40:0.000799 42:0.000256 43:0.195329 44:0.060573 47:3e-05 48:0.008585 58:6e-06 59:0.000726 60:0.00236 63:0.000774 64:0.132488 
-0.3198533574005101 1:0.153008 2:0.045483 3:0.02456 4:0.001083 5:0.001483 6:0.050453 7:0.009845 8:0.000315 11:0.004597 12:9.6e-05 17:8.5e-05 18:0.001584 19:0.005739 20:0.002395 21:3.7e-05 22:0.102453 23:0.085883 24:0.0168 26:0.004395 27:0.046848 28:0.001925 38:0.006608 39:0.011216 40:0.001056 42:0.002443 43:0.245275 44:0.111653 47:1.6e-05 48:0.000859 59:0.000187 60:0.002075 64:0.059547 
-0.2188922343522278 1:0.353909 2:0.022821 3:0.000624 5:0.001797 6:0.044053 7:0.004437 8:9.6e-05 10:1.1e-05 11:0.000427 12:7.5e-05 17:8e-05 18:5.3e-05 19:5e-06 21:0.000491 22:0.051803 23:0.01408 24:0.000144 26:0.001115 27:0.028032 28:0.002928 32:0.000144 38:0.000107 39:0.000171 40:3.2e-05 42:0.000293 43:0.050651 44:0.015253 47:0.000933 48:0.047915 59:5.9e-05 60:0.000165 63:0.000213 64:0.357083 
-0.06649044640009265 1:0.093672 2:0.037188 5:0.000977 6:0.045417 7:0.000599 17:1.3e-05 18:5.2e-05 21:0.000612 22:0.501185 23:0.003372 26:0.006185 27:0.001549 37:0.000247 38:0.010273 39:9.1e-05 42:0.042057 43:0.25651 
-0.1379712610118959 1:0.038176 2:0.144725 3:3.7e-05 5:0.001051 6:0.207131 7:0.033173 10:0.007189 11:0.009312 12:2.1e-05 14:5e-06 15:0.000987 16:6.4e-05 17:5e-06 18:2.1e-05 21:1.6e-05 22:0.019344 23:0.070581 24:5e-06 26:0.005621 27:0.156288 28:0.017819 31:0.008752 32:0.010517 38:1.1e-05 39:3.2e-05 42:5.9e-05 43:0.02456 44:0.031701 47:0.004539 48:0.103979 59:2.1e-05 60:5e-06 63:2.1e-05 64:0.104229 
-0.09077932493363408 1:0.104624 2:0.012256 5:0.002533 6:0.02064 7:4.3e-05 17:0.009328 18:0.000587 21:0.001611 22:0.293973 23:0.007632 26:0.006261 27:0.073739 38:0.004304 39:0.000501 42:0.002496 43:0.372917 44:8e-05 47:0.001701 48:0.001365 59:0.008523 60:0.000123 63:0.013317 64:0.061445 
-0.4102618487366606 1:0.646912 2:0.088101 3:1.1e-05 5:0.00016 6:0.032773 7:0.00848 11:0.000101 12:1.6e-05 17:0.00016 18:0.000443 21:4.3e-05 22:0.040149 23:0.018171 24:2.7e-05 26:0.000165 27:0.017621 28:0.007424 32:0.000229 38:0.000229 39:0.000181 42:6.4e-05 43:0.024016 44:0.010032 47:0.000261 48:0.015504 59:0.000165 60:4.3e-05 63:4.8e-05 64:0.088469 
-0.001815124127494797 1:0.159877 2:0.142053 3:0.007424 6:0.063019 7:0.127989 8:0.001227 11:0.005979 12:0.002443 18:6.4e-05 19:5e-06 22:0.003664 23:0.042779 24:0.001611 27:0.034261 28:0.266277 32:0.003077 39:5e-06 43:0.000624 44:0.02376 48:0.079077 60:1.6e-05 64:0.034768 
-0.08711239182109018 1:0.023307 2:0.104388 3:0.002005 5:0.00099 6:0.014414 7:0.031628 17:0.020365 18:0.002096 19:5.2e-05 21:0.005 22:0.101133 23:0.233151 24:0.007852 25:6.5e-05 26:0.101771 27:0.012539 28:0.008659 33:0.041693 34:0.000573 35:3.9e-05 37:0.064727 38:0.006302 39:0.002904 40:0.000794 41:0.000638 42:0.074909 43:0.049661 44:0.065482 46:2.6e-05 47:3.9e-05 53:0.010182 54:0.010872 55:3.9e-05 58:0.001367 59:9.1e-05 63:0.000156 64:9.1e-05 
-0.3776331620514833 1:0.180733 2:0.027031 3:0.000696 4:0.000298 5:0.002118 6:0.05472 7:0.001025 11:4.3e-05 17:0.002522 18:0.000261 19:8.1e-05 20:6e-06 21:0.002043 22:0.363242 23:0.006329 24:1.2e-05 26:0.000857 27:0.004807 38:0.00364 39:0.00028 42:0.008335 43:0.229832 44:0.002783 47:0.000298 48:0.010317 59:0.000149 60:3.1e-05 63:0.000267 64:0.097242 
-0.5771126636818713 1:0.151739 2:0.019637 5:0.009824 6:0.072805 7:2.1e-05 17:0.002453 18:0.004597 21:0.004875 22:0.207893 23:0.098789 26:0.007115 27:0.106085 37:6.4e-05 38:0.014144 39:0.001611 42:0.032037 43:0.109797 44:0.001499 47:0.000133 48:6.9e-05 54:5e-06 58:0.001941 59:0.023077 60:0.001499 62:7.5e-05 63:0.0308 64:0.097413 
-0.006731393573097416 1:0.31704 2:0.040608 3:5e-06 5:0.004757 6:0.077008 7:0.00128 11:5e-06 17:0.00592 18:0.004512 21:0.029339 22:0.160053 23:0.068416 26:0.001627 27:0.094565 28:5e-06 37:0.003184 38:0.011157 39:0.001152 41:1.6e-05 42:0.011589 43:0.148309 44:0.002117 47:0.002427 48:0.004923 59:0.000256 63:0.0008 64:0.008928 
-0.1543972623897624 1:0.519574 2:0.050614 3:0.000226 5:0.000816 6:0.05818 7:0.030806 8:0.000759 11:0.000533 12:0.000727 17:0.032049 18:0.000258 21:0.013114 22:0.015568 23:0.010877 24:0.000266 26:0.000113 27:0.022699 28:0.058915 32:1.6e-05 38:1.6e-05 39:1.6e-05 42:3.2e-05 43:0.005959 44:0.078593 47:2.4e-05 48:0.0966 64:0.002649 
-0.9231317195211756 1:0.290859 2:0.10552 3:0.001227 4:3.7e-05 5:0.009152 6:0.038784 7:0.002677 8:0.000101 10:5e-06 11:0.001803 12:0.000677 16:0.000171 17:0.006032 18:0.0092 19:0.000416 20:0.000165 21:0.009851 22:0.249589 23:0.017973 24:0.000645 26:0.002811 27:0.017947 28:0.000107 32:2.7e-05 37:1.1e-05 38:0.001035 39:0.000453 40:7.5e-05 42:0.000752 43:0.159435 44:0.011499 47:0.000171 48:0.012517 59:0.002661 60:0.002395 63:0.000128 64:0.043093 
-0.05681629916416938 1:0.174053 2:0.03032 3:0.000437 5:0.002181 6:0.022475 10:1.6e-05 17:0.004635 18:0.001771 21:0.003397 22:0.212555 23:0.021227 24:5e-06 26:0.010955 27:0.052021 28:6.4e-05 31:5.3e-05 38:0.006683 39:0.001232 42:0.008416 43:0.173323 44:0.012779 47:0.047547 48:0.131685 59:0.001787 60:0.000811 63:0.002773 64:0.0768 
-0.6872999339729443 1:0.466911 2:0.001671 5:0.007181 6:0.006844 17:0.00503 18:0.002203 21:0.002793 22:0.253806 23:0.015857 26:0.022523 27:0.026591 38:0.016726 39:0.015646 42:0.01038 43:0.14584 
-0.1813126107448531 1:0.415424 2:0.208965 3:0.192928 4:0.037659 5:0.000416 6:0.020459 7:0.01112 8:0.009493 11:1.1e-05 12:0.000459 17:0.000608 18:0.001419 19:0.001232 20:5e-06 21:0.000784 22:0.046107 23:0.015152 24:0.0016 26:0.000277 27:0.001115 28:0.001669 32:4.3e-05 38:0.000272 39:0.001776 40:0.000171 42:0.000533 43:0.020096 44:0.002091 47:0.000133 48:0.0004 59:0.000107 60:0.000288 63:0.000149 64:0.00704 
-0.05559428962678559 1:0.571029 2:0.117995 3:0.011675 4:0.004891 5:0.000176 6:0.00864 7:0.005989 8:0.003419 11:5.3e-05 12:0.001531 16:0.000997 17:0.002736 18:0.000928 19:0.001024 20:0.015845 21:0.0024 22:0.033189 23:0.032704 24:0.027973 25:7.5e-05 26:9.6e-05 27:0.002176 28:0.020256 32:0.001179 37:0.000149 38:0.000885 39:0.002581 40:0.000496 41:0.037269 42:0.001845 43:0.012064 44:0.025424 45:9.6e-05 47:4.8e-05 48:0.004059 57:0.002725 58:0.000709 59:0.000539 60:0.000325 61:0.001899 62:0.001696 63:0.000736 64:0.039477 
-0.1654903031425495 1:0.498592 2:0.09544 3:0.000112 6:0.003264 7:0.000693 8:5e-06 11:0.000149 12:6.4e-05 16:5e-06 17:0.001301 18:0.006373 19:8e-05 21:1.1e-05 22:0.032475 23:0.108469 24:0.000277 27:0.006741 28:0.000469 32:5e-06 38:0.002517 39:0.007515 40:0.000373 42:0.001461 43:0.039424 44:0.021333 47:5e-06 48:9.1e-05 59:0.043968 60:0.005691 63:0.086635 64:0.036459 
-0.109623144285978 1:0.034667 2:0.055429 3:0.184416 4:0.018139 6:5.9e-05 7:0.004821 8:0.013909 18:0.000107 19:0.006331 20:0.004437 22:0.000512 23:0.009056 24:0.197264 27:1.1e-05 28:0.023376 39:0.000107 40:0.001061 43:0.000112 44:0.418864 48:0.011141 60:0.004325 64:0.011856 
-0.3765489586106623 1:0.098533 2:0.016992 3:0.000533 4:1.6e-05 5:0.000816 6:0.028197 7:0.021525 8:0.000293 10:6.4e-05 11:0.001712 12:0.001584 16:2.7e-05 17:0.017648 18:0.00256 19:8.5e-05 21:0.008624 22:0.088149 23:0.051029 24:9.1e-05 26:0.00184 27:0.062363 28:0.056037 32:0.007979 33:0.000619 34:0.000123 37:0.004379 38:0.038613 39:0.003259 40:1.1e-05 41:9.1e-05 42:0.017733 43:0.196203 44:0.016107 47:0.001211 48:0.093184 49:1.1e-05 50:9.1e-05 51:1.6e-05 53:3.2e-05 54:0.000293 55:0.000315 57:0.000213 58:0.001749 59:0.033531 60:0.000789 61:2.7e-05 62:5.9e-05 63:0.038379 64:0.086267 
-0.04460470674633399 1:0.501108 22:0.103287 43:0.211988 64:0.183617 
-0.4600429866277246 1:0.114701 2:0.025219 3:0.000337 5:0.000636 6:0.004064 7:1.6e-05 10:6.4e-05 11:7e-05 17:0.007807 18:0.006711 19:0.000326 20:3.7e-05 21:0.004102 22:0.370802 23:0.020385 24:0.000754 26:0.000642 27:0.005497 28:0.000107 31:1.6e-05 32:2.1e-05 33:1.6e-05 37:5.9e-05 38:0.027529 39:0.017952 40:0.00039 42:0.00662 43:0.228406 44:0.010508 47:0.00046 48:0.00215 54:1.6e-05 58:4.3e-05 59:0.009053 60:0.002957 62:5e-06 63:0.004428 64:0.127091 
-0.1278164012979089 1:0.046624 2:0.031643 3:5e-06 5:0.001627 6:0.062539 7:0.000859 8:5.3e-05 10:6.9e-05 11:0.000144 12:5e-06 17:0.000704 18:8e-05 21:0.002992 22:0.049312 23:0.020011 24:3.7e-05 26:0.000629 27:0.02976 28:0.00112 32:3.2e-05 38:0.000395 39:9.6e-05 42:0.004272 43:0.343339 44:0.011877 47:0.003104 48:0.028277 59:0.1576 60:0.000491 63:0.078395 64:0.123909 
-0.04079310590992215 1:0.105355 2:0.157616 3:0.024635 6:0.001904 7:0.003685 17:0.002843 18:0.005563 19:0.005616 20:2.1e-05 21:0.000229 22:0.013616 23:0.037813 24:9.1e-05 27:0.000464 28:8e-05 33:0.000261 34:4.8e-05 35:0.000101 36:5.9e-05 37:0.000421 38:0.023755 39:0.013925 40:0.000128 42:0.000672 43:0.060416 44:0.010043 48:0.000507 53:5e-06 54:0.000192 55:2.1e-05 58:0.000565 59:0.047099 60:0.026555 63:0.009888 64:0.445808 
-0.08986126371093565 1:0.532907 2:0.04376 3:0.092315 4:0.006725 5:4.3e-05 6:0.018629 7:0.000779 8:5e-06 17:1.1e-05 18:0.002107 19:0.010795 20:0.000368 22:0.032283 23:0.044309 24:0.000379 26:0.000501 27:0.033152 28:0.000181 32:0.000155 38:2.7e-05 39:0.027147 40:0.072592 42:3.7e-05 43:0.045088 44:0.017712 47:0.007461 48:0.006363 56:2.7e-05 59:0.000192 60:0.002309 63:0.000176 64:0.001467 
-0.1141092696987922 1:0.083147 2:0.110288 3:0.031669 5:0.000565 6:0.103307 7:0.004421 17:4.3e-05 18:0.001509 19:0.014619 21:4.8e-05 22:0.175659 23:0.081797 24:0.001179 26:0.000944 27:0.026304 28:5.9e-05 38:0.003008 39:0.002213 40:0.000112 42:0.028059 43:0.176848 44:0.033296 47:0.001013 48:0.094752 59:8.5e-05 60:0.000123 63:6.9e-05 64:0.024864 
-0.06635762591741609 1:0.377755 2:0.004997 3:6.4e-05 5:0.000229 6:0.011317 7:0.032464 10:0.000459 11:2.1e-05 17:0.001696 18:0.000272 19:0.000645 20:0.00032 21:0.000661 22:0.025141 23:0.051349 24:0.000491 26:0.00808 27:0.152928 28:0.016368 31:0.016517 33:5e-06 36:7.5e-05 37:1.1e-05 38:0.013749 39:0.000395 40:0.010165 42:0.009696 43:0.04808 44:0.066208 47:0.024101 48:0.005056 59:0.004992 60:0.003307 63:0.004955 64:0.107429 
-0.7059336741493939 1:0.522515 2:0.053515 3:2e-05 5:0.005635 6:0.037175 7:0.00675 10:0.000145 11:0.000445 12:1e-05 17:0.01873 18:0.001165 19:5e-06 21:0.014835 22:0.08489 23:0.0192 24:3.5e-05 26:0.00193 27:0.02282 28:0.0038 31:1e-05 32:0.000145 33:5e-05 37:0.002315 38:0.0089 39:0.000415 41:2.5e-05 42:0.00825 43:0.03941 44:0.014295 47:0.0013 48:0.018455 53:1.5e-05 54:7.5e-05 58:0.00399 59:0.00557 60:7.5e-05 62:8.5e-05 63:0.014575 64:0.088425 
-0.1750954750808167 1:0.32928 2:0.038987 3:0.000688 4:1.1e-05 5:0.004128 6:0.011088 7:9.6e-05 11:2.7e-05 12:7.5e-05 17:0.006469 18:0.011509 19:0.000565 20:8e-05 21:0.004437 22:0.123152 23:0.02752 24:0.00112 25:1.1e-05 26:0.000368 27:0.006539 28:0.001744 32:0.000213 38:0.000261 39:0.00592 40:0.000805 42:0.000555 43:0.153136 44:0.204576 47:0.000251 48:0.015045 59:0.000256 60:0.00536 63:0.000309 64:0.045419 
-1 1:0.208601 2:0.109994 3:9.6e-05 5:0.000511 6:0.094583 7:0.005514 17:0.031574 18:0.00012 21:0.031171 22:0.141411 23:0.057532 26:0.000156 27:0.061075 28:0.000384 32:5.4e-05 38:0.001219 39:8.4e-05 42:0.00206 43:0.174246 44:0.010264 47:0.000294 48:0.005598 58:1.2e-05 59:0.002601 60:0.00033 63:0.000829 64:0.059688 
-0.008775989508727187 1:0.183264 2:0.01416 5:0.028677 6:0.040576 7:0.005957 9:6.9e-05 10:0.00064 11:0.000704 12:0.000347 14:4.8e-05 15:0.000299 16:0.002235 17:0.009664 18:0.000421 19:2.1e-05 21:0.063707 22:0.137456 23:0.017413 24:4.3e-05 25:4.3e-05 26:0.035328 27:0.047392 28:0.026512 30:3.2e-05 31:0.000512 32:0.000763 37:0.134661 38:0.000229 39:5e-06 41:0.026624 42:0.006379 43:0.187467 44:0.007547 46:5e-06 47:0.001931 48:0.003899 53:5e-06 57:0.001029 58:0.000187 59:9.6e-05 60:9.6e-05 61:0.000101 62:0.000304 63:0.000768 64:0.012384 
-0.4107341781772078 1:0.173728 2:0.210443 3:0.008688 5:1.1e-05 6:0.117888 7:0.099195 8:1.6e-05 10:2.7e-05 11:0.00048 17:5e-06 18:1.1e-05 22:0.03232 23:0.014181 24:0.000112 26:1.6e-05 27:0.023051 28:0.000389 31:2.1e-05 32:0.000123 38:1.1e-05 39:6.9e-05 43:0.013243 44:0.007024 47:4.3e-05 48:0.01664 59:5e-06 60:3.2e-05 63:5e-06 64:0.282224 
-0.1065183174706356 1:0.077227 2:0.027899 3:5.3e-05 5:0.001216 6:0.029205 7:0.001973 11:5e-06 17:0.008971 18:0.018843 19:0.001312 21:0.003515 22:0.342581 23:0.080875 26:0.001648 27:0.017595 28:2.7e-05 33:0.000133 34:0.000235 35:2.7e-05 37:3.2e-05 38:0.007744 39:0.049147 40:0.005483 42:0.001776 43:0.139419 44:0.029408 47:0.000597 48:0.005643 54:1.6e-05 55:0.000587 56:0.000112 59:0.003205 60:0.080512 63:0.000368 64:0.062613 
-0.1822530594778655 1:0.255488 2:0.190987 3:4.8e-05 4:5e-06 5:0.000576 6:0.129317 7:0.000587 17:5.3e-05 18:0.0004 19:6.4e-05 20:5e-06 21:4.8e-05 22:0.12432 23:0.142917 24:0.000181 26:0.000245 27:0.100928 28:0.006901 37:5e-06 38:3.7e-05 39:5.9e-05 40:2.1e-05 42:3.7e-05 43:0.018752 44:0.026469 47:3.7e-05 48:0.00112 63:7.5e-05 64:0.000315 
-0.5284088741326006 1:0.267552 2:0.069275 3:1.6e-05 5:0.001968 6:0.022336 7:0.018411 11:0.000896 12:0.001035 17:0.00216 18:0.000299 21:0.005829 22:0.118128 23:0.041685 26:0.000208 27:0.049541 28:0.046469 32:0.003051 38:0.004555 39:0.000384 42:0.004624 43:0.230587 44:0.008709 47:0.000459 48:0.013829 58:2.7e-05 59:0.006891 60:8e-05 63:0.011189 64:0.069808 
-0.01962296295796621 1:0.423605 2:0.013429 5:0.000165 6:0.055291 7:0.001856 8:5e-06 10:1.6e-05 11:6.9e-05 12:1.1e-05 14:1.1e-05 15:5e-06 16:5e-06 17:0.001045 18:4.3e-05 21:0.000443 22:0.043675 23:0.040283 24:1.1e-05 26:0.000592 27:0.044651 28:0.034507 30:5e-06 31:4.3e-05 32:0.000267 33:0.000181 34:5e-06 37:0.001797 38:0.002549 39:7.5e-05 42:0.001008 43:0.015216 44:0.001344 47:0.009365 48:0.010891 53:0.001072 54:0.003803 55:5e-06 57:2.7e-05 58:0.005717 59:0.005909 60:0.001648 62:5.9e-05 63:0.009488 64:0.269808 
-0.1277764444056925 1:0.421331 22:0.286622 43:0.054221 60:6e-06 64:0.23782 
-0.02867112044140681 1:0.286848 2:0.348501 3:0.040837 4:0.029653 5:0.000352 6:0.028549 7:0.047973 8:0.029301 10:0.001835 11:0.018069 12:0.036395 15:2.7e-05 16:0.002421 20:0.000405 22:1.1e-05 23:0.001275 24:0.002811 26:3.2e-05 27:0.005467 28:0.048405 31:0.000187 32:0.020581 44:0.000261 48:0.038757 64:0.011045 
-0.03050466127167113 1:0.293892 2:0.056667 3:0.000378 5:6e-06 6:0.015922 7:0.020667 8:0.001682 11:0.000156 12:0.002324 17:0.043742 18:0.17409 21:0.000174 22:0.30964 23:0.024889 24:0.000841 27:0.004589 28:0.016438 32:6.6e-05 38:0.000162 39:0.002252 43:0.010961 44:0.007886 48:0.002871 59:0.000324 60:0.001075 64:0.008306 
-0.2208277995884448 1:0.23197 2:0.08721 3:0.032281 5:6e-05 6:0.098096 7:0.038365 8:0.000174 10:6e-06 11:0.001527 12:0.000126 17:0.000437 18:0.002054 19:1.2e-05 21:3.6e-05 22:0.035006 23:0.166904 24:0.003413 26:0.000114 27:0.213329 28:0.039593 32:0.000389 33:1.8e-05 37:3.6e-05 38:0.000689 39:0.000198 42:5.4e-05 43:0.009269 44:0.013413 47:7.2e-05 48:0.008802 58:6e-06 59:1.2e-05 60:0.000263 64:0.016066 
