svm_type c_svc
kernel_type rbf
gamma 9
nr_class 2
total_sv 1080
rho 1.02913
label 1 -1
probA -12.3078
probB -9.47145
nr_sv 247 833
SV
1 1:0.436294 2:0.148126 3:0.025381 4:0.00639 5:0.000595 6:0.035447 7:0.033544 8:0.010547 11:4.8e-05 12:0.004264 16:0.000276 17:0.002138 18:0.00161 19:0.000931 21:0.001471 22:0.110637 23:0.04567 24:0.00239 26:0.000222 27:0.012378 28:0.00406 32:0.000739 37:4.8e-05 38:0.006216 39:0.002048 42:0.002559 43:0.055333 44:0.012144 47:0.000192 48:0.008042 58:0.00012 59:0.008132 60:0.001237 63:0.003465 64:0.017303 
1 1:0.100709 2:0.054133 5:7.5e-05 6:0.406315 7:0.171392 11:4.3e-05 12:5e-06 17:0.000528 18:0.000192 21:6.9e-05 22:0.025851 23:0.178427 24:1.1e-05 27:0.016901 28:0.000491 32:2.1e-05 33:1.1e-05 34:2.7e-05 38:0.000603 39:0.000949 42:2.1e-05 43:0.028411 44:0.000544 47:5.9e-05 48:0.000363 54:2.7e-05 58:5e-06 59:0.002949 60:0.000336 63:0.000992 64:0.009541 
1 1:0.241296 2:0.039184 5:0.000373 6:0.084987 7:6.9e-05 11:6.4e-05 12:0.000304 16:0.001797 17:0.001835 18:0.001061 21:0.000101 22:0.206331 23:0.073173 26:0.000181 27:0.044773 28:0.000245 37:5e-06 38:0.000251 39:0.000293 42:0.000293 43:0.068773 44:0.041707 47:5e-06 48:0.079211 58:5.9e-05 59:0.004368 60:0.000224 63:0.004272 64:0.104763 
1 1:0.050535 2:0.11985 3:0.01985 4:0.001904 5:6e-05 6:0.041075 7:0.005856 8:0.000252 9:2.4e-05 10:6e-06 12:1.2e-05 16:0.000162 17:0.011039 18:0.006492 19:0.000408 20:0.000961 21:0.000925 22:0.098198 23:0.060174 24:0.003273 25:0.00639 26:0.00176 27:0.014763 28:0.018396 29:0.000162 30:0.005099 31:1.2e-05 32:0.004066 33:0.020649 34:0.00018 37:0.047802 38:0.035135 39:0.004078 40:4.2e-05 41:1.2e-05 42:0.002168 43:0.059814 44:0.044348 45:1.2e-05 46:0.002679 47:0.003171 48:0.048462 53:0.000324 54:0.002126 55:1.8e-05 57:5.4e-05 58:0.002012 59:0.005327 60:0.00164 61:1.2e-05 62:0.000264 63:0.005946 64:0.242018 
1 1:0.378091 2:0.004102 3:0.000209 4:0.000182 5:0.002697 6:0.002091 7:1.6e-05 8:5e-06 9:7.5e-05 10:3.8e-05 11:5e-06 17:0.009962 18:0.001442 19:1.6e-05 20:2.7e-05 21:0.031668 22:0.151619 23:0.003105 24:7e-05 25:0.0017 26:0.001743 27:0.001893 30:2.1e-05 31:0.000139 33:5e-06 37:0.00074 38:0.013196 39:0.001399 40:1.6e-05 41:6.4e-05 42:0.010981 43:0.150697 44:0.010359 46:5.4e-05 47:0.001298 48:0.001496 58:0.000129 59:0.008038 60:0.001534 63:0.007426 64:0.201651 
1 1:0.258738 2:0.08638 3:0.002316 5:0.003679 6:0.033759 7:0.010102 8:3.7e-05 10:0.000102 11:4.3e-05 12:5e-06 17:0.005668 18:0.005171 19:0.000134 20:5e-06 21:0.002791 22:0.065406 23:0.087888 24:0.000219 26:0.000834 27:0.042914 28:0.00093 32:3.7e-05 33:0.000128 37:0.002428 38:0.002957 39:0.001733 40:8.6e-05 41:5e-06 42:0.000957 43:0.085128 44:0.052642 47:0.002257 48:0.049278 49:5e-06 53:0.000337 54:7.5e-05 57:0.000209 58:0.00023 59:0.000551 60:0.000503 61:1.6e-05 62:0.000182 63:0.00139 64:0.191743 
1 1:0.13744 2:0.024779 5:0.001909 6:0.023632 7:0.000432 17:0.035653 18:0.002 19:2.1e-05 21:0.0212 22:0.145605 23:0.027237 24:0.000224 25:2.7e-05 26:0.001376 27:0.038939 28:0.001163 33:1.1e-05 37:6.9e-05 38:0.017867 39:0.003413 40:0.000107 41:2.7e-05 42:0.009349 43:0.137883 44:0.035787 47:0.001173 48:0.045067 54:5.9e-05 58:0.000309 59:0.042149 60:0.002885 63:0.020363 64:0.221845 
1 1:0.212747 2:0.007547 3:0.004827 4:5e-06 5:0.004603 6:0.023515 7:0.003205 8:0.000432 10:0.000101 11:0.000656 12:1.6e-05 15:1.1e-05 16:0.001771 17:0.002768 18:0.002027 19:0.00064 21:0.004907 22:0.160587 23:0.038555 24:0.000779 26:0.013472 27:0.089872 28:0.000699 31:0.000283 32:0.01448 33:2.7e-05 37:0.012555 38:0.011205 39:0.009979 41:0.000139 42:0.003024 43:0.257344 44:0.015211 47:0.002688 48:0.047648 53:3.2e-05 54:3.2e-05 58:3.2e-05 59:0.001813 60:0.003797 63:0.000357 64:0.045616 
1 1:0.081893 2:0.008848 5:0.000309 6:0.006368 17:0.014043 18:0.002427 21:0.003755 22:0.292555 23:0.032795 26:0.033179 27:0.025856 28:8e-05 33:0.000219 34:2.1e-05 37:0.000549 38:0.024213 39:0.009605 40:0.001605 42:0.016203 43:0.201733 44:0.030325 47:0.010352 48:0.026533 54:0.002603 55:0.005728 56:0.001253 58:0.001861 59:0.010464 60:0.009349 63:0.003088 64:0.142187 
1 1:0.098533 2:0.016992 3:0.000533 4:1.6e-05 5:0.000816 6:0.028197 7:0.021525 8:0.000293 10:6.4e-05 11:0.001712 12:0.001584 16:2.7e-05 17:0.017648 18:0.00256 19:8.5e-05 21:0.008624 22:0.088149 23:0.051029 24:9.1e-05 26:0.00184 27:0.062363 28:0.056037 32:0.007979 33:0.000619 34:0.000123 37:0.004379 38:0.038613 39:0.003259 40:1.1e-05 41:9.1e-05 42:0.017733 43:0.196203 44:0.016107 47:0.001211 48:0.093184 49:1.1e-05 50:9.1e-05 51:1.6e-05 53:3.2e-05 54:0.000293 55:0.000315 57:0.000213 58:0.001749 59:0.033531 60:0.000789 61:2.7e-05 62:5.9e-05 63:0.038379 64:0.086267 
1 1:0.284752 2:0.030005 3:0.005728 4:1.6e-05 5:0.000208 6:0.03208 7:0.004549 17:0.002395 18:0.000379 21:0.006656 22:0.234475 23:0.116944 24:0.000555 26:0.000203 27:0.155376 28:0.046816 32:0.000405 33:5e-06 37:9.1e-05 38:0.000272 39:0.000101 42:0.000101 43:0.012309 44:0.017477 47:2.1e-05 48:0.04136 59:1.1e-05 64:0.006709 
1 1:0.397731 2:0.073946 3:0.001012 5:0.002257 6:0.119509 7:0.056611 8:0.00076 11:0.001024 12:0.002281 16:0.000174 17:0.000784 18:0.000347 21:0.000222 22:0.057353 23:0.081641 24:6e-06 26:0.000108 27:0.142114 28:0.02324 32:0.001269 33:4.2e-05 37:3.6e-05 38:5.4e-05 39:2.4e-05 42:1.2e-05 43:0.009964 44:0.015144 47:6e-06 48:0.009054 55:6e-06 59:4.2e-05 60:4.2e-05 63:1.2e-05 64:0.003174 
1 1:0.090384 2:0.015856 3:0.000469 4:5.9e-05 5:0.000229 6:0.101456 7:0.064491 8:5e-06 10:4.8e-05 11:0.000421 12:2.1e-05 16:4.8e-05 17:0.002203 18:0.000688 19:2.1e-05 21:0.00016 22:0.106 23:0.116059 24:5.3e-05 25:5e-06 26:0.000517 27:0.205344 28:0.058304 31:4.8e-05 32:0.000149 34:1.6e-05 35:5e-06 37:5.3e-05 38:0.00056 39:0.000736 41:1.6e-05 42:0.000144 43:0.150165 44:0.019632 46:4.3e-05 47:9.6e-05 48:0.019253 56:5e-06 59:0.002187 60:0.001872 63:0.000779 64:0.041397 
1 1:0.402324 2:0.072997 3:0.010691 4:0.004354 5:0.001069 6:0.015249 7:0.000679 8:0.000306 17:0.043988 18:0.002174 19:0.000859 20:0.014168 21:0.01585 22:0.108354 23:0.018294 24:0.001249 26:0.001604 27:0.017712 28:0.005381 33:6.6e-05 34:1.2e-05 37:0.001688 38:0.002108 39:0.000631 40:0.000264 41:7.8e-05 42:0.005099 43:0.19188 44:0.020571 47:0.001147 48:0.008354 55:6e-06 56:6e-06 57:6e-06 58:1.8e-05 59:0.001303 60:0.00042 63:0.001964 64:0.027075 
1 1:0.190299 2:0.043307 3:0.00224 4:0.000293 5:0.000304 6:0.046219 7:0.002549 8:6.9e-05 11:6.4e-05 17:0.000352 18:0.001755 19:0.000341 21:0.000107 22:0.102907 23:0.144779 24:0.000192 26:0.000155 27:0.110427 28:0.002667 32:0.000181 34:5e-06 38:0.000432 39:0.001248 40:4.3e-05 42:0.000123 43:0.060016 44:0.131381 47:0.000197 48:0.028853 58:2.1e-05 59:0.00072 60:0.000725 63:0.000389 64:0.12664 
1 1:0.423605 2:0.013429 5:0.000165 6:0.055291 7:0.001856 8:5e-06 10:1.6e-05 11:6.9e-05 12:1.1e-05 14:1.1e-05 15:5e-06 16:5e-06 17:0.001045 18:4.3e-05 21:0.000443 22:0.043675 23:0.040283 24:1.1e-05 26:0.000592 27:0.044651 28:0.034507 30:5e-06 31:4.3e-05 32:0.000267 33:0.000181 34:5e-06 37:0.001797 38:0.002549 39:7.5e-05 42:0.001008 43:0.015216 44:0.001344 47:0.009365 48:0.010891 53:0.001072 54:0.003803 55:5e-06 57:2.7e-05 58:0.005717 59:0.005909 60:0.001648 62:5.9e-05 63:0.009488 64:0.269808 
1 1:0.145066 2:0.035524 3:0.000342 5:0.003835 6:0.012923 7:0.000192 10:0.000336 11:4.1e-05 15:8.2e-05 16:7e-06 17:0.015868 18:0.006321 19:0.000705 21:0.00491 22:0.142519 23:0.010684 24:1.4e-05 26:0.011122 27:0.026086 28:0.00013 31:0.000281 32:0.00013 33:0.000753 37:0.003835 38:0.013444 39:0.002602 42:0.009026 43:0.320027 44:0.003678 47:0.00867 48:0.014012 59:0.009287 60:0.001383 63:0.006691 64:0.189472 
1 1:0.041313 2:0.043244 3:0.003033 5:0.000785 6:0.026244 7:0.045256 8:0.004894 11:5.3e-05 12:0.01176 17:0.003435 18:0.001407 21:0.007451 22:0.499008 23:0.009963 24:2e-05 26:0.000711 27:0.003553 28:0.02302 38:0.030992 39:0.002366 42:0.044573 43:0.187016 44:0.000715 47:0.000175 48:0.000589 59:0.000675 60:8e-06 63:0.000715 64:0.007024 
1 1:0.508599 2:0.010892 3:0.000305 4:0.000431 5:0.004317 6:0.017635 7:0.006533 8:3.6e-05 11:0.000263 12:0.00015 17:0.001461 18:2.4e-05 19:1.8e-05 20:0.00012 21:0.01309 22:0.063605 23:0.012814 24:0.000641 25:2.4e-05 26:0.005395 27:0.034916 28:0.008377 32:0.000114 33:0.000108 37:0.000551 38:0.000647 39:1.8e-05 40:1.8e-05 41:4.8e-05 42:0.01012 43:0.073252 44:0.050156 46:1.8e-05 47:0.004317 48:0.064629 53:0.00018 54:6e-06 57:9.6e-05 58:0.000192 59:0.000222 60:4.8e-05 62:0.000132 63:0.005323 64:0.100162 
1 1:0.253772 2:0.017045 3:7.2e-05 4:6e-06 5:0.00352 6:0.025453 7:0.000156 8:1.2e-05 11:6e-06 17:0.000216 18:0.000144 21:0.001796 22:0.176637 23:0.047832 24:0.000102 26:0.000486 27:0.103706 28:0.00218 32:1.2e-05 38:0.000625 39:0.00015 42:0.000318 43:0.251544 44:0.019832 47:7.2e-05 48:0.017778 64:0.076529 
1 1:0.1596 2:0.053104 3:0.002779 4:0.00184 5:0.001152 6:0.02544 7:0.021157 8:0.000624 9:0.000229 10:0.000171 11:0.000379 12:0.000469 16:1.1e-05 17:0.006299 18:0.001696 19:0.000203 20:0.000432 21:0.002869 22:0.094016 23:0.036816 24:0.000613 25:2.1e-05 26:0.010219 27:0.060507 28:0.002064 30:2.1e-05 31:2.7e-05 32:0.000107 33:0.000405 34:2.1e-05 36:4.3e-05 37:0.001445 38:0.004464 39:0.001435 40:0.000341 41:0.000197 42:0.002491 43:0.375371 44:0.019349 46:5e-06 47:0.014667 48:0.011909 49:2.1e-05 50:5e-06 53:4.3e-05 54:8.5e-05 57:0.000144 58:0.000347 59:0.004325 60:0.001365 62:8.5e-05 63:0.003093 64:0.075477 
1 1:0.15366 2:0.051088 3:0.000865 4:0.000292 5:0.005231 6:0.015469 7:0.000674 8:0.000191 11:1.1e-05 17:0.006042 18:0.009576 19:0.000318 20:8.5e-05 21:0.010918 22:0.262414 23:0.00366 24:5.3e-05 26:0.005883 27:0.003592 28:4.8e-05 33:2.7e-05 34:3.2e-05 35:5e-06 36:2.7e-05 37:0.001772 38:0.130218 39:0.065135 40:0.000122 41:0.000117 42:0.015915 43:0.189708 44:0.001618 47:0.002568 48:0.002074 50:5e-06 53:0.001135 54:9.5e-05 55:4.8e-05 56:5e-06 57:0.002133 58:0.002732 59:0.00844 60:0.002064 62:5e-06 63:0.00495 64:0.038981 
1 1:0.197797 2:0.166005 3:0.174997 4:0.002091 5:0.002208 6:0.026043 7:0.016619 8:0.000245 10:9.6e-05 11:0.000128 17:0.000363 18:0.001317 19:0.005451 20:0.006101 21:0.001771 22:0.060048 23:0.023173 24:0.000133 26:0.00232 27:0.015936 28:0.000288 31:1.6e-05 32:5e-06 38:0.001067 39:0.001088 40:1.1e-05 41:5e-06 42:0.001536 43:0.124875 44:0.034117 47:0.001285 48:0.026411 59:0.00016 60:0.000187 63:0.000192 64:0.105915 
1 1:0.345291 2:0.093131 3:0.005568 4:3.2e-05 5:0.000816 6:0.021355 7:0.016661 8:0.001339 10:0.000336 11:0.0012 12:0.000981 15:2.7e-05 16:0.000789 17:0.008277 18:0.020059 19:0.000891 20:5e-06 21:0.000539 22:0.046661 23:0.083611 24:0.004869 26:0.000464 27:0.015291 28:0.016069 31:0.000155 32:0.001979 33:0.000949 34:0.000528 35:1.6e-05 37:0.00088 38:0.00608 39:0.015643 40:0.000528 41:1.1e-05 42:0.002496 43:0.047093 44:0.046192 47:0.000144 48:0.019072 49:4.8e-05 50:8e-05 51:1.6e-05 53:7.5e-05 54:0.000325 55:0.000347 56:1.6e-05 57:1.1e-05 58:0.003989 59:0.005739 60:0.009131 62:3.2e-05 63:0.003525 64:0.15064 
1 1:0.483189 2:0.00552 5:0.000421 6:0.020592 7:5.3e-05 17:0.000421 18:7.5e-05 21:0.000293 22:0.095749 23:0.011648 26:0.003216 27:0.026816 28:3.2e-05 32:1.6e-05 38:0.000235 39:9.6e-05 42:0.000592 43:0.073851 44:0.031323 47:5.3e-05 48:0.067552 59:5e-06 64:0.178251 
1 1:0.129002 2:0.042566 3:0.002864 5:0.00348 6:0.077048 7:0.122083 8:0.053789 11:4.6e-05 12:0.073499 17:0.00023 18:0.000607 21:0.000409 22:0.171549 23:0.020069 24:0.00052 26:0.000175 27:0.017255 28:0.093692 32:0.000414 38:0.000124 39:8.3e-05 42:0.000262 43:0.012938 44:0.005172 47:7.4e-05 48:0.016621 63:6.9e-05 64:0.155361 
1 1:0.34024 2:0.038384 5:0.008021 6:0.029877 17:0.002517 18:0.002021 21:0.002795 22:0.382923 23:0.003717 26:0.000795 27:0.002405 38:0.002768 39:0.001397 42:0.003072 43:0.124992 44:0.00136 47:0.002459 48:0.000651 59:0.005877 60:0.001669 63:0.011696 64:0.030363 
1 1:0.534102 2:0.043225 3:0.000979 4:0.000114 5:0.004318 6:0.057532 7:0.004847 8:0.000354 9:1.2e-05 10:2.4e-05 11:0.000535 12:0.000757 16:0.0003 17:8.4e-05 18:0.000102 20:6e-06 21:0.002024 22:0.106517 23:0.057339 24:0.010216 25:6e-06 26:0.002697 27:0.044264 28:0.005009 32:0.00233 38:8.4e-05 39:3.6e-05 42:0.000895 43:0.037327 44:0.016036 46:6e-06 47:0.000745 48:0.011357 59:0.000126 60:4.2e-05 63:0.000811 64:0.054841 
1 1:0.10835 2:0.021549 3:1.8e-05 5:1.8e-05 6:0.008481 7:5.9e-05 17:0.05578 18:0.004623 19:1.8e-05 21:0.005341 22:0.133923 23:0.004807 24:0.000101 26:0.000617 27:0.003122 28:0.000872 33:0.007169 37:0.024226 38:0.01127 39:0.000249 40:3.6e-05 41:3e-05 42:0.042344 43:0.013205 44:0.015448 47:0.000113 48:0.012421 53:4.7e-05 57:7.1e-05 58:0.004991 59:0.046208 60:0.000617 63:0.359769 64:0.114107 
1 1:0.161989 2:0.112731 3:0.033371 4:0.002869 5:0.000608 6:0.017611 7:0.000688 17:0.001317 18:0.001349 19:0.007792 20:0.000853 21:0.009595 22:0.114869 23:0.040976 24:0.001312 25:5e-06 26:0.002539 27:0.03968 28:0.000875 37:0.001547 38:0.002219 39:0.000816 40:4.3e-05 41:0.000736 42:0.008267 43:0.329243 44:0.032677 47:0.000565 48:0.001797 58:1.1e-05 59:0.00576 60:0.001467 63:0.003472 64:0.060352 
1 1:0.329439 2:0.011757 5:0.000904 6:0.067143 7:0.004378 11:0.0001 17:0.008248 18:0.000474 21:0.002426 22:0.041957 23:0.011509 26:0.000743 27:0.114757 28:0.002013 31:3.5e-05 32:0.000178 33:5.2e-05 37:0.000109 38:0.002878 39:0.000165 42:0.002048 43:0.233548 44:0.0016 47:0.006639 48:0.0249 54:4e-06 58:2.2e-05 59:0.003635 60:0.000104 63:0.01317 64:0.115065 
1 1:0.671783 2:0.103608 5:0.001833 6:0.065742 7:0.011675 11:0.003658 17:0.003442 18:0.002117 21:0.001817 22:0.067833 23:0.006175 26:0.000475 27:0.016625 28:0.00275 32:8.3e-05 37:0.004842 38:0.00155 39:1.7e-05 42:0.000192 43:0.007983 44:0.000542 47:0.000275 48:0.001667 54:0.000292 58:0.000342 59:2.5e-05 63:0.000183 64:0.022475 
1 1:0.454192 2:0.050456 3:0.000426 5:0.008913 6:0.036252 7:0.000258 9:1.2e-05 10:1.2e-05 17:0.000264 18:0.000727 19:0.00036 21:0.01006 22:0.107189 23:0.020408 24:0.001075 25:0.001273 26:0.007117 27:0.018529 28:0.000162 29:6e-06 30:1.2e-05 37:9e-05 38:0.000751 39:0.000252 40:0.000282 41:0.000486 42:0.006462 43:0.059874 44:0.014979 46:0.000565 47:0.004492 48:0.01376 54:6e-06 57:6e-06 58:1.2e-05 59:0.000847 60:0.00015 63:0.001508 64:0.177772 
1 1:0.094187 2:0.033973 3:0.000795 5:0.00064 6:0.047803 7:0.011211 10:5e-06 11:0.000165 12:1.6e-05 17:0.000112 18:0.000112 21:0.000181 22:0.105477 23:0.061472 24:4.3e-05 26:0.004635 27:0.145371 28:0.003851 32:5.9e-05 38:7.5e-05 39:0.000101 42:0.000656 43:0.284496 44:0.031525 47:0.002192 48:0.015104 59:1.1e-05 60:1.6e-05 63:0.004085 64:0.151632 
1 1:0.374805 2:0.010896 3:1.1e-05 5:0.002107 6:0.060416 7:0.010299 10:0.000272 11:0.000107 17:0.000981 18:0.000304 21:0.001488 22:0.060805 23:0.059883 24:5.9e-05 26:0.000731 27:0.011541 28:0.000171 38:0.004331 39:0.000133 42:0.001477 43:0.302304 44:0.017205 47:0.001867 48:0.013493 59:0.001968 60:0.000133 63:0.001947 64:0.060267 
1 1:0.328448 2:0.038384 3:4.8e-05 6:0.006357 7:0.001109 8:3.2e-05 17:0.001061 18:0.001781 19:1.1e-05 21:0.002469 22:0.107573 23:0.080304 24:0.000357 26:0.000267 27:0.012773 28:0.003883 31:5e-06 32:0.000304 37:5e-06 38:0.007157 39:0.027707 40:5e-06 42:0.002208 43:0.102544 44:0.031216 47:0.000272 48:0.014469 59:0.052267 60:0.004779 63:0.006357 64:0.165845 
1 1:0.032053 2:0.001099 5:0.039413 6:0.179685 9:0.000523 10:0.021061 11:0.022112 14:1.6e-05 15:0.00016 17:0.001189 18:0.000661 21:0.038747 22:0.08592 23:7.5e-05 25:0.01072 26:0.029861 27:0.325301 28:1.1e-05 30:0.000112 31:0.043296 32:0.037339 37:5.3e-05 38:0.000421 39:1.1e-05 41:0.001787 42:0.018917 43:0.006997 45:0.000331 46:0.0088 47:0.009248 48:0.035861 57:5e-06 58:9.6e-05 59:0.000213 62:0.000629 63:0.033253 64:0.014021 
1 1:0.30528 2:0.095499 5:0.000421 6:0.094341 7:0.001024 17:0.015888 18:0.001147 19:0.000128 20:0.000192 21:0.005669 22:0.176053 23:0.052027 24:0.001355 26:0.000379 27:0.0456 28:2.1e-05 33:0.000213 37:0.003131 38:0.011301 39:0.000971 40:0.000448 41:5e-06 42:0.004288 43:0.0192 44:0.002464 47:5e-06 48:0.000405 53:0.000336 54:0.000411 57:0.000107 58:0.022016 59:0.010928 60:0.000581 62:0.000619 63:0.023856 64:0.103691 
1 1:0.270651 2:0.194907 3:0.035723 4:0.001376 5:0.002576 6:0.054176 7:0.070144 8:0.001531 10:0.000192 11:0.004576 12:0.000747 15:0.000277 16:0.000112 17:0.017125 18:0.002432 19:0.000155 20:5e-06 21:0.001504 22:0.102656 23:0.054059 24:0.000592 25:5e-06 26:0.001957 27:0.033989 28:0.001957 31:5.9e-05 32:7.5e-05 33:1.1e-05 34:1.1e-05 35:5e-06 37:0.000304 38:0.001472 39:0.001771 41:1.6e-05 42:0.001429 43:0.102021 44:0.026821 47:0.001136 48:0.006075 53:5.3e-05 58:2.1e-05 59:0.000224 60:0.000395 63:9.6e-05 64:0.004581 
1 1:0.322677 2:0.030496 3:0.001584 4:0.000235 5:0.002629 6:0.151179 7:0.004032 8:0.000144 11:0.000245 12:0.000187 17:0.015968 18:0.002613 19:9.6e-05 21:0.012677 22:0.251253 23:0.076101 24:0.000405 25:5.3e-05 26:0.000603 27:0.024651 28:0.001749 32:0.000165 33:1.6e-05 37:0.001728 38:0.007963 39:0.001221 40:3.7e-05 41:0.000267 42:0.013216 43:0.043552 44:0.003328 45:5e-06 46:1.6e-05 47:4.8e-05 48:0.000864 54:2.1e-05 57:1.6e-05 58:0.003381 59:0.003792 60:0.000635 62:0.001861 63:0.013925 64:0.004363 
1 1:0.156149 2:0.188876 3:0.023012 4:2.8e-05 5:0.000182 6:0.087464 7:0.039259 8:0.00379 11:0.000592 12:0.01103 17:0.011534 18:0.001035 19:0.026536 20:0.000517 21:0.004345 22:0.061744 23:0.055352 24:0.031594 26:0.000909 27:0.036261 28:0.032303 32:8.9e-05 37:5e-06 38:9.8e-05 39:0.000107 40:0.000807 42:0.000643 43:0.018662 44:0.042545 47:0.001557 48:0.051534 59:4.7e-05 60:0.000107 63:0.000172 64:0.111114 
1 1:0.123552 2:0.032119 3:0.005188 5:0.000878 6:0.015958 7:0.000215 10:0.000579 11:0.000221 14:6e-06 15:4.2e-05 17:0.049278 18:0.000603 19:6e-06 21:0.019845 22:0.236854 23:0.038943 26:0.004466 27:0.025015 28:0.000167 31:0.001284 32:0.000245 33:2.4e-05 37:0.002961 38:0.045313 39:0.000322 42:0.045791 43:0.310084 44:0.007236 47:0.002221 48:0.007493 54:6e-06 58:6e-06 59:0.000794 60:0.000185 63:0.000776 64:0.021325 
1 1:0.207045 2:0.237888 3:0.000816 4:4.8e-05 5:0.013067 6:0.172245 7:0.022981 9:5e-06 11:5e-06 17:0.000752 18:0.000347 19:6.4e-05 20:2.7e-05 21:0.001749 22:0.097227 23:0.01792 24:0.000117 25:1.6e-05 26:0.003483 27:0.017888 28:0.001237 31:5e-06 32:5e-06 33:5e-06 37:1.6e-05 38:0.002592 39:0.000443 40:1.6e-05 41:5e-06 42:0.004117 43:0.131184 44:0.009781 47:0.003477 48:0.014592 59:0.000768 60:0.000165 63:0.001829 64:0.036069 
1 1:0.22032 2:0.039024 3:0.00488 4:0.000992 5:3.7e-05 6:0.024325 7:0.014139 8:0.000363 11:0.000187 12:4.8e-05 17:0.020821 18:0.002939 19:0.000235 20:9.6e-05 21:0.001595 22:0.088336 23:0.122587 24:0.003248 25:0.000139 26:0.000491 27:0.030944 28:0.023691 33:7.5e-05 34:2.1e-05 37:0.000395 38:0.004101 39:0.01008 40:0.002229 41:5.9e-05 42:0.000603 43:0.075872 44:0.088608 45:1.1e-05 46:2.1e-05 47:0.000117 48:0.086 53:1.6e-05 54:1.1e-05 57:0.000155 58:0.000325 59:0.000224 60:0.003163 61:0.001547 62:0.001717 63:0.002112 64:0.123104 
1 1:0.060168 2:0.006565 5:0.00603 6:0.003387 17:0.001237 18:0.00015 21:0.01024 22:0.038282 23:0.028895 26:0.000637 27:0.055147 33:6e-06 37:0.001087 38:0.018096 39:0.000174 41:8.4e-05 42:0.050559 43:0.162444 44:0.038931 47:0.00048 48:0.004216 53:6e-06 54:5.4e-05 57:0.000288 58:0.223411 59:0.013628 60:0.001021 62:0.020192 63:0.145826 64:0.108757 
1 1:0.056869 2:0.000251 5:0.004485 6:0.007616 10:0.001328 17:0.000485 18:0.000251 21:0.007851 22:0.176976 23:0.035595 26:0.010981 27:0.079136 38:0.003936 39:0.000869 42:0.007019 43:0.517739 44:0.006176 47:0.00016 48:0.00688 59:0.000859 60:0.000256 63:0.000283 64:0.074 
1 1:0.189424 2:0.073824 3:0.006597 4:2.1e-05 5:0.000576 6:0.030475 7:0.029163 8:0.000101 9:3.7e-05 10:4.8e-05 11:0.000139 12:2.7e-05 17:0.009349 18:0.010608 19:0.000528 20:4.3e-05 21:0.00184 22:0.075504 23:0.033525 24:0.000219 26:0.001803 27:0.032256 28:0.003072 30:2.7e-05 31:6.4e-05 32:0.000261 33:0.000165 34:0.000256 35:0.000101 37:0.000149 38:0.014133 39:0.00224 40:8e-05 41:3.7e-05 42:0.011435 43:0.099925 44:0.030704 46:5e-06 47:0.006869 48:0.037787 49:5e-06 51:5.9e-05 53:4.8e-05 54:0.000139 55:8.5e-05 56:5e-06 57:7.5e-05 58:0.00248 59:0.015285 60:0.001296 62:0.002187 63:0.022128 64:0.252789 
1 1:0.147519 2:0.007619 5:0.000746 6:0.006079 7:0.000101 11:1.1e-05 17:0.065899 18:0.000566 21:0.046291 22:0.047037 23:0.01546 25:5e-06 26:0.002788 27:0.014688 28:0.00091 33:4.8e-05 37:0.106942 38:0.004175 39:0.000275 41:0.032772 42:0.033508 43:0.022476 44:0.007582 47:0.000656 48:0.014344 53:4.2e-05 54:5e-06 57:0.011868 58:0.089138 59:0.010582 60:0.000185 62:0.003963 63:0.110053 64:0.195667 
1 1:0.511945 2:0.066481 3:0.064075 4:0.009539 5:0.002602 6:0.000687 7:0.028431 8:0.045945 9:3e-05 11:0.00012 12:0.039709 16:0.003855 17:0.011103 18:0.001614 19:5e-06 21:0.005028 22:0.020135 23:0.000211 24:1.5e-05 25:0.000125 26:0.001689 27:0.00016 28:0.003128 29:5e-06 30:7e-05 31:5e-06 32:0.04592 33:0.00218 34:0.000291 35:0.000206 37:0.001749 38:0.006035 39:0.000867 41:0.001193 42:0.003388 43:0.017158 44:0.00012 46:0.000231 47:0.000391 48:0.049363 49:7.5e-05 50:1e-05 51:2e-05 53:0.002627 54:0.002842 55:0.000145 56:0.000346 57:0.000817 58:0.002977 59:0.007624 60:0.000727 61:2e-05 62:0.002271 63:0.002762 64:0.030932 
1 1:0.117888 2:0.025221 3:0.000683 5:0.000219 6:0.062795 7:0.001989 10:5e-06 15:5e-06 17:0.037936 18:0.000187 19:1.1e-05 21:0.017264 22:0.140923 23:0.013269 24:5e-06 26:0.00728 27:0.019669 28:0.000245 31:3.2e-05 32:2.7e-05 33:5e-06 37:0.059003 38:0.01272 39:0.000747 41:0.000123 42:0.011973 43:0.417179 44:0.000139 47:0.000699 48:0.000267 53:4.3e-05 54:4.3e-05 57:3.2e-05 58:0.003483 59:0.004379 60:4.8e-05 62:0.002485 63:0.016821 64:0.02416 
1 1:0.194643 2:0.076871 3:0.003009 5:0.000246 6:0.0263 7:0.013892 8:3.6e-05 11:6e-06 12:6e-06 17:0.044276 18:0.006781 19:5.4e-05 21:0.015123 22:0.172504 23:0.081988 24:0.004607 26:3.6e-05 27:0.012282 28:0.005447 37:0.000156 38:0.003538 39:0.001628 40:6e-06 42:0.000372 43:0.310486 44:0.011994 48:0.002018 59:0.000126 60:0.000282 63:3.6e-05 64:0.011249 
1 1:0.371061 2:0.057723 3:0.001973 5:0.002581 6:0.038603 7:0.005696 11:0.004821 12:2.7e-05 16:5e-06 17:0.013381 18:0.0048 19:6.9e-05 21:0.010069 22:0.152485 23:0.013333 24:5e-06 26:0.000208 27:0.010965 28:0.001765 32:0.000219 33:1.6e-05 34:5e-06 37:0.004139 38:0.045067 39:0.006928 42:0.012619 43:0.172192 44:0.002011 47:5.9e-05 48:0.000853 54:0.000709 58:0.007547 59:0.007237 60:0.001712 63:0.001179 64:0.047936 
1 1:0.411552 2:0.026512 5:0.001275 6:0.048427 7:0.003099 10:3.2e-05 11:0.000165 15:5e-06 16:5e-06 17:0.054272 18:0.002085 19:2.1e-05 21:0.01128 22:0.130091 23:0.000795 24:2.7e-05 25:1.1e-05 26:0.000197 27:0.000757 28:2.1e-05 30:5e-06 31:5e-06 32:1.1e-05 33:0.006795 34:4.3e-05 37:0.023915 38:0.0328 39:0.001723 40:2.1e-05 41:0.000405 42:0.009515 43:0.020523 44:0.000101 47:4.8e-05 48:0.000235 49:2.7e-05 53:0.007616 54:0.000645 55:5e-06 57:0.038139 58:0.031675 59:0.014795 60:0.000101 61:0.009211 62:0.018976 63:0.03912 64:0.052917 
1 1:0.088601 2:0.039069 3:0.003778 4:0.00033 5:0.000438 6:0.142318 7:0.013568 8:0.000492 12:2.4e-05 17:0.05209 18:0.000168 21:0.005171 22:0.044228 23:0.140577 24:0.000637 25:6e-05 26:0.001237 27:0.077844 28:0.016973 32:1.2e-05 37:0.000132 38:0.000799 39:3e-05 41:0.000384 42:0.002709 43:0.069652 44:0.186012 47:1.8e-05 48:0.111814 58:1.2e-05 59:6e-06 63:3e-05 64:0.000787 
1 1:0.193936 2:0.014987 3:0.000709 4:1.1e-05 5:0.000997 6:0.009472 7:0.015429 11:2.1e-05 12:5e-06 17:0.004059 18:0.002373 19:0.000224 20:3.2e-05 21:0.005456 22:0.122101 23:0.077525 24:0.005131 25:2.1e-05 26:0.007883 27:0.009755 28:0.015707 32:1.6e-05 33:2.1e-05 34:5e-06 35:6.4e-05 37:0.011557 38:0.015664 39:0.003984 40:0.000203 41:0.000139 42:0.025125 43:0.416981 44:0.017456 47:0.000208 48:0.006091 58:0.000128 59:0.000283 60:0.002299 63:3.7e-05 64:0.013904 
1 1:0.221203 2:0.03069 3:7.8e-05 4:7e-06 5:0.001687 6:0.020947 7:0.017053 17:0.058021 18:0.000883 19:0.000463 20:0.000883 21:0.045416 22:0.076149 23:0.023737 24:0.000463 26:0.002228 27:0.017786 28:0.003402 33:0.000306 34:0.000121 35:1.4e-05 36:0.000292 37:0.010512 38:0.056811 39:0.003801 40:0.002655 41:0.000157 42:0.033395 43:0.064591 44:0.004306 47:0.000384 48:0.000135 53:0.000349 54:0.001907 55:9.3e-05 56:7.1e-05 57:0.000178 58:0.040996 59:0.063011 60:0.000377 61:7e-06 62:0.003011 63:0.13484 64:0.056584 
1 1:0.367633 2:0.014466 3:0.001043 5:0.003049 6:0.003416 7:0.000321 9:1.1e-05 10:5.7e-05 11:0.000126 12:2.3e-05 17:0.044107 18:0.002235 19:0.000573 21:0.099344 22:0.059845 23:0.011623 24:6.9e-05 25:0.002831 26:0.006763 27:0.008654 28:0.001215 30:1.1e-05 31:0.000596 32:0.000814 38:0.01607 39:0.002384 40:0.001937 41:0.000711 42:0.089429 43:0.076832 44:0.038456 46:0.001204 47:0.006213 48:0.011096 56:1.1e-05 59:0.007703 60:0.021251 62:2.3e-05 63:0.039648 64:0.058206 
1 1:0.754744 2:0.000209 5:0.010596 6:0.004986 7:1.2e-05 17:0.014785 18:0.000245 21:0.012298 22:0.157557 23:0.000177 26:0.00074 27:0.000688 38:0.001022 39:2.8e-05 42:0.000789 43:0.013014 44:7.2e-05 47:0.000189 48:0.000427 58:4e-06 59:0.000402 60:2e-05 63:0.000274 64:0.02672 
1 1:0.00311 2:0.01968 6:0.008355 17:0.002645 18:0.00186 21:0.003175 22:0.23946 23:0.09586 26:0.00012 27:0.126055 37:0.000845 38:0.01534 39:0.00066 42:0.039665 43:0.314735 46:0.00022 47:5e-06 54:0.00092 55:6.5e-05 58:0.013925 59:0.05842 62:0.000505 63:0.028135 64:0.02624 
1 1:0.180361 2:0.027369 3:5.4e-05 5:1.1e-05 6:0.013013 7:5e-06 17:0.005181 18:0.005429 19:0.000113 21:0.000296 22:0.39214 23:0.123709 26:4.3e-05 27:0.007655 33:5.4e-05 37:0.000286 38:0.004054 39:0.045569 42:0.000404 43:0.185768 44:0.001094 47:9.2e-05 48:0.00021 53:0.000588 54:5.9e-05 57:1.1e-05 58:0.000194 59:0.003385 60:0.000296 63:0.000485 64:0.00207 
1 1:0.150645 2:0.120672 3:0.000176 4:2.1e-05 5:0.000235 6:0.028795 7:0.000555 10:2.7e-05 11:0.000112 12:1.1e-05 15:5e-06 16:1.1e-05 17:0.025333 18:0.005915 19:9.1e-05 20:1.1e-05 21:0.018651 22:0.275408 23:0.014635 24:0.000176 26:0.001547 27:0.013285 28:0.000128 31:0.000491 32:0.001115 33:0.000352 34:1.6e-05 37:0.002304 38:0.011072 39:0.000592 40:2.7e-05 41:5.9e-05 42:0.002795 43:0.214789 44:0.054192 47:0.002869 48:0.043072 49:5e-06 53:0.000229 54:8e-05 57:5.9e-05 58:0.000837 59:0.000976 60:0.000219 62:5e-06 63:0.000427 64:0.006976 
1 1:0.194181 2:0.020059 3:2.7e-05 5:0.000795 6:0.007984 7:0.000603 11:5e-06 17:0.007211 18:0.000939 19:1.1e-05 21:0.008864 22:0.09936 23:0.009749 26:0.000997 27:0.015296 28:0.000293 32:3.7e-05 33:0.000139 37:0.008507 38:0.002944 39:0.000373 42:0.003691 43:0.608821 44:0.000949 47:4.3e-05 48:0.001008 53:1.1e-05 54:1.1e-05 57:1.6e-05 58:0.000128 59:0.005211 60:5e-06 63:0.001147 64:0.000587 
1 1:0.260827 2:0.040555 3:0.00048 4:1.1e-05 5:0.000128 6:0.025451 7:0.000144 12:3.2e-05 17:0.010219 18:0.003803 19:0.000197 20:1.6e-05 21:0.042128 22:0.122427 23:0.012341 24:9.6e-05 26:7.5e-05 27:0.00256 28:0.000501 32:3.2e-05 37:0.027717 38:0.122523 39:0.005109 40:1.6e-05 42:0.026731 43:0.098512 44:0.006037 47:0.000123 48:0.005632 54:1.1e-05 55:5e-06 58:0.025728 59:0.009232 60:0.002187 63:0.002213 64:0.146203 
1 1:0.170549 2:0.091243 3:0.001173 5:0.000208 6:0.05976 7:0.0996 8:0.000101 11:6.9e-05 12:5.9e-05 17:0.014379 18:0.000112 21:0.006395 22:0.073547 23:0.127445 26:0.000123 27:0.099893 28:0.08504 33:5e-06 37:1.1e-05 38:0.000405 39:0.000149 42:0.000101 43:0.057936 44:0.070715 47:5e-06 48:0.036309 53:5e-06 58:1.6e-05 59:6.4e-05 60:1.1e-05 63:2.1e-05 64:0.004549 
1 1:0.352768 2:0.011227 3:0.000811 4:5e-06 5:0.002731 6:0.027413 7:0.00064 9:5e-06 10:1.1e-05 11:0.000187 17:0.022197 18:0.001893 19:0.000213 20:4.8e-05 21:0.008795 22:0.437776 23:0.005477 24:0.000224 26:0.001291 27:0.014987 28:0.001371 32:0.000101 33:0.000176 34:1.6e-05 37:0.004768 38:0.042587 39:0.000715 40:0.000139 41:5e-06 42:0.00416 43:0.025936 44:0.004117 47:0.0004 48:0.007467 49:5e-06 53:5.9e-05 54:0.000208 55:1.1e-05 57:4.3e-05 58:0.000416 59:0.003013 60:0.000224 62:4.8e-05 63:0.001355 64:0.013963 
1 1:0.153771 2:0.044101 3:0.002181 4:5e-06 5:0.000416 6:0.015904 7:0.009072 8:5e-06 11:5.3e-05 17:0.009765 18:0.003205 19:0.000597 20:4.3e-05 21:0.006427 22:0.074597 23:0.028011 24:0.00056 25:5e-06 26:0.0032 27:0.019109 28:4.8e-05 33:3.7e-05 37:0.001445 38:0.006224 39:0.001733 40:0.000107 41:3.2e-05 42:0.008661 43:0.435024 44:0.000315 47:0.009883 48:0.000171 53:5e-06 57:2.7e-05 58:0.002357 59:0.005221 60:0.000107 62:1.6e-05 63:0.023669 64:0.133888 
1 1:0.585035 2:0.001563 5:0.013248 6:0.016741 7:0.000352 10:0.002816 11:0.00296 12:0.00016 14:0.003883 15:0.001579 16:0.001003 17:0.015285 18:0.012741 19:1.6e-05 21:0.000523 22:0.031205 23:0.000837 24:1.6e-05 26:0.004448 27:0.009104 28:9.6e-05 30:0.000197 31:0.000293 32:0.001477 33:0.002261 34:0.015024 35:4.8e-05 37:0.000123 38:0.015872 39:0.003019 40:1.6e-05 42:0.000624 43:0.018011 44:0.000869 46:8e-05 47:0.00208 48:0.00672 49:0.001195 50:9.6e-05 51:4.8e-05 53:3.2e-05 54:0.000795 55:0.000704 56:4.3e-05 58:0.000363 59:0.002277 60:0.000747 62:2.1e-05 63:0.000736 64:0.222619 
1 1:0.275531 2:0.048048 3:0.005883 4:5.9e-05 5:0.000709 6:0.026485 7:0.010816 8:0.000117 9:5e-06 10:5.3e-05 11:0.001184 12:5.3e-05 15:5e-06 17:0.002245 18:0.00912 19:0.000816 20:0.000571 21:0.000907 22:0.147387 23:0.070139 24:0.000512 25:5e-06 26:0.000453 27:0.068171 28:0.001739 31:1.1e-05 32:0.000171 34:2.1e-05 36:3.2e-05 37:5e-06 38:0.001301 39:0.00976 40:0.000624 42:0.000555 43:0.303621 44:0.005477 47:0.000325 48:0.002181 56:1.6e-05 59:0.000299 60:0.000629 63:0.000171 64:0.003787 
1 1:0.405893 2:0.144907 3:0.002789 4:5.3e-05 5:0.001179 6:0.047701 7:0.001536 8:1.1e-05 11:0.000107 12:5e-06 17:0.015467 18:0.007269 19:0.003259 20:0.000843 21:0.00336 22:0.167824 23:0.007541 24:0.000821 25:3.7e-05 26:0.001179 27:0.003232 28:3.7e-05 33:0.000155 34:1.6e-05 36:5e-06 37:0.000251 38:0.026832 39:0.001328 40:5.9e-05 41:2.7e-05 42:0.008917 43:0.117712 44:0.008421 46:5e-06 47:0.000341 48:0.008907 49:5.3e-05 53:1.6e-05 54:0.000176 55:2.1e-05 57:5e-06 58:0.001499 59:0.003328 60:0.000363 62:0.000384 63:0.001515 64:0.004613 
1 1:0.039067 2:0.023317 3:0.020368 5:0.000299 6:0.011963 7:0.014944 8:6.4e-05 17:0.006368 18:0.007371 19:1.1e-05 21:0.002053 22:0.277579 23:0.024624 24:0.006283 26:0.000181 27:0.00248 28:0.004736 38:0.013701 39:0.001323 42:0.012112 43:0.088939 44:0.01928 47:0.000128 48:0.014992 55:1.1e-05 59:0.032229 60:0.000213 63:0.008235 64:0.367131 
1 1:0.218078 2:0.029309 3:6e-06 5:0.001273 6:0.025141 7:0.006907 8:0.000511 11:0.002198 12:0.000276 17:0.003544 18:0.000324 19:2.4e-05 21:0.003285 22:0.152342 23:0.032186 24:0.000198 26:0.001099 27:0.087904 28:0.00024 33:0.000276 37:7.2e-05 38:0.001057 39:0.000216 40:6e-06 42:0.000661 43:0.419333 44:0.000246 47:8.4e-05 48:0.000126 59:0.002973 60:0.000102 63:0.001405 64:0.008595 
1 1:0.267915 2:0.026901 3:5e-06 5:0.002747 6:0.039968 17:0.04112 18:0.001563 19:5e-06 21:0.020267 22:0.222555 23:0.005568 26:0.000128 27:0.000587 33:0.005456 34:5e-06 37:0.013285 38:0.041552 39:0.000992 40:2.7e-05 41:0.000213 42:0.038832 43:0.030757 44:0.001141 47:0.00032 48:0.002672 49:1.1e-05 53:0.004043 54:0.000187 57:0.001851 58:0.026427 59:0.037189 60:0.000245 62:4.8e-05 63:0.064069 64:0.101349 
1 1:0.026091 2:0.008336 5:0.018613 6:0.150229 7:0.170416 8:5e-06 9:1.6e-05 10:0.001323 11:0.010112 12:0.000656 16:0.000981 17:0.009259 18:0.000811 21:0.009952 22:0.053931 23:0.005899 24:6.4e-05 25:2.1e-05 26:0.005328 27:0.123984 28:0.132357 31:0.008805 32:0.029675 33:2.1e-05 37:0.000485 38:0.005019 39:0.000213 42:0.005701 43:0.017291 44:0.016507 47:0.000245 48:0.058827 54:5.3e-05 58:0.001419 59:0.005824 60:0.000304 63:0.005248 64:0.115979 
1 1:0.309312 2:0.067179 3:4.3e-05 5:0.004843 6:0.0912 7:0.003296 10:8.5e-05 11:0.000181 15:5.9e-05 17:0.009904 18:0.000512 19:1.1e-05 21:0.014011 22:0.140656 23:0.023493 25:0.000128 26:0.002731 27:0.027067 28:0.000645 31:0.001664 32:0.000635 33:1.6e-05 37:0.001024 38:0.009152 39:0.00048 40:2.7e-05 41:0.000123 42:0.00776 43:0.077659 44:0.002459 47:0.002587 48:0.024299 54:2.7e-05 58:0.000752 59:0.009787 60:0.000912 63:0.009493 64:0.155792 
1 1:0.258751 2:0.016258 3:0.007894 4:0.002577 5:0.022426 6:0.018936 7:0.011585 8:0.001669 9:0.00028 10:4.5e-05 11:0.003317 12:0.001036 16:0.000594 17:0.017064 18:0.001669 19:6e-06 21:0.023692 22:0.136504 23:0.040751 24:0.002078 25:0.005776 26:0.006499 27:0.028515 28:0.008672 30:0.000431 31:0.000258 32:0.002739 33:0.006924 34:0.000807 37:0.017238 38:0.042487 39:0.000319 40:6e-06 41:0.000527 42:0.02902 43:0.068711 44:0.012095 45:6e-06 46:3.4e-05 47:0.002224 48:0.004958 49:0.001373 50:0.00102 54:5.6e-05 57:0.003994 58:0.054151 59:0.068174 60:5.6e-05 61:0.005462 62:0.002168 63:0.038459 64:0.019709 
1 1:0.166165 2:0.234992 3:0.000725 5:0.000165 6:0.067893 7:0.014059 8:5.3e-05 11:3.2e-05 12:2.7e-05 17:0.005883 18:0.001493 19:1.1e-05 21:0.000949 22:0.151573 23:0.082016 24:5.3e-05 26:0.000261 27:0.051131 28:0.010768 32:0.00072 33:7.5e-05 37:7.5e-05 38:0.000501 39:0.000667 41:1.1e-05 42:0.000336 43:0.096811 44:0.055147 47:0.000128 48:0.04968 53:1.1e-05 54:3.2e-05 57:5e-06 58:2.1e-05 59:0.00016 60:0.000176 63:8e-05 64:0.007115 
1 1:0.205499 2:0.066203 3:9.6e-05 5:0.000283 6:0.019317 7:0.000411 8:0.00016 11:5e-06 12:3.2e-05 17:0.012619 18:0.002032 19:0.000187 20:3.7e-05 21:0.005536 22:0.104165 23:0.100288 24:0.000192 26:0.000571 27:0.005749 28:0.000965 31:5e-06 32:5e-06 33:0.000293 37:0.007547 38:0.012144 39:0.001856 40:0.00016 41:0.000267 42:0.006368 43:0.086784 44:0.010635 47:0.008096 48:0.036005 53:0.000485 54:0.000208 57:0.000149 58:0.002144 59:0.011509 60:0.001019 63:0.011115 64:0.278859 
1 1:0.20384 2:0.093621 3:0.000821 4:5e-06 5:0.004267 6:0.038944 7:0.054229 8:0.000496 9:1.1e-05 10:6.4e-05 11:0.000101 12:0.000464 14:5e-06 15:1.1e-05 17:0.032352 18:0.004619 19:8.5e-05 21:0.025131 22:0.149269 23:0.044411 24:0.000971 26:0.001557 27:0.012453 28:0.01504 31:0.000107 32:8.5e-05 33:0.000763 34:0.000112 37:0.001131 38:0.014523 39:0.001803 41:3.2e-05 42:0.015947 43:0.141333 44:0.005328 47:0.000432 48:0.003451 53:2.7e-05 54:2.1e-05 57:5e-06 58:7.5e-05 59:0.077611 60:0.00096 63:0.022704 64:0.030784 
1 1:0.411195 2:0.033909 3:0.002208 4:0.000256 5:0.006603 6:0.026443 7:0.003467 8:0.001803 9:5.9e-05 10:0.000117 11:0.000277 12:0.000128 17:0.012517 18:0.003872 19:0.00032 20:0.000101 21:0.007973 22:0.160677 23:0.027083 24:0.000581 25:4.3e-05 26:0.003419 27:0.039067 28:0.000491 31:4.8e-05 32:0.000139 33:0.000101 34:0.000176 35:4.3e-05 36:6.9e-05 37:0.001557 38:0.006176 39:0.004395 40:0.000496 41:0.00016 42:0.004603 43:0.186 44:0.009792 47:0.002229 48:0.010053 50:5e-06 53:2.7e-05 54:1.1e-05 55:3.7e-05 57:5e-06 58:0.000235 59:0.002208 60:0.001749 62:1.1e-05 63:0.004256 64:0.022811 
1 1:0.197147 2:0.020192 3:0.000421 4:5e-06 5:0.003355 6:0.066987 7:0.009643 8:1.6e-05 10:1.1e-05 11:0.000101 12:1.1e-05 17:0.000352 18:0.000192 20:1.6e-05 21:0.000149 22:0.091755 23:0.071931 24:0.000592 26:0.002464 27:0.164117 28:0.00272 32:4.3e-05 37:5e-06 38:0.007931 39:0.000928 42:0.002555 43:0.090176 44:0.061045 47:0.000309 48:0.082912 59:0.0012 60:0.001088 63:2.7e-05 64:0.119605 
1 1:0.275749 2:0.036368 3:0.00416 4:0.000293 5:0.001856 6:0.034843 7:0.011483 8:0.001653 10:2.1e-05 11:0.0024 12:1.6e-05 17:0.014165 18:0.008485 19:0.000181 20:5e-06 21:0.015664 22:0.113653 23:0.051413 24:0.001579 26:0.000432 27:0.055248 28:0.011568 32:8e-05 34:0.000971 37:1.6e-05 38:0.030576 39:0.014971 40:4.8e-05 42:0.013872 43:0.175189 44:0.054709 47:0.000171 48:0.011941 55:0.000117 58:0.009269 59:0.005659 60:0.000464 63:0.000299 64:0.040411 
1 1:0.44896 2:0.075264 5:0.000123 6:0.060304 17:0.014464 18:0.001867 21:0.009637 22:0.168517 23:0.046864 26:0.000187 27:0.002011 28:1.1e-05 33:0.000544 34:5e-06 37:0.000581 38:0.012949 39:0.000608 40:1.6e-05 42:0.003627 43:0.023669 44:0.001232 47:1.1e-05 48:0.000512 49:4.3e-05 53:0.003797 54:0.002064 55:5e-06 57:0.000976 58:0.003163 59:0.008043 60:0.001403 61:0.000219 62:0.006373 63:0.0028 64:0.099152 
1 1:0.162859 2:0.028416 3:0.014448 5:0.008192 6:0.036021 7:0.002976 17:0.008101 18:0.000885 19:0.000459 20:5e-06 21:0.00056 22:0.137403 23:0.069653 24:0.000469 26:4.8e-05 27:0.067184 28:0.006523 32:4.3e-05 37:5e-06 38:0.000507 39:0.000213 40:5e-06 42:0.000245 43:0.030448 44:0.055072 47:0.000411 48:0.051333 58:5e-06 59:0.001557 60:0.000427 63:0.000971 64:0.314555 
1 1:0.301886 2:0.029231 3:6e-05 4:1.2e-05 5:0.000541 6:0.016276 7:0.003441 8:0.000102 10:1.2e-05 12:0.001027 13:1.8e-05 14:6e-06 15:6e-06 17:0.006721 18:0.001345 19:3e-05 20:6e-06 21:0.00191 22:0.180895 23:0.092432 24:0.000498 26:0.000306 27:0.042595 28:0.014709 29:0.000156 30:5.4e-05 31:2.4e-05 32:0.001646 33:0.000108 34:4.2e-05 37:6.6e-05 38:0.005423 39:0.000991 40:1.8e-05 42:0.003045 43:0.135652 44:0.002895 45:0.000102 46:7.8e-05 47:0.000559 48:0.006024 49:6e-06 53:2.4e-05 54:6.6e-05 55:3e-05 57:1.2e-05 58:0.00012 59:0.00785 60:0.000438 61:2.4e-05 62:0.000108 63:0.007093 64:0.133279 
1 1:0.086042 2:0.112823 3:0.001243 5:0.000997 6:0.050757 7:0.011153 8:0.000198 10:1.8e-05 11:6e-05 12:9e-05 17:0.005652 18:0.006829 19:0.000102 21:0.001628 22:0.090228 23:0.035562 24:0.000426 26:0.000276 27:0.011976 28:0.002817 31:6e-06 32:0.000336 33:6e-06 34:1.2e-05 35:6e-06 37:2.4e-05 38:0.003363 39:0.002505 40:1.8e-05 41:1.2e-05 42:0.000643 43:0.038252 44:0.034577 47:0.00012 48:0.01779 53:6e-06 55:1.2e-05 57:6e-06 58:0.000102 59:0.001141 60:0.001135 63:0.001165 64:0.479886 
1 1:0.351803 2:0.020352 5:5.3e-05 6:0.036491 7:0.088533 11:0.001824 17:0.094784 18:0.009093 19:2.1e-05 21:0.02136 22:0.125232 23:0.018539 25:1.1e-05 26:0.000389 27:0.042864 28:0.000816 32:1.1e-05 33:0.000112 34:0.000117 37:0.026427 38:0.02744 39:0.005701 40:0.00088 41:0.002315 42:0.005776 43:0.019952 44:0.039109 46:1.1e-05 47:8.5e-05 48:0.000288 53:0.000112 54:4.3e-05 55:3.7e-05 56:4.8e-05 57:0.00216 58:0.004171 59:0.007653 60:0.002475 61:0.000464 62:0.001301 63:0.00696 64:0.034187 
1 1:0.183877 2:0.031419 3:9.6e-05 5:0.000144 6:0.045035 7:0.000448 17:0.000107 18:0.000117 21:0.000352 22:0.107803 23:0.132181 26:0.000149 27:0.165445 28:2.7e-05 37:0.000565 38:0.001211 39:2.1e-05 42:0.000592 43:0.126517 44:0.061371 47:2.7e-05 48:0.10896 53:2.1e-05 54:0.000123 57:5e-06 58:0.000613 59:0.000512 63:0.000256 64:0.032005 
1 1:0.417322 2:0.025428 3:0.00013 5:0.001546 6:0.022047 7:0.000962 11:6e-06 17:0.007534 18:0.00013 19:6e-06 21:0.016543 22:0.059705 23:0.01574 24:0.000478 25:1.2e-05 26:0.000796 27:0.017133 28:0.005829 33:0.002047 37:0.005522 38:0.006914 39:0.000212 41:0.000165 42:0.01144 43:0.223257 44:0.028867 46:6e-06 47:0.001917 48:0.020171 53:2.4e-05 54:4.7e-05 57:1.8e-05 58:0.001575 59:0.019528 60:0.000124 63:0.044478 64:0.042342 
1 1:0.334245 2:0.173349 3:0.00168 4:7.5e-05 5:0.001888 6:0.104923 7:0.044171 8:0.001317 10:5e-06 12:5e-06 17:0.009088 18:0.002224 19:9.6e-05 20:1.6e-05 21:0.013349 22:0.081376 23:0.040293 24:0.002192 26:0.000405 27:0.012123 28:0.001797 31:5e-06 32:2.1e-05 33:0.000229 34:5e-06 37:0.001323 38:0.013173 39:0.002624 40:0.000533 41:5.9e-05 42:0.010043 43:0.040069 44:0.002315 47:0.001648 48:0.005408 53:5e-06 54:5e-06 55:0.000176 58:0.000651 59:0.016181 60:0.000213 62:5e-06 63:0.016907 64:0.063781 
1 1:0.286011 2:0.05336 3:0.009781 4:0.000907 5:0.006475 6:0.033701 7:0.036592 8:0.000224 9:0.000107 10:0.000293 11:0.001216 12:0.000656 15:5e-06 16:8.5e-05 17:0.00712 18:0.006085 19:0.000677 20:4.8e-05 21:0.005696 22:0.106672 23:0.033125 24:0.006032 25:0.000411 26:0.002656 27:0.022555 28:0.00784 31:5e-06 32:5e-06 33:0.000416 34:5.3e-05 35:1.1e-05 37:0.001611 38:0.022048 39:0.004629 40:4.3e-05 41:0.000277 42:0.012261 43:0.275451 44:0.021632 46:2.7e-05 47:0.001461 48:0.001717 53:5e-06 54:6.4e-05 57:4.3e-05 58:0.001157 59:0.00632 60:0.000624 62:0.000117 63:0.010805 64:0.010885 
1 1:0.198912 2:0.067072 3:3.5e-05 5:0.002321 6:0.050023 7:0.029618 8:0.000127 10:2.3e-05 11:0.018206 12:0.000602 17:0.013663 18:0.002865 19:0.000122 21:0.00827 22:0.160029 23:0.024253 24:0.00022 26:0.001389 27:0.07213 28:0.019323 31:6e-06 32:0.010463 37:0.003455 38:0.021591 39:0.004323 40:5.8e-05 41:0.000191 42:0.010422 43:0.089329 44:0.008328 47:0.000174 48:0.029433 53:1.2e-05 54:0.000203 57:0.000133 58:0.02386 59:0.011765 60:0.003056 62:0.003524 63:0.00717 64:0.103304 
1 1:0.019163 2:0.025643 3:1.1e-05 6:0.030699 7:0.077861 8:0.007189 11:0.001109 12:0.006944 17:0.000581 18:0.00104 21:0.00032 22:0.057765 23:0.08416 24:0.003125 26:0.000507 27:0.104768 28:0.180768 32:0.015787 33:0.000416 34:0.000144 37:0.002277 38:0.009995 39:0.005179 40:1.1e-05 42:0.001728 43:0.079595 44:0.047696 47:3.7e-05 48:0.091563 49:2.1e-05 50:8e-05 51:5e-06 53:0.002704 54:0.001957 55:0.000517 56:5e-06 57:3.2e-05 58:0.004875 59:0.009461 60:0.003936 62:0.003557 63:0.047461 64:0.069307 
1 1:0.804464 2:0.022357 3:0.000213 4:5e-06 5:0.004656 6:0.016704 7:0.004197 8:2.1e-05 9:2.1e-05 10:0.002677 11:0.001728 12:0.000224 14:4.3e-05 15:0.000608 16:0.000251 17:0.004064 18:0.001931 19:8.5e-05 20:2.1e-05 21:0.004437 22:0.073435 23:0.017995 24:3.2e-05 26:0.00072 27:0.004523 28:0.000272 31:0.000128 32:0.000475 38:0.001072 39:0.000992 40:3.2e-05 42:0.001755 43:0.019381 44:0.002453 47:0.000101 48:0.000709 55:5e-06 59:0.003093 60:4.8e-05 63:0.002149 64:0.00192 
1 1:0.382649 2:0.042354 3:0.001532 4:0.000517 5:0.000498 6:0.037381 7:0.123658 8:0.001249 11:0.003742 12:0.000667 21:1.2e-05 22:0.000258 23:0.060787 24:0.000727 26:6e-06 27:0.073934 28:0.129081 31:6e-06 32:0.002883 37:6e-06 38:6e-06 40:6e-06 43:0.000414 44:0.028805 47:1.8e-05 48:0.080805 60:3e-05 64:0.02797 
1 1:0.066661 2:0.065328 3:0.002245 5:0.001936 6:0.042635 7:0.025861 8:0.029232 10:6.9e-05 12:1.6e-05 17:0.001323 18:0.000976 19:7.5e-05 21:0.001285 22:0.093392 23:0.124112 24:0.000272 25:2.7e-05 26:0.00224 27:0.097931 28:0.001493 33:1.1e-05 34:2.7e-05 37:0.000443 38:0.003824 39:0.000763 41:5e-06 42:0.00032 43:0.145627 44:0.03112 47:0.000885 48:0.04832 53:2.1e-05 55:5e-06 57:2.7e-05 58:1.6e-05 59:0.000379 60:0.000597 63:0.000155 64:0.210347 
1 1:0.126853 2:0.002288 5:0.002656 6:0.01568 7:0.000843 8:3.7e-05 11:5.3e-05 12:1.6e-05 17:0.003909 18:0.000203 21:0.004565 22:0.309904 23:0.0044 24:2.7e-05 26:0.005701 27:0.024325 28:0.001429 31:5e-06 32:0.000245 33:2.1e-05 37:0.000192 38:0.006933 39:0.000224 41:1.6e-05 42:0.010139 43:0.333019 44:0.012517 47:0.001264 48:0.027317 58:0.000192 59:0.001429 60:0.00032 62:7.5e-05 63:0.003861 64:0.099339 
1 1:0.220379 2:0.089888 3:0.0016 5:0.000576 6:0.100197 7:0.047845 10:6.4e-05 11:0.003845 12:0.000181 15:1.1e-05 16:0.000165 17:0.002437 18:0.0036 19:0.000235 21:0.000187 22:0.10856 23:0.088608 24:3.2e-05 26:0.000539 27:0.127931 28:0.006315 31:0.000144 32:0.002773 33:4.3e-05 34:0.000133 38:0.001264 39:0.001211 42:0.000224 43:0.040368 44:0.019056 47:0.000501 48:0.045659 54:4.8e-05 55:5e-06 58:1.6e-05 59:0.000704 60:0.000661 63:0.000149 64:0.083845 
1 1:0.560293 2:0.080613 3:0.000949 4:0.000533 5:0.003445 6:0.071269 7:0.008805 8:0.000203 9:5e-06 10:1.1e-05 11:0.0004 16:5e-06 17:0.002501 18:0.002837 19:0.000261 20:5e-06 21:0.002683 22:0.076347 23:0.061099 24:0.006443 25:0.000171 26:0.000299 27:0.035376 28:0.029056 32:5e-06 33:2.7e-05 34:5e-06 37:0.000907 38:0.000731 39:0.000677 40:2.7e-05 41:0.000171 42:0.000117 43:0.030496 44:0.020027 47:1.6e-05 48:0.000288 53:2.7e-05 55:5e-06 57:5e-06 59:0.000325 60:8.5e-05 63:1.6e-05 64:0.002432 
1 1:0.609029 2:0.145808 3:6.4e-05 6:0.013995 7:0.063893 8:4.8e-05 11:2.1e-05 12:3.2e-05 18:4.3e-05 22:0.000277 23:0.006613 24:0.000373 27:0.002325 28:0.057067 32:0.001733 35:5e-06 39:1.6e-05 43:0.000112 44:0.000624 48:0.065328 55:5e-06 56:5e-06 59:5e-06 60:6.9e-05 64:0.032507 
1 1:0.736411 2:0.044155 3:6.9e-05 5:0.006491 6:0.029424 7:0.001301 8:5.3e-05 11:5e-06 12:4.8e-05 17:0.005883 18:0.00832 21:0.002032 22:0.148389 23:0.003621 26:2.1e-05 27:5.9e-05 28:2.1e-05 32:3.2e-05 33:5e-06 34:1.1e-05 38:0.000944 39:0.002859 42:0.000325 43:0.007861 44:2.1e-05 48:1.1e-05 59:0.000496 60:5.3e-05 63:0.000112 64:0.000965 
1 1:0.196238 2:0.034682 3:0.003264 4:0.00463 5:0.003657 6:0.031591 7:0.023449 8:0.001291 10:6e-06 11:0.000353 12:0.000312 17:0.002477 18:0.00026 21:0.010556 22:0.12401 23:0.102361 24:0.000284 25:0.000787 26:0.008252 27:0.049861 28:0.004751 32:2.3e-05 37:0.00015 38:0.006898 39:0.000307 41:0.000122 42:0.012101 43:0.262992 44:0.012934 46:6e-06 47:0.002512 48:0.012355 58:0.000799 59:0.003808 60:0.000498 62:0.000197 63:0.00408 64:0.077147 
1 1:0.351417 2:0.1437 5:0.0007 6:0.195292 7:0.0046 17:0.000183 18:0.000333 21:3.3e-05 22:0.074292 23:0.036425 26:0.001033 27:0.036 28:7.5e-05 38:8.3e-05 39:0.000317 42:0.001208 43:0.081192 44:0.003558 47:0.004067 48:0.022783 59:0.000167 60:3.3e-05 63:0.001183 64:0.041325 
1 1:0.056462 2:0.031815 3:4.3e-05 5:0.002825 6:0.040215 7:0.001465 9:8.6e-05 17:0.003668 21:0.00976 22:0.164049 23:0.147606 25:0.00288 26:0.042382 27:0.112966 28:9.2e-05 37:0.000271 38:0.001895 39:6e-06 41:0.004326 42:0.09504 43:0.222222 44:0.008738 47:0.011711 48:0.013828 58:0.000751 59:0.012283 63:0.007385 64:0.005231 
1 1:0.02756 2:0.091365 3:0.029843 4:0.000409 5:0.000862 6:0.010258 7:0.021283 8:0.008214 12:1.3e-05 17:0.009579 18:0.074038 19:0.069591 20:0.016635 21:0.002717 22:0.088994 23:0.223094 24:0.087453 26:0.000119 27:0.002214 28:0.043 35:3.1e-05 36:6e-06 37:3.8e-05 38:0.001038 39:0.007409 40:0.014541 41:4.4e-05 42:0.000245 43:0.004774 44:0.06944 47:6e-06 48:0.02161 55:2.5e-05 56:2.5e-05 57:6e-06 58:0.000138 59:0.003195 60:0.00627 62:6e-06 63:0.00161 64:0.062302 
1 1:0.205226 2:0.05073 3:0.124596 4:5e-05 5:0.003042 6:0.018368 7:0.011894 8:0.000992 10:8.4e-05 11:0.000423 12:9.5e-05 16:1.1e-05 17:0.005788 18:0.001298 19:0.002864 20:2.8e-05 21:0.014301 22:0.120056 23:0.05146 24:0.003616 25:1.1e-05 26:0.005577 27:0.123354 28:0.005437 31:3.9e-05 32:0.000914 33:3.9e-05 34:6e-06 37:0.000156 38:0.003604 39:0.000479 40:6.1e-05 42:0.003967 43:0.169426 44:0.008273 47:0.002735 48:0.014735 53:6e-06 54:5e-05 55:1.1e-05 57:6e-06 58:0.000123 59:0.003872 60:0.000362 62:6e-06 63:0.002407 64:0.039426 
1 1:0.112325 2:0.043685 3:2.1e-05 5:0.001408 6:0.106987 7:0.007547 10:1.1e-05 11:9.1e-05 17:0.000901 18:0.000645 21:0.000464 22:0.174112 23:0.022048 26:0.019168 27:0.116176 28:4.3e-05 31:5e-06 32:1.6e-05 37:1.1e-05 38:0.002219 39:0.000555 42:0.006235 43:0.317413 44:0.000224 47:0.001408 48:0.001227 58:6.4e-05 59:0.005045 60:5e-06 63:0.019968 64:0.039973 
1 1:0.099803 2:0.104171 3:0.100555 4:1.6e-05 5:4.3e-05 6:0.016267 7:0.015035 8:5e-06 11:5e-06 17:0.001504 18:0.006912 19:0.003867 20:0.000421 21:0.00048 22:0.051451 23:0.042779 24:0.002133 26:3.7e-05 27:0.032256 28:0.004768 34:5e-06 38:0.001307 39:0.000768 40:0.000139 42:0.000155 43:0.171531 44:0.063157 47:0.000187 48:0.046085 59:0.000565 60:0.000704 63:0.000155 64:0.232736 
1 1:0.363163 2:0.053483 3:0.00032 4:2.1e-05 5:0.014533 6:0.100491 7:0.006539 8:2.7e-05 10:5e-06 11:5.3e-05 12:1.1e-05 17:0.001749 18:0.000277 19:3.2e-05 21:0.001723 22:0.121611 23:0.041616 24:0.000256 26:0.000565 27:0.021291 28:0.00112 31:1.6e-05 32:5.9e-05 38:0.001301 39:0.000517 40:0.000112 42:0.001915 43:0.123259 44:0.075264 46:1.1e-05 47:0.000464 48:0.036987 59:0.000443 60:0.000288 63:0.00024 64:0.03024 
1 1:0.285083 2:0.172736 3:0.003877 5:0.000309 6:0.056427 7:0.001589 17:0.017909 18:0.001211 19:0.00136 21:0.015035 22:0.122064 23:0.009365 26:0.003317 27:0.033413 28:0.000699 32:5e-06 33:1.1e-05 37:4.8e-05 38:0.009723 39:0.000459 42:0.004603 43:0.205824 44:0.000245 47:0.000101 48:0.000315 54:5e-06 55:5e-06 58:0.000256 59:0.010331 60:3.2e-05 63:0.011376 64:0.032267 
1 1:0.276348 2:0.077802 3:0.001598 5:0.007964 6:0.084799 7:0.021435 9:6e-05 10:6e-06 11:2.4e-05 13:6e-06 14:6e-06 17:0.046042 18:0.000871 21:0.045994 22:0.151003 23:0.016505 24:6e-06 25:0.003009 26:0.012498 27:0.012168 28:6.6e-05 29:0.000859 30:0.004553 31:0.000402 32:0.000222 33:1.2e-05 35:0.000102 37:0.000198 38:0.007658 39:0.000889 41:0.001447 42:0.009556 43:0.063526 44:0.009502 45:0.00391 46:0.002505 47:0.012619 48:0.008661 55:6e-06 57:0.000204 58:0.000426 59:0.004541 60:0.001099 61:0.000102 62:0.000288 63:0.005676 64:0.102829 
1 1:0.175509 2:0.089243 3:0.006475 5:0.001493 6:0.085211 7:0.125749 8:3.7e-05 10:2.1e-05 11:0.060853 12:0.000256 16:0.000197 17:0.005952 18:0.000421 19:0.000123 21:0.0036 22:0.093739 23:0.028475 24:5.3e-05 26:0.001915 27:0.030741 28:0.003115 31:1.1e-05 32:0.001867 33:6.9e-05 37:0.001259 38:0.001552 39:0.00016 41:2.1e-05 42:0.001365 43:0.07008 44:0.00704 46:5e-06 47:0.00216 48:0.022325 53:0.001296 54:2.1e-05 57:8.5e-05 58:6.9e-05 59:0.001653 60:4.3e-05 62:2.7e-05 63:0.002144 64:0.173568 
1 1:0.15388 2:0.08495 3:0.000185 4:8.5e-05 5:2e-05 6:0.04343 7:0.009195 11:1e-05 17:0.00396 18:0.042935 19:0.00017 20:4e-05 21:0.0001 22:0.12542 23:0.10739 24:0.00597 27:0.00518 28:0.00155 33:0.00034 34:0.00011 35:2.5e-05 36:5e-06 37:1e-05 38:0.00267 39:0.042975 40:0.000535 42:0.00014 43:0.062675 44:0.06503 48:0.00084 49:0.00011 50:1.5e-05 53:3e-05 54:0.000105 55:5.5e-05 56:3e-05 57:1.5e-05 58:0.00011 59:0.00332 60:0.07893 61:5e-06 62:2e-05 63:2e-05 64:0.15741 
1 1:0.328437 2:0.312123 3:0.002603 5:0.000192 6:0.0336 7:0.096251 8:0.000101 11:2.1e-05 12:3.2e-05 17:0.005147 18:0.003797 21:0.000864 22:0.018827 23:0.012059 24:0.000144 26:5e-06 27:0.001877 28:0.000795 32:3.2e-05 33:5e-06 37:3.2e-05 38:0.000549 39:0.000901 40:5e-06 42:0.001429 43:0.002555 44:0.003456 48:0.004629 54:1.1e-05 58:0.003168 59:0.00104 60:3.7e-05 62:0.00064 63:0.003029 64:0.161605 
1 1:0.165979 2:0.022411 3:5.3e-05 5:0.007861 6:0.015584 7:0.002485 9:7.5e-05 10:0.000469 11:0.006768 12:0.000704 16:5e-06 17:0.018309 18:0.003307 20:5e-06 21:0.015776 22:0.086981 23:0.000752 25:1.6e-05 26:0.001125 27:0.001605 28:0.003813 30:5e-06 32:0.003333 33:8.5e-05 34:1.6e-05 37:0.005013 38:0.040112 39:0.000997 41:0.003019 42:0.072219 43:0.080805 44:0.0004 46:1.1e-05 47:0.000896 48:0.001664 53:5e-06 54:3.2e-05 57:4.3e-05 58:0.001451 59:0.026837 60:0.000213 62:0.000133 63:0.101728 64:0.306896 
1 1:0.360128 2:0.011248 3:0.000187 4:1.1e-05 5:0.002352 6:0.00608 10:1.1e-05 11:8e-05 17:0.038064 18:0.003184 19:3.7e-05 21:0.019904 22:0.171877 23:0.004629 25:1.6e-05 26:0.000981 27:0.010608 28:0.000971 33:3.7e-05 37:0.000331 38:0.017136 39:0.001605 41:2.1e-05 42:0.009333 43:0.075163 44:0.014283 47:0.000677 48:0.007717 54:2.7e-05 58:0.000309 59:0.011061 60:0.002384 63:0.007664 64:0.221883 
1 1:0.154251 2:0.038384 3:0.000256 5:0.00016 6:0.011653 7:0.019003 8:0.000251 11:1.1e-05 12:3.7e-05 17:0.038165 18:0.014533 19:0.000197 21:0.024267 22:0.096352 23:0.027563 24:0.001141 26:2.7e-05 27:0.00704 28:0.004117 32:5e-06 33:1.1e-05 34:1.1e-05 37:9.6e-05 38:0.014672 39:0.003781 42:0.002299 43:0.099184 44:0.007061 47:0.000421 48:0.002203 58:4.3e-05 59:0.011301 60:0.010528 62:1.6e-05 63:0.001872 64:0.409088 
1 1:0.108949 2:0.013221 3:4.8e-05 5:0.001717 6:0.06304 7:0.002037 10:1.6e-05 17:0.003899 18:0.0004 19:8e-05 21:0.00488 22:0.118576 23:0.044128 24:5e-06 26:0.004293 27:0.041365 28:3.2e-05 32:5e-06 33:0.000139 37:0.000848 38:0.010368 39:0.001765 42:0.010347 43:0.245323 44:0.002277 47:0.002923 48:0.02112 53:0.000107 54:0.000827 57:5e-06 58:0.001296 59:0.025061 60:0.000475 63:0.01184 64:0.258587 
1 1:0.366901 2:0.231333 3:0.003525 4:0.000459 5:0.001579 6:0.036667 7:0.055088 8:0.005963 9:5e-06 10:3.2e-05 11:0.002912 12:0.018096 15:1.6e-05 16:0.000395 17:0.014981 18:0.015515 19:4.8e-05 21:0.004667 22:0.055808 23:0.044805 24:0.000533 25:5e-06 26:0.000848 27:0.005808 28:0.008725 32:0.006325 33:5.9e-05 34:5e-06 37:0.000544 38:0.001408 39:0.000437 41:9.6e-05 42:0.002965 43:0.007083 44:0.003397 47:0.000539 48:0.005168 49:5e-06 53:5.3e-05 54:3.2e-05 57:0.000987 58:0.001387 59:0.001733 60:0.000688 61:5e-06 62:0.000789 63:0.012763 64:0.078816 
1 1:0.145797 2:0.010441 3:0.000175 5:0.006189 6:0.012559 7:0.016538 8:0.000762 9:0.000622 10:0.000545 11:0.00321 12:0.009371 13:2.1e-05 14:1.4e-05 15:1.4e-05 16:0.000448 17:0.015105 18:0.000154 19:2.1e-05 20:0.000371 21:0.017119 22:0.025161 23:0.009657 24:0.000252 25:0.00193 26:0.032154 27:0.044916 28:0.103923 29:7e-06 31:2.1e-05 32:0.022615 33:0.004084 34:0.000182 37:0.015622 38:0.003497 39:0.000399 40:8.4e-05 41:0.001028 42:0.008741 43:0.068042 44:0.119203 45:4.9e-05 46:2.1e-05 47:0.00035 48:0.152762 49:0.014259 50:9.8e-05 53:0.001224 54:0.000608 55:0.000105 57:2.1e-05 58:4.2e-05 59:0.002119 60:0.000315 63:0.001189 64:0.125846 
1 1:0.137428 2:0.01559 5:0.001687 6:0.14062 7:0.031054 10:0.003849 11:0.069958 12:0.000283 15:4.8e-05 22:0.015916 23:0.008006 26:0.001416 27:0.343548 28:0.040578 31:0.001133 32:0.025114 39:6e-06 43:0.057705 44:0.011066 47:0.001012 48:0.088066 60:6e-06 64:0.00591 
1 1:0.526036 2:0.029988 3:0.00182 4:6e-06 5:0.003778 6:0.016605 7:0.023413 8:9.6e-05 9:0.001401 10:0.000814 11:0.001551 12:0.000216 13:3.6e-05 14:3e-05 15:4.8e-05 16:7.2e-05 17:0.054599 18:0.009719 19:0.000269 20:4.2e-05 21:0.037743 22:0.063545 23:0.04394 24:0.000467 25:0.000281 26:0.001204 27:0.034581 28:0.00509 30:3.6e-05 31:0.000126 32:9e-05 33:0.000485 35:0.000132 36:3e-05 37:0.00724 38:0.013695 39:0.005126 40:0.000174 41:0.010377 42:0.018527 43:0.040683 44:0.008162 45:0.000323 46:0.000605 47:0.00376 48:0.011413 54:3.6e-05 57:1.8e-05 58:0.000611 59:0.001228 60:8.4e-05 61:6.6e-05 62:0.000539 63:0.003156 64:0.015892 
1 1:0.049808 2:0.072325 3:0.012192 4:0.000165 5:0.001184 6:0.032853 7:0.074544 8:0.017872 10:2.1e-05 11:0.010208 12:0.012795 16:1.1e-05 17:0.000155 18:0.001397 19:4.8e-05 21:0.000331 22:0.006075 23:0.012688 24:0.002203 25:2.7e-05 26:0.000576 27:0.034901 28:0.180112 32:0.009013 37:9.1e-05 38:0.000565 39:1.1e-05 40:5e-06 41:5.3e-05 42:0.002027 43:0.001616 44:0.026741 48:0.416379 59:6.9e-05 63:5e-06 64:0.020933 
1 1:0.140604 2:0.107367 3:0.044663 4:0.122328 5:0.002493 6:0.025455 7:0.016475 8:0.043666 9:0.001496 10:0.001208 11:0.00078 12:0.001214 13:1.2e-05 14:0.00017 15:6e-06 16:6.5e-05 17:0.000334 18:0.001349 19:6.5e-05 20:0.000393 21:0.001343 22:0.015672 23:0.027736 24:0.056029 25:0.002194 26:0.000845 27:0.022 28:0.041718 29:6e-06 30:0.00037 31:0.000504 32:0.000792 33:0.000751 34:7.6e-05 37:0.002827 38:0.00285 39:0.000833 40:0.006076 41:0.002293 42:0.001132 43:0.023836 44:0.063337 45:8.2e-05 46:0.000587 47:0.001941 48:0.025396 49:0.000117 50:1.8e-05 53:0.001073 54:0.000692 57:0.000563 58:0.00054 59:0.003079 60:0.001982 62:1.2e-05 63:0.001683 64:0.178874 
1 1:0.499085 2:0.088741 3:0.028407 4:5e-06 5:0.001757 6:0.057503 7:0.064804 8:0.008995 11:3.7e-05 12:0.002016 17:0.000138 18:2.1e-05 21:0.001069 22:0.05609 23:0.030815 24:0.001545 26:0.000275 27:0.032323 28:0.016122 32:0.001397 38:4.8e-05 39:3.2e-05 42:0.000825 43:0.061677 44:0.019751 47:0.000175 48:0.01555 59:4.2e-05 63:0.000116 64:0.01064 
1 1:0.334187 2:0.053797 5:0.000512 6:0.071643 7:0.000539 11:0.000144 17:0.008155 18:0.00064 21:0.0056 22:0.164261 23:0.007472 26:0.000629 27:0.023083 28:4.8e-05 33:8.5e-05 37:0.001883 38:0.019563 39:0.002197 42:0.007952 43:0.038869 44:0.002619 47:0.001051 48:0.005531 53:0.000187 54:0.002032 55:0.000752 58:0.001541 59:0.012912 60:0.002464 63:0.011227 64:0.218427 
1 1:0.203682 2:0.092803 3:0.000141 5:0.000247 6:0.018773 7:0.004136 10:2e-05 11:5e-06 17:0.019005 18:0.004889 19:3.5e-05 21:0.01298 22:0.158576 23:0.048449 24:6.6e-05 25:5.6e-05 26:0.000818 27:0.053652 28:0.000818 31:4.5e-05 32:1.5e-05 33:0.000116 34:5e-06 35:5e-06 37:0.007929 38:0.027975 39:0.001298 40:2e-05 41:0.000167 42:0.021667 43:0.204232 44:0.007717 46:1.5e-05 47:0.001758 48:0.002874 49:5e-06 53:0.000146 54:0.000106 55:2.5e-05 57:8.6e-05 58:0.001687 59:0.012697 60:0.000576 63:0.004126 64:0.085556 
1 1:0.349243 2:0.049982 3:0.000366 4:6e-06 5:0.01039 6:0.051616 7:0.004318 8:1.2e-05 10:3e-05 11:6.6e-05 17:0.003502 18:0.003646 19:1.8e-05 21:0.009033 22:0.335964 23:0.033129 24:6e-06 26:0.000763 27:0.016366 28:0.00036 32:6.6e-05 37:3e-05 38:0.00036 39:0.001453 42:0.000246 43:0.03591 44:0.00382 47:3.6e-05 48:0.028703 59:0.000138 60:4.8e-05 63:0.000162 64:0.06021 
1 1:0.219724 2:0.0177 3:0.001315 4:0.001429 5:0.435898 6:0.007069 7:0.000577 10:6e-05 11:6e-06 17:0.013886 18:0.002174 19:0.000312 20:0.000294 21:0.049532 22:0.075832 23:0.014679 24:0.000168 26:0.001664 27:0.010997 28:0.000805 31:6e-06 34:6e-06 35:2.4e-05 36:4.8e-05 37:0.000192 38:0.011207 39:0.000877 40:0.000559 42:0.001706 43:0.025712 44:0.032168 47:0.00024 48:0.009766 56:0.000384 59:0.001219 60:0.003225 61:1.8e-05 62:3e-05 63:0.002144 64:0.056348 
1 1:0.097771 2:0.034405 3:3.2e-05 5:0.000933 6:0.084347 7:0.027349 11:0.015851 17:0.014656 18:0.002859 21:0.049291 22:0.269579 23:0.044373 26:0.004101 27:0.089509 28:0.03504 31:2.7e-05 32:6.4e-05 33:1.6e-05 37:0.016816 38:0.005584 39:0.001312 41:4.8e-05 42:0.006411 43:0.170341 44:0.009248 47:0.000251 48:0.013269 58:0.000251 59:0.001072 60:4.3e-05 62:3.2e-05 63:0.002533 64:0.002587 
1 1:0.264539 2:0.033877 3:0.000923 4:0.000725 5:0.001536 6:0.036117 7:0.002768 8:2.1e-05 10:0.000117 11:0.000235 12:4.3e-05 15:5e-06 17:0.009989 18:0.001797 19:0.000293 20:0.000277 21:0.014715 22:0.195125 23:0.061211 24:0.002539 26:0.0088 27:0.053077 28:0.002709 31:0.000464 32:0.000843 33:5e-06 34:0.000261 35:1.1e-05 37:0.000357 38:0.006837 39:0.003995 40:0.009205 41:4.3e-05 42:0.01872 43:0.135936 44:0.09112 47:0.000549 48:0.016187 53:1.6e-05 54:1.1e-05 55:1.1e-05 56:0.000603 57:2.1e-05 58:0.002395 59:0.003856 60:0.000981 62:7.5e-05 63:0.000939 64:0.01512 
1 1:0.054651 2:0.058144 3:0.005083 4:4.3e-05 5:0.002528 6:0.069963 7:0.063003 8:0.010037 10:1.1e-05 11:0.000843 12:0.000688 17:0.000267 18:0.001323 19:0.001307 20:0.000224 21:0.000795 22:0.060331 23:0.136064 24:0.103589 26:0.000448 27:0.107621 28:0.049659 31:5e-06 32:0.000955 35:5e-06 38:8.5e-05 39:0.001525 40:0.006267 42:2.7e-05 43:0.040528 44:0.083616 47:4.3e-05 48:0.047611 59:8e-05 60:0.002661 63:2.7e-05 64:0.089947 
1 1:0.146112 2:0.062251 3:0.038123 5:0.000299 6:0.033589 7:0.001291 17:0.001328 18:0.003531 19:9.6e-05 21:0.000123 22:0.121317 23:0.041408 26:0.000155 27:0.039525 38:0.000555 39:0.001264 40:5e-06 42:0.00024 43:0.506693 44:0.001189 48:1.6e-05 59:3.7e-05 60:0.000592 64:0.000261 
1 1:0.600689 2:0.034413 3:0.001521 4:0.000826 5:0.001719 6:0.048192 7:0.045593 8:0.001563 10:6.6e-05 11:0.005246 12:0.006689 16:0.000114 17:0.000934 18:9.6e-05 20:1.8e-05 21:0.000491 22:0.024802 23:0.001042 24:0.000641 25:6e-06 26:0.002156 27:0.01506 28:0.00415 31:3e-05 32:0.001743 33:7.8e-05 37:0.000198 38:0.000952 39:0.000102 40:6.6e-05 41:6e-06 42:0.001784 43:0.021413 44:0.002347 46:6e-06 47:0.002743 48:0.01612 49:2.4e-05 54:1.8e-05 58:0.002126 59:0.001156 60:0.000311 62:6e-05 63:0.00103 64:0.151665 
1 1:0.078901 2:0.098123 3:0.020112 4:0.001605 5:0.001221 6:0.032683 7:0.034267 8:0.008117 10:0.000837 11:0.003029 12:0.002197 17:0.025893 18:0.029179 19:0.007435 20:0.006901 21:0.010037 22:0.127749 23:0.100043 24:0.0068 26:0.000453 27:0.022779 28:0.018133 31:1.1e-05 32:0.002181 33:0.000117 34:0.000123 35:3.2e-05 36:0.002571 37:0.004453 38:0.012149 39:0.009941 40:0.056512 41:0.000187 42:0.002341 43:0.076443 44:0.020181 47:1.6e-05 48:0.050661 53:5.9e-05 54:5e-06 56:0.013995 57:0.000133 58:0.000165 59:0.016699 60:0.007376 62:5e-06 63:0.001936 64:0.085211 
1 1:0.375392 2:0.074005 3:0.000208 4:5e-06 5:0.001856 6:0.064555 7:0.022123 8:0.000224 10:1.1e-05 11:0.000464 12:0.00032 15:5e-06 16:5e-06 17:0.00784 18:0.000203 21:0.011579 22:0.088251 23:0.025221 24:2.1e-05 25:0.000144 26:0.002021 27:0.031669 28:0.022261 29:1.1e-05 30:2.1e-05 31:5e-06 32:0.023013 33:0.000224 37:0.001168 38:0.012848 39:0.000117 41:0.000272 42:0.023328 43:0.024613 44:0.013595 46:0.000144 47:0.002597 48:0.012459 53:5.3e-05 57:0.001616 58:0.00616 59:0.027456 60:5e-06 61:1.1e-05 62:0.003547 63:0.091035 64:0.027317 
1 1:0.158491 2:0.099232 3:0.0004 5:0.001707 6:0.056789 7:0.000485 9:5e-06 10:2.7e-05 11:3.2e-05 12:1.1e-05 17:0.002325 18:0.028176 19:0.013936 20:5e-06 21:0.002283 22:0.182688 23:0.09504 24:0.000123 25:3.7e-05 26:0.004005 27:0.046112 28:3.7e-05 30:5e-06 31:0.000139 32:1.1e-05 33:5e-06 34:3.7e-05 35:3.2e-05 37:8.5e-05 38:0.008949 39:0.010965 40:0.000747 41:1.1e-05 42:0.007483 43:0.177579 44:0.005621 46:3.2e-05 47:0.001957 48:0.003835 53:5e-06 54:5e-06 55:6.9e-05 56:5e-06 57:1.1e-05 58:0.00016 59:0.035285 60:0.002501 62:1.1e-05 63:0.017584 64:0.034923 
1 1:0.513507 2:0.108595 3:0.000294 5:0.003429 6:0.232649 7:0.003964 8:9e-05 9:6e-06 10:2.4e-05 11:0.00033 12:6e-06 14:1.2e-05 15:1.2e-05 17:0.002631 18:0.000655 19:1.2e-05 21:0.00021 22:0.034985 23:0.003147 24:0.000889 26:1.8e-05 27:0.004174 28:0.003483 32:0.016667 33:0.000679 37:0.000426 38:0.00039 39:0.00042 40:0.000378 42:0.00015 43:0.001141 44:0.008204 47:0.000186 48:0.02573 49:0.000553 53:0.000198 54:6.6e-05 55:1.8e-05 56:6e-06 57:0.000523 58:0.000655 59:0.000889 60:0.000246 61:0.000288 62:0.015646 63:0.008414 64:0.005003 
1 1:0.229445 2:0.093579 3:0.00688 4:0.000853 5:0.001979 6:0.036715 7:0.042645 8:0.000336 11:0.000213 12:0.000187 16:8e-05 17:0.010107 18:0.002309 19:0.000192 20:0.000224 21:0.006955 22:0.145861 23:0.106192 24:0.000635 25:2.7e-05 26:0.000853 27:0.034389 28:0.000549 29:2.7e-05 31:5e-06 32:0.000203 33:0.004267 34:1.6e-05 37:0.001344 38:0.010075 39:0.001301 40:8.5e-05 41:0.000144 42:0.003269 43:0.102677 44:0.006725 46:1.6e-05 47:0.00064 48:0.022197 53:1.1e-05 54:3.2e-05 57:9.6e-05 58:0.000629 59:0.006528 60:0.001083 62:0.000117 63:0.002715 64:0.114592 
1 1:0.23776 2:0.002651 5:8.5e-05 6:0.010213 10:5e-06 11:2.7e-05 15:5e-06 16:0.000123 17:0.028005 18:0.001504 21:0.074133 22:0.136827 23:0.005163 24:2.1e-05 26:0.000112 27:0.010752 28:2.7e-05 32:5.3e-05 33:1.1e-05 37:0.000613 38:0.024891 39:0.000347 40:5e-06 42:0.016181 43:0.073403 44:0.000123 47:3.2e-05 48:0.000651 54:9.1e-05 58:0.000992 59:0.273968 60:0.000144 63:0.035696 64:0.065387 
1 1:0.158853 2:0.030853 3:0.003115 4:0.000453 5:7.5e-05 6:0.042565 7:0.121787 8:0.000523 11:0.016565 12:0.000587 17:0.000592 18:0.000208 19:1.1e-05 20:5e-06 21:0.00016 22:0.009029 23:0.035531 24:0.00016 26:0.000149 27:0.176763 28:0.109883 31:6.9e-05 32:0.019696 33:1.6e-05 37:8.5e-05 38:0.001429 39:0.000272 42:0.001771 43:0.013424 44:0.008219 47:0.000277 48:0.05272 53:2.7e-05 54:0.000139 58:0.001504 59:0.002693 60:0.001205 63:0.002075 64:0.186512 
1 1:0.352351 2:0.005399 3:1.9e-05 5:0.002607 6:0.008319 7:0.001425 8:3.2e-05 11:3.2e-05 12:3.2e-05 17:0.006652 18:0.000901 21:0.002958 22:0.166971 23:0.012952 26:0.004166 27:0.051546 28:5.1e-05 33:0.00138 34:1.3e-05 37:0.00039 38:0.02161 39:0.002422 42:0.012288 43:0.310179 44:0.017425 47:0.000339 48:0.004281 54:1.3e-05 58:6e-06 59:0.000888 60:0.00016 63:0.000364 64:0.011827 
1 1:0.240619 2:0.031796 3:0.000258 4:0.00018 5:0.013357 6:0.044793 7:0.005135 8:2.4e-05 10:0.003964 11:0.00376 12:0.001946 17:0.000559 18:0.000324 21:0.00997 22:0.080787 23:0.010799 24:0.000402 25:0.001664 26:0.028529 27:0.055946 28:0.026018 31:2.4e-05 32:0.005544 33:6.6e-05 37:4.8e-05 38:0.008721 39:0.000456 40:3e-05 42:0.03015 43:0.042505 44:0.010787 47:0.002535 48:0.073297 49:0.000126 53:0.000108 57:0.000138 58:3e-05 59:0.006246 60:0.00036 61:3.6e-05 63:0.001856 64:0.256108 
1 1:0.728597 2:0.003419 3:1.1e-05 5:0.000613 6:0.007381 7:0.004213 10:4.3e-05 11:0.000725 12:2.1e-05 17:0.010309 18:0.000128 21:0.004187 22:0.012581 23:0.002165 24:1.6e-05 26:0.000155 27:0.017216 28:0.000432 31:1.6e-05 32:0.000107 33:0.000603 37:0.000336 38:0.003803 39:4.8e-05 42:0.002693 43:0.003904 44:0.000229 46:1.6e-05 47:4.8e-05 48:0.000523 54:9.1e-05 58:0.00024 59:0.002176 60:6.9e-05 62:5.9e-05 63:0.00152 64:0.191307 
1 1:0.661874 2:0.032625 5:0.000583 6:0.017123 7:0.000402 10:4.2e-05 11:2.4e-05 15:6e-06 16:6e-06 17:0.007862 18:0.000523 21:0.006661 22:0.127838 23:0.002685 26:0.000168 27:0.001231 33:0.00036 37:0.009021 38:0.032721 39:0.000354 41:0.000204 42:0.012498 43:0.063562 44:0.00015 47:2.4e-05 48:3e-05 53:0.001502 58:6e-06 59:0.002997 60:0.000511 63:0.000294 64:0.016114 
1 1:0.282613 2:0.019691 3:0.005115 4:0.004688 5:0.005536 6:0.024443 7:0.028299 8:0.018325 10:1.6e-05 11:0.001797 12:0.047413 16:0.024 17:0.018757 18:0.000389 21:0.04616 22:0.266203 23:0.005317 24:2.7e-05 26:0.005067 27:0.010352 28:0.000853 31:5e-06 32:0.014437 33:0.000112 37:0.000213 38:0.023323 39:0.000453 42:0.041061 43:0.063115 44:0.000885 47:0.000357 48:0.001179 53:5e-06 54:0.000139 58:6.9e-05 59:0.000587 60:5.9e-05 63:0.000347 64:0.038592 
1 1:0.123723 2:0.019952 5:0.000645 6:0.019061 7:0.003899 8:0.000139 17:0.000837 18:0.000741 21:0.000997 22:0.156949 23:0.041259 24:0.00056 26:0.000624 27:0.041072 28:0.006688 38:0.000176 39:0.000112 42:0.000384 43:0.13544 44:0.095077 47:0.001483 48:0.051632 59:0.000512 60:5.3e-05 63:0.001104 64:0.29688 
1 1:0.280437 2:0.045077 3:0.002768 4:0.001365 5:0.012965 6:0.035771 7:0.075739 8:0.000587 11:0.000811 12:0.000203 16:8e-05 17:0.014197 18:0.001056 19:5.3e-05 20:2.1e-05 21:0.010085 22:0.105461 23:0.0168 24:3.2e-05 25:1.6e-05 26:0.00096 27:0.00584 28:5.3e-05 31:1.1e-05 32:3.2e-05 33:0.000395 37:0.000475 38:0.005835 39:0.002352 41:5e-06 42:0.004011 43:0.186197 44:0.001344 47:0.000565 48:0.000859 49:1.6e-05 53:0.000245 54:0.000341 57:3.7e-05 58:0.000176 59:0.000885 60:0.000453 61:5e-06 62:8e-05 63:0.00104 64:0.184261 
1 1:0.190139 2:0.004597 3:0.002208 5:0.002459 6:0.010357 7:0.016091 8:0.000565 10:5.3e-05 11:0.000112 12:0.000288 17:0.048304 18:0.000459 19:8e-05 20:2.1e-05 21:0.019931 22:0.139259 23:0.015499 24:0.000608 26:0.005067 27:0.022901 28:0.010907 31:0.000165 32:0.000933 33:0.000512 37:0.003269 38:0.031664 39:0.000805 40:5e-06 42:0.026704 43:0.161275 44:0.020149 47:0.000533 48:0.033739 53:0.024128 54:5.9e-05 57:0.012784 58:0.002512 59:0.003573 60:0.000384 62:8.5e-05 63:0.001221 64:0.185595 
1 1:0.346229 2:0.019904 3:0.001077 5:0.002048 6:0.034037 7:0.018395 8:9.6e-05 10:0.00016 11:0.002576 12:3.7e-05 15:9.6e-05 16:1.6e-05 17:0.012224 18:0.001541 19:0.000117 21:0.022011 22:0.170085 23:0.01696 24:0.002165 26:0.006272 27:0.037717 28:0.003739 31:0.000235 32:0.00088 33:5.9e-05 34:5e-06 37:0.000171 38:0.005936 39:0.002331 40:0.000165 42:0.003728 43:0.095285 44:0.007957 47:0.005653 48:0.012165 53:0.000192 54:0.000117 55:2.1e-05 57:0.000123 58:0.002032 59:0.019019 60:0.003413 61:5e-06 62:5.9e-05 63:0.008832 64:0.134112 
1 1:0.447249 2:0.069141 3:0.003616 4:0.001622 5:0.001021 6:0.046853 7:0.008462 8:0.003033 9:8.4e-05 10:0.000132 11:0.000354 12:0.003177 14:6e-06 16:7.8e-05 17:0.003808 18:0.00203 19:0.00039 20:0.000655 21:0.002036 22:0.075009 23:0.050835 24:0.003538 25:0.00012 26:0.000919 27:0.031087 28:0.009682 29:6e-06 30:3.6e-05 31:4.2e-05 32:0.000979 33:6e-05 34:1.8e-05 35:3e-05 36:6e-06 37:0.001105 38:0.004486 39:0.001489 40:0.00042 41:0.000108 42:0.001435 43:0.05573 44:0.046907 46:5.4e-05 47:0.000222 48:0.031688 49:1.2e-05 50:6e-06 53:4.8e-05 54:8.4e-05 55:6e-06 56:6e-06 57:0.000138 58:0.000667 59:0.003237 60:0.000661 62:7.2e-05 63:0.001423 64:0.08388 
1 1:0.369589 2:0.017355 3:0.000443 4:1.1e-05 5:0.001893 6:0.016869 7:0.005189 8:0.000491 9:6.9e-05 10:0.00016 11:0.000299 12:0.000149 14:9.6e-05 15:0.000144 16:4.3e-05 17:0.019536 18:0.00432 19:0.000123 20:5e-06 21:0.008603 22:0.152645 23:0.014064 24:9.6e-05 25:0.000736 26:0.001893 27:0.01296 28:0.001765 29:0.000112 30:0.000661 31:0.001963 32:0.001573 33:0.004091 34:3.7e-05 37:0.007008 38:0.022219 39:0.004923 40:5e-06 41:0.000229 42:0.005739 43:0.145915 44:0.014539 45:0.000213 46:0.00024 47:0.000715 48:0.006779 53:0.002928 54:3.7e-05 57:0.0004 58:0.000512 59:0.003771 60:0.001435 61:0.000272 62:0.000288 63:0.003904 64:0.139947 
1 1:0.075573 2:0.096283 3:0.009275 5:0.000165 6:0.069872 7:0.051563 8:0.000251 11:1.6e-05 12:1.1e-05 17:0.000192 18:4.3e-05 21:7.5e-05 22:0.217488 23:0.022123 24:5e-06 26:0.000251 27:0.042613 28:2.1e-05 38:3.2e-05 39:3.7e-05 42:0.000117 43:0.389547 44:0.007595 47:0.000939 48:0.0128 59:4.8e-05 60:3.2e-05 63:5.3e-05 64:0.002981 
1 1:0.493269 2:0.019909 3:0.000304 4:0.00016 5:0.002048 6:0.013488 7:0.000891 8:8e-05 10:5e-06 17:0.017563 18:0.019835 21:0.001557 22:0.122171 23:0.012976 24:0.000128 26:0.001328 27:0.029605 28:0.001803 32:5e-06 37:2.7e-05 38:0.002603 39:0.001157 42:0.0004 43:0.050725 44:0.029461 47:0.000304 48:0.111136 54:3.2e-05 59:5.9e-05 60:9.6e-05 63:5.3e-05 64:0.066821 
1 1:0.410366 2:0.025988 3:2.4e-05 5:0.000655 6:0.007766 7:0.001868 17:0.009754 18:0.004216 20:6e-06 21:0.00648 22:0.108036 23:0.011465 24:4.8e-05 26:0.002721 27:0.03761 28:0.000198 37:0.001556 38:0.008649 39:0.001405 40:1.2e-05 41:1.2e-05 42:0.011736 43:0.191574 44:0.001453 47:0.005195 48:0.003868 57:6e-06 58:0.00024 59:0.00391 60:8.4e-05 62:1.2e-05 63:0.016126 64:0.126961 
1 1:0.309628 2:0.045802 3:0.002342 5:0.003447 6:0.036474 7:0.015309 8:0.002625 10:2.4e-05 11:0.000925 12:0.004793 16:4.2e-05 17:0.001778 18:0.000565 19:0.002631 20:6e-06 21:0.005105 22:0.123754 23:0.016462 24:0.000492 26:0.007165 27:0.016396 28:0.004799 32:9e-05 37:3e-05 38:0.004787 39:0.004018 40:0.02806 41:6e-06 42:0.021255 43:0.105165 44:0.013958 47:0.000751 48:0.007009 56:2.4e-05 58:1.8e-05 59:0.014288 60:0.01761 63:0.032541 64:0.149826 
1 1:0.549947 2:0.031525 3:0.002448 4:9.6e-05 5:0.000261 6:0.02632 7:0.024949 8:0.009429 10:1.6e-05 11:0.000411 12:0.020944 16:2.7e-05 17:0.00288 18:0.000613 19:1.6e-05 21:0.004789 22:0.015392 23:0.016416 24:0.000315 25:2.7e-05 26:0.000128 27:0.037477 28:0.043845 32:0.000869 33:0.000187 34:1.1e-05 37:0.006085 38:0.01176 39:0.002315 40:2.7e-05 41:0.000139 42:0.002768 43:0.018912 44:0.046565 45:4.3e-05 47:0.000155 48:0.047141 53:0.000144 54:0.000117 55:1.1e-05 57:0.000384 58:0.001003 59:0.000987 60:0.000608 61:0.000139 62:0.000597 63:0.001216 64:0.069547 
1 1:0.175123 2:0.068914 3:0.004994 4:3.2e-05 5:0.00548 6:0.102222 7:0.043178 8:0.016077 10:0.009558 11:0.011609 12:0.049069 15:0.000101 16:0.000394 18:5e-06 19:0.002632 22:0.018888 23:0.033986 24:0.000645 26:0.00098 27:0.103449 28:0.052475 31:0.000101 32:0.038252 43:0.043118 44:0.014942 47:0.000238 48:0.077305 64:0.126233 
1 1:0.121792 2:0.023269 3:0.000533 4:5e-06 5:0.001589 6:0.067653 7:0.006437 8:8e-05 11:0.002917 12:0.000208 16:0.000347 17:0.005451 18:0.000555 19:9.1e-05 20:2.7e-05 21:0.010789 22:0.202069 23:0.117248 24:0.000693 26:0.000533 27:0.071189 28:0.010965 32:0.00168 33:2.7e-05 37:0.008261 38:0.008336 39:0.000587 40:9.1e-05 41:0.002891 42:0.010005 43:0.092597 44:0.038715 47:0.000261 48:0.048997 53:0.000395 54:7.5e-05 57:0.008731 58:0.021259 59:0.006128 60:0.000261 62:0.011883 63:0.012688 64:0.081691 
1 1:0.238773 2:0.088453 3:0.006379 4:0.000496 5:0.000304 6:0.01016 7:0.004341 8:2.7e-05 17:0.006331 18:0.005824 19:0.000144 20:4.3e-05 21:0.001712 22:0.095947 23:0.06368 24:0.000261 26:2.1e-05 27:0.003013 28:0.000613 33:5e-06 37:0.000117 38:0.002571 39:0.025509 40:3.2e-05 42:0.000453 43:0.231717 44:0.015419 47:1.1e-05 48:0.000603 59:0.007184 60:0.030155 63:0.000352 64:0.159349 
1 1:0.374048 2:0.043664 3:0.001069 4:6e-05 5:0.006679 6:0.034787 7:0.00403 8:5.4e-05 10:6e-06 11:4.8e-05 12:6e-06 17:0.001682 18:0.000637 19:1.8e-05 20:1.8e-05 21:0.002132 22:0.044162 23:0.084721 24:0.000228 26:0.002583 27:0.093279 28:0.001315 38:0.000733 39:0.000342 40:1.8e-05 41:6e-06 42:0.001634 43:0.29191 44:0.004595 47:0.000192 48:0.001111 59:0.000907 60:3.6e-05 63:0.000685 64:0.002607 
1 1:0.693781 2:0.004091 3:0.001184 4:0.001221 5:0.026155 6:0.002155 7:0.00184 8:0.001883 11:1.1e-05 12:0.000256 16:2.1e-05 17:0.026325 18:0.000597 19:0.000139 20:6.9e-05 21:0.140363 22:0.004912 23:0.004928 24:0.003509 25:3.7e-05 26:0.000101 27:0.004293 28:0.006539 32:0.000368 33:0.005616 37:0.002293 38:0.001467 39:0.000309 40:5.9e-05 41:4.8e-05 42:0.001253 43:0.005131 44:0.007008 47:7.5e-05 48:0.012395 49:0.000309 53:0.000565 54:9.1e-05 55:1.6e-05 57:8.5e-05 58:0.001093 59:0.000608 60:0.000261 62:8e-05 63:0.001493 64:0.034965 
1 1:0.042559 2:0.003532 3:6e-06 4:6e-06 5:0.000282 6:0.005405 7:0.002216 17:0.002084 18:9.6e-05 21:0.002793 22:0.314787 23:0.31636 24:5.4e-05 26:0.006 27:0.097279 28:3.6e-05 30:9.6e-05 31:4.2e-05 32:1.8e-05 33:6e-06 37:0.000192 38:0.006204 39:0.000282 42:0.021868 43:0.064066 44:0.000835 46:0.004402 47:0.004571 48:0.000252 53:6e-06 54:2.4e-05 57:1.2e-05 58:0.039441 59:0.012583 60:1.2e-05 62:0.000252 63:0.020468 64:0.030871 
1 1:0.493688 2:0.00961 3:3e-05 5:0.000997 6:0.007435 7:6.6e-05 17:0.002931 18:0.001459 19:6e-06 20:1.8e-05 21:0.001447 22:0.078847 23:0.018547 24:0.000132 26:0.001081 27:0.013135 28:0.002757 37:0.000108 38:0.002468 39:0.005964 40:0.000108 42:0.004018 43:0.170661 44:0.032817 47:0.000168 48:0.00588 54:9e-05 58:0.001652 59:0.010168 60:0.00588 62:7.2e-05 63:0.060649 64:0.067111 
1 1:0.252186 2:0.232287 3:0.001922 4:6e-06 5:0.000491 6:0.074796 7:0.275922 8:0.001581 9:6e-06 11:0.036174 12:0.037329 16:0.000994 17:2.4e-05 18:3e-05 21:7.2e-05 22:0.001096 23:0.001036 24:4.8e-05 26:0.00018 27:0.00409 28:0.044485 30:6e-06 32:0.020892 38:3e-05 39:1.2e-05 42:6.6e-05 43:0.000335 44:0.001455 47:6e-05 48:0.008719 58:6e-06 59:3e-05 63:4.2e-05 64:0.003593 
1 1:0.1761 2:0.038788 3:0.000753 4:1.2e-05 5:0.039253 6:0.018553 7:0.000918 8:3.5e-05 9:0.056341 10:0.002053 11:1.2e-05 12:1.2e-05 13:0.000735 17:0.007541 18:0.0128 19:0.000735 21:0.017471 22:0.061924 23:0.0084 24:2.4e-05 25:0.049718 26:0.065947 27:0.0205 28:4.7e-05 29:0.010118 30:0.018518 31:0.001682 33:2.9e-05 34:0.000376 37:0.004712 38:0.009076 39:0.002688 41:0.003688 42:0.0299 43:0.152388 44:0.003535 45:0.000976 46:0.015929 47:0.055224 48:0.020724 53:6.5e-05 54:2.9e-05 55:0.000641 57:0.003506 58:0.000418 59:0.007888 60:0.000141 61:0.0025 62:0.000212 63:0.008829 64:0.067535 
1 1:0.416347 2:0.026443 3:0.009931 4:0.007408 5:0.009696 6:0.041547 7:0.009285 9:5e-06 10:5.3e-05 11:0.000139 12:5e-06 17:0.004155 18:0.000757 19:0.000469 20:0.000235 21:0.007781 22:0.08696 23:0.03136 24:0.000544 25:5e-06 26:0.001925 27:0.030427 28:0.000133 31:5e-06 32:1.1e-05 36:5e-06 37:0.000688 38:0.01344 39:0.000651 40:0.000325 41:0.000379 42:0.005765 43:0.122336 44:0.007008 47:0.00464 48:0.004064 53:6.9e-05 54:0.001771 57:0.000315 58:0.011371 59:0.006384 60:0.000603 61:1.1e-05 62:6.9e-05 63:0.010283 64:0.124197 
1 1:0.45285 2:0.049263 3:0.006689 5:6e-06 6:0.005587 7:0.058784 8:0.002575 12:0.000198 17:0.018234 18:0.000216 21:0.005156 22:0.005814 23:0.009 24:0.00212 26:3e-05 27:0.001647 28:0.003581 33:0.000449 34:5.4e-05 37:0.080539 38:0.114635 39:0.00012 40:6e-06 41:2.4e-05 42:0.001275 43:0.014766 44:0.038976 47:0.000192 48:0.003671 53:0.007377 54:0.033281 55:4.8e-05 57:3.6e-05 58:0.00176 59:0.001395 60:0.00203 62:2.4e-05 63:0.001263 64:0.076329 
1 1:0.566432 2:0.13576 3:0.019099 4:0.000107 5:6.4e-05 6:0.018709 7:0.086331 8:0.007739 10:1.6e-05 11:0.000816 12:0.006299 16:0.000245 17:0.006299 18:0.007477 19:0.000299 20:6.9e-05 21:0.000283 22:0.012811 23:0.022672 24:0.001387 26:0.000112 27:0.00288 28:0.013088 32:0.003205 33:0.001659 34:0.000299 35:9.6e-05 36:5e-06 37:0.004869 38:0.002565 39:0.001056 40:0.000416 41:1.6e-05 42:0.000197 43:0.005627 44:0.002571 47:0.000405 48:0.005296 49:3.2e-05 50:2.1e-05 53:0.001259 54:0.000624 55:6.9e-05 56:1.1e-05 57:3.2e-05 58:0.000341 59:0.001712 60:0.001141 62:8.5e-05 63:0.00224 64:0.055157 
1 1:0.283351 2:0.001357 5:0.000883 6:0.001562 7:0.000156 10:1.8e-05 15:6e-06 16:6e-06 17:0.033123 18:0.000589 21:0.047495 22:0.220042 23:0.003099 24:0.000102 26:0.002036 27:0.005105 28:0.000517 32:1.2e-05 33:4.8e-05 37:0.00015 38:0.08179 39:0.001117 40:6e-06 41:1.8e-05 42:0.041429 43:0.202138 44:0.008889 47:0.003099 48:0.019892 49:1.2e-05 53:3.6e-05 57:6e-05 58:0.000174 59:0.014823 60:0.000553 61:1.8e-05 62:0.000114 63:0.001562 64:0.024613 
1 1:0.446269 2:0.068479 5:8.6e-05 6:0.031629 7:0.001893 17:0.009374 18:0.002697 21:0.004398 22:0.069429 23:0.05506 24:5.3e-05 26:2e-05 27:0.039979 28:0.023092 32:3.3e-05 37:4e-05 38:0.001375 39:0.000159 42:0.001714 43:0.010211 44:0.032565 47:4.7e-05 48:0.027058 53:1.3e-05 58:0.000286 59:0.001116 60:1.3e-05 62:2.7e-05 63:0.004378 64:0.168507 
1 1:0.120778 2:0.054353 3:0.003012 4:0.001156 5:0.005204 6:0.094713 7:0.019766 8:0.000623 9:0.001072 10:0.003222 11:0.000647 12:0.00024 14:6e-06 15:3e-05 17:0.005725 18:0.001269 19:0.000461 20:0.000102 21:0.004036 22:0.065994 23:0.130491 24:0.000766 25:0.000162 26:0.003329 27:0.103341 28:0.004677 30:3.6e-05 31:0.000162 32:1.2e-05 33:4.2e-05 34:4.8e-05 35:1.2e-05 37:0.000796 38:0.004437 39:0.000665 40:0.000216 41:2.4e-05 42:0.006144 43:0.142449 44:0.02115 46:0.000126 47:0.001275 48:0.012012 49:1.2e-05 53:3e-05 54:1.8e-05 55:1.8e-05 56:2.4e-05 57:1.8e-05 58:0.000659 59:0.006719 60:0.000293 62:4.8e-05 63:0.011778 64:0.165605 
1 1:0.507264 2:0.004405 5:0.005307 6:0.184416 22:0.127344 23:0.009765 26:0.000123 27:0.06352 43:0.052117 44:0.011008 47:1.6e-05 48:0.022277 64:0.012437 
1 1:0.114325 2:0.010096 3:0.008656 4:0.004411 5:0.006805 6:0.037365 7:0.071787 8:0.001056 9:6.4e-05 10:0.000267 11:0.01424 12:0.001984 16:0.000224 17:0.049349 18:0.005365 19:0.001163 20:8e-05 21:0.028507 22:0.237584 23:0.017557 24:0.000309 26:0.000971 27:0.019755 28:0.002368 31:5e-06 32:0.000176 33:0.009163 34:2.7e-05 37:0.094043 38:0.002203 39:0.000432 40:1.1e-05 41:0.001728 42:0.00768 43:0.070389 44:0.025019 46:5e-06 47:0.000373 48:0.090773 53:1.1e-05 54:5e-06 57:0.001883 58:0.015296 59:0.000869 60:8.5e-05 62:5.9e-05 63:0.000571 64:0.044907 
1 1:0.624597 2:0.053563 3:0.000875 5:0.014389 6:0.127888 7:0.002037 8:1.6e-05 10:0.000939 11:0.003072 12:2.1e-05 15:5e-06 16:5e-06 17:0.015397 18:0.001627 19:5e-06 21:0.010539 22:0.042528 23:0.00608 24:0.000123 26:0.000245 27:0.016256 28:0.002725 30:5e-06 31:0.00016 32:0.003419 33:0.000213 34:2.7e-05 37:0.001088 38:0.004725 39:0.000256 40:2.1e-05 41:3.2e-05 42:0.000896 43:0.001024 44:0.000656 46:1.1e-05 48:0.004144 49:5e-06 53:0.000325 54:0.000411 55:5.9e-05 56:5e-06 57:0.000112 58:0.000891 59:0.001307 60:0.000144 61:0.000341 62:0.000165 63:0.002256 64:0.054368 
1 1:0.728643 22:0.20779 43:0.052204 64:0.011363 
1 1:0.167189 2:0.037525 3:0.000661 4:1.1e-05 5:0.053872 6:0.136651 7:0.019856 8:1.6e-05 10:0.005867 11:0.023184 12:0.000773 15:4.3e-05 16:7.5e-05 17:0.009723 18:0.001952 19:0.000443 20:5e-06 21:0.088693 22:0.08928 23:0.041904 24:5.9e-05 25:0.000437 26:0.009685 27:0.05424 28:0.007003 31:0.004352 32:0.040043 33:8.5e-05 34:1.1e-05 37:0.002235 38:0.005616 39:0.000768 40:1.1e-05 41:0.000309 42:0.011179 43:0.080485 44:0.004117 47:0.005755 48:0.008699 53:0.000491 54:0.000512 57:9.1e-05 58:0.001947 59:0.021861 60:0.000683 62:1.1e-05 63:0.017851 64:0.043744 
1 1:0.376277 2:0.036928 3:0.001168 5:0.001077 6:0.0332 7:0.004907 8:4.8e-05 10:2.1e-05 11:0.000139 12:9.1e-05 16:5e-06 17:0.003088 18:0.001675 19:0.000165 20:5e-06 21:0.004309 22:0.061141 23:0.055755 24:8e-05 25:0.000203 26:0.000379 27:0.114544 28:0.029717 29:2.7e-05 30:1.1e-05 32:0.000245 33:8e-05 34:1.1e-05 37:0.00128 38:0.002229 39:0.001019 40:1.1e-05 41:5e-06 42:0.000384 43:0.052736 44:0.067397 47:0.000187 48:0.058949 49:1.1e-05 53:0.018267 54:0.004837 55:3.2e-05 57:0.00096 58:0.007216 59:0.001675 60:0.000528 61:1.1e-05 62:0.000299 63:0.001387 64:0.055285 
1 1:0.645417 2:0.098336 5:0.000288 6:0.073069 7:1.8e-05 17:0.000138 18:1.2e-05 21:0.00027 22:0.09821 23:0.000919 26:0.000138 27:0.000883 28:1.2e-05 38:0.000853 39:9e-05 42:0.000859 43:0.020523 44:0.000925 47:0.000228 48:0.002559 59:0.002384 60:0.000246 63:0.001441 64:0.05218 
1 1:0.151659 2:0.183072 3:0.001563 5:0.001392 6:0.110037 7:0.020507 10:1.6e-05 11:1.1e-05 17:0.000331 18:4.8e-05 21:0.001589 22:0.080299 23:0.104725 26:0.003861 27:0.144667 28:0.000629 31:5e-06 32:1.1e-05 37:6.4e-05 38:0.000155 39:1.6e-05 42:0.004475 43:0.101312 44:0.002336 46:5e-06 47:0.008384 48:0.006405 58:5e-06 59:0.001499 60:8e-05 63:0.006075 64:0.064768 
1 1:0.483109 2:0.007125 3:5e-06 4:2.1e-05 5:0.004592 6:0.048187 7:0.024373 8:6.4e-05 10:3.2e-05 11:0.006315 12:0.001589 16:0.000432 17:0.004736 18:0.000272 21:0.001877 22:0.081968 23:0.001867 24:6.4e-05 26:0.003413 27:0.026277 28:0.002123 31:7.5e-05 32:0.009856 38:0.002693 39:0.000357 42:0.001835 43:0.049109 44:0.004389 47:0.004219 48:0.087125 59:0.002741 60:0.001237 63:0.000699 64:0.137221 
1 1:0.352167 2:0.050361 3:0.005801 4:0.005089 5:0.01607 6:0.054987 7:0.017111 8:0.021218 9:1.6e-05 10:0.00021 11:0.000394 12:0.004706 16:2.7e-05 17:0.00152 18:0.000518 19:8.6e-05 20:0.000232 21:0.003962 22:0.147251 23:0.012474 24:0.004496 25:5e-06 26:0.023714 27:0.02283 28:0.008232 31:5.9e-05 32:0.000447 33:2.7e-05 37:0.00035 38:0.000976 39:0.000323 40:1.1e-05 41:8.1e-05 42:0.021989 43:0.023423 44:0.007569 47:0.000447 48:0.005499 53:5.9e-05 54:5e-06 57:0.000226 58:0.000496 59:0.002361 60:0.000863 62:0.000113 63:0.010868 64:0.170329 
1 1:0.495033 2:0.051646 3:0.001195 4:9e-05 5:0.01997 6:0.005033 7:0.000174 8:6e-06 10:1.8e-05 11:6e-06 17:0.005351 18:0.040547 19:0.000336 20:3.6e-05 21:0.013958 22:0.237291 23:0.002853 24:0.000186 25:0.001255 26:0.01573 27:0.001123 28:3e-05 30:6.6e-05 31:7.2e-05 37:7.2e-05 38:0.01152 39:0.002456 40:4.8e-05 41:0.000408 42:0.016913 43:0.025562 44:0.000751 45:9e-05 46:0.001051 47:0.032955 48:0.000601 58:1.2e-05 59:0.000204 60:4.8e-05 61:1.8e-05 62:0.00012 63:0.00606 64:0.009105 
1 1:0.322501 2:0.080843 3:0.0028 4:0.001381 5:0.000427 6:0.022565 7:0.005451 11:1.1e-05 17:0.001093 18:0.000661 19:0.000139 20:5e-06 21:0.000128 22:0.050336 23:0.066891 24:0.000208 26:0.000315 27:0.060971 28:0.001792 33:0.000128 37:6.4e-05 38:0.000133 39:0.000747 40:1.1e-05 42:0.000117 43:0.18496 44:0.087477 47:0.000171 48:0.047845 57:3.7e-05 58:3.7e-05 59:6.4e-05 60:0.0004 61:1.6e-05 62:2.1e-05 63:5.3e-05 64:0.0592 
1 1:0.501643 2:0.010592 3:0.001163 4:3.2e-05 5:0.000667 6:0.016235 7:0.004779 8:0.000213 9:7.5e-05 10:8e-05 11:0.005013 12:0.000272 15:3.2e-05 16:0.000192 17:0.002907 18:0.00024 19:7.5e-05 21:0.002496 22:0.061307 23:0.007328 24:5e-06 26:0.001019 27:0.030784 28:0.007269 30:5e-06 31:3.7e-05 32:0.014597 33:5e-06 37:0.001045 38:0.005024 39:0.001088 40:5e-06 41:6.9e-05 42:0.003819 43:0.153509 44:0.002005 47:0.000683 48:0.009301 53:0.000171 54:4.8e-05 57:9.1e-05 58:0.000672 59:0.039904 60:0.001136 62:0.000112 63:0.013168 64:0.099088 
1 1:0.425637 2:0.220592 3:0.062037 5:0.002405 6:0.026955 7:0.013845 8:0.001819 11:9.6e-05 12:0.000437 17:2.1e-05 18:5e-06 21:0.000875 22:0.033952 23:0.020016 24:0.000469 26:0.012949 27:0.038789 28:0.007819 31:5e-06 32:3.2e-05 38:3.2e-05 42:0.002 43:0.111307 44:0.008155 47:0.002635 48:0.003541 59:0.000176 63:0.000741 64:0.002656 
1 1:0.279963 2:0.208533 3:0.022368 4:0.000117 5:0.000757 6:0.048389 7:0.158091 8:0.001344 9:1.6e-05 10:5.3e-05 11:0.001467 12:0.001584 16:1.6e-05 17:0.000224 18:0.000421 19:3.2e-05 20:1.6e-05 21:0.000272 22:0.01104 23:0.055712 24:0.002229 26:0.000133 27:0.046336 28:0.085749 31:5e-06 32:0.000672 33:5.9e-05 37:8.5e-05 38:0.000656 39:0.00048 40:8.5e-05 41:5e-06 42:0.000144 43:0.005211 44:0.023861 47:2.7e-05 48:0.023963 53:5e-06 54:5e-06 58:5.3e-05 59:4.8e-05 60:0.000123 62:1.1e-05 63:6.9e-05 64:0.019568 
1 1:0.041988 2:0.073946 3:0.024132 4:0.001189 5:0.000348 6:0.003069 7:0.036444 8:0.002174 10:7.2e-05 11:5.4e-05 17:0.00403 18:0.004997 19:0.000637 20:0.001423 21:0.001267 22:0.048919 23:0.037772 24:0.017754 26:0.001045 27:0.00424 28:0.009099 31:0.000114 32:3e-05 33:1.8e-05 34:6e-06 37:1.2e-05 38:0.007772 39:0.021051 40:0.000577 41:2.4e-05 42:0.004414 43:0.159934 44:0.033123 47:0.000595 48:0.00355 53:4.2e-05 54:0.000108 58:0.000414 59:0.005538 60:0.006378 61:6e-06 62:4.2e-05 63:0.001483 64:0.440168 
1 1:0.136672 2:0.129797 3:0.012635 5:0.001131 6:0.036629 7:0.022549 8:0.001579 9:2.7e-05 10:0.000128 11:0.000181 12:2.7e-05 17:0.009008 18:0.001611 19:0.00016 21:0.005285 22:0.072475 23:0.010491 24:0.000117 25:1.1e-05 26:0.000859 27:0.004091 28:0.000608 31:1.1e-05 32:5e-06 33:0.000155 34:1.1e-05 37:0.001285 38:0.009205 39:0.000597 41:0.000213 42:0.005147 43:0.42176 44:0.077408 47:0.000219 48:0.005317 53:5.9e-05 54:1.6e-05 55:5e-06 57:2.1e-05 58:7.5e-05 59:0.003451 60:0.000197 63:0.001099 64:0.027675 
1 1:0.141739 2:0.018576 3:0.000533 5:0.000891 6:0.020491 7:0.075061 8:0.001237 11:0.006037 12:0.010101 17:0.02336 18:0.008325 19:3.7e-05 20:5e-06 21:0.007728 22:0.08472 23:0.014235 24:0.004837 25:1.6e-05 26:0.000235 27:0.027883 28:0.142331 31:5e-06 32:0.010235 37:0.000112 38:0.004171 39:0.000736 40:0.002528 42:0.002432 43:0.020517 44:0.068565 46:5e-06 47:0.000309 48:0.128656 53:5e-06 54:5e-06 58:0.000363 59:0.001632 60:0.017403 62:5e-06 63:0.001632 64:0.152304 
1 1:0.393163 2:0.050368 5:8e-05 6:0.08584 7:0.000357 10:6.4e-05 11:2.7e-05 17:0.056848 18:9.6e-05 21:0.006651 22:0.192037 23:0.024917 25:0.000112 26:0.000229 27:0.02688 31:5e-06 32:2.1e-05 33:0.000107 37:0.007712 38:0.001541 39:5.9e-05 41:0.000864 42:0.006507 43:0.008096 44:2.1e-05 45:1.1e-05 46:0.000811 47:0.000117 48:4.8e-05 53:0.020224 57:0.015179 58:0.005851 59:0.001915 60:5.9e-05 61:3.7e-05 62:0.003803 63:0.023787 64:0.065557 
1 1:0.434629 2:0.013381 5:0.000885 6:0.005008 17:0.003221 18:0.001195 21:0.003909 22:0.199872 23:0.004987 26:0.008843 27:0.005771 37:0.000421 38:0.027856 39:0.001339 41:6.9e-05 42:0.037653 43:0.21904 44:0.004475 47:2.1e-05 48:1.6e-05 57:5e-06 58:0.002971 59:0.007941 60:0.000133 62:0.000203 63:0.008341 64:0.007813 
1 1:0.118485 2:0.168528 3:0.00952 4:0.000544 5:0.001131 6:0.065403 7:0.188864 8:0.000864 9:0.000528 10:0.000304 11:0.0024 12:0.00056 16:1.1e-05 17:0.001413 18:0.003381 19:0.031552 21:0.001771 22:0.026011 23:0.060699 24:0.000421 25:0.003413 26:0.002939 27:0.043557 28:0.006283 29:5e-06 31:4.8e-05 32:0.000107 33:3.7e-05 34:2.7e-05 37:0.002501 38:0.003525 39:0.00112 40:0.000261 41:0.000176 42:0.001344 43:0.045019 44:0.015627 46:3.7e-05 47:0.005819 48:0.033211 54:5e-06 57:0.000133 58:0.000224 59:0.000581 60:0.000656 62:5e-06 63:0.000395 64:0.150555 
1 1:0.2234 2:0.071392 3:0.01046 4:0.000232 5:0.004888 6:0.0723 7:0.169584 8:0.00094 10:1.2e-05 11:0.001724 12:0.000128 17:0.006452 18:0.000448 19:6.4e-05 20:4e-06 21:0.000356 22:0.018856 23:0.05484 24:0.000204 26:2e-05 27:0.218972 28:0.014812 33:0.00472 34:0.00028 35:6.8e-05 37:0.00164 38:0.002992 39:0.000744 41:8e-06 42:0.00062 43:0.010572 44:0.020472 47:8e-06 48:8e-05 49:0.00072 51:4e-06 53:0.004924 54:0.000652 55:8.8e-05 56:8e-06 57:0.001036 58:0.01672 59:0.004552 60:0.000208 62:0.00406 63:0.00672 64:0.048016 
1 1:0.408575 2:0.08329 3:0.016945 4:0.001405 5:0.000145 6:0.016685 7:0.106815 8:0.12211 11:6e-05 12:0.03403 17:0.00403 18:0.000615 21:0.00027 22:0.00584 23:0.007995 24:0.00607 27:0.004125 28:0.109475 32:0.000735 33:0.000255 34:5e-05 37:0.000235 38:0.001325 39:0.003055 40:5e-06 42:0.000255 43:0.014105 44:0.02917 48:0.004815 53:2.5e-05 54:8e-05 55:2.5e-05 58:0.00162 59:0.00412 60:0.001485 62:5e-06 63:0.00079 64:0.009365 
1 1:0.162575 2:0.003719 3:0.000365 5:0.001078 6:0.001605 7:4.2e-05 10:4.2e-05 11:0.000138 15:3.6e-05 17:0.002425 18:0.000898 19:0.00018 21:0.006623 22:0.125335 23:0.050934 24:0.000251 26:0.002156 27:0.059144 28:6e-06 31:0.000108 32:6e-06 33:6e-05 37:0.004653 38:0.012916 39:0.005084 40:6e-06 41:6e-06 42:0.00282 43:0.358281 44:0.003263 47:0.005401 48:0.000743 53:0.002719 54:0.00497 58:0.034617 59:0.049234 60:0.003928 63:0.01891 64:0.074725 
1 1:0.242917 2:0.054491 5:0.000725 6:0.030155 7:2.7e-05 10:5e-06 17:0.010491 18:0.003477 21:0.000688 22:0.266027 23:0.033717 26:9.6e-05 27:0.00264 33:2.7e-05 37:1.1e-05 38:0.005077 39:0.026208 42:0.000123 43:0.321456 44:6.4e-05 47:1.1e-05 48:5e-06 54:5e-06 58:1.1e-05 59:0.000699 60:0.00016 63:1.6e-05 64:0.000672 
1 1:0.330949 2:0.086379 3:0.006704 4:0.007029 5:0.00256 6:0.05104 7:0.010421 8:0.002965 9:6.9e-05 10:8.5e-05 11:0.003237 12:0.003072 15:2.1e-05 16:0.002123 17:0.011285 18:0.003269 19:0.001152 20:0.000651 21:0.005861 22:0.061424 23:0.068688 24:0.003643 25:0.002016 26:0.002373 27:0.086277 28:0.004875 29:5e-06 30:7.5e-05 31:8e-05 32:0.001797 33:0.000656 34:2.1e-05 36:2.7e-05 37:0.002117 38:0.005429 39:0.002128 40:0.000581 41:0.000331 42:0.003909 43:0.070261 44:0.022773 45:5e-06 46:0.000192 47:0.004352 48:0.043243 49:1.1e-05 53:0.000795 54:0.000133 56:5e-06 57:0.000816 58:0.003253 59:0.005579 60:0.001115 61:5e-06 62:0.000213 63:0.006869 64:0.065051 
1 1:0.251888 2:0.041131 3:0.00616 4:0.000213 5:0.121227 6:0.050667 7:0.012021 8:0.000565 9:0.001723 10:0.028656 11:0.021621 12:0.000587 15:0.001269 16:0.000181 17:0.002421 18:0.000235 19:5.3e-05 20:1.1e-05 21:0.030112 22:0.099515 23:0.000507 24:0.000107 25:0.000688 26:0.009701 27:0.0096 28:0.0004 30:4.8e-05 31:0.000395 32:0.000389 33:0.001733 34:5e-06 37:0.00024 38:0.002427 39:8e-05 41:0.000299 42:0.013835 43:0.224379 44:0.010539 46:1.1e-05 47:0.002379 48:0.003776 49:7.5e-05 53:2.1e-05 54:6.9e-05 55:5e-06 57:3.2e-05 58:0.000139 59:0.003141 60:0.000491 61:2.1e-05 62:5.3e-05 63:0.002933 64:0.041227 
1 1:0.151957 2:0.025547 3:0.006672 4:0.00384 5:0.001328 6:0.026523 7:0.026043 8:0.0016 11:0.00256 12:0.003776 16:5e-06 17:0.008901 18:0.001419 19:0.000944 20:0.000731 21:0.000933 22:0.123269 23:0.033333 24:0.000917 26:0.00192 27:0.122288 28:0.003093 32:2.1e-05 33:0.001264 34:1.1e-05 35:5e-06 36:1.1e-05 37:0.000123 38:0.005237 39:0.003888 40:0.000176 42:0.000677 43:0.382027 44:0.009163 47:0.002704 48:0.008064 49:0.001072 53:0.003115 54:0.000528 55:8.5e-05 56:2.1e-05 57:0.000613 58:0.001184 59:0.002485 60:0.000555 61:5e-06 62:0.000357 63:0.002864 64:0.026144 
1 1:0.072069 2:0.028709 3:3.2e-05 6:0.01608 7:0.012688 17:6.9e-05 18:0.000347 22:0.042283 23:0.216235 24:0.004672 26:5e-06 27:0.108245 28:0.113717 39:2.1e-05 43:0.072763 44:0.308795 48:0.002715 60:5e-06 64:0.000549 
1 1:0.550864 2:0.011963 3:0.000507 4:0.001536 5:0.005083 6:0.024747 7:0.00056 8:0.005755 10:6.4e-05 11:4.3e-05 17:0.006219 18:0.000469 19:0.000107 20:0.000112 21:0.006363 22:0.218731 23:0.004912 24:0.023973 25:2.7e-05 26:0.002747 27:0.005061 28:0.000176 31:0.001221 32:3.2e-05 37:0.000117 38:0.00576 39:0.000309 40:0.002827 42:0.00928 43:0.050405 44:0.004437 47:0.001563 48:0.000805 54:2.1e-05 58:0.000245 59:0.006715 60:0.00184 62:1.1e-05 63:0.002432 64:0.041963 
1 1:0.251003 2:5e-06 5:3.2e-05 17:0.125573 18:0.000187 21:0.088533 22:0.004555 26:0.000149 33:0.000453 34:5e-06 37:0.054299 38:0.039952 39:3.7e-05 41:0.000181 42:0.051333 43:0.001984 46:1.6e-05 47:0.001723 54:0.000101 58:0.083515 59:0.003669 62:0.016096 63:0.186864 64:0.089733 
1 1:0.096677 2:0.004347 3:0.077141 4:0.012341 5:0.005157 6:0.016405 7:0.006571 8:0.004192 9:1.6e-05 10:0.004107 11:0.001285 12:0.004827 15:4.3e-05 16:0.00016 17:0.005541 18:0.001349 19:0.000656 20:0.000331 21:0.012592 22:0.184421 23:0.015024 24:0.002155 25:1.6e-05 26:0.007173 27:0.022677 28:0.035323 31:0.000955 32:0.00256 33:7.5e-05 34:7.5e-05 37:0.000336 38:0.011056 39:0.002181 40:0.000683 41:5.9e-05 42:0.008219 43:0.079643 44:0.084971 47:0.002101 48:0.061307 53:4.8e-05 54:2.1e-05 55:5.3e-05 57:1.1e-05 58:0.000667 59:0.006421 60:0.001851 62:5.3e-05 63:0.006448 64:0.20968 
1 1:0.632155 2:0.099445 3:0.013467 5:2.1e-05 6:0.000571 7:0.029045 8:0.015056 10:5e-06 12:0.018875 16:0.003237 17:0.001008 21:0.000555 22:0.001536 23:0.000235 24:5e-06 26:1.1e-05 27:0.000309 28:0.000155 31:5e-06 32:0.000528 37:0.00048 38:0.00024 39:1.6e-05 41:0.000315 42:0.001136 43:0.006528 44:0.001675 47:0.000149 48:0.003051 57:0.000331 58:0.000779 59:0.000939 60:3.2e-05 61:0.000144 62:0.000571 63:0.005275 64:0.162117 
1 1:0.653771 2:0.009616 5:0.000251 6:0.001285 17:0.003904 18:0.001419 21:0.000464 22:0.018763 23:0.002693 26:9.1e-05 27:0.000464 33:4.8e-05 34:3.2e-05 37:0.000261 38:0.004752 39:0.001317 42:0.001872 43:0.010352 44:0.000155 47:3.2e-05 48:2.1e-05 54:0.000645 55:5.9e-05 56:5e-06 58:0.002197 59:0.030741 60:0.005424 62:5e-06 63:0.003195 64:0.246165 
1 1:0.586275 2:0.034466 3:0.001731 4:0.000143 5:0.056322 6:0.009325 7:0.006824 8:0.000913 9:1.8e-05 10:0.000967 11:0.00043 12:4.2e-05 14:1.8e-05 15:6.6e-05 17:0.022239 18:0.007397 19:2.4e-05 20:6e-06 21:0.063313 22:0.0744 23:0.002776 24:0.002233 25:0.000334 26:0.004125 27:0.005385 28:0.000752 30:0.000161 31:0.010537 32:0.00271 33:6.6e-05 34:5.4e-05 37:0.001451 38:0.026603 39:0.004161 40:2.4e-05 41:0.000131 42:0.008125 43:0.010824 44:0.000513 46:3e-05 47:0.00397 48:0.004328 49:6.6e-05 53:4.2e-05 54:0.001779 55:0.000675 57:3e-05 58:0.007099 59:0.018418 60:0.000925 61:3.6e-05 62:4.2e-05 63:0.004615 64:0.01206 
1 1:0.323216 2:0.028096 3:0.004133 5:0.002005 6:0.007493 7:3.2e-05 17:0.035685 18:0.017467 19:0.00128 20:1.6e-05 21:0.012373 22:0.096379 23:0.001621 24:5.3e-05 26:0.000613 27:0.000645 33:5.3e-05 34:0.000144 35:2.1e-05 37:1.6e-05 38:0.092187 39:0.013861 40:3.7e-05 41:3.7e-05 42:0.027307 43:0.226315 44:0.003061 47:0.002128 48:0.007984 50:0.000117 54:5e-06 55:2.7e-05 57:4.8e-05 58:0.000197 59:0.003584 60:0.00312 62:1.1e-05 63:0.001616 64:0.087013 
1 1:0.063349 2:0.033973 3:0.008224 4:0.000128 5:0.001968 6:0.037989 7:0.009333 8:0.000165 10:5e-06 11:8.5e-05 12:9.6e-05 16:1.6e-05 17:0.001456 18:0.001408 19:0.002699 20:0.001739 21:0.001307 22:0.179067 23:0.049221 24:0.003131 26:0.003851 27:0.025493 28:0.00896 31:1.1e-05 32:0.001403 33:1.1e-05 34:5e-06 35:5e-06 36:2.7e-05 37:0.000347 38:0.002864 39:0.001312 40:0.000581 41:1.1e-05 42:0.006293 43:0.214117 44:0.081915 47:0.000811 48:0.040469 50:1.1e-05 53:5.9e-05 54:6.4e-05 55:5e-06 56:3.7e-05 58:0.000197 59:0.003963 60:0.001675 62:5e-06 63:0.003483 64:0.206656 
1 1:0.602117 2:0.098277 3:0.000144 5:0.000885 6:0.015456 7:0.009845 8:0.000267 9:1.1e-05 13:1.1e-05 17:0.019211 18:0.002965 19:5.3e-05 20:1.6e-05 21:0.024096 22:0.046725 23:0.004288 24:0.005984 25:5.9e-05 26:0.000869 27:0.000229 28:0.006448 29:4.8e-05 33:8.5e-05 37:0.000677 38:0.006261 39:0.001675 40:0.000107 41:4.3e-05 42:0.008117 43:0.001893 44:0.00808 45:0.000357 46:5e-06 47:8e-05 48:0.001109 53:0.001552 54:3.7e-05 55:6.9e-05 57:0.00368 58:0.002811 59:0.003803 60:0.002149 61:0.001717 62:0.003152 63:0.010816 64:0.103717 
1 1:0.139666 2:0.046848 3:0.19463 4:0.000192 5:0.005319 6:0.014814 7:0.001987 10:1.3e-05 11:2.5e-05 17:0.001073 18:0.034021 19:0.001486 20:2.1e-05 21:0.001833 22:0.133495 23:0.04076 24:0.000367 26:0.002242 27:0.004242 28:2.5e-05 38:0.003365 39:0.003562 40:0.00053 42:0.017173 43:0.325094 44:0.003737 47:0.004806 48:0.000839 59:0.00466 60:0.001311 63:0.002276 64:0.009587 
1 1:0.112024 2:0.049042 5:0.001552 6:0.034788 17:0.004436 18:0.005067 21:0.002691 22:0.253891 23:0.021406 26:0.002303 27:0.003976 37:0.000267 38:0.020533 39:0.005721 42:0.020291 43:0.387442 44:0.001455 47:0.000897 48:0.001067 54:0.009673 55:2.4e-05 58:0.00383 59:0.015879 60:0.000194 63:0.002788 64:0.038764 
1 1:0.252885 2:0.044064 5:0.012288 6:0.028955 17:0.00056 18:0.000208 21:0.005013 22:0.300715 23:0.084064 26:0.004352 27:0.044176 38:0.000213 39:0.001067 42:0.003253 43:0.142779 44:0.014389 47:9.6e-05 48:0.005376 59:0.000219 60:0.00144 63:0.000128 64:0.05376 
1 1:0.093685 2:0.080037 3:0.048603 4:0.031664 5:5e-06 6:0.003445 7:0.047093 8:0.286651 11:0.000107 12:0.068464 16:3.2e-05 18:4.8e-05 19:1.1e-05 20:1.1e-05 22:0.002336 23:0.0044 24:0.007029 26:2.7e-05 27:0.000944 28:0.136432 32:0.028384 38:0.000421 39:0.000325 42:0.000224 43:0.001195 44:0.005584 47:5e-06 48:0.073659 58:0.000128 59:0.000373 63:0.000256 64:0.078421 
1 1:0.381627 2:0.138128 3:0.013701 4:0.000485 5:0.000768 6:0.089531 7:0.003237 8:0.002811 11:0.000208 12:0.000475 16:4.3e-05 17:0.000661 18:0.005888 19:0.000128 20:1.6e-05 21:5.3e-05 22:0.106613 23:0.043872 24:0.001088 26:0.000101 27:0.020224 28:0.003419 31:5e-06 32:0.000405 33:1.1e-05 34:1.1e-05 35:2.1e-05 37:2.7e-05 38:0.000469 39:0.000603 40:0.000117 42:1.6e-05 43:0.033819 44:0.016581 47:5e-06 48:0.008677 52:5e-06 54:5e-06 56:1.6e-05 59:0.000315 60:0.000325 63:8e-05 64:0.125408 
1 1:0.203545 2:0.19514 3:0.00823 4:3e-05 5:2e-05 6:0.030075 7:0.054165 8:0.047105 11:4e-05 12:0.025465 16:1.5e-05 17:0.002555 18:0.004275 21:1.5e-05 22:0.0114 23:0.00894 24:0.002325 26:2e-05 27:0.002265 28:0.10405 32:0.0233 38:0.002075 39:0.00263 42:0.00069 43:0.02177 44:0.02818 47:9e-05 48:0.11683 58:5e-06 59:0.00924 60:0.000155 63:0.013845 64:0.081515 
1 1:0.112108 2:0.007093 3:2.6e-05 5:0.004711 6:0.025186 7:0.010113 10:1.5e-05 17:0.000485 18:5.2e-05 21:0.007144 22:0.190593 23:0.054124 26:0.006665 27:0.028624 28:0.000119 37:5e-06 38:0.003077 39:0.000149 40:5e-06 42:0.018768 43:0.460995 44:0.001294 47:0.002371 48:0.008603 58:2.1e-05 59:0.008969 60:0.000412 63:0.00449 64:0.043784 
1 1:0.342741 2:0.052816 3:0.02456 4:0.000331 5:6.9e-05 6:0.096533 7:0.014709 8:0.001541 10:0.000117 11:0.00064 12:0.000624 16:0.001643 17:0.032581 18:0.001691 19:0.000133 21:0.000789 22:0.057824 23:0.037941 24:0.001088 26:0.000496 27:0.048928 28:0.014779 31:0.000101 32:0.004112 38:0.000608 39:5.9e-05 42:4.8e-05 43:0.013115 44:0.018427 47:5e-06 48:0.155792 58:5.3e-05 59:0.001317 60:0.000501 62:1.6e-05 63:0.000747 64:0.072523 
1 1:0.234462 2:0.062174 3:0.000396 4:0.000102 5:0.006348 6:0.055483 7:0.007201 8:4.8e-05 17:0.001874 18:0.000402 19:1.8e-05 20:2.4e-05 21:0.004288 22:0.191574 23:0.150252 24:7.2e-05 26:5.4e-05 27:0.163562 28:0.005784 33:2.4e-05 34:6e-06 37:0.000246 38:0.002775 39:0.00018 40:2.4e-05 41:6e-06 42:0.003075 43:0.037159 44:0.021183 47:3.6e-05 48:3.6e-05 53:2.4e-05 54:1.2e-05 55:1.2e-05 57:6e-06 58:0.000126 59:0.00239 60:0.000348 62:6e-06 63:0.005796 64:0.042408 
1 1:0.361089 2:0.061381 3:0.00565 4:0.00051 5:0.00157 6:0.027822 7:0.011484 8:0.004871 11:5.7e-05 12:0.026567 16:2.3e-05 17:0.008871 18:0.000476 19:2.9e-05 20:0.000361 21:0.003765 22:0.065994 23:0.010309 24:0.006802 26:0.000464 27:0.010711 28:0.041685 32:0.006172 33:0.004888 37:0.005192 38:0.008097 39:0.000401 40:8.6e-05 41:0.000556 42:0.016974 43:0.075221 44:0.006602 47:0.000516 48:0.017255 49:2.3e-05 53:0.008722 54:0.001278 57:0.004258 58:0.027639 59:0.016951 60:0.000338 62:0.007725 63:0.088103 64:0.05251 
1 1:0.187319 2:0.129272 3:0.001391 5:0.000907 6:0.063379 7:0.001469 10:4.8e-05 11:6e-06 17:0.000304 18:0.000281 21:0.000651 22:0.135206 23:0.080084 24:6e-06 26:0.0008 27:0.060758 28:0.000149 38:0.003445 39:0.000227 42:0.002842 43:0.304687 44:0.007307 47:0.000233 48:0.006537 59:0.004012 60:1.2e-05 63:0.002758 64:0.00591 
1 1:0.142667 2:0.017357 3:6e-06 5:0.00012 6:0.02042 7:0.006769 17:1.2e-05 18:1.2e-05 22:0.010829 23:0.031093 26:4.8e-05 27:0.128108 28:0.094787 43:0.020727 44:0.102517 47:7.2e-05 48:0.216601 59:0.020252 63:0.002324 64:0.185279 
1 1:0.249856 2:0.043893 3:0.003568 4:0.000699 5:0.000373 6:0.03976 7:0.016805 8:0.000411 10:0.001424 11:0.002128 12:0.000384 16:3.2e-05 17:0.001088 18:0.000181 21:0.000539 22:0.03496 23:0.034368 24:0.000341 25:5e-06 26:0.004971 27:0.108283 28:0.022352 31:0.000176 32:0.000576 37:8.5e-05 38:0.000629 39:9.1e-05 42:0.000832 43:0.096432 44:0.108731 47:0.000533 48:0.155237 58:1.1e-05 59:0.001803 60:2.1e-05 62:1.6e-05 63:0.000469 64:0.067936 
1 1:0.231755 2:0.137077 3:0.00136 4:5e-06 5:1.1e-05 6:0.054336 7:0.190965 8:0.007525 11:0.016 12:0.024491 16:0.000123 17:1.6e-05 18:3.7e-05 21:0.000443 22:0.002261 23:0.005947 24:0.000453 26:1.1e-05 27:0.028901 28:0.113589 32:0.046613 39:5e-06 42:2.1e-05 43:0.00024 44:0.001328 48:0.134432 64:0.002053 
1 1:0.815313 2:0.031916 5:1.2e-05 6:0.063337 7:0.001773 10:6e-06 11:4.8e-05 15:2.4e-05 16:2.4e-05 17:0.009403 18:0.001427 21:0.000752 22:0.016824 23:0.008579 26:6e-06 27:0.006806 28:6e-06 31:6e-06 32:2.4e-05 33:0.002585 34:3.6e-05 37:0.001057 38:0.000955 39:1.8e-05 41:0.000257 42:0.000418 43:0.000979 44:1.2e-05 46:6e-06 47:4.8e-05 48:1.2e-05 49:0.001099 50:6e-06 53:0.001349 54:0.000364 57:0.000633 58:0.000878 59:0.00086 60:1.8e-05 61:2.4e-05 62:0.001755 63:0.002501 64:0.027845 
1 1:0.739123 2:0.113832 3:0.001069 5:0.000336 6:0.013213 7:0.00012 17:0.081616 18:0.013177 19:6.6e-05 21:0.002583 22:0.026877 23:0.001273 24:0.000156 27:0.000162 28:0.00042 37:4.8e-05 38:0.000144 39:0.000306 40:6e-06 41:6e-06 42:8.4e-05 43:0.002901 44:0.000607 47:6e-06 48:1.2e-05 59:4.8e-05 60:0.000252 63:6e-06 64:0.00155 
1 1:0.0167 2:2.5e-05 5:0.000725 6:0.001 17:0.0083 18:0.00015 21:0.007567 22:0.698842 23:0.000492 26:0.022125 27:0.002842 33:8e-06 37:0.007233 38:0.018108 39:0.000575 41:8e-06 42:0.017275 43:0.030017 47:8.3e-05 48:8e-06 53:0.002117 54:0.004592 55:0.000575 57:0.000367 58:0.015708 59:0.003475 60:9.2e-05 62:0.001633 63:0.004275 64:0.135083 
1 1:0.529623 2:0.023395 3:0.000216 5:0.000557 6:0.009832 7:0.000275 17:0.006832 18:0.000701 19:1.8e-05 21:0.004581 22:0.179287 23:0.015102 24:6e-06 26:0.002395 27:0.005862 37:2.4e-05 38:0.021653 39:0.000293 40:6e-06 42:0.075269 43:0.102766 44:3.6e-05 47:6e-06 48:2.4e-05 59:0.004323 63:0.006395 64:0.010521 
1 1:0.039525 2:0.023653 5:0.000272 6:0.105803 7:0.018965 17:0.002629 18:0.000299 21:0.008117 22:0.268208 23:0.08952 26:0.001163 27:0.170224 28:0.001061 37:0.000725 38:0.008133 39:0.002715 42:0.006352 43:0.164832 44:0.001387 47:0.000208 48:0.001595 54:5e-06 58:6.9e-05 59:0.015344 60:0.000331 63:0.011355 64:0.057509 
